0.230891272425652
0.272893756628036
0.163088366389275
-0.090706266462803
0.839718043804169
-0.027972318232059
0.243228197097778
0.047836061567068
0.248110607266426
0.327914446592331
0.094715073704720
0.172330841422081
0.173332318663597
-0.962031424045563
-0.277770668268204
-0.397953510284424
0.341118484735489
0.156637668609619
0.565080225467682
-0.087996177375317
0.156224012374878
0.178080230951309
0.440013587474823
0.555348277091980
-0.041278596967459
-0.055482566356659
0.090756922960281
0.065387338399887
-0.082744173705578
0.397735208272934
0.686850011348724
0.241538628935814
0.504514515399933
0.384760737419128
0.174296960234642
0.535844683647156
-0.145929664373398
0.195473328232765
0.253952801227570
0.047214113175869
0.191638067364693
-0.535412013530731
-0.124026119709015
0.248112887144089
0.408543199300766
0.138850107789040
0.005293555092067
-0.232865348458290
-0.020639665424824
-0.506790339946747
-0.440972268581390
-0.561999142169952
-0.509008467197418
-0.663536429405212
-0.361689269542694
-0.757156014442444
-0.629881978034973
-0.696640968322754
-0.651724815368652
-0.915120363235474
