-0.142623797059059 0.061440203338861 0.287673950195312 -0.481586366891861 -0.035342793911695 0.121397145092487 -0.223351448774338 -0.459327131509781 -0.018196145072579 -0.073616974055767 -0.277859091758728 -0.333235889673233 -0.208734959363937 1.001214981079102 -0.024145934730768 -0.634593963623047 0.100199714303017 0.244029119610786 0.064279399812222 -0.351308017969131 0.170307561755180 0.000947288179304 -0.045584481209517 -0.046829391270876 0.362416058778763 0.238877207040787 0.030818624421954 -0.025041667744517 0.081684976816177 -0.071439102292061 1.233780741691589 0.268976777791977 -0.048941150307655 -0.289981961250305 -0.300832569599152 0.076665423810482 -0.011512831784785 -0.414649188518524 -0.256365984678268 -0.307302772998810 0.211246401071548 0.103801198303699 -0.032412737607956 -0.166574478149414 0.289850264787674 -0.115200825035572 0.014708022587001 -0.024133397266269 0.022744938731194 -0.120502747595310 0.204818040132523 0.251034379005432 -0.240744888782501 0.207834526896477 -0.243790939450264 0.834962904453278 0.180597007274628 0.054235085844994 0.050076950341463 0.378599405288696 0.767970204353333 -0.329268187284470 -0.252957344055176 -0.185937896370888 0.063405089080334 0.569223761558533 0.247089102864265 -0.365508168935776 -0.140863806009293 0.007021241355687 0.401150405406952 0.067900516092777 -0.212759703397751 0.318004459142685 0.196144983172417 0.080131210386753 -0.293173789978027 0.004969591274858 -0.063389457762241 -0.310035169124603 -0.457473129034042 0.772288024425507 0.071913555264473 0.225134447216988 -0.282058745622635 -0.212804317474365 0.143624529242516 -0.006929316092283 -0.442672073841095 0.024826359003782 -0.142775118350983 0.070477262139320 -0.274542301893234 0.045086536556482 -0.184811532497406 -0.393099159002304 0.099147245287895 -0.212595239281654 0.389075815677643 0.317243754863739 -0.124889850616455 -0.222859278321266 -0.211866557598114 -0.348075926303864 -0.027661276981235 0.144299790263176 0.081463761627674 -0.234222367405891 0.019819132983685 -0.039953354746103 0.064749307930470 -0.233540087938309 0.050276670604944 0.114596866071224 0.034194774925709 -0.093683920800686 -0.690419554710388 -0.054475199431181 -0.325038313865662 -0.256145209074020 -0.033204395323992 -0.080134361982346 -0.151523590087891 -0.219427406787872 -0.272521883249283 -0.354327410459518 0.571621835231781 0.063058987259865 -0.260124742984772 0.202285379171371 0.025814861059189 0.058767579495907 0.115586914122105 0.011603596620262 -0.004448538646102 -0.052128359675407 0.123847506940365 -0.423490077257156 -0.174997419118881 -0.445755839347839 -0.129865556955338 -0.058107249438763 -0.078682504594326 -0.078234218060970 -0.176449209451675 0.074926830828190 -0.118564918637276 0.229500502347946 0.549559473991394 0.120233818888664 0.278541326522827 0.307100504636765 0.618167161941528 -0.174278005957603 -0.293548345565796 0.539823710918427 -0.173374891281128 0.342558354139328 0.339210838079453 -0.041227683424950 -0.177930355072021 -0.213032200932503 -0.150692522525787 -0.182673409581184 -0.062630079686642 -0.351070255041122 0.163516342639923 -0.051193486899137 -0.275484174489975 -0.042299523949623 -0.315242648124695 0.298967331647873 0.376342505216599 -0.135063365101814 -0.128954514861107 0.218179464340210 -0.039696633815765 -0.072331823408604 -0.297737598419189 -0.118439286947250 0.204044714570045 1.059015750885010 0.546234726905823 -0.120518967509270 -0.382653117179871 0.224865511059761 0.026351490989327 -0.017942328006029 -0.324051678180695 0.139202147722244 0.152331531047821 0.086432188749313 0.063366793096066 0.100604400038719 -0.191528558731079 0.038883622735739 0.156013354659081 0.428867459297180 0.301634967327118 -0.253562301397324 0.215656876564026 -0.328587293624878 -0.238481655716896 0.613974809646606 0.067319102585316 -0.044619940221310 0.303243517875671 0.480399370193481 0.001580343581736 -0.123557835817337 -0.038269545882940 0.133698329329491 0.063208438456059 -0.294321417808533 0.124638311564922 -0.193545281887054 -0.510381877422333 -0.064839832484722 -0.747483730316162 0.010781564749777 -0.078660987317562 0.115020669996738 -0.242167502641678 0.457582622766495 -0.358713865280151 0.404135078191757 0.185215562582016 -0.222447469830513 0.305116951465607 -0.632619738578796 0.259652465581894 -0.254331558942795 -0.325769096612930 -0.164145529270172 1.363994121551514 -0.256605088710785 0.762721061706543 -0.292859852313995 0.389838218688965 1.037369847297668 0.564930737018585 0.110025495290756 -0.304395586252213 -0.064204618334770 -0.030851209536195 0.207668781280518 1.130484461784363 -0.360693335533142 0.004141203127801 -0.449117809534073 -0.088902018964291 -0.039296794682741 -0.020004678517580 0.241459757089615 -0.381319552659988 -0.080567978322506
-0.237520784139633 0.399492859840393 0.233401656150818 -0.546107351779938 -0.224135354161263 0.093393348157406 0.083207629621029 0.252821832895279 0.303833842277527 -0.267606735229492 -0.362396270036697 -0.483083933591843 -0.012395330704749 -0.382863879203796 -0.194952204823494 -0.097092986106873 0.135364800691605 0.254401504993439 0.110412523150444 -0.420106232166290 0.213099971413612 -0.002475313842297 0.208687275648117 0.030931055545807 0.414442807435989 -0.450503796339035 -0.273050189018250 0.048077277839184 0.159578993916512 -0.231966927647591 -0.444114863872528 0.006503682583570 -0.016316648572683 -0.323741346597672 -0.168975457549095 0.063951529562473 -0.581154406070709 -0.523578345775604 0.264883428812027 -0.075559765100479 -0.701704204082489 0.002596263540909 0.384604573249817 -0.359081536531448 0.054864339530468 0.069334194064140 -0.074554026126862 0.058370627462864 -0.075238771736622 0.494053721427917 -0.193504348397255 -0.071040146052837 -0.068317890167236 0.278380721807480 0.265605807304382 -0.255594491958618 0.114453583955765 -0.113385394215584 0.040709182620049 0.857562780380249 0.247626557946205 -0.219354346394539 -0.162743851542473 -0.450521707534790 -0.104171752929688 -0.098674625158310 -0.103397369384766 0.248356163501740 0.362215131521225 -0.221281498670578 0.455341219902039 -0.107495024800301 -0.841015040874481 0.711285948753357 0.159087002277374 0.129178985953331 -0.198328286409378 -0.059191998094320 -0.309288978576660 -0.051404330879450 -0.020145414397120 0.095366239547729 0.111529625952244 0.364087015390396 0.085045672953129 -0.152643397450447 0.001077885972336 0.049161031842232 0.148309513926506 -0.133475661277771 -0.033968467265368 -0.123044133186340 -0.061197642236948 -0.002984629711136 0.082615792751312 0.570074558258057 -0.306036710739136 -0.211712688207626 0.065548092126846 0.033999193459749 -0.623444557189941 0.000891427684110 -0.122401051223278 0.155097305774689 -0.256471514701843 0.065302789211273 0.099586099386215 0.095897793769836 0.958319127559662 0.144765973091125 -0.086148463189602 -0.346876561641693 0.064783215522766 0.103272974491119 0.052357979118824 0.270389169454575 -0.378111273050308 -0.218626454472542 -0.094960145652294 0.277531683444977 -0.170407459139824 -0.087227001786232 0.213668808341026 0.294748306274414 -0.266157269477844 0.510397791862488 0.459947586059570 0.108463726937771 0.300051242113113 0.295618146657944 -0.015140821225941 0.115471124649048 0.198474481701851 0.046328596770763 -0.198995903134346 0.396411806344986 -0.026319153606892 -0.001381404465064 -0.527555704116821 -0.070584423840046 -0.311707645654678 0.139740258455276 0.711770713329315 -0.062423687428236 -0.490332633256912 0.057505659759045 -0.169970214366913 0.397861629724503 -0.260445088148117 0.118758752942085 -0.122700244188309 -0.822409391403198 0.996049225330353 0.005417630076408 -0.579099178314209 0.585972547531128 -0.109296269714832 0.393786966800690 -0.585462927818298 -0.252772539854050 -0.359156191349030 0.420515894889832 -0.200434848666191 -0.288734018802643 -0.044975537806749 -0.059933513402939 0.017961146309972 -0.120133996009827 -0.601542413234711 -0.169222488999367 -0.374309211969376 0.405913412570953 0.311715066432953 0.170431613922119 -0.430519431829453 0.433402240276337 0.127088740468025 -0.085031770169735 -0.209372878074646 -0.131928205490112 -0.009435988031328 0.897736728191376 0.486762732267380 0.102406896650791 0.084346279501915 0.038358032703400 0.055127367377281 -0.120475634932518 -0.204205721616745 0.123435959219933 -0.710779726505280 0.537804007530212 -0.493352055549622 0.516496777534485 0.030140444636345 -0.016959048807621 0.099925406277180 -0.185897141695023 0.215598031878471 -0.012538575567305 -0.151265323162079 -0.249898403882980 0.490628302097321 0.504954874515533 -0.314466297626495 -0.090509779751301 0.153407663106918 0.521751761436462 -0.321502059698105 -0.257845461368561 0.258110553026199 0.273814082145691 0.057621441781521 0.167113363742828 0.177296116948128 0.046966239809990 0.137082293629646 -0.049848333001137 -0.283092141151428 -0.024314960464835 0.297154903411865 0.326679736375809 0.197681099176407 0.270547747612000 0.330657362937927 0.195207953453064 0.129476070404053 -0.257204204797745 0.065605849027634 -0.184115096926689 -0.293640822172165 -0.268048614263535 -0.282414734363556 -0.396397501230240 0.689883112907410 0.074022099375725 0.506230294704437 -0.085991166532040 0.435024678707123 0.878754615783691 0.148253023624420 -0.586451053619385 0.419436842203140 0.055721804499626 0.345013886690140 0.203044787049294 0.863841295242310 -0.320426315069199 0.359885364770889 -0.044765274971724 -0.176850080490112 0.198357731103897 0.034510932862759 -0.255250841379166 -0.523759603500366 -0.330677688121796
-0.279064476490021 0.016972716897726 0.524329721927643 -0.326707273721695 -0.467131465673447 -0.016879091039300 -0.287998557090759 0.106961823999882 0.116244673728943 -0.001162734581158 -0.188023149967194 -0.396263360977173 -0.043758139014244 0.936525464057922 -0.555798828601837 0.339250653982162 0.064013533294201 -0.506322145462036 0.117356412112713 -0.178376242518425 0.086769476532936 0.264687806367874 -0.067783631384373 0.008280262351036 0.224449232220650 0.470063388347626 -0.290166079998016 -0.003457936225459 0.056081660091877 -0.232001721858978 0.554148018360138 -0.486866801977158 0.242462038993835 -0.439371764659882 -0.263160347938538 0.024040529504418 -0.293110787868500 -0.132771402597427 0.212704420089722 0.004872101824731 0.630392551422119 0.059642046689987 0.619898736476898 -0.296330869197845 0.277617454528809 -0.022531777620316 -0.356248021125793 0.131877020001411 -0.044033750891685 0.316424489021301 -0.012639967724681 -0.381721377372742 -0.087731905281544 -0.289663851261139 -0.044999040663242 0.039155073463917 0.540167808532715 -0.350125700235367 0.065577358007431 0.024437226355076 -0.301177978515625 -0.104995019733906 -0.304736077785492 0.467383503913879 -0.061319965869188 -0.222442284226418 0.342024952173233 -0.428943693637848 -0.510556161403656 -0.179171845316887 -0.404482245445251 -0.208292424678802 0.057982351630926 0.202209070324898 -0.077888533473015 0.118006266653538 -0.151804104447365 -0.192109733819962 0.041168689727783 -0.081335417926311 -0.010645915754139 0.366602629423141 0.036233574151993 -0.268145918846130 0.468800455331802 -0.053383752703667 0.177172318100929 0.109135128557682 0.073763705790043 -0.029355905950069 -0.099201716482639 -0.107389487326145 -0.259305149316788 0.132577717304230 -0.170455217361450 -0.210025370121002 0.000923532817978 -0.269366323947906 0.395344287157059 0.146721526980400 -0.306127011775970 -0.032515484839678 0.063313692808151 -0.242192998528481 -0.092333279550076 0.320966392755508 0.020342651754618 0.158057957887650 -0.001411792589352 0.866144955158234 -0.473363012075424 0.210535049438477 0.107792168855667 0.100255250930786 0.113371551036835 -0.008564020507038 0.235386505723000 -0.266727805137634 -0.393849313259125 -0.497635722160339 -0.126864761114120 -0.380366384983063 -0.114159367978573 0.473798185586929 -0.115786343812943 0.341142594814301 0.170903772115707 0.100997909903526 0.129844129085541 0.379067838191986 0.181635409593582 0.064084693789482 0.134799033403397 -0.031417317688465 0.236710399389267 0.245681926608086 -0.229090452194214 -0.219009295105934 0.414795130491257 0.295505940914154 0.025474123656750 0.007919010706246 -0.295630753040314 -0.185851126909256 0.039140332490206 0.228586301207542 -0.316065371036530 -0.191447675228119 -0.438721567392349 0.150854632258415 -0.302448272705078 0.342200428247452 0.001706904382445 0.185120820999146 0.155270978808403 -0.314347684383392 -0.204295203089714 -0.024181997403502 -0.196640506386757 0.106682948768139 -0.097984977066517 -0.152416259050369 -0.355537682771683 0.139666035771370 0.515393912792206 -0.142562642693520 0.027812428772449 -0.363370299339294 0.093003399670124 -0.112409442663193 -0.125113978981972 -0.042101591825485 -0.299359798431396 -0.353299111127853 -0.484654009342194 0.319186806678772 -0.117299027740955 -0.269110918045044 -0.367721796035767 0.142003834247589 -0.185760542750359 0.187944903969765 0.891633629798889 -0.062776125967503 -0.077192097902298 0.255494385957718 0.111139521002769 0.289009064435959 -0.328119874000549 0.256780326366425 0.159884825348854 0.534758985042572 -0.457907855510712 -0.015000921674073 0.024090092629194 -0.048477664589882 0.021102473139763 0.122779913246632 0.822573363780975 -0.165805131196976 -0.351898849010468 -0.425605893135071 -0.078037284314632 0.156334057450294 0.303659707307816 0.043947838246822 0.252046674489975 0.593142449855804 0.013910135254264 0.214031189680099 -0.039004608988762 0.127037510275841 0.076515085995197 -0.411673694849014 0.112246558070183 0.167901650071144 -0.003474656725302 -0.017719136551023 -0.041569013148546 0.153980627655983 0.135130956768990 -0.225916758179665 -0.410709232091904 -0.316872119903564 -0.211015224456787 0.489691406488419 0.041029419749975 -0.219801887869835 0.114455342292786 -0.156018048524857 0.068086393177509 0.216737464070320 0.053824458271265 -0.375511735677719 0.725395262241364 -0.207636222243309 0.874280691146851 -0.106891095638275 0.926740169525146 0.683353364467621 -0.173883780837059 0.259982824325562 0.269910037517548 -0.038033027201891 0.322109192609787 0.511606693267822 0.946201026439667 -0.717554152011871 -0.015479758381844 -0.222495615482330 -0.401984989643097 -0.024294586852193 0.083796396851540 0.122306443750858 -0.071576915681362 0.369715631008148
0.090646155178547 0.028839260339737 0.238594949245453 0.177933752536774 0.143882215023041 0.104143939912319 -0.006226649973541 0.365937054157257 0.251547217369080 -0.045774791389704 -0.257382422685623 -0.146890386939049 -0.339446485042572 0.120210967957973 0.403149247169495 0.489411532878876 -0.118732646107674 -0.196248397231102 0.031861726194620 -0.395972162485123 -0.076546870172024 -0.172647684812546 -0.062492854893208 0.010666883550584 0.080338932573795 0.170239388942719 0.844493329524994 -0.120769985020161 -0.065896369516850 0.184423699975014 -0.052113462239504 -0.038117334246635 0.322402119636536 -0.315579414367676 0.081744946539402 -0.077223800122738 -0.189377039670944 0.060441557317972 -0.200236469507217 -0.245827674865723 0.504649877548218 -0.364748090505600 0.042033392935991 -0.159340560436249 -0.225603535771370 -0.083556756377220 -0.100581213831902 0.040635153651237 0.097512401640415 0.976859807968140 0.385751157999039 0.031480230391026 -0.246692210435867 -0.304242789745331 0.411782920360565 0.810064435005188 0.221762537956238 0.039580401033163 -0.047233331948519 -0.005768175236881 -0.317790478467941 -0.052711326628923 -0.093915544450283 -0.200528293848038 0.591295778751373 0.205550491809845 0.218024834990501 -0.258825093507767 -0.082986302673817 -0.353106170892715 -0.307337015867233 -0.278929412364960 0.095594517886639 0.813229620456696 -0.101769186556339 0.435118436813354 -0.389072746038437 0.141564086079597 -0.201199457049370 0.013971464708447 -0.263749986886978 -0.182035341858864 -0.117323987185955 -0.018206998705864 0.679861128330231 -0.085711061954498 0.463944405317307 -0.345198988914490 0.192846223711967 -0.183925777673721 -0.477676838636398 0.212644115090370 -0.357538402080536 -0.006849790923297 -0.202707126736641 0.261796087026596 -0.308011323213577 0.473391085863113 0.478910446166992 0.318489968776703 -0.204764038324356 -0.174409523606300 -0.177418917417526 -0.240114212036133 -0.263146638870239 0.138007298111916 -0.066762782633305 -0.426450312137604 0.453260809183121 0.083461418747902 -0.138674855232239 0.014019975438714 0.038141608238220 0.438051939010620 0.006442041136324 0.110372878611088 0.465762823820114 -0.252080798149109 -0.470312088727951 0.500599801540375 0.350940763950348 -0.395982384681702 -0.287464827299118 0.657824695110321 -0.261049211025238 -0.405653476715088 -0.145402044057846 -0.022686492651701 0.688126385211945 0.355570554733276 -0.363449573516846 -0.071423232555389 0.017380919307470 -0.068120546638966 -0.116581946611404 0.449537992477417 -0.350838899612427 -0.377792835235596 -0.039813123643398 -0.087324120104313 -0.217830374836922 -0.039753902703524 -0.040893916040659 -0.409876406192780 -0.366238683462143 0.822788476943970 0.149533867835999 -0.021782774478197 0.464767783880234 -0.033525865525007 -0.144529834389687 -0.018781948834658 0.026050023734570 -0.367569833993912 0.141561120748520 0.112143568694592 -0.273556679487228 0.372885435819626 0.641764163970947 -0.084357686340809 -0.146735191345215 0.035379581153393 0.081024825572968 -0.364712655544281 0.517801582813263 -0.236417427659035 0.115580417215824 -0.363649278879166 0.717834532260895 -0.263223767280579 -0.273557633161545 -0.077393919229507 -0.229820564389229 -0.452456831932068 0.673775613307953 0.634830057621002 -0.373036384582520 0.449773371219635 -0.345326602458954 -0.276071608066559 -0.174354344606400 -0.000271697324933 0.259342014789581 -0.321834057569504 -0.018247798085213 0.219031244516373 -0.048684705048800 0.039930272847414 -0.276231706142426 0.481603562831879 0.790922939777374 0.012583610601723 -0.121464788913727 0.095796503126621 -0.279875218868256 -0.060707628726959 0.028948847204447 0.563355922698975 0.132556930184364 -0.265670478343964 0.086542680859566 0.246895536780357 0.235943898558617 0.510475277900696 -0.500640332698822 -0.274054527282715 -0.036792889237404 -0.285502642393112 0.763101875782013 -0.306458383798599 -0.163835868239403 0.661314070224762 0.089418649673462 -0.395377486944199 -0.080663107335567 -0.118136748671532 0.327630847692490 -0.296795666217804 -0.111691854894161 -0.366655647754669 -0.143569886684418 -0.291575878858566 0.826762795448303 -0.109969079494476 -0.128796443343163 0.589812934398651 0.231701806187630 -0.367062062025070 0.385586082935333 0.254981517791748 0.620763421058655 -0.238142386078835 -0.241991862654686 0.097655065357685 0.215762585401535 -0.459053039550781 -0.028798464685678 -0.415090471506119 -0.068552106618881 -0.059468198567629 -0.274546474218369 0.068530999124050 0.130519211292267 -0.134992361068726 0.548716962337494 0.456920087337494 -0.352129429578781 -0.187164813280106 0.188222706317902 -0.326297998428345 0.271891325712204 0.112286217510700 -0.257031559944153 0.701608836650848 0.065630950033665 -0.186819002032280
-0.154200688004494 -0.085404023528099 -0.485840857028961 -0.071305714547634 -0.377779036760330 0.369878441095352 0.165894463658333 -0.157021924853325 -0.096805498003960 -0.775854289531708 0.076270535588264 0.087295167148113 0.588294088840485 -0.130831599235535 -0.132804140448570 -0.324675917625427 0.337784200906754 0.709774613380432 0.256369918584824 0.141772508621216 0.428208321332932 0.506864011287689 0.177054464817047 0.125367075204849 -0.315594255924225 -0.176297962665558 -0.119847074151039 0.202086448669434 0.378699600696564 -0.397005498409271 -0.198147922754288 -0.449794024229050 -0.083451069891453 -0.046747192740440 -0.096707575023174 0.214999288320541 0.209712654352188 -0.222666159272194 0.403720229864120 -0.125412970781326 -0.338875323534012 0.258114755153656 0.049775402992964 -0.239141047000885 0.473179191350937 0.225475609302521 -0.140994191169739 -0.244887039065361 0.038363743573427 -0.405734032392502 -0.291190594434738 0.513063967227936 0.100226454436779 0.979220509529114 -0.405260622501373 -0.546635210514069 -0.074495904147625 -0.004385708831251 0.254261702299118 0.288939714431763 -0.328286796808243 0.025471286848187 0.050215017050505 -0.219828724861145 -0.024733699858189 -0.109651565551758 0.162106722593307 0.004547576885670 0.250688850879669 0.651326477527618 0.021127389743924 -0.260548651218414 -0.295361608266830 -0.524560868740082 0.123921580612659 0.341273665428162 -0.215591207146645 0.174517169594765 -0.602946043014526 0.071347206830978 0.052366904914379 -0.657282054424286 0.289193391799927 0.451088070869446 0.146486341953278 0.127552986145020 -0.420081377029419 0.722361505031586 -0.216648057103157 -0.272167414426804 0.575893402099609 -0.224301576614380 0.530808448791504 0.105901256203651 -0.108184628188610 -0.206508725881577 0.048100817948580 0.022674897685647 -0.384067535400391 0.351163655519485 -0.327221304178238 0.249066263437271 -0.011866380460560 0.078253932297230 -0.691437125205994 0.138209670782089 0.325574755668640 0.448040693998337 -0.157312691211700 0.128788113594055 -0.155222892761230 -0.171019986271858 0.220775008201599 0.596769690513611 0.271930456161499 0.068887837231159 -0.330493509769440 -0.493174761533737 0.371567040681839 -0.283378005027771 -0.230680912733078 -0.055607892572880 0.501095592975616 -0.489841908216476 -0.288965076208115 0.001526065869257 0.317492306232452 0.328340590000153 -0.303774565458298 -0.528287053108215 0.507273435592651 0.307390928268433 0.364561140537262 0.207703784108162 0.272557407617569 -0.230867415666580 0.065737448632717 0.193283990025520 -0.511157870292664 0.150637060403824 0.534994006156921 0.063594512641430 0.234867587685585 0.116479784250259 0.665256023406982 -0.657471001148224 -0.012273651547730 -0.269913166761398 -0.107968233525753 0.264663934707642 0.027450993657112 -0.241159036755562 -0.047393027693033 0.457082211971283 -0.255112707614899 0.252182453870773 0.202986329793930 -0.312971830368042 -0.165460616350174 -0.509091198444366 -0.300539433956146 -0.109991669654846 0.225227937102318 -0.634059011936188 -0.364063590764999 0.407088309526443 0.606394708156586 -0.615960359573364 -0.254222750663757 -0.571115374565125 -0.257251560688019 0.058268833905458 0.179927721619606 0.347724974155426 -0.018859723582864 -0.488757729530334 -0.141381025314331 0.080799393355846 0.147711902856827 -0.142611831426620 0.601757109165192 -0.101663768291473 -0.521381855010986 -0.253003627061844 0.130188688635826 -0.138825669884682 0.206223726272583 -0.009152933955193 0.093385912477970 0.316562980413437 -0.274860501289368 0.230923324823380 -0.031890999525785 -0.110324457287788 0.614073276519775 -0.059647735208273 0.240739867091179 -0.356941878795624 -0.268367558717728 0.413330614566803 0.169501215219498 -0.162587076425552 -0.152447998523712 -0.314945995807648 -0.357600480318069 0.704790711402893 -0.386325865983963 -0.102374851703644 -0.219645023345947 -0.432605564594269 0.216843336820602 0.186173811554909 0.228258237242699 0.513233363628387 0.431771844625473 0.385955721139908 -0.337579250335693 -0.375388234853745 -0.052024558186531 -0.362299889326096 0.306104987859726 -0.191176861524582 0.437055021524429 -0.133092135190964 0.035566329956055 -0.627904534339905 0.576101660728455 -0.325328558683395 -0.190463945269585 -0.199846804141998 -0.419716596603394 -0.503112435340881 -0.238377228379250 -0.070034749805927 -0.385073333978653 0.695492923259735 -0.306617856025696 -0.376604467630386 -0.100920312106609 -0.325088709592819 0.101377472281456 -0.345757842063904 -0.295594632625580 0.267579555511475 -0.489856064319611 -0.580175995826721 -0.129377439618111 0.281573146581650 0.042005348950624 -0.088558338582516 0.076393999159336 -0.752886950969696 0.006379012484103 -0.361438930034637 -0.202041298151016 -0.004306352697313
-0.027610979974270 0.110955119132996 -0.179962083697319 -0.106744438409805 -0.184932366013527 -0.394195675849915 0.120052121579647 -0.015363335609436 0.227012738585472 -0.242188408970833 0.148573562502861 0.795153856277466 0.312764376401901 -0.102225475013256 -0.078608177602291 -0.154071167111397 0.069367960095406 -0.134549498558044 -0.024461388587952 0.172897458076477 0.041492156684399 -0.060946740210056 0.011147313751280 0.035563439130783 -0.323836505413055 0.071224592626095 -0.003658666508272 0.064820989966393 0.042650062590837 0.038669504225254 -0.073943503201008 -0.061134833842516 -0.310144752264023 0.200359910726547 -0.157921642065048 0.032609231770039 0.814976632595062 0.035113330930471 0.575427412986755 0.263937443494797 -0.021088724955916 -0.075631037354469 0.032928843051195 0.785866916179657 0.043485209345818 0.037664625793695 0.004649029579014 0.386288821697235 -0.030491773039103 -0.454257905483246 -0.401107400655746 -0.435060054063797 -0.366521477699280 0.569324374198914 -0.263279378414154 -0.210401937365532 -0.100557796657085 -0.170133620500565 0.012122464366257 -0.200275227427483 0.326778829097748 -0.429359108209610 0.049377400428057 0.102180711925030 -0.383074015378952 -0.006669532973319 -0.096458539366722 0.247267559170723 0.109115272760391 0.465052992105484 0.051350653171539 0.283693164587021 0.024414554238319 -0.242908135056496 -0.002592116827145 -0.287096828222275 1.055546164512634 -0.432131826877594 -0.143631041049957 -0.223726704716682 -0.103186942636967 0.595960736274719 0.073659442365170 -0.484026908874512 0.007666349876672 -0.389069676399231 -0.097291819751263 -0.058623101562262 -0.105918683111668 -0.344497382640839 0.108716093003750 -0.265203475952148 0.428177982568741 -0.354092508554459 0.533635497093201 -0.202978253364563 0.515694081783295 -0.176499396562576 -0.202305525541306 -0.267827272415161 0.587402641773224 -0.496498078107834 0.202828720211983 0.371140450239182 0.394292116165161 -0.056689374148846 0.049412682652473 0.063775055110455 -0.124485291540623 -0.178930506110191 -0.283176511526108 0.123084202408791 -0.029722366482019 -0.360292971134186 -0.049348108470440 -0.016353454440832 -0.103625185787678 -0.155480861663818 0.413080513477325 -0.181798741221428 -0.592541575431824 0.512661397457123 -0.411324828863144 -0.137791767716408 0.126157447695732 0.163070157170296 -0.144089117646217 0.021369183436036 -0.204485028982162 -0.151138499379158 0.013527357950807 0.033972058445215 -0.011915938928723 0.011468599550426 -0.050659757107496 -0.393755137920380 0.210018813610077 0.186960563063622 -0.039752081036568 0.005995987448841 0.530911564826965 -0.012566757388413 0.037235215306282 -0.201927050948143 0.763687610626221 -0.509237468242645 0.016823343932629 -0.446949630975723 -0.077022790908813 0.029398512095213 -0.071780025959015 -0.096581697463989 -0.148080438375473 0.392400741577148 -0.154676154255867 -0.100283272564411 -0.497053146362305 -0.215563341975212 0.023556329309940 -0.226983010768890 0.463161200284958 0.112165458500385 0.096555918455124 0.010813510045409 -0.310836702585220 0.268017023801804 -0.176120460033417 -0.318276524543762 -0.188570424914360 -0.058144964277744 -0.233765661716461 -0.030803930014372 0.434269428253174 0.052934225648642 -0.236307650804520 -0.349953293800354 0.556429147720337 0.048272635787725 0.558935940265656 -0.093227624893188 -0.433466792106628 -0.185008585453033 -0.244193270802498 0.561345458030701 -0.050106089562178 -0.080162659287453 0.012376159429550 0.014646232128143 0.164229094982147 -0.298709034919739 -0.114106111228466 0.091261774301529 0.319765299558640 -0.378220885992050 -0.048399973660707 0.199820980429649 0.013483172282577 -0.102762185037136 -0.037069924175739 -0.484121054410934 0.009345922619104 -0.085068814456463 -0.119971774518490 -0.264811486005783 -0.101623624563217 -0.201397240161896 -0.162169516086578 -0.151337534189224 -0.034130275249481 0.349702745676041 0.036507368087769 -0.414692938327789 -0.033860336989164 0.731791436672211 0.067335590720177 0.029548110440373 -0.136196151375771 0.058336723595858 0.146174281835556 -0.138682931661606 0.031254045665264 0.748116433620453 -0.303070187568665 0.077544085681438 0.169214501976967 -0.438683867454529 -0.411799401044846 0.425652533769608 0.007823332212865 -0.166466161608696 -0.188834965229034 -0.071575641632080 0.321240097284317 -0.032638560980558 -0.309134036302567 0.220239967107773 -0.234414324164391 0.757543623447418 -0.048440612852573 -0.448136538267136 0.099247619509697 -0.145913943648338 -0.165579840540886 -0.098941184580326 -0.213188037276268 -0.212378680706024 -0.325842082500458 0.029276523739100 -0.542725503444672 0.086267642676830 0.062465082854033 0.426310747861862 -0.400057315826416 -0.113116584718227 -0.042885679751635 0.031925912946463
0.400259852409363 0.027264779433608 -0.431989133358002 -0.131109476089478 0.790373921394348 0.086757525801659 -0.167722359299660 0.975741386413574 -0.163927122950554 -0.341013282537460 -0.200350746512413 0.524413764476776 0.129552483558655 -0.352975010871887 0.765208899974823 0.087227202951908 0.202037438750267 -0.063071869313717 0.100453719496727 0.412194609642029 0.238887578248978 -0.231724083423615 0.084815725684166 0.059883929789066 -0.369147509336472 -0.412824600934982 0.223538771271706 0.146960377693176 0.186568200588226 0.465115785598755 -0.376975893974304 0.045033190399408 -0.268280029296875 0.307718485593796 -0.074988752603531 0.117165960371494 0.079492077231407 -0.253450751304626 0.071887746453285 -0.130682051181793 -0.117856271564960 0.101228713989258 -0.428063243627548 0.128437489271164 -0.186453565955162 0.101206786930561 0.597476661205292 -0.248090073466301 -0.067249320447445 -0.539347171783447 -0.239170268177986 0.161594912409782 -0.271130412817001 0.401215851306915 0.599755227565765 0.376609414815903 -0.076501004397869 0.417403757572174 0.142596036195755 -0.274472743272781 0.207171186804771 0.277891665697098 -0.224439486861229 -0.371552079916000 0.131335839629173 -0.214164659380913 -0.079174779355526 0.018988069146872 0.042559374123812 0.325454950332642 0.483904600143433 -0.259008765220642 -0.441578030586243 -0.182205542922020 0.034123912453651 0.285472095012665 -0.110460951924324 0.485066652297974 -0.202274814248085 0.089612141251564 -0.208360508084297 -0.337776929140091 0.145366042852402 0.377296507358551 -0.104437366127968 0.245041579008102 -0.211411863565445 -0.224126949906349 -0.675227582454681 0.057633925229311 -0.010721389204264 -0.175156265497208 0.145088687539101 0.319301486015320 -0.045128911733627 0.559768617153168 0.114646077156067 0.023306392133236 -0.428964674472809 -0.162169829010963 0.096813112497330 -0.009325256571174 -0.328370064496994 1.032737612724304 -0.364043265581131 -0.062274310737848 0.196008354425430 -0.034970223903656 0.267709195613861 -0.312747806310654 0.320707559585571 -0.119241543114185 0.111781045794487 0.229848742485046 0.088070884346962 0.039767507463694 -0.315689414739609 0.218971461057663 0.332304120063782 0.175370305776596 0.261355251073837 0.654311060905457 -0.125092983245850 -0.505953729152679 -0.068873047828674 -0.376619070768356 -0.142061084508896 0.146160066127777 -0.555436789989471 -0.425802499055862 -0.160973757505417 0.162578582763672 0.152989581227303 0.086800895631313 -0.091458447277546 -0.211942747235298 0.233654886484146 0.131391704082489 -0.556227445602417 0.022003700956702 -0.196907356381416 0.127078786492348 -0.143823057413101 0.240746155381203 -0.029385130852461 -0.571673929691315 -0.053615257143974 0.426736295223236 -0.318674236536026 0.127454981207848 0.409865081310272 -0.368094712495804 0.191677972674370 -0.083608083426952 -0.245944291353226 -0.208689406514168 0.204814061522484 -0.217259928584099 -0.075524896383286 -0.220319196581841 -0.122493512928486 -0.524980843067169 -0.252177953720093 -0.436336874961853 -0.456513315439224 -0.051264103502035 -0.021804947406054 -0.034824967384338 -0.275383591651917 -0.047518182545900 -0.094022899866104 -0.214966014027596 -0.207448482513428 0.285074353218079 0.384942471981049 -0.414403855800629 0.100333712995052 0.537702143192291 0.319472372531891 -0.031098809093237 0.222727403044701 -0.072313360869884 -0.277199983596802 0.150116294622421 -0.206821650266647 -0.186402216553688 0.087407767772675 -0.285633772611618 1.137771129608154 0.106624230742455 -0.013807930983603 -0.390332758426666 0.476973414421082 -0.136633113026619 -0.245096981525421 0.021616457030177 0.137171357870102 0.197981908917427 -0.350754112005234 -0.033692829310894 0.305961906909943 -0.102453827857971 0.550780773162842 0.033917896449566 -0.037656620144844 -0.139100790023804 -0.275732070207596 -0.442744821310043 0.334800034761429 -0.272015333175659 0.076410822570324 0.107525244355202 0.107072383165359 -0.070659369230270 0.234660401940346 -0.086101271212101 0.461851745843887 0.137843206524849 -0.265747606754303 -0.142439007759094 0.051313124597073 0.499642819166183 -0.619346916675568 0.298466593027115 1.058813214302063 -0.440778791904449 0.009988261386752 0.171190083026886 -0.147141486406326 0.010243032127619 0.617138385772705 -0.323749214410782 -0.060520302504301 -0.098891906440258 -0.184275060892105 0.287789314985275 -0.601557016372681 0.117729529738426 -0.228483363986015 -0.349592745304108 -0.144968509674072 -0.055469937622547 0.183634757995605 -0.314607411623001 -0.410284847021103 -0.446084350347519 -0.343751966953278 0.278636217117310 0.041040372103453 -0.207667663693428 0.097685560584068 -0.294046342372894 -0.030302545055747 0.085354536771774 -0.232228830456734 -0.214662447571754
-0.065232522785664 -0.447375506162643 -0.225176975131035 -0.158243492245674 -0.136223688721657 -0.266621917486191 -0.053433459252119 -0.180281743407249 -0.056805171072483 -0.276850968599319 -0.099178358912468 -0.149742752313614 0.292847037315369 -0.069633141160011 -0.067569032311440 -0.201279446482658 -0.036139234900475 -0.235478743910789 -0.000674073118716 -0.253444910049438 -0.040008883923292 0.224383533000946 -0.017925001680851 -0.037397906184196 -0.352785140275955 -0.050075132399797 0.172239392995834 -0.009384919889271 -0.053079940378666 -0.006066503468901 0.022855775430799 -0.127585604786873 1.084832429885864 0.279254108667374 -0.108467608690262 -0.030191255733371 -0.152838021516800 -0.196342557668686 0.144296988844872 -0.010983557440341 -0.030293110758066 -0.078522168099880 -0.188686281442642 -0.052100501954556 1.035470604896545 0.305886894464493 0.530193686485291 0.570009768009186 0.087110683321953 0.114408761262894 -0.253330469131470 -0.390180796384811 0.010627578012645 0.830785751342773 -0.194487288594246 -0.066282778978348 -0.315511435270309 0.992732822895050 -0.045081228017807 -0.200339838862419 -0.264552772045135 -0.069258183240891 -0.193198665976524 -0.028200665488839 -0.309882551431656 0.107336409389973 -0.017067020758986 -0.241947293281555 -0.065946541726589 0.869251251220703 0.511834323406219 -0.127456381917000 -0.236308410763741 -0.247976869344711 -0.011557220481336 -0.531227827072144 -0.175768852233887 -0.558563053607941 0.300608009099960 0.018522443249822 -0.050508238375187 -0.221075102686882 -0.019361501559615 -0.470418989658356 -0.082269132137299 0.162850156426430 0.063130289316177 0.298643022775650 0.417166829109192 -0.314593285322189 0.494255274534225 -0.097337223589420 -0.028542026877403 -0.340532958507538 0.294663906097412 -0.252611279487610 0.765941679477692 -0.064200617372990 -0.070882581174374 -0.552549600601196 -0.320096999406815 0.451688975095749 0.049828507006168 -0.172286719083786 -0.111371792852879 -0.033867288380861 -0.049024887382984 0.189249664545059 -0.092964611947536 -0.180189907550812 -0.649749875068665 -0.088003389537334 -0.010895620100200 -0.538425743579865 -0.026127146556973 0.051360886543989 -0.296377748250961 -0.053742539137602 -0.418518424034119 -0.179041370749474 -0.454575061798096 -0.077116429805756 0.562000155448914 0.459617018699646 0.125788167119026 0.159396901726723 -0.318198889493942 -0.041132893413305 0.265475511550903 -0.313087821006775 0.333603501319885 -0.037825789302588 -0.050414633005857 -0.010573583655059 0.202878370881081 -0.312271922826767 0.690099239349365 -0.318048745393753 -0.188671186566353 0.089715622365475 0.939913392066956 -0.058850500732660 -0.177947387099266 -0.194037616252899 0.535274207592010 -0.052428279072046 -0.142657518386841 0.176159456372261 0.130407840013504 -0.029643695801497 0.456553190946579 -0.142395958304405 -0.091061562299728 0.412561058998108 -0.247926726937294 -0.240166366100311 0.165505260229111 -0.270266920328140 0.091445438563824 -0.147858485579491 0.032702516764402 0.001837437157519 -0.185715079307556 0.013644698075950 0.117018006742001 0.098144754767418 -0.407054573297501 -0.122408904135227 0.038227390497923 0.071245066821575 -0.060942541807890 -0.209317117929459 -0.215163290500641 -0.153572544455528 0.085567787289619 -0.340585291385651 -0.092440001666546 0.005697381217033 0.729252338409424 -0.049624688923359 -0.345058202743530 0.098217390477657 -0.125604003667831 -0.423102527856827 -0.083070725202560 -0.319638609886169 -0.007013234775513 -0.049767572432756 -0.126207113265991 -0.569481849670410 0.031276937574148 -0.135276481509209 -0.287762433290482 -0.282036453485489 0.242418870329857 -0.017863759770989 -0.018792454153299 -0.016496105119586 -0.272993832826614 0.642082929611206 1.223883032798767 -0.162988081574440 -0.166506439447403 -0.254813492298126 -0.116883628070354 0.281917303800583 -0.249265253543854 -0.166966915130615 0.032599959522486 0.011535260826349 -0.004924873355776 -0.595999598503113 -0.015567848458886 -0.378345966339111 -0.064946964383125 0.366306900978088 -0.166050106287003 1.012543559074402 -0.067374557256699 -0.042867682874203 0.026221960783005 0.200954630970955 0.046141974627972 0.839830815792084 -0.183528885245323 -0.497347801923752 -0.499044179916382 0.234548181295395 0.484992682933807 -0.199727207422256 -0.012488342821598 -0.145677566528320 0.221705585718155 -0.170561611652374 -0.069739334285259 0.233241826295853 -0.148717671632767 -0.363190948963165 -0.206719219684601 -0.110425643622875 -0.206863507628441 -0.247167095541954 -0.172942772507668 0.096579380333424 -0.085261195898056 -0.389945805072784 -0.145117402076721 0.442284852266312 -0.462113738059998 -0.249242216348648 -0.117684021592140 -0.015805033966899 -0.083573944866657 -0.066489823162556 -0.191479951143265 0.159732118248940
-0.039938885718584 -0.342741966247559 0.120309047400951 -0.107051052153111 -0.098223522305489 -0.219701051712036 -0.065158694982529 -0.086568310856819 -0.141109049320221 0.154442742466927 0.573710501194000 0.771086394786835 0.158836171030998 -0.061759226024151 -0.102783732116222 -0.141294240951538 0.182301342487335 -0.147413343191147 0.105539552867413 0.075591959059238 0.233563795685768 0.225995033979416 0.074932008981705 0.045214362442493 0.078964494168758 -0.176893398165703 -0.019638361409307 0.122466497123241 0.213888332247734 0.290522009134293 -0.077238135039806 0.856133997440338 -0.638735473155975 0.388382166624069 -0.137485831975937 0.137822106480598 0.618234038352966 -0.275772392749786 0.098124541342258 0.078837871551514 -0.142998218536377 0.108773522078991 -0.151570007205009 1.258551478385925 -0.508116185665131 -0.141864314675331 0.096720077097416 -0.236370369791985 -0.081796512007713 -0.391312867403030 0.098552681505680 -0.180180236697197 0.368473052978516 -0.516821146011353 -0.130952343344688 -0.118979997932911 -0.381403028964996 -0.307324409484863 0.139656901359558 -0.171339511871338 0.911512076854706 0.239077329635620 -0.243948832154274 -0.088237784802914 -0.261554658412933 0.012637783773243 0.082816459238529 0.088444292545319 0.037445895373821 -0.366579025983810 -0.155732765793800 0.109812021255493 -0.298296540975571 -0.202539384365082 0.024642148986459 -0.457503885030746 1.140642523765564 -0.464507341384888 -0.257050693035126 0.250826805830002 -0.159144267439842 0.486562609672546 0.164197310805321 -0.158404409885406 0.010726605542004 0.172812849283218 0.216982439160347 -0.180932104587555 -0.488749891519547 -0.225488781929016 -0.245793506503105 -0.065846279263496 -0.443854004144669 -0.346336394548416 0.125063270330429 -0.182187378406525 -0.209479674696922 -0.194017425179482 -0.131204828619957 -0.329447448253632 0.636108458042145 0.014075742103159 -0.253672748804092 -0.123958319425583 0.179081678390503 0.049528352916241 0.193157821893692 -0.403026640415192 -0.043816626071930 -0.184350118041039 0.469268441200256 -0.147824838757515 0.108070790767670 -0.375892370939255 0.134989976882935 0.026974234730005 -0.210100486874580 -0.072243504226208 -0.149181172251701 -0.192575499415398 -0.419242590665817 0.873725056648254 0.082366399466991 -0.519665837287903 1.008500576019287 -0.090329356491566 -0.183511048555374 0.161436408758163 -0.359449565410614 -0.001688120653853 0.080735146999359 0.161049619317055 0.179626017808914 0.068904973566532 -0.247399747371674 -0.285026550292969 -0.304271876811981 -0.009861601516604 -0.240836337208748 -0.273017555475235 -0.737275183200836 0.080096893012524 -0.008413020521402 0.089982502162457 -0.745305657386780 -0.319430261850357 -0.110187739133835 0.198120057582855 0.023620240390301 0.132091775536537 -0.176068335771561 -0.163639754056931 0.052714262157679 -0.160249501466751 -0.151851385831833 -0.222627148032188 0.183558627963066 -0.246401339769363 -0.113087058067322 0.405500739812851 0.466456890106201 -0.180899724364281 -0.196039661765099 -0.088788166642189 -0.280809551477432 0.481393992900848 -0.168921917676926 -0.024473618716002 -0.170030012726784 -0.114391714334488 0.380763530731201 -0.100078031420708 0.445609152317047 -0.288154363632202 0.021949110552669 -0.169223681092262 0.223539784550667 -0.004708878695965 -0.311421424150467 0.014906654134393 -0.354702621698380 -0.068203277885914 -0.129624336957932 0.950095832347870 -0.161011263728142 -0.075127184391022 0.106317594647408 -0.082652814686298 -0.108496725559235 -0.521781086921692 -0.117015995085239 -0.085823900997639 0.418991476297379 0.096182525157928 -0.108406707644463 0.113544300198555 0.127169758081436 -0.069934099912643 -0.153870910406113 0.068442635238171 -0.429060220718384 -0.158655658364296 -0.016868721693754 -0.171287462115288 -0.212220087647438 -0.036290850490332 -0.232810199260712 -0.188239440321922 -0.104228742420673 0.428072124719620 0.105233915150166 -0.512535989284515 0.117378935217857 -0.421352058649063 0.246175989508629 -0.225369274616241 -0.107990019023418 -0.259721040725708 0.357324868440628 -0.086665473878384 0.059039592742920 0.815545916557312 -0.409982830286026 -0.161942213773727 -0.111668951809406 0.000288639537757 -0.224521219730377 0.382717221975327 -0.058252032846212 -0.120115153491497 -0.112500935792923 0.218094408512115 0.474735766649246 -0.189714744687080 -0.035677857697010 -0.364387840032578 0.049907080829144 0.699916720390320 -0.180493056774139 0.201311677694321 -0.139485061168671 -0.118675388395786 -0.072772070765495 0.329366862773895 -0.146375954151154 -0.203819036483765 -0.074056424200535 -0.022669626399875 0.089446730911732 -0.207000970840454 0.636084794998169 0.152631759643555 -0.081769332289696 -0.122805178165436 -0.235199838876724 -0.090394362807274
0.355467855930328 -0.158753260970116 0.320319086313248 0.455286681652069 0.167730972170830 -0.263302713632584 0.626944601535797 -0.245941549539566 -0.119747735559940 -0.277749896049500 0.062036052346230 -0.507108211517334 -0.388139098882675 0.123294979333878 0.421265125274658 -0.035939920693636 0.143389075994492 0.246061652898788 0.168310284614563 -0.206548944115639 0.200124695897102 -0.057737313210964 -0.053009163588285 -0.085286408662796 -0.071019724011421 0.209109753370285 0.273206800222397 -0.041974991559982 0.175428271293640 0.194387182593346 0.213202163577080 -0.417210102081299 -0.633980810642242 -0.382036000490189 0.476856917142868 0.053659550845623 -0.392251551151276 0.529950916767120 -0.438562810420990 -0.194263666868210 -0.118190906941891 -0.284237295389175 0.766880631446838 -0.368882864713669 -0.249609053134918 0.282486110925674 -0.228159904479980 -0.435963511466980 0.187114402651787 -0.162499934434891 -0.094144448637962 -0.534403204917908 -0.034068033099174 -0.374149680137634 -0.037678137421608 0.425644755363464 -0.311650544404984 -0.314842313528061 0.114045396447182 0.246072351932526 -0.398857802152634 0.133799254894257 0.805176854133606 0.471872091293335 0.066096439957619 0.177045553922653 0.076117902994156 0.047866262495518 0.397895365953445 -0.380275070667267 -0.145285010337830 -0.166296243667603 0.610904157161713 0.086366079747677 -0.121704839169979 -0.749293327331543 -0.065612427890301 -0.587022185325623 0.160934627056122 0.133061319589615 0.064441084861755 -0.018704047426581 0.081077344715595 -0.073987148702145 -0.254151284694672 0.245743229985237 -0.253728657960892 0.272926986217499 0.312402665615082 -0.036066774278879 -0.226985022425652 -0.143916904926300 -0.047691509127617 -0.442770749330521 -0.392037659883499 0.315933883190155 -0.287144482135773 1.012036681175232 0.036539744585752 -0.494086682796478 -0.164144903421402 0.452747732400894 0.384974122047424 0.053875103592873 -0.172751829028130 -0.182250276207924 0.126330763101578 -0.349066317081451 -0.158024191856384 0.104801617562771 -0.320256203413010 0.831576168537140 0.182554677128792 -0.667354404926300 0.192165240645409 -0.193097934126854 0.204695567488670 -0.340773016214371 0.054246004670858 0.380320966243744 -0.212644398212433 -0.441214025020599 0.479153454303741 -0.385313779115677 -0.197412461042404 0.014390543103218 0.543003618717194 0.179728075861931 0.267253667116165 0.084223233163357 0.099836207926273 0.150854915380478 0.188330277800560 -0.002364674350247 -0.032739914953709 -0.383414655923843 -0.191333606839180 0.012067846953869 0.705401003360748 -0.041977629065514 -0.234463527798653 -0.126139461994171 0.159049391746521 -0.320445209741592 -0.100159205496311 -0.201482072472572 0.012855384498835 0.027886494994164 0.417439639568329 0.092097148299217 0.232475340366364 0.270722508430481 -0.297204881906509 -0.199364915490150 0.400948673486710 0.472745537757874 0.231821119785309 0.415227502584457 0.224924504756927 -0.118930093944073 -0.295751452445984 0.443499743938446 1.053894519805908 -0.006600092165172 -0.009467157535255 -0.049173153936863 -0.035940140485764 -0.162476211786270 0.661663532257080 -0.101089201867580 0.086732707917690 0.639356195926666 0.025397753342986 -0.129313692450523 0.085687510669231 0.197516813874245 -0.088550165295601 0.407454133033752 -0.367113679647446 0.070769578218460 -0.434146761894226 -0.198178485035896 0.097955889999866 0.235836744308472 0.479457557201385 -0.084253452718258 0.060220863670111 -0.110056191682816 0.327814906835556 -0.662827193737030 0.240857183933258 0.716064572334290 -0.434237360954285 -0.123380251228809 0.406744122505188 -0.123381219804287 0.142595663666725 0.302101254463196 0.036497425287962 0.435352981090546 -0.298189729452133 0.521576881408691 -0.033596880733967 0.164074420928955 0.838994443416595 0.012737988494337 0.463422626256943 0.155042171478271 0.034664735198021 0.135818570852280 -0.067359730601311 -0.796604335308075 0.178546428680420 -0.042067978531122 0.231389924883842 -0.026875259354711 0.023011615499854 -0.283092707395554 0.131098970770836 -0.174826666712761 0.050578419119120 -0.229461401700974 1.095969557762146 -0.297329574823380 0.022721903398633 -0.294369488954544 -0.396839171648026 -0.392643719911575 -0.297769516706467 0.537918031215668 -0.047277227044106 0.362123310565948 -0.131318315863609 0.489655047655106 -0.037679381668568 -0.527994930744171 0.198501616716385 0.229285374283791 0.475525707006454 -0.169404104351997 0.364701241254807 -0.161117300391197 0.121564030647278 0.083870097994804 -0.127398520708084 -0.234709918498993 -0.058524765074253 -0.569986820220947 -0.211565539240837 -0.021700760349631 -0.340664386749268 -0.209429830312729 0.033742580562830 0.240578040480614 0.463778018951416 -0.001865622820333
-0.272437781095505 0.028795925900340 0.404871642589569 0.178490981459618 -0.105693213641644 0.047540996223688 0.418981730937958 -0.059400890022516 0.302927672863007 -0.227882012724876 0.298884510993958 -0.163978561758995 -0.315301775932312 0.125915005803108 -0.095284819602966 -0.169316306710243 0.090407781302929 1.228943705558777 0.048189066350460 0.011438576504588 0.089762464165688 -0.046524174511433 0.123401157557964 0.065584644675255 0.187345162034035 -0.080617129802704 0.082413904368877 0.080042958259583 0.110165953636169 0.145660594105721 -0.183633863925934 0.145949780941010 0.362611591815948 -0.016781842336059 -0.119559869170189 0.069371514022350 0.246458172798157 0.081955336034298 -0.261431843042374 -0.289181321859360 -0.185276731848717 -0.363884508609772 0.311656564474106 -0.399500042200089 0.422618478536606 0.212343364953995 -0.343670547008514 0.136511147022247 -0.040803607553244 0.667501211166382 0.227216586470604 -0.213956654071808 -0.049320012331009 -0.434823721647263 -0.322630196809769 -0.204387411475182 0.118633881211281 -0.172230884432793 0.117900542914867 0.496915608644485 0.222970575094223 -0.445881724357605 0.059970106929541 -0.164423823356628 0.102755941450596 -0.039224438369274 0.171849220991135 -0.471324741840363 0.532640874385834 -0.349721431732178 -0.193054676055908 0.343708723783493 0.061484698206186 -0.091650135815144 0.146293833851814 0.063127912580967 0.196551948785782 0.097586914896965 -0.014554972760379 -0.255055308341980 0.059101425111294 0.536955058574677 0.073346875607967 -0.097063347697258 0.069769360125065 -0.451447308063507 0.324603319168091 0.198840647935867 0.238983854651451 -0.263543456792831 -0.260897845029831 0.142059996724129 -0.571101427078247 -0.208488389849663 -0.134364679455757 -0.218109965324402 -0.393059074878693 -0.051013030111790 0.363805025815964 -0.174814775586128 0.191162198781967 -0.476941049098969 0.242817431688309 0.062537916004658 -0.207878440618515 0.127307802438736 0.095110744237900 -0.497389137744904 -0.292639762163162 -0.202472969889641 -0.002269552089274 -0.110452599823475 0.081552289426327 -0.029478415846825 0.098557673394680 0.112886913120747 -0.015129218809307 -0.214520797133446 -0.060758344829082 -0.198376595973969 0.323288202285767 -0.113634184002876 -0.306521803140640 0.570616602897644 0.235728085041046 0.466568470001221 0.533000051975250 0.079810895025730 0.669331669807434 0.227469027042389 -0.053105670958757 0.065080493688583 0.098646461963654 0.044071827083826 0.282884329557419 0.041656553745270 -0.381399571895599 -0.310119241476059 -0.144862428307533 -0.329841494560242 0.429482996463776 0.057638287544250 0.769745588302612 -0.466694980859756 -0.316868573427200 0.697855651378632 0.110448494553566 -0.184750795364380 -0.282584816217422 0.106584608554840 0.087446570396423 -0.118773043155670 -0.059711392968893 -0.094819821417332 -0.120112337172031 0.193485349416733 -0.454744547605515 0.041324727237225 -0.233889132738113 -0.147886753082275 -0.194714665412903 0.994585812091827 -0.107349775731564 -0.400560945272446 0.557747840881348 -0.259547561407089 -0.147481188178062 -0.413489967584610 -0.068047590553761 -0.081467024981976 -0.115056753158569 0.064033620059490 1.236185312271118 -0.484215945005417 0.134056836366653 0.410545110702515 -0.195823058485985 0.108419485390186 -0.225095868110657 -0.219383716583252 -0.377796232700348 -0.178406760096550 -0.478930145502090 -0.177792102098465 0.008181269280612 0.168733760714531 0.067383810877800 0.321314781904221 0.122838072478771 0.139786988496780 -0.069501519203186 0.304740399122238 -0.088619612157345 0.422965705394745 0.117992289364338 -0.027832245454192 0.085751712322235 0.155807718634605 0.008737463504076 -0.481323301792145 0.093813195824623 0.104869909584522 -0.229258701205254 -0.203849866986275 -0.258638262748718 0.008397134020925 0.022581212222576 0.541862130165100 -0.123526461422443 -0.186429768800735 0.153286516666412 0.245283126831055 0.047890156507492 -0.380818635225296 0.080405071377754 -0.058162409812212 -0.269896358251572 -0.375109225511551 -0.176673576235771 -0.233928889036179 0.191539779305458 -0.398694872856140 0.161294490098953 -0.161418691277504 -0.020169811323285 0.247661456465721 -0.143267229199409 0.000703366240487 0.184482604265213 -0.292307704687119 -0.295925110578537 -0.295411258935928 -0.252087384462357 0.210208937525749 -0.335319638252258 -0.445980876684189 0.142105385661125 -0.300655096769333 -0.040377266705036 0.008929616771638 0.293805092573166 -0.245106682181358 -0.393580496311188 0.041690915822983 0.521647691726685 0.361348927021027 0.038589984178543 -0.145761862397194 0.000472700427053 0.000209744757740 -0.296986788511276 0.291810184717178 -0.370214581489563 -0.013855259865522 -0.057284213602543 -0.194114565849304
0.001098393346183 -0.427268564701080 0.614260673522949 0.002680561970919 -0.080863051116467 -0.073810555040836 0.552440345287323 -0.073789246380329 0.358420878648758 -0.597260534763336 0.104220367968082 -0.337328314781189 -0.280364513397217 0.134841352701187 -0.167152643203735 0.068056881427765 0.124310679733753 0.689577877521515 0.136162027716637 -0.410072922706604 0.153908744454384 -0.024800540879369 0.179518401622772 0.059948276728392 0.246573060750961 -0.017413521185517 -0.181843161582947 0.060338798910379 0.198648408055305 -0.113746874034405 0.082585848867893 -0.277497917413712 0.393317729234695 -0.120005816221237 -0.115192212164402 0.055410258471966 -0.407175242900848 -0.078046791255474 -0.334422975778580 -0.340074062347412 -0.189738914370537 -0.470738708972931 0.627373278141022 0.007129875477403 0.166143685579300 0.282074242830276 -0.260482490062714 0.366557776927948 0.026850381866097 0.610103428363800 0.091761872172356 -0.433967262506485 -0.059238094836473 -0.570006251335144 -0.132655054330826 -0.381069749593735 0.241213291883469 -0.154280826449394 0.171792849898338 0.337027966976166 -0.357991248369217 -0.175752237439156 -0.060671057552099 0.027419244870543 0.022313041612506 -0.008165238425136 0.135069996118546 -0.352814435958862 0.556152343750000 -0.347754657268524 -0.394248455762863 -0.063383847475052 -0.002555599436164 -0.204340100288391 0.164471775293350 0.162548676133156 -0.103194013237953 0.088456310331821 -0.014409215189517 -0.146794825792313 0.571244359016418 0.270005106925964 0.078400596976280 -0.167191118001938 0.080600775778294 -0.138599872589111 0.322806119918823 0.114257551729679 0.197994038462639 -0.409113347530365 -0.395437240600586 0.066288337111473 -0.491853296756744 -0.048808358609676 0.036867700517178 0.105334028601646 -0.175270125269890 0.087338618934155 0.395247161388397 -0.143152624368668 -0.093561418354511 -0.264659732580185 0.433147013187408 -0.021162161603570 -0.499991148710251 0.124395474791527 0.131991371512413 -0.523541092872620 -0.056870382279158 0.008718481287360 -0.249223157763481 -0.039215195924044 0.201417699456215 0.082458786666393 0.192726626992226 0.173825934529305 -0.082148626446724 -0.245416373014450 -0.409079104661942 -0.091489650309086 0.264977842569351 -0.241549223661423 -0.347136199474335 0.669798135757446 -0.028790488839149 0.930447220802307 0.478516012430191 0.202154427766800 0.800440311431885 0.546523690223694 -0.112081989645958 0.145108103752136 0.219139933586121 0.046096440404654 0.294206649065018 0.071263819932938 -0.299876362085342 -0.221868216991425 -0.083081714808941 -0.105998128652573 0.094591699540615 0.048476923257113 0.622879147529602 -0.680570125579834 -0.478445887565613 0.562369227409363 -0.099477820098400 -0.297684550285339 -0.177137583494186 0.151475280523300 -0.151068717241287 -0.027425926178694 -0.321514427661896 -0.107826046645641 -0.005715136881918 -0.015078895725310 -0.387783408164978 -0.141173884272575 -0.207378074526787 -0.310777276754379 -0.089756898581982 1.004943370819092 0.223528459668159 -0.614264965057373 0.452739030122757 -0.282083511352539 -0.016168924048543 -0.899018943309784 -0.098676390945911 -0.005188227165490 -0.134260952472687 0.218855887651443 0.547551214694977 -0.527150332927704 -0.153848499059677 0.591520726680756 -0.073573254048824 -0.097107224166393 0.033117815852165 -0.179129615426064 -0.545075058937073 -0.470108985900879 -0.528514623641968 -0.068344600498676 0.336898684501648 0.132734149694443 0.147102013230324 0.166264101862907 -0.005858595948666 0.238743215799332 -0.195843547582626 0.432981997728348 -0.315720647573471 0.370675802230835 0.028858276084065 -0.040513500571251 0.131825730204582 -0.176382973790169 0.125859245657921 -0.299201637506485 -0.190801501274109 -0.129025965929031 -0.145348623394966 -0.226631939411163 -0.110762648284435 -0.117905795574188 -0.161657884716988 0.697991013526917 -0.155768781900406 -0.062150407582521 0.281153559684753 0.230116516351700 0.159857392311096 -0.541202545166016 0.196382254362106 -0.011795285157859 0.069336891174316 -0.117234118282795 -0.161994025111198 -0.482324928045273 0.481559902429581 -0.365832149982452 0.560142576694489 -0.295747667551041 0.005197163205594 0.258361637592316 0.017197957262397 0.003865077160299 -0.136980473995209 0.074746847152710 -0.261188566684723 -0.264691561460495 0.002699430333450 -0.074150063097477 -0.492194712162018 -0.304794162511826 0.493596553802490 -0.112120687961578 0.189167588949203 -0.105472557246685 0.162538141012192 -0.225498840212822 -0.121754206717014 0.087501361966133 0.764431416988373 0.470638781785965 -0.120741836726665 0.231983512639999 -0.138171046972275 0.278406620025635 -0.157556116580963 0.243212133646011 -0.500972867012024 -0.222408920526505 -0.105505026876926 -0.070042841136456
-0.090737789869308 -0.276673585176468 -0.096717104315758 0.118292026221752 0.075703188776970 -0.324964344501495 -0.116751834750175 -0.016825998201966 0.115280486643314 -0.074347205460072 -0.188993051648140 0.060709737241268 -0.194637373089790 0.464111655950546 0.057202368974686 -0.067209646105766 0.147555127739906 1.296927809715271 0.035238131880760 0.429827988147736 0.158065125346184 -0.271186560392380 0.054957285523415 0.024572286754847 -0.176598861813545 -0.094724096357822 0.606143116950989 0.120334737002850 0.157595440745354 0.188487410545349 0.298129171133041 -0.133593544363976 -0.319197863340378 -0.295669376850128 -0.159219473600388 0.082021109759808 0.273786574602127 -0.103082664310932 -0.382977664470673 -0.491932511329651 -0.053379159420729 -0.342905968427658 0.082168653607368 -0.287086993455887 0.185553029179573 0.099827833473682 -0.260833203792572 -0.333213418722153 -0.012313960120082 0.724207580089569 -0.104783937335014 -0.455367475748062 -0.393194109201431 0.314464122056961 -0.118303425610065 0.250784993171692 0.224648907780647 -0.226707711815834 0.110289581120014 0.229832440614700 0.216248288750648 -0.007133271079510 -0.012748458422720 -0.300833731889725 0.045385017991066 0.550616383552551 0.181975454092026 -0.195211589336395 0.327562063932419 0.603050529956818 0.606555521488190 0.713475644588470 -0.349117934703827 0.125937476754189 0.123527742922306 -0.033702511340380 -0.243465676903725 -0.076269857585430 -0.209963291883469 -0.077162027359009 -0.270587235689163 0.560399472713470 0.131458133459091 -0.120411187410355 0.036626089364290 0.064240418374538 -0.260792016983032 -0.228990867733955 0.745693624019623 -0.315860539674759 -0.192020967602730 -0.387111902236938 0.077633306384087 0.252575725317001 -0.315982878208160 0.026131549850106 0.487773656845093 0.354748368263245 0.111484281718731 -0.242211565375328 0.363488793373108 -0.124778665602207 -0.308131039142609 0.069181673228741 -0.446290105581284 0.099129706621170 0.106858499348164 -0.430896759033203 -0.138954013586044 -0.114764027297497 -0.288826942443848 0.075494274497032 0.041719928383827 -0.121686875820160 0.050227504223585 0.157515615224838 -0.122973978519440 0.384188801050186 -0.471719980239868 0.113051518797874 0.124038495123386 0.225715592503548 -0.201503664255142 0.080321423709393 -0.061598319560289 0.219733819365501 0.450673341751099 0.116562046110630 0.376723676919937 -0.140652954578400 -0.350878775119781 0.130176141858101 0.069658324122429 0.064944490790367 0.106912247836590 0.086444184184074 0.816800236701965 0.205765426158905 -0.177239134907722 -0.217700794339180 0.139884933829308 0.085085980594158 0.149524375796318 -0.346848487854004 0.157395914196968 -0.104952231049538 -0.089557647705078 0.568712353706360 0.190213635563850 0.068897485733032 0.796421170234680 -0.367138981819153 0.265055298805237 -0.110309094190598 -0.337387740612030 0.329402625560760 -0.125306472182274 0.209117472171783 -0.084264524281025 -0.234226807951927 -0.341500341892242 0.486894190311432 -0.415627509355545 -0.520388305187225 0.086045488715172 -0.111557252705097 -0.099663451313972 -0.358950614929199 0.181437328457832 0.039446361362934 -0.237488940358162 -0.092355541884899 0.927661061286926 0.273381859064102 0.172914862632751 0.206089332699776 0.157670319080353 0.294883638620377 -0.591458439826965 -0.021130884066224 -0.522511363029480 0.455582648515701 -0.407990127801895 -0.091444067656994 -0.414253294467926 -0.115390300750732 0.077220536768436 0.513200104236603 0.184399113059044 -0.018645195290446 0.091033756732941 0.110675469040871 0.231734633445740 0.417317777872086 -0.159834727644920 0.025311186909676 0.109264031052589 0.416180104017258 -0.027612704783678 -0.099680252373219 0.312839061021805 0.261606067419052 -0.041525784879923 0.134551107883453 0.084608361124992 -0.283282190561295 0.060416828840971 0.184803143143654 0.028149418532848 -0.412371695041656 0.073271133005619 -0.056214131414890 0.047910261899233 -0.425053477287292 0.149654686450958 -0.280792772769928 -0.167592659592628 0.015245894901454 -0.278905272483826 -0.265036880970001 -0.040284994989634 -0.227990508079529 1.502415060997009 0.979616343975067 -0.012715869583189 -0.238921910524368 -0.363674432039261 -0.519814431667328 -0.313549637794495 -0.359777808189392 -0.024404332041740 -0.463965237140656 -0.348307520151138 0.108027368783951 -0.342057138681412 -0.537520885467529 -0.160253673791885 -0.168840602040291 -0.005069658625871 -0.121465757489204 0.356043636798859 -0.252929121255875 -0.357204556465149 -0.271248757839203 0.092137441039085 -0.080447718501091 0.241130605340004 -0.525508284568787 -0.064958609640598 -0.100163206458092 -0.260788768529892 -0.009978117421269 -0.212836951017380 0.367928057909012 -0.270455032587051 -0.237644910812378
-0.133700951933861 0.202941030263901 -0.347810089588165 0.161512389779091 -0.082585200667381 0.251595705747604 -0.014400855638087 -0.155263021588326 0.109297469258308 -0.740740835666656 0.042295146733522 -0.346951663494110 -0.319766163825989 0.364525943994522 0.184853166341782 -0.094663888216019 -0.367741972208023 0.160846471786499 -0.249943718314171 0.050823602825403 -0.472782671451569 -0.046856079250574 -0.081646732985973 -0.082363463938236 -0.017550935968757 -0.030667904764414 0.917364001274109 -0.205042958259583 -0.447901636362076 0.277802854776382 0.324336946010590 -0.237271919846535 0.072406582534313 0.202796712517738 -0.157169580459595 -0.209204763174057 -0.167999491095543 -0.112375207245350 -0.602620363235474 -0.443795233964920 -0.006130933295935 -0.340080708265305 -0.220161750912666 -0.318885862827301 -0.135858088731766 0.384896785020828 -0.043005563318729 0.023656131699681 -0.061732113361359 0.568826556205750 -0.150354579091072 -0.199562817811966 0.002578572370112 0.266988813877106 -0.155804470181465 0.281808674335480 0.216364711523056 -0.018506512045860 -0.266808182001114 -0.065198801457882 0.111770942807198 -0.157836437225342 -0.025820918381214 -0.075042165815830 0.241014853119850 0.492699861526489 -0.101566247642040 0.014978062361479 -0.091339349746704 0.347452163696289 0.616332590579987 0.144724547863007 -0.139356985688210 0.225680708885193 -0.007166464813054 0.535922527313232 0.917647540569305 0.052158683538437 -0.086503237485886 -0.128791123628616 -0.103832349181175 0.570468068122864 -0.295505911111832 0.288934886455536 -0.255203664302826 -0.190238848328590 -0.003977052867413 0.234614416956902 0.398707032203674 -0.224708244204521 -0.450439155101776 0.405482977628708 0.429240196943283 -0.246345221996307 -0.043041601777077 0.064280405640602 0.168612957000732 0.177991494536400 0.349407970905304 -0.151028975844383 0.222771525382996 -0.226646006107330 0.063974842429161 0.253048509359360 -0.421122968196869 -0.114441312849522 -0.426133483648300 -0.431174784898758 -0.096327394247055 -0.128035113215446 -0.009169729426503 0.397119611501694 -0.217540889978409 0.540846467018127 -0.255271762609482 0.104912683367729 -0.278136700391769 -0.050186038017273 0.714054465293884 0.000906719884370 0.028738996013999 0.161682561039925 -0.044155407696962 0.468991905450821 0.209717378020287 0.058282054960728 -0.117900662124157 -0.422877371311188 0.213583722710609 -0.320420205593109 -0.040111970156431 -0.340471029281616 -0.441955924034119 -0.132715523242950 -0.104005411267281 0.412499129772186 0.415678083896637 0.543433964252472 0.090516217052937 -0.261426419019699 0.052029784768820 -0.051254868507385 -0.278431653976440 -0.387260913848877 0.220627054572105 0.372428327798843 -0.132307708263397 -0.031954865902662 0.259021252393723 -0.278172433376312 0.829287767410278 -0.126586675643921 0.084050118923187 -0.410546749830246 -0.249419972300529 -0.027745064347982 -0.176991730928421 -0.094733171164989 -0.036754094064236 -0.318099528551102 -0.101927123963833 -0.045664642006159 0.010341895744205 -0.683326780796051 0.425364851951599 -0.222473114728928 -0.074759922921658 -0.756103038787842 0.698729753494263 0.109520375728607 0.018480883911252 -0.001243144506589 0.058711841702461 0.737791299819946 0.694059312343597 0.203651562333107 0.397216886281967 0.181116297841072 -0.181736871600151 -0.105111598968506 -0.305322796106339 0.306315928697586 0.104992248117924 0.613089859485626 -0.288143187761307 0.092750206589699 -0.203764289617538 0.369994550943375 0.402557104825974 0.524364233016968 0.094748385250568 -0.165229797363281 -0.088152319192886 0.238881394267082 0.207201957702637 -0.008127878420055 -0.288737028837204 0.341192603111267 -0.201888248324394 -0.324884265661240 0.757614731788635 -0.161611944437027 0.072402507066727 0.024922981858253 0.313728988170624 0.111550502479076 -0.134766638278961 0.008719719946384 0.112883478403091 -0.124803185462952 -0.133123472332954 0.719472527503967 -0.266307115554810 0.397991716861725 -0.498559594154358 0.024221498519182 -0.154327541589737 -0.832482397556305 0.279438674449921 -0.320172697305679 -0.157057210803032 -0.096008971333504 0.248350322246552 0.173472538590431 0.084992282092571 -0.159892037510872 0.240281701087952 -0.106504343450069 0.448292434215546 -0.347742766141891 0.067929431796074 -0.243962064385414 0.166385248303413 -0.024723092094064 0.019484294578433 -0.562147676944733 -0.157226100564003 0.486811876296997 -0.160157248377800 0.215784549713135 0.130912438035011 -0.166790246963501 -0.170494452118874 0.224963709712029 -0.024752773344517 -0.087604269385338 0.145456045866013 0.193404406309128 0.216655775904655 -0.045040935277939 0.287699878215790 0.233998194336891 -0.158885791897774 0.328360617160797 -0.200118795037270 -0.139774978160858
0.011483235284686 0.092276990413666 0.118025161325932 0.151681572198868 -0.034686714410782 0.526696979999542 -0.201292559504509 0.327022194862366 0.308940649032593 -0.094844542443752 -0.473574578762054 0.145688638091087 -0.429931879043579 -0.215035423636436 0.075813539326191 0.304680258035660 -0.203049018979073 0.225561842322350 -0.084095515310764 0.764854371547699 -0.199221000075340 -0.528682172298431 -0.086140424013138 -0.111460678279400 0.241038292646408 -0.354356914758682 0.583023130893707 -0.146567791700363 -0.218825504183769 -0.040753684937954 -0.208524271845818 -0.021445045247674 0.357397973537445 -0.167875483632088 0.345870971679688 -0.131171360611916 -0.319811761379242 0.208060085773468 -0.032865196466446 -0.153026655316353 -0.172556564211845 -0.238597750663757 -0.033909052610397 0.103028565645218 -0.121387563645840 -0.231331035494804 -0.115905232727528 0.387322187423706 -0.012727796100080 -0.368671059608459 0.194714412093163 -0.302318453788757 -0.495830655097961 0.290567278862000 0.152366906404495 -0.031665220856667 0.205514371395111 -0.060824893414974 -0.143763259053230 -0.321653425693512 0.065022774040699 -0.213486805558205 0.594116687774658 -0.324519664049149 0.106041520833969 -0.071692928671837 -0.137360945343971 -0.039306178689003 -0.109069347381592 0.394154816865921 0.680260837078094 0.609172224998474 0.008324583061039 0.001302690827288 -0.114959359169006 -0.079889595508575 -0.100187994539738 -0.201982513070107 -0.015796568244696 -0.279174268245697 -0.139278337359428 0.373078048229218 -0.178218215703964 0.219955891370773 -0.083804823458195 -0.215114131569862 0.258488833904266 -0.470980912446976 0.176885843276978 0.080484502017498 -0.605941176414490 0.648435652256012 0.530537903308868 -0.068366356194019 0.142990544438362 0.476200580596924 0.321259498596191 0.487792611122131 0.036428052932024 0.029918026179075 0.370597451925278 -0.651615321636200 -0.343050897121429 0.202779933810234 -0.161924108862877 -0.070571258664131 -0.185337662696838 -0.069579742848873 -0.032061733305454 0.022169046103954 -0.375694394111633 0.007555548567325 -0.083149112761021 -0.042733553797007 -0.098763786256313 -0.073700986802578 0.250116795301437 0.070973515510559 0.782762229442596 0.474381685256958 -0.091621279716492 0.633114576339722 -0.640178382396698 0.453059673309326 -0.114125043153763 -0.529250741004944 0.157279804348946 -0.161222234368324 0.002721764612943 0.072064273059368 -0.345853984355927 -0.184341862797737 -0.146709725260735 -0.115260608494282 0.182548463344574 0.093587793409824 0.505852937698364 1.083632349967957 -0.092963285744190 0.033257752656937 -0.183604553341866 0.039124988019466 -0.369367539882660 -0.189595639705658 0.161439031362534 0.850284099578857 0.086562737822533 0.009875144809484 0.053826641291380 -0.141431078314781 0.796545624732971 -0.215606361627579 0.217198207974434 -0.630001187324524 0.037473499774933 0.413121849298477 -0.379241645336151 0.195024549961090 -0.150251433253288 -0.165006071329117 -0.027530588209629 0.001970285316929 0.027008756995201 -0.201314523816109 -0.132520541548729 -0.614014208316803 0.040881488472223 -0.444155991077423 0.208250194787979 -0.070962637662888 -0.194220244884491 -0.234103634953499 -0.077996544539928 0.663948655128479 0.215773135423660 0.343051552772522 0.355869024991989 -0.110902033746243 -0.071367144584656 0.064090818166733 -0.110454529523849 -0.133325979113579 -0.227907225489616 0.177584737539291 -0.027785487473011 0.395121216773987 -0.134552195668221 -0.211847037076950 0.355741024017334 0.065279126167297 -0.248178020119667 0.016284627839923 0.208083510398865 0.513104200363159 -0.387327790260315 -0.137973800301552 -0.143923208117485 -0.028560791164637 0.112029701471329 -0.771655201911926 -0.011130266822875 0.250269621610641 -0.109757959842682 0.121006123721600 0.464374333620071 -0.438014954328537 0.118036471307278 -0.230131536722183 0.001755997189321 -0.045875303447247 -0.134818375110626 0.163751021027565 -0.079699784517288 0.247557863593102 -0.231049671769142 -0.259162575006485 0.246163353323936 -0.394884943962097 -0.036440402269363 0.019798828288913 -0.174116685986519 0.080708548426628 0.401016920804977 0.442807376384735 0.433861017227173 0.504532814025879 0.113754801452160 -0.336786031723022 0.512938439846039 0.270901173353195 -0.022071814164519 0.110781282186508 -0.045340199023485 0.206648543477058 -0.101354107260704 -0.341876596212387 -0.214637741446495 0.021464090794325 0.205751866102219 -0.080172605812550 0.508178949356079 -0.005085667595267 0.181837067008018 -0.377344727516174 0.410189390182495 0.348909705877304 -0.141489669680595 -0.066697321832180 0.634131431579590 -0.171117499470711 0.306552410125732 0.711035966873169 -0.236317276954651 -0.114080213010311 0.251144915819168 -0.118798531591892
-0.026900364086032 0.260535299777985 0.277200758457184 -0.157865002751350 -0.234942749142647 0.302767634391785 -0.140128701925278 -0.412501841783524 0.256543666124344 -0.020298525691032 0.059253767132759 0.284051656723022 -0.232467368245125 -0.264204323291779 -0.099543347954750 -0.345475196838379 -0.073085345327854 -0.230580389499664 0.027606347575784 -0.301730990409851 -0.089768841862679 -0.259094059467316 0.058949444442987 0.028875114396214 0.498165011405945 0.002160614356399 0.061255622655153 0.001434293692000 -0.068064391613007 -0.095808170735836 -0.273053169250488 0.270405977964401 1.109004974365234 0.207962989807129 -0.274064928293228 -0.018221458420157 0.119943298399448 -0.264194548130035 0.196010142564774 -0.149797543883324 -0.236182957887650 -0.174075737595558 -0.160936251282692 0.880164504051208 0.767353475093842 -0.305563539266586 0.181947678327560 0.821246564388275 0.041629843413830 0.227321729063988 0.163592547178268 0.424421548843384 -0.106196776032448 0.072646573185921 -0.361510992050171 -0.304633945226669 -0.657907307147980 0.535405397415161 -0.016753124073148 -0.205367520451546 0.363992482423782 0.310521721839905 -0.256716609001160 0.086645744740963 -0.283763200044632 -0.097208410501480 -0.035466622561216 0.484453618526459 -0.017111118882895 0.068096108734608 0.001734657445922 0.009954708628356 -0.194704338908195 -0.264732420444489 -0.058972872793674 -0.532194972038269 0.651887178421021 -0.516710042953491 -0.285883575677872 0.080512858927250 -0.150823488831520 0.580603957176208 -0.021014640107751 -0.100749507546425 -0.145022213459015 0.189880207180977 0.681569516658783 -0.504472434520721 0.031255457550287 0.052362561225891 -0.629223883152008 0.524436771869659 0.483134299516678 -0.804347634315491 0.420758455991745 -0.464788705110550 0.156889051198959 -0.139142379164696 0.182077005505562 0.418747812509537 0.059693504124880 -0.101364947855473 -0.326403945684433 -0.197155863046646 -0.249787554144859 -0.008427202701569 -0.069609619677067 -0.517723143100739 -0.207548886537552 -0.121163688600063 0.103825174272060 0.169150993227959 0.033644113689661 -0.353184401988983 0.053176425397396 -0.038820262998343 -0.411689609289169 -0.295512855052948 0.519202291965485 -0.332773000001907 -0.560666501522064 0.342556655406952 -0.115643508732319 0.648485302925110 0.284124284982681 0.002072759671137 -0.301167696714401 -0.080637037754059 0.452842384576797 0.199992656707764 -0.203525677323341 -0.061420481652021 -0.070204064249992 0.007008264306933 0.480501562356949 -0.126387745141983 -0.050393719226122 0.223844259977341 0.085567787289619 -0.468966275453568 0.568234026432037 -0.090627945959568 0.031668230891228 -0.201043739914894 0.389898717403412 0.800843477249146 -0.009001527912915 0.311942279338837 -0.153972014784813 -0.046766445040703 -0.314247131347656 -0.282523959875107 -0.162778332829475 -0.667921364307404 -0.305113077163696 -0.228900089859962 -0.000624859472737 -0.330463111400604 -0.035172797739506 0.166219517588615 0.363904029130936 0.323652565479279 -0.009849902242422 -0.627338230609894 0.414432138204575 -0.162254810333252 0.141030073165894 -0.327072769403458 0.104428619146347 -0.042351134121418 -0.074671074748039 -0.105468928813934 0.276323348283768 0.307731151580811 -0.078080423176289 0.220043256878853 -0.053624980151653 -0.082946307957172 0.216599985957146 -0.122562155127525 0.344743102788925 0.045275565236807 -0.240371510386467 0.436214029788971 -0.163740560412407 0.337645620107651 0.003285143291578 -0.032090812921524 -0.226838245987892 -0.534674346446991 -0.068909838795662 -0.100009717047215 -0.149692058563232 0.350770950317383 -0.319524347782135 -0.056755557656288 -0.058809973299503 -0.245931267738342 -0.035909194499254 -0.283176422119141 -0.147550269961357 -0.398618698120117 -0.168075352907181 -0.267617642879486 -0.053791131824255 -0.424792170524597 -0.305689334869385 -0.353544354438782 -0.113329045474529 0.296769797801971 -0.002051345305517 -0.532203912734985 0.003002379788086 0.610023021697998 -0.089691646397114 -0.542127132415771 -0.365307986736298 -0.511673927307129 0.513366520404816 -0.311493664979935 -0.020865280181170 0.592978894710541 -0.212001964449883 -0.071803845465183 -0.340741455554962 0.456091552972794 0.147515028715134 0.144025176763535 0.705014586448669 -0.333850055932999 -0.218504115939140 -0.111482135951519 0.162701740860939 -0.343865215778351 -0.125110447406769 -0.355175942182541 -0.058371763676405 0.477932423353195 -0.142912611365318 0.107111230492592 -0.038863323628902 -0.258249640464783 -0.260683923959732 -0.027012517675757 0.463983237743378 -0.003929764963686 -0.279356390237808 0.487011134624481 0.286679446697235 -0.078541554510593 0.545539498329163 0.671148598194122 -0.151462331414223 -0.246780782938004 -0.246149927377701 -0.062196854501963
-0.222927778959274 -0.062353894114494 0.217792555689812 -0.087697461247444 -0.150280997157097 0.196346327662468 0.011742304079235 -0.092552438378334 0.319936543703079 -0.445655852556229 0.029994875192642 0.002249186160043 0.290047019720078 -0.155345812439919 -0.175564914941788 -0.310781449079514 0.037423871457577 -0.050979718565941 0.121961154043674 0.020058253780007 0.159291654825211 0.201959148049355 -0.095462232828140 -0.083824269473553 0.247707396745682 -0.213339358568192 0.235516726970673 -0.032727573066950 0.100436240434647 -0.380081743001938 -0.180025786161423 -0.069967754185200 0.557418763637543 0.468672811985016 -0.208597823977470 0.023275319486856 -0.018868559971452 -0.300492286682129 -0.011859437450767 -0.007696595042944 -0.247978106141090 0.135720849037170 -0.030933683738112 0.671241223812103 0.384565681219101 -0.246871456503868 0.197164386510849 0.503512680530548 0.018410356715322 0.175953149795532 0.296916127204895 -0.214181274175644 -0.130804866552353 0.660612404346466 -0.284190565347672 -0.254281431436539 -0.598500609397888 0.009739202447236 0.048756022006273 -0.232259467244148 0.165825113654137 -0.236829280853271 -0.261439204216003 -0.123434342443943 -0.406606823205948 -0.416123896837234 0.063794285058975 -0.049558512866497 -0.298689633607864 0.673450350761414 -0.016101125627756 0.245554924011230 -0.362098067998886 -0.253630042076111 -0.086777321994305 -0.645818591117859 0.227357581257820 -0.825158596038818 -0.182228088378906 -0.064450331032276 -0.130297750234604 0.646631479263306 -0.021887736395001 -0.015230947174132 -0.069806359708309 -0.285336852073669 0.658122003078461 -0.022061228752136 0.146610826253891 -0.431670099496841 0.304830223321915 0.471492350101471 0.336075574159622 -0.663484871387482 0.672435760498047 -0.291773498058319 0.257594615221024 -0.372959047555923 0.325136125087738 -0.260986477136612 0.026765203103423 -0.375662207603455 -0.193502709269524 0.003015025984496 0.231989145278931 -0.008353759534657 0.071928136050701 -0.073003694415092 -0.127287611365318 -0.024691151455045 0.002374731004238 -0.343492001295090 0.102156274020672 -0.330747276544571 0.112750388681889 0.001598833245225 -0.280020296573639 -0.257570564746857 0.119211509823799 -0.422991842031479 -0.984462916851044 0.592714607715607 -0.291164010763168 0.598174214363098 0.302600324153900 -0.294524699449539 -0.087462879717350 0.149001732468605 0.358039528131485 0.084269680082798 0.189954221248627 0.042041040956974 0.159617811441422 -0.057020936161280 0.286910116672516 0.000633808609564 0.203831121325493 0.438230365514755 -0.406208068132401 -0.004689260385931 0.100331053137779 -0.048379100859165 -0.303847879171371 0.054254613816738 0.618055999279022 0.586300075054169 -0.157908245921135 -0.447750896215439 -0.325591862201691 0.040536489337683 0.044597961008549 -0.227466002106667 -0.201947852969170 0.327045023441315 -0.212941646575928 -0.305919945240021 -0.277278065681458 -0.363117724657059 -0.305683165788651 -0.000244879804086 0.275781363248825 0.227522179484367 -0.189402848482132 -0.020310429856181 0.274736166000366 0.294561684131622 0.085437498986721 -0.222196429967880 0.054832845926285 -0.024312894791365 -0.214579299092293 -0.279892653226852 -0.032908339053392 0.209462136030197 0.032514177262783 0.226372033357620 0.441666483879089 -0.195044234395027 -0.099883876740932 0.032957736402750 -0.390780806541443 -0.098031364381313 -0.209623262286186 0.743374764919281 -0.303024798631668 0.121666617691517 0.022308554500341 -0.121377587318420 -0.120889261364937 -0.582199335098267 -0.390497714281082 -0.034390836954117 -0.113201357424259 0.260070025920868 0.061119515448809 -0.176898688077927 0.040771953761578 -0.300226390361786 -0.167415350675583 -0.277790844440460 0.102004185318947 -0.188705608248711 -0.107124269008636 -0.249599739909172 -0.239564538002014 0.057896845042706 -0.169690206646919 -0.111213557422161 -0.248292908072472 0.042066775262356 -0.072446078062057 -0.378462255001068 0.158923432230949 0.357368290424347 0.137693241238594 0.111867308616638 -0.288631230592728 -0.055040266364813 0.254291862249374 -0.002871747361496 -0.020357143133879 0.184203371405602 -0.388109564781189 -0.059960030019283 -0.012748934328556 0.190888538956642 0.052227657288313 0.410201847553253 0.627093553543091 -0.247632741928101 -0.292276918888092 -0.164487704634666 0.324600309133530 -0.213033407926559 -0.070902392268181 -0.027719408273697 0.001676678890362 0.217844799160957 -0.127769485116005 0.032892100512981 -0.146110534667969 -0.280834853649139 -0.206194981932640 -0.132266387343407 0.448521584272385 -0.099469400942326 -0.113617531955242 0.519427299499512 0.471651762723923 -0.339120596647263 1.104854941368103 0.672405123710632 -0.355710744857788 -0.309631019830704 -0.295042008161545 -0.070788152515888
-0.140126869082451 0.690190374851227 0.185519337654114 0.451625645160675 0.073996566236019 0.016482183709741 -0.389961808919907 -0.232680767774582 -0.048418395221233 0.024814106523991 0.249937817454338 -0.128197625279427 -0.284476310014725 0.050553102046251 -0.081539086997509 -0.045086674392223 0.142140105366707 0.155255004763603 0.123456768691540 -0.266649872064590 0.126403599977493 -0.367862522602081 0.078059248626232 0.150181829929352 0.390370994806290 0.182633593678474 -0.414410501718521 0.146293476223946 0.148588970303535 -0.263491988182068 0.293924808502197 0.206707328557968 0.076726399362087 -0.383154094219208 -0.018273120746017 0.140323087573051 0.134720191359520 -0.258508920669556 -0.318249136209488 -0.277501076459885 -0.282214730978012 -0.430835008621216 -0.275172531604767 -0.189470857381821 -0.040745634585619 -0.420519828796387 -0.135770216584206 0.041556652635336 -0.003234002040699 0.300315082073212 -0.170181766152382 -0.299427300691605 -0.240262344479561 -0.349717587232590 0.172084197402000 0.074818350374699 0.070721931755543 -0.068997032940388 0.173901140689850 0.467913478612900 0.580684781074524 0.678602099418640 0.139179617166519 -0.416810482740402 -0.265105903148651 0.031904619187117 0.044723905622959 1.018110036849976 -0.356885105371475 -0.318654328584671 -0.160697385668755 0.202347740530968 -0.110774450004101 0.696587622165680 -0.013358363881707 -0.201966196298599 -0.163120225071907 -0.718594014644623 -0.391945689916611 0.214682728052139 -0.120038084685802 0.330631017684937 0.118338093161583 -0.078901104629040 -0.260084778070450 0.491846174001694 0.085003107786179 -0.405676871538162 -0.045603767037392 -0.400426656007767 -0.152042225003242 -0.123715624213219 0.327256023883820 -0.473702400922775 -0.073737062513828 0.156161978840828 -0.115992344915867 -0.161754772067070 0.567074716091156 0.029181761667132 -0.086355760693550 0.640816748142242 -0.304528921842575 -0.047749694436789 -0.224206104874611 0.069147825241089 0.213805273175240 -0.557396292686462 -0.058175981044769 -0.100067175924778 -0.595401227474213 -0.210704222321510 0.110527306795120 0.001023775432259 0.155107066035271 -0.094152577221394 0.003181897336617 -0.110805176198483 0.593504607677460 0.224701941013336 -0.689267873764038 -0.202280998229980 0.348503619432449 0.076652452349663 -0.336243778467178 0.134927615523338 0.327897340059280 0.106796212494373 -0.057452499866486 0.158544898033142 -0.377813011407852 0.131590321660042 0.061850380152464 0.115073293447495 -0.065452672541142 0.531158864498138 -0.261794388294220 0.186701700091362 -0.355581879615784 -0.365574598312378 -0.247258976101875 0.086107566952705 -0.082014836370945 -0.281681686639786 0.042508110404015 0.190064772963524 0.237693652510643 0.263639241456985 0.304218292236328 0.121439099311829 -0.258488506078720 0.220338433980942 0.289380639791489 -0.328049451112747 0.046113256365061 0.620993971824646 0.171597883105278 0.607709765434265 0.016481783241034 -0.006828144192696 -0.138501554727554 -0.159451067447662 -0.029761722311378 -0.374758422374725 0.364319622516632 -0.098219543695450 -0.070419646799564 0.244703069329262 -0.390618383884430 -0.182752639055252 0.517353832721710 0.208507314324379 0.259993672370911 0.413958519697189 -0.373611271381378 0.200160294771194 0.070225469768047 -0.225224688649178 -0.218933865427971 0.026388341560960 -0.410459220409393 0.250760257244110 0.884289085865021 -0.177905187010765 -0.067217797040939 -0.039062637835741 0.087943539023399 -0.115554369986057 -0.250282168388367 0.021974138915539 -0.231863290071487 -0.349746882915497 -0.127677664160728 0.241294085979462 -0.301674813032150 0.019493388012052 0.106385245919228 -0.369410634040833 0.163674965500832 0.482107967138290 -0.530267596244812 -0.046082407236099 0.159769728779793 0.448052674531937 -0.031550139188766 -0.249314889311790 0.722946047782898 0.441525280475616 -0.324214071035385 -0.431376874446869 0.011872944422066 0.213393747806549 0.091928213834763 0.713677585124969 0.165285691618919 -0.421358436346054 0.033858425915241 0.329394638538361 0.887652099132538 -0.310209006071091 0.043868724256754 0.104463979601860 -0.349230885505676 -0.384451419115067 -0.119020283222198 0.298567831516266 0.043606564402580 -0.413472622632980 0.116243861615658 -0.119880959391594 -0.157786190509796 -0.515153288841248 -0.392085522413254 0.074162617325783 0.726592183113098 -0.468643397092819 0.704721868038177 0.037170488387346 0.051532305777073 0.852440357208252 0.454481661319733 0.212017714977264 0.355958104133606 -0.299688249826431 0.199451074004173 0.234457835555077 1.027498364448547 -0.212965711951256 0.043520119041204 -0.056833196431398 -0.073414921760559 0.182307511568069 -0.281278163194656 -0.076765455305576 -0.249113008379936 -0.314438670873642
0.224464237689972 -0.284415751695633 0.218460530042648 0.039437148720026 -0.044020369648933 -0.070483267307281 -0.225081458687782 -0.024523979052901 -0.053357873111963 0.506804823875427 -0.335859447717667 -0.300179988145828 -0.138066887855530 -0.354764848947525 -0.306050091981888 0.539040684700012 0.268832892179489 -0.641721487045288 0.168812230229378 -0.091251492500305 0.320301204919815 0.028174676001072 0.076088748872280 0.175594955682755 0.019074682146311 0.040030006319284 -0.206072017550468 0.175776019692421 0.307047963142395 -0.336445957422256 -0.116659440100193 0.014596800319850 0.174427598714828 -0.565231323242188 0.043991234153509 0.157873272895813 -0.423469126224518 0.038608036935329 -0.368753224611282 -0.331992954015732 -0.102822393178940 -0.252560496330261 -0.088085457682610 -0.265217423439026 -0.018303580582142 -0.176118060946465 -0.372358411550522 -0.257589817047119 0.041083697229624 0.117727309465408 -0.030080100521445 -0.225479841232300 -0.262765020132065 0.926759600639343 0.481750369071960 -0.208133146166801 0.084140166640282 -0.308777511119843 0.190022930502892 -0.346537828445435 -0.212537035346031 0.143021121621132 -0.155309215188026 -0.355758905410767 -0.341625988483429 0.064374111592770 0.081678099930286 -0.093406543135643 -0.280331104993820 0.542231261730194 0.976639330387115 -0.049590762704611 -0.025447404012084 0.730006635189056 0.085086725652218 -0.340216785669327 -0.478647768497467 -0.612030744552612 -0.541173219680786 0.091546855866909 0.111325569450855 -0.122332982718945 0.199381187558174 -0.089803680777550 0.148818850517273 0.209368526935577 -0.079765036702156 -0.013602813705802 -0.108610942959785 -0.174106732010841 -0.104082711040974 -0.127041801810265 0.534780144691467 -0.425613790750504 -0.244622930884361 0.829814195632935 0.315239310264587 -0.083250842988491 0.079864807426929 0.042270783334970 -0.133105322718620 0.627670586109161 -0.019163440912962 -0.114111900329590 -0.161451503634453 0.037999775260687 0.307566493749619 -0.226650699973106 0.797142982482910 0.156696736812592 -0.412792861461639 -0.252884447574615 0.136639878153801 -0.236019819974899 0.168455362319946 -0.025917744264007 0.691107332706451 -0.331384420394897 -0.423720002174377 0.907989442348480 -0.788536846637726 -0.133561566472054 0.644677340984344 0.081809490919113 -0.499879121780396 -0.126932680606842 -0.597394943237305 0.278208047151566 -0.301761120557785 0.197879269719124 0.083518527448177 0.290480166673660 0.302817851305008 0.136479973793030 -0.091048620641232 0.323497593402863 0.647997915744781 0.034899402409792 -0.305038154125214 0.134645551443100 -0.279159784317017 0.051841244101524 -0.043298795819283 -0.181627467274666 0.157561838626862 0.182270616292953 -0.129930287599564 0.644644498825073 0.104890085756779 0.188584178686142 0.118709810078144 0.043324027210474 0.140093773603439 -0.047385431826115 0.358564257621765 -0.290083795785904 -0.045280773192644 0.584282159805298 -0.083794124424458 0.092987112700939 -0.397350758314133 -0.255690544843674 -0.341348171234131 0.077620312571526 -0.121825441718102 0.003278380958363 -0.086898177862167 0.078694619238377 -0.427123963832855 -0.451944649219513 -0.168592214584351 -0.247448265552521 -0.574457049369812 0.709313392639160 -0.425353646278381 0.153783410787582 -0.130339801311493 -0.232764199376106 -0.551274359226227 0.270089834928513 -0.312085688114166 1.030836582183838 0.878734707832336 -0.358272463083267 0.008288975805044 -0.126526936888695 0.167556449770927 0.029860097914934 -0.359357148408890 -0.151446714997292 -0.164684668183327 -0.138006418943405 -0.369920313358307 -0.131741747260094 -0.022705731913447 0.029172934591770 0.215983599424362 -0.392887741327286 0.373241633176804 0.579126834869385 -0.025508653372526 0.291893601417542 0.574463367462158 0.644833147525787 -0.158362850546837 0.037555288523436 0.284045398235321 0.198714405298233 -0.264173895120621 -0.407361328601837 0.131395369768143 -0.137361958622932 0.162188246846199 -0.120611742138863 0.349822372198105 -0.013183441944420 0.260284870862961 0.024596398696303 -0.424538105726242 -0.049772508442402 0.155044764280319 -0.348657488822937 -0.149612531065941 0.817860782146454 0.037256956100464 0.501484930515289 -0.052963852882385 -0.662712514400482 0.180831760168076 0.472911447286606 -0.056707892566919 -0.123130932450294 -0.537229657173157 0.002721398137510 0.308893859386444 -0.271396309137344 0.383022278547287 -0.460983812808990 -0.051598738878965 0.146790102124214 -0.364454537630081 0.341725170612335 0.702714741230011 -0.240788087248802 0.054972924292088 0.329023420810699 -0.036775022745132 -0.394485265016556 -0.185661986470222 0.103109039366245 -0.112752981483936 0.097763441503048 -0.038070823997259 0.029897250235081 0.012280885130167 -0.052763245999813
-0.049969125539064 0.833787798881531 -0.275887966156006 -0.009160328656435 0.338460534811020 0.151692405343056 -0.171727985143661 0.313684940338135 -0.139857515692711 -0.465330421924591 1.239908814430237 -0.311980575323105 -0.403241604566574 0.078888215124607 -0.060891572386026 0.435659170150757 0.039345413446426 -0.102357499301434 0.010398925282061 -0.151206240057945 0.006158040370792 -0.097208648920059 0.035047303885221 0.008546628989279 0.046981971710920 -0.135616809129715 -0.514309644699097 0.054776776582003 0.024462409317493 1.148465037345886 0.078728251159191 0.535807311534882 -0.370330721139908 -0.315927386283875 -0.217494353652000 0.022538349032402 -0.064404286444187 -0.148389786481857 -0.846637606620789 -0.617613613605499 0.460154891014099 -0.545786321163177 -0.554837942123413 -0.304816544055939 -0.256153643131256 -0.022690847516060 -0.542585670948029 -0.338248699903488 -0.074414253234863 0.428891927003860 0.219975858926773 -0.086297661066055 0.725700378417969 0.050482667982578 0.296599656343460 0.650718212127686 -0.377821952104568 -0.417377501726151 0.028171110898256 -0.107490882277489 0.319699734449387 0.407070577144623 -0.211927786469460 0.009939076378942 0.118241548538208 0.032784018665552 -0.068139553070068 0.765430808067322 -0.272083014249802 -0.266634047031403 0.118879750370979 -0.208148196339607 -0.192163601517677 0.191102236509323 0.022711215540767 -0.043224900960922 1.170538544654846 0.096138730645180 0.109977275133133 0.120871469378471 0.088513612747192 0.303297877311707 0.053674649447203 0.238117098808289 -0.257590204477310 0.222485721111298 0.036520466208458 0.138109907507896 0.234923690557480 -0.136563092470169 -0.356468200683594 -0.021766215562820 0.177878871560097 -0.457965731620789 -0.248432084918022 0.401713192462921 -0.488142371177673 -0.178519532084465 0.367636173963547 -0.155620321631432 0.579730272293091 0.490858197212219 -0.238930374383926 0.021836908534169 -0.444716334342957 -0.174872055649757 0.026252426207066 -0.883681893348694 0.135029897093773 -0.256841361522675 0.207615271210670 -0.205449417233467 -0.008534463122487 0.132774099707603 0.063862174749374 0.097485281527042 -0.152158737182617 -0.106526054441929 0.421965867280960 0.061691250652075 0.171287879347801 0.571161985397339 0.565217614173889 0.376644223928452 0.652147650718689 0.117830991744995 -0.304337620735168 0.001401350134984 0.104316182434559 -0.218364715576172 0.061842117458582 0.029649203643203 -0.043220877647400 0.032005041837692 -0.243344679474831 0.477609157562256 -0.168376863002777 -0.129751414060593 -0.003549995599315 -0.345023036003113 -0.281156271696091 0.133020266890526 -0.224874094128609 -0.498044878244400 -0.077726900577545 0.199676871299744 -0.067524798214436 0.538586258888245 -0.151229053735733 0.001173365395516 -0.475240170955658 -0.210203632712364 0.724371671676636 -0.350813955068588 -0.210696965456009 0.039534009993076 0.061019439250231 -0.063492715358734 -0.101580083370209 0.132854804396629 -0.265940397977829 -0.216161280870438 -0.214494943618774 -0.406616449356079 0.583015143871307 0.068322606384754 -0.095750086009502 -0.279224067926407 -0.444367885589600 -0.170438051223755 0.642672240734100 -0.196464464068413 -0.280542850494385 0.262844324111938 -0.065748974680901 -0.075267501175404 -0.131145849823952 -0.223871752619743 -0.697621285915375 -0.182093515992165 -0.521480560302734 0.828440725803375 0.455018460750580 -0.064422294497490 -0.395868599414825 -0.176826059818268 0.015617932192981 -0.000814407307189 0.066373512148857 0.008912649936974 0.389505833387375 -0.522646963596344 -0.085875466465950 0.220377832651138 0.165207237005234 -0.103098064661026 -0.014106309972703 0.504819393157959 -0.438864022493362 0.426819115877151 -0.281837373971939 -0.303574174642563 0.383121967315674 0.013063910417259 -0.300681859254837 0.232473865151405 -0.124319128692150 0.130490183830261 0.375933766365051 0.201159656047821 0.075433462858200 0.253530353307724 -0.031012341380119 0.407698541879654 0.003412082558498 0.186663001775742 0.524749338626862 -0.395034313201904 0.895726382732391 -0.124023340642452 0.066512458026409 -0.402892440557480 -0.262109547853470 -0.132914125919342 0.056529860943556 -0.119514755904675 0.379649013280869 -0.599061429500580 0.191754236817360 -0.138419806957245 0.490055739879608 0.203051105141640 -0.329483985900879 -0.269077450037003 0.600383460521698 -0.824939846992493 0.080012194812298 -0.059387587010860 -0.479032546281815 0.843761324882507 -0.109524272382259 -0.108008049428463 0.222059518098831 0.216621175408363 0.016395585611463 -0.177414894104004 0.397849261760712 -0.340460211038589 0.037946697324514 -0.129532828927040 0.115646980702877 -0.010885189287364 -0.281224012374878 0.223352774977684 -0.181036084890366 0.074765123426914
-0.190708443522453 0.376106977462769 -0.098458364605904 -0.168395042419434 0.462827116250992 0.200126796960831 -0.057949956506491 0.149486631155014 -0.181940689682961 1.143149614334106 -0.365157812833786 -0.649029135704041 -0.572529196739197 0.148853972554207 -0.086375549435616 0.394947528839111 0.086621820926666 -0.107244186103344 0.065909743309021 -0.544402778148651 0.169954583048820 -0.262796968221664 0.050490308552980 0.022080693393946 0.225155428051949 -0.280187487602234 0.213895589113235 0.076986722648144 0.122754901647568 -0.093425177037716 0.044478122144938 0.308774530887604 0.284191817045212 0.635332345962524 0.055142853409052 0.087113603949547 -0.741792857646942 -0.014771617017686 -0.436000883579254 -0.141281470656395 0.328212797641754 -0.449748754501343 -0.326164931058884 -0.270878881216049 -0.147483304142952 -0.526108622550964 -0.368115007877350 -0.215385377407074 -0.030427211895585 -0.392181396484375 1.122194170951843 0.208669573068619 0.054143004119396 0.239436477422714 0.543630897998810 0.438401043415070 -0.524766743183136 -0.155170261859894 0.094508498907089 -0.276898086071014 -0.238144993782043 -0.002827352378517 -0.161351233720779 0.144642114639282 0.074080243706703 0.070833481848240 0.364342242479324 0.194025054574013 -0.080972753465176 0.007471299730241 1.058009743690491 -0.176904663443565 0.041695907711983 0.007579335011542 0.055857256054878 -0.408403813838959 -0.658408641815186 0.057864643633366 0.496519804000854 0.147536754608154 0.043394591659307 -0.516397595405579 0.089808084070683 0.301523476839066 0.297135263681412 0.063876688480377 0.321644335985184 -0.395621716976166 -0.601663053035736 0.574342370033264 -0.130689188838005 0.671360075473785 0.387166410684586 -0.234361052513123 -0.387309908866882 0.431024134159088 -0.108352750539780 -0.453790932893753 -0.217403531074524 -0.061604663729668 -0.599300086498260 -0.043256998062134 -0.242167770862579 -0.059607300907373 0.087990656495094 0.077453948557377 0.123510129749775 -0.434223443269730 0.389630913734436 -0.121966086328030 0.364547520875931 -0.451650142669678 0.062450896948576 -0.359400391578674 0.123958706855774 0.017147777602077 0.448817253112793 0.174653545022011 0.152300521731377 0.282354950904846 0.424653440713882 -0.657868325710297 -0.147675096988678 -0.214818239212036 0.638017892837524 -0.432122379541397 -0.183858752250671 0.080849662423134 -0.481517493724823 -0.018826697021723 -0.134739577770233 0.080300539731979 0.118050791323185 0.041209232062101 -0.160343021154404 -0.178212106227875 0.356288611888885 0.709672570228577 -0.461814314126968 -0.045245554298162 -0.375445038080215 0.081597432494164 -0.101486012339592 -0.322190642356873 -0.068345390260220 0.415350377559662 0.097058653831482 0.263204902410507 0.090378761291504 0.080205358564854 0.704738855361938 0.132038429379463 0.928260385990143 -0.253795266151428 0.358897089958191 -0.090090833604336 0.281527251005173 0.037450198084116 -0.202631682157516 0.354624330997467 -0.091910265386105 -0.205413162708282 -0.096090652048588 0.495958715677261 -0.320163428783417 -0.466122180223465 -0.081956163048744 0.467343479394913 0.021243980154395 0.105017155408859 -0.244012713432312 -0.180444896221161 -0.222351565957069 0.844628870487213 0.207967549562454 -0.049436502158642 -0.360886514186859 -0.056152358651161 -0.296986311674118 0.260330885648727 -0.084033012390137 0.568032205104828 0.452467471361160 -0.225341841578484 -0.050920575857162 -0.075430162250996 0.054221358150244 0.131762132048607 -0.339922994375229 -0.540181398391724 0.007758147083223 -0.352717667818069 -0.624670326709747 -0.116361692547798 -0.416787207126617 -0.027577826753259 0.102220818400383 0.209460422396660 -0.010450908914208 0.092059284448624 0.772729575634003 0.007999399676919 0.344844847917557 0.368084877729416 -0.066900238394737 -0.188279166817665 0.067872710525990 -0.476099193096161 -0.103498198091984 0.098012804985046 0.019534938037395 -0.309957861900330 0.062173631042242 0.140022829174995 0.104265704751015 -0.220141470432281 0.206040844321251 0.199737399816513 -0.443065166473389 0.114948891103268 -0.023845423012972 -0.690428972244263 -0.394633799791336 0.873183250427246 0.098580412566662 0.275804966688156 -0.034832783043385 0.312206923961639 -0.333790600299835 0.211960315704346 0.135446459054947 0.303149640560150 0.250202864408493 -0.030347682535648 0.611347794532776 -0.508565545082092 -0.084748871624470 -0.544549584388733 -0.258125811815262 0.172407165169716 -0.092799767851830 0.658253610134125 0.315245389938354 -0.376206547021866 -0.116002023220062 -0.045210406184196 -0.059647064656019 0.339165836572647 0.262995928525925 -0.068626999855042 -0.172480732202530 -0.238985762000084 0.192818567156792 0.097523778676987 0.005060753785074 -0.053571492433548
