-0.370678186416626 -0.009715765714645 0.784020066261292
-0.234378293156624 -0.595191061496735 0.221080958843231
-0.090502448379993 0.921007990837097 0.159764036536217
-0.152462482452393 -0.068990685045719 0.568420886993408
-0.222728028893471 -0.016060298308730 -0.168022990226746
-0.189230620861053 0.002173628192395 -0.319103449583054
0.031279109418392 -0.054528489708900 -0.231320187449455
0.009113397449255 -0.349391043186188 -0.403444409370422
-0.481306612491608 -0.140659406781197 -0.007012320682406
-0.087753817439079 0.301499783992767 -0.241078883409500
-0.144969388842583 -0.245623216032982 -0.271846562623978
-0.229975402355194 0.200256958603859 1.070055007934570
-0.179157644510269 -0.089066408574581 -0.121579438447952
0.008573504164815 0.015342720784247 -0.146924719214439
-0.327464222908020 -0.136421963572502 0.412096858024597
-0.016352139413357 0.006682056933641 -0.170677989721298
-0.000584629422519 -0.046373426914215 -0.080887675285339
0.049870122224092 -0.385350525379181 -0.088718086481094
-0.006060151848942 -0.014196632429957 -0.222409084439278
-0.240601912140846 -0.157665371894836 -0.103890933096409
-0.022772843018174 0.028296504169703 -0.277044057846069
-0.047392610460520 0.922330021858215 0.072722509503365
0.147479191422462 0.455137372016907 -0.152699634432793
0.013774598948658 -0.032298408448696 -0.222103849053383
0.029438549652696 0.038750499486923 -0.270947366952896
-0.059782706201077 -0.159095615148544 -0.285031765699387
0.020282311365008 -0.111086279153824 -0.214902594685555
-0.087865345180035 0.049087706953287 -0.247517377138138
0.180018067359924 0.519791662693024 -0.098005168139935
-0.064024947583675 -0.039001170545816 0.445979475975037
-0.015649374574423 -0.254117697477341 -0.375908941030502
-0.064904414117336 -0.536578238010406 -0.005560962483287
0.167115747928619 0.308563321828842 -0.258269727230072
-0.009531268849969 0.011736679822206 -0.273711860179901
-0.104215681552887 0.427540928125381 -0.237098485231400
0.017999324947596 -0.013709138147533 -0.088402882218361
0.142694279551506 -1.020339369773865 0.167342364788055
-0.010274276137352 -0.005927245598286 -0.240331500768661
0.138037532567978 0.031096220016479 -0.249537631869316
-0.012860725633800 -0.326439172029495 -0.248569309711456
-0.033551674336195 -0.160954713821411 0.757885336875916
0.058867976069450 -0.506500303745270 -0.097580596804619
0.097239367663860 -0.237399250268936 -0.517122805118561
-0.070432126522064 -0.324232220649719 0.615376412868500
0.048308689147234 -0.083207577466965 -0.218889430165291
-0.351057976484299 -0.039919853210449 -0.104807034134865
0.037241324782372 -0.050247158855200 -0.233685940504074
-0.375382542610168 0.040510609745979 0.336523413658142
0.165338918566704 -0.100456178188324 -0.170371830463409
0.072557277977467 -0.440030425786972 -0.244784817099571
-0.304124474525452 0.047857861965895 0.941534638404846
0.109136976301670 -0.414102196693420 -0.260057210922241
-0.005210186354816 -0.004017063882202 -0.242905393242836
-0.432600855827332 0.195149078965187 -0.189668253064156
-0.193121209740639 -0.089652851223946 -0.134217426180840
0.249544501304626 0.323923528194427 -0.091356009244919
0.010854950174689 -0.501095831394196 -0.338830590248108
-0.470554858446121 0.591108739376068 0.001535510411486
-0.025457805022597 -0.548920810222626 -0.126324430108070
0.230157196521759 -0.240524202585220 -0.100646823644638
0.059032518416643 -0.069019488990307 -0.379066824913025
0.280692964792252 -0.372874289751053 -0.329267024993896
-0.039516407996416 -0.165321230888367 -0.122851178050041
0.060436211526394 -0.057272158563137 -0.224202573299408
0.331738531589508 -0.657201111316681 0.469110995531082
0.027896717190742 -0.641371071338654 -0.122600786387920
0.430335253477097 -1.378026843070984 0.130830168724060
0.158927336335182 -0.258149683475494 0.852953493595123
-0.242236986756325 -0.006440344266593 -0.290919363498688
-0.180850386619568 0.275699138641357 -0.185781627893448
0.015137534588575 -0.004545519594103 -0.264180928468704
0.054127201437950 -0.024883812293410 -0.167470782995224
-0.589215457439423 0.089601427316666 -0.180503547191620
0.142505064606667 -0.033747427165508 0.085536554455757
-0.063786283135414 0.556716740131378 -0.462019979953766
0.215355604887009 -0.515325069427490 0.995529472827911
-0.166128024458885 0.219949856400490 -0.809221744537354
0.479677915573120 -0.037086185067892 -0.394238501787186
-0.095286063849926 -0.871188402175903 0.115496598184109
-0.027591494843364 0.039381455630064 -0.174116566777229
-0.252581238746643 -0.723507702350616 -0.426934719085693
-0.148698195815086 -0.596780359745026 0.162552565336227
0.019312806427479 -0.001439321669750 -0.216665551066399
-0.018216392025352 0.694340705871582 -0.727568626403809
0.061550959944725 -0.011217576451600 -0.282487779855728
0.004144960548729 -0.862914264202118 -0.628470301628113
0.390891402959824 0.128364428877831 -0.228778466582298
0.056133873760700 -0.018483631312847 -0.253250420093536
0.431527078151703 -0.035322852432728 -0.384432464838028
0.026111507788301 0.316423386335373 -0.691664636135101
0.116605252027512 -0.000199132249691 -0.307103991508484
0.016622867435217 -0.028713429346681 -0.217751473188400
0.228104546666145 0.220486685633659 -0.401235401630402
-0.086560986936092 -0.047643724828959 1.241807699203491
1.459703683853149 0.110047087073326 0.273314416408539
-0.020594414323568 0.825939536094666 -0.408798068761826
0.167312771081924 -0.200242370367050 -0.147148638963699
0.025585796684027 -0.002720140153542 -0.193272918462753
0.208523586392403 0.450785011053085 -0.715592801570892
0.223969429731369 1.114793181419373 -0.582247674465179
-0.126054167747498 1.242237091064453 -0.088997036218643
0.035381771624088 -0.011649609543383 -0.305843114852905
-1.007203459739685 0.063439153134823 -0.125204116106033
-0.211626201868057 -0.219642385840416 -0.199185177683830
-0.141718134284019 0.153198748826981 1.034262299537659
0.045832432806492 -0.113541968166828 -0.038951482623816
0.562194585800171 0.540496706962585 -0.169403865933418
-0.098605930805206 0.016218299046159 1.061199665069580
0.158943772315979 0.006660728249699 -0.270953327417374
-0.541988492012024 -0.068681940436363 -0.106572531163692
0.133386462926865 0.002822603331879 -0.285748213529587
0.242504298686981 0.030323205515742 1.000048160552979
0.104010500013828 -0.172015234827995 -0.317902684211731
0.074536077678204 -0.104159012436867 -0.079213321208954
0.144849166274071 -0.306840568780899 0.899056494235992
0.226026743650436 0.039612729102373 -0.107902787625790
0.185621649026871 -0.001681097201072 -0.292858213186264
-0.439334332942963 0.143754824995995 -0.151904687285423
0.063591718673706 -0.017780322581530 -0.075488679111004
0.440729111433029 0.555678725242615 -0.278641641139984
0.088093727827072 -0.079758554697037 -0.139818936586380
-0.685283064842224 -0.231901347637177 -0.241208404302597
-0.044448141008615 -0.104456126689911 -0.299219280481339
0.059264309704304 1.140906333923340 -0.093042694032192
-0.213110253214836 -0.295224189758301 -0.204795867204666
0.353934407234192 -0.044885326176882 -0.200637131929398
0.385125488042831 0.753633916378021 -0.857701659202576
-0.164967715740204 -0.159930825233459 -0.124751769006252
0.141980335116386 0.307417958974838 -0.370531409978867
0.125414222478867 0.228774413466454 -0.352631360292435
-0.221457153558731 1.357250928878784 0.492640316486359
0.203212007880211 -0.127658799290657 -0.688204705715179
-0.078919179737568 0.495740354061127 -0.227466717362404
-0.519391775131226 -0.142951980233192 -0.019856961444020
0.014414812438190 0.092265166342258 -0.111328966915607
0.052463382482529 -0.066467091441154 -0.242446735501289
0.212820857763290 -0.212774127721786 -0.669569790363312
-0.058774340897799 1.039754152297974 -0.564203739166260
-0.144306048750877 -0.491525948047638 0.226852759718895
-0.084631912410259 0.427516162395477 -0.083276398479939
0.053818784654140 0.060268279165030 0.484949320554733
-0.143964931368828 0.048832263797522 -0.102843791246414
0.203189015388489 0.333037167787552 -0.156902343034744
0.017393968999386 -0.023386839777231 -0.139534205198288
-0.067921072244644 0.354164212942123 0.192093864083290
0.195186451077461 0.201924115419388 -0.125958412885666
0.001634175539948 0.066834077239037 -0.077006280422211
-0.192547857761383 -0.253798037767410 0.412831723690033
-0.020240735262632 0.001510817557573 -0.122425422072411
0.031337328255177 1.231820106506348 0.363360613584518
-0.073102541267872 -0.023391459137201 -0.422601103782654
-0.213460728526115 -0.027355564758182 -0.040069222450256
0.506601095199585 -0.006290876772255 -0.164212509989738
-0.184287860989571 -0.024430850520730 0.448431849479675
-0.006700851954520 0.143308311700821 -0.136701315641403
-0.205579444766045 -0.235268563032150 -0.213782325387001
-0.265780657529831 -0.160843312740326 0.556800365447998
0.233315750956535 0.004742086399347 -0.373465120792389
0.183212295174599 -0.129260092973709 -1.178654193878174
0.110633283853531 -0.336281836032867 0.568824172019958
0.575563848018646 0.065480358898640 0.027569005265832
-0.028652353212237 -0.000366760243196 -0.050998505204916
0.005914720706642 -0.034633241593838 0.030907744541764
0.023807337507606 -0.585588753223419 1.054840922355652
0.003749889088795 -0.971879541873932 0.747211933135986
-0.026354616507888 0.071868062019348 -0.086382523179054
0.083082206547260 0.118808992207050 -0.421346187591553
-0.193084195256233 0.013861062936485 -0.100340910255909
-0.057139012962580 -0.302411615848541 -0.567258358001709
0.050474219024181 -0.011730398982763 -0.289623081684113
-0.030992509797215 -0.570247471332550 -0.061482951045036
0.255070447921753 -0.831994116306305 -0.230888336896896
-0.208588108420372 -0.162096709012985 -0.150156110525131
-0.005304419901222 0.057623811066151 -0.309849232435226
0.032192647457123 0.096847862005234 -0.123557001352310
-0.122767455875874 -0.127003356814384 -0.339880943298340
-0.040167607367039 0.005637175869197 -0.111333750188351
0.022598003968596 -0.087325260043144 -0.283185869455338
0.019376909360290 0.217739477753639 -0.094077467918396
-0.059529241174459 -0.204425305128098 -0.245141476392746
-0.057736255228519 -0.068036317825317 -0.127090111374855
0.235052272677422 -0.078710071742535 -0.595516800880432
-0.263286948204041 -0.227412164211273 -0.197301656007767
-0.234304651618004 0.012333139777184 0.330654472112656
0.042507205158472 -0.088895797729492 -0.242250785231590
0.189460709691048 0.575611710548401 0.174527034163475
-0.333509922027588 0.006309595424682 0.240625366568565
0.047611400485039 0.062614798545837 0.407787442207336
-0.196260303258896 0.106856107711792 -0.063774466514587
0.169491082429886 -0.022793071344495 -0.265469193458557
-0.108361706137657 -0.200867399573326 0.703991830348969
0.017884841188788 0.117332436144352 -0.163825854659081
