-0.044502474367619 -0.048517256975174 -0.072692781686783 -0.066608078777790 0.005871968809515 0.038595378398895 0.026131687685847 0.052408710122108 0.059487238526344
-0.031996551901102 -0.034573093056679 -0.026994051411748 -0.037331208586693 0.006499307230115 0.019738823175430 0.022872505709529 0.040690537542105 0.050213214010000
-0.044906124472618 -0.037846896797419 -0.051607806235552 -0.060193076729774 0.019716864451766 0.000234324164921 0.022360470145941 0.028139721602201 0.028203615918756
-0.019939549267292 -0.021567899733782 -0.056840676814318 -0.052504051476717 0.014319309033453 0.004520074464381 0.019127903506160 0.033491894602776 0.056803766638041
0.006592029239982 0.000376209645765 0.000347364635672 -0.013865238986909 -0.012607885524631 -0.012268910184503 -0.010375506244600 -0.008978419937193 -0.007547705434263
-0.027723046019673 -0.004830075893551 -0.025586392730474 -0.011875132098794 -0.020898260176182 -0.015465212054551 -0.011206777766347 0.007030573207885 -0.020310694351792
0.020649032667279 0.027675569057465 0.018186967819929 0.016246775165200 -0.012362171895802 0.008587662130594 0.010586447082460 -0.000892266514711 -0.001776493154466
0.007529567927122 0.008819977752864 0.009831565432250 0.023485971614718 0.019152192398906 -0.000225584619329 -0.003465732792392 0.003249410772696 0.002499504480511
0.018987111747265 0.024454735219479 0.014910474419594 0.036523491144180 0.022268777713180 0.038443256169558 0.047515437006950 0.043712258338928 0.036157600581646
0.010672355070710 0.012934570200741 0.000018886083126 0.010364075191319 -0.020256115123630 -0.017840554937720 -0.004887986462563 -0.017416998744011 -0.007820446044207
0.012896233238280 0.023411070927978 0.006959381513298 0.023826261982322 0.025708051398396 0.021983392536640 0.015350049361587 0.027812005952001 0.017750026658177
-0.002276552841067 0.002173315500841 -0.056917540729046 -0.017936892807484 0.033122200518847 0.030274169519544 0.043083600699902 0.038448959589005 0.061136167496443
-0.013067922554910 -0.004326684400439 -0.001509460736997 0.006370907183737 -0.003602989716455 -0.003669668920338 -0.005982355214655 -0.014358840882778 -0.010131159797311
0.011849728412926 -0.005852620583028 -0.014843487180769 -0.008830579929054 -0.010966317728162 -0.014808592386544 -0.001247292850167 -0.012692019343376 -0.002848578616977
-0.091550976037979 -0.070039145648479 -0.092149496078491 -0.083063691854477 0.011988840065897 0.016917480155826 0.008119765669107 0.028095167130232 0.053894925862551
-0.004747794475406 -0.008601719513535 -0.022453473880887 -0.002986586652696 -0.004832833074033 -0.001702015753835 0.003365983255208 -0.031224220991135 -0.011993117630482
-0.028842041268945 -0.027377454563975 -0.034071777015924 -0.024719629436731 0.010488129220903 0.017289470881224 0.007707485463470 -0.000743348791730 -0.008172666653991
-0.057337500154972 -0.041333600878716 -0.050200898200274 -0.034195102751255 0.005020715761930 0.017660295590758 0.001526623731479 0.018899062648416 0.022925255820155
0.009370833635330 0.027439955621958 0.023640524595976 0.011301168240607 -0.005882375873625 -0.005264290608466 0.002341683721170 0.000380352954380 0.001408014795743
-0.024259077385068 -0.014499927870929 0.001644069328904 0.006693624425679 0.002053382806480 0.013035794720054 -0.000159827555763 0.002779500558972 0.009554059244692
0.019023567438126 0.025643331930041 0.014996479265392 0.004432653542608 -0.000383834762033 -0.011587464250624 -0.001823804690503 -0.003062144154683 -0.015553877688944
-0.008140079677105 0.005539292003959 -0.010139556601644 -0.003658446250483 0.012463952414691 0.004193880595267 -0.018258502706885 -0.008456890471280 -0.004018426407129
-0.003414721693844 -0.024897640570998 -0.023718599230051 -0.016385460272431 -0.012578307650983 -0.012767914682627 -0.008047800511122 -0.013299569487572 -0.026355404406786
0.018324326723814 0.008846752345562 0.006524440366775 0.006574817933142 -0.012141063809395 -0.007549791596830 -0.020306007936597 0.000354729010724 -0.001817695912905
-0.011071531102061 -0.002321325242519 -0.002234235173091 0.007180468644947 -0.014041696675122 -0.001498430152424 -0.013889908790588 -0.007906829938293 -0.002962707541883
-0.027973210439086 -0.003936082590371 -0.010197602212429 -0.008665200322866 -0.006492587272078 0.005557553842664 -0.009347315877676 -0.014251607470214 -0.020585875958204
0.029226522892714 0.017826795578003 0.005628925282508 0.004972665570676 0.017733996734023 0.009146517142653 -0.013795630075037 0.002863847650588 0.011298269033432
-0.006669738329947 -0.008695700205863 -0.010623311623931 -0.017543002963066 -0.022080210968852 -0.018285207450390 -0.022941192612052 -0.012269484810531 -0.022079231217504
-0.039648491889238 -0.035325374454260 -0.028742054477334 -0.036275628954172 -0.023217404261231 -0.041793461889029 -0.034754931926727 -0.017772329971194 -0.025897322222590
-0.038344144821167 -0.041188690811396 -0.064674556255341 -0.067547887563705 -0.008929155766964 -0.020364029332995 -0.021623397246003 -0.022220881655812 0.003319820156321
-0.054988436400890 -0.045579627156258 -0.051379479467869 -0.053533680737019 -0.025864683091640 -0.011908106505871 0.014094850048423 0.018284499645233 0.027371665462852
0.006666993722320 0.012920520268381 0.014997841790318 0.026020582765341 0.024513488635421 0.032336395233870 0.030708122998476 0.046341586858034 0.034234911203384
-0.011626165360212 -0.006793950218707 -0.002510444261134 -0.004829009063542 -0.012838628143072 -0.016526997089386 -0.010615346021950 0.006989374291152 -0.012418440543115
0.014419140294194 -0.004364431835711 -0.002946044085547 0.007991585880518 -0.007852557115257 -0.002460164716467 -0.021856281906366 -0.021227929741144 -0.004840148612857
-0.019133644178510 -0.004830018151551 0.002035263227299 -0.017307870090008 -0.014339548535645 -0.009444261901081 -0.030658021569252 -0.030870033428073 -0.009075789712369
-0.048275098204613 -0.012210719287395 -0.021193061023951 0.003645126940683 -0.006763052195311 -0.007084857206792 -0.021548585966229 -0.009034349583089 -0.021084614098072
0.001089333673008 -0.013732875697315 -0.021241143345833 0.005317268893123 0.026370704174042 0.031811974942684 0.015974439680576 0.021323999390006 0.013468796387315
0.010554678738117 0.025950120761991 0.009680395014584 0.005375685635954 0.008338672108948 0.006839827634394 0.004310419317335 -0.012877730652690 -0.000779752386734
0.076703183352947 0.046861745417118 0.051169928163290 0.071706049144268 0.085924781858921 0.109436571598053 0.102129861712456 0.100678913295269 0.081647917628288
-0.029615875333548 -0.023278489708900 -0.040316876024008 -0.017638977617025 -0.006419447250664 0.002660352736712 -0.007642442826182 -0.009953760541975 0.001576613169163
0.001672248356044 0.019965684041381 -0.019977699965239 -0.024208061397076 0.029525557532907 0.019592594355345 0.017170751467347 0.025032693520188 0.012715036049485
-0.003177459351718 0.006391086149961 -0.014140265993774 0.005483016837388 0.002168437931687 0.009520840831101 0.028320534154773 0.020148517563939 0.027636567130685
-0.022517846897244 -0.012352382764220 -0.018001580610871 -0.010932586155832 -0.030308581888676 -0.025967806577682 -0.048378452658653 -0.035288795828819 -0.060751430690289
-0.006540392991155 -0.020240318030119 -0.052282091230154 -0.039170734584332 0.009907113388181 -0.009503602981567 -0.008424296043813 -0.008831756189466 0.014997998252511
0.025957167148590 0.007237100508064 0.018328886479139 -0.011786774732172 -0.015717569738626 -0.001122525893152 -0.022626370191574 -0.010016676038504 -0.024579757824540
0.000873189594131 -0.036702014505863 -0.022199764847755 -0.009382701478899 -0.010881691239774 0.007843177765608 -0.004618322476745 0.029154120013118 0.008293853141367
0.015218185260892 0.028576377779245 0.013323241844773 -0.000067999215389 -0.013827024027705 -0.023526158183813 -0.002107569249347 0.002152916043997 -0.014468080364168
-0.011218909174204 -0.038508906960487 -0.047307603061199 -0.063157841563225 -0.012828658334911 -0.016445746645331 -0.016798116266727 -0.034489434212446 -0.002934624208137
0.012620815075934 0.022513622418046 0.017670994624496 0.004586523864418 0.019756296649575 -0.003230406437069 0.011882329359651 -0.000089264060080 0.009101788513362
-0.002343460917473 0.009250651113689 -0.001174700446427 0.006172725930810 -0.001854490023106 0.009842570871115 0.002235720865428 0.000933557981625 0.015728043392301
-0.033090032637119 -0.046228166669607 -0.080701865255833 -0.064543783664703 0.000022642208933 0.004527490586042 0.036777488887310 0.049047589302063 0.062774516642094
-0.022446889430285 -0.007879152894020 0.010026335716248 -0.006706340238452 -0.005897927563637 0.002487037330866 0.004125898703933 -0.004997026640922 -0.008310484699905
0.015953730791807 0.010765602812171 -0.007805015891790 0.005207668058574 -0.018829697743058 -0.012360374443233 -0.024003917351365 -0.001948397490196 -0.035890549421310
-0.003203510073945 0.021740753203630 0.003578839357942 -0.010459692217410 0.003267141291872 0.017838304862380 -0.003189569571987 0.027355559170246 0.036384910345078
-0.015131080523133 -0.019535480067134 -0.004999946337193 -0.006491834297776 -0.011050031520426 -0.023966068401933 -0.012465870007873 -0.014179321005940 -0.020982664078474
0.022370189428329 0.033904619514942 -0.017788633704185 -0.005119679961354 -0.020738314837217 -0.014811648055911 -0.022184576839209 -0.022168027237058 -0.027047056704760
-0.020113488659263 0.001015265937895 0.007993041537702 0.019475426524878 0.028266385197639 0.017836229875684 0.010730232112110 0.016131496056914 0.026474304497242
-0.036850269883871 -0.017088634893298 -0.022627780213952 -0.018753137439489 -0.025941383093596 -0.038898654282093 -0.025767421349883 -0.028808437287807 -0.009170928969979
-0.007377026136965 -0.020209163427353 -0.015369936823845 0.005432645324618 -0.004949669353664 -0.008020797744393 0.010599294677377 0.010349256917834 0.006407382898033
0.018828146159649 0.029231861233711 0.006004026625305 0.036690250039101 0.032724753022194 0.043712899088860 0.009966156445444 0.007353854831308 0.022381642833352
-0.034617617726326 -0.027270827442408 -0.039711318910122 -0.026301903650165 -0.012571432627738 -0.020181607455015 -0.011724734678864 -0.022208252921700 0.002969562308863
0.004105644300580 -0.005354754161090 0.002567113377154 -0.001756236422807 0.005232054740191 -0.009147629141808 -0.000696084054653 0.013285222463310 0.025366129353642
-0.035452440381050 -0.017589738592505 -0.011787727475166 -0.006608321331441 0.000767698627897 -0.015424805693328 -0.041925918310881 -0.027546878904104 -0.020354190841317
0.010771458968520 -0.010158203542233 0.003697338281199 -0.009906493127346 -0.003682698123157 -0.003448282834142 -0.013346409425139 0.000798107183073 -0.005998936947435
-0.021561032161117 -0.016812847927213 -0.017555858939886 -0.010723154991865 -0.011859247460961 -0.009011614136398 -0.027271268889308 -0.023924184963107 -0.032755233347416
-0.022279996424913 -0.022795675322413 -0.010588584467769 -0.022669525817037 -0.015213781967759 -0.016301825642586 -0.006573380902410 -0.000599455612246 -0.034674987196922
-0.066908009350300 -0.058931406587362 -0.074655570089817 -0.079033829271793 -0.101185150444508 -0.110572166740894 -0.095614753663540 -0.102096304297447 -0.096850283443928
-0.029652303084731 -0.014773720875382 -0.020061971619725 -0.026257270947099 -0.024583220481873 -0.011049246415496 -0.023227468132973 -0.026512024924159 -0.013814075849950
-0.047312192618847 -0.038764130324125 -0.023590475320816 -0.036292739212513 -0.027110429480672 -0.010018795728683 -0.021789327263832 -0.009789543226361 -0.001451662625186
0.002219769870862 0.019299654290080 0.000397280178731 -0.001555775292218 0.016419051215053 0.023252325132489 0.009266870096326 0.008930021896958 0.015886615961790
0.004033498931676 -0.001759388949722 0.009717235341668 -0.008632032200694 -0.003685595467687 -0.006832432933152 0.006785763427615 -0.012481414712965 0.006273571867496
0.004453865811229 0.009716399945319 -0.000046843466407 -0.011096816509962 -0.011212647892535 0.001878153765574 -0.001581824617460 0.000950631510932 -0.003710513236001
-0.038258783519268 -0.025994621217251 -0.033180411905050 -0.063447102904320 -0.073700785636902 -0.056903377175331 -0.053124837577343 -0.031213063746691 -0.022607572376728
-0.056449789553881 -0.065437972545624 -0.081709861755371 -0.073932670056820 -0.061286117881536 -0.055719390511513 -0.065326333045959 -0.055367182940245 -0.052205838263035
0.046413537114859 0.044770848006010 0.035042267292738 0.041594550013542 0.082043834030628 0.073312677443027 0.039729151874781 0.040166623890400 0.045344229787588
-0.009035468101501 -0.017218802124262 -0.014079031534493 -0.024813037365675 -0.044734604656696 -0.042146243155003 -0.052968494594097 -0.082346715033054 -0.059621449559927
-0.038910817354918 -0.040162649005651 -0.042487170547247 -0.003917101770639 0.006865003146231 0.020885549485683 0.001092753838748 -0.015191302634776 -0.015161179937422
-0.019392462447286 -0.016770379617810 -0.032151479274035 -0.026667315512896 -0.023715265095234 -0.017075410112739 -0.001876891590655 -0.015817336738110 0.014335831627250
-0.022681385278702 -0.015279744751751 -0.007778842933476 0.001025222009048 -0.007719366345555 -0.001201915438287 -0.011839831247926 -0.012392637319863 -0.017322232946754
0.009378529153764 -0.002198071917519 0.001983769703656 0.006731686647981 0.013935027644038 0.012971145100892 0.015752216801047 0.013473101891577 0.027501642704010
-0.015655340626836 -0.007760210894048 -0.003724881680682 -0.018470603972673 -0.003163431771100 0.004422776866704 -0.005123844835907 -0.001617185072973 -0.016837127506733
-0.013452863320708 -0.017297275364399 -0.005801949184388 -0.001826489693485 -0.014261407777667 -0.020322313532233 -0.008595175109804 -0.025772059336305 -0.017375692725182
0.009399708360434 0.010119754821062 0.014438836835325 0.000715852191206 -0.003452454693615 0.015172841958702 -0.003547609318048 -0.002702393801883 0.003755703801289
0.031338226050138 -0.007585699670017 0.012966432608664 0.022352684289217 0.044160149991512 0.045998468995094 -0.024168211966753 -0.031961791217327 -0.035236690193415
-0.017059437930584 0.007876724004745 -0.011336709372699 -0.020001241937280 -0.015096585266292 0.006621939130127 0.002044832799584 0.005359444767237 -0.005895707290620
-0.055291928350925 -0.034558612853289 -0.024205805733800 -0.020042330026627 -0.024118119850755 -0.023639420047402 -0.010125480592251 -0.011601399630308 -0.017848884686828
0.001317746588029 -0.001658692141064 0.020156562328339 0.021506071090698 0.063250005245209 0.072337187826633 0.048496451228857 0.021028492599726 0.010756814852357
0.012089638039470 -0.008308309130371 -0.013792551122606 -0.025443397462368 -0.018613573163748 0.000268344621873 -0.013361395336688 -0.005586744286120 0.006658236496150
-0.007356004789472 0.000182600328117 -0.012828168459237 -0.011646329425275 0.003910536877811 -0.008747580461204 -0.002572723897174 0.021058771759272 0.015498214401305
-0.002631588373333 -0.017683437094092 -0.006354996003211 0.015651151537895 0.028880648314953 0.057144869118929 0.004752058535814 -0.017294907942414 -0.008293541148305
0.016559857875109 0.007777771446854 0.010307301767170 -0.004520779475570 -0.011603892780840 0.006422553211451 0.002753888489679 0.013582326471806 -0.008903544396162
-0.016231782734394 -0.008358905091882 -0.016429321840405 -0.014551446773112 0.003159857820719 -0.008728099055588 0.004748364444822 -0.008819943293929 -0.009146064519882
0.084891028702259 0.063048757612705 0.050357058644295 0.071280017495155 0.103459723293781 0.091803856194019 0.054253358393908 0.049947429448366 0.022887885570526
-0.047152709215879 -0.043350189924240 -0.034642830491066 -0.048067755997181 -0.062156494706869 -0.083780035376549 -0.062305700033903 -0.065026588737965 -0.084261268377304
-0.049354940652847 -0.048996638506651 -0.046519812196493 -0.024808185175061 0.014029406011105 0.001329081831500 -0.012206791900098 -0.062963835895061 -0.054559826850891
-0.005161837674677 0.005984330549836 -0.002260477747768 0.013014469295740 0.020527545362711 0.011753207072616 -0.013485694304109 -0.027878707274795 -0.026007393375039
0.014074059203267 0.022248702123761 -0.003027315018699 -0.006576512474567 0.016865422949195 0.017457861453295 -0.001882698270492 0.014216206967831 0.017918772995472
0.015105258673429 0.005840247031301 0.001300566829741 -0.003849858418107 -0.005459707230330 -0.004359446465969 0.000405348080676 0.004135748371482 0.002016395330429
0.025973670184612 0.006831216625869 0.019989242777228 0.014591577462852 0.058625634759665 0.095281250774860 0.048914410173893 0.016021346673369 0.020809650421143
0.115371003746986 0.083072744309902 0.039968013763428 0.098348028957844 0.109128378331661 0.098691895604134 -0.002194278640673 -0.035655420273542 -0.081401146948338
0.050522144883871 0.048834223300219 0.013594388030469 0.030791275203228 0.032232176512480 0.016506295651197 -0.045851413160563 -0.037296336144209 -0.029861195012927
0.016959648579359 -0.000055763917771 -0.012884785421193 -0.004324285313487 -0.003985175862908 0.004466435406357 0.004786358214915 0.011462862603366 0.010599121451378
-0.081519894301891 -0.068887382745743 -0.071006365120411 -0.106834530830383 -0.121709443628788 -0.113648854196072 -0.096654392778873 -0.064130492508411 -0.018359389156103
0.000457838585135 -0.010049331933260 -0.003256973810494 -0.020410746335983 -0.018511008471251 0.006877546664327 -0.016547255218029 -0.018439635634422 0.002889267867431
-0.036687452346087 -0.042924091219902 -0.047419168055058 -0.044566210359335 -0.058346625417471 -0.075626403093338 -0.060413502156734 -0.062811598181725 -0.059165861457586
-0.005198956467211 -0.017173144966364 -0.014733852818608 -0.009583168663085 -0.001773082069121 0.004704880062491 -0.018560353666544 -0.011330083943903 -0.001967022893950
0.093233071267605 0.087192945182323 0.063880175352097 0.103943876922131 0.130186125636101 0.132499843835831 0.095232553780079 0.075259618461132 0.038890011608601
0.031789314001799 0.017466772347689 0.028558026999235 0.018459198996425 -0.006675160024315 -0.025775654241443 -0.029142722487450 -0.013558460399508 -0.017167229205370
-0.002754789544269 -0.005544430576265 -0.007404352072626 -0.008268732577562 -0.004720080178231 0.000219447407289 -0.000023670261726 0.003985753748566 0.007070377003402
0.004973429720849 -0.014397625811398 -0.015860345214605 -0.013235827907920 -0.005823192652315 -0.008530975319445 -0.016791474074125 -0.009985099546611 -0.003983349073678
0.010586530901492 0.013631048612297 -0.001314759138040 -0.030154263600707 0.002968783490360 -0.013361907564104 0.010147089138627 0.010534960776567 0.033512130379677
-0.027948191389441 -0.027013614773750 -0.014247015118599 -0.031839400529861 -0.022249048575759 -0.043623425066471 -0.034186009317636 -0.024643823504448 -0.035004388540983
-0.006701911333948 -0.018696852028370 0.001259723794647 -0.015793727710843 0.007791445590556 0.001967516029254 0.001796347904019 -0.010275002568960 -0.013327116146684
-0.000206734432140 -0.007757127285004 -0.003720941720530 -0.018638608977199 -0.006840989459306 -0.010363838635385 -0.013979732058942 -0.002817869652063 0.003902518190444
0.008212120272219 0.012697854079306 0.011716021224856 -0.002972234040499 -0.021173337474465 -0.014453807845712 -0.024021048098803 -0.027117505669594 -0.032833486795425
-0.001267871819437 -0.021250858902931 0.006825323216617 -0.007194928824902 -0.012154567055404 0.002577635459602 0.007523377425969 0.005231400951743 0.005907462909818
0.007904152385890 -0.004508560057729 -0.001803195802495 -0.014470783993602 -0.000466064666398 -0.010177979245782 -0.000567940704059 0.004034894518554 0.019977852702141
-0.047893065959215 -0.028736036270857 -0.039532463997602 -0.061415929347277 -0.039144035428762 -0.046994410455227 -0.023008339107037 -0.005675712600350 0.002400265075266
-0.014985265210271 -0.016883438453078 -0.005607462953776 -0.012761373072863 -0.002454206347466 -0.017421428114176 0.005759701132774 0.002615619217977 -0.001166999223642
0.047075498849154 0.039062548428774 0.030240936204791 0.041114058345556 0.050945796072483 0.068196594715118 0.017665011808276 -0.010888190940022 -0.026367770507932
-0.006407363805920 -0.007321830373257 -0.024817362427711 -0.021926274523139 -0.001078265137039 -0.016090165823698 -0.017082495614886 -0.005247167311609 -0.006509603932500
-0.061571765691042 -0.067427642643452 -0.048536807298660 -0.065932743251324 -0.034807231277227 -0.035333584994078 -0.032790385186672 -0.021544206887484 -0.011675057001412
-0.010665059089661 -0.018501045182347 -0.020164133980870 -0.015960972756147 -0.020787533372641 -0.020687201991677 -0.017678763717413 -0.003694610437378 -0.005689184647053
-0.025531200692058 -0.032610844820738 -0.057943802326918 -0.045818582177162 -0.036749579012394 -0.054388154298067 -0.099032491445541 -0.123037680983543 -0.148849681019783
-0.007989982143044 -0.024906415492296 -0.014478369615972 -0.020324643701315 -0.029255596920848 -0.016463926061988 0.000301485561067 0.008133591152728 0.005438196007162
-0.019731780514121 -0.009724840521812 -0.015590134076774 -0.017735715955496 -0.000843718706165 -0.030894421041012 -0.017681665718555 0.005408697761595 -0.021841045469046
0.091357417404652 0.071910127997398 0.059275172650814 0.092788234353065 0.116750143468380 0.139981478452682 0.070382356643677 0.053099218755960 -0.000466423516627
-0.008320061489940 -0.000638308410998 -0.000290250260150 -0.003763807239011 -0.003669508267194 -0.002353068673983 -0.015743516385555 -0.003517793491483 0.019668145105243
-0.060344889760017 -0.024253470823169 0.086156256496906 0.156957402825356 0.146570488810539 0.083498671650887 0.015832833945751 0.024023327976465 0.016907952725887
-0.107660517096519 -0.065723538398743 0.034819670021534 0.070764675736427 0.051439214497805 0.015662588179111 -0.020649613812566 0.003250434296206 0.019153308123350
-0.165549576282501 -0.113680683076382 0.024055315181613 0.120394930243492 0.132704913616180 0.137414529919624 0.140548497438431 0.157098680734634 0.175444245338440
-0.104229301214218 -0.046092890202999 0.061002288013697 0.104363836348057 0.109256692230701 0.056862480938435 -0.023320078849792 -0.013472173362970 -0.037642590701580
-0.051279775798321 -0.035415992140770 -0.049241356551647 -0.041702892631292 -0.038535259664059 -0.016673639416695 -0.018338637426496 0.001005121273920 -0.004144273232669
0.000924620078877 -0.010229371488094 -0.035447180271149 -0.043821286410093 -0.051005512475967 -0.042440120130777 -0.058430809527636 -0.060363139957190 -0.038266785442829
0.043747603893280 0.025670696049929 0.026411611586809 0.027589980512857 0.038073454052210 0.048425450921059 0.033286847174168 0.037243753671646 0.042973197996616
0.016709359362721 0.027491213753819 0.035720322281122 0.045130163431168 0.035833217203617 0.031805582344532 0.024780690670013 0.040128044784069 0.038000546395779
0.012139542028308 0.016067910939455 0.008856985718012 0.044267032295465 0.079994924366474 0.090023860335350 0.087974570691586 0.080017417669296 0.074448287487030
-0.004351179581136 0.035149287432432 0.046648334711790 0.082775488495827 0.087376810610294 0.117199346423149 0.129499435424805 0.163533881306648 0.093908272683620
0.021147334948182 -0.007569023407996 -0.031252332031727 -0.044691611081362 -0.052251905202866 -0.050177868455648 -0.055892389267683 -0.027232546359301 -0.023208178579807
-0.029398860409856 0.023403845727444 0.162277474999428 0.226165413856506 0.229302257299423 0.169562608003616 0.086080402135849 0.089605830609798 0.104912228882313
0.010443952865899 -0.008411938324571 -0.031635504215956 -0.031262680888176 -0.036836870014668 -0.041271872818470 -0.040261201560497 -0.045108880847692 -0.032490517944098
-0.019504725933075 -0.039058692753315 -0.034918654710054 -0.053679984062910 -0.023979851976037 -0.032488405704498 -0.037568043917418 -0.044950600713491 -0.023498192429543
-0.059363435953856 -0.039902258664370 0.064739525318146 0.134095430374146 0.069712214171886 0.073078349232674 -0.006500198505819 0.026187516748905 0.016711104661226
0.007023231126368 -0.003812655573711 0.002528235083446 -0.016446130350232 -0.015290917828679 0.003993392921984 0.009043277241290 0.003709456650540 0.037587285041809
-0.063833780586720 -0.017005681991577 0.002828912809491 0.037408143281937 -0.003994279541075 0.009831998497248 -0.018252847716212 -0.008328548632562 -0.009599853307009
-0.068183913826942 -0.035446554422379 0.038659427314997 0.072069205343723 0.034382924437523 0.016029031947255 -0.029693981632590 0.010110118426383 0.009877476841211
0.021209172904491 0.029027147218585 0.019780129194260 0.035877227783203 0.014572148211300 0.030894599854946 0.034823834896088 0.040268011391163 0.033397484570742
0.085100330412388 0.054143816232681 0.004484999459237 -0.022554533556104 -0.051092822104692 -0.040063370019197 -0.036768592894077 -0.022734297439456 -0.025145020335913
0.013494207523763 0.011694575659931 0.004481419920921 0.011965645477176 0.003770564915612 0.015037233009934 0.017038308084011 0.002631877083331 0.016672143712640
-0.197098612785339 -0.179304093122482 -0.112317092716694 -0.084159642457962 -0.068384885787964 -0.019694186747074 0.002876671729609 0.050590574741364 0.007265018299222
0.041295360773802 0.042444471269846 0.044211022555828 0.048260308802128 0.072082452476025 0.089412085711956 0.091161049902439 0.090666070580482 0.077118359506130
0.002242105081677 -0.004808022174984 0.000300192652503 -0.010557457804680 -0.002962522441521 0.011522138491273 -0.010820349678397 -0.001113269361667 0.019533239305019
-0.050984475761652 -0.060692660510540 -0.046358343213797 -0.050994329154491 -0.042492885142565 -0.039423264563084 -0.032653249800205 -0.057329863309860 -0.047616593539715
0.019247468560934 -0.009532368741930 -0.018246635794640 -0.022133987396955 -0.044714529067278 -0.027360608801246 -0.030794283375144 -0.005712232552469 -0.002583054127172
0.010487178340554 0.016190541908145 0.000607879250310 0.004797223489732 0.004019135609269 0.025547545403242 0.015324531123042 0.027563488110900 0.015216139145195
-0.022984949871898 -0.033328130841255 -0.028196945786476 -0.037474390119314 -0.025481380522251 -0.033030547201633 -0.027840152382851 -0.020746633410454 -0.038191791623831
0.044450741261244 0.021441519260406 0.038390625268221 0.040049582719803 0.078459657728672 0.107040852308273 0.098416380584240 0.116636469960213 0.081047631800175
-0.006509096361697 0.047714248299599 0.148209080100060 0.221796914935112 0.187644287943840 0.156547144055367 0.084477089345455 0.100726872682571 0.058412753045559
0.002206331118941 0.036690812557936 0.086522161960602 0.159760490059853 0.255321085453033 0.201205193996429 0.165634170174599 0.052162226289511 0.051590897142887
0.036276578903198 -0.003425207221881 -0.034404549747705 -0.044043019413948 -0.055063825100660 -0.046745572239161 -0.064081229269505 -0.037627536803484 -0.036771111190319
-0.026242319494486 -0.044001176953316 -0.036229375749826 -0.026700401678681 -0.007209621369839 -0.014743540436029 -0.007359715644270 -0.007762625347823 0.005790236871690
0.017619768157601 0.021446550264955 0.009928513318300 -0.004645868670195 -0.002977038500831 0.003768753493205 0.018399881199002 -0.006206108722836 0.005390038248152
0.048290971666574 0.036382626742125 0.014237126335502 0.023805402219296 0.024312427267432 0.035976473242044 0.047440968453884 0.074075609445572 0.054052833467722
0.145836800336838 0.084196567535400 0.042734961956739 0.043445732444525 0.004629377275705 0.025723099708557 0.011516429483891 0.020515108481050 0.004641575738788
0.147185280919075 0.088476710021496 0.020796671509743 -0.009320311248302 -0.038368009030819 -0.043354555964470 -0.053432289510965 -0.030833398923278 -0.066285789012909
0.046700607985258 0.042004212737083 0.025073122233152 0.041732892394066 0.027299197390676 0.036093421280384 0.052886687219143 0.015606084838510 0.038431469351053
0.010650708340108 -0.001120236818679 -0.049498714506626 -0.063784539699554 -0.026827162131667 -0.010062554851174 0.004503343254328 0.024947132915258 0.026315113529563
0.015658978372812 0.031472444534302 0.031513430178165 0.046615406870842 0.052225850522518 0.022488359361887 0.032649800181389 0.006258475594223 0.007942249998450
-0.005478360224515 0.004477967973799 0.100833058357239 0.141983881592751 0.138657152652740 0.074765212833881 0.012098961509764 0.023159727454185 0.005648206453770
-0.045733321458101 -0.008772504515946 -0.001352611114271 0.014349667355418 0.001942705828696 0.006879128515720 -0.021917128935456 -0.013933103531599 -0.018905246630311
0.015612676739693 0.018747199326754 -0.004655962809920 -0.012543893419206 0.016016742214561 0.003753971075639 0.004898690618575 0.009743811562657 0.013556619174778
-0.065695032477379 -0.046134375035763 0.026572562754154 0.048149462789297 0.040068536996841 0.002228324767202 -0.058532614260912 -0.041193459182978 -0.062867738306522
0.016554502770305 -0.001279542455450 -0.006289909128100 -0.006861297413707 -0.022130863741040 -0.016548877581954 0.005394942127168 -0.032734997570515 0.000026211442673
-0.008486832492054 0.023951848968863 -0.014986982569098 -0.016438459977508 0.026440156623721 0.068675689399242 0.079821377992630 0.082107156515121 0.078347980976105
0.014596227556467 0.039959020912647 0.021173465996981 0.017669580876827 0.000012839274859 0.031035609543324 0.019704002887011 0.016902076080441 0.020715538412333
-0.111845955252647 -0.042369924485683 0.061821769922972 0.100166894495487 0.117928244173527 0.061221525073051 -0.023574071004987 -0.029737908393145 -0.050462111830711
0.016797553747892 0.011188035830855 0.032636404037476 0.003895807545632 0.015690492466092 0.018029445782304 0.021123886108398 0.015787189826369 -0.011926867999136
0.009617812000215 0.020030718296766 0.038384009152651 0.054870337247849 0.029458558186889 0.029850434511900 0.037664499133825 0.034001234918833 0.013241557404399
-0.031941685825586 0.012780727818608 0.130749195814133 0.212353259325027 0.153520509600639 0.124026566743851 0.043651856482029 0.067270874977112 0.073718972504139
0.003361970884725 0.031849592924118 0.018958101049066 0.019084716215730 0.036556612700224 0.030010476708412 0.037699598819017 0.032304003834724 0.020333381369710
0.009726424701512 0.009614667855203 0.015873616561294 -0.011302053928375 -0.007555143442005 0.003230211092159 0.005334188230336 -0.020111413672566 0.006105436943471
-0.019761729985476 0.012028708122671 0.012766721658409 0.034735362976789 0.062529526650906 0.095878645777702 0.098714664578438 0.080352857708931 0.062917657196522
-0.048448655754328 -0.023233979940414 -0.038750790059566 -0.028413737192750 -0.047706793993711 -0.026794832199812 -0.034436069428921 -0.025373108685017 -0.030217209830880
0.044850785285234 0.032811272889376 0.038086328655481 0.025744784623384 0.045923843979836 0.073185220360756 0.059225928038359 0.036948177963495 0.000263690046268
-0.008386052213609 0.032638221979141 0.029291328042746 0.037018787115812 0.032535091042519 0.021122548729181 0.013004502281547 0.030976060777903 0.026680214330554
-0.003042173804715 0.026616778224707 0.022991877049208 0.051219012588263 0.065971642732620 0.126316279172897 0.130842775106430 0.113181583583355 0.091890707612038
-0.009304656647146 0.006616125348955 0.020890526473522 0.012858506292105 0.004992250353098 -0.014395253732800 -0.043463051319122 -0.035743411630392 -0.036957629024982
0.014416215009987 -0.014687838032842 -0.047386988997459 -0.036207966506481 -0.049195993691683 -0.042906448245049 -0.044874150305986 -0.052717577666044 -0.098150245845318
0.015327666886151 0.052121430635452 0.040835402905941 0.044627353549004 0.031453073024750 0.058851469308138 0.030025700107217 0.028750570490956 0.026463743299246
-0.045622643083334 -0.014082560315728 -0.015931658446789 -0.018580704927444 0.010950892232358 0.018343050032854 0.041924577206373 0.031196907162666 0.023760082200170
0.055078279227018 0.021460678428411 -0.022627990692854 -0.037707578390837 -0.020843302831054 -0.007569489534944 -0.015231614001095 0.009461120702326 -0.023181464523077
0.031393077224493 0.029705755412579 0.040896076709032 0.012945232912898 0.028490141034126 0.016822522506118 0.015929080545902 0.028909916058183 0.033006899058819
0.022446274757385 0.114108540117741 0.201272770762444 0.030696483328938 -0.183319181203842 -0.131001621484756 -0.024536596611142 0.006618722807616 -0.026912318542600
-0.033023755997419 0.074140951037407 0.139246538281441 0.018983870744705 -0.148745909333229 -0.116941012442112 -0.035194765776396 -0.040802605450153 -0.037817198783159
0.036554343998432 0.080059848725796 0.231923326849937 -0.017589366063476 -0.232246443629265 -0.210053592920303 -0.118605256080627 -0.123306535184383 -0.149628028273582
0.071527734398842 0.111988693475723 0.149926692247391 0.006585927214473 -0.151144117116928 -0.111031353473663 -0.036447707563639 0.000069704532507 0.030909541994333
0.004035766702145 0.008748287335038 0.019413838163018 0.000045697466703 0.009678321890533 -0.009045269340277 -0.028764778748155 -0.022325649857521 -0.000557140796445
0.051119320094585 0.072221778333187 0.045404918491840 0.054314009845257 0.084196634590626 0.081243082880974 0.055782347917557 0.062451925128698 0.054396372288465
-0.059620361775160 -0.032818030565977 -0.032862886786461 -0.007647883612663 0.006682269740850 0.041190851479769 0.019134782254696 0.003084465395659 -0.032587945461273
-0.045894995331764 -0.007759948261082 0.011658583767712 0.022672327235341 0.007391036022455 0.008739446289837 0.014446871355176 0.020724780857563 -0.003852354362607
-0.050202533602715 -0.042735107243061 -0.087781369686127 -0.076247386634350 -0.077001579105854 -0.070771396160126 -0.038388106971979 0.010999343357980 -0.013548721559346
0.043130423873663 0.057275988161564 0.053671404719353 0.013908092863858 -0.006514489185065 -0.043939664959908 -0.065448880195618 -0.063448205590248 -0.028552634641528
-0.082759849727154 -0.069253593683243 -0.046393565833569 0.085079848766327 0.195230484008789 0.113281875848770 -0.022568086162210 -0.036527689546347 -0.010530997067690
0.106643900275230 0.128809764981270 0.168585628271103 0.012535965070128 -0.142863601446152 -0.148310840129852 -0.068860583007336 -0.050959017127752 -0.065369263291359
-0.010951289907098 -0.039515763521194 -0.011553643271327 0.047756381332874 0.067630328238010 0.039980221539736 -0.011606176383793 -0.024406636133790 -0.042155027389526
-0.012531701475382 0.017132107168436 0.001144450157881 -0.008329214528203 -0.015904705971479 0.022822367027402 0.036318656057119 0.014285974204540 0.017273062840104
-0.008493173867464 0.074388779699802 0.204808786511421 0.024824541062117 -0.196182057261467 -0.122786335647106 -0.031477969139814 -0.020165570080280 -0.058419916778803
0.004148381762207 0.004009377676994 0.034550763666630 0.017948534339666 0.033168528228998 0.035018768161535 0.033020354807377 0.017646901309490 0.001874588080682
-0.068767949938774 0.003615893423557 0.080571815371513 0.029479818418622 -0.052228391170502 -0.059896677732468 -0.022889023646712 -0.023805733770132 -0.048118840903044
-0.061820670962334 0.020269343629479 0.101095482707024 0.009366034530103 -0.142586842179298 -0.112047381699085 -0.053023785352707 -0.034836985170841 -0.045875828713179
-0.059238787740469 -0.046913854777813 -0.021932320669293 0.017203535884619 0.021528769284487 0.026724886149168 0.038240917026997 -0.009982937946916 -0.018694801256061
-0.046746749430895 -0.082480490207672 -0.069340661168098 0.055198796093464 0.162320584058762 0.051770929247141 -0.100252524018288 -0.099651195108891 -0.074528925120831
-0.050113249570131 -0.032794840633869 -0.020050141960382 0.028434459120035 0.045491345226765 0.065474174916744 0.057487647980452 0.035788439214230 0.005541373509914
0.044982336461544 0.061130944639444 0.144068479537964 0.036061886698008 -0.053304415196180 -0.072802864015102 -0.061717867851257 -0.071321077644825 -0.043168600648642
-0.017927188426256 -0.037271279841661 -0.028614349663258 -0.006325641646981 0.018938465043902 -0.014975156635046 -0.056101255118847 -0.064319312572479 -0.020530637353659
-0.054604548960924 -0.040253810584545 -0.027102086693048 0.010515702888370 0.018857689574361 0.039876036345959 0.029041148722172 0.003584950231016 -0.024354044348001
-0.000103067330201 0.012164725922048 -0.002797296736389 0.002607198664919 -0.019476866349578 0.010580404661596 0.019632389768958 0.006515464279801 -0.003796209814027
-0.027633437886834 -0.042452871799469 -0.042814213782549 0.017895778641105 0.061630729585886 0.040114857256413 -0.021058101207018 -0.047706112265587 -0.031451117247343
-0.060455515980721 -0.035183221101761 -0.020224142819643 0.002644754247740 0.036758273839951 0.047510877251625 0.017075814306736 -0.021297207102180 -0.018436517566442
-0.020524971187115 -0.002665911335498 0.011933012865484 0.018363434821367 0.026705417782068 0.039830643683672 0.024887071922421 0.023953525349498 0.015361852943897
0.117817878723145 0.059429850429296 0.047797173261642 0.104044131934643 0.134241655468941 0.039505910128355 -0.082671701908112 -0.108709216117859 -0.047594811767340
0.094432055950165 0.119137674570084 0.133470952510834 0.021608103066683 -0.109723255038261 -0.158329859375954 -0.079775482416153 -0.062931366264820 -0.057693894952536
0.118145897984505 0.092635564506054 -0.035419192165136 -0.059946980327368 -0.145843312144279 -0.128490149974823 -0.077522300183773 -0.034169767051935 0.048628132790327
0.002569329226390 -0.043806288391352 -0.016564985737205 0.085359387099743 0.225953832268715 0.123516775667667 -0.033624645322561 -0.026427552103996 0.029081420972943
-0.030072813853621 0.006678880658001 0.023270774632692 0.011813753284514 -0.011958925984800 0.001670070691034 -0.003845665138215 -0.000678528100252 -0.005366350524127
-0.062871910631657 -0.033880826085806 -0.016776930540800 0.003366611665115 0.030905261635780 0.045351974666119 0.029063535854220 0.023871064186096 -0.021664490923285
-0.041980024427176 -0.062510974705219 -0.040307410061359 0.029348893091083 0.080627590417862 0.004678558092564 -0.069291874766350 -0.093561328947544 -0.078544214367867
0.006067443639040 -0.101132489740849 -0.086486123502254 0.134670659899712 0.334013193845749 0.108481280505657 -0.179654195904732 -0.188395783305168 -0.049932707101107
0.054504156112671 -0.001394676859491 0.000353081442881 0.144268900156021 0.302571684122086 0.084760487079620 -0.125800728797913 -0.104965880513191 -0.028770893812180
-0.065781995654106 -0.052652932703495 -0.030168253928423 0.005521814804524 0.032859213650227 0.062379684299231 0.048092782497406 0.019255928695202 -0.019137935712934
-0.093800507485867 -0.113562300801277 -0.144719824194908 -0.164233222603798 -0.114053137600422 -0.059260185807943 0.021414667367935 0.071238793432713 0.035107858479023
0.033639304339886 0.027353359386325 0.019537968561053 0.018788484856486 0.001135594910011 -0.009375885128975 -0.002995317801833 0.010513926856220 -0.002459979848936
0.055573936551809 0.072038903832436 0.044223785400391 -0.021946262568235 -0.088667206466198 -0.142737403512001 -0.139944419264793 -0.083588033914566 -0.070518210530281
-0.011096886359155 0.015683911740780 0.023704426363111 0.030487153679132 -0.037345480173826 -0.022308323532343 -0.029177641496062 -0.020630888640881 -0.026613470166922
-0.004177776630968 -0.011775337159634 -0.058322116732597 0.094312265515327 0.164251804351807 0.113473899662495 -0.011850344948471 0.010505772195756 0.062733545899391
0.137171506881714 0.148306131362915 0.124873355031013 0.072651118040085 -0.049634292721748 -0.129510089755058 -0.140594109892845 -0.125233337283134 -0.103017978370190
-0.029415413737297 -0.003534793853760 0.018888177350163 0.049663413316011 0.056061457842588 0.080867357552052 0.085202269256115 0.058770012110472 0.015398992225528
0.010387501679361 0.026077194139361 0.007722674403340 -0.008313180878758 0.000177474692464 0.004027471411973 0.031854644417763 0.014791090041399 0.015501759946346
-0.048827171325684 -0.016195971518755 -0.005999311804771 0.022047752514482 0.035826712846756 0.052283264696598 0.039505824446678 0.013627693057060 0.003877159906551
0.133074387907982 0.168099552392960 0.197107940912247 0.094627179205418 -0.058928377926350 -0.069863662123680 -0.027888637036085 0.007645045407116 0.024131882935762
-0.068277984857559 -0.047429837286472 -0.011328013613820 -0.015331775881350 -0.012286136858165 -0.018536206334829 -0.012328358367085 -0.018823770806193 -0.034336857497692
-0.034425206482410 0.006581134628505 0.023836640641093 0.031549762934446 -0.025934388861060 -0.004805913195014 0.009277247823775 -0.001033839536831 -0.032710120081902
0.080057136714458 0.131804645061493 0.201572865247726 -0.004042833577842 -0.203549057245255 -0.220111072063446 -0.102334961295128 -0.088270433247089 -0.111594483256340
-0.048270575702190 -0.026915656402707 -0.023535275831819 -0.020831147208810 -0.019687188789248 -0.004198625683784 0.010216237045825 0.020096778869629 0.018893357366323
-0.041790589690208 -0.029812341555953 -0.007723064627498 0.040613792836666 0.046660359948874 0.078700669109821 0.068865954875946 0.057558495551348 0.015585520304739
-0.020647518336773 -0.036693446338177 -0.052446864545345 -0.065112128853798 -0.050807289779186 -0.049982476979494 -0.034170601516962 -0.024184957146645 -0.008927592076361
0.042847696691751 0.056223966181278 0.064066722989082 0.054809294641018 0.034970346838236 0.050251793116331 0.040208891034126 0.042966846376657 0.020643183961511
-0.052086401730776 -0.110282346606255 -0.158279538154602 0.049956370145082 0.235401064157486 0.069700159132481 -0.145300030708313 -0.151172921061516 -0.064931347966194
-0.023934522643685 -0.001070691272616 0.028941888362169 0.022680319845676 -0.012738421559334 -0.012940610758960 0.002281543565914 -0.013817580416799 -0.016855221241713
0.046354334801435 0.006857920438051 0.009045217186213 -0.033301081508398 -0.048542141914368 -0.077113553881645 -0.061114229261875 -0.050066687166691 -0.030569752678275
0.002950074383989 0.041551012545824 0.039329670369625 0.040551312267780 -0.003514027455822 -0.029342480003834 -0.037434622645378 -0.043878465890884 -0.060183219611645
-0.018407795578241 -0.082140438258648 -0.118861839175224 0.103922583162785 0.245893076062202 0.071285806596279 -0.152929320931435 -0.131149500608444 -0.019911043345928
-0.050181705504656 -0.025909528136253 -0.011002186685801 0.006130659952760 -0.031752783805132 -0.013876623474061 -0.004442199133337 0.000511007965542 -0.026216549798846
-0.009771882556379 0.009949943050742 -0.000864395289682 -0.017433349043131 -0.020020518451929 -0.009008476510644 0.000883752829395 0.002090774476528 -0.013621702790260
-0.026513952761889 -0.074118353426456 -0.064271770417690 0.065728083252907 0.170536980032921 0.048247270286083 -0.107417054474354 -0.118582941591740 -0.044983502477407
-0.080856122076511 -0.071125984191895 -0.046804573386908 -0.023221272975206 -0.025303034111857 -0.013237276114523 0.012729370966554 0.000903035688680 -0.013601112179458
-0.026707505807281 -0.045261297374964 -0.028054254129529 -0.011202019639313 -0.014551581814885 -0.017777077853680 0.000692269124556 0.004174825735390 -0.005667554214597
-0.010441533289850 0.009066522121429 0.024991219863296 0.004717788193375 0.016523044556379 0.016061522066593 0.037821311503649 0.048242498189211 0.017778554931283
0.012851042672992 -0.007369559723884 0.008437060751021 -0.002012420212850 0.006247875746340 0.029858648777008 0.045402992516756 0.057350005954504 0.047738958150148
-0.004619376733899 -0.022359976544976 -0.021744390949607 -0.008936348371208 0.000480769464048 -0.004026670008898 0.011831577867270 0.026275018230081 0.006179952528328
-0.004629435483366 -0.028047179803252 -0.004601168911904 -0.018836874514818 -0.015625717118382 -0.001928918412887 -0.014200542122126 0.007368847262114 0.000860358937643
-0.042265322059393 -0.022722657769918 -0.020256523042917 -0.014609407633543 -0.016675919294357 -0.006185242906213 -0.010619970038533 -0.021443251520395 0.006267563439906
-0.003982331138104 0.008851872757077 0.021697156131268 0.016735848039389 0.013682966120541 0.010551427491009 0.000651836686302 0.021900113672018 0.018468640744686
0.001474950462580 -0.002479532035068 -0.000112781206553 0.012417904101312 0.008643202483654 0.006482358556241 0.012302109971642 0.021215921267867 0.006667893379927
0.001355067710392 -0.006734481081367 -0.020380387082696 -0.003588080173358 -0.026965633034706 -0.015118679963052 0.001176731428131 -0.007726723328233 0.010332867503166
-0.023214263841510 -0.034713614732027 -0.010363656096160 -0.026894783601165 -0.011578968726099 0.008777035400271 0.013295426033437 0.014288880862296 0.028478387743235
-0.005952378269285 -0.012592405080795 -0.008882252499461 -0.004428846295923 -0.010688800364733 -0.027380237355828 -0.018214838579297 -0.015191767364740 -0.015969155356288
-0.052156701683998 -0.025341700762510 -0.038252938538790 -0.051631499081850 -0.051208700984716 -0.037380319088697 -0.035590428858995 -0.016006208956242 -0.019836753606796
-0.009589116089046 -0.022312751039863 -0.005553395487368 -0.001091722166166 -0.000308010872686 0.004211492370814 0.006546718068421 0.011318170465529 0.011762547306716
0.011300136335194 0.015039232559502 0.015489676035941 0.026749223470688 0.022108472883701 0.026093080639839 0.027345929294825 0.039975617080927 0.037356384098530
0.021395433694124 0.010359419509768 -0.005451811943203 0.024971645325422 0.022642556577921 0.018861535936594 0.029223924502730 0.021386630833149 0.035713799297810
0.006794747896492 0.009412923827767 0.008876598440111 0.016702132299542 0.014878843910992 0.014605725184083 0.020141551271081 0.008909375406802 0.002622628351673
0.015129561536014 0.007261338178068 0.019056851044297 0.032595720142126 0.043497711420059 0.044783275574446 0.052837338298559 0.041442502290010 0.022495556622744
0.002960296580568 0.012996093370020 0.014282351359725 0.010666527785361 0.031664360314608 0.024600276723504 0.027968581765890 0.044207885861397 0.025774076581001
-0.000097561845905 -0.002353365765885 -0.002426926512271 -0.012351922690868 0.011546479538083 -0.000754066684749 0.006673905532807 0.010080278851092 0.006079697981477
-0.006714981049299 -0.014780320227146 -0.024777740240097 -0.012607356533408 0.015633916482329 0.004338670521975 0.007936959154904 0.001091333921067 -0.003657022723928
0.007116382010281 0.010706728324294 -0.004408102016896 -0.009932567365468 -0.021008782088757 -0.013939348980784 -0.015136277303100 -0.016088899224997 0.006057333666831
0.005699272267520 0.008146966807544 0.000704741803929 -0.009180527180433 0.011210351251066 0.031988646835089 0.045385632663965 0.050902705639601 0.080992646515369
0.004550629761070 0.008735086768866 0.017946459352970 0.006073302589357 0.016170836985111 0.013924230821431 0.021401796489954 0.014799982309341 0.042003378272057
-0.006320369895548 -0.010152149014175 0.003230170812458 -0.011786864139140 -0.013922375626862 -0.008734188042581 -0.028876841068268 -0.008468404412270 -0.000182929245057
0.034648612141609 0.028216836974025 0.024389594793320 0.007157062180340 0.021349972113967 0.023910976946354 0.010679724626243 0.020436663180590 0.033058118075132
-0.002305065048859 -0.010683016851544 -0.008007193915546 -0.001031120656990 -0.013456840068102 0.012416786514223 -0.001512035145424 0.017263939604163 0.010379206389189
0.002139947842807 -0.002402359386906 -0.025154581293464 -0.014663473702967 0.000909669557586 -0.007214812096208 -0.004941056016833 0.005991026759148 0.001913413056172
0.003877545008436 -0.006431374698877 -0.004213561303914 -0.011560253798962 -0.004294829908758 -0.023121105507016 -0.021778229624033 -0.004787046927959 0.004743376746774
-0.017783209681511 -0.020533757284284 -0.031682681292295 -0.036536052823067 -0.031657710671425 -0.016605563461781 -0.009536544792354 -0.018872994929552 -0.013430640101433
-0.021741833537817 -0.024668928235769 -0.045037757605314 -0.023353494703770 -0.054413557052612 -0.040155533701181 -0.020321639254689 -0.023780521005392 -0.004748301580548
-0.032749701291323 -0.005986155942082 -0.017036385834217 -0.029475970193744 -0.008803031407297 -0.022105099633336 -0.007652871310711 0.004611623007804 0.035000834614038
-0.022000411525369 -0.013331487774849 0.000291689764708 0.001077058725059 -0.012127218768001 -0.003960479982197 -0.016247477382421 -0.018749756738544 -0.026600020006299
-0.002056434750557 0.004808412399143 0.030377686023712 -0.013017184101045 0.002187311649323 0.011867732740939 0.000221664944547 0.005273580085486 0.000892929499969
-0.001333459280431 0.000826183881145 -0.001242045545951 -0.004204683937132 0.000140485251904 -0.022654183208942 -0.012656483799219 0.000975176109932 -0.017910147085786
0.012798967771232 0.008127291686833 -0.000871253840160 -0.003496508114040 0.005268065724522 0.020601633936167 0.008331306278706 0.021053750067949 0.031883902847767
-0.039215546101332 -0.025848219171166 -0.008127959445119 -0.030689885839820 -0.014764358289540 -0.008597020059824 -0.024280877783895 -0.000338918616762 -0.009574521332979
-0.053392365574837 -0.025026567280293 -0.041504036635160 -0.037295430898666 -0.019322037696838 -0.028631279245019 -0.046349614858627 -0.030373748391867 -0.040384486317635
0.013105786405504 -0.005997043568641 0.009051749482751 -0.007396116852760 -0.006985458545387 0.012084009125829 -0.013789479620755 0.003657204797491 -0.009053589776158
0.045835427939892 0.004891317803413 -0.007848002016544 -0.012536238878965 -0.011434189043939 0.015394727699459 0.002453195862472 0.032360687851906 0.011246756650507
-0.002388603985310 0.029809406027198 0.012390608899295 0.023206228390336 0.030907576903701 0.012048290111125 0.024160102009773 0.038734585046768 0.024295879527926
-0.022035248577595 -0.045159801840782 -0.039245508611202 -0.018304822966456 -0.010077015496790 -0.023618087172508 -0.004683685488999 -0.014985218644142 0.003605267964303
-0.014372427016497 -0.008989441208541 -0.016231900081038 -0.007511863019317 0.005350905004889 -0.004879343789071 0.000563818786759 0.018502600491047 0.011222658678889
0.017872065305710 -0.002694605151191 0.005295987706631 0.002111160662025 -0.003756651654840 -0.002828627824783 0.014285419136286 0.019382363185287 0.005032643210143
-0.034180540591478 -0.041701488196850 -0.035782843828201 -0.045320812612772 -0.004777521360666 -0.037259377539158 -0.020911442115903 -0.026057690382004 -0.018571443855762
0.012330072931945 0.012986656278372 0.016151757910848 0.009383486583829 -0.008682066574693 -0.015527388080955 0.001945598516613 0.000861074135173 -0.005438150372356
0.024010179564357 0.019979650154710 -0.007187060546130 0.005011579953134 0.013895699754357 0.005364938639104 0.015181411057711 0.027254724875093 0.030496045947075
0.004087056498975 0.001944072893821 0.000015946225176 0.003815466072410 -0.017880178987980 0.009055964648724 -0.013574724085629 0.007804306223989 0.001769489608705
-0.025320269167423 -0.032954663038254 -0.032424528151751 -0.048366509377956 -0.029959997162223 -0.012207263149321 -0.024808103218675 -0.011308530345559 -0.009478216990829
0.033768676221371 0.039245557039976 -0.001237332005985 0.026947166770697 0.013617054559290 0.025876067578793 0.038599088788033 0.038769558072090 0.035692345350981
-0.001306475489400 0.000096811076219 0.011950476095080 0.006187891587615 0.001674903556705 0.023986881598830 0.021523505449295 0.024278186261654 0.024913793429732
-0.048783443868160 -0.056576669216156 -0.050899017602205 -0.050304841250181 -0.030893515795469 -0.047158755362034 -0.036391023546457 -0.024377992376685 -0.028837118297815
0.007243456318974 -0.008457842282951 -0.004320326726884 -0.003154807258397 -0.000103322970972 0.009638419374824 0.018508173525333 0.017470300197601 -0.002309518633410
0.022951522842050 0.004888053517789 -0.005014032591134 -0.012541544623673 -0.002766000805423 -0.012585115619004 0.009669032879174 0.004004483576864 0.007000579964370
-0.008251423016191 -0.017954891547561 -0.020195823162794 -0.006977887358516 -0.022652693092823 -0.005136982072145 0.012162670493126 -0.017502646893263 0.027040177956223
-0.004367975052446 -0.014954670332372 -0.009050372987986 0.001111683552153 0.002367087872699 -0.003371265716851 0.016903400421143 -0.000534799182788 0.016412802040577
0.007687590550631 -0.005682254675776 -0.019294798374176 -0.017425687983632 -0.016522509977221 -0.004606195259839 -0.014169898815453 -0.012523187324405 0.002031670184806
-0.005289440974593 -0.013702475465834 0.009471143595874 0.011298349127173 0.012143854983151 0.007637257687747 0.026155924424529 0.009498436935246 0.002305108821020
-0.010014712810516 -0.021748147904873 -0.042824011296034 -0.047304227948189 -0.043423362076283 -0.001685223192908 -0.010791081935167 0.002889436669648 0.011707269586623
-0.034093674272299 -0.020566923543811 -0.014286416582763 -0.016932066529989 -0.015635097399354 -0.009353091940284 0.004618427716196 0.015151355415583 -0.001842205063440
-0.020102297887206 -0.029936555773020 -0.016233706846833 -0.040852226316929 -0.047966938465834 -0.011539610102773 -0.039113909006119 -0.041688181459904 -0.029359957203269
0.019533034414053 0.028777087107301 0.015204542316496 0.013431762345135 0.029559481889009 0.044648107141256 0.039282392710447 0.045585151761770 0.024543737992644
-0.012528328225017 -0.003348923753947 0.012408438138664 -0.003799034748226 0.000818021246232 0.014698168262839 -0.002477406291291 0.015545479953289 0.044689852744341
0.000586208538152 -0.014990320429206 0.005264183506370 0.006280037108809 0.014687994495034 0.015676375478506 0.013367229141295 0.015610200352967 0.013704376295209
0.020453440025449 0.020899575203657 0.021950606256723 0.023973193019629 0.007714300882071 0.032790005207062 0.032716825604439 0.025722466409206 0.033502794802189
-0.025296794250607 -0.056945439428091 -0.065956309437752 -0.055672973394394 -0.070979475975037 -0.070233553647995 -0.093265749514103 -0.080473400652409 -0.142984747886658
-0.046922266483307 -0.030200010165572 -0.051895476877689 -0.036684408783913 -0.016740918159485 -0.066049553453922 -0.067658133804798 -0.056758545339108 -0.082449950277805
-0.000537286046892 -0.030790314078331 0.045702207833529 0.136187642812729 0.231947094202042 0.315841913223267 0.321485012769699 0.297103255987167 0.115966409444809
-0.105019703507423 -0.091315738856792 -0.108336105942726 -0.097695380449295 -0.083755441009998 -0.109408445656300 -0.130649432539940 -0.152479201555252 -0.141708776354790
-0.012955276295543 -0.005215662065893 -0.013357679359615 0.013720197603106 0.008630771189928 0.056013625115156 0.064577102661133 0.070095852017403 0.024039937183261
-0.016988838091493 -0.017134392634034 -0.030600087717175 -0.022822886705399 -0.038072884082794 -0.055676423013210 -0.028171857818961 -0.039074938744307 -0.031171517446637
-0.018562594428658 -0.003028380684555 0.005039236973971 -0.013480135239661 -0.039209492504597 -0.026683568954468 -0.038198750466108 0.003155996324494 0.006862291600555
-0.025650920346379 -0.021043306216598 -0.025949159637094 -0.028731262311339 -0.019739948213100 -0.037813771516085 -0.017370609566569 -0.008968963287771 -0.008293199352920
0.031813342124224 0.016637019813061 0.023557370528579 0.023322004824877 0.042873173952103 0.021063063293695 0.015973445028067 0.023796675726771 0.002129900269210
0.019399872049689 0.017716852948070 0.040815792977810 0.082044497132301 0.155213221907616 0.229536011815071 0.236638069152832 0.238324761390686 0.130235120654106
0.008215409703553 -0.023532958701253 -0.013972684741020 -0.056575395166874 -0.085060283541679 -0.097572289407253 -0.077353633940220 -0.053317319601774 0.012180538848042
0.052162375301123 0.028583506122231 0.019783556461334 0.004211958497763 -0.002172243082896 -0.004274946171790 -0.000019095290554 -0.014004047960043 -0.029770124703646
0.003851939691231 -0.027471981942654 -0.037317510694265 -0.038882263004780 -0.030322544276714 -0.067798413336277 -0.029460396617651 -0.025421848520637 -0.008779036812484
0.037437677383423 0.010818087495863 0.024071116000414 0.034003529697657 0.051076818257570 0.042206272482872 0.059819694608450 0.049600400030613 0.059505630284548
-0.022431137040257 -0.042041510343552 -0.020936992019415 -0.006074378266931 -0.029904291033745 -0.033685278147459 -0.077753812074661 -0.081993274390697 -0.107988394796848
-0.033144481480122 -0.003652563551441 -0.011737722903490 -0.003645249875262 -0.033665016293526 -0.013325992040336 0.003003136720508 0.005429676268250 0.006192320492119
0.026692783460021 0.040197897702456 0.045149613171816 0.045109931379557 0.069760441780090 0.051251299679279 0.054147120565176 0.048558622598648 0.042797684669495
-0.007590211927891 -0.001700535765849 0.002300420077518 0.000479727896163 0.015081329271197 -0.018057579174638 -0.017584459856153 -0.021814372390509 -0.033904608339071
-0.008506376296282 -0.021322049200535 -0.032299704849720 -0.049499511718750 -0.058725547045469 -0.040076687932014 -0.049936067312956 -0.014851794578135 0.003804215462878
0.059209216386080 0.028406752273440 -0.011450370773673 -0.033755060285330 -0.067444071173668 -0.067867748439312 -0.067967385053635 -0.047387380152941 -0.039585810154676
-0.029964875429869 -0.019865350797772 -0.026588844135404 -0.039611358195543 -0.048106744885445 -0.058635525405407 -0.056705590337515 -0.020917009562254 -0.004455333575606
-0.101048871874809 -0.107313312590122 -0.072726689279079 -0.004008541349322 0.095179021358490 0.189500346779823 0.267451167106628 0.241269215941429 0.076011359691620
0.036390069872141 0.030801130458713 0.004775131121278 0.010178891010582 0.029696371406317 0.068704463541508 0.051563140004873 0.057618491351604 0.053690683096647
-0.004422768950462 -0.007497556507587 -0.010038327425718 -0.011118375696242 -0.035202257335186 -0.048205252736807 -0.024426734074950 -0.001219360157847 0.010122710838914
0.043491519987583 0.034558352082968 0.043390803039074 0.034999590367079 0.041400492191315 0.050467181950808 0.053337819874287 0.053966585546732 0.074375838041306
0.015947911888361 -0.025891557335854 -0.040441349148750 -0.061145488172770 -0.068618915975094 -0.050411760807037 -0.047534551471472 -0.046785239130259 -0.048872921615839
-0.024294488132000 -0.019872771576047 -0.020927455276251 -0.031696293503046 -0.042710233479738 -0.046395767480135 -0.040023043751717 -0.028357103466988 0.002035600598902
-0.015994906425476 -0.008307647891343 -0.009856253862381 -0.024756269529462 -0.023883804678917 -0.010131372138858 -0.023974288254976 -0.015919623896480 -0.000353800889570
0.042368572205305 0.007475282996893 0.018446017056704 0.032955840229988 0.062002249062061 0.113865368068218 0.145240023732185 0.094004422426224 0.017981421202421
0.076838850975037 0.033096022903919 0.041001580655575 0.040560260415077 0.002421399345621 -0.003247949294746 -0.024165945127606 -0.035202909260988 -0.064579486846924
0.017662566155195 0.017309779301286 0.039256658405066 0.041401870548725 0.059816829860210 0.062975451350212 0.024700587615371 -0.008705404587090 -0.021934287622571
0.063982419669628 0.016227513551712 -0.011548356153071 -0.024288216605783 -0.051483221352100 -0.034347228705883 -0.069942310452461 -0.037344042211771 -0.054102364927530
0.034157097339630 0.044890906661749 0.039711568504572 0.046979479491711 0.050875093787909 0.063944578170776 0.071424886584282 0.064173005521297 0.055092331022024
-0.017046529799700 -0.021149897947907 -0.011479680426419 -0.026527797803283 -0.048535920679569 -0.052388802170753 -0.051312256604433 -0.025142222642899 0.004430503118783
-0.031407609581947 -0.031715400516987 -0.059061214327812 -0.068312108516693 -0.064453996717930 -0.066702544689178 -0.040837645530701 -0.032098703086376 -0.057196103036404
0.103165417909622 0.041174218058586 0.008562557399273 -0.052953913807869 -0.064190700650215 -0.028481973335147 -0.040974982082844 -0.044004373252392 -0.068757757544518
0.104345984756947 0.054781433194876 0.065630234777927 0.024694098159671 -0.007142899092287 0.010490953922272 0.013209444470704 -0.010687892325222 -0.024458490312099
-0.019841499626637 -0.038362707942724 -0.034893717616796 -0.030101735144854 -0.064313627779484 -0.049345843493938 -0.049474265426397 -0.027300983667374 -0.010697261430323
-0.022505478933454 -0.060548324137926 -0.058133307844400 -0.055372178554535 -0.052867963910103 -0.051964379847050 -0.030866362154484 -0.021395064890385 -0.022748883813620
-0.004315740894526 -0.007896096445620 -0.026974258944392 -0.025551933795214 -0.002647391520441 0.012759616598487 0.006275255233049 0.001612391439267 0.004379304125905
-0.052227817475796 -0.061289723962545 -0.050171129405499 -0.061118099838495 -0.106097236275673 -0.077966324985027 -0.097417406737804 -0.085903555154800 -0.090772852301598
-0.047363981604576 -0.034068614244461 -0.027722384780645 -0.019275020807981 -0.024206494912505 -0.018943237140775 -0.035723190754652 -0.029272183775902 -0.025204775854945
-0.072155550122261 -0.063707835972309 -0.059738427400589 -0.075696624815464 -0.077226310968399 -0.068613179028034 -0.058546908199787 -0.048490591347218 -0.038667421787977
-0.025050237774849 -0.033914219588041 -0.047981042414904 -0.044474024325609 -0.066824503242970 -0.075653620064259 -0.085766829550266 -0.081933200359344 -0.077373832464218
-0.022269112989306 -0.001106703071855 -0.020919274538755 -0.018709244206548 -0.031001275405288 -0.034140415489674 -0.024602422490716 -0.000711599423084 0.024861844256520
0.014788716100156 0.009513087570667 0.020756172016263 0.009468211792409 0.021621469408274 0.022580521181226 0.025154873728752 0.030073948204517 0.002398208482191
-0.026932494714856 -0.000539527449291 -0.022768478840590 -0.043941389769316 -0.045476373285055 -0.036376599222422 -0.042198039591312 -0.004484090022743 0.007771561387926
-0.017415478825569 -0.009229963645339 -0.016534298658371 -0.038629546761513 -0.047258876264095 -0.050072398036718 -0.081574641168118 -0.090062327682972 -0.090197108685970
-0.028559634461999 -0.011952038854361 -0.025158623233438 -0.021480912342668 -0.016282031312585 -0.020807050168514 -0.029982283711433 -0.007801250088960 -0.000817883876152
-0.044917348772287 -0.030360408127308 -0.027076210826635 -0.031442739069462 -0.026694163680077 -0.030417958274484 -0.035944886505604 -0.000931175076403 -0.011050482280552
0.048070926219225 0.012037103064358 -0.000181430848897 0.012391702271998 -0.005915327928960 -0.040508691221476 -0.063190847635269 -0.076360017061234 -0.089588202536106
0.010283664800227 0.009662309661508 0.010037646628916 -0.006045679561794 -0.004699334036559 -0.004770842380822 -0.003816587850451 0.015024796128273 0.034419175237417
-0.009409590624273 -0.009497848339379 -0.030149007216096 -0.023257957771420 -0.048381876200438 -0.038647178560495 -0.030265066772699 -0.007457146886736 0.026384795084596
0.029441906139255 0.030599048361182 0.029608951881528 0.015701837837696 0.020805139094591 0.044788859784603 0.032149162143469 0.018519056960940 0.007665408309549
-0.013826590962708 0.003544556442648 0.001132402452640 0.002858090447262 -0.005382787901908 -0.015848789364100 -0.011676503345370 -0.002311520278454 0.004632407799363
0.015218602493405 -0.023139689117670 -0.024825666099787 -0.006158610340208 -0.002479837043211 0.030808201059699 0.061866685748100 0.045280363410711 0.023316979408264
-0.029993731528521 -0.018643384799361 -0.028728250414133 -0.021589569747448 -0.033190205693245 -0.017615467309952 -0.013035743497312 -0.011743942275643 -0.017375614494085
0.058483187109232 0.057993512600660 0.037313934415579 0.068888381123543 0.114684887230396 0.140960589051247 0.149939954280853 0.120864123106003 0.061655819416046
0.035533737391233 0.049952898174524 0.055531311780214 0.068204052746296 0.058642413467169 0.072020761668682 0.057917326688766 0.046952094882727 0.033540394157171
0.049174930900335 0.008212530054152 0.003969071898609 -0.003281044540927 -0.000204305382795 0.047985766083002 0.040723424404860 0.051621694117785 0.002012928482145
-0.023750325664878 -0.005790926050395 -0.025979544967413 -0.017325956374407 -0.026850350201130 -0.017458913847804 -0.022120028734207 -0.015855276957154 -0.025872981175780
0.019519487395883 0.009486726485193 0.019273823127151 0.033307142555714 0.025039602071047 0.030555816367269 0.055249255150557 0.027272071689367 0.030647624284029
-0.002760754199699 -0.034779071807861 -0.053639724850655 -0.089303553104401 -0.104305580258369 -0.094639793038368 -0.085714891552925 -0.064314842224121 -0.084309175610542
-0.035751387476921 -0.026625186204910 -0.028044197708368 -0.027598343789577 -0.013061460107565 -0.043444097042084 -0.014954905956984 -0.009342482313514 0.004398368299007
0.012298321351409 -0.013787035830319 -0.017360595986247 -0.004517117980868 -0.013558305799961 -0.010869673453271 -0.004236797336489 -0.016764335334301 -0.012673445977271
-0.018327379599214 -0.011196685023606 -0.008017077110708 -0.003637603716925 0.010709372349083 0.003664556890726 -0.006509884260595 0.002094101859257 0.004304027184844
0.007713440340012 0.018053261563182 0.014944834634662 0.015520856715739 -0.000697279232554 -0.002559287007898 0.024964503943920 0.010032040998340 -0.016549374908209
-0.000799031869974 -0.009594622999430 -0.011209939606488 -0.004426618106663 -0.014274415560067 0.001802460057661 -0.005213570781052 -0.017507271841168 -0.012127005495131
0.018922070041299 -0.009526145644486 -0.003066734876484 -0.009250480681658 -0.017074286937714 -0.002219666028395 -0.002194019965827 -0.001262575737201 -0.003091388149187
-0.028897829353809 -0.012123300693929 -0.010649799369276 -0.002366807311773 -0.015314709395170 -0.000001769213213 -0.022249653935432 -0.006590085104108 -0.016644764691591
-0.027675524353981 -0.009031120687723 -0.007261866237968 -0.004600595682859 0.011054840870202 0.013239268213511 0.007612454704940 -0.005806074012071 -0.007189166266471
-0.005299808457494 0.015605155378580 -0.006760005839169 0.007963676936924 0.020700510591269 0.005755842663348 -0.000328484835336 0.001491647213697 0.005540961399674
-0.017276629805565 -0.008379617705941 -0.016409343108535 0.001558497548103 0.004776210524142 0.008630043826997 -0.015091396868229 -0.026256881654263 0.001192652387545
-0.016512462869287 -0.009738934226334 -0.019227994605899 -0.011819531209767 -0.018646974116564 -0.014856162481010 -0.001671726000495 -0.009260436519980 -0.012543545104563
-0.022426355630159 -0.031585562974215 -0.008062602952123 -0.007803012151271 -0.008213193155825 -0.002137849805877 -0.012080892920494 -0.002624254208058 -0.018365304917097
-0.007251185830683 -0.027481125667691 -0.015098222531378 -0.008593817241490 -0.022065574303269 -0.005082447081804 -0.041455604135990 -0.031125081703067 -0.016574919223785
-0.001538137439638 -0.006616049911827 -0.003966750577092 0.003065954428166 -0.004843015223742 0.002978969831020 -0.008708709850907 -0.014535082504153 -0.004563626367599
0.006453417707235 0.003372833132744 0.000648870947771 -0.005124990362674 -0.004814119543880 -0.015859400853515 -0.013212446123362 -0.013429945334792 -0.028230208903551
-0.013369624502957 -0.022150618955493 -0.004934654105455 0.015043290331960 0.000527466472704 0.014421894215047 0.000712555658538 0.006309725809842 0.009579858742654
0.015747731551528 0.003454109421000 -0.002852666890249 0.004446811042726 0.015326353721321 -0.005272706504911 0.000895108736586 -0.006409172900021 -0.012330940924585
-0.003698401153088 0.008042661473155 -0.002917758654803 -0.007852442562580 0.000453814980574 0.007509329356253 -0.012662199325860 -0.002839463995770 -0.011756405234337
0.013409993611276 -0.009295682422817 0.002824892289937 0.017788203433156 0.003043419448659 0.012274743057787 0.007466541137546 0.009654407389462 0.008544292300940
-0.019100321456790 -0.023648280650377 -0.001394351827912 -0.007821428589523 0.000941073230933 -0.005183331668377 -0.000136250062496 0.005658776499331 -0.005767529364675
0.022317273542285 -0.026990359649062 -0.010123155079782 -0.007508906070143 -0.006771496031433 -0.019605927169323 -0.015999585390091 -0.019375672563910 -0.021860480308533
-0.017502224072814 -0.016144460067153 -0.014463423751295 0.000872501870617 -0.005275652278215 0.000118294330605 0.005092923995107 -0.005900269839913 -0.004900487605482
-0.000571328622755 -0.006731056608260 -0.008998310193419 -0.006821410264820 -0.010574192740023 -0.016398388892412 -0.005527806468308 -0.021922530606389 0.003544914769009
0.010039017535746 0.004509785212576 -0.003491037292406 0.009705946780741 -0.007353691849858 0.011594257317483 -0.011644398793578 0.005783688742667 -0.012688877992332
-0.011362142860889 -0.006201901007444 0.009319406934083 -0.006414435338229 0.000896892393939 -0.007449026219547 -0.008447658270597 -0.000443787372205 -0.004302581772208
0.011417103931308 -0.003730003954843 0.001466338871978 -0.000863034394570 -0.000984382932074 -0.024574212729931 0.002293854020536 -0.011490585282445 -0.009206940419972
0.018847217783332 0.021256640553474 0.012548347935081 0.003505773376673 0.013780190609396 0.005465148016810 0.017633182927966 0.004896337632090 0.006019674241543
-0.000952599453740 -0.008869363926351 0.000222730392125 -0.012685146182775 0.007923217490315 0.005110198631883 0.001959744608030 0.003025194397196 -0.028277214616537
-0.008228752762079 -0.017077893018723 -0.013615497387946 0.008377629332244 -0.006567903794348 -0.019693657755852 -0.001761047518812 -0.017600990831852 -0.013448556885123
0.036077126860619 0.019758498296142 0.014941562898457 0.007492271717638 0.003305546240881 -0.004378850571811 -0.000078013661550 -0.006486688740551 -0.006155812181532
0.020814033225179 -0.000013624265193 -0.002482539042830 -0.004198310431093 -0.003838518401608 0.000355163298082 -0.020006041973829 -0.012497792951763 0.003428709460422
0.016540952026844 0.008251163177192 -0.002158143091947 -0.000339792342857 0.007406183518469 -0.006277740001678 0.010032508522272 0.013002569787204 0.028338233008981
-0.020093105733395 -0.004948308225721 -0.008982061408460 -0.009666121564806 -0.010065542533994 -0.019894106313586 -0.016694966703653 -0.008261914364994 -0.020292526111007
0.006494835484773 0.000687901221681 0.001860011601821 -0.004064868669957 -0.003780836472288 0.009530018083751 -0.006281299050897 -0.012091564945877 0.002559721237049
-0.013292812742293 -0.008441573008895 0.003463165136054 -0.019809922203422 -0.002370266942307 -0.016010489314795 -0.014309214428067 -0.001266156556085 0.000701817392837
0.004891472402960 0.008384552784264 -0.009233749471605 -0.016730939969420 -0.014886296354234 -0.006239405833185 -0.017789987847209 -0.028968812897801 -0.021483508870006
0.051044657826424 0.015758475288749 0.014869479462504 -0.012529453262687 -0.018456360325217 0.000576094607823 -0.045452408492565 -0.036021016538143 -0.038066975772381
-0.007543966174126 -0.000692611734848 -0.022917378693819 -0.038776926696301 -0.020933171734214 -0.028182363137603 -0.022660562768579 -0.040022056549788 -0.031135516241193
-0.015395754948258 -0.009080914780498 -0.010227020829916 -0.002109889639542 0.010700836777687 0.000729251361918 0.010259259492159 -0.008446834981441 -0.013883164152503
-0.031134212389588 -0.018625099211931 -0.013092816807330 0.001124286209233 -0.025656985118985 -0.010529673658311 -0.029258901253343 -0.020281312987208 -0.021001933142543
-0.003360149450600 -0.010343492031097 -0.000535847677384 -0.019004801288247 -0.005826749373227 -0.014185450039804 -0.002621937775984 0.008956383913755 0.007060639560223
-0.020977118983865 -0.049113396555185 -0.040277183055878 -0.039061594754457 -0.030564641579986 -0.045518822968006 -0.017521206289530 -0.034085497260094 -0.034689657390118
-0.016475472599268 -0.011140897870064 -0.019800271838903 -0.034563638269901 0.001655272673815 -0.001436065300368 0.002105703810230 -0.010517494753003 0.010116495192051
-0.000457058136817 -0.010617844760418 0.003716760315001 -0.015313363634050 0.012321623042226 -0.006685736589134 -0.008657793514431 -0.001654833205976 -0.009794095531106
-0.027450131252408 -0.042292386293411 -0.015783824026585 -0.042508848011494 -0.032279260456562 -0.029675988480449 -0.051472358405590 -0.040348321199417 -0.023228721693158
-0.013578684069216 -0.008950232528150 -0.010200154036283 -0.018072074279189 0.008377665653825 -0.013681106269360 -0.006263906601816 -0.004346919246018 -0.017216140404344
-0.003494195640087 -0.003724764101207 -0.008600301109254 -0.005346349906176 -0.022194825112820 -0.016199190169573 -0.002609409159049 -0.007109330035746 -0.009073085151613
-0.021802986040711 -0.001063540461473 0.004901893902570 -0.006512063089758 0.006858747918159 0.014164203777909 0.006103302817792 -0.009972919709980 -0.001753102638759
-0.001446878188290 -0.014743508771062 -0.020408194512129 -0.020050903782248 -0.008501705713570 -0.017305886372924 -0.007649905979633 -0.033489521592855 -0.023117611184716
-0.028427135199308 -0.017412990331650 -0.015945259481668 -0.009094446897507 -0.000983490259387 -0.003943379502743 -0.018692079931498 0.003136351937428 0.001187414512970
-0.013668621890247 -0.014676285907626 -0.010652123019099 -0.000450216088211 0.002658644923940 0.006747637875378 0.002948158653453 -0.002895510988310 0.005843005608767
-0.004813517443836 -0.009355900809169 -0.016494633629918 -0.022695995867252 -0.012198150157928 -0.022015286609530 -0.022965325042605 -0.020557325333357 -0.013915375806391
-0.013676425442100 0.001142727327533 -0.000949437264353 0.002107911277562 0.017815321683884 -0.006305893417448 -0.001545815961435 0.002952672075480 -0.008850568905473
-0.016064953058958 -0.001063595293090 -0.006076342891902 -0.005111956503242 -0.004255849868059 0.000020439269065 0.007876788266003 -0.003539856756106 0.002934601623565
-0.025158196687698 -0.004187521524727 -0.008216783404350 0.008771995082498 0.010373475961387 -0.006757616065443 -0.009432107210159 -0.002376755932346 -0.018955094739795
-0.005044789053500 -0.008489668369293 -0.019486652687192 -0.006111590191722 0.004952462855726 -0.003184164408594 0.001110979123041 -0.008122114464641 0.009842534549534
0.020330861210823 0.011388076469302 0.002933166455477 -0.014269781298935 -0.005956807173789 -0.032330676913261 -0.017752751708031 -0.017444221302867 -0.034608241170645
-0.013062582351267 -0.002653750823811 -0.016778465360403 -0.006361051928252 0.005858476273715 0.004997803363949 -0.015197569504380 0.008110400289297 -0.006231431849301
0.001068075885996 -0.001712781027891 0.004151170141995 -0.001565477927215 -0.009396900422871 -0.010958774946630 -0.012845067307353 0.006928042043000 -0.004467393737286
-0.018607882782817 -0.018162976950407 -0.001455187215470 -0.027451038360596 -0.009942421689630 -0.027089316397905 -0.020923564210534 -0.012459478341043 -0.007137184031308
0.026251703500748 0.015318907797337 0.007956377230585 -0.014952839352190 0.001552501460537 -0.024770012125373 -0.018520902842283 -0.015259606763721 -0.021195806562901
0.000963022233918 -0.015522888861597 -0.005011893808842 -0.008567146956921 -0.010515743866563 -0.005732237361372 -0.002456653164700 -0.008204637095332 -0.003679224057123
-0.011410167440772 -0.005193984601647 0.000007896483112 -0.020149942487478 -0.005085212644190 -0.016503944993019 -0.009806044399738 -0.010201748460531 -0.011735645122826
0.022298153489828 0.013990981504321 0.012819792144001 0.009337220340967 0.006858775857836 -0.003096946049482 -0.010336532257497 -0.025130122900009 -0.006195323076099
-0.000093948343419 -0.008138204924762 -0.002213589381427 0.011464918032289 0.005652036983520 0.017144890502095 0.006667191162705 0.004688658285886 -0.014783022925258
0.053024634718895 0.013710066676140 -0.114881053566933 -0.181973755359650 -0.017372613772750 0.059280212968588 0.054409965872765 0.045043077319860 -0.012257949449122
0.071758896112442 0.054308526217937 -0.046339269727468 -0.100443020462990 0.053278572857380 0.090422950685024 0.051561508327723 -0.010794866830111 -0.048130277544260
-0.003899310948327 0.004232876934111 -0.100765325129032 -0.201250568032265 0.022018851712346 0.090929456055164 0.093357905745506 0.113511122763157 0.081482596695423
-0.013164031319320 -0.050632417201996 -0.105645664036274 -0.137512907385826 -0.004275222308934 0.064105354249477 0.069089658558369 0.047356031835079 0.044871263206005
-0.004962746053934 -0.018420280888677 -0.014953186735511 0.005471152719110 0.002844673581421 0.001735979341902 0.003529031062499 -0.002327035646886 0.009094712324440
-0.004444085992873 0.022394685074687 0.033318493515253 0.027282854542136 -0.013001184910536 -0.048904955387115 -0.068958446383476 -0.067535966634750 -0.077349767088890
0.010596431791782 -0.006455164402723 0.021642534062266 0.025403467938304 0.032422963529825 0.022186880931258 0.021379100158811 0.006482720840722 -0.000261230889009
0.007134503219277 0.004627493210137 0.014308890327811 0.023815456777811 0.027389772236347 0.007489760406315 0.016735248267651 0.010096396319568 -0.018183069303632
0.068924419581890 0.073410570621490 0.020428275689483 0.029725696891546 -0.006993621122092 -0.023244976997375 -0.014364097267389 0.008628839626908 0.006716154981405
-0.017939854413271 -0.015622649341822 -0.037545029073954 -0.039095070213079 -0.016643071547151 -0.010321067646146 -0.005778993479908 0.028585964813828 0.017780955880880
0.012011919170618 0.021506471559405 0.045593753457069 0.044886365532875 0.042180880904198 -0.076943881809711 -0.108031980693340 -0.115889422595501 -0.091035276651382
-0.055217109620571 -0.035019271075726 -0.130645453929901 -0.153987869620323 0.005662206560373 0.063468538224697 0.076795481145382 0.055080115795135 0.029682364314795
-0.026185359805822 -0.010614788159728 -0.000524719478562 0.021665360778570 -0.010015240870416 -0.022454928606749 -0.020929044112563 -0.010895223356783 0.002067233435810
-0.015183863230050 -0.027899662032723 -0.036039631813765 -0.045487277209759 -0.056980054825544 -0.004100102931261 -0.012615072540939 0.013594487681985 0.030744215473533
0.094023898243904 0.066470831632614 -0.064552269876003 -0.171751603484154 0.015989091247320 0.079038150608540 0.025008928030729 -0.016598422080278 -0.069662511348724
-0.010762957856059 -0.000822973204777 0.000937042175792 -0.006792653817683 -0.000617391546257 -0.012425912544131 -0.008606439456344 -0.004833610728383 -0.017330333590508
0.010154869407415 0.006166858132929 -0.035587772727013 -0.054603192955256 0.001470414572395 0.027647498995066 0.008902014233172 -0.003776567988098 -0.056711398065090
0.076110973954201 0.055750750005245 -0.017268624156713 -0.068406946957111 0.029452396556735 0.060301985591650 0.018972812220454 -0.015796652063727 -0.039521336555481
0.015424246899784 0.006201495416462 0.017256043851376 0.038676060736179 0.023579569533467 0.017687031999230 0.011659895069897 0.011402713134885 0.015438253059983
0.004592070356011 0.042704176157713 0.093391329050064 0.093682818114758 0.063203327357769 -0.075513005256653 -0.126763701438904 -0.102515019476414 -0.075048960745335
0.010172981768847 0.023161757737398 0.019930286332965 0.025181243196130 0.014761531725526 0.015230321325362 0.017571037635207 0.006018046755344 -0.012829815968871
-0.004022160079330 -0.006194045767188 -0.032999210059643 -0.068526744842529 0.009898195974529 0.068745061755180 0.043853655457497 0.060443084686995 0.040348581969738
-0.069820255041122 -0.077035143971443 -0.036565281450748 -0.010308898985386 -0.017592001706362 0.004418070428073 0.019996725022793 0.070772998034954 0.077835127711296
0.002549676457420 -0.000127180508571 0.002010402735323 0.013254646211863 0.012851511128247 0.008049461990595 0.018287057057023 0.002675351453945 -0.002653435338289
-0.012138617224991 -0.017631988972425 -0.039753776043653 -0.050846260040998 -0.058544088155031 -0.032426487654448 -0.009516791440547 0.025658808648586 0.014298112131655
-0.003170956391841 0.004692207556218 0.035821292549372 0.006827731616795 0.019679583609104 -0.044411286711693 -0.066346511244774 -0.062673076987267 -0.060885947197676
0.022071657702327 0.015403654426336 0.013367789797485 0.010623114183545 0.027549106627703 0.028130695223808 0.044067043811083 0.021669901907444 0.000121743774798
-0.018725002184510 -0.030116500332952 -0.003476257435977 -0.021967116743326 -0.013065504841506 -0.033167108893394 -0.025124805048108 -0.032863263040781 -0.030911870300770
-0.052709858864546 -0.033086158335209 -0.001686107367277 0.024389194324613 0.103732928633690 0.029061252251267 0.031161747872829 0.070623807609081 0.104522041976452
-0.061677161604166 -0.085416041314602 -0.155613765120506 -0.154603958129883 0.025231398642063 0.092291563749313 0.118041940033436 0.084881402552128 0.080594286322594
-0.189219847321510 -0.224822387099266 -0.264104008674622 -0.254616349935532 -0.139144927263260 0.070784293115139 0.285060167312622 0.351626574993134 0.449497729539871
-0.007652499713004 0.019547294825315 0.054193038493395 0.041437163949013 0.032748460769653 -0.094301521778107 -0.148988649249077 -0.124411717057228 -0.093343116343021
-0.016552651301026 -0.020901910960674 -0.040512949228287 -0.054503597319126 -0.035757094621658 -0.023030595853925 -0.029523437842727 -0.022740004584193 -0.038069181144238
-0.000219439898501 -0.001019141403958 0.003069774014875 0.012684500776231 0.026596229523420 0.016802683472633 0.004882704932243 0.005151335150003 -0.021900972351432
-0.041741710156202 -0.027729488909245 0.025645138695836 0.020966256037354 0.023436022922397 -0.023547999560833 -0.048352748155594 -0.024266296997666 -0.020888060331345
-0.114101804792881 -0.063457965850830 0.044509090483189 0.122205108404160 0.195955887436867 -0.009010297246277 -0.065011188387871 -0.001494017313235 0.061220526695251
-0.096288748085499 -0.073315016925335 0.014294504188001 0.071566507220268 0.140979081392288 -0.022882420569658 -0.054027151316404 -0.014326107688248 0.019809313118458
0.002975528128445 0.017669158056378 0.029405958950520 0.025380136445165 0.019914260134101 0.031350318342447 0.026717310771346 0.022337032482028 -0.013371850363910
0.177840277552605 0.150741279125214 0.099772259593010 0.013258222490549 -0.047894295305014 -0.097015671432018 -0.141070887446404 -0.076431863009930 -0.108641244471073
-0.004017751198262 -0.008203162811697 -0.026487691327929 -0.004155560396612 0.004327427130193 0.020210016518831 -0.007223480846733 -0.011288936249912 0.004433448426425
-0.053461313247681 -0.067091129720211 -0.109829470515251 -0.055565323680639 0.089307412505150 0.103557430207729 0.136555418372154 0.118724673986435 0.116948895156384
-0.006954222917557 -0.020370945334435 -0.012257343158126 -0.024828407913446 -0.005915503017604 -0.006687311455607 -0.001009005354717 -0.036248214542866 -0.031178997829556
-0.057938501238823 -0.023444052785635 0.010157337412238 -0.016391918063164 0.033445637673140 -0.005511879455298 0.029445089399815 0.065747790038586 0.097315460443497
-0.071181192994118 -0.051733817905188 -0.120514631271362 -0.092395953834057 0.041286688297987 0.075236916542053 0.087138578295708 0.055246900767088 0.038738828152418
-0.021238755434752 0.000737762893550 -0.018141757696867 0.014991747215390 -0.006036343984306 0.010850782506168 0.001674387487583 -0.023738360032439 -0.014256581664085
0.027860002592206 0.029963577166200 0.007514059543610 -0.008368424139917 -0.017124954611063 -0.008056556805968 0.026410320773721 0.038288187235594 0.059693176299334
0.009566181339324 0.025445366278291 0.022386953234673 0.009745213203132 0.007811091374606 0.024123992770910 0.029001398012042 0.035447645932436 0.000136899587233
-0.113598152995110 -0.119523853063583 -0.151111617684364 -0.124777778983116 0.044949583709240 0.114601470530033 0.177758648991585 0.124409899115562 0.141140013933182
0.002567092422396 0.012837958522141 0.019881581887603 0.026595355942845 0.019858649000525 0.026540115475655 0.022015750408173 0.002482726005837 0.001319903531112
-0.011409111320972 -0.009757476858795 -0.012155791744590 -0.006836936343461 -0.002318458165973 0.021976888179779 -0.001528681954369 -0.020993024110794 -0.028177246451378
-0.008132988587022 -0.035339005291462 -0.127271041274071 -0.198904097080231 0.026059200987220 0.071846447885036 0.075061485171318 0.043303783982992 0.031974215060472
-0.017635023221374 -0.023670230060816 -0.044460561126471 -0.026071080937982 -0.044262647628784 -0.030897848308086 -0.003912850283086 -0.010992143303156 0.001288642291911
-0.007788489107043 -0.001887622987852 -0.011519032530487 0.013465081341565 -0.000023583324946 -0.006675391457975 0.006885987240821 -0.016013614833355 -0.019900765269995
0.024741284549236 0.016304871067405 0.022128842771053 0.004236100707203 -0.007333646062762 -0.010113573633134 -0.017185781151056 0.020324004814029 0.016777776181698
-0.000346334709320 -0.000594067329075 -0.030324412509799 -0.018641181290150 -0.022435352206230 -0.018353339284658 -0.009648170322180 -0.021880351006985 -0.016344895586371
-0.123434104025364 -0.122138991951942 -0.095674082636833 -0.019476089626551 0.098806180059910 -0.023368841037154 -0.021602937951684 0.017022324725986 0.072652831673622
0.003914307802916 0.007315319031477 -0.005454646423459 0.009367314167321 0.006737214047462 -0.004454935435206 -0.000846236594953 -0.024360857903957 -0.031140809878707
-0.010935738682747 -0.005363499280065 -0.031550001353025 -0.043414577841759 -0.017693517729640 -0.009807633236051 0.010196598246694 0.028906624764204 0.039046335965395
-0.010336993262172 -0.013775569386780 -0.008511872030795 -0.010540189221501 -0.005846721120179 0.027818107977509 0.027029355987906 -0.010965590365231 0.005077006760985
-0.062697157263756 -0.046021953225136 0.005294097587466 0.067065551877022 0.152256876230240 -0.014742689207196 -0.042418628931046 -0.000256282422924 0.054462876170874
0.009767729789019 -0.008169787004590 -0.031622670590878 -0.041493434458971 -0.006602691952139 0.006575559731573 -0.001865745289251 -0.007224739529192 -0.034649871289730
-0.018750373274088 -0.020342402160168 -0.013254238292575 -0.010613070800900 -0.009431351907551 -0.003623188240454 0.008847365155816 0.029936432838440 0.047357309609652
-0.034962143748999 0.008112617768347 0.066353708505630 0.061737086623907 0.081952057778835 -0.054061248898506 -0.094895139336586 -0.066337943077087 -0.025039969012141
0.013771042227745 0.022106502205133 -0.002118191914633 -0.003523763269186 0.004454915877432 -0.003107231808826 0.002329244278371 -0.020934352651238 -0.027927791699767
-0.024742096662521 -0.041930697858334 -0.016620470210910 -0.008044259622693 -0.023163465783000 -0.038891434669495 -0.026928430423141 -0.031029991805553 -0.018685951828957
0.005165690090507 0.007629980798811 -0.002929172711447 0.011259242892265 0.003484010696411 0.011814261786640 -0.002396542578936 0.002693556249142 0.012902380898595
-0.016608783975244 -0.021348387002945 -0.038522031158209 -0.034449681639671 -0.034067403525114 -0.020869797095656 -0.023012334480882 -0.016098551452160 -0.021297346800566
-0.015530712902546 -0.021989664062858 -0.009787525050342 -0.004606800153852 0.001098287291825 -0.013181269168854 -0.012925877235830 0.006499549839646 -0.004715372342616
-0.017791183665395 -0.033408518880606 -0.014674395322800 -0.006189604289830 0.015467893332243 0.010784858837724 0.023760883137584 0.007043097633868 0.015940736979246
-0.005129503551871 0.017515098676085 -0.003477901220322 0.004647227469832 -0.005069770850241 0.015789179131389 -0.002810355275869 0.031608983874321 0.016299562528729
0.018981173634529 0.010527453385293 0.019765349105000 0.021157424896955 0.028748020529747 0.024040447548032 0.011314291507006 0.012901451438665 0.028959661722183
0.020154824480414 0.037351507693529 0.030063830316067 0.037710759788752 0.026544595137239 0.034524608403444 0.002855569124222 0.039196614176035 0.026957917958498
0.008896818384528 0.010322720743716 0.012226209044456 0.014769606292248 0.008091524243355 0.013557151891291 0.023304710164666 0.011098030023277 0.022971574217081
-0.006545362994075 -0.021620934829116 -0.023823997005820 -0.022927928715944 0.011938147246838 0.013722257688642 0.025829190388322 0.025286158546805 0.020656218752265
0.018465103581548 0.013803455047309 0.006695193704218 0.022444082424045 0.012229496613145 0.050714995712042 0.034165780991316 0.032657861709595 0.042436737567186
-0.036025792360306 -0.024566553533077 -0.036634098738432 -0.034536607563496 -0.033318649977446 -0.049691289663315 -0.057886958122253 -0.046137053519487 -0.034282378852367
-0.020059106871486 -0.002184476237744 -0.014895674772561 -0.014471175149083 -0.005318562500179 0.019529478624463 0.003797837300226 0.024449752643704 0.014916953630745
-0.002353254705667 -0.006168273277581 0.001295287627727 0.009916950948536 -0.000953958078753 0.006493922788650 0.008194825612009 0.018209725618362 0.016920136287808
-0.018324796110392 -0.018866034224629 -0.023700397461653 -0.001779114012606 -0.018875090405345 -0.000119917043776 0.009684510529041 0.008811397477984 0.009253499098122
0.013097559101880 0.019868314266205 0.015463903546333 0.017398091033101 0.018858445808291 0.018810870125890 0.032851193100214 0.023871809244156 0.030982796102762
-0.009134312160313 -0.001574825262651 -0.013727233745158 -0.006513315252960 -0.013284685090184 -0.018939493224025 0.000439826981165 0.009509971365333 -0.001290310407057
-0.012948995456100 -0.009068041108549 0.011105000041425 0.006749429274350 0.007434016093612 0.025688346475363 0.015812948346138 0.023500131443143 0.019422544166446
0.010122052393854 0.001744607929140 0.015925209969282 0.003348881378770 -0.008692806586623 0.022432385012507 0.006492144893855 0.021517422050238 0.021355131641030
0.003644230775535 0.035096049308777 -0.004936087410897 0.015083339065313 0.014275169000030 0.032785926014185 0.036045186221600 0.028718540444970 0.029734356328845
0.017703361809254 0.032229512929916 0.010803113691509 0.023465275764465 0.020510729402304 0.007864767685533 0.010125483386219 0.008789632469416 0.017423070967197
-0.018021721392870 -0.002698002383113 -0.024439381435513 -0.031953401863575 -0.027028022333980 -0.002416740870103 -0.005986526608467 0.004914333112538 -0.008675522170961
0.012171077542007 -0.006165781524032 -0.007643270771950 0.014688672497869 0.006644449662417 0.020284205675125 0.026265183463693 0.007802514825016 0.023781057447195
0.009658523835242 0.010634264908731 0.001052976120263 0.006130507215858 0.007902110926807 0.004584487993270 0.022515155375004 0.004753832239658 0.017515573650599
0.000386812025681 -0.003468188690022 -0.001476292731240 0.003349097212777 -0.000391229958041 -0.002015575068071 0.007856149226427 -0.005799364298582 0.013566916808486
0.007404975593090 0.004029131960124 -0.000549590622541 0.019853813573718 0.004538065753877 0.015733988955617 0.016495728865266 0.044718731194735 0.034077052026987
0.010913761332631 0.006388189736754 0.006806921679527 0.012279328890145 0.001603965763934 0.012030279263854 0.001023859833367 0.017012258991599 0.011690883897245
0.008890696801245 0.003687739372253 0.009755766950548 0.002084892708808 0.014750827103853 -0.000177838126547 0.006726804189384 0.001121546374634 0.005371014587581
-0.033111184835434 -0.039379872381687 -0.050351437181234 -0.031438812613487 -0.042713437229395 -0.042104657739401 -0.013634675182402 -0.041916768997908 -0.036524396389723
-0.038740340620279 -0.020513234660029 -0.030624752864242 -0.036427766084671 -0.025964749976993 -0.051948610693216 -0.041283417493105 -0.030064431950450 -0.032086167484522
0.005105114076287 0.011683952994645 -0.012282795272768 0.007163380738348 0.008592039346695 0.001914227148518 -0.017550516873598 0.004267573356628 0.001001628697850
0.004893238190562 -0.000295807811199 0.006395997945219 0.012591903097928 0.012409362010658 0.024751441553235 0.028885645791888 0.030388759449124 0.000651085458230
-0.001571972738020 -0.001071102684364 -0.021376112475991 -0.010202440433204 -0.015178814530373 -0.008859788067639 0.005865614395589 0.000137118244311 0.017590431496501
0.006448762491345 0.009769150055945 0.007357268128544 0.016271619126201 -0.003935967572033 0.001843995065428 0.006207121070474 0.006669530645013 -0.000905803812202
0.001325686927885 -0.000097906427982 -0.004770020954311 0.012500385753810 0.020179210230708 0.032888874411583 0.030786223709583 0.013552950695157 0.018440004438162
-0.004478561691940 0.000068170491431 -0.022477742284536 -0.018640149384737 -0.017525117844343 -0.006791859865189 -0.018044417724013 -0.016082137823105 -0.029520267620683
-0.014317369088531 0.013690740801394 0.005190694238991 0.012481921352446 0.013985976576805 0.019248669967055 0.029212350025773 0.021473303437233 0.002670400775969
0.003898891853169 0.023970123380423 0.013919617049396 0.009424716234207 0.016988843679428 0.011978739872575 0.003376918379217 0.028084071353078 0.016837527975440
0.009450900368392 0.006435374729335 0.004330155439675 -0.007081353105605 0.017024284228683 0.015683909878135 0.045329682528973 0.037356767803431 0.027458135038614
0.011493442580104 0.011634266935289 0.002000136766583 0.013262319378555 0.023578329011798 0.003384365234524 0.018738882616162 0.013766147196293 0.013836246915162
-0.005249063018709 -0.031404457986355 -0.005191921256483 -0.031189860776067 -0.002929583424702 -0.025410439819098 -0.003921911586076 -0.011660042218864 -0.011829094961286
-0.003407873911783 0.012104140594602 0.015133558772504 -0.002822355600074 0.000364187580999 -0.004891612567008 0.002453427063301 0.016010873019695 0.021162988618016
0.026361785829067 0.007659839000553 0.005527589470148 0.002646801527590 0.006060854066163 0.013043337501585 0.012900366447866 0.020408865064383 0.010064912959933
-0.027008939534426 -0.018639868125319 -0.005761619191617 -0.037372861057520 -0.025077199563384 -0.015337140299380 -0.021703196689487 -0.023428635671735 -0.010184583254158
0.014357410371304 -0.000179835900781 0.007943215779960 0.006266987416893 0.005492140073329 0.008239186368883 -0.002274989150465 0.013138883747160 0.010153498500586
0.016054313629866 0.004577580373734 0.020957533270121 0.011625427752733 0.024675671011209 0.010750625282526 0.021493215113878 0.000778273562901 0.012035343796015
0.008678794838488 0.002885102992877 0.017654750496149 0.012686044909060 0.009794164448977 0.009689132682979 0.005541287828237 0.029386991634965 0.009430566802621
-0.030930753797293 -0.012065742164850 -0.023117588832974 -0.001107294927351 -0.004172696731985 -0.027336416766047 -0.019150715321302 -0.009023811668158 -0.027017451822758
0.013755655847490 0.013812850229442 0.019636079668999 0.023423723876476 0.016951829195023 0.020403055474162 0.023915279656649 0.032852962613106 0.032346539199352
0.003359844675288 0.035123571753502 0.041233580559492 0.012750234454870 0.038175214082003 0.011513894423842 0.018475631251931 0.020566711202264 0.040826011449099
-0.034750960767269 -0.043770700693130 -0.026046026498079 -0.020952446386218 -0.045624051243067 -0.033815976232290 -0.032945800572634 -0.043965678662062 -0.046328321099281
0.014702346175909 0.021185442805290 0.006513115484267 -0.001063270727172 0.014483701437712 0.015151426196098 0.015228479169309 0.023422459140420 0.018805829808116
-0.002279111417010 0.016104739159346 0.011041185818613 0.007313097827137 0.005512436851859 0.006726629566401 0.009950317442417 0.011709601618350 0.013904804363847
0.008796913549304 0.017490148544312 0.003233582479879 0.006158819887787 0.013873442076147 0.017029095441103 0.016518160700798 0.005720960907638 0.014416503719985
0.003257116535679 0.005328487604856 0.001883293618448 0.019947370514274 0.017782308161259 0.010190938599408 0.012041132897139 0.009565968066454 0.016084006056190
0.014895342290401 -0.000217754146433 -0.014392780140042 0.002033140975982 -0.034794539213181 0.000640832062345 0.000178167727427 0.012137686833739 0.019502233713865
0.032112039625645 0.024399627000093 0.022847834974527 0.022342432290316 0.024157725274563 0.020194917917252 0.038705080747604 0.013513880781829 0.035289064049721
-0.006091390736401 -0.035376563668251 -0.035199236124754 -0.029968608170748 -0.029879326000810 -0.026575548574328 -0.020920950919390 -0.017215019091964 -0.016816670075059
-0.015003263019025 0.008374939672649 0.006732435896993 0.017564525827765 0.000378409429686 0.016600091010332 0.019956700503826 0.020151754841208 0.026234474033117
0.001100403838791 0.009981846436858 -0.031938478350639 -0.010356401093304 -0.009855769574642 -0.002151838969439 0.011077036149800 -0.003334304783493 -0.006503101903945
0.001436081947759 0.012277770787477 0.009410694241524 0.015058044344187 0.024904469028115 0.024764725938439 0.033768288791180 0.011063645593822 0.023404171690345
0.014805134385824 -0.005585683044046 0.000850880634971 -0.012300527654588 0.003976854030043 -0.007292832713574 -0.004623446147889 0.014583591371775 0.014070807024837
0.003923842683434 -0.010627080686390 -0.020447013899684 0.002157966373488 0.028249537572265 0.031781665980816 0.021098129451275 0.036072492599487 0.029986470937729
0.005163980647922 0.010690213181078 0.020658152177930 0.014880715869367 0.006783125922084 0.021365223452449 0.011837302707136 0.018066301941872 0.024992100894451
-0.096407242119312 -0.133938729763031 -0.058986973017454 0.077652633190155 0.175126716494560 0.100543044507504 0.002648891415447 -0.019679827615619 -0.073137603700161
-0.095943376421928 -0.054296448826790 0.021111996844411 0.138573661446571 0.206092640757561 0.146671444177628 0.100440561771393 0.065898813307285 0.039203003048897
-0.108234532177448 -0.150203675031662 -0.156341835856438 -0.122905686497688 -0.080486476421356 -0.108789928257465 -0.123270750045776 -0.104135908186436 -0.106030017137527
-0.052802707999945 -0.039426483213902 0.022422324866056 0.139745384454727 0.220059186220169 0.131214797496796 0.055086046457291 0.006804439704865 -0.029124813154340
-0.009504794143140 -0.039216347038746 -0.036351967602968 -0.039721313863993 -0.039266090840101 -0.043499469757080 -0.028490927070379 -0.057086929678917 -0.035755727440119
-0.053773947060108 -0.055685795843601 -0.049516111612320 -0.052325669676065 -0.052431453019381 -0.051550831645727 -0.055330906063318 -0.045815214514732 -0.059467144310474
0.013492948375642 0.021648304536939 0.019620114937425 0.036032844334841 0.015546743758023 0.023261485621333 0.043334767222404 0.030070306733251 0.021922308951616
0.003102265298367 0.012202026322484 0.043279387056828 0.049690473824739 0.088457077741623 0.078258007764816 0.063759639859200 0.070116780698299 0.046298567205667
-0.014273762702942 -0.024204201996326 0.015136820264161 0.034181591123343 0.059885412454605 0.092103272676468 0.121002733707428 0.096593029797077 0.054878022521734
-0.000882236286998 0.015437793917954 -0.011879228986800 -0.007320566568524 -0.007698733825237 -0.011249558068812 -0.013015783391893 0.006372173782438 -0.020421059802175
0.017334090545774 0.017407326027751 0.029674472287297 -0.022015137597919 -0.015076672658324 -0.028608893975616 -0.003941229078919 0.002285431604832 -0.009916887618601
-0.084949977695942 -0.127298578619957 -0.073804594576359 0.038035888224840 0.107774667441845 0.028431817889214 -0.036615181714296 -0.083742566406727 -0.092029795050621
0.011584226042032 -0.007665101438761 0.013802642002702 -0.014210936613381 -0.025153968483210 -0.024493580684066 -0.027757568284869 -0.036244273185730 -0.028045538812876
-0.006436350755394 0.003425830509514 -0.025737045332789 -0.015800213441253 -0.023983858525753 -0.021467255428433 -0.007502570282668 -0.018597111105919 -0.018554020673037
-0.086444742977619 -0.068882510066032 0.011904191225767 0.161386400461197 0.234821721911430 0.167559638619423 0.082878313958645 0.056939970701933 0.003163160989061
0.002014145022258 -0.013845643959939 -0.000415241724113 -0.013038655743003 -0.003155970014632 0.000323063111864 -0.009978423826396 -0.012924330309033 -0.003750962903723
-0.086024142801762 -0.066439561545849 -0.016787681728601 0.024975312873721 0.064485207200050 0.035123255103827 0.005016994662583 0.021465798839927 -0.016456509009004
-0.089020051062107 -0.079237796366215 0.004017059225589 0.099547795951366 0.137777179479599 0.118532568216324 0.063909821212292 0.045709602534771 0.025749897584319
0.003053056309000 -0.003082107752562 0.004841247107834 -0.016612093895674 -0.013772672042251 0.012700870633125 0.009836388751864 0.018434168770909 -0.000894621829502
0.005223618820310 0.034284342080355 0.038564767688513 -0.005457581486553 -0.011822270229459 -0.030988810583949 -0.006839164067060 0.003194937016815 -0.003718985244632
-0.022091399878263 0.006280779372901 -0.020952526479959 -0.006023072171956 -0.019177041947842 -0.021740714088082 -0.010191548615694 -0.018920874223113 -0.027803469449282
-0.006431389134377 -0.009405177086592 -0.015093426220119 -0.014596256427467 -0.024211829528213 -0.041980724781752 -0.051786534488201 0.000269020267297 -0.026101814582944
0.021512500941753 0.017344377934933 0.032351933419704 0.027566362172365 0.023237407207489 0.014342236332595 0.023210566490889 0.020415052771568 0.027589332312346
