0.000000125646380
0.000000078705590
-0.000000225420507
0.000000079755274
-0.000000006586895
-0.000000169857884
-0.000000000240563
0.000000124117847
-0.000000168956518
-0.000000307906447
-0.000000901935607
0.000000022011852
-0.000000146491502
0.000000275784885
0.000000008856456
-0.000000009562537
-0.000000318249363
-0.000000081393914
-0.000000087529180
-0.000000200200375
0.000000484083273
0.000000173724729
0.000000053735306
-0.000000000909203
0.000000022695602
-0.000000079707903
-0.000000031729467
-0.000000391515528
-0.000000201570757
-0.000000067337027
0.000000283510502
-0.000000029418871
-0.000000000202296
-0.000000001054560
-0.000000058972930
0.000000313740742
-0.000000041661647
0.000000004556416
-0.000000107757600
0.000000042356564
0.000000116058985
0.000000057513525
-0.000000048699526
0.000000170682654
-0.000000188921291
0.000000018941069
-0.000000470527482
-0.000000106261368
0.000000050524857
0.000000123621135
0.000000099697758
-0.000000007536012
0.000000128775909
-0.000000152557035
0.000000076234322
0.000000046409518
-0.000000038318476
0.000000119332341
0.000000556911800
0.000000224104355
-0.000000238958592
-0.000000033431085
0.000000113514524
-0.000000054551226
0.000000118924177
-0.000000126248736
-0.000000108863581
-0.000000215129361
-0.000000360102320
-0.000000149540355
0.000000102178220
-0.000000372851247
0.000000119850711
-0.000000073922671
-0.000000106089004
0.000000011687820
0.000000359654450
-0.000000407898057
-0.000000162054050
0.000000040218669
0.000000409696639
0.000000146015793
0.000000080620580
-0.000000003271153
-0.000000040604018
0.000000108041036
-0.000000289436002
0.000000049369927
-0.000000125648697
-0.000000099977335
-0.000000168823988
-0.000000179147065
-0.000000005565288
-0.000000010594346
0.000000035992112
-0.000000114853457
0.000000109484141
0.000000030285999
0.000000006063650
0.000000114570781
0.000000054665566
-0.000000090522740
-0.000000156005910
0.000000016601151
-0.000000060144927
-0.000000165252004
-0.000000181340113
0.000000021568198
-0.000000113518730
0.000000071054892
0.000000104331157
-0.000000184298230
-0.000000078916436
-0.000000013368531
0.000000423713630
0.000000042972353
-0.000000031965747
-0.000000250474386
0.000000054282427
-0.000000041003176
-0.000000019862531
-0.000000304360981
0.000000179737953
-0.000000161549508
-0.000000002669236
0.000000146706967
0.000000106851076
-0.000000302697799
-0.000000099179637
-0.000000127988912
0.000000059854763
0.000000635468439
0.000000445582884
0.000000072372544
-0.000000025372319
-0.000000231701307
-0.000000063443302
0.000000025777533
0.000000215121148
-0.000000216654030
-0.000000012261146
0.000000041071473
0.000000227704035
0.000000068040237
0.000000110580949
-0.000000015090018
0.000000017687915
0.000000163727464
-0.000000076841239
-0.000000529853651
-0.000000164265231
-0.000000092286029
0.000000172547828
-0.000000069782871
0.000000136180390
0.000000008014209
0.000000230359305
0.000000069768817
-0.000000090906489
-0.000000064519647
-0.000000001382600
-0.000000158781461
0.000000194608859
-0.000000297793378
0.000000014254502
-0.000000177209159
0.000000001143472
-0.000000060889526
0.000000173391712
0.000000060507126
-0.000000248252320
0.000000045583249
0.000000313123138
0.000000062231237
-0.000000070059755
-0.000000073819045
0.000000140465332
-0.000000123395608
0.000000020439737
-0.000000014500460
0.000000060411097
-0.000000541739041
-0.000000200756460
-0.000000118166000
0.000000139894084
-0.000000005841718
0.000000066322478
-0.000000365462455
-0.000000173856179
0.000000002648433
-0.000000335580978
-0.000000281948473
0.000000103633084
-0.000000344081599
0.000000096741232
0.000000020240265
-0.000000551983419
-0.000000242035298
0.000000065494262
-0.000000074182019
-0.000000006082352
-0.000000046071843
0.000000077328551
-0.000000288513377
-0.000000335714532
0.000000045071324
0.000000039281819
-0.000000056423616
0.000000005401913
-0.000000016712086
-0.000000151896359
-0.000000126463789
0.000000184364922
0.000000123248526
0.000000121234507
-0.000000432968022
-0.000000043341373
0.000000480725362
0.000000022798190
0.000000165757925
0.000000084059032
0.000000121978786
0.000000149884116
0.000000108592317
0.000000021059629
0.000000117711146
0.000000105180810
-0.000000161176303
0.000000446564144
-0.000000097198189
-0.000000086737089
0.000000183140514
-0.000000064770781
0.000000101935001
-0.000000176213462
-0.000000532214187
0.000000533346736
0.000000097743431
-0.000000336046497
0.000000606329877
-0.000000074888163
-0.000000242349216
0.000000068676435
0.000000058234225
-0.000000115512407
-0.000000018470082
-0.000000011166877
0.000000109426978
0.000000231144242
0.000000022719989
0.000000138897889
0.000000058775132
-0.000000036963772
-0.000000014579604
0.000000152702214
0.000000030865170
