-0.221031010150909
-0.008271009661257
-0.191567629575729
-0.131306052207947
-0.263969808816910
-0.183598667383194
-0.247207716107368
-0.089057207107544
0.006861917674541
-0.058853849768639
-0.113662287592888
0.000897452584468
-0.262518018484116
0.062635205686092
-0.037900812923908
-0.074975460767746
-0.046930216252804
0.314010113477707
-0.092637367546558
-0.122135140001774
-0.033956710249186
-0.230515360832214
-0.034792926162481
-0.124168567359447
-0.178493469953537
0.278020501136780
-0.046965092420578
0.022229015827179
-0.150399595499039
-0.049121033400297
-0.099870160222054
-0.142141237854958
-0.192770615220070
-0.206934839487076
0.011772563681006
-0.174093142151833
-0.014645477756858
0.021940641105175
-0.029917284846306
0.040389429777861
-0.174978554248810
-0.094558857381344
0.009897618554533
-0.139927387237549
0.125827834010124
-0.045032817870378
-0.084701433777809
0.025902375578880
-0.018803263083100
-0.154161036014557
-0.117274440824986
0.082863986492157
-0.159832686185837
0.019583942368627
0.092686124145985
-0.129640236496925
-0.266315191984177
-0.194001808762550
-0.113512970507145
-0.243355721235275
0.024009216576815
-0.286542654037476
-0.079031608998775
-0.029036920517683
0.079267323017120
-0.022117102518678
0.175807327032089
-0.169682651758194
-0.053034134209156
-0.073177330195904
-0.063542328774929
-0.123923867940903
-0.026617687195539
-0.087734490633011
-0.118324406445026
-0.042949136346579
0.041649132966995
-0.043911445885897
0.009962998330593
-0.078249320387840
-0.104077875614166
-0.134292900562286
0.071902781724930
-0.135644823312759
0.143654122948647
-0.131665095686913
0.003973122220486
-0.030918980017304
0.003834858536720
-0.077660337090492
-0.049322985112667
-0.147391214966774
-0.036459624767303
0.037084497511387
-0.089063070714474
0.147632628679276
0.026638662442565
-0.108495637774467
-0.101136833429337
-0.056793551892042
-0.225244760513306
-0.008369844406843
-0.071083664894104
0.014766055159271
-0.363444983959198
-0.115826003253460
-0.128421336412430
-0.019445912912488
-0.018327686935663
-0.055085755884647
-0.157164543867111
0.036239381879568
0.330638587474823
-0.260426729917526
-0.011528853327036
0.052287612110376
0.044438418000937
-0.097947917878628
-0.052996832877398
-0.131834238767624
-0.155415609478951
-0.074243336915970
-0.023539809510112
-0.077274031937122
0.106833681464195
-0.029446238651872
0.014173703268170
-0.062180094420910
