0.029189549386501 -0.016238857060671 0.005572933238000 0.023178864270449 -0.030678873881698 0.001064105890691 -0.063123174011707 0.066047362983227 -0.015753474086523 0.001253410940990 0.000305807334371 0.013330325484276 0.008827859535813 0.000448178296210 0.010469159111381 0.000421741715400 0.027862949296832 -0.047003760933876 -0.014241443015635 0.016661388799548 0.041365399956703 0.018249709159136 0.062165133655071 0.002076670061797 -0.023210912942886 -0.026301696896553 -0.036529012024403 0.029752438887954 0.018282046541572 -0.020790426060557 -0.035795990377665 0.006062976084650 -0.005878792144358 0.001627308200113 0.069862537086010 -0.019439542666078 0.001607553218491 -0.030352653935552 0.012747125700116 -0.013611816801131 -0.047332048416138 0.021521382033825 -0.002691213740036 -0.004283833317459 -0.005695754662156 0.010456581600010 -0.006900153588504 -0.030810242518783 0.010479969903827 0.046714946627617 -0.082108743488789 -0.013344284147024 -0.033405587077141 -0.009396873414516 0.011008526198566 -0.026017729192972 0.022136703133583 -0.001744864392094 0.000260246684775 -0.049058031290770 0.013853999786079 -0.009949088096619 -0.006497572176158 0.011040309444070
-0.032321304082870 -0.037215221673250 0.014694341458380 -0.015763947740197 -0.016206793487072 0.009549668990076 0.014633317478001 0.024452261626720 0.019745538011193 -0.041940908879042 -0.058778520673513 0.024644101038575 -0.047801293432713 -0.013707575388253 -0.079872243106365 0.009776442311704 0.021400136873126 0.001627318444662 0.068904109299183 0.044549752026796 0.004433051217347 -0.025896815583110 -0.049781147390604 -0.001466304063797 0.021400617435575 -0.013868333771825 -0.048425599932671 0.024937937036157 0.004261292982846 -0.014984772540629 -0.087555818259716 0.027819322422147 0.023209428414702 -0.006564766168594 0.035022791475058 0.010152758099139 -0.014548782259226 -0.005256295669824 0.026190998032689 0.005801150575280 0.012077753432095 -0.047025423496962 0.026690522208810 0.005028070881963 -0.039936378598213 0.023899180814624 0.007654561195523 0.042253002524376 0.013301878236234 0.000627671717666 0.007528498303145 -0.019119374454021 0.015017873607576 -0.005661520175636 0.006457185838372 0.009345167316496 -0.029294036328793 -0.024541879072785 -0.033209878951311 -0.008405619300902 0.011759071610868 -0.074541047215462 0.030793428421021 0.005365956574678
0.012248846702278 0.050860878080130 -0.016111306846142 0.021241037175059 -0.050619553774595 -0.011524737812579 -0.008831109851599 -0.001387969474308 -0.000444689911092 0.010900777764618 -0.038157615810633 -0.054385907948017 -0.084421344101429 -0.032931786030531 0.161343932151794 -0.024489449337125 0.034525878727436 -0.049915220588446 -0.010661303065717 -0.040772143751383 0.059487085789442 0.004796567838639 0.031733281910419 -0.005019612144679 0.065092869102955 -0.045662537217140 0.053139872848988 0.005588289350271 0.036067605018616 -0.019504729658365 -0.056503068655729 -0.030993375927210 -0.015764545649290 0.013958970084786 -0.018955620005727 -0.010943906381726 -0.010058604180813 0.010305413044989 -0.062831684947014 -0.054544128477573 -0.027356859296560 0.018189527094364 -0.005395082756877 -0.010280905291438 0.016009410843253 -0.016942260786891 -0.014646025374532 0.017013851553202 -0.011868792586029 -0.036782126873732 -0.045612335205078 -0.081486925482750 0.005562347825617 0.009647723287344 0.001109114266001 -0.009779145009816 -0.015910964459181 -0.015640521422029 -0.100145056843758 0.010813947767019 0.013272311538458 -0.005407487042248 -0.002273787278682 0.006641835439950
