-0.096849903464317 -0.056636676192284 0.017626142129302 0.050910539925098 -0.093571834266186 0.049551427364349 -0.034019533544779 -0.032742187380791 -0.008405394852161 -0.008335913531482 0.016865581274033 0.263591378927231 -0.011490890756249 0.067813731729984 -0.008380638435483 -0.093971200287342 0.078785002231598 0.091845311224461 0.014595147222281 -0.058811187744141 0.024990689009428 0.212016969919205 -0.119671761989594 -0.080629624426365 0.051294099539518 -0.175003916025162 0.009179478511214 -0.078892625868320 -0.100215807557106 -0.044027443975210 -0.059127643704414 -0.080443397164345 0.053561083972454 0.026498805731535 0.019104011356831 0.044277999550104 -0.009065094403923 0.039310041815042 -0.085311055183411 -0.105578102171421 0.160184115171432 -0.051889587193727 -0.138508185744286 -0.060113243758678 0.095022641122341 -0.045740149915218 0.064295314252377 -0.079318664968014 -0.032559603452682 -0.139353170990944 0.001693652826361 -0.159878522157669 -0.073585323989391 -0.108388625085354 -0.091162174940109 0.207564443349838 -0.038921251893044 -0.012339406646788 -0.074989616870880 -0.050887919962406 -0.097400017082691 0.002992889611050 0.100622259080410 -0.033356726169586
-0.015105284750462 0.015687692910433 0.106150507926941 -0.016238011419773 0.068636946380138 -0.007509855087847 -0.008410622365773 0.070236831903458 -0.002651861868799 0.102999895811081 0.044087931513786 -0.044626660645008 0.011911287903786 0.136732086539268 0.127442538738251 -0.017235275357962 -0.035040836781263 -0.093013398349285 -0.022682873532176 -0.003794200019911 0.052989874035120 -0.015100803226233 0.042770046740770 -0.004680829122663 0.015793316066265 0.040610518306494 0.021796293556690 -0.035831294953823 0.041280917823315 0.044257279485464 -0.007398543879390 -0.032918788492680 -0.029911568388343 0.024783259257674 0.109055690467358 -0.040879685431719 -0.034618072211742 0.008625158108771 -0.005300455726683 0.005977794993669 0.067260175943375 -0.015867624431849 -0.053455606102943 -0.017801521345973 0.077668756246567 -0.014736889861524 -0.025331813842058 0.009889195673168 0.080446407198906 0.071611404418945 0.116131998598576 0.076479397714138 0.018346302211285 -0.030429290607572 0.012740015052259 -0.077552042901516 0.050556603819132 0.114600963890553 -0.008449468761683 0.076866172254086 0.000487011187943 -0.033037588000298 0.033541377633810 0.004338392056525
-0.033810831606388 -0.047286026179790 -0.051008243113756 0.025323953479528 -0.033282384276390 0.355117410421371 0.033580701798201 0.016189595684409 -0.054906204342842 -0.120342820882797 0.029031939804554 0.091791063547134 0.038868922740221 -0.112285152077675 0.154545098543167 -0.003720532171428 -0.047218918800354 0.108699843287468 -0.111620448529720 0.030332783237100 0.009388076141477 0.118144743144512 -0.028152890503407 -0.031260699033737 -0.049513705074787 0.022294793277979 -0.017447184771299 0.050404891371727 -0.021999573335052 0.196652993559837 -0.024821909144521 -0.019975792616606 0.026977688074112 0.076982662081718 0.095318287611008 0.367514491081238 -0.141207754611969 -0.034340549260378 -0.007882861420512 -0.028363561257720 -0.066798515617847 -0.039442531764507 -0.282401800155640 -0.019098404794931 -0.077061720192432 -0.029477704316378 0.046568855643272 0.016817346215248 -0.032907217741013 0.076613426208496 -0.117952391505241 0.083985880017281 -0.032283160835505 -0.036546073853970 -0.062001563608646 -0.033949121832848 -0.114836394786835 0.131959706544876 0.028557036072016 0.012375819496810 -0.032768055796623 -0.038802471011877 -0.119836725294590 0.062987893819809
0.059946119785309 -0.008707083761692 0.056413039565086 -0.047354999929667 -0.047602601349354 0.177599772810936 -0.084239974617958 -0.035941418260336 0.062886677682400 -0.093288317322731 -0.028873046860099 -0.082757584750652 -0.080052763223648 -0.135970696806908 0.126243352890015 -0.002780418843031 0.000265937647782 0.049807544797659 -0.025938834995031 -0.011510643176734 -0.082265831530094 -0.072290152311325 0.007188444491476 -0.016818827018142 -0.020889189094305 -0.043321270495653 -0.081094413995743 -0.021896922960877 -0.038455173373222 0.040416520088911 -0.060040801763535 -0.048389900475740 0.074985265731812 0.022924542427063 0.170030400156975 0.118941627442837 -0.003996643703431 -0.096343711018562 -0.041349448263645 -0.061634570360184 0.058322109282017 -0.075524516403675 -0.014789314009249 -0.004899309948087 -0.138816788792610 -0.084876351058483 -0.113501965999603 0.042606346309185 0.078846976161003 -0.074171535670757 -0.131346255540848 0.202703341841698 -0.039416607469320 -0.023572482168674 -0.023657109588385 0.041876550763845 -0.032901909202337 0.097331121563911 -0.034955300390720 -0.033471442759037 -0.035375699400902 0.003359883790836 -0.068271778523922 -0.055123001337051
-0.032340768724680 -0.013579379767179 -0.136329486966133 -0.075644880533218 0.009312795475125 -0.145761236548424 -0.037914488464594 -0.011390244588256 -0.047916751354933 -0.035948134958744 -0.061279319226742 -0.041146319359541 -0.032726146280766 -0.055204272270203 -0.077718302607536 -0.012816658243537 -0.008509690873325 0.041334427893162 -0.025153867900372 -0.035949438810349 -0.106735527515411 -0.029510093852878 -0.000237580810790 -0.000312465272145 -0.026502382010221 -0.015461163595319 -0.077024221420288 -0.046312846243382 0.004814816173166 -0.056823492050171 -0.038321390748024 -0.042065087705851 -0.050332352519035 -0.104810573160648 -0.107429601252079 -0.013779298402369 0.072825737297535 -0.052325960248709 -0.040154192596674 -0.000254463695455 -0.016128022223711 -0.022145001217723 0.002034231321886 -0.009170525707304 -0.081163644790649 0.024957356974483 0.013025209307671 0.009518042206764 -0.057025019079447 0.035783689469099 -0.067276336252689 -0.058099318295717 0.001019772025757 0.002352215116844 -0.003951813559979 -0.041790816932917 -0.066843979060650 -0.009363661520183 0.078447140753269 0.034558489918709 -0.009947759099305 -0.076145209372044 0.037806108593941 -0.007128944154829
0.015402059070766 0.009220002219081 -0.030324487015605 -0.107821673154831 -0.015892267227173 0.086320213973522 0.048883907496929 -0.026716601103544 0.150640845298767 0.019344452768564 0.003941015806049 -0.042305562645197 -0.050847336649895 -0.129863455891609 0.055453751236200 -0.034193299710751 -0.076645053923130 -0.012371147982776 0.067346364259720 0.089962676167488 0.017222944647074 -0.138429239392281 0.026347659528255 0.006291428115219 0.046651452779770 0.065847478806973 -0.017486318945885 0.032835733145475 -0.032713234424591 0.157446771860123 0.026610378175974 -0.021053785458207 0.093901999294758 0.010493065230548 0.181328415870667 -0.076188653707504 -0.073437571525574 -0.003552443115041 -0.027953552082181 0.040206883102655 -0.357928067445755 -0.019935593008995 -0.104091159999371 -0.039833277463913 -0.012383105233312 -0.087592750787735 -0.026577763259411 0.050912547856569 -0.025372276082635 0.206004187464714 -0.053155217319727 0.293315529823303 0.021980132907629 0.020119480788708 0.009766238741577 0.052953179925680 0.070638768374920 -0.027280490845442 -0.071655564010143 0.028904173523188 -0.005342679563910 0.064045973122120 -0.102331407368183 0.003309266176075
0.066107921302319 -0.018411541357636 0.038856577128172 -0.037405531853437 0.031044999137521 0.018280059099197 0.028030648827553 0.096684515476227 0.028945054858923 0.084655821323395 0.027488347142935 -0.141398906707764 -0.004885510541499 0.142877385020256 0.034113850444555 -0.016208531334996 -0.145163908600807 0.024127140641212 -0.003063324140385 0.006385758053511 0.091153323650360 -0.074009373784065 0.094498746097088 -0.024621915072203 -0.014644309878349 0.097743712365627 0.017205066978931 -0.058222737163305 0.021329058334231 0.025921780616045 0.061499133706093 0.082166567444801 0.002968711080030 -0.044403605163097 0.092687718570232 0.015418697148561 -0.018769470974803 -0.011832790449262 -0.007010190282017 0.000661720056087 0.044418487697840 -0.003193137468770 -0.024814104661345 -0.017636403441429 0.084421440958977 -0.040734831243753 -0.002208337420598 0.087379910051823 -0.059208612889051 0.049991864711046 0.047155912965536 0.045473828911781 -0.009303481318057 -0.043171960860491 0.007459550630301 -0.041697528213263 0.009732405655086 0.099769540131092 0.035857908427715 0.112687617540359 -0.001963402610272 0.054198183119297 -0.011362757533789 0.036250814795494
0.020123301073909 -0.049604233354330 0.080066114664078 -0.064455375075340 0.007167580537498 0.113093212246895 -0.100458174943924 -0.004651814699173 -0.008411498740315 0.018020533025265 -0.064860567450523 -0.106895670294762 -0.040254767984152 0.084435522556305 0.076809264719486 -0.042572516947985 0.005296260118484 0.118571490049362 0.035245563834906 -0.124144896864891 0.005165980197489 -0.061024125665426 -0.001341139548458 -0.098204135894775 -0.069626696407795 0.027341797947884 -0.000016587377104 -0.176543220877647 -0.053481999784708 0.006953231990337 -0.011207202449441 -0.010206488892436 0.005777245853096 -0.013028385117650 0.015439996495843 0.000108557076601 -0.034920711070299 -0.034174803644419 -0.058393955230713 -0.040456760674715 0.170947536826134 -0.000144982390339 0.102623715996742 -0.062874168157578 0.066854655742645 0.008320370689034 -0.052762225270271 0.022863287478685 0.047065939754248 -0.360955864191055 0.026079511269927 0.014924569055438 -0.098494097590446 -0.054200984537601 -0.018138408660889 -0.014449826441705 -0.004226008430123 -0.042424879968166 0.054066546261311 -0.060421079397202 -0.061315368860960 0.003843026002869 -0.011071726679802 -0.003993251826614
0.049310732632875 -0.011123615317047 -0.047205496579409 -0.102123677730560 0.010931038297713 -0.069628953933716 0.016106238588691 -0.031139506027102 0.030594816431403 -0.095683097839355 -0.031630754470825 -0.056766841560602 -0.000574070145376 -0.033546973019838 -0.090693987905979 0.031603299081326 0.010146252810955 -0.037633121013641 -0.003483772045001 0.036759611219168 -0.084565915167332 0.017597731202841 -0.013970871455967 0.045012027025223 0.022266626358032 -0.052428886294365 -0.037589371204376 -0.013361736200750 0.006737506017089 -0.069365389645100 -0.037336193025112 0.070169277489185 0.035067930817604 -0.058733988553286 -0.000924341089558 -0.012165003456175 -0.029668694362044 -0.091784857213497 0.040402762591839 0.029152579605579 -0.008426893502474 0.021721279248595 -0.079544618725777 0.069094084203243 -0.063624665141106 -0.004633325617760 -0.026038398966193 0.010620079003274 -0.044487547129393 -0.057391088455915 -0.075984619557858 -0.055879291146994 0.003694799263030 0.056092519313097 0.040191713720560 -0.001804515137337 -0.008140721358359 -0.131022736430168 -0.001291620428674 -0.025017727166414 0.010518365539610 -0.058937292546034 -0.031086510047317 -0.081873379647732
0.108035728335381 0.022390073165298 0.093792431056499 -0.040361277759075 0.015663774684072 0.071339301764965 0.043023355305195 -0.021944517269731 0.067844152450562 0.074622511863708 0.044024780392647 -0.160336092114449 -0.032378137111664 0.059578634798527 0.083376288414001 -0.031321894377470 -0.157377362251282 -0.041580781340599 0.035441964864731 -0.016399616375566 0.048177450895309 -0.081643171608448 0.068975992500782 -0.065192140638828 -0.032274443656206 0.132603779435158 0.000175172695890 -0.054117634892464 0.000302408734569 0.036466512829065 0.052464611828327 0.009388017468154 -0.004858210217208 0.051942232996225 0.124216191470623 0.006843387149274 0.079055830836296 0.032457377761602 -0.065814033150673 -0.013594112358987 -0.003180917352438 -0.047530643641949 -0.009336801245809 -0.054172508418560 -0.018971202895045 0.064385540783405 -0.080705769360065 0.070806831121445 0.123894996941090 0.068640738725662 0.067617923021317 0.069968134164810 0.001536767347716 -0.081519141793251 -0.003211297327653 0.007393463980407 0.064837455749512 0.137920826673508 0.038205854594707 0.053540512919426 -0.037353232502937 0.061125520616770 0.079899013042450 0.007506964728236
0.074397176504135 -0.025791980326176 0.017294351011515 -0.032869178801775 0.041703391820192 -0.003692759666592 -0.015491268597543 0.029993435367942 0.016835955902934 0.051887974143028 -0.011033591814339 -0.161601454019547 -0.019202316179872 0.169607505202293 0.032213192433119 -0.020873416215181 -0.088233478367329 -0.020047061145306 0.014455560594797 0.018441155552864 0.012992516160011 -0.037697613239288 0.062703289091587 -0.017191749066114 -0.007059704046696 0.108845666050911 0.017476014792919 -0.068821527063847 0.006828269455582 0.005185105372220 0.059693098068237 0.017487855628133 0.020170621573925 -0.015410449355841 0.044754855334759 0.019895600154996 -0.066008768975735 -0.004501214716583 -0.014597813598812 -0.019567264243960 0.072351105511189 -0.018020858988166 -0.074139095842838 -0.030053554102778 0.006824678275734 -0.071525841951370 -0.023099007084966 0.062733165919781 0.071993596851826 -0.009658561088145 0.055437445640564 0.098649404942989 0.000663163489662 -0.025508202612400 -0.013817558996379 -0.034933950752020 -0.009432268328965 0.081699192523956 0.010737333446741 0.054361496120691 -0.007313167210668 0.033210504800081 -0.013835982419550 0.064560525119305
-0.076140642166138 -0.025922035798430 -0.123838096857071 0.022023223340511 -0.130987837910652 0.001748626935296 -0.047593709081411 -0.072266109287739 -0.063567698001862 -0.020474513992667 -0.058446656912565 0.131362602114677 -0.109510600566864 -0.079597488045692 0.125858083367348 -0.116731710731983 0.041613385081291 0.321019172668457 -0.041419725865126 -0.054794963449240 -0.031272321939468 0.018630690872669 -0.000148766208440 -0.175509095191956 -0.019876347854733 0.023053940385580 0.019587226212025 -0.148131757974625 -0.081969186663628 0.000486479373649 -0.089885167777538 -0.004892032127827 -0.103805147111416 0.207074448466301 -0.078974463045597 -0.189008429646492 0.028911758214235 -0.069546140730381 -0.139038160443306 -0.083913564682007 0.061448629945517 -0.108649551868439 0.115683428943157 -0.173779651522636 -0.001376526546665 0.064652472734451 -0.125748977065086 0.016675902530551 -0.058595675975084 -0.135168746113777 -0.010582312010229 0.096666127443314 -0.060681704431772 -0.076739721000195 -0.101126097142696 -0.150655150413513 -0.323673814535141 0.143223673105240 -0.117862530052662 0.009422096423805 -0.183454930782318 -0.146482154726982 0.138624444603920 -0.083075731992722
0.105651937425137 -0.033514626324177 0.068688891828060 -0.017489530146122 0.035773131996393 0.032629646360874 0.005977655295283 -0.009846846573055 0.029139993712306 0.041656922549009 -0.002138847718015 -0.088786594569683 -0.034430529922247 0.116526134312153 0.042422488331795 -0.040414389222860 -0.077484302222729 -0.029256723821163 -0.001741920481436 -0.016275683417916 0.013350052759051 -0.052951797842979 0.052150420844555 -0.055527653545141 -0.010632919147611 0.125558823347092 0.006734992843121 -0.083191044628620 -0.030712150037289 0.033533703535795 0.049249041825533 0.042931403964758 0.039928462356329 -0.022754756733775 0.136749565601349 -0.018241232261062 -0.018610883504152 0.031283333897591 -0.020552217960358 -0.016744045540690 0.050062034279108 -0.033509358763695 -0.049916509538889 -0.032047927379608 -0.008155424147844 -0.046274907886982 -0.027206068858504 0.072877220809460 0.127349629998207 0.029460370540619 0.051303338259459 0.087542057037354 -0.019403930753469 -0.058206856250763 -0.036292690783739 -0.008512349799275 0.067140229046345 0.061068277806044 0.025381095707417 0.031471781432629 -0.038663674145937 0.018292821943760 -0.039965562522411 -0.010240206494927
0.060440044850111 -0.001224979641847 0.075134091079235 -0.013763955794275 0.073200263082981 -0.042515672743320 0.017974464222789 0.061723090708256 0.060643881559372 0.035691794008017 0.015705058351159 -0.121390692889690 -0.012108383700252 0.100340574979782 0.068204887211323 0.007284238468856 -0.156594142317772 -0.019177004694939 0.068603120744228 -0.037392627447844 0.139569237828255 -0.108884610235691 0.052373528480530 -0.018000461161137 -0.034472845494747 0.071254961192608 -0.000892780255526 -0.081802025437355 0.015935413539410 0.017126474529505 0.039967581629753 -0.030629692599177 -0.032728727906942 -0.096879974007607 0.155288338661194 -0.057209417223930 0.011555778793991 -0.001106873969547 -0.024558406323195 -0.005961341317743 0.027897547930479 -0.010410738177598 0.052235059440136 -0.020644523203373 0.062798678874969 0.072499595582485 -0.030077420175076 0.044597111642361 0.035834245383739 0.208220735192299 0.057111997157335 0.066861264407635 -0.013350684195757 -0.056621160358191 -0.022300219163299 -0.011283108964562 0.038845505565405 0.076699256896973 -0.023338051512837 0.078764483332634 -0.027967719361186 0.018626241013408 0.114467650651932 0.091729857027531
0.083096981048584 -0.028253495693207 -0.098326183855534 -0.101611047983170 0.040885977447033 -0.023533562198281 0.069076202809811 0.155449986457825 0.074747294187546 -0.003307455917820 0.020888641476631 0.003185821464285 0.110858805477619 -0.105611257255077 -0.065646298229694 0.066084973514080 0.060796879231930 -0.151807948946953 0.050295162945986 0.026813266798854 -0.017519213259220 0.053777899593115 0.108400508761406 0.031351968646049 -0.009928397834301 0.038715656846762 -0.078999705612659 0.002080136677250 0.031507052481174 -0.023877117782831 0.035323604941368 -0.026890182867646 0.106165595352650 -0.132041111588478 0.002817801432684 -0.008180748671293 -0.123458154499531 -0.110303692519665 0.098629429936409 0.047360349446535 0.261158436536789 0.085941135883331 -0.065960764884949 0.077308475971222 -0.084190458059311 0.009900777600706 0.010289693251252 0.060237877070904 0.044473160058260 0.122888043522835 -0.136978477239609 0.034001950174570 0.038025375455618 0.041106406599283 0.069861218333244 0.026527168229222 -0.043503403663635 -0.062456492334604 0.059632126241922 0.123961262404919 0.050186190754175 0.038371525704861 -0.133822232484818 0.006532029248774
-0.012032832950354 -0.030497977510095 -0.010281275026500 -0.000901961058844 -0.030981121584773 -0.033694636076689 0.062645338475704 0.030607253313065 -0.030779175460339 0.171852350234985 0.108679272234440 0.090106606483459 0.000503496848978 0.141082823276520 0.093891717493534 0.018145069479942 0.053156994283199 -0.181646063923836 -0.036968633532524 0.002824102761224 0.013649024069309 0.021244334056973 0.025493601337075 -0.025216370820999 0.031657945364714 -0.039491187781096 0.003602746175602 -0.065434522926807 0.011103188619018 -0.028838831931353 -0.038950722664595 -0.033079855144024 0.007542392238975 0.087294489145279 -0.100858882069588 -0.021779591217637 0.041742406785488 0.127338871359825 -0.041919618844986 0.046261392533779 -0.165901049971581 -0.018971655517817 0.015425452962518 0.005999195855111 0.099381096661091 -0.026112833991647 -0.015592515468597 0.010391786694527 0.040058534592390 -0.050136972218752 0.144203037023544 -0.050439711660147 0.028751242905855 -0.045420359820127 0.027103815227747 -0.006221209187061 -0.052193410694599 0.132591918110847 -0.016568616032600 0.004551492165774 0.036091849207878 -0.035988360643387 -0.017602041363716 -0.124940313398838
-0.056485708802938 0.021732175722718 -0.081302449107170 -0.024143120273948 0.003167100250721 -0.029222760349512 -0.011068239808083 -0.015481848269701 0.002020974643528 -0.026192354038358 0.030265819281340 -0.023549137637019 0.050409093499184 -0.027726612985134 -0.050718568265438 -0.008793466724455 -0.062499936670065 -0.039662946015596 -0.054833810776472 -0.014597788453102 -0.041288815438747 0.015431087464094 -0.032533068209887 0.002410532906651 0.036592341959476 -0.014698338694870 -0.030508635565639 0.021102163940668 0.016972316429019 -0.020331846550107 -0.076154261827469 0.025966193526983 -0.043691087514162 0.004478851798922 -0.022731667384505 0.029788214713335 -0.070511646568775 0.020156377926469 0.023913061246276 -0.005325146019459 -0.084995932877064 0.055854074656963 -0.046131171286106 0.033437971025705 -0.058854848146439 -0.019667077809572 -0.008807389996946 -0.058986734598875 -0.045262068510056 -0.117112919688225 -0.098542422056198 -0.043172258883715 0.006758908741176 0.027596874162555 -0.025528544560075 -0.035032872110605 -0.058917824178934 -0.091062702238560 0.001288139843382 -0.001207884168252 0.018490891903639 -0.083963163197041 -0.035192262381315 -0.059538286179304
-0.050537824630737 -0.067493207752705 -0.060814887285233 -0.119177237153053 -0.044725582003593 0.029384981840849 0.057252433151007 -0.083020977675915 0.011197128333151 0.017808288335800 0.086089469492435 -0.089161559939384 -0.024313662201166 0.201085343956947 -0.149365484714508 -0.076447926461697 0.059329085052013 0.124301970005035 -0.170443952083588 -0.035055991262197 -0.130469962954521 0.001215023454279 -0.129515454173088 -0.126251965761185 -0.034904152154922 -0.087160520255566 0.105843424797058 -0.191083788871765 -0.014351803809404 -0.098674826323986 -0.104761987924576 0.146199926733971 0.028515739366412 -0.005271331872791 -0.035732503980398 -0.111520275473595 0.211307764053345 0.105672679841518 -0.018188130110502 0.075004495680332 0.319211840629578 0.011417012661695 -0.054044976830482 -0.155774265527725 -0.041906587779522 -0.071669287979603 -0.069025643169880 -0.015865549445152 0.105028703808784 -0.299107372760773 -0.052869044244289 -0.011544330045581 0.063687115907669 -0.030950317159295 0.002310510724783 -0.095020078122616 0.060083478689194 -0.182309404015541 0.095389463007450 0.024159729480743 -0.016100117936730 -0.138919249176979 0.064808525145054 -0.129710510373116
-0.059322740882635 0.038519643247128 -0.001666589290835 -0.045526996254921 0.028063895180821 0.106759689748287 -0.023252084851265 0.041548248380423 0.014828399755061 -0.011672075837851 -0.035472285002470 0.219028323888779 -0.088183581829071 -0.039726104587317 -0.287666916847229 0.028372585773468 0.224688872694969 0.166596040129662 0.058031108230352 -0.057395268231630 0.029665565118194 0.050681859254837 -0.078979440033436 0.018505906686187 0.038154881447554 -0.143652081489563 0.051891148090363 0.018697360530496 -0.074170321226120 -0.021188115701079 -0.034511636942625 0.276240944862366 0.024743294343352 -0.439532816410065 -0.134675800800323 0.015208213590086 -0.195605009794235 -0.029555305838585 0.036130324006081 -0.003531665308401 -0.390096753835678 0.035318702459335 -0.151002004742622 -0.011589902453125 0.056603603065014 -0.122241504490376 0.144680440425873 -0.041994869709015 -0.097315005958080 0.386930167675018 -0.020220313221216 -0.330163806676865 -0.007170943543315 0.030982181429863 -0.037919532507658 -0.039868716150522 0.168888613581657 -0.188623636960983 0.031972426921129 -0.006070801988244 -0.018541855737567 0.092557668685913 -0.034665491431952 0.068302869796753
0.029273625463247 0.249068781733513 -0.161091148853302 0.254102379083633 -0.059315536171198 -0.132918626070023 -0.018476173281670 0.132758587598801 -0.069844059646130 0.128372371196747 -0.037406597286463 0.053670659661293 -0.042296685278416 -0.036132425069809 0.056376814842224 -0.103757895529270 0.040880851447582 -0.107089534401894 -0.013957418501377 0.067493878304958 0.014694804325700 0.042138535529375 0.048203915357590 -0.062035448849201 0.115328997373581 0.152073457837105 -0.049335550516844 0.017881130799651 -0.122449785470963 -0.099274702370167 0.007156393490732 0.079198598861694 -0.045957475900650 -0.024484161287546 -0.067936658859253 -0.145984649658203 0.309966593980789 -0.093428470194340 -0.008660076186061 -0.003655615262687 -0.034011147916317 0.001393685699441 0.783254742622375 -0.077209740877151 -0.075798295438290 0.355477660894394 -0.122592709958553 -0.011894294992089 -0.087090589106083 0.040512099862099 -0.017490755766630 0.097433231770992 0.082393139600754 -0.044504642486572 -0.055896420031786 -0.081595458090305 0.009868714958429 0.128151163458824 0.077132336795330 0.072380073368549 -0.078690670430660 0.113949328660965 0.327634334564209 -0.036868847906590
0.028028272092342 -0.073598623275757 0.090731829404831 -0.095398493111134 -0.019233198836446 -0.155431583523750 0.008322762325406 -0.071452960371971 0.008756205439568 -0.129977449774742 0.008954722434282 -0.119012996554375 0.005660075228661 0.294490784406662 -0.174529537558556 -0.009059043601155 -0.018267210572958 0.053832348436117 -0.057422317564487 -0.011225215159357 0.097779445350170 -0.119778908789158 -0.018601808696985 -0.109923951327801 -0.051342774182558 -0.064878851175308 0.142072185873985 -0.041338458657265 -0.049552790820599 -0.162898063659668 0.026860173791647 0.459153622388840 -0.005533067043871 -0.118759498000145 0.233920902013779 -0.166493788361549 -0.004693758673966 -0.048554498702288 -0.057345062494278 0.003918093163520 0.077477864921093 -0.040430340915918 -0.068542107939720 -0.083412960171700 0.129147350788116 -0.079656563699245 -0.133626297116280 -0.027461834251881 -0.027467671781778 -0.012305800803006 0.006958179175854 0.005003802012652 -0.012287876568735 -0.066278047859669 -0.055598735809326 -0.089505746960640 0.246461734175682 -0.101496405899525 0.032783735543489 0.018720703199506 -0.102153733372688 -0.099397756159306 -0.093121521174908 -0.116863474249840
-0.054517045617104 -0.041231516748667 -0.074724636971951 -0.031807605177164 -0.043930739164352 -0.179085075855255 -0.052987325936556 0.049445383250713 -0.035542272031307 0.090042389929295 -0.032017882913351 -0.113554164767265 -0.051558829843998 0.112804643809795 0.006485814228654 -0.013607142493129 -0.109358839690685 -0.084020011126995 -0.093131728470325 -0.072947427630424 0.143498465418816 -0.093310780823231 0.083687797188759 -0.041268598288298 -0.001347401062958 -0.050648786127567 0.031990785151720 -0.054285116493702 0.007639984600246 -0.151856258511543 -0.049954317510128 0.040248490869999 0.088277682662010 -0.027383986860514 0.066328942775726 -0.078080937266350 -0.042226571589708 0.011933190748096 -0.047411248087883 -0.040612824261189 0.078618176281452 -0.017943955957890 -0.084475882351398 -0.019604716449976 0.049090672284365 -0.007729053962976 -0.057885546237230 -0.009387116879225 0.173196718096733 -0.076846182346344 -0.074019707739353 0.021812889724970 -0.037790790200233 -0.084025084972382 -0.027784813195467 -0.064351789653301 -0.164063081145287 0.054793111979961 0.019507609307766 0.057327184826136 -0.035446431487799 -0.049101635813713 -0.000404034275562 -0.057659588754177
0.067434586584568 -0.004927050787956 0.108795583248138 -0.010328925214708 0.017529992386699 0.091363072395325 0.026916613802314 -0.013872798532248 0.021687248721719 0.048655118793249 0.044093053787947 -0.017944516614079 -0.013601982966065 0.081711746752262 0.068232350051403 -0.047924242913723 -0.065349310636520 0.023281011730433 0.037390675395727 -0.047492243349552 0.041636627167463 -0.054314248263836 0.064799658954144 -0.052185077220201 -0.031676340848207 0.086913578212261 0.003096706233919 -0.062840379774570 -0.016339099034667 0.037037637084723 0.039572007954121 0.050280507653952 0.022050080820918 0.001310786115937 0.135476216673851 0.020506460219622 0.015788313001394 0.048395402729511 -0.032871864736080 -0.002480287803337 0.106093935668468 -0.030732871964574 0.044776003807783 -0.051221139729023 0.027376409620047 0.012088036164641 -0.031249307096004 0.053155217319727 0.061135303229094 0.019564552232623 0.039942070841789 0.109693810343742 -0.018435426056385 -0.045399483293295 -0.020482348278165 -0.004175982903689 0.071556150913239 0.035889685153961 0.052485775202513 0.024354703724384 -0.035152964293957 0.003717693733051 0.001671052537858 0.030952446162701
0.032128587365150 0.017686856910586 0.156848251819611 -0.007684118114412 0.040512796491385 0.053603373467922 0.041937626898289 0.086694017052650 0.021307388320565 0.076311416924000 0.016204340383410 -0.050535485148430 -0.011063306592405 0.134383201599121 0.055498916655779 -0.026886252686381 -0.115000851452351 0.012650286778808 -0.001941566471942 0.010649296455085 0.112406663596630 -0.053523298352957 0.064749792218208 0.001437082770281 -0.006478899624199 0.052767064422369 0.024079052731395 -0.036126263439655 0.025483323261142 0.076256461441517 -0.012360151857138 0.044573146849871 -0.030759856104851 -0.027896152809262 0.150059342384338 0.021820396184921 -0.007704728748649 -0.009851698763669 -0.015547460876405 0.015788178890944 0.034126821905375 -0.004887194838375 0.010743048042059 -0.003628451377153 0.087424837052822 -0.036017645150423 -0.023778395727277 0.044144537299871 0.014703009277582 0.094017289578915 0.085697062313557 0.076761834323406 0.022854214534163 -0.016162775456905 0.024784632027149 -0.047205287963152 0.131065875291824 0.001746830763295 0.078560359776020 0.077944234013557 0.001748841488734 0.013035196810961 -0.007768540177494 -0.027868814766407
-0.017751181498170 0.014771665446460 -0.101939149200916 -0.001951986341737 0.021467398852110 -0.100215762853622 -0.004347514826804 -0.006578369066119 -0.022545777261257 -0.038353331387043 -0.039731755852699 -0.040892582386732 0.050657253712416 -0.055862005800009 -0.065208725631237 0.049490675330162 -0.010084556415677 -0.068203829228878 -0.074113667011261 -0.001057642744854 -0.049570254981518 0.025926105678082 -0.003133037593216 0.056747600436211 0.010879560373724 -0.029708331450820 -0.031137349084020 0.025678353384137 0.034498896449804 -0.059071507304907 -0.005991718266159 -0.000787571887486 -0.038436219096184 -0.069404065608978 -0.035325430333614 -0.007777625229210 0.043436326086521 -0.083905138075352 0.030739475041628 0.021824052557349 -0.026336763054132 0.027897445484996 0.005241886246949 0.061773877590895 -0.063149064779282 0.092970676720142 0.035159476101398 -0.025845324620605 -0.090522900223732 -0.055021010339260 -0.120234005153179 -0.034732736647129 0.024031346663833 0.038576375693083 0.033545792102814 -0.027179267257452 -0.033667758107185 -0.071855746209621 0.010679086670280 0.007433169055730 0.056314013898373 -0.037164907902479 -0.000913094496354 -0.065570391714573
-0.007683762814850 0.029726088047028 -0.070218332111835 -0.015156298875809 -0.044055208563805 0.016873264685273 -0.052863046526909 0.079061016440392 0.017609534785151 -0.029209924861789 -0.031383525580168 0.020031960681081 0.008822684176266 0.023185446858406 0.076738849282265 -0.035105664283037 -0.011621314100921 -0.092193551361561 -0.026352711021900 -0.001871616696008 -0.010794566944242 0.064227715134621 -0.062136031687260 -0.060523584485054 -0.023809138685465 -0.035423520952463 -0.074745096266270 -0.050918884575367 0.017676915973425 0.037295233458281 -0.036762773990631 -0.072641365230083 0.109665535390377 0.022201923653483 0.002703042933717 0.000907113426365 -0.072238408029079 -0.136056065559387 0.053357262164354 -0.016860153526068 0.445784151554108 0.025345072150230 -0.015867495909333 0.026682287454605 0.058990821242332 0.058346364647150 -0.159597173333168 -0.046291079372168 0.135392844676971 -0.439378350973129 -0.072087034583092 -0.042260389775038 -0.007310696411878 -0.036646172404289 0.031647644937038 -0.032560940831900 -0.044001806527376 -0.136304095387459 0.150872811675072 -0.047064553946257 0.020406736060977 -0.015083459205925 -0.136094734072685 -0.030110059306026
0.047541812062263 0.052417643368244 0.027516249567270 -0.001662006601691 0.097648844122887 0.003841449506581 0.145585581660271 -0.005702273454517 0.089715987443924 0.090758681297302 0.102904669940472 0.082682050764561 0.075239181518555 -0.040836744010448 -0.010989201255143 0.070446521043777 0.041701778769493 -0.151419371366501 0.033757355064154 0.029978945851326 0.028140984475613 0.041041724383831 0.043468464165926 0.079222843050957 0.017435483634472 0.107759058475494 0.018130751326680 0.019029043614864 0.059166468679905 -0.028328906744719 0.010998768731952 -0.058595698326826 0.010386004112661 0.192119777202606 0.071908786892891 -0.017550690099597 0.028128992766142 0.089159496128559 0.094202093780041 0.082311034202576 -0.002395102987066 0.061457101255655 0.317596197128296 0.074771106243134 0.078211762011051 0.095547318458557 0.001770224189386 0.034443538635969 -0.012738475576043 -0.045152965933084 0.066890962421894 -0.037391088902950 0.120186612010002 0.045194935053587 0.072576828300953 0.038292847573757 0.027207469567657 0.001039042486809 0.055725160986185 0.025940649211407 0.141712933778763 0.045956242829561 0.053201254457235 0.005447575822473
-0.019888184964657 -0.112333871424198 0.071985602378845 -0.014376024715602 -0.012018047273159 0.404236316680908 -0.110239334404469 0.023021064698696 -0.051121573895216 -0.034734755754471 -0.159688174724579 -0.025302287191153 -0.046302672475576 -0.074130490422249 0.110537603497505 -0.018048780038953 -0.008129486814141 0.425706386566162 -0.343847274780273 -0.045882996171713 0.128435447812080 0.129532977938652 0.002107305452228 -0.157429233193398 -0.073257394134998 0.111532725393772 -0.006478713825345 -0.188967704772949 0.034340955317020 -0.100383237004280 -0.202635526657104 0.054080165922642 0.033352605998516 0.234493821859360 -0.153074175119400 -0.239143863320351 0.274926781654358 0.063542604446411 -0.014253995381296 -0.080523103475571 -0.209072262048721 -0.129755228757858 -0.136379614472389 -0.163707613945007 0.040919203311205 -0.052773054689169 -0.233449384570122 0.020268587395549 0.276846557855606 0.118355683982372 -0.103589043021202 0.098979406058788 -0.039299156516790 -0.076473645865917 -0.110062070190907 -0.203759148716927 -0.123971894383430 -0.076785922050476 -0.045628931373358 -0.035757966339588 -0.101621478796005 -0.251818656921387 0.220693290233612 -0.322637230157852
0.016148250550032 -0.011568469926715 -0.106178291141987 0.049908876419067 0.019212221726775 -0.048941686749458 0.017928654327989 0.024041080847383 0.019043302163482 -0.023395294323564 -0.019554071128368 -0.023337693884969 0.038005620241165 -0.069191820919514 -0.036408051848412 0.049219422042370 0.011399286799133 0.018794424831867 -0.039797965437174 0.001347027835436 -0.037209231406450 0.019533678889275 0.062879003584385 0.038121894001961 -0.035389568656683 -0.002718783216551 -0.071076922118664 0.033973794430494 0.030428087338805 -0.049741618335247 -0.009722684510052 -0.071264497935772 -0.007145496550947 -0.045432113111019 -0.065317519009113 -0.032113254070282 0.058364886790514 -0.035624403506517 0.043893605470657 0.004691075067967 0.040305122733116 0.071650169789791 0.031703114509583 0.023559955880046 -0.079859472811222 0.069918729364872 0.071926683187485 0.002585747512057 0.036114253103733 -0.022675197571516 -0.037838980555534 -0.011807771399617 0.009715443477035 0.062854044139385 0.052997861057520 -0.044994447380304 -0.036071103066206 -0.062543272972107 0.102103114128113 0.005480671301484 0.055271770805120 -0.005473344586790 0.019547214731574 -0.042981468141079
0.029822621494532 0.022960599511862 0.123994573950768 -0.025213552638888 0.053597059100866 0.163825258612633 0.021210957318544 0.040692768990993 0.029367445036769 0.008147121407092 0.020857732743025 0.041499305516481 0.013208965770900 0.029883340001106 0.163330703973770 0.013343783095479 0.087638758122921 -0.059681504964828 0.121547542512417 0.032152719795704 0.130763769149780 0.023902015760541 0.035908605903387 0.023579176515341 0.029027989134192 0.044908430427313 0.043807197362185 0.047269772738218 0.022855577990413 0.190449148416519 0.036673653870821 0.036074899137020 0.120151706039906 -0.011132512241602 0.066480524837971 0.080916948616505 -0.078496277332306 -0.023151885718107 0.013649366796017 -0.012954425066710 -0.157327711582184 0.025896137580276 -0.078301742672920 0.001233370741829 0.053389113396406 -0.039160627871752 -0.017729854211211 0.004384101368487 0.131260558962822 0.022686393931508 0.108957454562187 0.062481287866831 0.000388718122849 -0.005826479755342 0.023778371512890 0.047993268817663 0.174531430006027 -0.018199348822236 -0.000220623784116 -0.037738364189863 0.005484950263053 0.061492938548326 -0.116150118410587 0.098329268395901
-0.090050920844078 0.016938986256719 -0.199622616171837 -0.068746350705624 -0.030767956748605 -0.067168101668358 -0.009488263167441 0.016291223466396 -0.030436201021075 -0.096453659236431 0.003920999355614 0.050517648458481 -0.011510230600834 -0.048603773117065 -0.025652635842562 -0.020634546875954 0.009763378649950 0.120142787694931 -0.113018289208412 -0.037177838385105 -0.008857748471200 -0.010077363811433 -0.051441174000502 0.012044029310346 -0.031599637120962 -0.116412490606308 -0.054225545376539 0.031110307201743 -0.016779636964202 -0.088050141930580 -0.047763980925083 -0.055082749575377 -0.016737200319767 -0.068296276032925 -0.080147825181484 -0.071343488991261 0.028084730729461 -0.023089641705155 -0.012597143650055 0.006168922875077 0.070714995265007 -0.011342179030180 0.131322607398033 0.034117311239243 -0.027640331536531 0.079473398625851 -0.030911851674318 -0.038930218666792 -0.078970260918140 -0.250192731618881 -0.125492990016937 -0.044015996158123 0.007576591800898 0.003088326891884 -0.006484726909548 -0.063555955886841 -0.140274882316589 -0.048301767557859 -0.016709517687559 -0.056018415838480 -0.022725241258740 -0.063101112842560 -0.003411496290937 -0.094627484679222
-0.111486986279488 -0.034343730658293 -0.077954888343811 -0.014190725050867 -0.081631071865559 -0.015051949769258 -0.068266890943050 -0.126243352890015 -0.012251004576683 -0.052445814013481 -0.020383005961776 0.150726541876793 -0.112094864249229 -0.060335006564856 0.006949314381927 -0.045818798243999 0.009193962439895 0.055022779852152 0.030633110553026 -0.043742012232542 -0.105219930410385 0.056218083947897 -0.105636946856976 -0.066991358995438 -0.039769757539034 -0.114046640694141 -0.005622056778520 -0.088342197239399 -0.087129265069962 -0.063957393169403 -0.103863760828972 0.055504210293293 -0.072796918451786 0.106405965983868 -0.032548118382692 0.017441894859076 -0.007878018543124 -0.054864481091499 -0.116904243826866 -0.034790217876434 -0.294210523366928 -0.092896476387978 0.033400364220142 -0.064485244452953 -0.081406794488430 -0.006755207199603 0.004402047488838 -0.061941429972649 0.042430587112904 0.112329505383968 -0.082048229873180 -0.027556063607335 -0.058554772287607 -0.062285095453262 -0.088613227009773 0.056354682892561 -0.024511642754078 -0.046215984970331 -0.035607092082500 0.016004787757993 -0.104150898754597 -0.000247902091360 0.124411135911942 -0.027343755587935
-0.006075263023376 -0.049758203327656 -0.081984035670757 -0.084277950227261 -0.024653924629092 0.226704239845276 -0.015507529489696 -0.019033920019865 0.007831727154553 -0.091552264988422 0.008840482681990 -0.057704579085112 0.030298182740808 -0.069423571228981 0.182106584310532 -0.018401021137834 0.007615927141160 0.142387494444847 -0.103647746145725 -0.021753698587418 -0.038669999688864 0.041145827621222 -0.017388710752130 -0.054816339164972 -0.042240805923939 0.044145967811346 -0.050626084208488 0.000013188389858 -0.051969259977341 0.145009398460388 -0.093323327600956 -0.001148563344032 0.062662191689014 0.150646582245827 0.015364186838269 0.104501627385616 -0.107135720551014 -0.055066067725420 -0.025057110935450 -0.050019856542349 -0.123375020921230 -0.031473036855459 -0.204726830124855 -0.006828950718045 -0.122888907790184 -0.059937655925751 -0.064371407032013 -0.009548471309245 -0.020432731136680 0.098853781819344 -0.133095487952232 0.070737987756729 -0.050435382872820 -0.014241207391024 -0.029715416952968 -0.018303010612726 -0.139395505189896 0.107893362641335 -0.026334771886468 -0.022732444107533 -0.062118016183376 -0.110864982008934 -0.115277133882046 -0.005252333823591
0.118878468871117 0.022517442703247 0.083391413092613 0.012584269978106 0.008134962059557 0.025986453518271 -0.013438236899674 -0.072698615491390 0.111979685723782 -0.029844788834453 -0.009429037570953 -0.194647595286369 -0.084072567522526 0.005086378660053 0.055392675101757 -0.075851030647755 -0.099062845110893 0.003555769100785 0.121622242033482 -0.091814294457436 -0.001199881429784 -0.090060584247112 0.045000325888395 -0.063650831580162 -0.050357773900032 0.135450229048729 -0.036728169769049 -0.054542489349842 -0.073759563267231 -0.000276588893030 0.113202594220638 -0.010306107811630 0.059024907648563 0.100156061351299 0.062394272536039 -0.015117994509637 -0.020371977239847 -0.031740743666887 -0.048760052770376 -0.037824045866728 0.043151602149010 -0.027835298329592 0.003875626251101 -0.066723801195621 0.045791752636433 0.022418672218919 0.022135572507977 0.143344476819038 0.021518791094422 -0.150275722146034 0.012323559261858 0.057716973125935 -0.079969719052315 -0.012877465225756 -0.015768481418490 0.051915924996138 -0.019738230854273 0.122954241931438 -0.008911668322980 -0.026963042095304 -0.069756403565407 0.081315718591213 -0.026278592646122 0.056617207825184
-0.003409138415009 -0.024567032232881 -0.112008020281792 -0.088120259344578 0.013092265464365 -0.140317916870117 -0.007282937876880 -0.040676359087229 -0.040929742157459 -0.016770528629422 -0.027540365234017 0.006693436298519 -0.021176885813475 0.009846729226410 0.003788310801610 0.014164799824357 0.009746172465384 0.014489243738353 -0.065213866531849 -0.043007303029299 -0.044647011905909 -0.016822474077344 -0.003176799975336 0.039029452949762 -0.041729118674994 -0.005751273594797 -0.042132612317801 -0.074592940509319 -0.035002548247576 -0.056229222565889 -0.037091292440891 0.056745838373899 -0.046576943248510 -0.043281391263008 -0.047780685126781 -0.071275360882282 -0.013074349611998 -0.088633812963963 -0.015286224894226 -0.008130297996104 -0.023972764611244 -0.017780853435397 -0.051622912287712 0.047206368297338 -0.056065578013659 -0.032992918044329 -0.014687926508486 0.026414930820465 0.000219557710807 -0.086761876940727 -0.059004642069340 0.048086766153574 -0.017551632598042 0.057381607592106 0.017274832352996 -0.028199724853039 -0.054350350052118 0.007916989736259 0.075806088745594 0.015538856387138 0.006295735016465 -0.022298183292150 -0.058229692280293 -0.035493530333042
-0.045366141945124 -0.011801045387983 -0.118522129952908 -0.010667430236936 0.009188547730446 -0.070790484547615 -0.008961517363787 0.048725958913565 -0.042227327823639 0.013181596063077 -0.008964371867478 -0.030193461105227 0.000883016968146 -0.025646129623055 -0.035610277205706 0.041535329073668 -0.019315330311656 0.008377699181437 -0.038150109350681 -0.008867422118783 -0.020789939910173 0.014030045829713 -0.014691449701786 0.030033968389034 -0.034147161990404 -0.049898464232683 -0.015657495707273 0.002471990417689 0.027019767090678 -0.071998283267021 -0.042520415037870 -0.006374901160598 -0.025011084973812 0.065691366791725 -0.078053042292595 -0.017338274046779 -0.016489146277308 -0.002740752184764 0.002496441127732 0.016801470890641 -0.032063465565443 0.015365093946457 -0.000608853006270 0.021625177934766 -0.015839112922549 0.010101120918989 0.038451757282019 -0.011957476846874 0.057819496840239 0.021035825833678 -0.043343905359507 -0.049142997711897 0.041414249688387 0.069747529923916 0.017687451094389 -0.048734113574028 -0.048569098114967 -0.041879437863827 0.100442484021187 0.015155780129135 0.077267199754715 -0.072085678577423 -0.011188494041562 -0.034760236740112
-0.100111059844494 0.010978921316564 0.048168607056141 -0.065278820693493 -0.048930630087852 0.048969615250826 -0.037010490894318 -0.087130025029182 -0.051530208438635 -0.023123336955905 0.021689379587770 0.061424687504768 -0.106321461498737 0.011501335538924 -0.002826424315572 -0.016401750966907 0.088007941842079 0.090327441692352 0.065745443105698 -0.024335281923413 0.008241615258157 -0.040912102907896 -0.101710259914398 -0.070774205029011 -0.017783736810088 -0.164130479097366 -0.032586682587862 -0.078241683542728 -0.095902360975742 0.074918888509274 -0.046924348920584 0.035581175237894 -0.047772753983736 -0.032864172011614 -0.035757746547461 0.035096753388643 0.090567424893379 0.012101779691875 -0.089983917772770 -0.057820759713650 -0.339815706014633 -0.067595943808556 0.055899381637573 -0.036214645951986 0.005721775814891 -0.005120124202222 -0.113032720983028 -0.137089967727661 -0.027340661734343 0.263395816087723 0.054570969194174 0.012354440987110 0.000583758577704 -0.018217016011477 -0.042651083320379 0.012888882309198 0.054216183722019 0.101419053971767 -0.085955977439880 -0.091897591948509 -0.105459958314896 0.005770200863481 0.188773468136787 -0.026596004143357
-0.004614577628672 0.000323697051499 -0.032571546733379 0.033069722354412 -0.009346298873425 -0.031954843550920 -0.048320680856705 -0.049240678548813 -0.024194518104196 -0.031832106411457 -0.039362277835608 -0.079803362488747 -0.037726398557425 -0.022952171042562 -0.018454255536199 0.019361302256584 -0.066502548754215 -0.043526221066713 0.055291432887316 -0.026629788801074 -0.030294751748443 -0.062072519212961 0.002547361189499 0.027087248861790 0.056134596467018 0.015528164803982 -0.029810417443514 -0.020019210875034 -0.011252854019403 -0.007332708686590 0.078086204826832 0.013458930887282 -0.003804605221376 0.039294511079788 -0.016986805945635 0.002526712836698 -0.060587536543608 -0.078484117984772 0.008384609594941 -0.029027787968516 -0.093923091888428 -0.004272222984582 -0.068653963506222 -0.002841526176780 -0.071251697838306 0.000902685453184 -0.041199117898941 -0.011262202635407 -0.039001703262329 -0.037326049059629 -0.017056664451957 0.037464961409569 -0.045146897435188 0.002936088480055 -0.021457664668560 0.048537660390139 -0.002331540454179 0.013926531188190 0.004865940194577 0.017126765102148 -0.014529192820191 0.012468676082790 -0.022912435233593 0.035035017877817
0.041056081652641 0.028245873749256 -0.136063009500504 0.064520530402660 0.023596277460456 -0.112728632986546 0.056720782071352 0.000707472092472 0.010438155382872 0.022633207961917 -0.002740296069533 -0.043747808784246 0.015998404473066 -0.014982575550675 0.012533051893115 0.029903424903750 0.009517437778413 -0.087805092334747 -0.057166177779436 0.053548097610474 -0.060706216841936 -0.000177492052899 0.000782086397521 0.023868383839726 0.012247420847416 0.011007010005414 0.023818312212825 -0.005821504164487 0.026368672028184 -0.036933414638042 -0.035760622471571 -0.052049946039915 -0.032965503633022 0.003027497092262 -0.046721775084734 -0.094097591936588 0.096593864262104 0.042636074125767 0.016518639400601 0.012050247751176 -0.061427090317011 0.052096441388130 -0.001675198902376 0.017916647717357 -0.087198585271835 0.104767806828022 -0.013288673013449 -0.005312529858202 0.035526994615793 -0.154112651944160 -0.061326716095209 -0.013658580370247 -0.000154370995006 0.026060922071338 0.007900465279818 0.001189424656332 -0.117425449192524 -0.084877446293831 -0.020872047170997 0.018576465547085 0.020860351622105 -0.065887331962585 0.018222840502858 -0.030819352716208
0.040656048804522 -0.043449457734823 -0.049658697098494 -0.045191358774900 -0.020038187503815 0.081363096833229 -0.052348345518112 0.049060732126236 0.035372402518988 0.082973137497902 -0.035927552729845 -0.187610954046249 -0.035239711403847 0.048789359629154 0.037780418992043 0.004209470003843 -0.180798307061195 0.071952447295189 -0.018252318724990 -0.010854524560273 0.044186711311340 -0.063821800053120 0.012925306335092 -0.099400579929352 -0.070586435496807 0.139455556869507 0.037981700152159 -0.063194222748280 0.015959464013577 -0.003208760172129 -0.019713861867785 0.068878121674061 0.050942741334438 0.140453442931175 -0.013591636903584 0.022385075688362 0.001645392389037 -0.072007842361927 -0.093763038516045 -0.035098619759083 0.010133873671293 -0.078647725284100 0.022665396332741 -0.095304138958454 0.080156065523624 -0.029223727062345 -0.074959807097912 0.001230409718119 0.022200057283044 0.025284608826041 0.023024724796414 0.119604699313641 -0.034012325108051 -0.076351664960384 -0.006693564355373 -0.052281435579062 -0.042040467262268 0.118129067122936 0.052930388599634 0.078576534986496 -0.078857146203518 0.004440012387931 -0.066909208893776 -0.000636206066702
-0.043580360710621 -0.079129241406918 -0.030017845332623 0.041799709200859 -0.044432964175940 -0.017609473317862 0.053404789417982 0.045315477997065 -0.045471038669348 0.001308968639933 0.046568810939789 -0.051507662981749 -0.048709653317928 0.040418442338705 0.037711612880230 -0.044203590601683 -0.045517332851887 0.305887877941132 -0.106737487018108 0.067987136542797 0.077963836491108 -0.040569756180048 -0.059136085212231 -0.126276299357414 -0.035492129623890 -0.020780423656106 0.091999366879463 -0.113354057073593 -0.072804473340511 -0.096463367342949 -0.097834952175617 0.196610152721405 -0.168563753366470 -0.325756698846817 -0.074761994183064 -0.190042108297348 0.210288450121880 0.091700635850430 -0.045744687318802 -0.004582147579640 -0.144980683922768 0.006608413066715 0.011677402071655 -0.137160584330559 0.118515573441982 -0.042595434933901 -0.128769382834435 -0.062087655067444 -0.080940194427967 0.091191917657852 0.008467844687402 0.061077538877726 0.029692171141505 -0.019664384424686 -0.071910783648491 -0.206565752625465 -0.020430255681276 -0.083514019846916 0.002482227282599 0.084416195750237 -0.129116371273994 -0.102475158870220 0.204799234867096 -0.114212870597839
0.035043738782406 0.012390771880746 -0.036135882139206 -0.089006423950195 0.074525833129883 -0.059245578944683 0.053631898015738 0.015481533482671 0.025078274309635 0.007985560223460 0.019652057439089 -0.004190058447421 0.112785562872887 -0.044473908841610 0.039424657821655 0.060458693653345 0.004157242365181 -0.164916187524796 0.004380492493510 -0.011824058368802 -0.044431980699301 0.039671763777733 0.040173344314098 0.081399492919445 -0.036489408463240 0.067945584654808 -0.032628551125526 0.012971528805792 0.117446996271610 -0.008948984555900 0.024080470204353 -0.044270522892475 0.039857484400272 -0.019860511645675 0.014551323838532 -0.008075380697846 0.009848778136075 -0.028999296948314 0.095192350447178 0.021534975618124 0.002974255010486 0.068478994071484 0.045980047434568 0.060333218425512 -0.038939692080021 0.080099463462830 0.033565524965525 0.036439999938011 -0.048242595046759 0.088592879474163 -0.021750364452600 0.030672620981932 0.076954834163189 0.065410196781158 0.054733391851187 -0.022455727681518 -0.016153864562511 0.060251846909523 0.082434080541134 0.118015713989735 0.121852345764637 0.001293483423069 0.012675169855356 0.034440133720636
0.011042689904571 -0.043670792132616 -0.095938429236412 -0.066050700843334 -0.021462051197886 -0.019109092652798 -0.016835464164615 0.054752960801125 0.039598871022463 -0.035317305475473 0.037249028682709 0.059027180075645 0.000924774387386 -0.007706311065704 -0.087423712015152 -0.043262951076031 -0.030445942655206 0.182181447744370 -0.084529638290405 -0.011250508949161 -0.025383165106177 0.084620505571365 -0.065626986324787 -0.025930423289537 0.040380850434303 -0.110869444906712 -0.017163988202810 -0.054806474596262 -0.093490682542324 -0.101811654865742 -0.061083059757948 -0.080286249518394 0.004799341782928 0.015252581797540 -0.123641692101955 -0.012968286871910 -0.034984879195690 0.001886012381874 -0.000153187356773 -0.058600090444088 0.220783457159996 -0.006522915326059 -0.080836355686188 0.000571330601815 -0.026670392602682 -0.067116752266884 0.036266967654228 -0.091809980571270 -0.056852988898754 -0.233123764395714 -0.051420915871859 -0.086177490651608 -0.008851007558405 -0.028745908290148 -0.042470850050449 0.000381748541258 -0.123271085321903 0.014214370399714 -0.077085636556149 -0.027821257710457 -0.041257154196501 -0.084184922277927 0.049142476171255 -0.096521750092506
0.027385462075472 0.058945354074240 -0.015195107087493 -0.014735276810825 -0.038032844662666 -0.035219017416239 -0.050910711288452 -0.058960590511560 -0.032093625515699 -0.060345035046339 -0.059435721486807 0.062865920364857 -0.091937080025673 -0.016948170959949 0.008082185871899 -0.054199539124966 0.080646127462387 -0.028708411380649 0.076527282595634 0.006930716335773 -0.044458024203777 0.022370612248778 -0.072806127369404 -0.054100926965475 0.016468621790409 -0.055718600749969 -0.031399924308062 -0.028195193037391 -0.133494794368744 -0.029886256903410 0.028809566050768 -0.024391440674663 -0.094729803502560 0.179417043924332 0.045023478567600 0.049458146095276 -0.032070990651846 -0.041518691927195 -0.095018066465855 -0.061652787029743 -0.259842693805695 -0.068275168538094 0.026287186890841 -0.035409007221460 -0.003658741014078 0.049081433564425 -0.128244772553444 -0.039876587688923 0.030684163793921 0.327600955963135 -0.016838558018208 0.014721754938364 -0.038917757570744 -0.054137539118528 -0.060763426125050 0.056872509419918 -0.018901638686657 0.140058368444443 -0.054549641907215 -0.100475676357746 -0.093853853642941 -0.011034562252462 0.034949701279402 -0.061635989695787
-0.006624811794609 0.014747282490134 -0.133870199322701 0.028954070061445 -0.017796661704779 0.039428219199181 -0.040881380438805 0.057038772851229 -0.033737733960152 -0.074726283550262 -0.074676901102066 -0.035742614418268 -0.024346204474568 -0.131996870040894 -0.046699192374945 0.010481750592589 0.006165136117488 0.034657958894968 -0.002410352695733 0.006029505748302 -0.062254872173071 0.005071788094938 0.002484990516677 -0.032317224889994 -0.009607050567865 -0.007295297924429 -0.026751587167382 -0.014624413102865 -0.022394819185138 -0.006050392054021 0.005176070146263 -0.069179162383080 -0.066310361027718 0.064254432916641 -0.010645985603333 0.013798774220049 -0.042631678283215 -0.048511561006308 -0.013963622972369 -0.029307600110769 -0.041594784706831 -0.014249061234295 -0.078807286918163 -0.030638333410025 -0.077065274119377 -0.004563047550619 0.032471314072609 0.017900856211782 -0.062097426503897 -0.060038138180971 -0.136430799961090 0.069192282855511 -0.009370724670589 0.009242068976164 -0.033394314348698 -0.011588978581131 -0.141094043850899 -0.015651503577828 -0.016430066898465 -0.001436978578568 -0.017820565029979 -0.003993743099272 -0.049469158053398 -0.045827325433493
-0.082751512527466 -0.093119099736214 0.143902063369751 -0.176261410117149 -0.075423277914524 0.156979575753212 -0.030699964612722 -0.205633655190468 0.047167368233204 0.018810467794538 0.002677235053852 -0.114694342017174 -0.061341695487499 0.014110951684415 0.006127090658993 -0.085621595382690 0.073411762714386 0.166182085871696 -0.032789517194033 -0.106298558413982 0.004084850661457 -0.054776467382908 -0.107671722769737 -0.136933505535126 -0.047884698957205 -0.263629674911499 0.059465423226357 -0.158444970846176 -0.079146280884743 -0.044319290667772 -0.060774791985750 -0.143458306789398 0.068568691611290 0.118405282497406 -0.205918252468109 0.018010007217526 0.144209533929825 0.071142531931400 -0.130407974123955 -0.069600239396095 0.231236636638641 -0.016846785321832 0.121022477746010 -0.123992718756199 0.085579305887222 0.054238725453615 -0.153009638190269 -0.128458410501480 0.174611225724220 -0.239646732807159 0.047712925821543 -0.115383669734001 -0.091792762279510 -0.103394240140915 -0.063442431390285 -0.029669944196939 -0.114001624286175 0.107963688671589 -0.125908151268959 -0.117466479539871 -0.104550153017044 -0.012096917256713 0.055778138339520 -0.078420594334602
-0.064791917800903 -0.018505962565541 0.163987532258034 0.036155611276627 -0.068153798580170 0.095377743244171 -0.038751117885113 -0.024475298821926 -0.047529783099890 -0.035205893218517 0.008199995383620 0.298144280910492 0.005564100109041 0.051538892090321 -0.158571526408195 -0.047704435884953 0.048028267920017 0.117483310401440 -0.041225906461477 0.003782260231674 0.059324927628040 0.107889451086521 -0.023565158247948 -0.037337947636843 0.000720802578144 -0.066538631916046 -0.026958659291267 -0.032365076243877 -0.043486587703228 0.039795372635126 -0.083566807210445 0.110205173492432 0.014170907437801 -0.096243731677532 0.200987294316292 0.176451161503792 -0.015040162950754 -0.017987450584769 -0.021174458786845 -0.091266132891178 0.003583995159715 -0.024696713313460 -0.226337581872940 -0.014328301884234 0.030663877725601 -0.010065358132124 0.067364379763603 -0.042322374880314 -0.109696030616760 -0.043211258947849 -0.035211689770222 -0.118390582501888 -0.062580786645412 -0.084397643804550 -0.082691915333271 0.094271354377270 0.096793845295906 -0.029187154024839 0.021888580173254 -0.034350119531155 -0.031093416735530 -0.005601669196039 0.073919504880905 -0.109485320746899
-0.088705353438854 0.079326577484608 -0.018433263525367 0.022739173844457 0.022552920505404 0.027265856042504 -0.001421881956048 -0.073478832840919 0.016083218157291 0.035030972212553 -0.032900605350733 -0.019417557865381 0.011513748206198 -0.113795608282089 -0.004860355053097 -0.015578253194690 0.001252404996194 -0.118924781680107 0.000950385932811 -0.006334040779620 -0.063295640051365 0.040834117680788 -0.012242344208062 0.004207132384181 0.022874545305967 0.059158567339182 0.012423151172698 -0.002827330725268 -0.002924900036305 0.020438814535737 -0.044185422360897 -0.055521789938211 -0.025108361616731 0.433256208896637 0.019688326865435 -0.055253680795431 -0.063054226338863 -0.064647890627384 0.008982000872493 -0.001054766122252 -0.121622391045094 0.034273117780685 0.138290777802467 0.042629498988390 -0.051839102059603 0.022101655602455 0.027791572734714 0.036875713616610 0.062496811151505 0.184510514140129 -0.055380199104548 0.025914968922734 0.032809674739838 0.019212530925870 0.008510006591678 0.043873347342014 -0.068369723856449 0.050989151000977 -0.035669237375259 -0.022011801600456 0.049867238849401 -0.052637882530689 -0.007529137190431 -0.067455098032951
-0.048685356974602 0.027252960950136 -0.087707661092281 -0.073341675102711 -0.053510122001171 0.035888295620680 -0.015963334590197 0.009675327688456 -0.019621338695288 -0.103371344506741 0.021588139235973 0.021115042269230 -0.018520141020417 -0.082750022411346 -0.066431142389774 -0.000881322659552 -0.004360083024949 0.108531348407269 -0.029314795508981 -0.051835924386978 -0.011906644329429 -0.039673600345850 -0.068665578961372 0.013520591892302 -0.047413263469934 -0.039540935307741 -0.072902448475361 0.014427454210818 -0.024947132915258 -0.048070818185806 -0.053104002028704 -0.004698023200035 -0.042800653725863 -0.124537520110607 -0.012752098031342 -0.021565033122897 0.095849499106407 -0.010224547237158 0.011943316087127 0.010734436102211 0.111016698181629 0.024960599839687 0.133298918604851 0.057626940310001 -0.058570623397827 0.098453342914581 -0.029490986838937 -0.011617523618042 0.017822749912739 -0.301214009523392 -0.153102636337280 0.060664579272270 -0.002669885987416 0.041627991944551 0.023122869431973 -0.090451546013355 -0.050128985196352 -0.117035061120987 0.020207140594721 -0.063351735472679 -0.038016010075808 -0.057646766304970 -0.072800464928150 -0.081331104040146
-0.065392181277275 -0.082088962197304 -0.127148896455765 -0.079280756413937 -0.025131504982710 0.017158076167107 -0.057030864059925 -0.026936192065477 -0.040059637278318 -0.052613243460655 -0.024743119254708 0.051386676728725 -0.026681097224355 0.101487740874290 -0.084685012698174 0.007235615979880 0.048635542392731 0.170767843723297 -0.123517043888569 -0.014498892240226 -0.144654482603073 0.077273003757000 -0.052886877208948 -0.012389952316880 -0.123666845262051 0.008894786238670 -0.072682723402977 -0.128077238798141 -0.003654388478026 -0.041621532291174 -0.060390360653400 0.151432827115059 0.011797770857811 -0.077128879725933 -0.006041128188372 -0.029550291597843 -0.000237975807977 -0.038483127951622 0.020482359454036 -0.002174588618800 0.150019079446793 -0.022645207121968 -0.232585772871971 0.023147447034717 -0.060480363667011 -0.135169491171837 -0.031857743859291 -0.029604755342007 -0.047612279653549 -0.245567515492439 -0.025309808552265 0.057802975177765 -0.016404272988439 -0.003327322658151 0.011351614259183 -0.096415601670742 -0.010336306877434 -0.077295146882534 0.114628016948700 -0.065321728587151 0.012265527620912 -0.079458594322205 -0.105609707534313 -0.055334858596325
0.189464956521988 -0.095071837306023 -0.061669584363699 0.020100547000766 -0.029649624601007 -0.176937565207481 -0.061351027339697 -0.050337862223387 0.111356131732464 -0.085253842175007 -0.063464038074017 -0.117372848093510 -0.072592645883560 0.006688862107694 -0.062945999205112 -0.040754772722721 -0.084396705031395 0.022195203229785 0.084092549979687 0.012671958655119 -0.099924281239510 -0.171807914972305 0.157852455973625 -0.109681025147438 -0.037785708904266 0.071426652371883 -0.053159717470407 -0.126998588442802 -0.105976924300194 -0.033135727047920 0.170804426074028 0.005087444558740 -0.075098760426044 0.188499167561531 0.055002141743898 -0.082964830100536 0.096918106079102 -0.102866478264332 -0.135569036006927 -0.096024595201015 -0.371471166610718 -0.100774608552456 0.019252061843872 -0.105432771146297 -0.073748432099819 -0.013731036335230 -0.091554202139378 0.128998592495918 0.074942581355572 -0.060303408652544 -0.034706473350525 0.244587749242783 -0.046086724847555 -0.099411174654961 -0.083080679178238 0.044679217040539 -0.083146549761295 0.185341849923134 -0.019466433674097 0.051518846303225 -0.083556130528450 0.091829314827919 0.081577934324741 0.099262624979019
-0.005747049115598 -0.030925424769521 0.107004545629025 -0.106683239340782 -0.039685513824224 0.072541356086731 -0.014274129644036 -0.134055510163307 0.030477488413453 -0.059539623558521 -0.029772937297821 -0.041770786046982 -0.089226193726063 0.194378703832626 0.082891590893269 -0.029737338423729 -0.001312119187787 0.062571249902248 -0.051770105957985 0.005238261539489 0.106398850679398 -0.044628169387579 -0.051741689443588 -0.041830033063889 -0.024067010730505 -0.012952225282788 0.064026065170765 -0.051968652755022 -0.097974091768265 0.085672982037067 -0.051726032048464 0.223308444023132 0.040674705058336 -0.155473753809929 0.059290651232004 0.024930184707046 0.014777998439968 -0.023317752406001 -0.069684393703938 -0.046251054853201 -0.266108661890030 -0.094847708940506 0.025555253028870 -0.078372031450272 0.090374089777470 -0.049023091793060 -0.099494755268097 -0.040665678679943 0.041039764881134 0.184971332550049 0.136377960443497 0.070194810628891 -0.035440452396870 -0.010570744052529 -0.028812695294619 -0.052396528422832 0.167969241738319 0.034907732158899 -0.075223073363304 -0.047901555895805 -0.087473191320896 -0.033164091408253 -0.061836149543524 -0.026788143441081
-0.065691046416759 -0.008208952844143 -0.078531317412853 -0.069010637700558 -0.069056563079357 -0.001938553759828 -0.033866856247187 -0.097309477627277 0.012785580009222 -0.047868683934212 -0.033438272774220 0.061950430274010 -0.028376288712025 -0.023066356778145 -0.075051158666611 -0.039867993444204 0.028825502842665 -0.001254171365872 0.023118315264583 -0.029034513980150 -0.168502211570740 0.115090556442738 -0.052243694663048 -0.013549983501434 -0.018382117152214 -0.026357492431998 -0.072675757110119 -0.091412469744682 -0.007900563068688 -0.047027103602886 -0.026530560106039 -0.064079195261002 0.028082510456443 0.004813557956368 -0.039694219827652 0.061733674257994 -0.083084687590599 0.001256079063751 -0.035910010337830 -0.034265417605639 0.158243417739868 -0.042327404022217 -0.100555837154388 -0.035840965807438 -0.117704249918461 -0.029181627556682 -0.008346767164767 -0.023733716458082 0.068509094417095 -0.189077839255333 -0.118467122316360 -0.040999542921782 -0.025414995849133 -0.001349744969048 -0.053155623376369 0.008641482330859 -0.058763299137354 -0.160834163427353 -0.002461020136252 -0.072795778512955 0.019373377785087 -0.054134570062160 -0.071475960314274 -0.044550120830536
-0.036373686045408 0.014586171135306 0.054248832166195 -0.060124110430479 -0.072713695466518 -0.017616134136915 0.025029182434082 -0.107615314424038 0.003773705335334 -0.061761643737555 -0.019392836838961 -0.114874355494976 -0.102413147687912 0.112703323364258 0.036130350083113 -0.073142565786839 0.032432064414024 0.036576606333256 0.001497629913501 0.027266452088952 0.067084759473801 -0.024428362026811 -0.071642830967903 -0.084275886416435 0.026564532890916 -0.012598952278495 0.097069993615150 -0.075298137962818 -0.128560692071915 0.009199102409184 -0.014640231616795 0.135843634605408 0.018901126459241 0.075657002627850 0.003865158185363 -0.070415914058685 -0.001019408577122 -0.007733643520623 -0.101982422173023 -0.056154478341341 -0.351794272661209 -0.114876657724380 0.059093181043863 -0.083964206278324 0.102242588996887 0.004929679445922 -0.135860145092010 -0.030566489323974 0.096236839890480 0.280711382627487 0.116113051772118 0.032496619969606 -0.053780917078257 -0.080093018710613 -0.084419585764408 -0.021635126322508 0.103231988847256 0.158849015831947 -0.098789483308792 -0.090744420886040 -0.122894302010536 -0.033636979758739 -0.002533656312153 -0.001676700776443
0.017170485109091 -0.043271228671074 -0.178114980459213 0.014331951737404 -0.006009559147060 -0.104355037212372 -0.044280789792538 -0.053875487297773 -0.054054997861385 -0.088929258286953 -0.087040022015572 -0.041191037744284 -0.021104104816914 -0.033694617450237 0.011980907060206 0.005902923177928 0.043602477759123 0.013234241865575 -0.082657434046268 -0.002224859315902 -0.086302086710930 -0.047518305480480 -0.012651970610023 0.018630288541317 -0.008958909660578 -0.036124948412180 -0.048385690897703 0.018449230119586 -0.022665284574032 -0.107530668377876 -0.047327667474747 0.091157034039497 0.009202327579260 -0.010914953425527 -0.054189059883356 -0.049233976751566 0.087950237095356 -0.154322102665901 -0.026800157502294 -0.029112080112100 -0.017580015584826 -0.008743468672037 0.036942835897207 0.043850041925907 -0.113431409001350 0.023681735619903 0.029701108112931 -0.035968821495771 0.075747393071651 -0.090993091464043 -0.128460153937340 0.013148208148777 -0.022873492911458 0.039803568273783 0.014988766983151 -0.030999075621367 -0.048900417983532 0.135707601904869 0.014053986407816 -0.079358540475368 -0.014142925851047 -0.030965141952038 -0.152538701891899 -0.036709714680910
0.051761180162430 -0.083652883768082 -0.093615673482418 -0.146301925182343 -0.049743875861168 -0.116261921823025 0.052350431680679 -0.095619916915894 -0.012987690046430 -0.079711288213730 0.066301576793194 -0.054108399897814 -0.078309863805771 -0.100534237921238 0.040568668395281 -0.106108866631985 0.029950596392155 0.201266020536423 0.023991160094738 0.031532410532236 0.021883970126510 -0.123744055628777 -0.059467930346727 -0.132712647318840 -0.027103364467621 -0.030851285904646 0.131371855735779 -0.163795515894890 -0.165393516421318 -0.121885791420937 0.043389990925789 0.044053677469492 -0.113147668540478 -0.133283719420433 -0.188579663634300 -0.246097832918167 0.104637280106544 0.031053323298693 -0.099174641072750 -0.027837295085192 -0.430875808000565 0.006891037337482 0.046618845313787 -0.060069039463997 0.176745414733887 0.038124490529299 -0.190397143363953 0.009596882387996 0.007095755543560 0.184400320053101 -0.032869439572096 -0.099827252328396 -0.027696123346686 -0.109363280236721 -0.120970636606216 -0.064290970563889 -0.177871793508530 0.093717083334923 -0.161915495991707 0.023979043588042 -0.152887046337128 -0.040600962936878 0.300592929124832 -0.005672258324921
0.063766710460186 -0.004441260825843 -0.088020496070385 0.025820590555668 -0.017528837546706 -0.035091724246740 0.016111373901367 -0.039478693157434 0.008309731259942 -0.010498006828129 -0.012554392218590 -0.081366755068302 -0.011439454741776 -0.068297907710075 -0.029783461242914 -0.021314518526196 -0.055433552712202 -0.005743052810431 -0.029405310750008 0.011660538613796 -0.019533429294825 -0.041907612234354 -0.030461767688394 -0.017220769077539 0.037133883684874 -0.004629252944142 -0.049419105052948 0.059010546654463 -0.033499076962471 -0.045061469078064 -0.028857445344329 -0.023143835365772 0.002468597376719 0.000846723618452 -0.057508792728186 -0.004874671343714 -0.008814818225801 -0.016896514222026 -0.000379476085072 0.022851459681988 0.049846094101667 0.022067826241255 0.050644934177399 0.021750699728727 -0.032070390880108 0.043286137282848 0.006486079655588 0.064998999238014 0.017947265878320 -0.212253510951996 -0.061648186296225 0.003464278765023 0.014965993352234 0.008216094225645 -0.043944582343102 -0.012720802798867 -0.064616754651070 -0.008231023326516 0.003215698059648 0.007710970472544 -0.066542945802212 0.034618761390448 -0.025527851656079 -0.029629409313202
-0.000579453830142 -0.033157657831907 -0.061207294464111 -0.031534578651190 0.003728266572580 -0.084260135889053 0.006687292829156 -0.032081991434097 0.007618818897754 -0.097488202154636 0.014887878671288 -0.052513163536787 -0.027089988812804 0.066669367253780 -0.048634532839060 0.004733829293400 -0.063271790742874 0.022143645212054 -0.040625788271427 0.017872171476483 -0.089340008795261 -0.013861156068742 -0.011086637154222 -0.011536451056600 -0.019029246643186 0.028288591653109 -0.080392017960548 -0.014004789292812 -0.048870362341404 -0.055676240473986 0.017661215737462 0.081230752170086 0.031346935778856 -0.047815971076488 0.016740638762712 0.010341981425881 -0.069441042840481 -0.048999316990376 -0.000542381894775 -0.040155082941055 0.147074863314629 0.004502524156123 -0.229120776057243 0.021360715851188 -0.108126431703568 -0.131471171975136 -0.003130357712507 0.043707061558962 0.006332222372293 -0.194008350372314 -0.127381801605225 0.061907242983580 0.014038872905076 -0.022925337776542 -0.043331027030945 -0.050689727067947 -0.028259498998523 -0.120610453188419 0.062564544379711 -0.022305784747005 -0.003022128017619 -0.018176503479481 -0.107849292457104 -0.046608071774244
-0.096832014620304 0.036488689482212 -0.039218813180923 -0.055501863360405 -0.061408348381519 -0.051477119326591 -0.096042774617672 -0.089316472411156 -0.068112984299660 -0.053214523941278 -0.126199766993523 -0.008383916690946 -0.150591745972633 0.102387651801109 -0.008782047778368 -0.078581444919109 0.066849179565907 0.109076559543610 0.000944476691075 -0.015170744620264 0.022495174780488 0.021024217829108 -0.112534515559673 -0.063851282000542 0.082810521125793 -0.047333639115095 0.064648643136024 -0.060853488743305 -0.108438871800900 0.002019364619628 -0.077490530908108 0.194439724087715 0.013048731721938 -0.056467164307833 -0.029917161911726 0.049071107059717 -0.039994195103645 -0.091002754867077 -0.089124642312527 -0.081153921782970 -0.434460908174515 -0.107278570532799 0.020957648754120 -0.069072164595127 0.029094289988279 0.011696776375175 -0.113096065819263 -0.069457985460758 -0.050730735063553 0.177170485258102 0.080912873148918 -0.068207636475563 -0.069255188107491 -0.015344779938459 -0.104303985834122 -0.071369759738445 0.087353430688381 0.049861028790474 -0.115888528525829 -0.101667523384094 -0.118204049766064 0.022660620510578 -0.039429329335690 0.104722328484058
0.081144854426384 0.059580828994513 0.188797086477280 -0.016342157498002 0.028721785172820 0.068435579538345 0.050263728946447 0.071994423866272 0.084744408726692 0.043559875339270 0.005744910798967 -0.068763442337513 -0.058000553399324 0.105990163981915 0.128793329000473 -0.037213336676359 -0.078239798545837 -0.025994952768087 0.009529634378850 0.021158739924431 0.129019334912300 -0.039913151413202 0.063206076622009 -0.009753476828337 -0.004967241082340 0.114532969892025 0.042149610817432 -0.042038258165121 -0.019908428192139 0.142033964395523 0.008889480493963 0.029327331110835 0.026927566155791 -0.027124939486384 0.190679579973221 0.019255211576819 -0.010197599418461 0.030970282852650 -0.020205529406667 -0.000230444420595 -0.023907279595733 -0.022844791412354 -0.000853635079693 -0.050744764506817 0.171551078557968 0.012045280076563 -0.063879393041134 0.054659582674503 0.003049399470910 0.100821323692799 0.158754661679268 0.048941243439913 0.025675231590867 -0.064661473035812 0.009212062694132 -0.035739533603191 0.111823715269566 0.046649646013975 -0.047418259084225 0.031337384134531 -0.019257927313447 0.035891093313694 0.057331565767527 -0.009746885858476
0.001168020186014 0.000717772694770 -0.032912191003561 -0.049461357295513 -0.017457501962781 0.076159588992596 -0.036592278629541 0.009496565908194 -0.013869541697204 -0.044901642948389 -0.026658672839403 -0.074196994304657 0.010851899161935 -0.017849296331406 0.095840662717819 0.006580352317542 -0.060054421424866 -0.085072010755539 0.040342502295971 0.029340257868171 -0.030954198911786 -0.001882274053060 -0.024360578507185 0.005586415063590 -0.025920558720827 -0.055082306265831 -0.053200494498014 0.011466204188764 0.023991694673896 0.111551441252232 0.045987378805876 0.008340802974999 0.110437579452991 -0.076652221381664 0.055440578609705 0.075624227523804 -0.119705408811569 -0.065913535654545 0.001281349337660 -0.013730346225202 0.181675046682358 -0.001615922781639 -0.159641057252884 0.045219667255878 -0.044541314244270 -0.053187724202871 0.009151765145361 0.009934293106198 0.078717686235905 -0.195139512419701 -0.081621155142784 0.095456033945084 0.007278060540557 -0.018445165827870 0.020969357341528 0.031275831162930 -0.013362330384552 -0.015100929886103 0.066711612045765 0.001217378070578 0.031092530116439 -0.024868648499250 -0.124629743397236 0.013262184336782
-0.006505253724754 -0.089489787817001 -0.227955058217049 -0.033989898860455 -0.123027719557285 -0.032265108078718 -0.105632118880749 0.090754747390747 -0.010709776543081 0.039554122835398 -0.106696814298630 -0.086715243756771 -0.063293248414993 -0.080120392143726 0.008017584681511 0.000849584757816 0.104506947100163 0.306764870882034 0.005120613146573 -0.098227076232433 -0.026703104376793 -0.028547253459692 0.000918300764170 -0.129640474915504 -0.089277498424053 -0.042621053755283 0.019508218392730 -0.062337987124920 -0.020298389717937 -0.064903162419796 -0.073606431484222 0.020078225061297 0.191198617219925 0.151299774646759 -0.032496772706509 0.019922493025661 0.028804233297706 -0.119778625667095 -0.103366196155548 -0.038768008351326 0.115503236651421 -0.074299409985542 -0.025569647550583 -0.035789117217064 0.058768391609192 -0.115963093936443 -0.077598743140697 0.004288318566978 0.185062527656555 0.038059834390879 -0.118025742471218 0.137577801942825 -0.118399448692799 -0.061848260462284 -0.020257156342268 -0.011492795310915 -0.158554404973984 0.140426978468895 0.099020034074783 -0.024246159940958 -0.097426973283291 -0.064795464277267 -0.102127701044083 -0.041000891476870
0.048929829150438 -0.044001910835505 0.092789866030216 -0.062979571521282 0.059303883463144 0.021019827574492 0.039854884147644 0.041778478771448 0.032257735729218 0.115215651690960 -0.013517287559807 -0.018589524552226 -0.033984590321779 0.150983124971390 0.137720122933388 -0.049091782420874 -0.104298576712608 0.012930876575410 -0.013324698433280 -0.004875205922872 0.035275395959616 -0.067069120705128 0.075098082423210 -0.025002563372254 -0.069470487535000 0.113638289272785 0.014983690343797 -0.089372374117374 0.000080849204096 0.065208964049816 0.004230682738125 0.008433658629656 0.044514656066895 0.012868411839008 0.138956218957901 -0.039889264851809 -0.043789781630039 0.004817526321858 -0.052528284490108 -0.010005570948124 0.068131782114506 0.000355676136678 -0.092644266784191 -0.040891658514738 0.015492681413889 -0.073563411831856 -0.002492581028491 0.025219928473234 0.097002938389778 -0.079575307667255 0.096817597746849 0.059822298586369 -0.020854236558080 -0.029312707483768 0.015528945252299 -0.058685917407274 0.079558238387108 0.028733953833580 0.023723585531116 0.057499051094055 -0.031708586961031 -0.009137393906713 -0.043225314468145 -0.018981844186783
-0.031660553067923 0.032075621187687 0.027784693986177 0.007520185317844 -0.030911244452000 0.060248993337154 -0.032097678631544 -0.058800555765629 0.049757473170757 -0.099100716412067 -0.056821539998055 0.027038892731071 0.024888059124351 -0.013888585381210 0.020673938095570 -0.067552827298641 0.092322908341885 0.053296566009521 0.030663423240185 -0.040648717433214 -0.120816268026829 0.109398491680622 -0.096432730555534 -0.051597561687231 0.015022798441350 -0.064503908157349 -0.105670951306820 -0.082462079823017 -0.062362961471081 0.058700975030661 0.002873787190765 -0.031291652470827 0.076778985559940 0.004847948439419 0.085198760032654 -0.072677813470364 0.105151832103729 -0.045559864491224 -0.000754177337512 -0.016287267208099 0.290951818227768 -0.028968261554837 -0.117529138922691 0.007440202403814 0.009999131783843 0.064441248774529 -0.131212398409843 -0.094932064414024 0.076380893588066 -0.633108377456665 -0.052065804600716 -0.030350156128407 -0.046059988439083 -0.015628052875400 -0.004676177632064 0.022717723622918 0.039856377989054 -0.096629582345486 0.024440988898277 -0.114805839955807 -0.023302875459194 0.059288382530212 -0.101979546248913 -0.034790553152561
-0.025848057121038 0.003223087405786 -0.040815450251102 0.309650689363480 -0.031890682876110 -0.082207404077053 0.011214447207749 0.002612245036289 -0.059578958898783 0.002019120147452 -0.022938022390008 0.017190683633089 -0.145814165472984 -0.074506796896458 -0.045234426856041 -0.005255203228444 0.061276093125343 -0.109783865511417 -0.009711933322251 -0.005471308715641 0.021839423105121 0.061978489160538 -0.011093974113464 0.090974174439907 0.077456548810005 0.000242877096753 0.027990369126201 0.114513464272022 -0.079728119075298 -0.060963701456785 -0.057145263999701 -0.130618244409561 -0.054921276867390 -0.063135720789433 -0.057565551251173 0.080467797815800 -0.049438338726759 0.034595340490341 -0.029213244095445 0.003625355195254 -0.059142272919416 -0.046653155237436 -0.052550621330738 0.054843660444021 0.024508437141776 -0.134952217340469 0.198429018259048 -0.008072434924543 -0.058819796890020 0.200819596648216 0.047221332788467 0.026328796520829 -0.032574191689491 0.047780863940716 -0.002055305987597 0.049062218517065 0.015793990343809 -0.032408941537142 -0.049386996775866 -0.008705445565283 -0.089694112539291 0.036482423543930 0.009349921718240 -0.006961310748011
-0.016055719926953 0.027644479647279 0.155175432562828 0.023845765739679 -0.045429896563292 0.054500158876181 -0.032821226865053 0.056594483554363 -0.065808385610580 0.022474918514490 0.028039341792464 0.406346708536148 0.016159268096089 -0.030640557408333 -0.164665237069130 -0.050201874226332 0.191921457648277 0.194169431924820 -0.064151249825954 0.053949143737555 -0.041925236582756 0.186307683587074 -0.043636485934258 -0.029751183465123 0.077085822820663 -0.168399348855019 -0.001392956823111 -0.044367417693138 -0.024872040376067 0.033158622682095 -0.096207521855831 -0.032883666455746 -0.023786103352904 -0.103990577161312 0.208655193448067 0.192427337169647 -0.037214975804090 0.034520734101534 -0.031042579561472 -0.071829177439213 -0.030892670154572 0.000351842900272 -0.165723800659180 0.035974983125925 -0.053586840629578 -0.037391200661659 0.065943390130997 -0.058866824954748 -0.071947455406189 -0.064963988959789 -0.052825354039669 -0.144878312945366 -0.014748912304640 -0.062366839498281 -0.075071826577187 0.059588443487883 0.124405816197395 -0.053359467536211 -0.023396154865623 -0.017646843567491 -0.031806625425816 -0.076153397560120 0.128901183605194 -0.123101398348808
-0.003613781882450 0.036760602146387 -0.087761938571930 0.017869258299470 0.015973370522261 -0.084999807178974 -0.007083466742188 -0.036482095718384 0.002514324849471 -0.015176312997937 -0.050098404288292 -0.000424751633545 0.011687410064042 -0.077062062919140 -0.030388744547963 -0.039629183709621 0.008147445507348 -0.010230280458927 -0.012593221850693 0.027393206954002 -0.034040335565805 0.001310899737291 -0.025851489976048 0.001953324535862 0.020672043785453 0.034484732896090 -0.052795764058828 0.013620086945593 -0.004853728227317 -0.036496587097645 0.013848117552698 -0.057927593588829 -0.058885503560305 -0.073001831769943 -0.007537774741650 -0.028033167123795 -0.023990340530872 -0.030251858755946 0.002503014402464 -0.018263436853886 -0.114737987518311 0.027382217347622 -0.040308285504580 -0.009729604236782 -0.069108635187149 -0.045917347073555 -0.017635272815824 0.033338103443384 -0.052527420222759 -0.047643970698118 -0.060136511921883 0.017068101093173 0.031454693526030 0.009339471347630 -0.018149694427848 -0.005642431322485 -0.024693692103028 -0.068049587309361 0.015853727236390 -0.003840629011393 0.016246011480689 -0.002989272354171 -0.014756197109818 -0.033339325338602
0.000687668856699 -0.007421351037920 -0.045514103025198 -0.011341303586960 0.016939496621490 -0.058288559317589 0.028651019558311 -0.043469008058310 -0.032775774598122 -0.031635478138924 -0.002559521235526 -0.001546875457279 0.013121698983014 -0.039764009416103 -0.031314712017775 -0.001078040222637 0.002377117518336 -0.045454543083906 -0.063174545764923 0.011820035055280 -0.086323253810406 0.058424055576324 -0.037515882402658 0.062096048146486 0.031702242791653 0.036781005561352 -0.025867698714137 0.043210715055466 -0.006149654276669 -0.054365519434214 -0.046369716525078 -0.012673966586590 -0.002029141876847 -0.044542521238327 -0.025725064799190 0.009232099168003 -0.026206655427814 -0.055753599852324 0.030934710055590 0.027027653530240 -0.076543115079403 0.027650691568851 -0.046180002391338 0.038160040974617 -0.037036661058664 0.006023737601936 0.006739278323948 0.008502339012921 -0.040458429604769 -0.039922013878822 -0.038106165826321 -0.022685935720801 0.010652923025191 0.038057576864958 0.020939458161592 -0.041535686701536 -0.021447446197271 -0.065790899097919 -0.035844936966896 0.008778466843069 0.027291376143694 -0.039253149181604 -0.045675195753574 -0.017606738954782
-0.002580057596788 0.080815888941288 -0.066660545766354 0.042601514607668 -0.012471533380449 -0.072342067956924 -0.052902206778526 0.048183888196945 -0.011098675429821 -0.026712151244283 -0.075079098343849 0.008886364288628 -0.007103342562914 -0.049618013203144 -0.030360372737050 -0.018634449690580 0.007348493207246 -0.127731099724770 0.020852766931057 0.039783913642168 -0.078435614705086 0.021130761131644 -0.026149995625019 -0.016575146466494 0.053981237113476 -0.006013133097440 -0.040283001959324 0.017193103209138 0.004499732516706 -0.025295028463006 -0.021543590351939 -0.079864427447319 -0.059752993285656 0.023258607834578 -0.003276390256360 -0.039401363581419 -0.086994841694832 -0.072392918169498 -0.000092390524514 -0.026507183909416 -0.020950863137841 0.041399639099836 0.068639747798443 0.010169939137995 -0.050013598054647 0.010824979282916 -0.003713956102729 -0.022355178371072 -0.067234650254250 -0.055679965764284 -0.057686548680067 -0.023333599790931 0.002532779937610 0.023400088772178 -0.037801317870617 -0.019918126985431 -0.015057836659253 -0.073499284684658 -0.033994045108557 -0.022300794720650 0.017436422407627 0.012519115582108 -0.013883422128856 -0.037818752229214
0.030669260770082 -0.081887193024158 -0.110006727278233 -0.080009117722511 -0.014227455481887 -0.052206028252840 0.015456503257155 -0.024479422718287 -0.030535206198692 -0.026717506349087 -0.130106225609779 -0.061189163476229 -0.030536651611328 -0.093650698661804 -0.067066021263599 -0.015201101079583 -0.022194365039468 0.047659426927567 -0.012065094895661 0.015976348891854 -0.039380934089422 -0.062896817922592 0.034797761589289 0.039742104709148 -0.030683996155858 -0.004790086299181 -0.014035454951227 0.031245224177837 -0.021207513287663 -0.040103483945131 0.013363130390644 0.006434030830860 -0.014540172182024 0.153231948614120 -0.078768514096737 -0.064986757934093 -0.012488119304180 -0.096752934157848 -0.007755416445434 -0.001194055308588 0.000836638559122 -0.001858480623923 -0.092918917536736 0.040822956711054 -0.052541732788086 -0.027057832106948 0.117885500192642 0.004444395191967 0.029454935342073 0.039696298539639 -0.035036556422710 0.078954055905342 -0.028470600023866 0.070190072059631 -0.000222668168135 0.014194884337485 -0.053314730525017 0.093132548034191 -0.018000036478043 -0.002081965794787 0.019254874438047 0.045961964875460 -0.073675297200680 0.046528305858374
-0.037621971219778 -0.050922833383083 -0.117183327674866 -0.120653524994850 -0.028304588049650 0.025982921943069 -0.041615385562181 -0.001503472565673 0.070708192884922 -0.022574970498681 -0.045666512101889 0.000847924209666 -0.078377380967140 -0.065089322626591 -0.053019963204861 0.042016036808491 -0.018068443983793 0.014096332713962 0.018469881266356 -0.038013078272343 -0.060628637671471 -0.010225914418697 0.070102944970131 -0.019947918131948 -0.049823254346848 0.062730960547924 -0.112888544797897 -0.106963738799095 0.071865148842335 -0.032366883009672 -0.030161170288920 0.188060745596886 0.090228587388992 -0.142347291111946 0.002070854185149 -0.036151379346848 -0.123323448002338 -0.134103983640671 -0.005827483255416 -0.031348891556263 0.101958103477955 -0.037440188229084 -0.146396264433861 -0.052910961210728 -0.137654930353165 -0.098989203572273 0.024166317656636 0.062392413616180 0.029020773246884 0.168035894632339 -0.161721318960190 0.033472150564194 -0.026791702955961 -0.018008530139923 0.003205401357263 0.001346734585240 0.033748224377632 -0.156911745667458 0.281021177768707 0.072396166622639 -0.044872686266899 -0.030494458973408 -0.108098521828651 -0.021352084353566
0.028991634026170 0.025329381227493 -0.044393904507160 0.000307139300276 0.044328495860100 -0.080254204571247 0.051605191081762 -0.030394474044442 0.054280325770378 -0.031586229801178 -0.028805484995246 0.010174047201872 0.038130704313517 -0.011783122085035 0.002433496760204 0.068242572247982 -0.047942716628313 -0.083313696086407 -0.017554922029376 0.046016734093428 -0.055273577570915 0.008437885902822 0.034291334450245 0.057391401380301 -0.023271190002561 0.017521493136883 -0.030166767537594 0.055556818842888 0.035732388496399 -0.018524771556258 0.035106800496578 -0.052910052239895 -0.011166717857122 0.005402955692261 0.033001333475113 -0.036296214908361 -0.011680759489536 -0.031256474554539 0.091536812484264 0.006763650104403 -0.029262470081449 0.030248071998358 -0.019237559288740 0.068042635917664 -0.020705338567495 0.024853570386767 0.033693056553602 0.051353696733713 -0.060302961617708 -0.066734574735165 -0.022628867998719 0.031704749912024 0.053713284432888 0.059613615274429 0.040910452604294 -0.023219777271152 -0.017886625602841 -0.016248201951385 -0.046573404222727 0.019683344289660 0.058842167258263 0.050970748066902 -0.025170987471938 -0.040356505662203
-0.014241921715438 -0.005649382248521 0.004694896750152 0.115474171936512 0.012031571008265 -0.033953305333853 -0.010474342852831 0.073053546249866 -0.081080704927444 0.021684505045414 0.055542409420013 0.082463376224041 0.020942218601704 -0.112415015697479 -0.151012092828751 0.093290515244007 -0.006045600399375 -0.111601874232292 -0.113070376217365 0.037347987294197 0.066668771207333 0.024891478940845 -0.025317255407572 0.025874700397253 0.105320729315281 -0.061688818037510 -0.007312361616641 0.038836944848299 0.094970852136612 -0.082588307559490 -0.105008535087109 -0.166194617748260 -0.133444622159004 -0.259475499391556 -0.058055091649294 0.053698506206274 -0.120589047670364 0.065445944666862 0.034269280731678 0.017837526276708 -0.330755859613419 0.007959705777466 -0.053625330328941 0.007727217394859 0.058187335729599 -0.236538037657738 0.116891510784626 -0.051848705857992 -0.131926164031029 0.454278469085693 0.043888613581657 -0.061551574617624 0.049752734601498 0.049787301570177 0.009111871942878 -0.008409660309553 0.079960271716118 0.098474122583866 -0.007334818132222 0.030129414051771 0.031148482114077 -0.060014218091965 0.093734219670296 -0.052881963551044
0.024946821853518 0.032333645969629 0.263344973325729 -0.037576168775558 0.001445365487598 0.030300879850984 0.022489577531815 -0.005047524347901 0.027571167796850 0.022245835512877 0.040961362421513 -0.010382147505879 -0.022199776023626 0.319891363382339 0.119223609566689 0.013727434910834 -0.028621215373278 -0.051482968032360 0.061806101351976 0.045687653124332 0.218458175659180 -0.051832739263773 0.036053329706192 -0.025605026632547 0.027462681755424 0.027325417846441 0.055126171559095 -0.047045674175024 -0.053403567522764 0.159523963928223 0.055361133068800 0.163072913885117 0.000021541651222 -0.111576609313488 0.185240268707275 -0.011426298879087 -0.030236894264817 0.022025743499398 -0.035249650478363 -0.011148810386658 -0.140384614467621 -0.049953807145357 -0.000474220141768 -0.056367721408606 0.246090069413185 -0.042173154652119 -0.030053425580263 -0.005137970205396 -0.038344129920006 0.080727763473988 0.252897769212723 0.033421352505684 0.009499016217887 -0.047568410634995 -0.017449835315347 0.021675655618310 0.134059533476830 0.058908537030220 0.006754923146218 0.041538376361132 -0.062526106834412 0.057350948452950 0.035340446978807 0.028151219710708
-0.032876592129469 0.117091059684753 -0.140463545918465 0.083790168166161 -0.044702157378197 -0.122932493686676 -0.014070292934775 -0.055367674678564 -0.023509807884693 -0.046140383929014 -0.116297416388988 0.056316230446100 -0.072597496211529 -0.099611401557922 -0.080695025622845 -0.063403010368347 0.067754603922367 0.006075528915972 0.035414729267359 0.052852805703878 -0.060656357556581 0.095397278666496 -0.062200542539358 -0.039739377796650 0.075470164418221 -0.022256774827838 -0.037480764091015 0.067822448909283 -0.060965690761805 -0.068786077201366 -0.038350336253643 -0.030423678457737 0.000312187039526 0.104072496294975 -0.047659918665886 -0.105094127357006 -0.042737796902657 -0.141730189323425 -0.011141140945256 -0.006021491717547 0.016996787860990 -0.046712245792150 0.116505898535252 -0.014975549653172 -0.061084773391485 0.115145154297352 -0.042543269693851 -0.059978824108839 0.100465081632137 -0.066725939512253 -0.066401734948158 0.046247780323029 -0.010249602608383 0.018921641632915 -0.031613394618034 -0.011476148851216 -0.110164590179920 0.012064853683114 -0.016299957409501 -0.022252507507801 -0.063497401773930 -0.045150656253099 0.004792683757842 0.013495514169335
0.015693267807364 -0.016802214086056 0.042806196957827 -0.102793276309967 -0.012239138595760 -0.132668763399124 -0.115293428301811 -0.148048430681229 -0.111997753381729 -0.047803584486246 -0.053402177989483 -0.169111192226410 -0.093063227832317 0.101919904351234 0.016032915562391 -0.058473240584135 -0.117552854120731 -0.065337784588337 0.061511162668467 -0.068149797618389 -0.104470513761044 -0.162980481982231 0.046908605843782 -0.065727420151234 -0.043014444410801 -0.040912121534348 -0.059767100960016 -0.144227370619774 -0.091636858880520 0.025682685896754 0.037158209830523 -0.026840103790164 -0.077864237129688 -0.038978703320026 0.103389889001846 -0.022244205698371 -0.015266392379999 -0.011406711302698 -0.091603010892868 -0.081246182322502 0.069173194468021 -0.094995327293873 -0.016236083582044 -0.070640482008457 -0.127355873584747 0.001309553626925 -0.124312222003937 0.034106649458408 0.026597520336509 -0.078771039843559 0.041369479149580 0.133726358413696 -0.087063580751419 -0.110006712377071 -0.064270436763763 -0.012305571697652 0.022663762792945 0.137622296810150 -0.088099986314774 -0.075066111981869 -0.052887938916683 -0.020056424662471 0.064119473099709 0.085458882153034
-0.089194238185883 -0.104850359261036 0.127303257584572 -0.106377199292183 -0.063003584742546 0.037958644330502 -0.235203802585602 -0.211107656359673 -0.187170341610909 -0.167110919952393 -0.156736597418785 0.033505037426949 -0.137977093458176 0.142563521862030 -0.037873558700085 -0.062411263585091 0.057320468127728 0.060255043208599 -0.067270711064339 -0.106479085981846 -0.110500894486904 -0.000278797524516 -0.073307037353516 -0.114442400634289 -0.052081078290939 -0.207052722573280 -0.070108324289322 -0.162591531872749 -0.136582106351852 -0.079077526926994 -0.037792645394802 0.016563005745411 -0.111242048442364 0.153517916798592 0.091817580163479 0.192715883255005 0.077489368617535 -0.071081109344959 -0.157904431223869 -0.143321216106415 -0.133057624101639 -0.130764037370682 -0.149848654866219 -0.108765095472336 -0.018474366515875 0.002618530066684 -0.227491721510887 -0.091250881552696 0.011444819159806 -0.036512795835733 -0.020499488338828 -0.085142828524113 -0.124685011804104 -0.122724868357182 -0.105538845062256 -0.023401940241456 -0.084888458251953 0.141894742846489 -0.125089660286903 -0.117513746023178 -0.136110499501228 -0.141112148761749 0.081323891878128 -0.080259919166565
0.000665420666337 0.002132932888344 0.237831637263298 -0.060387831181288 0.006336229387671 0.090037822723389 0.013941845856607 -0.059182506054640 0.012413297779858 -0.039444956928492 -0.021536221727729 -0.014030358754098 -0.077344276010990 0.222736522555351 0.105745047330856 -0.017594369128346 -0.014645241200924 -0.103297322988510 0.053523011505604 -0.011941500939429 0.124235346913338 0.035181354731321 0.008632108569145 -0.037918016314507 -0.032581664621830 0.039755284786224 0.027397708967328 -0.020507069304585 -0.037879541516304 0.186864838004112 0.087484873831272 0.106745168566704 -0.021985294297338 -0.039392329752445 0.216180771589279 0.073570400476456 -0.036088865250349 0.007283080369234 -0.062952913343906 -0.014015756547451 0.012336816638708 -0.047005020081997 -0.079376175999641 -0.050006762146950 0.097639046609402 0.012060035951436 -0.098815791308880 0.004953785799444 0.039138384163380 0.108345843851566 0.180886954069138 0.036737155169249 -0.036746706813574 -0.035758819431067 -0.015137705951929 0.038330249488354 0.200603857636452 0.000056306958868 -0.024637294933200 -0.025129482150078 -0.065989702939987 0.082684643566608 0.030125679448247 0.076497130095959
0.038861773908138 0.040308155119419 0.048340912908316 0.061460163444281 -0.042235773056746 0.086149640381336 0.026398319751024 0.121093451976776 -0.083263926208019 -0.104360483586788 0.023454144597054 0.088704399764538 0.020650625228882 -0.013724989257753 -0.127088829874992 0.022051518782973 -0.039530348032713 -0.199682071805000 -0.053955581039190 0.054917559027672 -0.040207128971815 -0.000376874028007 0.035959936678410 0.017219813540578 0.022290110588074 0.033501636236906 0.016082994639874 -0.057127043604851 0.036991979926825 0.116735696792603 -0.003614751854911 0.060726605355740 -0.145268768072128 -0.079605184495449 0.390654355287552 0.165449917316437 -0.148242771625519 -0.042681708931923 0.052584890276194 0.016306376084685 0.002484864555299 0.015148373320699 -0.004371264949441 -0.000050602677220 -0.101476639509201 -0.039996705949306 -0.005212475080043 0.048724070191383 -0.143596187233925 0.026488263159990 -0.037977941334248 0.016995500773191 0.016459003090858 0.022350838407874 0.006892380304635 -0.022117996588349 0.158659622073174 0.035391867160797 -0.012305219657719 0.044748112559319 0.050429478287697 0.017470262944698 -0.102036498486996 -0.032141573727131
-0.066877655684948 -0.044522698968649 -0.055241812020540 -0.007250571157783 -0.063138179481030 0.038976874202490 -0.014985628426075 -0.027250170707703 0.044330682605505 -0.077331408858299 0.002927533816546 0.096418350934982 -0.032616972923279 -0.077393196523190 -0.133734568953514 -0.043634049594402 0.075159050524235 0.153093874454498 -0.002823207993060 -0.037708334624767 0.009234738536179 0.109458819031715 -0.076358750462532 -0.043951086699963 0.084601975977421 -0.083580799400806 -0.046209532767534 -0.074790909886360 -0.076874114573002 -0.099263727664948 -0.087062589824200 -0.141468703746796 0.017833787947893 -0.008378578349948 -0.126576229929924 0.049190565943718 -0.066576786339283 -0.045229364186525 -0.034374166280031 -0.024630673229694 0.161694064736366 -0.016696495935321 -0.046400081366301 -0.059223409742117 0.011745193041861 -0.072321474552155 0.013313845731318 -0.068219795823097 -0.119186490774155 -0.157872423529625 -0.088076233863831 -0.169811174273491 0.004056654404849 -0.017181443050504 -0.064791887998581 0.037481974810362 -0.067534483969212 -0.107550226151943 -0.052013825625181 -0.040172390639782 -0.033170390874147 -0.033275384455919 -0.049044426530600 -0.060115516185760
0.033583343029022 0.039704822003841 -0.115268640220165 -0.121720395982265 -0.009439277462661 0.004710530862212 0.054356887936592 0.099632315337658 0.067899242043495 0.033603671938181 -0.012566671706736 -0.077065750956535 0.035576969385147 -0.120575562119484 -0.039832025766373 0.008808019571006 -0.006397753953934 -0.141745552420616 0.053437277674675 0.052815359085798 0.012734062969685 0.019750876352191 0.095007084310055 0.009302160702646 0.015253983438015 0.068114437162876 -0.042378719896078 -0.002827345393598 0.074913144111633 0.015983499586582 0.075533606112003 -0.027437796816230 0.066916458308697 0.064230732619762 -0.024335226044059 -0.057946514338255 -0.108181118965149 -0.116995729506016 0.046419106423855 0.022520983591676 0.275138974189758 0.033651705831289 -0.085369206964970 0.061963103711605 -0.040141034871340 -0.004407355561852 -0.051193874329329 0.007629296742380 0.076942577958107 0.071777224540710 -0.132229119539261 0.082252457737923 0.053323987871408 0.037423260509968 0.025782797485590 -0.060385398566723 -0.109910890460014 -0.071255348622799 0.119970940053463 0.104158543050289 0.049721427261829 0.039654795080423 -0.079873047769070 0.020991142839193
-0.070901155471802 -0.050788808614016 -0.068251773715019 0.001796930329874 -0.053630501031876 -0.098450608551502 -0.007798993494362 -0.024904800578952 -0.031350795179605 -0.039414737373590 0.059337653219700 -0.032026208937168 -0.007527707144618 0.074455060064793 -0.118609495460987 0.022748369723558 0.085182622075081 0.089580059051514 -0.007310194894671 -0.019199797883630 -0.056239232420921 -0.081128478050232 -0.064045347273350 -0.033876542001963 0.026608781889081 -0.101657129824162 0.012175812385976 -0.075669795274734 -0.043064121156931 -0.139884918928146 0.008307060226798 0.209161698818207 0.005752565339208 -0.193538278341293 0.036847222596407 -0.140044853091240 0.086091056466103 0.049539327621460 -0.054002281278372 0.020978499203920 0.107625588774681 0.015963125973940 0.069646701216698 -0.070795655250549 -0.067209370434284 0.089866578578949 -0.074942938983440 -0.080968730151653 0.079213678836823 0.000672845053487 -0.048484973609447 0.003040580777451 -0.012774199247360 -0.009979440830648 -0.036443486809731 -0.079466767609119 0.232748687267303 -0.092405892908573 0.051532760262489 -0.022890916094184 -0.067925512790680 0.013382202014327 0.018070252612233 -0.039419505745173
-0.048002172261477 -0.038009669631720 -0.052319966256618 -0.036231476813555 0.008413855917752 -0.033740475773811 -0.012446639128029 0.078216098248959 -0.018044261261821 -0.020543508231640 0.016922086477280 -0.013086880557239 -0.021051310002804 -0.047195166349411 0.012623708695173 0.059096656739712 0.011568927206099 -0.086374506354332 0.054165329784155 0.004493521992117 -0.026431115344167 0.006082929205149 0.001834837254137 0.061514262109995 -0.058812689036131 -0.061069503426552 -0.008817543275654 -0.019613718613982 0.010118615813553 0.025359194725752 -0.023295616731048 -0.093250431120396 -0.044256798923016 -0.018217569217086 -0.017489528283477 0.027154332026839 -0.049684669822454 0.004507634323090 0.003144012065604 0.016450366005301 -0.120947554707527 -0.059977650642395 -0.006992925889790 -0.009423450566828 -0.052051011472940 -0.057714059948921 -0.054923959076405 -0.051985919475555 -0.025890856981277 0.097846835851669 -0.025650313124061 0.022382685914636 0.029217850416899 0.037643130868673 0.059454046189785 -0.000304951827275 -0.040900319814682 0.004066584631801 -0.020870288833976 0.015955952927470 0.068537779152393 0.018607642501593 -0.007416667882353 0.051635712385178
-0.018789751455188 -0.058699935674667 0.088565148413181 -0.106635034084320 -0.026428250595927 -0.018834007903934 -0.065915688872337 -0.143133878707886 0.026923855766654 -0.131034985184669 -0.072797968983650 -0.019795784726739 -0.095029473304749 0.263667494058609 -0.005262467078865 -0.048874873667955 0.098145157098770 -0.005024254787713 0.037918929010630 -0.061425842344761 0.046646896749735 -0.045098841190338 -0.044742293655872 -0.115536384284496 -0.065091893076897 -0.043536510318518 0.061961732804775 -0.126746490597725 -0.101999975740910 0.010650144889951 0.000315357145155 0.279289275407791 0.051390852779150 0.001827333122492 0.087136119604111 -0.008204453624785 -0.014737294055521 -0.094740368425846 -0.108492098748684 -0.095534928143024 -0.040970038622618 -0.113180391490459 -0.011900207959116 -0.123685345053673 0.018067061901093 -0.033815767616034 -0.140623018145561 -0.054791215807199 0.080583117902279 0.099495232105255 0.074375338852406 0.001038878224790 -0.100006006658077 -0.120286136865616 -0.097407616674900 -0.036005228757858 0.173895090818405 0.033128142356873 -0.004645701032132 -0.071261249482632 -0.129395619034767 0.004575706552714 -0.075912430882454 -0.035038962960243
