-0.000000012002013
-0.000000023673707
-0.000000007835061
0.000000006654506
-0.000000015288926
0.000000018389958
0.000000021884180
0.000000005528821
0.000000005415756
-0.000000011046788
-0.000000004035102
-0.000000019277904
-0.000000002166052
-0.000000001513190
-0.000000026284708
-0.000000035678102
-0.000000013704630
0.000000004006279
0.000000013025764
-0.000000004825264
-0.000000023715824
-0.000000022023206
0.000000008026799
-0.000000001918629
-0.000000031143237
-0.000000004681902
0.000000004101706
-0.000000028099640
0.000000010318604
0.000000018773234
0.000000022488932
0.000000028165861
0.000000025674282
0.000000031240742
-0.000000006031451
-0.000000006363471
0.000000011563711
0.000000008921964
0.000000017448915
0.000000013967679
0.000000025050825
-0.000000000194087
-0.000000010411011
0.000000017226265
-0.000000030256491
-0.000000011484673
0.000000015082163
-0.000000002791439
0.000000026015835
0.000000001668113
0.000000016440874
0.000000065243071
0.000000008890100
0.000000008671432
0.000000002590110
-0.000000013319227
0.000000045712817
-0.000000001351385
0.000000055967739
-0.000000015415148
-0.000000035897891
-0.000000012186870
0.000000008446553
-0.000000023699046
0.000000008359644
0.000000025895165
-0.000000014860495
-0.000000014415312
0.000000012920294
0.000000021447191
-0.000000040676806
-0.000000011724781
0.000000017035385
-0.000000069071859
0.000000003394810
0.000000002037679
-0.000000008549661
-0.000000049586845
-0.000000003114848
0.000000001964339
0.000000029668186
0.000000013993360
-0.000000016340552
0.000000029107774
0.000000000912495
-0.000000041470024
0.000000009860271
-0.000000008235176
0.000000012665041
-0.000000014698167
0.000000030616057
-0.000000007204737
0.000000000058690
-0.000000031565918
0.000000052246996
-0.000000012579590
-0.000000002172657
0.000000020659554
-0.000000018247372
0.000000029794551
-0.000000010371661
-0.000000003791318
-0.000000024424093
-0.000000014044296
-0.000000001756957
0.000000019010512
-0.000000032178171
0.000000039064982
0.000000025815542
-0.000000001349528
-0.000000008375746
-0.000000009735101
-0.000000006675064
0.000000004438268
0.000000020757211
-0.000000038325179
-0.000000006111890
-0.000000011257382
0.000000006559088
-0.000000005580355
0.000000001252476
0.000000024908587
0.000000042140041
-0.000000009121203
0.000000008536063
0.000000004425792
0.000000042193996
-0.000000016416520
