-0.024502811953425
-0.077802650630474
0.161404922604561
-0.068120829761028
-0.095032177865505
0.046628680080175
-0.014103833585978
-0.102033436298370
0.010542578995228
0.169937834143639
0.165753349661827
0.026893852278590
0.106105223298073
-0.136697411537170
-0.063418537378311
-0.076637759804726
0.453727543354034
0.035034745931625
0.189792290329933
0.007788408547640
0.583283305168152
0.111813008785248
-0.016712395474315
-0.022246353328228
0.044955175369978
0.020837569609284
-0.016548970714211
0.033334057778120
0.519652903079987
0.050062838941813
-0.057014521211386
-0.007938980124891
0.005121667869389
-0.123186528682709
-0.045688115060329
0.178302258253098
0.035160701721907
-0.124847769737244
0.105023585259914
0.068322867155075
-0.137067109346390
0.107961349189281
-0.049344535917044
-0.137749984860420
0.063962981104851
0.111928798258305
-0.002925115870312
-0.043450240045786
-0.117253236472607
0.029181430116296
-0.007857904769480
0.011681944131851
0.175610691308975
-0.094559855759144
-0.079519987106323
-0.149986103177071
0.152032971382141
-0.058801826089621
0.226115167140961
-0.073429666459560
-0.037719186395407
-0.010765300132334
-0.089138701558113
-0.046329818665981
-0.006420362275094
-0.038234040141106
-0.114452935755253
-0.091993212699890
0.015970217064023
0.011800628155470
-0.124587558209896
-0.012981288135052
-0.124528735876083
-0.058302536606789
0.077152214944363
0.193474113941193
0.007687686476856
0.189397364854813
-0.038148831576109
-0.101164713501930
0.021748486906290
0.047878637909889
0.330312043428421
0.007475376129150
-0.076121173799038
-0.029829746112227
0.022794887423515
0.095307648181915
-0.008322895504534
0.053641762584448
0.167957112193108
-0.018167283385992
-0.069891922175884
0.086385302245617
-0.092245489358902
-0.067705884575844
-0.032327540218830
-0.014040133915842
0.006808037869632
0.067885488271713
-0.003158457344398
0.148780420422554
0.001530043315142
-0.073495931923389
0.066871993243694
0.013624292798340
0.540458858013153
0.213986381888390
-0.164055988192558
0.015928566455841
-0.049867440015078
-0.105478644371033
-0.002640570746735
0.151282861828804
0.096006996929646
-0.091116853058338
-0.130408048629761
0.023338289931417
-0.068615294992924
-0.033113058656454
0.009428974241018
0.061139475554228
0.078426010906696
0.000702693942003
-0.104727052152157
-0.056464385241270
0.001663281349465
0.437073171138763
0.062274549156427
0.126844674348831
0.082740604877472
0.453579246997833
0.481014907360077
0.017744746059179
-0.001171510550193
0.058281164616346
-0.055062290281057
-0.025859285145998
-0.121256627142429
0.032930009067059
-0.003549046115950
-0.099664799869061
-0.049079749733210
0.155047833919525
-0.078958936035633
0.006459691096097
-0.116176836192608
0.067118577659130
-0.122587889432907
0.390543282032013
0.022233631461859
-0.097244285047054
-0.120410367846489
0.182339087128639
-0.093629769980907
-0.020624822005630
0.080799750983715
-0.122753784060478
0.004549155477434
0.003141457680613
-0.133432433009148
0.067763775587082
-0.008154530078173
0.169871568679810
0.008427779190242
0.106133162975311
0.019368613138795
0.210740149021149
-0.054406493902206
-0.034871257841587
0.014261967502534
-0.053640983998775
0.031126832589507
-0.039707675576210
0.006618210580200
0.036246273666620
-0.001884641707875
-0.077168680727482
-0.163523048162460
-0.038144011050463
0.125245571136475
-0.126239612698555
-0.070178836584091
-0.010546192526817
-0.099043890833855
-0.045958898961544
-0.017322961241007
-0.073784254491329
0.023852404206991
0.197794809937477
-0.038836769759655
-0.033650688827038
-0.024270556867123
-0.081279568374157
0.042418748140335
-0.103993922472000
0.379223138093948
-0.078961104154587
0.085480198264122
0.190323948860168
-0.029953267425299
-0.083432056009769
-0.115781575441360
-0.062186628580093
-0.036561306566000
0.056117851287127
-0.107346467673779
0.045121088624001
-0.146977826952934
-0.032677456736565
0.044739987701178
0.111749693751335
0.274313986301422
-0.082756705582142
0.586221873760223
0.124446801841259
-0.107725031673908
0.267030119895935
-0.028450263664126
0.101252034306526
-0.015368921682239
0.023237671703100
0.016143716871738
-0.050219055265188
-0.100026398897171
0.172286510467529
0.108508124947548
-0.058865338563919
0.152835220098495
-0.141691967844963
-0.111341111361980
0.070359185338020
-0.147988215088844
-0.126037910580635
-0.101198412477970
0.197110801935196
0.225056663155556
0.034575868397951
0.065214157104492
0.047593194991350
0.060618668794632
-0.025317445397377
-0.091518476605415
0.153733089566231
0.062405575066805
0.119887121021748
-0.138990536332130
-0.097753554582596
-0.095591828227043
0.036971367895603
0.086147978901863
0.013065170496702
0.058119978755713
-0.176551133394241
-0.115534156560898
0.030181620270014
