-0.000243901216891 0.001746261492372 -0.006431945599616 0.005916374735534 -0.007477215025574 -0.006323575042188 0.017502989619970 0.002889490453526 0.013646081089973 -0.019484777003527 -0.008920926600695 0.000354398827767 0.026031462475657 -0.001378356246278 -0.014260857366025 0.012397957965732 -0.009616431780159 -0.024398427456617 0.024407230317593 0.011919599957764 0.042019613087177 -0.006388505920768 0.004541281610727 0.019778933376074 0.009374774992466 0.001694738632068 0.010170067660511 0.046242889016867 0.009716969914734 -0.009872706606984 0.029930623248219 0.030134988948703 -0.014894910156727 0.010171999223530 0.007687963545322 0.035270281136036 -0.003755626734346 0.008324177935719 0.011350205168128 0.003938565030694 0.025704013183713 0.011995285749435 -0.000388079090044 0.023415833711624 -0.016049632802606 -0.010824093595147 0.017497057095170 -0.022611934691668 -0.005663438234478 0.004262574482709 0.007372423540801 -0.015912493690848 0.017913362011313 0.007390235085040 0.008695923723280 0.002543713664636 0.001782498089597 0.008555183187127 0.001570185995661 0.016150966286659 -0.006813636980951 0.000938566634431 0.003593902336434 0.001462693093345 0.012909182347357 0.026927124708891 -0.001872369553894 0.010141036473215 -0.004311813507229 0.008702890947461 0.005329534877092 -0.004737570881844 0.008157969452441 -0.029175324365497 0.011892643757164 -0.016568783670664 0.000462502794107 0.005524158012122 0.007858570665121 -0.003760031657293 -0.016841925680637 0.039076138287783 0.003952647559345 -0.008478272706270 -0.011565958149731 0.015402254648507 -0.029689455404878 0.033087082207203 0.034810535609722 -0.003211181610823 0.004833301994950 -0.009955839253962 0.000676203460898 -0.003006994724274 0.002043634653091 -0.005732466932386 -0.037299763411283 -0.015933282673359 0.007572265341878 0.021991154178977 0.012605718336999 0.016686638817191 0.037311248481274 -0.009469613432884 -0.027513060718775 0.003257009200752 0.003144569462165 0.021180404350162 0.018535813316703 0.015341388992965 -0.003553460352123 0.004111176356673 0.019551791250706 0.062943510711193 0.022386411204934 0.004927984904498 0.008914490230381 0.045232225209475 -0.031306728720665 0.077325075864792 0.030976973474026 0.018295813351870 -0.007695038337260 -0.006289679557085 0.012499662116170 -0.015568505041301 0.017672561109066 -0.038428347557783 0.013216723687947 0.019508462399244 -0.043289951980114 -0.011126942932606 -0.025109687820077 -0.003823775332421 0.030569989234209 -0.005531996488571 -0.012066582217813 0.025438893586397 0.010112521238625 0.018349941819906 0.004789819940925 0.035933952778578 0.002247882075608 0.014954241923988 0.016919368878007 0.014857090078294 0.006422279402614 -0.001310136984102 -0.020835999399424 -0.000242680180236 0.014497487805784 0.013008514419198 0.023652436211705 -0.005469458643347 -0.000740428164136 0.013684650883079 0.010097743012011 -0.011013007722795 0.010105106979609 0.005287707317621 -0.006703602615744 0.005318371579051 0.043765462934971 -0.010309258475900 0.042299561202526 0.017302019521594 -0.003607567399740 -0.006206969730556 0.009764488786459 0.044981896877289 0.003197465091944 0.006536562461406 0.023124307394028 0.021267233416438 0.011770632117987 0.009208288043737 -0.041399601846933 0.005475118756294 -0.027216199785471 0.017793977633119 0.007327998057008 -0.018046509474516 -0.010828643105924 0.025485157966614 0.006448441650718 -0.014534731395543 0.027949245646596 0.000247935560765 0.012105700559914 0.020035719498992 0.025359857827425 0.003820720827207 0.007168236654252 0.069649770855904 0.016811706125736 0.092857800424099 0.019943086430430 0.014258040115237 -0.014224582351744 0.031990561634302 0.040251728147268 -0.010697319172323 -0.008164350874722 -0.002697986317798 0.026839217171073 0.001358246314339 0.014787897467613 -0.004342445638031 -0.008406298235059 -0.004135208204389 0.029227538034320 -0.009375309571624 -0.012103712186217 -0.008702663704753 0.000472189771244 -0.007389712147415 0.017046563327312 -0.036588709801435 0.014084186404943 -0.017837438732386 0.012000091373920 0.000301101448713 0.007590602152050 -0.026656571775675 -0.008050621487200 -0.007719148881733 -0.024430800229311 -0.009616984985769 0.017709489911795 -0.045832663774490 0.036247972398996 0.020025203004479 0.011954564601183 -0.008713539689779 0.022414658218622 0.056501530110836 0.030895644798875 0.007636122405529 0.030157480388880 0.018700061365962 0.007720610126853 -0.023043939843774 0.005632129032165 -0.010413785465062 -0.025346472859383 0.025685939937830 0.015155981294811 0.005466446280479 0.010930943302810 0.020856512710452 0.016592150554061 -0.019923169165850 0.015952741727233 0.009262141771615 0.007279065437615 -0.004054160788655
-0.009469590149820 0.002659187885001 -0.024806331843138 -0.009684482589364 -0.026558984071016 -0.015998905524611 0.061412841081619 -0.006028783041984 0.039561510086060 0.016189860180020 0.005701215472072 0.010839719325304 0.015895208343863 -0.000110359862447 -0.022158710286021 0.012999714352190 -0.007732416968793 0.023938277736306 -0.000116765564599 0.024023856967688 0.022957567125559 -0.013981520198286 0.023655083030462 0.037694975733757 0.018145343288779 0.020473528653383 0.008134122937918 0.014978202991188 0.001416748273186 0.006347826216370 -0.000459511531517 0.011518519371748 -0.020538613200188 0.004011834505945 0.034582965075970 0.005583804100752 0.014352479018271 0.025725228711963 -0.005637401249260 0.002912559779361 0.019549038261175 0.002319307299331 0.009623093530536 0.026717813685536 0.011404303833842 -0.013976567424834 0.000972810434178 -0.005674873944372 0.019625011831522 0.015783049166203 -0.000733918102924 -0.003810064634308 0.006839768961072 -0.030655939131975 -0.002033779397607 -0.018751492723823 -0.010208210907876 -0.013333149254322 0.003594968002290 -0.021867761388421 0.001863867975771 0.011474016122520 0.020431479439139 0.024574179202318 0.003768650582060 0.000645426509436 -0.006662483327091 0.022182352840900 0.023887982591987 0.014500914141536 -0.043133027851582 0.000403894489864 0.011434069834650 -0.020785007625818 0.016549287363887 -0.099774278700352 0.003348005935550 0.022921847179532 0.027293018996716 0.026630049571395 0.004440800752491 0.012575997970998 0.000097528900369 0.000649187772069 0.012363542802632 0.009338807314634 0.026691118255258 -0.019141741096973 0.019660713151097 -0.000231120357057 0.018181633204222 0.051921974867582 -0.053397249430418 -0.025267222896218 0.017177771776915 -0.002162986667827 -0.019260872155428 0.016011307016015 0.030599573627114 0.036606006324291 0.009136619046330 0.011163567192852 0.012319508008659 0.007291653193533 0.018080286681652 0.042258571833372 -0.001646922668442 0.046391699463129 0.009635554626584 0.011457789689302 0.012597395107150 0.008445893414319 0.012565867975354 -0.011465227231383 0.009111055172980 0.006851227954030 -0.008888564072549 -0.047745462507010 0.002983171492815 -0.059392541646957 0.016492158174515 -0.026323260739446 0.003844319144264 -0.004470801446587 0.014220763929188 0.013102333992720 -0.017152542248368 0.000613328884356 0.032256606966257 0.022971076890826 0.008101678453386 -0.010486672632396 -0.016367375850677 -0.008567460812628 0.027384553104639 0.008849927224219 0.010599297471344 0.032322514802217 0.047251783311367 0.015255878679454 -0.019775548949838 0.011657873168588 0.006084936670959 0.030287737026811 0.004333732649684 0.018187614157796 0.022175755351782 0.021879391744733 0.014200443401933 0.015589639544487 -0.006656232755631 0.001684488262981 0.013063867576420 0.001927201636136 0.000092997637694 -0.024975251406431 0.035910643637180 -0.021984495222569 0.013378747738898 0.011700215749443 -0.020091470330954 0.005328054074198 0.010273861698806 0.029725058004260 0.002150999847800 0.018154574558139 0.002840006491169 0.002574698533863 -0.013320265337825 -0.005433578975499 -0.020004501566291 -0.010678796097636 -0.015207621268928 0.037303034216166 0.044020574539900 -0.004136904142797 0.004260267596692 0.005971525795758 0.024549502879381 0.008306056261063 0.009373058564961 -0.024270171299577 -0.016314022243023 -0.032974924892187 0.035671740770340 -0.018513558432460 0.020244257524610 0.011192283593118 0.025601822882891 0.021745881065726 -0.003616513218731 0.000634164374787 0.012417481280863 -0.004756521433592 -0.008936395868659 0.050328847020864 -0.013011603616178 -0.044175881892443 0.003861677367240 -0.001485052867793 0.008994852192700 0.012302035465837 0.008735507726669 0.005955969914794 0.000370910362108 -0.003614710643888 0.016792224720120 0.017014529556036 0.009637732990086 0.010903051123023 0.077656634151936 -0.042422514408827 0.003007321851328 0.008632072247565 0.014067274518311 0.040205035358667 0.006399425212294 0.007337072864175 -0.001368347788230 -0.031300440430641 -0.002235412597656 0.019751202315092 -0.002655907766894 0.036667931824923 0.010348111391068 0.026927253231406 0.020833985880017 0.006498346570879 0.021827649325132 0.017399925738573 -0.019662849605083 -0.026077993214130 0.008896540850401 -0.015448199585080 0.000461034971522 0.105010204017162 0.009962065145373 0.002263406990096 0.026245180517435 -0.021948246285319 0.009685649536550 -0.028395194560289 0.025584461167455 -0.015939818695188 -0.035639643669128 0.019387235864997 0.016854127869010 0.021313605830073 0.011275290511549 0.013493684120476 -0.026860712096095 -0.007426934782416 0.015930769965053 0.015117850154638 -0.003506892127916 0.023979127407074
-0.008474541828036 -0.002645595697686 -0.008844709023833 0.002196385757998 0.003146541304886 -0.009344173595309 -0.002954219700769 -0.041902329772711 0.029192639514804 0.039533127099276 0.010090386494994 0.012846099212766 0.020965227857232 0.025808362290263 -0.008349808864295 0.016586018726230 -0.047935400158167 -0.060177266597748 0.027740431949496 0.004114200826734 -0.040830612182617 -0.002585365669802 0.023146903142333 -0.039442967623472 0.004436200018972 0.024161957204342 -0.073902666568756 0.001524709747173 0.017467889934778 0.024948967620730 0.007401679176837 0.030683143064380 -0.007614555303007 0.017276434227824 0.013024461455643 0.020884839817882 0.019850866869092 0.031876046210527 -0.013839374296367 0.002364933490753 0.025251438841224 0.007899696007371 0.018560599535704 0.023103971034288 0.072202935814857 0.011864301748574 -0.058439899235964 0.034465778619051 -0.040051344782114 0.010608839802444 0.015117088332772 0.045338485389948 0.008223268203437 0.002305538859218 -0.003733483375981 -0.010482114739716 0.008645062334836 -0.000855356105603 0.011757434345782 0.048167124390602 0.019662985578179 0.026079218834639 -0.009536105208099 -0.000640472106170 0.001538779935800 0.008800855837762 -0.004185518715531 -0.012155435979366 0.013892007060349 0.022560808807611 -0.043776866048574 -0.009853381663561 0.015373401343822 0.004183429758996 0.019253896549344 -0.081468559801579 0.031135924160480 0.036434698849916 0.016843011602759 0.017078451812267 -0.000711604254320 0.041770968586206 -0.013329436071217 0.000370229710825 0.028905726969242 -0.014286193065345 0.051283538341522 0.003075730055571 -0.031343318521976 0.049169503152370 0.000707291415893 0.014553115703166 -0.010751725174487 -0.025898454710841 0.011302592232823 -0.006636103149503 0.000368122797227 -0.002584652276710 0.031156178563833 -0.019283836707473 -0.023739624768496 -0.027715839445591 0.034439977258444 -0.000080737525423 -0.041435062885284 0.025423826649785 0.008491753600538 0.008583029732108 0.009211992844939 0.012237785384059 0.002448575571179 0.018345022574067 -0.036742325872183 0.007918963208795 0.011186006478965 0.026114847511053 0.094270005822182 0.035605043172836 -0.005052672699094 0.009526416659355 -0.001541607431136 -0.011417162604630 -0.010880099609494 0.016040768474340 0.003981055226177 0.015512055717409 -0.043714482337236 0.047941487282515 0.008381609804928 0.006510502658784 0.018699984997511 -0.045743003487587 -0.015943523496389 0.008788347244263 0.007283409126103 -0.033390220254660 -0.015412415377796 0.036076702177525 -0.047700513154268 0.073296740651131 0.017265457659960 -0.073600471019745 0.022838946431875 0.043304722756147 0.007999986410141 -0.028077108785510 -0.015946816653013 0.027784705162048 -0.002073900308460 -0.018096860498190 0.029665451496840 0.016491200774908 0.009353107772768 0.011140407063067 0.000841110129841 -0.010317617096007 0.038931168615818 0.002155871130526 0.033007252961397 0.022038161754608 0.020832311362028 0.020344236865640 0.026585601270199 0.004833549726754 -0.011578958481550 0.004452262539417 -0.026697460561991 -0.055024024099112 0.012224154546857 -0.000155519766849 -0.022102355957031 0.020174810662866 0.004230448044837 -0.004535075742751 -0.027208684012294 -0.004295046441257 0.033970408141613 0.023906299844384 0.006570907309651 0.021722467616200 0.001923824660480 0.004544404335320 -0.007919623516500 -0.018581250682473 0.027849944308400 0.014104340225458 -0.039233982563019 0.014417210593820 0.009365422651172 -0.018024697899818 -0.020745782181621 0.013281854800880 0.001162610831670 -0.034283604472876 0.036545958369970 0.008916000835598 0.004019765183330 0.022904040291905 -0.078074261546135 0.015315591357648 -0.014611477032304 0.004130113404244 -0.021148556843400 -0.000927419343498 -0.038838986307383 -0.075387515127659 0.001551487017423 0.017579499632120 0.018139053136110 0.014468034729362 0.010327134281397 0.010512067005038 -0.001127930940129 -0.028321325778961 -0.004997094161808 0.002156345872208 -0.040903322398663 0.047803822904825 -0.026941392570734 0.016899298876524 0.010314574465156 0.044531136751175 -0.033020183444023 0.010624291375279 0.022540081292391 0.001469639595598 -0.031250126659870 -0.010684982873499 0.024686766788363 -0.041459072381258 -0.010990760289133 0.006603752728552 0.013313237577677 -0.008367856033146 0.021749798208475 0.017111480236053 0.017608307301998 0.014287210069597 -0.017635002732277 0.015289563685656 0.000507927674334 0.003964950330555 0.012566251680255 -0.035033080726862 -0.011022921651602 0.034586045891047 0.023099776357412 0.014616504311562 0.010650594718754 -0.015495534054935 0.016564100980759 0.009178752079606 0.017554029822350 -0.004659285303205 0.020266354084015 0.005840313620865
