-0.348357945680618
0.108780808746815
-0.101451866328716
-0.547659397125244
-0.275982409715652
-0.210372135043144
0.121683895587921
0.082731030881405
0.044235095381737
-0.314342349767685
0.364759892225266
-1.274261832237244
-0.579507470130920
-0.177419573068619
0.209944903850555
-0.082058116793633
-0.589187741279602
-0.017952781170607
0.126804783940315
-0.212688624858856
0.188265666365623
-0.489659518003464
-0.218739941716194
0.086852379143238
-0.169769898056984
-0.169902354478836
0.142922312021255
-0.018071129918098
0.171355634927750
-0.654887318611145
0.195336744189262
-0.349744588136673
-0.064490415155888
0.147487938404083
-0.145400285720825
0.148189365863800
0.149819880723953
0.185124889016151
0.120273083448410
-0.155236124992371
-1.144899845123291
0.005497081205249
-0.103250309824944
-0.489284604787827
0.148698911070824
-0.054761234670877
0.146227002143860
-0.827500998973846
0.031576868146658
0.037693966180086
-0.635094463825226
-0.022040342912078
0.163297399878502
-0.112360522150993
-0.082346439361572
0.964905381202698
-0.013701087795198
-0.188806906342506
-0.106286786496639
0.391494482755661
-0.075888775289059
-0.238014683127403
-0.107937403023243
-0.006019520573318
