-0.003409683005884 -0.073607429862022 -0.018477467820048 -0.023971505463123 -0.023303961381316 -0.026217013597488 -0.024460395798087 -0.009127125144005 -0.001312363310717
0.033734899014235 0.035861682146788 0.041196342557669 0.003516324795783 0.028981717303395 0.012757766991854 -0.018730197101831 -0.035866435617208 -0.026875508949161
0.016915803775191 -0.038222543895245 0.030117703601718 -0.008681815117598 0.038584526628256 0.043193094432354 0.041993189603090 0.064943462610245 0.053419355303049
-0.007706877309829 -0.011166127398610 -0.009254789911211 -0.007052564062178 0.001070413505659 -0.011432469822466 -0.010214608162642 -0.020396513864398 -0.009995630942285
0.025153508409858 0.037285577505827 0.043361146003008 0.078045941889286 0.021566694602370 0.045074146240950 0.041637841612101 0.039194595068693 0.084023006260395
0.061307471245527 -0.014342857524753 0.037638992071152 0.047573219984770 0.003593317698687 0.032167412340641 0.017885433509946 0.014029935933650 0.023833777755499
-0.001265120343305 -0.015644561499357 -0.012974327430129 0.020287696272135 0.011935917660594 0.024932201951742 -0.009753865189850 -0.010253963060677 0.030292054638267
-0.006338638719171 0.007314180955291 0.006945134140551 -0.001454659621231 0.011807656846941 0.000915934157092 -0.019226998090744 -0.015103942714632 -0.003739828709513
-0.012160085141659 -0.047093369066715 -0.084321200847626 -0.062736719846725 -0.076082140207291 -0.035749331116676 -0.022222295403481 -0.019912129268050 -0.037034582346678
-0.019523145630956 -0.026112969964743 -0.018552135676146 -0.022675430402160 -0.015971885994077 -0.016259072348475 -0.014891262166202 0.022299772128463 -0.004554305691272
0.003565894206986 -0.033645275980234 -0.011550735682249 -0.015564632602036 0.009156404063106 -0.009511785581708 0.003246271749958 0.011633344925940 0.006296252366155
0.023693457245827 0.019579024985433 0.008966433815658 0.018683390691876 0.008724750950933 -0.013379413634539 -0.004900650121272 -0.021802518516779 -0.010786871425807
0.097539536654949 -0.020056262612343 0.066750623285770 0.083116732537746 0.034294042736292 0.065290346741676 0.058868378400803 0.053723357617855 0.044737040996552
-0.008605344220996 -0.015257872641087 0.026979574933648 0.013364955782890 0.014809271320701 0.004367049317807 -0.042214564979076 -0.013242420740426 -0.020107233896852
-0.073491804301739 -0.098868407309055 -0.007418720051646 -0.003785195760429 0.017923315986991 0.012866097502410 0.046347990632057 0.055353999137878 0.078318811953068
0.083686999976635 0.020781205967069 0.056853171437979 0.019704440608621 0.034470561891794 0.004533828236163 -0.001740511273965 -0.014513865113258 -0.020208438858390
-0.006100798025727 0.003711521159858 0.000447805679869 0.027195381000638 0.005388648249209 0.006405511405319 -0.008208389393985 -0.037292242050171 -0.031628038734198
-0.044680662453175 -0.023177200928330 -0.046200901269913 -0.033111248165369 -0.027217864990234 -0.020398369058967 0.011033401824534 0.021324310451746 0.024154119193554
-0.040103755891323 -0.011237544007599 -0.027596678584814 -0.004126258660108 0.001866193488240 -0.010757046751678 0.010950958356261 -0.007336999289691 -0.003890269901603
0.025658877566457 0.009527281858027 0.003163008484989 -0.017584707587957 -0.005241171456873 -0.006394207011908 -0.025090964511037 -0.021771835163236 -0.011290569789708
-0.054089691489935 -0.034680556505919 -0.040789097547531 -0.036971233785152 -0.026716446503997 -0.029980653896928 -0.010627824813128 -0.004052045755088 -0.037634797394276
-0.073299244046211 -0.054889302700758 -0.052885498851538 -0.018907740712166 -0.006870398297906 0.009856398217380 0.000621929590125 0.022745888680220 0.054565861821175
0.001378527609631 -0.008490768261254 -0.025739349424839 -0.017187172546983 0.016068566590548 -0.015087236650288 -0.007817883044481 -0.007899105548859 0.019600171595812
-0.011349620297551 -0.017127715051174 -0.018268080428243 0.003103889990598 0.030742490664124 0.007484408561140 -0.012547186575830 0.015659619122744 -0.000547418487258
0.037338148802519 0.024790097028017 0.016147663816810 0.032330844551325 0.026780521497130 0.025686411187053 0.001285370904952 0.012014113366604 -0.005093003623188
-0.056281771510839 -0.056329794228077 -0.007814779877663 -0.009869004599750 -0.005825800355524 0.019503844901919 0.013053967617452 0.012957176193595 -0.018559461459517
0.018672604113817 0.044939249753952 0.025161461904645 0.043539300560951 0.033123858273029 0.001725482754409 -0.007394116371870 -0.037997275590897 -0.032091513276100
-0.038616348057985 -0.065984986722469 -0.017632210627198 -0.038573645055294 -0.005798873025924 -0.033583410084248 -0.036911409348249 -0.019693285226822 0.015612923540175
-0.038948286324739 -0.028624029830098 -0.038514282554388 -0.001457000733353 -0.000877984624822 -0.004056404344738 0.006086438428611 -0.010090283118188 -0.004990341607481
0.046461686491966 0.015962958335876 0.043675832450390 0.012508200481534 0.042541880160570 0.006475616712123 -0.023400858044624 -0.016558565199375 -0.007218286395073
-0.006073957309127 -0.025972409173846 0.020525643602014 -0.016848782077432 -0.009009690955281 -0.009483866393566 -0.039096172899008 -0.017352452501655 0.029523028060794
0.022195767611265 0.022648429498076 0.026393203064799 0.021716337651014 0.023050256073475 0.042966663837433 0.021912096068263 -0.010650645010173 0.012641064822674
-0.039467532187700 -0.063859209418297 -0.090950913727283 -0.063568614423275 -0.036949940025806 -0.060506474226713 0.019119391217828 0.018588406965137 -0.002756901783869
-0.004907737951726 -0.028451761230826 -0.040454402565956 -0.038411334156990 -0.036317579448223 -0.026980170980096 0.004106611013412 0.033928122371435 0.024742640554905
-0.000635431148112 0.015581986866891 0.017348740249872 0.003490194445476 0.031422227621078 -0.011680161580443 -0.010750045999885 -0.039621524512768 -0.037364378571510
0.004522231873125 -0.034731928259134 -0.022392921149731 -0.013341964222491 0.010161503218114 0.030380839481950 0.021831955760717 0.046691276133060 0.008598851971328
-0.019932931289077 0.004626756999642 0.018370140343904 -0.003202186897397 -0.003359033027664 -0.045714799314737 -0.052985437214375 -0.051123388111591 -0.046487532556057
0.037160113453865 0.020207840949297 0.038692183792591 0.003631397383288 -0.000112513611384 -0.026663228869438 -0.017870018258691 -0.022333383560181 -0.043927583843470
0.011378503404558 0.022628858685493 0.020415551960468 0.028478309512138 0.006846154574305 -0.000517622567713 -0.024531682953238 -0.038142737001181 -0.069053269922733
0.031752258539200 0.025678653270006 0.006556887645274 0.023591665551066 -0.019790174439549 -0.010390678420663 -0.024179827421904 -0.024238251149654 -0.023303527384996
-0.017000272870064 -0.010241324082017 -0.009890671819448 -0.013776092790067 -0.031962104141712 0.002907247748226 -0.017588786780834 -0.058073114603758 -0.016288667917252
-0.003830952569842 -0.029449259862304 -0.018620129674673 -0.034963473677635 -0.022371318191290 -0.020293310284615 -0.015604787506163 -0.003912484273314 -0.014173218980432
-0.002725441940129 -0.009997988119721 0.009814755059779 0.001529582892545 0.012234149500728 -0.022806053981185 -0.005860016681254 -0.020202584564686 -0.007432051934302
0.011547137051821 -0.006202848628163 0.000239973160205 -0.011778802610934 -0.014772525988519 -0.021568978205323 -0.033571135252714 -0.033129982650280 -0.031273119151592
-0.030465429648757 -0.047513552010059 -0.034562233835459 -0.029148062691092 -0.034496497362852 0.009304038248956 0.042315188795328 0.047394994646311 0.045309104025364
0.047512132674456 0.016405908390880 0.061909705400467 0.028662832453847 0.044557321816683 0.013288221322000 -0.009543292224407 -0.028386766090989 -0.025432730093598
0.044344987720251 -0.006438841111958 0.010559480637312 0.004196787718683 0.017896365374327 -0.004078939091414 -0.022673267871141 -0.018062880262733 -0.021320769563317
0.001325287972577 0.009927170351148 -0.017295077443123 -0.008558599278331 -0.034322585910559 -0.009625524282455 -0.038826141506433 -0.029797803610563 0.028024993836880
-0.014487953856587 0.022169426083565 0.019077436998487 0.004265565890819 0.024113520979881 0.010928104631603 -0.007225313223898 -0.019594622775912 -0.004826332908124
0.034424230456352 0.010517016984522 0.028953069821000 0.026884885504842 0.011219653300941 0.000979666016065 0.006085963454098 -0.005415135994554 -0.011046718806028
0.016930149868131 -0.004724441561848 -0.003716617356986 0.014828876592219 0.001856569782831 0.013022533617914 0.029187327250838 0.003573604859412 -0.013678906485438
-0.028706710785627 -0.014506473205984 -0.036066595464945 -0.031619876623154 -0.013884395360947 -0.017321543768048 -0.003353863023221 0.002277313033119 0.017038343474269
0.049844082444906 0.004921111743897 0.014549782499671 0.028648771345615 -0.001216882606968 0.007756408769637 -0.012502774596214 -0.027941506356001 -0.047546420246363
0.022791417315602 -0.027815692126751 -0.018404072150588 -0.036412294954062 -0.036445222795010 -0.018369181081653 -0.015879876911640 0.007839043624699 0.031322449445724
-0.029658664017916 -0.001416099956259 0.005295753479004 -0.002628772286698 -0.005720007233322 -0.008798176422715 0.004152670037001 -0.029178788885474 -0.005093486048281
-0.025971680879593 -0.001964924624190 -0.023192087188363 -0.015233074314892 -0.011049083434045 -0.016304723918438 0.002715682843700 -0.012797207571566 -0.006931661162525
0.014251725748181 -0.036330100148916 0.015759512782097 -0.010756502859294 0.010506574995816 -0.030863847583532 -0.022278422489762 -0.005376410204917 -0.004379462450743
-0.006934179458767 0.013501547276974 0.003552855225280 0.020107703283429 0.018976693972945 0.020524207502604 0.027687899768353 0.019882485270500 0.007821029983461
-0.000070704176323 -0.013387661427259 0.002664575818926 -0.020641580224037 -0.002452715765685 -0.020555835217237 -0.012208776548505 0.008591023273766 -0.006221184972674
0.080523565411568 0.014103364199400 0.053099442273378 0.061680797487497 0.001393031445332 0.021321089938283 -0.012796095572412 -0.027925373986363 -0.001287700142711
0.061249312013388 0.024540772661567 0.016311151906848 -0.002764815464616 0.028148405253887 0.015916217118502 -0.009474488906562 -0.030324628576636 -0.037103850394487
0.074859187006950 0.022884221747518 0.044582478702068 0.058373525738716 0.007103286217898 0.050064370036125 0.039571512490511 0.023444781079888 0.036736425012350
-0.005860115867108 0.045891344547272 0.011032607406378 0.009326608851552 0.009141221642494 0.000819591397885 -0.013233546167612 -0.043271727859974 -0.037299420684576
0.018355673179030 0.020917998626828 0.031284295022488 0.014739518053830 0.039425183087587 -0.010010886937380 -0.025716675445437 -0.028898971155286 -0.018960388377309
-0.039042379707098 -0.048408109694719 -0.001670233672485 -0.030462674796581 0.012547694146633 0.004674003925174 -0.018150182440877 -0.002116758609191 0.009774325415492
-0.032649286091328 -0.003117974381894 0.007666531950235 0.013108648359776 -0.008377380669117 0.000056374297856 -0.021714668720961 -0.028761873021722 -0.022282512858510
-0.021946942433715 0.002680470934138 -0.032585185021162 0.001168125541881 -0.021117419004440 -0.035077918320894 -0.010255358181894 -0.021890351548791 0.016080848872662
0.049993906170130 -0.001682435395196 0.063592843711376 0.056936446577311 0.011116972193122 0.012996652163565 0.026558073237538 0.025812959298491 0.025485057383776
0.025916617363691 0.014802748337388 0.029011813923717 -0.004161519929767 0.026775982230902 0.001145776361227 -0.009454465471208 -0.012844126671553 -0.017251772806048
0.058005873113871 -0.010918404906988 0.035182997584343 -0.000923135201447 0.019292501732707 0.007260831072927 -0.023893853649497 -0.008685733191669 -0.008668891154230
-0.004556113388389 0.010452772490680 0.008754610083997 -0.002213881118223 0.002521943068132 -0.008991350419819 -0.007310237269849 -0.023932918906212 -0.017810771241784
0.000005273843726 -0.061265319585800 -0.048153422772884 -0.008539632894099 -0.019998958334327 -0.019921950995922 -0.043934915214777 -0.033335436135530 -0.007984216324985
0.068340867757797 0.024489713832736 0.033926010131836 0.016029233112931 0.025473793968558 0.019195731729269 -0.030981788411736 -0.001729249255732 -0.002530318917707
0.009974613785744 0.022545723244548 0.032317966222763 0.037669558078051 0.026348508894444 0.026550073176622 -0.009412390179932 -0.021053625270724 -0.004885037429631
0.002316020661965 -0.021917633712292 -0.037259686738253 -0.040339939296246 -0.034624721854925 -0.018559619784355 -0.004308861680329 0.018490349873900 0.034202862530947
0.018318617716432 0.020330468192697 0.017589358612895 0.021864881739020 0.007124856580049 0.018142340704799 -0.012869031168520 -0.019393792375922 -0.020735777914524
-0.002255859551951 -0.011056227609515 -0.009719436056912 -0.013433015905321 -0.008490900509059 0.004443734884262 0.004300008527935 0.005037211347371 -0.001073672319762
0.006587819661945 -0.017334645614028 -0.031191917136312 -0.013717877678573 -0.020672859624028 0.016775118187070 -0.001078401459381 -0.028700767084956 -0.008227724581957
0.064222544431686 0.021331753581762 0.054121334105730 0.007539270911366 0.033545766025782 -0.000553385005333 -0.021565329283476 -0.036208137869835 -0.036716952919960
-0.002145694335923 0.015968019142747 0.020517867058516 0.009053089655936 0.029709624126554 -0.002224658150226 -0.032779596745968 -0.041554361581802 -0.032794062048197
0.030402991920710 0.002992594614625 0.014749920926988 -0.001508006593212 0.016002288088202 0.001801918959245 0.010302117094398 0.004827444907278 -0.002085476415232
0.098339959979057 0.019102642312646 0.037277843803167 0.051855932921171 0.006619063671678 0.020488789305091 -0.013340120203793 0.011052404530346 0.021341904997826
0.021227976307273 0.019514728337526 0.008010479621589 0.038447603583336 0.005677944980562 0.008837741799653 -0.007856032811105 -0.035248007625341 -0.032258339226246
-0.010712136514485 -0.005754702258855 -0.009842602536082 -0.008022026158869 -0.008008226752281 -0.021482417359948 -0.022934533655643 -0.008758621290326 -0.005177452694625
-0.050567187368870 -0.038770765066147 -0.044304173439741 -0.028050476685166 -0.003659870708361 -0.014004506170750 -0.006918301805854 0.015111832879484 0.023579865694046
0.029407108202577 0.010470507666469 0.018769750371575 0.009072689339519 0.028531521558762 0.015962479636073 0.002740317257121 -0.010197942145169 -0.008400579914451
-0.033768355846405 -0.007775729522109 -0.003578122239560 0.004492531530559 -0.010348112322390 -0.015331206843257 -0.028151998296380 -0.030513998121023 -0.027590829879045
-0.012134817428887 0.011992657557130 0.017980119213462 -0.014111669734120 0.011181799694896 -0.013491522520781 -0.019961116835475 -0.028625661507249 -0.044625341892242
0.010234247893095 0.010244213975966 0.034638937562704 -0.003831692505628 0.012337420135736 -0.004838462453336 -0.013131541199982 -0.005976857151836 -0.019023206084967
-0.029490677639842 0.006819044239819 -0.001981348264962 0.001647750963457 0.015030176378787 0.004179640207440 0.014075720682740 0.004841089714319 -0.005074405111372
0.005447850562632 0.008937488310039 0.023806836456060 0.009963740594685 0.013497776351869 -0.000293773831800 -0.020290607586503 -0.028533751145005 -0.023597521707416
0.018288753926754 0.006333550438285 0.033314313739538 0.021994093433022 0.022759398445487 0.002415930619463 0.006140881218016 0.007847707718611 -0.001321589341387
-0.010347587056458 0.024068528786302 0.015931298956275 0.012397507205606 0.005285474006087 -0.016633620485663 -0.020231816917658 -0.032757297158241 -0.039494831115007
-0.024908848106861 -0.021895680576563 -0.015019122511148 -0.010322242975235 -0.009890669025481 -0.031824607402086 -0.009942555800080 -0.007419701665640 -0.022196089848876
0.050730135291815 -0.003481135936454 0.024208083748817 -0.006768928840756 0.026432842016220 0.008710317313671 -0.018765799701214 -0.022692896425724 -0.022664630785584
-0.015338042750955 0.018383655697107 -0.012733248993754 -0.015355123206973 -0.015125921927392 -0.046673152595758 -0.024047538638115 -0.049562454223633 -0.040433712303638
-0.016049876809120 0.009208935312927 0.026527384296060 0.013740167953074 0.012811410240829 0.011486924253404 0.004043420311064 -0.018362134695053 -0.048815947026014
-0.028991002589464 -0.039962105453014 -0.004001210443676 -0.010528062470257 -0.005947102326900 -0.015466153621674 -0.010956321842968 -0.007309895008802 -0.029023189097643
-0.003173866542056 -0.002856938634068 0.004033590666950 -0.008651170879602 0.014351244084537 -0.022011186927557 -0.029349062591791 -0.017729001119733 -0.019846864044666
0.001143020694144 -0.002690699649975 0.012610683217645 0.009866524487734 0.008278426714242 -0.000866360787768 -0.025884129106998 -0.041953653097153 -0.016930017620325
0.023985063657165 0.013326792977750 0.005688057746738 0.025252223014832 0.007137691602111 0.012357421219349 0.008587708696723 0.027376867830753 0.010373118333519
-0.020889790728688 0.026193320751190 0.011724060401320 -0.014519283547997 0.014742880128324 0.001000428455882 -0.003295656526461 -0.045124322175980 -0.030591344460845
0.029186852276325 0.011755223385990 0.026555256918073 -0.006132734473795 0.009084156714380 -0.014903523027897 -0.034759517759085 -0.025766551494598 -0.031468462198973
-0.069581121206284 -0.048640672117472 -0.030115624889731 0.008502702228725 0.001709335250780 0.030469862744212 0.004427465610206 0.014431005343795 0.087716639041901
-0.029322611168027 -0.077366992831230 -0.038452599197626 -0.039220560342073 -0.014446588233113 -0.027177141979337 -0.021305350586772 -0.019377898424864 -0.021442366763949
-0.064355865120888 -0.021795414388180 -0.049963410943747 -0.018735969439149 -0.038167491555214 -0.060077093541622 -0.007298289332539 0.001386937103234 0.039804004132748
0.072707496583462 0.006701975595206 0.060990255326033 0.060651484876871 0.009608263149858 0.025350978597999 0.026653515174985 0.023696986958385 0.027317088097334
0.007911173626781 -0.011691230349243 0.005439984146506 0.003412080230191 0.005762019194663 0.010317506268620 -0.013189419172704 0.004211781546474 -0.006223594304174
0.028732234612107 0.022920249029994 0.024314491078258 0.021475309506059 0.012978603132069 0.006080641876906 -0.036013670265675 -0.035479892045259 -0.053895637392998
-0.014539101161063 0.012538505718112 -0.005027167033404 0.006187703460455 0.009418924339116 -0.003839936805889 -0.013785131275654 -0.006250330712646 -0.034850902855396
-0.035420518368483 -0.048856113106012 -0.043929487466812 -0.023845797404647 -0.029064608737826 -0.043121092021465 -0.017133938148618 0.012217731215060 0.020181231200695
0.021214136853814 0.035735029727221 0.022677125409245 0.037306431680918 0.013140885159373 0.008159151300788 -0.019885191693902 -0.015216675586998 -0.051551721990108
-0.131049215793610 -0.055356029421091 -0.033831506967545 -0.002756971633062 0.004334966186434 0.001650631893426 -0.011501106433570 -0.012446111068130 -0.096127144992352
-0.024013228714466 -0.021040448918939 -0.057468757033348 -0.046501871198416 0.001020575524308 0.004160917829722 0.017967080697417 -0.022278815507889 -0.010872462764382
-0.012749370187521 0.012503234669566 0.010561518371105 0.017098985612392 0.013878626748919 0.014772764407098 0.017879610881209 -0.001502707600594 -0.007853779941797
-0.047723177820444 -0.036610756069422 -0.025730874389410 -0.018657943233848 -0.025241168215871 -0.027679387480021 -0.016698090359569 -0.029885089024901 -0.034405864775181
-0.062180418521166 -0.032836921513081 -0.028653070330620 -0.040034659206867 -0.025670798495412 -0.002145712263882 -0.019209612160921 -0.007480098865926 -0.022601267322898
-0.017269605770707 -0.007384305354208 0.000276459963061 0.002137639559805 0.005443522240967 -0.012519057840109 -0.008055496029556 -0.021291404962540 -0.002877213526517
-0.022744718939066 0.001612564432435 0.000762807088904 0.001743547734804 -0.014657173305750 -0.015897462144494 0.002834516111761 -0.024311630055308 -0.014831952750683
0.003374609630555 -0.031874705106020 0.006490504369140 0.006850547622889 -0.007288302294910 -0.011243079788983 -0.018114689737558 -0.019303472712636 -0.024574613198638
-0.045211341232061 -0.028258340433240 0.003353931242600 -0.004793579690158 0.000491403159685 -0.018056230619550 -0.005737168714404 -0.029410477727652 -0.016992175951600
0.007236969657242 0.012473210692406 -0.021204661577940 -0.009615935385227 -0.053013108670712 -0.028871476650238 -0.038039587438107 -0.038053940981627 -0.024482993409038
0.007964304648340 0.020149812102318 0.026221165433526 -0.005593098234385 0.021932449191809 -0.015718450769782 -0.002199313836172 -0.038950938731432 -0.019415017217398
-0.055751744657755 -0.058767791837454 -0.034378107637167 -0.044393628835678 -0.008552466519177 -0.003242549486458 0.011314400471747 0.012784180231392 0.035146795213223
-0.005771973636001 0.019765531644225 -0.005339637398720 -0.001892745145597 0.009522813372314 -0.009755172766745 -0.010835566557944 -0.026433909311891 -0.033839955925941
0.018602939322591 0.018801942467690 0.015507173724473 0.013645914383233 0.008255952969193 0.001252418151125 -0.014515657909214 -0.022848146036267 -0.034186717122793
0.038213856518269 0.036431010812521 0.056420162320137 0.032450839877129 0.040804989635944 0.007850814610720 -0.013720186427236 -0.023470468819141 -0.024945374578238
-0.029070829972625 0.026014443486929 0.030014496296644 0.043087348341942 0.028002113103867 -0.002970005851239 -0.041384045034647 0.009534670040011 -0.013920686207712
-0.020233575254679 -0.050431143492460 -0.023228991776705 -0.036221195012331 -0.022271493449807 -0.010763296857476 -0.024284947663546 -0.035229474306107 -0.025887494906783
-0.033694062381983 -0.024702627211809 -0.006119195371866 -0.024618564173579 -0.014105935581028 0.015739453956485 0.041688259691000 0.063541799783707 0.074646197259426
-0.044083792716265 -0.022461976855993 0.016586821526289 -0.003507296554744 -0.030036166310310 0.022425847128034 0.060690693557262 0.039023157209158 0.044716585427523
-0.043369840830564 -0.025000762194395 -0.013546926900744 -0.018491413444281 -0.002552211051807 0.003929028753191 0.040911663323641 0.040623214095831 0.047103978693485
-0.007015938404948 0.002550356322899 0.011720184236765 0.016922738403082 0.026940705254674 0.012587359175086 -0.000317130121402 -0.032727453857660 -0.054548088461161
-0.040175445377827 -0.033461358398199 -0.016000544652343 -0.003804811509326 -0.008759333752096 -0.007741893641651 -0.009397452697158 -0.034639976918697 -0.041010785847902
-0.021520040929317 -0.009169871918857 0.017030371353030 0.001336322049610 0.008621066808701 0.003508150810376 -0.015319174155593 -0.015504608862102 -0.029283439740539
-0.045267730951309 -0.014881921932101 -0.008771524764597 -0.030397802591324 -0.026508176699281 0.003584782127291 0.044231921434402 0.043636135756969 0.063734799623489
0.025655023753643 -0.039511252194643 0.029959138482809 -0.029514256864786 -0.041977252811193 -0.021178539842367 0.008909858763218 0.023860329762101 0.010066039860249
-0.021877450868487 -0.012687645852566 -0.002772191772237 -0.022865097969770 0.005794521886855 -0.003012570785359 0.000490329344757 -0.005122149828821 -0.013369841501117
-0.050208445638418 -0.053497735410929 -0.007018963340670 -0.011963633820415 -0.018793543800712 0.007025484926999 0.003696337807924 0.006818286608905 0.025103833526373
-0.037802644073963 0.002394882962108 0.002707925857976 -0.018656153231859 -0.010432156734169 0.017479619011283 0.038935787975788 0.051024381071329 0.056461639702320
-0.094053201377392 -0.056766849011183 -0.044366002082825 -0.019919442012906 -0.020698193460703 -0.018312020227313 -0.026200553402305 -0.036007769405842 -0.072398729622364
-0.063357330858707 -0.015254165045917 0.000733760942239 -0.005602462682873 0.035183280706406 0.016493525356054 0.046279389411211 0.047212336212397 0.020137354731560
-0.027609894052148 -0.008840310387313 -0.015844687819481 -0.006470852997154 0.000814761733636 0.010711607523263 0.022069914266467 0.037508741021156 0.049128398299217
0.014120675623417 -0.013807462528348 -0.014592011459172 -0.022215195000172 -0.043712034821510 -0.005434438586235 0.021839130669832 0.023878935724497 0.028875442221761
-0.069627732038498 -0.031792249530554 -0.024170907214284 0.001037292880937 0.010238637216389 0.007033357862383 0.033864136785269 0.031162966042757 0.037563011050224
-0.096026554703712 -0.077174045145512 -0.021143762394786 -0.007555022370070 -0.022911222651601 0.010011088103056 0.011945642530918 0.016592375934124 0.032977722585201
-0.089601442217827 -0.068884544074535 -0.019527507945895 -0.008066524751484 0.011031949892640 -0.008025888353586 0.020177721977234 0.018058788031340 0.033013124018908
-0.040392134338617 -0.038407649844885 0.007227301597595 -0.010577450506389 -0.012807430699468 -0.018166052177548 0.032166659832001 0.010009292513132 0.024737609550357
-0.026345631107688 -0.008010487072170 0.012052526697516 -0.013966156169772 0.022859310731292 0.033481106162071 0.024860000237823 0.011820603162050 0.002571230055764
0.041645374149084 0.033655215054750 0.009715862572193 0.012580159120262 -0.005709388293326 0.001588438753970 0.037299823015928 0.030099008232355 -0.004755028989166
0.017531262710690 -0.001336358021945 -0.000287387520075 0.000843579240609 0.003307519014925 0.016129532828927 -0.024748144671321 -0.023593466728926 -0.036128509789705
-0.020163435488939 -0.018584122881293 -0.008889070712030 -0.032424680888653 -0.029281917959452 0.004616135731339 0.021150518208742 0.027344372123480 0.039607770740986
0.014702732674778 0.025586485862732 0.005688074510545 -0.009238081984222 -0.014009349979460 -0.010421510785818 -0.014134399592876 0.001292313216254 -0.009225356392562
-0.000425176811405 0.033089358359575 -0.010518391616642 -0.005099894944578 0.024090325459838 0.005533788353205 0.013482348993421 0.002099818550050 -0.050618138164282
-0.044313579797745 -0.005728165153414 -0.014850933104753 -0.013824510388076 -0.021828971803188 0.010414552874863 -0.010954150930047 0.011772843077779 0.008269931189716
0.014667312614620 0.001209423178807 0.015779186040163 -0.012586005032063 -0.011464601382613 0.017980560660362 0.025881331413984 0.026992712169886 0.008066267706454
-0.108680725097656 -0.078092120587826 -0.015098978765309 0.015556221827865 0.031885970383883 0.009411240927875 0.017203170806170 0.024054585024714 0.046541213989258
0.004078118130565 0.000302279222524 -0.016211729496717 -0.029411569237709 -0.026940172538161 -0.001282564247958 0.033864729106426 0.037063740193844 0.036862529814243
0.011296045035124 -0.006230096798390 0.010986840352416 -0.009386559017003 -0.014162153936923 0.031223103404045 0.053327202796936 0.036051586270332 -0.002082517370582
0.003046033205464 -0.005535016767681 0.014924865216017 -0.009764698334038 -0.011737634427845 0.020481055602431 0.017268097028136 -0.004581703804433 0.002698105294257
-0.060166645795107 -0.103645883500576 0.039797853678465 0.049422312527895 -0.044783648103476 0.004201207775623 0.007046593353152 0.013030999340117 0.055399771779776
-0.050145141780376 -0.040626969188452 -0.031294658780098 -0.038164608180523 -0.029837403446436 0.005299499724060 0.022703787311912 -0.016390379518270 -0.029314892366529
-0.031843226402998 -0.027915194630623 -0.029435824602842 -0.013059628196061 -0.007346571888775 0.015086778439581 0.047225162386894 0.067523024976254 0.073172189295292
0.002580834086984 -0.027619104832411 -0.033922918140888 -0.030842766165733 -0.085786111652851 -0.015586837194860 -0.000003895189820 0.031406603753567 0.038965985178947
-0.073428876698017 -0.038019359111786 -0.014038356021047 -0.025516945868731 -0.035970740020275 0.016731102019548 0.024527816101909 0.033171981573105 0.065458357334137
-0.066638492047787 -0.058355398476124 0.004613204859197 -0.001174344331957 -0.007355489768088 -0.014355694875121 -0.005923563148826 0.019783560186625 0.057167980819941
-0.070027291774750 -0.017559457570314 -0.012202355079353 0.010752937756479 0.009143433533609 0.012634706683457 0.006838876288384 0.028396559879184 0.039633523672819
-0.078099764883518 -0.045070074498653 -0.020351320505142 0.005119399633259 0.021845828741789 0.025237180292606 0.031612791121006 0.031362682580948 0.030907735228539
-0.022165346890688 -0.024161305278540 0.014019624330103 -0.003753133816645 0.019081270322204 -0.024995148181915 0.008935741148889 -0.005656833760440 -0.014091021381319
-0.056124128401279 -0.039888087660074 -0.005090593826026 -0.032672353088856 -0.021315852180123 -0.017319183796644 -0.011619987897575 0.028269292786717 0.036755125969648
-0.033284429460764 -0.023266898468137 -0.003547334577888 -0.004907384049147 0.000790707417764 0.000618212739937 0.001419569831342 -0.007240257691592 -0.018257470801473
-0.070066146552563 -0.060289774090052 -0.000974434486125 -0.019879924133420 -0.014026374556124 0.011985846795142 0.013446612283587 0.014314335770905 0.051642138510942
-0.070196032524109 -0.066878668963909 -0.013952095992863 0.004866513889283 0.005717528983951 0.025041719898582 0.022864025086164 0.037520218640566 0.040586594492197
-0.002210824051872 -0.018251033499837 -0.005194782279432 -0.029769998043776 -0.036844357848167 -0.014961148612201 0.023910362273455 0.058602452278137 0.061621282249689
0.013799459673464 -0.013952231965959 0.008219692856073 -0.040490925312042 -0.039892699569464 -0.024997130036354 0.011002290993929 0.015772847458720 0.033473640680313
-0.026225123554468 -0.020024232566357 -0.005175329279155 0.006564049515873 0.021904570981860 -0.012139098718762 -0.026522198691964 -0.063536405563354 -0.020190263167024
-0.028590830042958 -0.023678800091147 -0.023972226306796 -0.033837273716927 -0.019487516954541 0.018785187974572 0.040808349847794 0.073629297316074 0.087019868195057
-0.043010033667088 -0.021713428199291 0.001504291663878 0.004596275743097 0.004454710055143 0.007530513685197 0.037769619375467 -0.000428722007200 -0.024006601423025
-0.007337501738220 0.005134246312082 0.013832882978022 0.005084038246423 -0.005609630141407 -0.008333345875144 0.023329712450504 0.005233477335423 0.016896232962608
0.037995379418135 0.020708378404379 0.014648507349193 -0.006424724124372 -0.009741995483637 -0.010415654629469 -0.012975087389350 -0.036015626043081 -0.044050034135580
-0.065752878785133 -0.045781157910824 -0.007356836926192 -0.023800302296877 -0.020944656804204 -0.001343385782093 0.007985987700522 -0.020856879651546 0.013505531474948
0.027536807581782 -0.015567958354950 0.017111213877797 -0.004763606004417 -0.038576483726501 -0.022894214838743 0.016901956871152 0.026751764118671 0.006943955086172
-0.006985628046095 -0.027982385829091 -0.018283655866981 -0.000041188377509 -0.003696062369272 0.013746187090874 0.019810141995549 0.002766290446743 0.033198960125446
-0.090330064296722 -0.064221128821373 -0.017971638590097 -0.007761178072542 -0.020992534235120 0.004539214540273 0.033933535218239 0.022106487303972 0.048612836748362
-0.001196551485918 -0.034072875976562 -0.032400034368038 -0.046696759760380 -0.052644893527031 -0.006862903013825 -0.022172261029482 -0.021256271749735 -0.036966692656279
-0.005209244787693 0.000119590033137 0.010594883002341 0.005376418121159 -0.003946392796934 -0.002049755537882 0.004160003270954 0.001441631931812 -0.005082964431494
0.017021169885993 -0.026858456432819 -0.006474110763520 -0.031673174351454 -0.039234593510628 -0.009463135153055 -0.008867533877492 -0.021999947726727 -0.016214655712247
-0.038160216063261 -0.024624289944768 0.026354668661952 -0.010417339392006 0.018672697246075 -0.008290914818645 0.022320667281747 -0.029334919527173 -0.039396390318871
-0.044711556285620 -0.017575656995177 -0.030962888151407 -0.030812339857221 -0.027078785002232 0.006026171147823 0.048336774110794 0.054530046880245 0.074415639042854
-0.013811857439578 0.001995790749788 0.009900082834065 0.009643428958952 0.008934763260186 -0.024976836517453 -0.019753133878112 -0.022023357450962 -0.042759906500578
-0.098058640956879 -0.060917280614376 -0.021396603435278 -0.012510623782873 -0.008325167000294 0.017543630674481 0.018779048696160 0.026125049218535 0.042312923818827
-0.049042273312807 -0.024641320109367 -0.012765201739967 -0.002586840419099 -0.016627214848995 0.009723816066980 0.043474636971951 0.054906133562326 0.084063172340393
0.011065112426877 0.004619061481208 0.013673856854439 -0.000333654345013 -0.004194200504571 0.023279195651412 0.040786761790514 0.037892483174801 0.034716114401817
-0.057378817349672 -0.021539231762290 -0.017751783132553 -0.022345764562488 -0.004359943326563 0.020682340487838 0.026184434071183 0.037027522921562 0.049692161381245
-0.099788315594196 -0.063221119344234 -0.013171521946788 0.007579655852169 -0.040375459939241 -0.006926776375622 0.015341025777161 0.022735036909580 0.050399579107761
-0.018351450562477 -0.029928710311651 -0.032813549041748 -0.015667930245399 0.014417088590562 0.021671194583178 0.013798706233501 0.009617571718991 0.014374161139131
-0.039635654538870 -0.022705905139446 -0.007028393447399 -0.019414424896240 -0.022955428808928 0.011376719921827 0.045682527124882 0.070086985826492 0.051298782229424
-0.013900564052165 -0.011043018661439 -0.016135167330503 -0.034179579466581 -0.035169225186110 -0.017482874915004 0.025167550891638 0.024413647130132 0.035202778875828
-0.067761786282063 -0.053393196314573 -0.025816904380918 -0.007951104082167 -0.004058243241161 0.012283026240766 0.034525729715824 0.023214546963573 0.048377726227045
-0.013828834518790 -0.018386980518699 -0.014237371273339 -0.036995317786932 -0.035311743617058 -0.005464931018651 -0.020228022709489 -0.006685984786600 -0.029786217957735
0.005246484186500 -0.027547026053071 0.001208775094710 -0.026362175121903 -0.031743142753839 -0.002489297650754 0.027622723951936 0.035103548318148 0.042412657290697
-0.025136249139905 -0.022552259266376 -0.008738188073039 -0.016151282936335 -0.003671509679407 -0.001052991836332 0.024789916351438 0.044174738228321 0.043265979737043
-0.025652186945081 -0.028563110157847 0.036911629140377 0.015373932197690 -0.019354887306690 0.003574099158868 0.016672408208251 0.031550664454699 0.030154345557094
-0.001699127140455 -0.020021852105856 -0.004771663341671 -0.024798460304737 -0.025600256398320 -0.009378897026181 -0.011527490802109 0.029965242370963 0.033063322305679
-0.022029608488083 -0.023010810837150 -0.004967475775629 -0.009096715599298 0.008348464965820 -0.015440932475030 -0.003453675424680 -0.024491885676980 -0.011211276985705
-0.018882587552071 -0.017525060102344 -0.001004630816169 -0.000836494553369 0.037726428359747 0.008205506019294 0.027830554172397 0.002349810209125 -0.004092861432582
-0.006242894567549 -0.011317946948111 0.006604958791286 -0.026011381298304 -0.047012336552143 0.004265711642802 0.001732590841129 0.013878894038498 0.003368531120941
-0.076070763170719 -0.031984947621822 0.005249403417110 -0.026606213301420 -0.019730096682906 0.011105538345873 0.015979303047061 0.032687604427338 0.046702109277248
-0.056406542658806 -0.028022367507219 -0.012492543086410 -0.032121051102877 -0.015309237875044 0.010944074951112 0.026649868115783 0.037185072898865 0.075993195176125
-0.076523236930370 -0.027770690619946 0.012288141995668 -0.004554783459753 0.030637016519904 -0.030941579490900 -0.001599166425876 -0.024870548397303 -0.013492881320417
-0.115677289664745 -0.056212443858385 -0.038737710565329 -0.007289170753211 0.008269334211946 0.033721398562193 0.019878679886460 0.039605777710676 0.036255173385143
-0.023268288001418 -0.047537788748741 -0.035962827503681 -0.012838028371334 -0.000155122892465 0.028732061386108 0.034022402018309 0.002078694058582 -0.011039811186492
0.053646698594093 0.027114411816001 0.021167851984501 0.013862425461411 0.006543251220137 -0.005293650086969 0.034422695636749 0.009117114357650 -0.012967608869076
-0.017326980829239 -0.028982965275645 -0.027703326195478 -0.024148795753717 -0.018362488597631 0.014096822589636 0.021613383665681 0.054319418966770 0.056333169341087
-0.070599645376205 -0.049130801111460 -0.005119863897562 -0.029794653877616 -0.032348923385143 0.003148298012093 0.011534610763192 0.032313216477633 0.059090364724398
-0.066166818141937 -0.041670713573694 -0.017809193581343 -0.021319357678294 -0.030571259558201 0.005679822061211 0.003318124916404 0.048263464123011 0.058730557560921
-0.032537709921598 -0.006245767232031 -0.014769366942346 0.001155816251412 0.006684261374176 0.002977388910949 0.005817182827741 0.008390636183321 -0.002524195238948
-0.039315268397331 -0.004993222188205 -0.011449362151325 -0.014943344518542 -0.002335697412491 0.010848092846572 0.027230517938733 0.027093581855297 0.043042447417974
-0.067162550985813 -0.051083527505398 -0.019063536077738 -0.037086561322212 -0.018445499241352 0.007705917116255 0.027515592053533 0.039213150739670 0.060794889926910
-0.011420832015574 -0.006421920843422 0.014301948249340 -0.011040771380067 -0.022955618798733 -0.003014695364982 -0.003329540835693 -0.014164435677230 -0.007807478308678
-0.086113959550858 -0.039888225495815 -0.020696040242910 0.003025619778782 -0.015818981453776 0.012271340936422 0.029467090964317 0.040143001824617 0.065575256943703
-0.010245319455862 -0.028109850361943 -0.003623328637332 -0.033064320683479 -0.022608967497945 -0.037726759910583 -0.026506327092648 -0.039897076785564 -0.036010086536407
-0.049232542514801 -0.034035176038742 -0.011451417580247 -0.027781408280134 -0.000411874818383 0.023770811036229 0.021944990381598 0.036929842084646 0.061276316642761
-0.062880337238312 -0.061863660812378 -0.003457018407062 0.005871648900211 -0.020389078184962 0.026572216302156 0.010132882744074 0.024998407810926 0.028105907142162
-0.039390470832586 -0.012278392910957 -0.019979685544968 -0.011991977691650 -0.005203269887716 0.002075975062326 0.035588011145592 0.040897000581026 0.059225294739008
-0.050237838178873 -0.074000373482704 -0.019591404125094 -0.023879220709205 -0.021322567015886 -0.017586385831237 -0.014869536273181 0.022539846599102 0.044251576066017
-0.031132472679019 -0.034754633903503 -0.030533699318767 -0.030445553362370 -0.033638540655375 0.011513499543071 0.024231631308794 0.046048015356064 0.059412818402052
-0.038313150405884 -0.026476889848709 -0.021145921200514 -0.020410388708115 -0.017607375979424 0.022398680448532 0.038748428225517 0.052261307835579 0.075058832764626
0.005568156950176 -0.025949949398637 -0.011308849789202 -0.030342403799295 -0.052529528737068 -0.045472394675016 -0.051743581891060 -0.069908104836941 -0.036503206938505
-0.070042148232460 -0.045190677046776 -0.017628407105803 -0.004813719075173 0.007324529811740 0.013781688176095 0.052301038056612 0.061304472386837 0.082652881741524
-0.037358526140451 -0.028397634625435 -0.010891815647483 -0.036115266382694 -0.027494542300701 -0.006675223354250 0.010615223087370 0.049694407731295 0.067748285830021
0.026883224025369 0.022971345111728 0.015747409313917 0.008426032960415 0.019599534571171 -0.003535709576681 -0.022673293948174 -0.027686057612300 -0.056456822901964
-0.009781728498638 -0.028987716883421 0.011710255406797 -0.013603411614895 -0.021967150270939 -0.020818768069148 -0.019220503047109 -0.020084228366613 -0.003943508956581
0.017179651185870 -0.080486662685871 0.034686900675297 0.069631397724152 -0.046365626156330 -0.020741876214743 -0.002996072173119 -0.069447852671146 0.008762530982494
-0.031598608940840 -0.004880831576884 0.001656439504586 0.002111967885867 0.015074052847922 0.008673409000039 -0.003906134283170 -0.028581485152245 -0.054880999028683
-0.008105498738587 -0.000144569348777 -0.014627693220973 -0.007271363399923 0.006662219762802 0.006588488351554 0.024911353364587 0.012059991247952 0.000370968278730
-0.028254548087716 -0.019048422574997 -0.015609675087035 -0.019034203141928 -0.009453161619604 0.010705326683819 0.022904029116035 0.048763789236546 0.065831772983074
-0.071347072720528 -0.024814076721668 -0.032034486532211 -0.019656781107187 -0.004062621854246 0.023692319169641 0.036609072238207 0.054244294762611 0.079314380884171
-0.000256664818153 -0.023848881945014 0.014027467928827 -0.001196542871185 -0.022360915318131 0.014224072918296 -0.015790028497577 -0.011860412545502 -0.026664482429624
-0.051609352231026 -0.045390073210001 -0.029933100566268 -0.010420522652566 -0.005507082212716 0.014683934859931 0.019730793312192 0.029488924890757 0.047772485762835
-0.022941147908568 0.014895631931722 -0.052025049924850 -0.062412206083536 0.040743596851826 -0.039759643375874 0.027956249192357 0.110152095556259 0.046316333115101
-0.016931522637606 -0.042186390608549 -0.007887654006481 0.012702384032309 0.021693922579288 0.011226653121412 -0.001832477166317 0.003215419128537 0.015653243288398
-0.063322491943836 -0.050128977745771 -0.017108740285039 -0.024681720882654 0.006418443750590 0.006123939529061 0.028989933431149 0.034620985388756 0.053800728172064
0.043805953115225 0.023672198876739 -0.013080299831927 -0.023231988772750 0.001104725990444 0.000312169111567 0.001026483951136 -0.026680618524551 -0.055649492889643
0.018381910398602 0.009709017351270 0.001006787992083 -0.002494219923392 -0.006944552063942 0.025088950991631 -0.014501975849271 -0.049531865864992 -0.039262529462576
-0.040230415761471 -0.033612672239542 -0.021712878718972 -0.023319652304053 0.005053130444139 -0.000635949603748 0.043639197945595 0.038759399205446 0.068987451493740
-0.059031989425421 -0.046922229230404 -0.002807393902913 -0.008595689199865 -0.004018156789243 0.026220785453916 0.012788370251656 0.036923680454493 0.037228826433420
-0.049192644655704 -0.032252557575703 -0.021817915141582 -0.018421802669764 -0.019721357151866 -0.019374817609787 0.019898029044271 0.005703694187105 0.007505352143198
0.004714389331639 -0.024358581751585 -0.016189116984606 -0.033180560916662 -0.024668082594872 -0.006756308022887 -0.016362950205803 -0.045343436300755 -0.026582133024931
-0.006556299980730 -0.014012460596859 -0.006864984985441 0.024273669347167 0.025549076497555 -0.014933486469090 0.002957505173981 -0.018920410424471 -0.021831173449755
-0.024776585400105 -0.014329117722809 -0.009028329513967 -0.033410552889109 -0.016560479998589 0.014218655414879 0.051367655396461 0.066651776432991 0.078291572630405
0.054958447813988 0.031713392585516 0.014318697154522 0.021930124610662 0.008422529324889 -0.004371087532490 0.028608135879040 -0.018287267535925 -0.018062395974994
-0.070706933736801 -0.033791612833738 -0.027998546138406 -0.022446809336543 0.002249567070976 0.013948273845017 0.019840106368065 0.035419691354036 0.054931242018938
-0.083555541932583 -0.041375752538443 -0.028920851647854 -0.026006693020463 0.004470258019865 0.019272811710835 0.020705476403236 0.047034580260515 0.042777732014656
-0.018370261415839 -0.018674103543162 -0.015655383467674 -0.022306276485324 -0.006192560773343 0.011697130277753 0.037147242575884 0.034467216581106 0.033625897020102
0.011259258724749 0.020296953618526 -0.004839821252972 -0.032021865248680 -0.005383119452745 0.002787084085867 -0.034192308783531 -0.047437876462936 -0.049072906374931
-0.029807984828949 -0.028021670877934 -0.027630476281047 0.013956239446998 0.008358912542462 0.002723884768784 -0.011825569905341 -0.015767620876431 0.025416238233447
-0.004635565448552 0.007080420851707 0.006772908382118 0.002963955048472 0.002869775751606 0.012892171740532 -0.001402689376846 -0.015762196853757 -0.007990913465619
-0.040974300354719 -0.037566721439362 -0.016071809455752 0.008476840332150 -0.020064804702997 -0.003424067050219 -0.019891954958439 -0.019279241561890 0.006880048196763
-0.048742737621069 -0.018981330096722 -0.036171618849039 0.000069993613579 -0.021174525842071 -0.027335509657860 -0.034585066139698 -0.040348090231419 -0.025969700887799
-0.024841403588653 0.009246659465134 -0.000647584791295 -0.007643283344805 0.007189747877419 0.010355184786022 0.014473519288003 0.013833967968822 0.030212271958590
-0.033922743052244 -0.008724737912416 -0.014255543239415 0.011033428832889 0.005053863395005 0.017781611531973 0.001809590728953 -0.001240423182026 -0.016531050205231
-0.000565710128285 0.012866451404989 0.010932986624539 0.002791295293719 0.006169496569782 0.010434134863317 -0.008381468243897 0.008596295490861 0.019154917448759
-0.017041077837348 -0.007314345333725 -0.000583249027841 0.017585463821888 -0.003479538718238 -0.001377861131914 -0.006728034466505 -0.002186760073528 0.002127105835825
-0.017211513593793 -0.002979890443385 -0.020838681608438 -0.034000884741545 -0.005674437619746 -0.014609729871154 -0.002810206264257 0.017528422176838 0.060405265539885
-0.004548356868327 0.001851292327046 -0.011152948252857 -0.014661743305624 -0.011729109100997 -0.030659275129437 -0.026782026514411 -0.026076655834913 -0.018285214900970
-0.022791296243668 -0.009948732331395 -0.028945634141564 -0.011941468343139 -0.023720182478428 -0.026430390775204 -0.028690310195088 -0.021810473874211 -0.022052135318518
-0.001113998005167 0.009193283505738 0.013225356116891 0.014012570492923 0.013276507146657 0.008976819925010 0.011665875092149 -0.006219295784831 0.001857483875938
-0.017123511061072 0.007522910367697 0.033677496016026 0.014583706855774 0.017088491469622 -0.007406524848193 0.030157094821334 0.018191564828157 0.016585469245911
-0.024323401972651 0.007896573282778 0.009159686043859 0.062060724943876 0.021246187388897 0.022753290832043 0.043306492269039 0.002838202286512 -0.010415164753795
-0.038421496748924 -0.014585218392313 0.002980964956805 0.013113377615809 -0.001656547421589 -0.016157178208232 0.020099725574255 0.011295604519546 0.032132022082806
0.012177346274257 0.009864421561360 0.021224148571491 0.030269695445895 0.009127110242844 0.020457122474909 -0.002963454928249 -0.005836019758135 -0.011133578605950
-0.019843079149723 -0.009215136989951 -0.003696396946907 0.004486297722906 -0.004034914541990 -0.015751587226987 -0.021788029000163 -0.019861448556185 -0.017922071740031
-0.018239948898554 -0.004194614943117 -0.011903768405318 -0.002760523464531 0.022208167240024 0.034774411469698 0.005301748402417 -0.007657452020794 -0.029140880331397
-0.009314141236246 -0.009896893054247 -0.001114593469538 -0.006685981526971 0.018496347591281 0.011296036653221 0.014995220117271 -0.001065876800567 -0.018616359680891
-0.033360909670591 -0.027518542483449 -0.007420924492180 -0.020072957500815 -0.010449523106217 -0.011135700158775 -0.020541204139590 -0.004351149778813 -0.010953241959214
0.005217034369707 -0.013029411435127 -0.022608861327171 -0.027850836515427 -0.022448627278209 -0.010863766074181 -0.034467492252588 -0.019209381192923 -0.000802278635092
-0.028063589707017 -0.025788301602006 -0.032402761280537 -0.031205207109451 -0.025305656716228 -0.038921833038330 -0.022370859980583 -0.027922822162509 0.013256815262139
-0.020785709843040 0.005660864058882 -0.002167087281123 0.002405237639323 -0.000736373709515 -0.039041873067617 -0.020225070416927 -0.013905725441873 0.006392434705049
-0.021751256659627 -0.022421773523092 -0.021338332444429 -0.001280921162106 -0.010897521860898 -0.019914317876101 0.001063873060048 -0.000959579308983 -0.006513251457363
0.021654430776834 0.043503724038601 0.044266767799854 0.030113901942968 0.040113486349583 0.056190859526396 0.054570563137531 0.062512658536434 0.042395286262035
-0.005166257731616 -0.026766207069159 -0.040292371064425 -0.040126800537109 -0.016288056969643 -0.023163501173258 -0.019130501896143 -0.030972776934505 -0.020491801202297
0.004603491164744 0.031632471829653 0.029350068420172 0.014841272495687 0.001598081202246 0.045792080461979 0.020277213305235 0.036689002066851 0.017362155020237
-0.049604836851358 -0.015580647625029 -0.007591580506414 0.017857233062387 0.013738725334406 0.007742068730295 -0.019988480955362 -0.024105077609420 -0.021216955035925
-0.029750371351838 -0.039725948125124 -0.032009392976761 -0.026179799810052 -0.002989234635606 -0.000483429990709 -0.009487178176641 -0.012769533321261 -0.056377895176411
-0.028603099286556 -0.005589989013970 -0.028736408799887 -0.007713145576417 0.000882813241333 -0.023758122697473 -0.013234410434961 -0.023669326677918 -0.028320249170065
-0.027320643886924 -0.047585662454367 -0.013018570840359 0.026429742574692 0.022190274670720 0.014119652099907 -0.024386027827859 -0.028042403981090 -0.024958122521639
0.009112904779613 0.009744979441166 0.000834708160255 0.018450284376740 0.021076759323478 0.032311853021383 0.022848576307297 0.022795731201768 0.035434849560261
-0.029214590787888 -0.019611231982708 -0.035625822842121 -0.020314389839768 0.027630781754851 0.014444659464061 -0.005305463448167 -0.049063749611378 -0.009832195937634
-0.009767940267920 0.001381504000165 -0.018837556242943 -0.003350738668814 -0.003274674760178 -0.002951937261969 -0.009882396087050 -0.010546689853072 0.012114658020437
-0.010370178148150 -0.008618867024779 -0.015792539343238 -0.004780104383826 -0.012691551819444 -0.016538193449378 -0.001310601830482 -0.009300124831498 -0.019422370940447
-0.057277053594589 -0.029619075357914 0.004623486660421 0.008079321123660 0.012098154053092 0.013167000375688 -0.008315059356391 0.021256173029542 0.014242202974856
0.003983860369772 0.006190803833306 -0.011802842840552 0.014793125912547 -0.017134422436357 0.003847881685942 0.003771532326937 -0.006788650061935 -0.008017727173865
-0.000883690605406 -0.004879490472376 0.011880140751600 0.017175769433379 0.003124153241515 0.023411162197590 0.009870100766420 0.015146781690419 0.027458600699902
0.016823543235660 0.001307316590101 -0.010015077888966 -0.004623379092664 -0.001822993042879 0.012579873204231 0.006533574312925 0.005020590033382 0.010154003277421
0.015265076421201 0.014272983185947 0.007312671281397 0.016121152788401 0.001191798481159 0.016052046790719 0.015315109863877 0.010024624876678 0.004315997473896
-0.027357270941138 -0.003732784418389 0.005155805032700 0.009946288540959 0.006983138155192 0.022264454513788 0.011384240351617 -0.005918116774410 -0.002625382971019
-0.013633941300213 -0.007973616942763 -0.009624148719013 -0.001527390559204 0.007790313567966 0.002095783129334 0.002302875975147 -0.000392269605072 -0.000439785042545
-0.001198968617246 -0.012160191312432 0.005186689086258 0.010789214633405 0.018563875928521 0.020961327478290 0.013393819332123 0.017028110101819 0.004039266146719
-0.015523361973464 -0.020029444247484 -0.005814275704324 -0.015217024832964 -0.002313296310604 -0.003825596300885 -0.006936212070286 -0.028871843591332 -0.012189183384180
0.001222786842845 -0.017016204074025 -0.005088378209621 -0.003239989280701 0.015477849170566 0.021960726007819 0.026626758277416 -0.006206152494997 -0.018691187724471
-0.046502441167831 -0.016282970085740 -0.014941279776394 0.003926845267415 -0.006847369484603 -0.001987332710996 0.011612251400948 0.012581288814545 -0.012623800896108
-0.029595587402582 -0.021406868472695 -0.002628791378811 -0.013971484266222 -0.017021287232637 -0.002135656075552 -0.004165849648416 -0.006536614615470 -0.000139654075610
0.017650756984949 0.006653470452875 0.003902797587216 0.005164702888578 -0.002617263235152 -0.017406584694982 -0.007500149775296 -0.021815897896886 -0.015851309522986
-0.009219359606504 0.006403846666217 -0.017822002992034 -0.004248276352882 0.008639464154840 -0.011684691533446 -0.002927447436377 -0.018717771396041 -0.000460418872535
-0.018892277032137 -0.014454655349255 -0.023304527625442 -0.024261012673378 -0.012704137712717 -0.007957926951349 -0.033540461212397 -0.034004624933004 -0.021409662440419
0.034895390272141 0.052668623626232 0.029383210465312 0.038247667253017 0.056886844336987 0.035557735711336 0.060521483421326 0.043144922703505 0.045022655278444
0.005300634540617 -0.011108674108982 -0.009439633227885 0.003092468483374 0.007141981739551 0.003174989484251 -0.000572393648326 -0.000971045636106 0.018523588776588
-0.021232690662146 -0.012632599100471 -0.015675943344831 -0.004755637142807 -0.008007438853383 -0.014748350717127 -0.038631010800600 -0.005664878990501 -0.025147167965770
-0.013514150865376 0.002316950587556 0.017293095588684 0.029037084430456 0.000023795120796 -0.005569974891841 -0.002255632309243 0.032526656985283 0.027551515027881
-0.038514591753483 -0.018060708418489 -0.035448338836432 -0.026501126587391 -0.010460417717695 0.011473823338747 -0.007786416914314 -0.026947099715471 -0.040332961827517
-0.000462925643660 -0.009958820417523 -0.006739766802639 -0.011828100308776 -0.006333847530186 0.021896814927459 0.009120561182499 -0.008992805145681 -0.007694827858359
-0.009644970297813 -0.010530734434724 0.013177401386201 0.023112198337913 -0.008025174960494 0.015100748278201 -0.007628816645592 0.003462664783001 -0.011955062858760
0.023248599842191 0.021492812782526 0.015117085538805 0.008558816276491 0.039227534085512 0.064824223518372 0.056130964308977 0.059801194816828 0.063001155853271
-0.001689459197223 0.014545253477991 0.023440176621079 0.019180171191692 0.002260360168293 0.014423803426325 0.016952974721789 0.016044968739152 -0.013290265575051
-0.011982021853328 -0.025700418278575 -0.001203174702823 0.004261672496796 0.009691469371319 -0.008730578236282 -0.006887390743941 -0.022153392434120 -0.023683736100793
-0.019518181681633 -0.041015028953552 -0.030211511999369 -0.043544448912144 -0.028194278478622 -0.038910076022148 -0.027964396402240 -0.028988867998123 -0.022371882572770
-0.033415108919144 -0.019349316135049 0.000478791480418 0.010903663933277 0.012415636330843 0.019021376967430 0.003018426476046 0.013903684914112 0.018046230077744
-0.000149969651829 -0.001820394769311 -0.007805324159563 -0.008356240577996 -0.007112416904420 0.005239422898740 0.017292691394687 0.002348699141294 -0.003208764130250
-0.022458568215370 -0.003227837150916 -0.017938800156116 -0.003466614056379 -0.009877214208245 0.015082103200257 0.003321085823700 -0.010856001637876 -0.012728835456073
-0.041092403233051 -0.021309688687325 -0.019454341381788 0.024948637932539 0.027106951922178 0.021954979747534 -0.001846678787842 0.011612766422331 0.006001747213304
0.006018015090376 0.006103219464421 0.018812676891685 0.002536883112043 0.007992431521416 0.006185901351273 0.003550374181941 0.027928693220019 0.016187824308872
-0.010776695795357 -0.001872282358818 -0.019455935806036 -0.014791336841881 0.008803776465356 0.017536712810397 0.018614975735545 0.006499030627310 -0.002452261047438
0.029557935893536 0.032663866877556 0.054306205362082 0.076349616050720 0.048235598951578 0.058901842683554 0.054225884377956 0.036148350685835 0.028723020106554
-0.009839545935392 0.021330343559384 0.013873267918825 0.006056781392545 0.006431821268052 0.009616754017770 0.003835749579594 -0.003267251886427 0.002194981090724
0.005474683362991 -0.000183318727068 0.015051355585456 0.021982641890645 0.005226919893175 0.028232006356120 0.006045287009329 -0.011956913396716 0.004229182377458
-0.024496775120497 0.003975842148066 -0.003428145777434 -0.000578973384108 -0.000170475148479 0.009610767476261 -0.025658864527941 -0.004695297218859 0.002657460048795
-0.011232488788664 0.013731905259192 0.012634054757655 0.015099126845598 0.026639545336366 0.024212308228016 -0.006439208053052 0.003681602189317 0.017900340259075
0.010451912879944 0.010525114834309 0.014330939389765 0.026827650144696 0.003438701154664 0.008800359442830 -0.001461118226871 -0.001869635423645 0.008899357169867
0.053459495306015 0.058682322502136 0.056596759706736 0.044106941670179 0.041960224509239 0.086707107722759 0.067376568913460 0.076517872512341 0.061250083148479
-0.029271151870489 -0.016827063634992 -0.017786042764783 0.011675667017698 0.007164473179728 0.013431552797556 0.008316055871546 -0.013221901841462 0.014624220319092
-0.007872551679611 0.007403180003166 0.005249837413430 0.003475787350908 -0.004463392309844 -0.004121685866266 0.000347218679963 0.001648115692660 0.015429706312716
-0.007600597571582 -0.003315757494420 -0.002079213270918 -0.014341486617923 -0.014534250833094 -0.021523166447878 -0.025815326720476 -0.011745817027986 -0.014345239847898
-0.044957011938095 0.000599552120548 0.000581729342230 0.011325608938932 0.005593172274530 0.019860319793224 -0.004886396229267 -0.019811362028122 -0.016528245061636
0.017514856532216 0.014436447061598 -0.003935377579182 0.012235960923135 0.016303712502122 -0.002078413031995 -0.003606924554333 -0.002823268994689 -0.024164253845811
-0.011970926076174 -0.008468518033624 -0.021443849429488 -0.011499141342938 -0.001101039815694 0.001541346777231 -0.002638445002958 0.006630293093622 -0.006388683337718
-0.009131059050560 0.009077103808522 0.006480209063739 -0.005476322956383 -0.003262130077928 0.006529513280839 0.005605158861727 0.000086919142632 0.022582927718759
-0.067016482353210 -0.028349619358778 -0.020792158320546 -0.018763504922390 -0.014163351617754 -0.028737472370267 -0.030887832865119 -0.039494533091784 -0.029929928481579
0.010563519783318 0.007323455996811 0.016660016030073 0.021761262789369 -0.001973252044991 -0.007523508742452 0.003729537129402 0.008901312947273 0.002433180343360
-0.042565912008286 -0.019216611981392 -0.002692455193028 0.029724637046456 -0.001281843753532 -0.006783923599869 0.004535930696875 0.004791572224349 0.006083037704229
-0.047836855053902 -0.031180158257484 -0.036486223340034 -0.024381620809436 -0.037125930190086 -0.042274512350559 -0.009229178540409 -0.019908754155040 0.004432923160493
-0.000965268933214 -0.017554610967636 -0.002141053555533 0.001008963561617 -0.025658192113042 0.010052589699626 -0.005497830454260 -0.003280850360170 -0.008743206970394
-0.034605812281370 -0.029984345659614 -0.022261139005423 -0.009641880169511 -0.006499179638922 0.001014495734125 -0.005522232502699 -0.011424278840423 -0.006172752007842
-0.004495382308960 -0.000181136390893 -0.005316780414432 -0.002028885530308 -0.005551253911108 -0.010170095600188 0.005876874085516 -0.016821047291160 -0.013156129047275
0.004520077724010 -0.006497999653220 -0.009631640277803 -0.006573093589395 -0.008965439163148 -0.014490002766252 -0.016781307756901 -0.009714555926621 -0.018805177882314
-0.011304496787488 -0.003067428013310 -0.015624186955392 -0.005360435228795 -0.011441406793892 -0.001622379175387 -0.000518377521075 0.007414862513542 0.008063705638051
-0.021389707922935 -0.001594736590050 -0.019634546712041 0.000625543994829 0.001250993227586 -0.007504362612963 -0.021924426779151 -0.008339376188815 -0.007674616761506
0.052233990281820 0.043666284531355 0.040957044810057 0.052734460681677 0.045269556343555 0.044333223253489 0.044279906898737 0.073986940085888 0.051953431218863
-0.005746480543166 -0.017241029068828 -0.009249002672732 -0.007889008149505 -0.016174381598830 -0.014789718203247 0.009440627880394 0.002366856671870 0.000822244270239
-0.001764317741618 -0.011349190026522 -0.000901397550479 0.002091358648613 -0.002646636916324 -0.008415598422289 0.013823437504470 -0.007647475227714 -0.017265137284994
-0.013115041889250 -0.000069290006650 -0.000353766576154 0.009830983355641 -0.006306578405201 0.008853918872774 -0.010230437852442 0.017392633482814 0.008648403920233
-0.002446958562359 -0.021488577127457 -0.008665751665831 -0.003660480258986 -0.008513021282852 0.025845754891634 -0.002743733813986 -0.017806049436331 -0.015331710688770
-0.009149405173957 0.000226799325901 -0.017268491908908 -0.002010854659602 0.019718967378139 0.000021477886548 0.006975779775530 0.012469923123717 -0.000732771586627
-0.045665170997381 -0.062359493225813 -0.039877776056528 -0.016608539968729 -0.010977464728057 -0.004257374908775 -0.010203120298684 -0.011512589640915 -0.033996108919382
-0.021787477657199 -0.003513946197927 -0.001522942213342 0.009419446811080 0.006949589587748 -0.004411227069795 0.012950576841831 0.001601442927495 -0.012232491746545
-0.002408151747659 -0.012530730105937 0.011092036962509 0.014258423820138 -0.015068481676280 -0.005966857075691 -0.028592925518751 -0.024801852181554 -0.019879821687937
0.020572349429131 0.016026239842176 0.009076831862330 0.028581274673343 0.022464195266366 0.019065242260695 0.007680584676564 0.037119440734386 0.031855214387178
-0.009252833202481 -0.006127175875008 0.001937277498655 0.000703734054696 0.001985830487683 0.006300535984337 -0.000434538436821 0.001498804311268 -0.015239820815623
0.004064809530973 0.006241936236620 0.008229718543589 0.029421541839838 0.014862922020257 0.015206901356578 0.013931422494352 0.009192522615194 0.023240327835083
0.003509561298415 0.029848156496882 0.010999973863363 0.018585195764899 0.005451631732285 -0.010499585419893 0.004458030220121 0.018916051834822 0.018093956634402
-0.041084736585617 -0.024817813187838 -0.007622029632330 -0.015187461860478 -0.015695339068770 -0.010717879980803 -0.036234021186829 -0.028744081035256 -0.022876134142280
-0.037020988762379 -0.040273547172546 -0.023123722523451 -0.020086752250791 -0.035702727735043 -0.025091646239161 0.003531268332154 0.001178712933324 -0.012206238694489
-0.018209513276815 -0.014227617532015 0.010227047838271 0.010020126588643 -0.000335584394634 -0.013584884814918 -0.011930639855564 0.006188609637320 0.000178235277417
0.037098344415426 0.024296363815665 0.051152490079403 0.036032047122717 0.060264635831118 0.077608838677406 0.051779814064503 0.051518484950066 0.056012712419033
-0.024307603016496 -0.014327299781144 -0.018447425216436 0.017691247165203 -0.016762120649219 -0.016098747029901 -0.022990817204118 -0.000369168352336 -0.008096198551357
-0.027060875669122 -0.021397789940238 -0.020525451749563 -0.031218292191625 -0.025480626150966 -0.032826252281666 -0.024344850331545 -0.014284761622548 -0.021897820755839
-0.007844989188015 -0.030451746657491 -0.020584927871823 -0.022500876337290 -0.005453960970044 0.000880131963640 -0.010981210507452 -0.007812315598130 0.009398529306054
0.021057739853859 0.000480239425087 0.017704227939248 0.015634758397937 -0.005422026384622 -0.005721100606024 0.015359504148364 0.008005943149328 0.010389314033091
0.011410487815738 0.016716761514544 0.015970008447766 0.008631237782538 -0.015709165483713 -0.020815992727876 -0.008229466155171 -0.048648856580257 -0.064003042876720
-0.038335222750902 -0.018800707533956 -0.027246270328760 -0.019171983003616 -0.027606828138232 -0.021796343848109 -0.013346450403333 -0.027031011879444 0.001399036729708
0.035490475594997 0.024946313351393 0.021326668560505 0.019862020388246 0.005182888358831 0.032603852450848 0.030973872169852 0.024873385205865 0.040538556873798
-0.008831401355565 -0.026237711310387 -0.011041332967579 -0.006943377666175 -0.019772699102759 -0.008782319724560 -0.008264097385108 -0.013579031452537 -0.025620887055993
-0.020499922335148 -0.033767390996218 -0.015730654820800 -0.007521279621869 -0.026236804202199 -0.006039604078978 -0.029650963842869 -0.021173238754272 -0.027939978986979
-0.016918547451496 -0.003565806429833 -0.009524259716272 0.001897206180729 -0.006737096235156 -0.002729774452746 0.003726177383214 0.005182347726077 -0.000795678235590
0.019101418554783 0.008667081594467 0.001304953591898 0.022633926942945 -0.003269515000284 0.013877769932151 0.003153423313051 -0.007540250197053 0.005437361076474
-0.018490755930543 -0.007284042425454 -0.006698898971081 -0.005099279806018 -0.010771145112813 0.006936324760318 -0.014723313972354 -0.003946932498366 -0.003628047881648
-0.013765688985586 -0.026525735855103 -0.020608924329281 0.003142902627587 -0.016126168891788 0.016916466876864 -0.004609117750078 0.007586891762912 -0.000010059296073
-0.018865413963795 0.006305284798145 -0.012151266448200 -0.014845186844468 0.007460351102054 -0.003091935301200 0.004478840623051 -0.017022443935275 -0.014970930293202
-0.008456106297672 -0.010936021804810 -0.010415363125503 -0.005163865163922 -0.021683128550649 0.004570378456265 -0.011474841274321 -0.033899590373039 -0.022104673087597
-0.035420816391706 -0.034375935792923 -0.027917180210352 -0.011579900048673 -0.005978242494166 -0.025430750101805 -0.032136455178261 -0.026597296819091 -0.019658595323563
-0.021389272063971 -0.014888732694089 -0.027246465906501 -0.028866959735751 -0.020965142175555 0.002047399757430 -0.013245995156467 -0.015792060643435 -0.018658325076103
-0.005289497319609 0.007349518127739 -0.011090061627328 -0.008566500619054 0.003777860431001 0.006501025985926 0.017631212249398 -0.002696457318962 -0.000630631751847
0.013905635103583 0.012320142239332 0.010159627534449 0.031821060925722 0.026261541992426 0.015974011272192 0.040161855518818 0.003743333276361 -0.010279593989253
0.002874918980524 0.013079094700515 0.040316678583622 0.061891246587038 0.048284247517586 0.010674111545086 0.063364818692207 0.055943455547094 0.028423545882106
-0.022858666256070 -0.037012189626694 -0.033662445843220 -0.031593643128872 -0.023566840216517 -0.029618186876178 -0.014003515243530 -0.013460883870721 -0.025334518402815
-0.036012601107359 -0.015403881669044 -0.026789128780365 -0.010514931753278 -0.007317090872675 0.003170239739120 -0.010687874630094 0.006474430672824 0.000341973674949
-0.007554377429187 -0.011960437521338 -0.008224572055042 -0.034412588924170 -0.057544149458408 -0.034551765769720 -0.011308269575238 -0.028911042958498 -0.036900911480188
-0.047489967197180 -0.023576159030199 -0.047316823154688 -0.038835976272821 -0.038689341396093 -0.023710647597909 -0.009274274110794 -0.017751630395651 -0.015354186296463
0.018264072015882 -0.018413521349430 -0.027221871539950 -0.024975426495075 -0.025287520140409 -0.023290261626244 -0.003163323039189 -0.019243812188506 -0.040486488491297
-0.039717912673950 -0.045444760471582 -0.026134463027120 -0.025598920881748 -0.020427102223039 -0.000369644491002 -0.014521665871143 0.006200056523085 -0.043701253831387
0.033121265470982 -0.010015183128417 -0.024794286116958 -0.030370863154531 -0.035765938460827 -0.052696507424116 -0.011159593239427 -0.012548397295177 -0.009187300689518
-0.002373791532591 0.000723604985978 0.016345411539078 -0.002691287547350 0.014735477976501 0.031826321035624 0.014898343943059 0.000291388831101 0.007129435427487
0.024272857233882 0.000422602257458 -0.023136556148529 -0.021149966865778 -0.016605211421847 -0.005560419056565 0.002939288970083 0.058437008410692 0.073737978935242
-0.016691818833351 -0.021443871781230 -0.011027418076992 -0.015298879705369 -0.034197617322206 -0.029294360429049 -0.025316193699837 -0.013331818394363 -0.033156547695398
-0.011350193992257 0.006242634728551 0.002297303872183 -0.023787096142769 -0.011323664337397 -0.005243873689324 0.020195124670863 0.024557588621974 0.004876115825027
-0.009544597007334 -0.029247380793095 -0.005104244686663 -0.016609057784081 -0.001716366852634 0.010284062474966 0.008378271013498 -0.005267461761832 0.014909753575921
-0.074055679142475 -0.038361374288797 -0.031103920191526 -0.006756437942386 0.031074775382876 0.010496784001589 -0.005486735142767 0.004949998110533 -0.068060643970966
0.002124892780557 0.014190677553415 0.010170513764024 -0.048309404402971 0.056841455399990 0.040376126766205 0.069432035088539 0.033233992755413 -0.001825924613513
-0.006869952194393 -0.008022357709706 0.000626263732556 0.036476437002420 0.013766781426966 -0.025718789547682 -0.012060141190886 -0.021780585870147 -0.060545537620783
0.003860994940624 -0.011595029383898 -0.018707074224949 -0.017777191475034 -0.026777604594827 0.003587357467040 -0.006342208944261 -0.000092559515906 -0.020252235233784
-0.062069971114397 -0.039168223738670 -0.036547482013702 -0.044880617409945 -0.022381821647286 -0.006435582879931 0.000391069275793 0.013741235248744 -0.000841759203468
-0.011540091596544 0.014406159520149 -0.002070217859000 -0.007758428808302 0.001947286771610 -0.021770089864731 -0.015528624877334 -0.008412186056376 0.001346381497569
-0.015705201774836 -0.000588944298215 -0.009696687571704 0.001489797257818 -0.001054192660376 0.026209590956569 0.020427111536264 0.043977107852697 0.020091833546758
0.004401346202940 0.009849812835455 -0.000477686757222 -0.007462651003152 -0.023895710706711 -0.007357724476606 0.004494799766690 0.011339622549713 -0.005770485848188
-0.011071870103478 -0.017249789088964 -0.008904951624572 -0.028293747454882 -0.043571539223194 0.001196729834192 0.010446348227561 0.009011467918754 -0.029335955157876
0.018942546099424 0.023973403498530 -0.035410273820162 -0.030318036675453 -0.032508816570044 -0.031117603182793 -0.007635277230293 0.007717899046838 0.018365012481809
-0.008857162669301 -0.008296505548060 -0.023654326796532 -0.012581292539835 -0.009486963972449 0.007757930085063 -0.006748077459633 -0.021086383610964 -0.019691070541739
0.009748014621437 -0.000223040740821 0.006725646555424 0.004492538049817 -0.008336825296283 0.004952517338097 0.018495587632060 0.021387709304690 0.007308462634683
0.001722716493532 0.031991738826036 0.004314499907196 -0.009446034207940 0.000011012001778 0.002913599368185 -0.001104085473344 0.003631632309407 0.010573089122772
-0.027401464059949 -0.010920731350780 0.011671397835016 0.013235464692116 -0.017849536612630 -0.007562370970845 0.015645021572709 0.038630772382021 0.008874693885446
0.021212710067630 0.044676978141069 0.048443432897329 0.029906209558249 0.029482122510672 -0.003055738052353 0.023713922128081 0.026199247688055 0.016275849193335
-0.010072371922433 -0.005363842938095 0.010262669995427 0.012199646793306 0.023682337254286 0.033093828707933 0.009251083247364 0.005327504593879 -0.027647171169519
0.008603866212070 0.022337703034282 0.010586321353912 0.020474905148149 0.025293096899986 0.014797188341618 0.032532766461372 0.013953679241240 0.007396416272968
-0.020661359652877 -0.030763253569603 -0.013561429455876 -0.010186205618083 -0.019968977198005 0.007972605526447 0.011931582354009 -0.000018898668714 -0.011434249579906
-0.000926058797631 -0.018149953335524 -0.001289452076890 -0.000473490683362 -0.021234309300780 0.017071463167667 0.025896834209561 0.005890438333154 -0.025723835453391
-0.026187226176262 -0.036069717258215 -0.006698012817651 -0.015477085486054 -0.033693909645081 -0.009384250268340 0.005140406545252 0.017404213547707 0.014554407447577
0.020751129835844 0.024728694930673 0.029721098020673 -0.011094937101007 -0.027571152895689 -0.017896054312587 0.013378439471126 0.026712136343122 0.121457524597645
-0.049129508435726 -0.046562913805246 -0.042929287999868 -0.044194109737873 -0.037948682904243 -0.028553284704685 -0.017511688172817 0.013956663198769 -0.032058704644442
-0.019399369135499 -0.020676728338003 -0.027421504259109 -0.018909784033895 -0.014615934342146 0.018619401380420 0.020733306184411 0.005893432069570 0.004405746236444
-0.004720715805888 0.003755875863135 0.011934341862798 -0.008615781553090 -0.035375148057938 -0.021107677370310 -0.022236807271838 0.021088384091854 0.024877836927772
-0.011605186387897 0.011839707382023 0.007032341789454 0.004872657824308 -0.006665139459074 0.024978771805763 0.020355232059956 0.017113801091909 0.045433044433594
0.022192833945155 0.025851398706436 0.034130107611418 0.036200754344463 0.020368341356516 0.053620394319296 0.029368909075856 0.015273954719305 -0.013871503993869
-0.020439546555281 0.000361602898920 -0.005850516725332 -0.015427764505148 -0.012392798438668 -0.011117661371827 -0.006052565760911 0.006929919589311 0.041188713163137
-0.022423446178436 -0.016501499339938 -0.008056312799454 -0.020072728395462 0.000412492721807 -0.001158562372439 -0.007206453941762 -0.012257882393897 -0.003755901940167
-0.002089774236083 -0.053708650171757 -0.048110116273165 -0.026312662288547 -0.035075992345810 -0.029903359711170 -0.016134766861796 -0.011189684271812 0.028900735080242
0.026481596753001 0.015951668843627 0.016865139827132 -0.008248311467469 0.000734232016839 0.004398793913424 0.014117355458438 0.031235441565514 0.036846458911896
-0.034173749387264 -0.029939346015453 -0.044836599379778 -0.020434472709894 -0.028132453560829 -0.024541163817048 -0.043050426989794 -0.028209753334522 -0.045411154627800
0.011816262267530 0.019633280113339 0.005536568816751 -0.021030243486166 -0.008578322827816 0.002852549310774 0.007723186165094 0.018733298406005 0.004203721415251
-0.068282097578049 -0.062216863036156 -0.042797453701496 -0.018855616450310 -0.001809403416701 0.022260181605816 0.003128632670268 0.024759093299508 0.058903176337481
-0.012961637228727 -0.006685154046863 -0.027334555983543 -0.027402402833104 0.018448032438755 0.014827918261290 -0.001428702264093 -0.010124992579222 -0.026692800223827
0.013996576890349 0.019809097051620 -0.004282403271645 -0.031791198998690 -0.016037588939071 0.006107653956860 0.014534200541675 0.003508006921038 -0.010195528157055
0.017563354223967 -0.043462608009577 -0.031445618718863 -0.031419288367033 -0.025136869400740 0.006455680821091 -0.016196714714170 -0.033913448452950 -0.011655459180474
-0.040240906178951 -0.029844660311937 -0.026138363406062 -0.015300774946809 -0.006070941686630 0.026695076376200 0.020612178370357 0.017494436353445 0.003502054605633
-0.012007181532681 -0.028369056060910 -0.025089748203754 -0.039826229214668 -0.041145510971546 0.001918266061693 -0.011077335104346 -0.040853425860405 -0.053633823990822
-0.014236560091376 -0.030374087393284 -0.013273191638291 0.002218195935711 -0.009560459293425 0.006188318133354 -0.002722745761275 0.012423321604729 0.013087620027363
0.017872283235192 0.025281401351094 0.003551329486072 0.001463958644308 0.017195818945765 0.014952332712710 0.014389540068805 0.033835981041193 0.005118137691170
-0.055851481854916 -0.059740714728832 -0.067480742931366 -0.066235303878784 -0.049110297113657 -0.025700213387609 -0.032694574445486 -0.025066753849387 -0.033086370676756
0.022123586386442 -0.019342007115483 0.008425018750131 -0.009586784988642 -0.000407223647926 0.002772651612759 0.011174893938005 0.020402710884809 0.010780768468976
0.000365635700291 0.012992450967431 0.018837245181203 0.009694728069007 -0.017415957525373 -0.006766779813915 0.018772691488266 -0.001712255878374 0.032477729022503
0.017644573003054 0.013434982858598 0.007286797277629 -0.007058941759169 0.017834709957242 0.023840310052037 0.028213825076818 0.017205098643899 0.057198151946068
-0.021893598139286 -0.022231275215745 -0.016130613163114 -0.013104346580803 -0.031515579670668 0.001554086455144 -0.018559973686934 -0.011971526779234 -0.053452886641026
-0.002050245646387 0.010225552134216 0.021201994270086 0.000591756659560 -0.008780281059444 0.014690540730953 0.033190246671438 0.026419628411531 -0.003981631249189
0.028892546892166 0.017822870984674 0.024561183527112 -0.007128678727895 0.014871520921588 -0.004146081861109 0.011397644877434 -0.031418610364199 -0.028339851647615
0.018356312066317 -0.004510608036071 -0.018340701237321 -0.018473770469427 0.001131525496021 0.019298821687698 -0.001972324913368 -0.012604780495167 -0.050121173262596
-0.027676662430167 -0.014589559286833 -0.042163435369730 -0.045283336192369 -0.014648342505097 -0.009644163772464 -0.001362140174024 -0.000633597781416 -0.019106378778815
0.017784971743822 -0.029952695593238 -0.016175344586372 -0.003805377054960 -0.026301730424166 -0.011511823162436 -0.001378307119012 -0.018351465463638 -0.055555202066898
-0.002865454647690 -0.007833760231733 0.000785869022366 -0.002359837293625 -0.002589250449091 0.018054237589240 0.010781208984554 0.036299608647823 0.014787929132581
-0.012570988386869 -0.011620167642832 -0.021725647151470 -0.018965085968375 -0.004672899376601 0.015761585906148 0.013263103552163 0.027157535776496 0.005322728771716
-0.024498650804162 -0.003270085901022 -0.006741003599018 0.039458163082600 0.010160462930799 0.044907562434673 0.012292376719415 0.031663045287132 0.006598240230232
-0.012345758266747 -0.019317883998156 -0.007472947705537 -0.008850734680891 -0.012777423486114 0.001558030722663 -0.012106061913073 0.003070551436394 0.015772009268403
0.008148069493473 0.023734031245112 0.034880477935076 0.018479390069842 -0.009410236030817 0.006906949914992 -0.019845597445965 -0.018279647454619 -0.000691528664902
-0.058681257069111 -0.014130246825516 -0.013511154800653 0.047985594719648 0.079682007431984 0.065040506422520 0.062730506062508 0.058841072022915 0.030065177008510
-0.003296657465398 -0.007146305404603 -0.005474387668073 -0.009666698984802 -0.021022459492087 0.016935536637902 0.008876646868885 0.007292842026800 0.020486960187554
0.018159342929721 0.002104406012222 -0.011230528354645 -0.002445129677653 -0.026580967009068 -0.000759308051784 0.033014129847288 0.013913137838244 -0.003183485241607
0.007681923452765 0.000088344895630 0.005371266975999 -0.009007274173200 -0.007142642047256 0.002748544095084 0.001711747609079 0.003625353798270 0.019580999389291
-0.022759551182389 -0.042222533375025 -0.035655014216900 -0.026268681511283 -0.024114146828651 -0.013238213956356 -0.023013291880488 -0.013118658214808 -0.044358283281326
0.020947998389602 -0.034759264439344 -0.025114661082625 -0.024428583681583 -0.022635111585259 -0.010746478103101 -0.001846059458330 0.009058483876288 -0.021323341876268
0.011702766641974 0.004792781081051 -0.002522375667468 0.003692968282849 -0.009233620017767 0.002617675811052 -0.014119962230325 0.002552120015025 0.041046448051929
-0.039445064961910 -0.066096939146519 -0.049320746213198 -0.076817072927952 -0.077561005949974 -0.048306722193956 -0.036212529987097 -0.021486397832632 0.001186630688608
-0.021209258586168 -0.016700888052583 -0.009527510032058 -0.008778805844486 -0.028485566377640 0.012369273230433 0.017340512946248 -0.006082126405090 0.004587667062879
-0.028622023761272 -0.047883272171021 -0.026428580284119 -0.026338765397668 -0.044063564389944 -0.026067962870002 -0.032384924590588 -0.043171431869268 -0.040532562881708
-0.021733958274126 -0.064033225178719 -0.056033018976450 -0.029140187427402 -0.020060488954186 -0.021212577819824 -0.024993598461151 0.003133494406939 0.027727138251066
0.002713852329180 -0.004893796518445 -0.006204018369317 -0.005625887308270 -0.022548506036401 0.031392551958561 0.033801268786192 0.005846455693245 -0.001336901914328
-0.018520122393966 0.007024031132460 0.016055813059211 -0.009088763967156 -0.008034690283239 0.020835183560848 0.004094634205103 0.033284503966570 0.020023649558425
0.021239195019007 0.009861902333796 -0.001339132431895 0.008474298752844 0.004850684665143 0.024355463683605 0.027101790532470 0.014282374642789 0.019676296040416
-0.070483885705471 -0.036853276193142 -0.011578864417970 -0.006927825510502 -0.003491553012282 -0.010061319917440 -0.035625062882900 -0.020920485258102 -0.062006756663322
-0.034935571253300 -0.030454060062766 -0.014303828589618 -0.001915709930472 -0.010681827552617 -0.008299139328301 -0.014981132932007 0.005049710627645 0.008009692654014
0.034582436084747 0.028600420802832 0.012395967729390 0.025367215275764 0.010392630472779 -0.005236220080405 -0.003650964470580 -0.012932077981532 -0.035943280905485
0.048452634364367 0.020329693332314 -0.009405302815139 -0.029628517106175 -0.034368459135294 -0.020607555285096 -0.001516228774562 0.004763344768435 0.019448136910796
0.004495037253946 -0.013734308071434 -0.012565533630550 0.000226533637033 0.013525224290788 0.001777294208296 0.005289301741868 0.006180582102388 0.006574266590178
-0.014033829793334 -0.015536363236606 0.004441716708243 -0.004179284442216 -0.001746063004248 0.018836561590433 0.017576351761818 0.022125015035272 0.003167365677655
-0.010765130631626 0.005043444689363 0.029137540608644 -0.007704430259764 -0.006487513426691 0.031211387366056 0.014611623249948 0.023465417325497 0.006908557843417
-0.047673661261797 -0.022522544488311 -0.025453578680754 -0.014819596894085 -0.026595452800393 -0.023166017606854 -0.025958659127355 -0.011503121815622 -0.042310163378716
-0.059332732111216 -0.046642869710922 -0.065697327256203 -0.046215251088142 -0.047775488346815 -0.009832231327891 -0.032378502190113 -0.038902312517166 -0.037155479192734
-0.016078008338809 -0.015144282020628 0.005143164191395 -0.009528075344861 -0.001843853620812 0.040021669119596 0.032774023711681 0.014272251166403 0.013314711861312
-0.005250626709312 0.007778612896800 0.002598484046757 -0.013649069704115 0.007877913303673 0.002191006205976 -0.001342617906630 0.013345465995371 0.017685301601887
-0.013564009219408 -0.000907718495000 0.007736817002296 -0.018525321036577 -0.009363586083055 0.025836708024144 0.018114333972335 0.020566336810589 0.021004321053624
-0.005350166000426 0.018538301810622 0.013100041076541 0.020404042676091 0.015436151996255 0.010600225999951 0.040187232196331 0.037265431135893 0.049528852105141
-0.027649823576212 -0.029698837548494 -0.013172104954720 -0.008946035988629 -0.006248982157558 0.013780119828880 0.016320599243045 0.007408108562231 0.015353129245341
0.018576296046376 0.033759288489819 0.024840697646141 0.021121790632606 -0.004949423018843 0.013874579221010 0.007517809513956 -0.008469745516777 0.009693632833660
-0.010574289597571 -0.021860586479306 -0.021138239651918 -0.020724486559629 -0.026426920667291 0.010310884565115 -0.003351940074936 0.014397274702787 0.039131343364716
0.051372539252043 0.049905240535736 0.006525059696287 0.008613975718617 0.012824830599129 0.009959033690393 0.018885422497988 0.017558617517352 0.037515994161367
0.019788425415754 0.009463672526181 0.017193790525198 0.001173413707875 0.011705514974892 0.021510131657124 0.042803183197975 0.023631522431970 0.002620500745252
-0.022330680862069 -0.039109785109758 -0.024399608373642 -0.023089032620192 -0.001511103007942 0.002963939681649 0.025561913847923 0.030122557654977 0.019082970917225
-0.008362952619791 0.028207898139954 0.007229777984321 0.004202248062938 -0.003896586364135 -0.000567986106034 0.012638547457755 0.012969726696610 0.004954539239407
-0.023307858034968 -0.031576231122017 -0.020667802542448 0.002620847197250 -0.006075137760490 0.024094060063362 0.020302129909396 0.029779253527522 0.047706697136164
0.017712811008096 0.019327670335770 0.009663084521890 0.007999115623534 0.005545740947127 0.018802128732204 0.032027930021286 0.018299736082554 0.033370070159435
0.045955579727888 -0.004708980675787 -0.003323017619550 0.016480626538396 0.003925080411136 0.018492501229048 -0.011300622485578 -0.028489636257291 -0.003233269089833
-0.020772328600287 -0.033529855310917 -0.043157733976841 -0.037182871252298 -0.052725341171026 -0.037749096751213 -0.039122853428125 -0.004806473851204 0.004561041481793
0.022318176925182 0.003245637752116 0.026559215039015 0.070386499166489 0.046496178954840 0.046765699982643 0.014967483468354 0.019117180258036 0.064016610383987
-0.021889260038733 -0.025414982810616 -0.005215262062848 0.009767027571797 0.009499837644398 0.023753009736538 0.001105846953578 -0.006346716545522 -0.043001644313335
-0.016613548621535 -0.006929552182555 -0.010145388543606 -0.001839944510721 0.014413749799132 0.013450881466269 0.015606587752700 0.022301206365228 -0.005240436643362
-0.029453711584210 -0.013243327848613 -0.023313196375966 -0.007937399670482 -0.003465613815933 0.013988938182592 0.005881386343390 0.013027439825237 -0.003039138857275
-0.050074409693480 -0.035737276077271 -0.040684632956982 -0.020336959511042 -0.004107482731342 0.002429998246953 0.003911007661372 0.006069750059396 0.010722789913416
-0.015940522775054 0.012785422615707 -0.004700826015323 -0.029947111383080 -0.025515759363770 -0.018506767228246 -0.005671959370375 -0.013517675921321 -0.047366317361593
-0.028284659609199 -0.027768859639764 -0.017007431015372 -0.020119147375226 -0.024906083941460 0.020871203392744 0.014810646884143 0.007577332202345 0.004271023441106
0.032200716435909 0.021488126367331 -0.018987530842423 0.011135516688228 0.029592929407954 0.016231138259172 0.024729467928410 0.054178185760975 0.042629335075617
-0.036249801516533 -0.056528419256210 -0.026067690923810 -0.030673755332828 -0.037073347717524 -0.012574669905007 0.014470864087343 0.018341774120927 0.034022293984890
-0.015619154088199 -0.014225502498448 -0.007115630432963 0.007891585119069 0.004284293390810 0.023686025291681 0.008907695300877 0.005189881194383 0.026016535237432
0.052557092159986 0.010227280668914 0.009636243805289 -0.002203126670793 -0.005799293518066 -0.012656102888286 0.009088679216802 -0.002007943345234 0.013542230241001
0.018196111544967 0.014549207873642 0.002375609008595 -0.005477553699166 -0.012482954189181 -0.001160754007287 -0.010238076560199 -0.020217284560204 -0.021075526252389
0.000319773593219 -0.008520648814738 -0.012963650748134 0.008921915665269 -0.000282503606286 0.009516685269773 0.012762508355081 0.016475226730108 0.021876160055399
-0.016285251826048 0.014191959984601 0.024766232818365 0.005246624816209 0.014127165079117 0.004304116591811 0.012684339657426 0.025485610589385 0.025985300540924
-0.032766394317150 -0.030607432126999 -0.011814916506410 -0.011358721181750 -0.027852561324835 -0.006165014579892 0.003157171886414 0.005708331707865 -0.019591515883803
-0.023669671267271 -0.034171294420958 -0.021936310455203 -0.023774687200785 -0.045228831470013 -0.025289479643106 0.000538194784895 -0.004499735310674 -0.022855654358864
0.018853925168514 -0.024977998808026 -0.019130116328597 -0.011952739208937 0.009417789988220 0.010255203582346 -0.004935620818287 -0.010705318301916 0.014260335825384
-0.017691818997264 -0.036154732108116 -0.027058809995651 -0.026865925639868 -0.015863187611103 0.005952393170446 -0.001082005444914 0.004997485782951 -0.011195345781744
-0.006228978279978 -0.009151677601039 -0.024017630144954 -0.035345330834389 -0.073763839900494 -0.082755349576473 -0.054037161171436 -0.068633221089840 -0.086729042232037
-0.032719649374485 -0.005133737809956 -0.004040626809001 -0.028096612542868 -0.029426677152514 0.003056905930862 0.004620563238859 0.002717677503824 0.014929464086890
-0.052425619214773 -0.054862502962351 -0.031493246555328 -0.018198162317276 -0.034265264868736 -0.005872859619558 -0.001788772409782 0.007924828678370 0.018063114956021
-0.006452630273998 -0.026197124272585 -0.039464510977268 -0.028175253421068 0.005718959961087 0.014958489686251 -0.009696658700705 -0.028171613812447 -0.026995901018381
0.049628373235464 0.028312476351857 0.018805585801601 0.038458611816168 0.071788847446442 0.082467034459114 0.077407680451870 0.004591353703290 0.015082895755768
-0.025960780680180 -0.006052815821022 0.005149537231773 0.048937041312456 0.014814174734056 0.006253137253225 -0.009718002751470 -0.031940374523401 -0.026899078860879
0.026923179626465 0.042346470057964 0.023672230541706 0.031344518065453 0.034818306565285 -0.007055282127112 -0.021865414455533 -0.052473273128271 -0.016669457778335
0.003198264632374 0.020024916157126 -0.018086327239871 0.064376950263977 0.078726276755333 0.022431191056967 -0.022984452545643 -0.010951520875096 0.010540040209889
0.056527961045504 0.046790350228548 0.028584193438292 0.037298128008842 0.019746078178287 -0.009664078243077 -0.032691653817892 -0.025816947221756 -0.034433275461197
-0.041521038860083 -0.074859276413918 -0.045185711234808 -0.019795827567577 -0.022763460874557 -0.015436684712768 -0.023833222687244 -0.013227450661361 -0.026729293167591
-0.002174999099225 -0.004453140310943 -0.019347313791513 -0.016536984592676 -0.005873182788491 -0.022591369226575 -0.050747662782669 -0.064184136688709 -0.095759876072407
-0.034947518259287 -0.031226074323058 -0.023186679929495 -0.022153319790959 0.002633803756908 0.000465669087134 -0.029919082298875 0.030652021989226 -0.014319918118417
0.046270295977592 0.037016954272985 0.032172564417124 0.026946023106575 0.027230050414801 0.003373737446964 -0.030860573053360 -0.046960871666670 -0.049859132617712
-0.005156697705388 -0.009414374828339 -0.017896113917232 -0.050769113004208 -0.022890822961926 -0.023147707805037 -0.037040542811155 -0.029517905786633 0.009660647250712
-0.024162029847503 -0.032754529267550 -0.024328986182809 -0.035944551229477 -0.002440430922434 -0.012346538715065 0.000930098001845 0.005020421929657 -0.002792166080326
-0.005974777042866 -0.000185091557796 0.004459947813302 0.025711817666888 0.005518400110304 0.001101646805182 -0.037044540047646 -0.063510812819004 -0.046070456504822
0.044351469725370 0.022837640717626 0.013914519920945 0.014197328127921 0.016205672174692 0.002303878543898 -0.025667721405625 -0.045324519276619 -0.019050737842917
0.022539595142007 0.045042712241411 0.032992154359818 -0.003870604559779 0.025279302150011 -0.012441819533706 -0.018835181370378 -0.073828637599945 -0.113872051239014
0.052018016576767 -0.025668423622847 -0.013230213895440 0.028959546238184 0.014195614494383 0.003774308599532 -0.033683501183987 -0.041604612022638 -0.034306414425373
0.043560974299908 0.104766540229321 0.032957199960947 0.022370932623744 0.035738509148359 0.022619150578976 0.006704080849886 -0.016692431643605 -0.040497973561287
-0.010503756813705 0.012229134328663 -0.010278591886163 0.005735803861171 -0.006877660285681 0.008573807775974 -0.050271492451429 -0.028613112866879 -0.029383534565568
0.042564999312162 0.007701318711042 -0.002128729596734 -0.006658248603344 -0.023231782019138 -0.009802394546568 -0.013712862506509 -0.021025422960520 -0.052715331315994
0.095894634723663 0.038964897394180 0.015640074387193 0.016394929960370 -0.040631581097841 0.000986731261946 -0.023999890312552 -0.018592184409499 -0.082693614065647
0.088553592562675 0.021815435960889 0.028625316917896 0.010222468525171 -0.005703139584512 -0.010441868565977 -0.035238146781921 -0.063488148152828 -0.062790393829346
0.002555166836828 0.025147913023829 -0.001706057693809 0.016213010996580 -0.005525446496904 -0.000472232146421 -0.023027468472719 -0.051204424351454 -0.056677058339119
-0.013788497075438 -0.026713307946920 -0.029590422287583 -0.017989832907915 -0.014426984824240 0.004901397507638 -0.001885450095870 -0.006326061673462 -0.023581705987453
-0.081387497484684 -0.075934574007988 -0.041484933346510 0.045730151236057 0.040616083890200 0.070045784115791 0.040891777724028 0.025062922388315 0.005564408376813
-0.046115882694721 -0.018054341897368 -0.029805645346642 -0.025293093174696 -0.006384091451764 -0.019291842356324 -0.012697841040790 -0.002661030506715 0.000140106392791
0.031520470976830 0.036193743348122 0.015293081291020 0.030361395329237 0.026554793119431 0.020606977865100 -0.028022993355989 -0.037188425660133 -0.045566156506538
-0.007239642553031 -0.021548874676228 0.013572925701737 0.011844368651509 0.023402784019709 0.010950896888971 0.024114623665810 -0.004347983282059 0.025358917191625
-0.050933338701725 -0.080496668815613 -0.056044518947601 0.006822052877396 0.036814462393522 0.002039576880634 0.029062967747450 0.035490468144417 0.051121287047863
0.018090264871716 0.008843719027936 0.018047599121928 0.009509823285043 0.006604456342757 -0.013192316517234 -0.027687652036548 -0.035689026117325 -0.037439819425344
-0.030394932255149 -0.008943893946707 -0.042174171656370 -0.013331152498722 0.013548781163990 0.011481626890600 -0.020242126658559 -0.000049226691772 -0.024685721844435
0.117203712463379 0.048605363816023 0.035795066505671 0.017196368426085 -0.031258273869753 -0.028424391523004 -0.020201854407787 -0.054757095873356 -0.078921504318714
-0.005137627478689 0.028800576925278 -0.011019171215594 0.024025695398450 0.032125413417816 0.026623986661434 -0.046627495437860 -0.024852758273482 0.002308459021151
-0.001623162883334 0.008772671222687 -0.029505282640457 -0.012291747145355 0.032112669199705 0.015251881442964 -0.013166483491659 0.023499218747020 0.000241978908889
-0.022933783009648 -0.035320233553648 -0.030271219089627 -0.020964628085494 -0.019133770838380 0.017410710453987 0.003299605567008 0.033363364636898 0.025722540915012
0.093322426080704 0.056520890444517 0.065996259450912 0.017102342098951 -0.031793139874935 0.011418226175010 -0.004767356440425 -0.028303708881140 -0.030041625723243
-0.003725070273504 0.028112439438701 0.004604220390320 0.021843601018190 -0.010312692262232 0.008527899160981 -0.026263622567058 -0.040054921060801 -0.066775634884834
0.049978971481323 0.043734516948462 0.010828914120793 0.006695055868477 0.021215295419097 0.008555156178772 -0.015641918405890 -0.027127861976624 -0.009926967322826
-0.020348245278001 0.024709342047572 -0.018799340352416 0.057214912027121 0.042236104607582 0.042585134506226 -0.008417206816375 -0.001957667060196 -0.013065807521343
0.064685113728046 0.018329745158553 0.012965655885637 0.006838461384177 0.016773534938693 0.018939107656479 0.012444716878235 -0.028308069333434 -0.030423440039158
0.038336463272572 0.016088832169771 0.010172565467656 0.025537509471178 -0.001253006164916 -0.027968155220151 -0.053732424974442 -0.079155690968037 -0.063546270132065
0.017849344760180 -0.015836562961340 -0.018754461780190 -0.014524294994771 -0.011420923285186 0.014934664592147 0.020207799971104 -0.008122881874442 -0.013341583311558
0.053761940449476 0.007543593645096 -0.007177196443081 -0.006760536227375 0.008059993386269 0.023048905655742 0.009371306747198 -0.029353139922023 -0.042266525328159
-0.033190816640854 -0.072722621262074 -0.032521884888411 -0.040913984179497 -0.051229432225227 -0.021046387031674 -0.021669412031770 -0.001041253446601 -0.005302660167217
0.042091719806194 0.035911552608013 0.014356710948050 0.018811250105500 -0.009635372087359 0.001490352791734 -0.038847036659718 -0.069387577474117 -0.075651578605175
-0.015756478533149 -0.019531909376383 -0.009670251980424 -0.012179286219180 -0.001929279882461 -0.019136177375913 -0.036522410809994 -0.033966474235058 -0.030280170962214
0.050457302480936 0.024523200467229 0.033961571753025 0.013786477036774 0.012942320667207 -0.006804511416703 -0.041880711913109 -0.047431562095881 -0.038323305547237
0.048057623207569 0.053691539913416 0.055421315133572 0.027482759207487 -0.069238662719727 0.008020053617656 0.019143257290125 0.017762165516615 -0.019915267825127
0.020292652770877 0.020545687526464 -0.000979887903668 0.013559071347117 0.023276459425688 -0.025086974725127 -0.059671401977539 -0.052940588444471 -0.041029017418623
-0.028999986127019 -0.002427092054859 0.014400133863091 0.034111484885216 0.021870367228985 0.002848097821698 -0.045545767992735 -0.046861898154020 -0.034792002290487
-0.026870425790548 -0.064478278160095 -0.031140752136707 -0.013025524094701 -0.024055024608970 -0.004580509848893 -0.025178384035826 0.021534977480769 0.010610572993755
0.050833594053984 0.046231120824814 0.014311193488538 0.032813902944326 0.020026745274663 0.000135482885526 -0.026494517922401 -0.031322870403528 -0.020052095875144
-0.046028088778257 -0.060810774564743 -0.046255547553301 -0.026318684220314 0.000220530273509 0.002963233739138 -0.023199103772640 -0.018699713051319 -0.044957440346479
0.014102356508374 0.019738500937819 -0.003433153033257 0.020463589578867 0.002638891804963 0.008482392877340 0.000277518585790 0.006439155433327 0.032636895775795
-0.018271699547768 -0.006259206682444 -0.020265370607376 -0.023400191217661 -0.015504829585552 -0.016697723418474 -0.032194968312979 0.006820458918810 -0.005210389848799
-0.006067376583815 -0.005363473668694 0.018378393724561 0.016093347221613 0.008535757660866 -0.000294341851259 -0.029822451993823 -0.057109143584967 -0.065503589808941
-0.071787908673286 -0.012168687768281 -0.019011218100786 0.034785166382790 0.054051816463470 0.031452815979719 0.019909437745810 0.037971284240484 0.020290059968829
-0.008616479113698 -0.017525505274534 -0.018317544832826 -0.021062118932605 -0.019039148464799 -0.010568280704319 -0.003851598827168 -0.047861881554127 -0.048974238336086
0.057529285550117 0.009303946048021 0.018309446051717 -0.004636450204998 -0.024763457477093 -0.012215813621879 -0.021911498159170 -0.054479498416185 -0.057761915028095
-0.052929341793060 -0.001400501001626 -0.021436419337988 0.042108684778214 0.014660787768662 -0.008588778786361 -0.036282148212194 -0.016760831698775 -0.032688450068235
0.001055944594555 0.010118243284523 -0.001041698851623 0.023068239912391 0.012026537209749 0.016405148431659 -0.007072377018631 -0.011651921086013 -0.029948867857456
-0.070616751909256 -0.015333148650825 -0.009881790727377 0.047191474586725 0.023173969238997 0.038464032113552 0.000477533088997 0.007806745823473 -0.030107615515590
-0.046503845602274 -0.042517084628344 -0.062319528311491 -0.047000631690025 -0.040908064693213 -0.040724910795689 -0.042753506451845 -0.044484451413155 -0.068213164806366
0.036108162254095 0.050127107650042 0.025038130581379 0.033746045082808 0.019366163760424 0.005905324593186 -0.014749035239220 -0.040774550288916 -0.030365392565727
-0.016192052513361 -0.057590313255787 -0.039258997887373 -0.030703572556376 -0.022042172029614 -0.017541859298944 -0.031061515212059 -0.036583688110113 -0.082332827150822
0.077629923820496 0.048302896320820 0.006879163905978 0.010752537287772 -0.007778050843626 -0.031186034902930 -0.017042417079210 -0.055552765727043 -0.064920820295811
0.034212369471788 0.044922664761543 0.019430926069617 0.052922599017620 0.027603652328253 -0.003802698105574 -0.022313376888633 -0.036277774721384 -0.038275275379419
-0.085896126925945 -0.040343109518290 -0.007696474436671 0.030991872772574 0.061574231833220 0.005302606150508 -0.026122558861971 0.012241405434906 -0.022485081106424
0.048096746206284 0.023661708459258 0.017863446846604 0.012916180305183 0.014989086426795 0.004239714704454 0.000759184884373 -0.021374290809035 -0.041991550475359
0.102191843092442 0.032471496611834 0.028873967006803 0.001855424605310 -0.012047793716192 -0.015521601773798 -0.030262358486652 -0.055589284747839 -0.076589666306973
0.042066212743521 0.028390577062964 0.017171949148178 0.019999694079161 0.018107013776898 0.016970729455352 -0.004498946946114 -0.048455495387316 -0.088808067142963
0.017471894621849 0.021525675430894 0.005197098478675 0.007917259819806 0.024521304294467 0.007926443591714 -0.035315647721291 -0.016147952526808 -0.025043660774827
0.007869264110923 0.042286422103643 0.024867581203580 0.023218382149935 0.034806039184332 0.008794571273029 -0.052781168371439 -0.028195554390550 -0.015427117235959
0.050477173179388 0.042914930731058 0.031683593988419 0.017548514530063 0.007418785709888 0.001465860405006 -0.020387722179294 -0.059928093105555 -0.066489167511463
-0.026674358174205 -0.006234875880182 0.006867865100503 0.028704166412354 0.017271436750889 0.001878170645796 -0.037999909371138 -0.058260764926672 -0.055076915770769
0.001282062148675 0.032285120338202 0.010766701772809 0.033249396830797 0.016106624156237 -0.004947003442794 -0.042323276400566 -0.019290268421173 -0.011188847012818
0.010988805443048 -0.015374330803752 -0.002011715201661 -0.007098366972059 -0.010186183266342 -0.006771528627723 -0.036704655736685 -0.032813590019941 -0.030942076817155
0.006337924394757 0.021027458831668 0.020744180306792 0.040270410478115 0.001108252094127 0.018999971449375 -0.035674016922712 -0.011100213974714 -0.018229836598039
-0.011859437450767 0.018022324889898 0.010788362473249 0.009296843782067 0.017234332859516 -0.004705287516117 -0.040957700461149 -0.037961840629578 -0.024737996980548
-0.031007559970021 -0.024277720600367 -0.028005607426167 -0.010365697555244 0.007515148259699 -0.018900189548731 -0.011163138784468 -0.010329214856029 0.005034006200731
-0.009909133426845 -0.046319760382175 -0.031941715627909 -0.031954266130924 -0.048000607639551 -0.042575348168612 -0.026997653767467 -0.019189713522792 -0.041108462959528
-0.020196657627821 -0.006274060346186 -0.018117088824511 0.009356337599456 0.013269870541990 -0.007083096541464 -0.052642125636339 -0.058232478797436 -0.011554828844965
0.044479589909315 0.028184115886688 0.016380842775106 0.010184951126575 -0.000739186361898 0.006288377568126 -0.014346838928759 -0.041201055049896 -0.046783011406660
0.030855413526297 0.029971495270729 -0.004412505775690 0.027667274698615 0.021874461323023 0.021259576082230 -0.036298055201769 -0.080601193010807 -0.060084983706474
-0.042673576623201 -0.034619648009539 -0.024637524038553 -0.029140260070562 -0.009257436729968 -0.007629795931280 -0.009821473620832 -0.041468605399132 -0.067464485764503
0.047561984509230 0.022743236273527 0.001708807423711 -0.008023773320019 0.014447932131588 0.010441157035530 0.038387395441532 -0.010773635469377 -0.036863826215267
0.046384651213884 0.036285918205976 -0.003090167418122 0.010763511061668 -0.004539676476270 0.005720774177462 -0.050817918032408 -0.034325622022152 -0.027458759024739
-0.090796925127506 -0.076560422778130 -0.067540988326073 0.020547794178128 0.037254199385643 0.046596061438322 0.051233503967524 0.026837870478630 0.046650487929583
0.025043956935406 0.032662793993950 0.018845243379474 0.028635200113058 0.013827087357640 0.001850968110375 -0.018377574160695 -0.030966481193900 -0.044610518962145
