-0.039139822125435 -0.078516125679016 0.212280198931694 -0.173209384083748 -0.016274498775601 -0.020835911855102 -0.084716118872166 -0.169169634580612 -0.024166567251086 -0.138129532337189 -0.062063671648502 0.060248039662838 0.084795109927654 0.092113018035889 -0.007410634309053 -0.102514848113060 -0.018509989604354 -0.119388051331043 0.010353187099099 0.001311340834945 0.065774619579315 0.123253077268600 -0.009022261947393 0.089777640998363 -0.028076712042093 -0.011703843250871 0.017033640295267 -0.000217448614421 -0.167059794068336 -0.064595289528370 -0.230353996157646 0.051863469183445 -0.055062763392925 0.070276491343975 -0.103070840239525 -0.066321402788162 -0.062148984521627 -0.009727122262120 -0.136097192764282 -0.174773186445236 -0.080809094011784 -0.123493112623692 -0.042068623006344 -0.198779821395874 0.015281309373677 -0.072675205767155 -0.030590178444982 -0.209955468773842 -0.117809116840363 -0.175586357712746 -0.077997632324696 -0.117056138813496 0.037714958190918 -0.019809952005744 -0.080234788358212 -0.106309399008751 -0.176371157169342 0.056580036878586 -0.125111743807793 -0.161929130554199 -0.202126726508141 -0.059148628264666 0.003348093479872 -0.092113822698593
-0.084168024361134 0.073907516896725 -0.370313435792923 0.086079344153404 -0.020700305700302 0.003631314262748 -0.000079620091128 -0.020383434370160 0.060176491737366 0.380671113729477 0.014034146443009 0.203204751014709 0.050436060875654 -0.114297963678837 0.001317900954746 0.009708598256111 0.091665387153625 0.031410321593285 0.003031993051991 -0.077783092856407 0.017212631180882 0.234928324818611 -0.134458035230637 0.097988277673721 -0.127717554569244 -0.116055160760880 -0.046152390539646 0.078052446246147 -0.131142958998680 -0.178377598524094 -0.012473177164793 0.014187871478498 -0.047624934464693 0.026486147195101 -0.030233137309551 -0.172331213951111 -0.166906863451004 0.017701340839267 -0.233819618821144 -0.008415375836194 -0.212343037128448 0.099747337400913 -0.264086335897446 -0.173435986042023 -0.000127949038870 0.064635060727596 -0.022680621594191 -0.068089537322521 -0.028992936015129 0.109286807477474 -0.203406348824501 -0.007411806378514 0.053009692579508 0.103907510638237 -0.055889151990414 -0.334959298372269 0.081053167581558 0.202371373772621 -0.003820428159088 0.141518890857697 -0.061553791165352 0.016760677099228 -0.114658765494823 -0.036242742091417
0.063427537679672 -0.152017623186111 -0.417617231607437 -0.038992211222649 0.045681737363338 0.077404923737049 -0.089508719742298 -0.019697485491633 -0.234814345836639 0.269889593124390 0.106592506170273 -0.005509416107088 0.154344141483307 0.002232498954982 -0.090457186102867 0.155164241790771 0.052134513854980 -0.039624493569136 -0.122470565140247 0.158270284533501 -0.109689585864544 0.021973745897412 -0.055195938795805 -0.155810892581940 -0.008839894086123 0.210474938154221 -0.190548136830330 -0.071107581257820 0.291885256767273 -0.036530178040266 -0.386143207550049 0.161057949066162 0.142224580049515 -0.126904532313347 0.163531646132469 0.224877178668976 0.161876738071442 -0.108815677464008 -0.340829908847809 0.053802337497473 -0.037741955369711 -0.012633143924177 -0.031830124557018 -0.035402361303568 -0.037360224872828 -0.126543730497360 -0.064744271337986 0.185558885335922 -0.026418346911669 0.020728273317218 0.020656902343035 0.088678121566772 -0.030490320175886 -0.187904745340347 0.075644291937351 0.170992463827133 -0.007173258345574 0.058822982013226 0.095240980386734 0.030220495536923 0.001690472126938 -0.007620567921549 0.080596126616001 -0.065794840455055
