0.011093321256340 0.045057103037834 -0.001496736076660 0.031571809202433 0.015414654277265 -0.005070802289993 0.053985748440027 -0.024549234658480 0.008605114184320 -0.010930626653135 -0.015187438577414 0.005689909216017 0.004922669846565 -0.001783013227396 0.036206111311913 0.044693738222122 0.030836686491966 0.026481075212359 0.010518102906644 0.026629602536559 0.018757404759526 0.015120011754334 0.003738239873201 0.011477457359433 0.028538320213556 -0.009670156054199 0.007666749879718 0.022680269554257 0.032383594661951 0.004984647035599 -0.006920996587723 0.007410245481879 0.019834036007524 0.000347595749190 -0.016912432387471 0.011503338813782 -0.034663394093513 0.022113615646958 0.015910433605313 0.037148930132389 -0.048298142850399 0.011674780398607 0.029980201274157 0.026503348723054 0.015733946114779 0.007898940704763 0.004885436035693 0.021871987730265 -0.002968248678371 -0.003823821432889 -0.005074893590063 0.024959890171885 -0.017966717481613 0.007783679291606 -0.048927608877420 -0.014765233732760 0.016674514859915 -0.015283540822566 0.002405826002359 -0.019172003492713 -0.003504566382617 0.016365310177207 0.020865412428975 -0.016676302999258 0.009782738052309 -0.025975326076150 -0.007333456538618 0.032708238810301 0.004738190677017 0.023601306602359 0.011552533134818 -0.016055388376117 0.010958775877953 -0.003215545788407 -0.002610282972455 -0.034922312945127 0.035983774811029 0.017919024452567 0.011619386263192 -0.031803961843252 0.014719340018928 -0.015621100552380 0.007069703657180 0.027321621775627 -0.010808299295604 -0.025529023259878 0.030106212943792 -0.012228004634380 0.049402579665184 0.036629367619753 0.025044290348887 0.003671147627756 -0.003119102446362 0.013800555840135 0.052048791199923 0.020664637908340 0.062289498746395 0.021671639755368 -0.026577102020383 0.040402449667454 0.005471662152559 -0.001879160990939 -0.026682559400797 -0.004279973451048 0.007377156987786 -0.019367408007383 0.017841210588813 -0.020760314539075 0.012667291797698 -0.006331922486424 -0.029643174260855 0.010344794020057 -0.013082467950881 -0.029572196304798 -0.009429622441530 -0.023289235308766 -0.015459077432752 0.045724458992481 0.049407146871090 0.009159060195088 0.023452317342162 -0.011882872320712 -0.008157864212990 0.037883508950472 -0.037455037236214 0.019901901483536 0.000242846916080 0.040029425173998 -0.005658368580043 0.002069863490760 0.030030412599444 -0.015971401706338 0.008623459376395 -0.006764425430447 0.016690297052264 0.017294678837061 -0.027719616889954 0.037864733487368 0.017439197748899 -0.005564728286117 -0.025773622095585 0.020384835079312 -0.002557107480243 0.025178475305438 -0.020633328706026 0.033124975860119 0.024610131978989 0.001096620922908 0.011504689231515 0.016504049301147 0.006899947300553 -0.033976145088673 0.009043144993484 -0.025419630110264 -0.019651342183352 0.009180260822177 -0.020995760336518 0.040875650942326 -0.002735866466537 -0.005847176071256 0.003405544674024 0.011115810833871 -0.014410935342312 -0.040914639830589 -0.048761807382107 -0.032067775726318 -0.008155323565006 0.048696227371693 0.018717618659139 0.017862612381577 0.007641429081559 -0.001120375585742 0.027822013944387 -0.011672110296786 0.003168840426952 0.019279053434730 0.013894503936172 -0.002136408351362 -0.010698416270316 0.052196763455868 -0.013213733211160 0.020101225003600 0.060167692601681 -0.005269007757306 0.031079161912203 -0.010459500364959 -0.031328536570072 0.068094991147518 -0.047726374119520 0.001619024784304 -0.004200220573694 -0.007782357279211 -0.017341393977404 0.015370913781226 -0.003266326850280 0.033058665692806 -0.006032522767782 0.023444952443242 -0.023839630186558 -0.033451799303293 0.023004045709968 -0.004037532489747 -0.053352173417807 0.005136552732438 -0.006720748730004 0.036373976618052 0.028108801692724 -0.018227202817798 -0.022924272343516 0.001736697973683 -0.048914361745119 -0.010838883928955 0.003313159337267 0.012810303829610 0.005610296968371 0.025293217971921 0.006691246759146 0.015457136556506 -0.037217348814011 0.027701506391168 -0.001348248450086 0.010432652197778 -0.026048416271806 -0.005124984309077 0.026235910132527 -0.020008595660329 0.022686313837767 0.005887361709028 0.041297063231468 -0.004152827896178 0.026416327804327 -0.018168376758695 -0.045978985726833 0.002833588514477 -0.033632677048445 -0.008207511156797 0.065168000757694 0.036722280085087 0.013616191223264 -0.017766032367945 0.000216222251765 0.020954998210073 0.010949087329209 -0.003964488394558 -0.045785050839186 -0.027542963624001 0.020254675298929 -0.019546072930098 0.003806638997048 0.026677982881665 -0.053187854588032 -0.022814957424998 0.005823540035635 -0.045947898179293 -0.002039519604295 -0.000039751997974
-0.037774235010147 -0.014117571525276 -0.041984904557467 -0.018470484763384 0.019908532500267 0.018351944163442 0.029829131439328 -0.014046355150640 -0.025185804814100 0.058346427977085 0.014432346448302 -0.012726302258670 0.026536464691162 0.014541078358889 0.069017477333546 0.034112580120564 0.040564499795437 -0.027131982147694 0.026253484189510 -0.010810703039169 -0.038926474750042 -0.044791217893362 -0.000037971269194 0.014598217792809 0.033979669213295 -0.000214773986954 0.031236179172993 0.052878279238939 -0.058961078524590 -0.006223218515515 0.002147529739887 0.017728975042701 -0.010036196559668 -0.014980924315751 0.054665476083755 0.076313413679600 -0.021666835993528 -0.062156938016415 -0.014587895944715 0.025033378973603 -0.023179801180959 0.011820985004306 0.045752488076687 0.003252951661125 0.077933393418789 0.018891714513302 0.005175446160138 0.025733815506101 0.065019227564335 -0.021032277494669 0.034272626042366 0.038209166377783 -0.017673932015896 0.003262159414589 0.007704667281359 0.036926515400410 0.023584814742208 -0.019748745486140 0.008818715810776 0.039892435073853 0.029720095917583 -0.026285985484719 -0.023140745237470 0.041252769529819 0.049606513231993 -0.034585811197758 -0.016215177252889 0.041858606040478 0.023640511557460 0.028253246098757 0.046079028397799 -0.006230543833226 0.046337261795998 0.014071999117732 -0.039739985018969 -0.006544550880790 -0.017163224518299 0.043549537658691 0.000853230070788 0.018204186111689 -0.052376955747604 -0.001892908010632 0.000538088206667 -0.016495196148753 0.047253750264645 -0.025499610230327 0.082703627645969 0.008891195990145 0.003268264234066 0.045948203653097 0.009764347225428 -0.012649154290557 0.052246317267418 0.036199763417244 0.043628964573145 0.027366578578949 0.008324898779392 0.019568488001823 -0.021401124075055 -0.018975619226694 -0.000949015608057 0.023352960124612 0.023703757673502 -0.024804979562759 0.003114541992545 0.011548961512744 -0.041368193924427 -0.013927052728832 0.055974084883928 0.048790618777275 0.003565508406609 -0.013909509405494 -0.010514910332859 0.028347706422210 0.003604836296290 -0.025289820507169 -0.051018040627241 0.080714032053947 0.006682773586363 0.006909426767379 0.080574370920658 -0.001743856118992 -0.022719282656908 0.034031853079796 -0.016129486262798 0.016101721674204 -0.012776413001120 -0.035583805292845 0.014637287706137 0.018476402387023 -0.024843461811543 0.015997134149075 -0.003163710469380 0.012963098473847 -0.019798751920462 0.034379184246063 -0.021902730688453 -0.033338930457830 -0.006164902355522 0.016521913930774 0.021788770332932 -0.009482434019446 0.016383446753025 0.039277330040932 0.047058001160622 0.035900175571442 -0.106060795485973 0.014869868755341 -0.001779658137821 -0.002438817173243 0.035828009247780 -0.004981423728168 -0.011872480623424 -0.017305308952928 -0.015802338719368 0.069555431604385 0.049526747316122 0.031923994421959 0.041956640779972 -0.013125514611602 -0.018622320145369 -0.021517809480429 0.027797788381577 0.023234764114022 0.013799608685076 -0.007325522601604 0.052687160670757 0.054914016276598 -0.007899964228272 0.012262924574316 0.080226480960846 -0.046662755310535 -0.079802699387074 0.006275726482272 0.067618869245052 0.018216507509351 -0.012938082218170 -0.005800109356642 -0.000245430244831 0.046481002122164 -0.041473831981421 0.017126269638538 0.056103657931089 0.021405385807157 -0.002190671395510 0.027315018698573 0.011333924718201 -0.026856880635023 -0.031262457370758 0.080821476876736 0.055796150118113 0.019534619525075 0.040050312876701 -0.012893455103040 0.037868879735470 0.018426166847348 0.031497225165367 0.010869606398046 -0.011321605183184 0.037986777722836 0.012550890445709 0.041844971477985 -0.020903253927827 -0.005080121569335 -0.005313870962709 0.027646243572235 -0.015838265419006 0.002386343898252 0.036564540117979 0.004919418599457 0.035217560827732 -0.054244779050350 0.004866568371654 0.012798214331269 0.023529596626759 0.000158999013365 0.017604118213058 0.010780977085233 -0.035612814128399 0.034315228462219 0.000782926625106 0.009016755037010 -0.013888050802052 -0.007033065427095 0.014623920433223 -0.001514210598543 -0.003293792717159 0.014308047480881 0.007881355471909 -0.018932865932584 -0.008029866032302 0.024266978725791 -0.036643479019403 -0.006930018309504 -0.027552805840969 0.074192143976688 0.079255759716034 0.042121343314648 0.011532344855368 0.005640211515129 0.051513861864805 -0.002320050494745 -0.004086982458830 0.005744266323745 -0.019404331222177 0.019546495750546 0.036822151392698 0.006054886616766 0.032243516296148 0.039323162287474 0.058696068823338 -0.001818418386392 0.035737887024879 -0.031972330063581 -0.023262979462743 0.012808713130653
-0.026420064270496 -0.003270433982834 0.005368383601308 0.008477169089019 -0.015396737493575 -0.040729451924562 -0.000212111059227 -0.007083922624588 -0.020843243226409 0.009483397006989 -0.023981835693121 -0.006512023042887 -0.014475107192993 -0.008315376937389 -0.016025155782700 0.000290328403935 0.006768614985049 0.005337058566511 0.009999446570873 0.034286916255951 -0.004932584241033 0.011220688931644 -0.025298001244664 -0.011703192256391 -0.002914538607001 -0.017719058319926 -0.046686917543411 -0.014273852109909 -0.028842538595200 0.008168987929821 -0.037308767437935 0.005562792532146 -0.006643286906183 -0.023366916924715 0.033136390149593 0.037038058042526 0.009325972758234 -0.040051102638245 -0.041943516582251 0.002499605994672 -0.001806334941648 0.002367071574554 -0.008460856974125 0.039197243750095 -0.000190828752238 0.005207595415413 -0.022616066038609 -0.009009788744152 -0.030164841562510 0.023171370849013 -0.008092275820673 0.007150001823902 -0.002262033056468 -0.009745633229613 0.005688036326319 0.005041725002229 0.027317026630044 -0.053116451948881 0.009111864492297 0.037292569875717 0.014284492470324 0.031440917402506 -0.001612510532141 0.006976999808103 0.009211553260684 -0.009924661368132 -0.013649053871632 -0.007001610472798 -0.004753575660288 0.009768562391400 -0.035364981740713 0.016636982560158 0.015283469110727 0.011568649671972 0.024998083710670 0.001759648206644 0.006527140736580 0.046517111361027 0.015941957011819 0.004827341996133 -0.013782599940896 0.020808238536119 -0.015912484377623 0.037482194602489 0.017685651779175 -0.012739729136229 -0.009096163325012 -0.001937727793120 -0.012706603854895 0.023800725117326 -0.001290602609515 0.006527124904096 0.012788938358426 0.020140627399087 0.026096349582076 0.056964840739965 -0.005862482823431 0.006180942058563 -0.034087520092726 -0.025950172916055 0.008685307577252 -0.024579662829638 0.001371720922180 0.011530243791640 -0.023806724697351 -0.009254295378923 0.033676885068417 -0.000483204406919 -0.038646582514048 0.002370977774262 0.006532151717693 0.021574443206191 -0.005629891064018 0.058324001729488 0.005675646942109 -0.015831110998988 -0.022470688447356 0.035609953105450 -0.016480941325426 -0.020892711356282 0.013948364183307 0.031815413385630 -0.011580989696085 0.008266856893897 -0.008596030995250 0.023596649989486 0.000473870924907 -0.001690883538686 0.022334937006235 0.006330311764032 0.012421487830579 0.015397091396153 0.024545416235924 -0.000709248299245 -0.000273856829153 0.010855300351977 -0.006608867086470 0.086654573678970 -0.027999393641949 0.000335562566761 -0.003383078379557 0.004381543956697 -0.006698366254568 -0.009208817966282 -0.015637250617146 -0.012048883363605 -0.009420681744814 0.018695710226893 -0.015043847262859 -0.021938456222415 0.010153639130294 0.013975433073938 -0.000892234849744 -0.004801575094461 0.005770463030785 -0.001119151245803 0.008237908594310 0.033404108136892 0.031744971871376 0.017035650089383 -0.002282029017806 0.001428151968867 -0.001578118652105 0.010731238871813 0.011941500008106 0.001252420246601 -0.048701718449593 -0.011099855415523 0.002243542578071 0.011364707723260 -0.003476914716884 0.074187099933624 -0.043879289180040 0.001115649472922 -0.006148355547339 0.004234768915921 0.014135493896902 0.003878632793203 -0.014685776084661 -0.024304380640388 0.009981313720345 0.024462442845106 0.007518478669226 0.017942141741514 0.060215990990400 -0.016864484176040 0.000446971360361 -0.011799496598542 0.005576595198363 -0.008855443447828 -0.006388952024281 -0.006661655846983 -0.026266235858202 0.014648528769612 0.019800860434771 0.038291607052088 0.042520828545094 0.024921737611294 0.044206298887730 -0.019752124324441 0.013111643493176 -0.022208580747247 0.014060048386455 0.043725807219744 0.005922864656895 0.001114346669056 0.006539495661855 -0.015112603083253 0.026638476178050 0.015370979905128 -0.003867043415084 -0.030070962384343 0.050782479345798 0.038012050092220 0.006953496020287 -0.002181476214901 0.050017017871141 -0.004329671151936 -0.012334130704403 -0.003834872273728 0.032159473747015 -0.005022316239774 0.011891759932041 0.024502778425813 0.041837166994810 -0.003893469925970 0.000522833492141 0.023195879533887 0.023762008175254 -0.028049180284142 0.006892871577293 0.008219687268138 0.012339286506176 0.046797607094049 0.005132315680385 -0.027555098757148 0.003381829243153 0.013415053486824 0.005295673385262 -0.000708440784365 -0.025053402408957 -0.006269877776504 -0.011255322955549 -0.012989000417292 -0.011658145114779 -0.014232722111046 -0.006449570879340 0.003998121246696 0.010300393216312 0.029291681945324 0.022573484107852 -0.024091057479382 -0.033182229846716 -0.008497629314661 0.001051434432156 0.020122084766626
