-0.125385895371437
0.046884492039680
-0.072092756628990
-0.051393847912550
0.078796558082104
-0.051606759428978
0.000446615187684
0.037049420177937
-0.015051485970616
0.015060451813042
-0.038708552718163
-0.115128748118877
0.022050702944398
-0.025119658559561
-0.129249140620232
-0.204428032040596
0.025116905570030
-0.201963692903519
-0.041332677006721
-0.287595093250275
0.027303412556648
-0.030378779396415
-0.011324176564813
-0.106657028198242
-0.039423838257790
-0.106627427041531
-0.188196510076523
-0.156345188617706
-0.134777635335922
-0.112143233418465
0.059591982513666
0.174606874585152
-0.095374204218388
0.016133671626449
-0.058317448943853
-0.048450835049152
0.036843251436949
0.043433170765638
-0.117253951728344
0.021365443244576
-0.028890950605273
-0.073143504559994
-0.083224348723888
0.074705518782139
0.025810331106186
-0.041625883430243
-0.012328278273344
-0.018088234588504
-0.034089449793100
0.029187344014645
0.000797404616605
0.031242255121469
0.034905072301626
0.025887768715620
-0.015999946743250
-0.026821130886674
0.145593926310539
0.038461279124022
0.184583753347397
-0.020340811461210
-0.113136380910873
-0.045708149671555
-0.020401567220688
-0.085782587528229
-0.073485955595970
-0.082442104816437
0.035251788794994
-0.071213580667973
0.053502332419157
-0.006253041327000
0.176840245723724
-0.132131934165955
-0.117124736309052
0.031257670372725
0.135194644331932
-0.015657760202885
0.126398727297783
0.009023749269545
-0.238376468420029
0.009505768306553
-0.154815584421158
-0.095411129295826
0.059061072766781
0.026217103004456
0.105865195393562
0.029667779803276
0.033875074237585
-0.030156522989273
0.022193616256118
-0.138278841972351
0.085842959582806
0.072892874479294
-0.017934164032340
0.099312625825405
0.010978309437633
-0.118734508752823
-0.164817914366722
0.031691916286945
0.021408373489976
0.200376078486443
-0.094380110502243
-0.097827084362507
-0.192690387368202
0.079521596431732
0.111489780247211
-0.176040232181549
-0.040636945515871
-0.072447232902050
0.019036807119846
0.030327513813972
-0.233014792203903
-0.049824032932520
-0.203694105148315
-0.186986610293388
-0.072723954916000
0.048226866871119
-0.269623875617981
-0.037442717701197
-0.114567197859287
-0.271533697843552
0.138314187526703
-0.097826741635799
0.102582722902298
-0.253893852233887
-0.008043291047215
0.119649298489094
-0.038506992161274
-0.095736861228943
