0.000000002719147
-0.000000011505542
0.000000004106251
-0.000000006871803
0.000000037087215
-0.000000005432650
0.000000021595170
0.000000005252418
0.000000003310090
-0.000000017673054
-0.000000004980940
-0.000000015936003
0.000000012954195
0.000000005284049
-0.000000045727035
-0.000000016387641
-0.000000006010221
0.000000005044241
-0.000000001416573
0.000000016040817
0.000000072997516
-0.000000016225137
-0.000000027292414
0.000000014295074
-0.000000007088311
0.000000005625832
0.000000004883176
0.000000009599831
0.000000016900158
0.000000004704790
-0.000000008266674
0.000000030924067
0.000000011313137
-0.000000005245700
0.000000015776422
-0.000000007133462
0.000000030212906
0.000000001048376
0.000000011036274
0.000000002091826
-0.000000023531765
-0.000000010411266
0.000000000102628
0.000000000033924
-0.000000038742819
0.000000004209157
-0.000000015962016
-0.000000026357968
-0.000000056687199
-0.000000007148993
-0.000000022671617
-0.000000008628992
-0.000000008442412
-0.000000000553225
0.000000010749921
0.000000007835522
-0.000000015370574
0.000000002832079
-0.000000001737044
-0.000000023247619
0.000000025919777
0.000000010241443
-0.000000006158704
0.000000020322917
-0.000000011905529
-0.000000017741117
-0.000000018540955
0.000000010350357
-0.000000003066619
0.000000018925521
-0.000000003902952
-0.000000004980118
0.000000033148567
0.000000013848849
0.000000000932911
0.000000000887099
0.000000001876003
0.000000002039532
-0.000000005513120
0.000000000676356
-0.000000001180320
-0.000000015514143
0.000000024749841
-0.000000004695688
-0.000000035061777
0.000000012551977
0.000000005267041
-0.000000013903429
-0.000000003029288
0.000000005820996
0.000000012058449
0.000000004769404
-0.000000006046354
0.000000018327379
-0.000000016140817
-0.000000007907480
0.000000023967466
0.000000033470386
0.000000005571981
0.000000013770906
-0.000000005953654
0.000000040227267
0.000000015997637
0.000000009053419
-0.000000002670734
-0.000000017030965
0.000000036996248
-0.000000019113216
0.000000018628743
0.000000006666043
0.000000020917756
-0.000000008240942
-0.000000012914899
0.000000009260038
-0.000000019177529
0.000000007216407
-0.000000011891320
-0.000000004759559
0.000000036725321
0.000000006295712
0.000000007281328
0.000000009309311
0.000000001690662
0.000000009096712
0.000000005754202
-0.000000000589303
0.000000004449006
-0.000000001646259
0.000000019233791
-0.000000001691255
0.000000001432986
-0.000000010872594
0.000000019984874
0.000000019358312
-0.000000005183318
0.000000007293516
-0.000000003907334
0.000000006607689
0.000000018533591
-0.000000005938379
-0.000000046883891
0.000000020088549
0.000000002451547
0.000000033222932
-0.000000002057509
-0.000000007904170
0.000000017388498
0.000000005827085
0.000000019321684
-0.000000007765586
0.000000033686870
0.000000019389475
-0.000000013986667
-0.000000000401413
0.000000001465109
0.000000014675472
0.000000008380300
0.000000009183658
0.000000004843023
0.000000004152290
-0.000000009712187
-0.000000001831417
-0.000000015129858
0.000000001855748
-0.000000011215766
0.000000006351555
0.000000001570884
-0.000000002125853
0.000000000366247
-0.000000000133652
-0.000000015057822
0.000000017531539
-0.000000046363958
-0.000000014242381
0.000000004172536
-0.000000008163733
0.000000006898078
0.000000023788679
0.000000014740927
0.000000022670283
-0.000000010240226
0.000000010728193
-0.000000013271856
0.000000021647452
0.000000008580093
0.000000024018378
-0.000000003586393
-0.000000003198244
-0.000000009358625
-0.000000002707641
0.000000004563408
-0.000000013821869
0.000000023559760
-0.000000008857425
0.000000003337921
0.000000014146387
0.000000018889684
0.000000000423767
-0.000000004160226
0.000000004175202
-0.000000010949232
0.000000023379716
-0.000000012853842
-0.000000002738588
-0.000000016411992
-0.000000002476048
0.000000020236063
0.000000033810721
-0.000000013161597
0.000000007923156
-0.000000000283327
0.000000015009629
-0.000000020009294
-0.000000001628827
-0.000000076764707
-0.000000005346078
0.000000004800866
0.000000003320434
0.000000032687677
0.000000009398609
0.000000007829129
0.000000013432008
0.000000021814763
0.000000007327432
0.000000030061155
-0.000000016542561
-0.000000016534742
-0.000000000491290
-0.000000010669018
-0.000000019146205
0.000000005044615
-0.000000019897016
0.000000008359739
-0.000000007021165
0.000000005058463
0.000000014121929
0.000000007038048
-0.000000000697257
0.000000009873541
0.000000014769857
0.000000003916316
-0.000000006965087
-0.000000007642538
0.000000003641321
-0.000000024284343
-0.000000008246517
0.000000002124452
0.000000003484403
-0.000000018892196
-0.000000017115619
0.000000002590325
-0.000000013970491
0.000000027366832
0.000000008985502
0.000000008632075
-0.000000000733474
