-0.000000032555647
0.000000018898501
-0.000000046101949
-0.000000120860520
-0.000000010908912
-0.000000227678640
-0.000000019051535
-0.000000129313563
0.000000006814034
0.000000183583779
0.000000066415716
-0.000000323560869
-0.000000051392952
-0.000000110233017
-0.000000024061050
0.000000032995469
-0.000000044289003
0.000000104398033
0.000000016565226
-0.000000026271747
0.000000475741018
-0.000000044009731
-0.000000084809074
-0.000000050670447
-0.000000032003221
-0.000000045279709
-0.000000637681751
-0.000000010739597
0.000000029023651
-0.000000146260902
-0.000000009509690
0.000000071200432
-0.000000403685533
-0.000000200811883
0.000000014023266
0.000000011784606
0.000000094781228
0.000000006914455
-0.000000021909607
-0.000000003173987
0.000000473399808
0.000000025157316
0.000000156643949
0.000000037963648
-0.000000111020789
0.000000045072795
0.000000068519640
-0.000000018885926
-0.000000253460996
0.000000627361032
0.000000151063631
-0.000000058278225
0.000000007025600
0.000000025104091
0.000000016955243
-0.000000019650022
0.000000051471165
-0.000000469091248
-0.000000137624042
-0.000000007476207
0.000000005438995
-0.000000228991837
0.000000196287090
0.000000029044850
