0.018600935116410 -0.013205308467150 0.007665473967791 -0.004067776724696 0.034857533872128 0.058793634176254 -0.003382795024663 0.024226918816566 -0.009001452475786 -0.004258298780769 0.007137583568692 -0.015330866910517 -0.002000781008974 -0.008626758120954 0.006199439987540 -0.039633017033339 -0.024849109351635 -0.038801919668913 0.048502948135138 0.041724313050508 -0.039327912032604 -0.018333179876208 -0.008504053577781 0.005263912491500 -0.004886873532087 -0.005793597549200 0.001940735266544 -0.007490199990571 0.039214517921209 0.016528630629182 -0.007890336215496 -0.008215283975005 0.007302823010832 0.000044115426135 0.024506984278560 0.059375662356615 -0.016914106905460 0.007258587982506 0.015997678041458 0.020665716379881 -0.032649502158165 0.017596255987883 0.000313640397508 0.005215382669121 0.024206751957536 -0.029416939243674 -0.027733940631151 0.040262393653393 -0.012962826527655 -0.024223066866398 -0.007020779419690 -0.012846900150180 0.000067428263719 0.020014289766550 -0.000300915096886 0.016993163153529 -0.012079438194633 -0.005964010022581 -0.004445667844266 -0.028930507600307 -0.010553693398833 -0.028984706848860 0.010821877978742 0.000209684672882 -0.020566198974848 0.017459636554122 0.046519104391336 0.048648476600647 0.071618981659412 0.042452536523342 0.018065182492137 -0.014585630968213 -0.035377342253923 0.024724898859859 0.021975101903081 -0.023529168218374 -0.050837699323893 -0.015115750953555 -0.019169257953763 0.005113789811730 -0.027140162885189 -0.035228975117207 -0.026552466675639 -0.030779350548983 0.003107286989689 0.023599859327078 0.015366394072771 0.002527045086026 0.032465871423483 0.029851447790861 0.018285615369678 0.009181513451040 0.001340306480415 0.032901365309954 -0.011541192419827 0.016706861555576 -0.010308437980711 -0.027657007798553 0.018744720146060 0.023043453693390 0.019502248615026 -0.017654260620475 0.012279026210308 0.036606099456549 0.000984187703580 0.001446270383894 0.005614607129246 0.010345748625696 0.007979869842529 0.084144257009029 -0.012088413350284 0.002367695327848 -0.028102574869990 -0.014441143721342 0.001270919339731 0.029569676145911 0.052190393209457 0.013988591730595 0.006801158189774 0.018126130104065 0.012445585802197 -0.015171601437032 0.011258724145591 -0.017539560794830 -0.026181748136878 -0.007261663209647 -0.025620363652706 0.001033924403600
0.062181118875742 -0.016795706003904 0.075077772140503 0.042379077523947 -0.008269972167909 0.016669020056725 0.021134732291102 0.056283339858055 -0.036822635680437 0.007437769323587 -0.004589517600834 -0.015872029587626 0.047680675983429 0.055103544145823 -0.057733427733183 -0.011713005602360 -0.014085593633354 -0.021886682137847 0.010595997795463 -0.020676815882325 0.030160803347826 0.019594706594944 0.012012947350740 0.004403857979923 0.042418900877237 -0.014564134180546 -0.024924490600824 0.003744372632354 -0.006610597949475 -0.051045332103968 -0.049681901931763 -0.050813023000956 0.043904379010201 0.008564174175262 -0.057630188763142 -0.065858714282513 -0.032879728823900 -0.015477082692087 0.025776097550988 0.059507414698601 0.028836136683822 0.072757460176945 0.003434652695432 -0.031963787972927 0.018404521048069 0.015940206125379 0.084000840783119 0.021379945799708 -0.080252431333065 -0.014449433423579 -0.033568542450666 0.020068965852261 -0.008716722019017 0.000933740811888 -0.020197955891490 0.014809628948569 0.007926613092422 -0.068706013262272 0.029682757332921 0.011855742894113 -0.004775044042617 0.016731865704060 0.005710689350963 0.048826672136784 -0.027232505381107 0.071757942438126 0.073771663010120 -0.036494228988886 0.045973256230354 -0.004307770170271 -0.013495686464012 0.052199061959982 -0.010630860924721 0.029440470039845 0.042846668511629 0.050688516348600 0.005255461670458 -0.028712047263980 0.058051101863384 0.030873224139214 -0.033184431493282 -0.002540965098888 -0.039381042122841 0.023684700950980 0.003102433169261 0.008787086233497 0.017868779599667 0.014307116158307 -0.000006340922937 -0.007754778023809 0.012562569230795 0.000559793668799 -0.045539774000645 -0.015763100236654 0.030405426397920 0.068475462496281 0.028419384732842 -0.021192960441113 -0.061213310807943 -0.036238089203835 -0.005029919091612 0.016269754618406 -0.014828202314675 0.006411998998374 -0.049955040216446 -0.041444581001997 -0.010238124988973 0.031032763421535 0.054641399532557 0.071252711117268 -0.029747292399406 0.009862172417343 -0.047831729054451 0.012086845934391 -0.030977189540863 -0.009593269787729 -0.013560879044235 -0.032638136297464 -0.039214476943016 -0.049778789281845 0.004167338367552 0.005100869573653 -0.005781209096313 -0.051957178860903 0.019980428740382 0.048718910664320 -0.068653449416161 -0.038014456629753
-0.018426515161991 -0.020880810916424 -0.003562910249457 -0.009767807088792 0.029625032097101 -0.048970308154821 -0.020430460572243 -0.002040998777375 -0.004213039297611 -0.007164855953306 -0.007172265090048 -0.036917399615049 -0.051630858331919 -0.042235329747200 -0.024588687345386 0.095660552382469 -0.036634717136621 0.005504659377038 -0.067443080246449 -0.008552156388760 0.065254233777523 0.029655754566193 -0.054020326584578 0.017417978495359 -0.014437734149396 0.022314889356494 0.112033419311047 -0.041191358119249 0.004976359196007 0.054285716265440 -0.057801615446806 0.041261758655310 -0.022827161476016 -0.050216890871525 0.042784664779902 0.025595104321837 0.065273590385914 -0.022877413779497 -0.016533702611923 0.026362538337708 -0.031363897025585 0.004226833581924 -0.065603345632553 0.042028240859509 0.044597547501326 -0.000563153531402 0.008311304263771 0.024971278384328 -0.013382068835199 -0.010175216943026 0.006539825815707 0.011871217750013 0.012214704416692 0.024627024307847 0.009243635460734 -0.018939506262541 -0.031026700511575 -0.038437299430370 0.025192938745022 -0.045084770768881 0.017412241548300 -0.011423837393522 -0.014471976086497 -0.032293409109116 -0.040775489062071 -0.066188938915730 -0.030799446627498 -0.009471354074776 -0.016156936064363 -0.067676141858101 -0.015750367194414 0.022657828405499 -0.090954273939133 0.002580828964710 -0.010477623902261 0.030720584094524 0.033843465149403 0.031299114227295 0.001768565853126 -0.022693652659655 0.010696953162551 0.061941087245941 -0.053983505815268 0.014896532520652 -0.011165685020387 -0.020307930186391 -0.069782540202141 0.012024915777147 -0.035546064376831 0.005158063955605 -0.047683168202639 -0.039676997810602 0.026053788140416 0.031266286969185 -0.065785966813564 -0.026419261470437 0.077583119273186 -0.062717296183109 0.040125560015440 -0.028141111135483 0.061760552227497 -0.078375078737736 -0.011758998967707 -0.017956759780645 0.059473995119333 -0.011180564761162 0.002235085470602 0.090495839715004 -0.062151040881872 -0.074251316487789 -0.053760223090649 0.025133740156889 0.061370603740215 -0.036517679691315 0.094038367271423 0.003483345266432 -0.049661230295897 0.028899073600769 -0.004753340501338 -0.051186077296734 0.017216162756085 0.015437017194927 -0.014614459127188 0.028730446472764 -0.064576059579849 -0.023863736540079 -0.053024165332317 0.071179285645485
-0.015673985704780 -0.011253663338721 0.002678347751498 0.017239002510905 0.018748525530100 0.002093799645081 -0.016292126849294 -0.001648900099099 -0.003304427489638 0.018010143190622 -0.033801116049290 0.038613289594650 0.005477594677359 0.035492952913046 0.014717049896717 0.026194060221314 -0.004184903111309 -0.006317601073533 -0.012252380140126 -0.013679652474821 -0.030419562011957 -0.027337528765202 0.013268397189677 0.026794612407684 0.039589580148458 -0.005830900743604 -0.005145620554686 0.007868163287640 -0.014871768653393 -0.008826072327793 0.000722891883925 0.076987423002720 0.017416756600142 0.028935408219695 0.014028776437044 -0.026155656203628 0.057604998350143 0.009123188443482 0.057034548372030 0.009646078571677 0.031867865473032 0.045731335878372 0.003465141635388 0.018963132053614 0.010074896737933 0.040857173502445 0.034994125366211 0.015138737857342 -0.011668229475617 0.035229809582233 0.097674220800400 0.048424571752548 -0.014789309352636 0.039594896137714 -0.033006325364113 0.099662460386753 0.018494529649615 0.020487330853939 0.041591178625822 0.023592015728354 0.016289431601763 -0.001224528066814 -0.027725903317332 -0.006859180051833 -0.030554560944438 0.011238808743656 0.052469942718744 0.030764000490308 -0.057719342410564 -0.041685685515404 0.005880646407604 0.030373524874449 -0.011763354763389 0.040119238197803 -0.038063928484917 -0.008272739127278 0.040021538734436 -0.007322037592530 -0.012125884182751 0.012672482989728 0.016847921535373 -0.038611270487309 -0.014403546229005 0.003999997861683 0.032653819769621 0.029623145237565 0.019360795617104 0.016647102311254 -0.003284450620413 -0.059231948107481 -0.010191239416599 0.025505471974611 -0.009515325538814 0.060263086110353 0.017081871628761 0.047558173537254 0.006714883726090 0.012908432632685 0.003064639633521 0.084450230002403 -0.007152338046581 -0.011412987485528 0.059095330536366 0.040908064693213 0.053063213825226 -0.024655213579535 -0.013269380666316 -0.025231350213289 0.004159734118730 0.028294242918491 -0.055467858910561 0.006296333856881 -0.027761576697230 -0.026566024869680 -0.058773912489414 0.061904340982437 0.037783674895763 -0.005364052951336 -0.020438572391868 0.032083004713058 0.004979651886970 -0.020128414034843 -0.003300348296762 -0.019023161381483 0.016722474247217 -0.006274213548750 -0.028208183124661 -0.007514095399529
0.029601488262415 0.034505125135183 -0.003793752053753 0.020232491195202 -0.013178671710193 -0.029876092448831 0.036876451224089 -0.003322536125779 0.009400972165167 0.011148665100336 -0.002228115685284 -0.030287543311715 0.029931649565697 0.032696187496185 0.090085282921791 -0.011212516576052 0.011123456060886 0.002677335171029 0.023939190432429 -0.006810710765421 -0.032896466553211 0.012811945751309 0.048787616193295 0.004242334049195 0.017637688666582 0.023462733253837 -0.045772813260555 -0.062931269407272 -0.027382537722588 -0.039041846990585 -0.011813027784228 -0.002012823941186 -0.026898488402367 0.008022358641028 -0.025434257462621 -0.024635773152113 0.005456538405269 0.016014775261283 0.017775556072593 0.035574149340391 0.004760069772601 -0.022831305861473 0.054806254804134 0.003631837200373 -0.027998451143503 -0.039507053792477 0.038573946803808 -0.060972575098276 -0.001456251600757 -0.003485949477181 -0.021864250302315 -0.025424722582102 -0.009408753365278 -0.019538346678019 -0.056554716080427 0.011516311205924 0.008219783194363 0.019145892933011 0.025879807770252 0.034176684916019 0.055696226656437 0.015732856467366 0.000727369100787 0.014074215665460 -0.007192404475063 0.040740206837654 0.010997478850186 0.028065541759133 -0.021285548806190 -0.001572223030962 0.017251526936889 -0.054311756044626 0.008270270191133 0.008334608748555 0.022015670314431 -0.021645929664373 -0.045831125229597 -0.013357272371650 0.010196981951594 -0.032687209546566 0.009428900666535 -0.033384501934052 0.010875768959522 -0.037759926170111 0.026554297655821 -0.009845026768744 0.026493070647120 0.012674448080361 -0.001115749590099 -0.051701758056879 0.012588305398822 0.018696183338761 0.043177071958780 0.002054634038359 0.021332198753953 0.002472998108715 -0.006234896834940 -0.020615894347429 -0.016584228724241 -0.006288307718933 -0.020963316783309 -0.010882870294154 0.002701833378524 -0.020074354484677 0.010642191395164 0.005822254810482 -0.003551271278411 0.042865276336670 0.016731327399611 0.011439568363130 -0.045302052050829 -0.019063198938966 -0.001846375409514 -0.013140391558409 -0.013965170830488 -0.005904851015657 -0.013560538180172 -0.011893087066710 0.009027872234583 -0.023642284795642 0.009818553924561 0.023153902962804 -0.012529334053397 -0.034031808376312 0.046310249716043 0.017901344224811 0.019440617412329 -0.033962335437536
-0.000699869357049 -0.030730150640011 0.021475143730640 -0.005276098381728 -0.051070053130388 0.047551084309816 -0.029777981340885 -0.152863755822182 -0.030541509389877 -0.028518719598651 -0.038595885038376 -0.005855228286237 -0.077718608081341 -0.053507931530476 -0.061799738556147 0.075061574578285 -0.068707935512066 -0.091878563165665 0.043658602982759 -0.030802758410573 0.012688001617789 0.007618494331837 -0.077712073922157 0.051469292491674 0.018682617694139 -0.014815461821854 0.002891586162150 0.025428023189306 -0.032172385603189 0.011811101809144 -0.024233503267169 0.105826295912266 -0.001637551235035 -0.148343101143837 0.029220905154943 0.016650784760714 0.041547305881977 -0.034167744219303 0.013436593115330 0.044504065066576 -0.008364223875105 0.020793832838535 -0.065498493611813 0.057791069149971 -0.032185293734074 -0.150228559970856 0.041632074862719 0.057023886591196 -0.086224846541882 -0.034239690750837 0.011967035010457 0.075037389993668 -0.065563932061195 0.098842456936836 -0.012926560826600 0.045590478926897 -0.011404525488615 -0.040950015187263 0.143687933683395 0.008465162478387 0.003726406022906 0.005227656103671 -0.037646751850843 -0.077385075390339 -0.154900595545769 -0.000966303574387 -0.004602675791830 -0.031358897686005 0.009153545834124 0.035902060568333 0.014827365987003 -0.038191255182028 -0.154236063361168 0.012794302776456 0.033470910042524 -0.058254793286324 0.009940162301064 0.050303421914577 0.050700630992651 -0.029925553128123 -0.020256061106920 -0.022436367347836 0.014198328368366 0.018394794315100 -0.046121608465910 -0.016785660758615 -0.093990519642830 -0.032639563083649 0.023114291951060 0.021294431760907 -0.099919289350510 -0.098600059747696 -0.041398104280233 0.104069814085960 -0.021345291286707 0.027323326095939 0.036531262099743 -0.003246813314036 0.042328555136919 0.100138358771801 -0.040075860917568 -0.003857423784211 -0.020655082538724 0.007464071735740 0.057419650256634 -0.150660410523415 -0.002569271251559 -0.076544120907784 -0.098704792559147 0.004824558272958 -0.193003386259079 -0.011221989989281 -0.001779817393981 0.059863045811653 0.076274454593658 0.106317937374115 0.111401125788689 -0.010390923358500 0.036971796303988 -0.083459444344044 0.005014413967729 -0.038887094706297 -0.036028817296028 -0.084237873554230 -0.042136710137129 -0.114613436162472 -0.039052538573742 -0.011895446106791
0.024126110598445 -0.007494797464460 -0.010765044949949 -0.025409435853362 0.015953706577420 0.003070520935580 0.025753075256944 0.058449074625969 -0.012739269062877 -0.037345491349697 -0.012022046372294 -0.010486807674170 -0.048843324184418 -0.002470904728398 -0.015786346048117 -0.014083806425333 -0.018313420936465 0.006510918028653 0.002039883751422 -0.030478447675705 -0.005810669157654 0.033283658325672 -0.012087479233742 -0.014060683548450 0.003643829142675 0.070408955216408 -0.040604289621115 -0.006332415621728 -0.002231834689155 -0.002293361816555 0.008274427615106 -0.008833980187774 -0.000573362747673 0.062672562897205 -0.007373420521617 0.002514567924663 -0.013936058618128 0.000469096266897 0.002094265539199 0.031711306422949 0.022198816761374 -0.011408453807235 0.055093690752983 -0.040066350251436 0.068831600248814 -0.006391127593815 0.008128150366247 -0.011597296223044 0.000947821477894 -0.012724204920232 -0.031320687383413 -0.028383754193783 0.007697412278503 -0.018808426335454 -0.021858843043447 0.004154663998634 -0.033896218985319 0.017968097701669 -0.008634393103421 -0.027361717075109 0.029179215431213 0.099056713283062 -0.005392028018832 0.012241259217262 -0.009431825019419 0.000181127965334 -0.042791608721018 -0.027076290920377 0.000368226086721 0.012095789425075 0.013646835461259 -0.025724655017257 0.011484772898257 -0.013887327164412 0.010813579894602 -0.031019117683172 -0.010034256614745 -0.023790778592229 0.009929828345776 0.038412768393755 0.022816533222795 -0.028178114444017 -0.022363593801856 -0.009509524330497 0.008090759627521 0.035328578203917 -0.006832724437118 -0.004307548515499 -0.007947139441967 0.027244513854384 0.024009920656681 -0.017969986423850 -0.004496793262661 0.003514213953167 -0.022054031491280 0.014499750919640 -0.006755673326552 -0.030913384631276 0.003335311776027 -0.021831182762980 0.017300536856055 0.026544740423560 -0.005238488316536 0.029673030599952 0.002409149892628 0.040850330144167 0.011361722834408 0.007788211107254 0.012207911349833 -0.013768254779279 -0.012822678312659 0.045425314456224 -0.056978151202202 0.006447958759964 0.008615008555353 -0.001315736910328 -0.031916923820972 -0.012458490207791 0.005513044539839 -0.004302043002099 -0.006144274957478 0.020502248778939 -0.009448445402086 -0.030387811362743 -0.015484546311200 -0.005988222081214 -0.008285563439131 0.014905425719917
-0.005953805055469 -0.000763491727412 0.004905499517918 -0.010599763132632 -0.062924742698669 0.006572116166353 0.079001173377037 0.004446937236935 -0.038961336016655 0.031156344339252 0.094041615724564 -0.027136513963342 0.015920553356409 0.027095189318061 -0.032580863684416 -0.016831416636705 0.021056966856122 0.034062366932631 -0.014141519553959 0.017887072637677 -0.030094850808382 -0.013604586012661 0.025524234399199 0.030013240873814 -0.014471854083240 0.036232814192772 -0.026289043948054 0.019329775124788 -0.036021642386913 -0.048924818634987 0.019753307104111 -0.073873840272427 -0.005371135193855 0.017484039068222 -0.049676302820444 -0.051129430532455 -0.099105343222618 0.000392550602555 -0.064442597329617 0.040282398462296 -0.016666257753968 -0.009904359467328 0.013246119953692 -0.065846636891365 -0.007852277718484 -0.035471025854349 -0.047801472246647 -0.041240364313126 -0.028605477884412 0.020551202818751 -0.017540434375405 -0.069713369011879 -0.003346445271745 -0.029959561303258 -0.032137420028448 -0.055194351822138 0.036085043102503 0.047517437487841 -0.066036090254784 0.030446916818619 0.059248626232147 -0.008914479985833 0.062826327979565 0.038405705243349 -0.032703943550587 -0.012295871973038 -0.071282587945461 -0.077860586345196 -0.027403693646193 -0.019908370450139 -0.025154115632176 -0.027123240754008 0.029455186799169 -0.044091179966927 0.016632121056318 -0.004889696370810 -0.073958337306976 -0.020938772708178 -0.025076011195779 0.026408901438117 0.011745633557439 0.007617830764502 0.027725718915462 -0.013345655985177 -0.013308764435351 -0.005520654376596 0.008073718287051 0.009437276050448 0.011268848553300 0.035315699875355 0.018703861162066 0.040428820997477 -0.058671887964010 -0.071282997727394 0.044356331229210 0.031938131898642 -0.001941503374837 0.039757587015629 -0.065675750374794 -0.083023868501186 -0.035002756863832 0.021974293515086 -0.048137005418539 -0.019305059686303 -0.102600328624249 -0.047912098467350 0.012456775642931 0.047765720635653 -0.004362034611404 -0.026957813650370 -0.042737621814013 -0.007426170166582 0.021835774183273 -0.016591457650065 0.025342009961605 -0.048999637365341 -0.012483351863921 -0.049231443554163 0.020571943372488 0.029985267668962 -0.012484391219914 0.059628423303366 -0.011805603280663 0.015137039124966 0.014167907647789 0.026564443483949 0.045266918838024 -0.060615886002779
-0.027847327291965 -0.036327522248030 -0.023885324597359 -0.038172703236341 0.038389533758163 -0.051582675427198 -0.013840793631971 -0.020353781059384 -0.022675728425384 0.030607866123319 -0.048593092709780 -0.033798716962337 -0.051197212189436 -0.010284145362675 -0.030672108754516 0.047514364123344 -0.059707537293434 0.014329477213323 -0.053495328873396 0.026170931756496 0.047247286885977 0.098639190196991 -0.056736931204796 0.012458642944694 0.061248999089003 0.026957495138049 0.020138191059232 -0.011795866303146 0.001523524173535 0.016166619956493 -0.048310603946447 0.056201379746199 -0.044698942452669 -0.042105723172426 0.032190807163715 0.053278692066669 0.039848685264587 -0.064049832522869 0.048008847981691 0.076207801699638 -0.006015028338879 0.073454424738884 -0.046693928539753 0.043523065745831 0.035767506808043 0.015910374000669 -0.043222207576036 0.082262940704823 -0.056147105991840 -0.016852840781212 0.056237764656544 0.016602769494057 -0.031663715839386 0.059780679643154 -0.032996598631144 0.053742203861475 -0.019521983340383 -0.030635636299849 0.025293949991465 -0.031939640641212 -0.010531909763813 0.022655777633190 -0.011944963596761 -0.037800718098879 -0.026673782616854 -0.108070820569992 0.009057377465069 0.004197156988084 0.034099478274584 -0.056727021932602 -0.012004673480988 0.045869093388319 -0.093771345913410 0.020657690241933 -0.010258600115776 0.000717704533599 0.042959045618773 0.018808197230101 -0.008576345629990 0.005189319606870 -0.021993817761540 -0.010913603007793 -0.075109206140041 0.009382323361933 -0.027380404993892 0.041083306074142 -0.044289909303188 -0.024561462923884 -0.028701366856694 -0.028862526640296 -0.041586536914110 -0.002322981599718 0.004020336084068 0.057399000972509 -0.025784460827708 0.020762735977769 0.077630236744881 -0.071077615022659 0.013144899159670 0.033985719084740 -0.030871260911226 -0.024016691371799 0.013974322006106 -0.084247857332230 0.018354739993811 -0.002218917245045 -0.043366860598326 0.041492450982332 -0.065628759562969 0.006528318393975 -0.033105626702309 0.041804786771536 -0.027128858491778 -0.040184024721384 0.022003574296832 0.048626665025949 0.054023504257202 0.005569981411099 -0.001096879248507 -0.065225966274738 0.002556270686910 0.018341574817896 -0.007230858784169 -0.020004941150546 -0.056145746260881 -0.055856596678495 -0.014067766256630 0.044404506683350
0.056055370718241 -0.003513085655868 -0.006831361446530 0.017604805529118 -0.078308142721653 0.019502772018313 -0.023335963487625 -0.034067526459694 -0.036007381975651 0.038981616497040 -0.061883803457022 0.026851398870349 -0.032477147877216 -0.018748793751001 -0.021115908399224 0.045232065021992 -0.033590603619814 0.063268832862377 -0.035746816545725 0.056506577879190 0.020349482074380 -0.023923151195049 0.017986651510000 0.042374130338430 -0.016287073493004 -0.033615142107010 -0.070591308176517 0.138142511248589 -0.093284823000431 -0.024064019322395 0.069558747112751 0.020711943507195 -0.002825269009918 -0.065857172012329 -0.004603750538081 0.005191069561988 0.020800080150366 -0.029455618932843 -0.052327707409859 0.019831763580441 0.035830639302731 -0.020836757495999 -0.008135190233588 0.038938697427511 -0.094950109720230 0.010550728999078 -0.029848033562303 -0.015985585749149 0.053200624883175 0.055340327322483 -0.079317972064018 0.010027347132564 0.032497305423021 -0.038538683205843 -0.053133066743612 -0.025698294863105 -0.086336314678192 -0.046089608222246 -0.062779054045677 0.017081089317799 -0.023107603192329 -0.032474137842655 0.024873057380319 0.037169124931097 0.009970438666642 -0.072312496602535 -0.059616610407829 -0.049146797508001 -0.025235421955585 -0.022274047136307 0.009527229703963 -0.006871489807963 -0.012234791181982 0.029604196548462 -0.011552077718079 -0.033869955688715 0.005564334802330 0.018765408545732 0.074725218117237 0.039306875318289 0.006491792388260 -0.015135521069169 -0.004550944548100 -0.037411458790302 -0.035797741264105 -0.058979570865631 -0.012754597701132 -0.045385994017124 0.008201632648706 0.036550816148520 -0.012313953600824 -0.046579144895077 -0.027301356196404 -0.048257309943438 -0.012305762618780 0.028662910684943 0.005108862649649 -0.011472717858851 0.007949203252792 -0.034887216985226 -0.004261656664312 -0.010618206113577 0.034571081399918 -0.056587666273117 0.036446779966354 0.076258152723312 0.019503952935338 -0.069479607045650 0.046652890741825 -0.057139046490192 0.067754209041595 0.056321054697037 -0.004569638054818 0.049909938126802 0.015533435158432 -0.027980815619230 -0.064378313720226 -0.029246052727103 0.071545705199242 0.010358340106905 -0.049339693039656 -0.073534682393074 -0.019675230607390 -0.024169230833650 0.044512476772070 -0.027090085670352 0.104908496141434 -0.054405156522989
-0.003877447918057 -0.012751772068441 -0.017930440604687 -0.000363931234460 -0.038485940545797 -0.029447425156832 0.027655644342303 0.041491504758596 -0.003285565413535 0.015909915789962 0.038913808763027 0.001382161513902 0.006059177685529 0.004732911475003 -0.008308960124850 -0.017364507541060 0.020683998242021 0.027596343308687 -0.028217958286405 -0.016667477786541 0.018925072625279 -0.005677347537130 0.012132822535932 0.010593511164188 0.007086390163749 0.028960850089788 -0.008566157892346 0.030887879431248 -0.034245792776346 -0.060733642429113 -0.028946135193110 -0.078489355742931 -0.028431054204702 0.052355062216520 -0.033758625388145 -0.022759910672903 -0.094733111560345 0.006965298671275 -0.066263839602470 -0.008784722536802 -0.005785407032818 -0.036054961383343 0.012866223230958 -0.081502273678780 0.038813043385744 -0.019599549472332 -0.069089807569981 -0.036449104547501 -0.031687259674072 -0.001186733017676 -0.030119743198156 -0.041608192026615 0.013186747208238 -0.019574016332626 -0.015749387443066 -0.067534498870373 -0.041563626378775 0.050204157829285 -0.057057186961174 0.009531724266708 0.016242651268840 0.010069867596030 0.017589189112186 -0.006484841462225 -0.020854724571109 -0.039171528071165 -0.055574119091034 -0.040320571511984 0.017308467999101 -0.001548824133351 -0.001552457455546 -0.010422105900943 0.035926956683397 -0.033284004777670 -0.011510220356286 -0.011544381268322 -0.058832477778196 -0.029305983334780 0.000712252571248 0.050029970705509 -0.007241423707455 -0.024442132562399 -0.013830721378326 -0.025215616449714 -0.003143307520077 0.016251729801297 0.017362352460623 0.037361338734627 -0.003288451815024 0.049199160188437 0.009143650531769 -0.009137547574937 -0.061944156885147 -0.035627301782370 0.004077377729118 0.033911738544703 0.058262068778276 -0.010991308838129 -0.073698334395885 -0.063037060201168 -0.019474145025015 0.037737607955933 -0.077330701053143 -0.035495020449162 -0.070360675454140 -0.038353286683559 0.014558922499418 -0.000593992124777 -0.020515371114016 -0.010952600277960 0.012938460335135 -0.014965817332268 -0.028319843113422 -0.014078319072723 -0.011064660735428 -0.077884346246719 -0.027708325535059 -0.050851114094257 0.003902775933966 0.036967035382986 -0.056140735745430 0.031775210052729 0.021872218698263 -0.011986016295850 0.005205249413848 0.011198198422790 0.002203306648880 -0.043167922645807
-0.001067895209417 0.021852781996131 0.010761388577521 -0.003270152723417 -0.047954831272364 -0.017355861142278 -0.010559324175119 0.006584752351046 0.064780741930008 -0.000549920659978 0.004571795463562 -0.032696761190891 0.025641998276114 0.025731634348631 0.012860705144703 -0.026210987940431 0.024821566417813 0.013349489308894 0.018273489549756 0.024585386738181 0.047777686268091 0.007709566038102 0.050414625555277 -0.025204082950950 0.027215981855989 -0.021321117877960 0.029251515865326 -0.040926154702902 -0.063085310161114 -0.024065447971225 -0.043952833861113 -0.008743223734200 -0.019417736679316 0.032922640442848 0.013203920796514 -0.025000629946589 -0.005592667497694 0.047307439148426 0.044151596724987 0.010277926921844 0.004057741258293 -0.019067632034421 0.019667075946927 -0.018218548968434 -0.049227423965931 -0.024389691650867 0.029035415500402 -0.035417739301920 -0.027436301112175 -0.028021046891809 -0.042043808847666 0.016250604763627 0.009108908474445 -0.011829784139991 -0.011700513772666 -0.030442228540778 -0.002295031212270 0.072084762156010 0.005334997083992 0.007505139801651 0.034300375729799 -0.014127269387245 -0.029767613857985 0.019597886130214 -0.011481271125376 0.017998918890953 -0.044839687645435 -0.014193386770785 -0.028669973835349 -0.020055800676346 -0.017468003556132 -0.018622795119882 -0.056481409817934 0.070252910256386 -0.006085270550102 0.013572994619608 -0.017289672046900 -0.047523785382509 -0.025260407477617 -0.069898113608360 0.018519613891840 0.003426120616496 0.002433351939544 0.023706011474133 -0.004836699459702 -0.004139431286603 0.008741992525756 0.032760247588158 0.008314015343785 -0.023403909057379 0.018881125375628 0.021315189078450 -0.037274137139320 0.006580001674592 -0.023861715570092 0.006443393416703 -0.032481603324413 -0.047060444951057 0.071104921400547 -0.025489533320069 0.014454063028097 -0.017727009952068 -0.036835864186287 -0.010393621399999 -0.011689519509673 -0.002824515569955 -0.031982392072678 0.010757105425000 0.005197912454605 0.005918445065618 0.001321803545579 -0.018236014991999 -0.016098663210869 -0.048396885395050 -0.034263033419847 -0.026793198660016 -0.057644121348858 -0.020196063444018 -0.008064018562436 -0.022441674023867 -0.006105402484536 0.030822688713670 0.016106018796563 -0.011275386437774 0.046684123575687 0.013454269617796 -0.015011417679489 -0.006701876409352
-0.009944015182555 -0.000945166219026 0.016136765480042 0.028573209419847 -0.007699506822973 -0.041019484400749 -0.025929210707545 0.016213480383158 -0.038095831871033 0.027201460674405 0.015539966523647 0.003857143921778 -0.009535188786685 -0.011374861933291 -0.075508080422878 -0.008445749059319 -0.003734262194484 0.005315967835486 -0.049782734364271 -0.000765117350966 0.015955744311213 -0.010149124078453 0.009408367797732 -0.007419459987432 -0.034537576138973 -0.020896131172776 0.011222220025957 -0.023724155500531 -0.050478491932154 -0.056776445358992 0.026579163968563 -0.074991255998611 0.004733269568533 0.027158724144101 0.004132254514843 -0.003637691726908 -0.111749038100243 0.024493260309100 -0.046426635235548 0.004701432771981 -0.030326355248690 -0.074839875102043 0.014328815042973 -0.085417248308659 0.010448595508933 0.053651392459869 -0.009711098857224 -0.029380526393652 0.031144000589848 0.028964698314667 -0.015981731936336 -0.029065100476146 0.039976056665182 -0.051007416099310 -0.001444858615287 -0.081989735364914 -0.007201254367828 0.009559840895236 -0.075787343084812 0.016619002446532 -0.016835497692227 0.036276087164879 -0.003056727582589 0.048318855464458 -0.031891278922558 -0.055835079401731 -0.043260108679533 -0.056345805525780 -0.003617653856054 -0.005719212815166 -0.035057511180639 -0.007961804978549 -0.044729337096214 -0.028503682464361 0.023911152034998 0.000695521885063 0.005272802431136 0.015245510265231 -0.018900437280536 -0.015645273029804 -0.064525328576565 -0.011107880622149 0.010655631311238 -0.006388444453478 -0.027451841160655 -0.010150269605219 0.037012048065662 -0.027450982481241 0.011534607037902 -0.032832052558661 0.051530025899410 0.036058258265257 -0.037377059459686 -0.073323093354702 0.002275555394590 -0.002476460533217 0.002507083816454 0.003283615922555 -0.078902408480644 -0.074655212461948 -0.019310750067234 -0.010392340831459 -0.098988167941570 -0.019042542204261 -0.046980224549770 0.066624812781811 -0.009043709374964 0.001749423565343 0.000614694261458 -0.025154432281852 -0.015960022807121 0.041059687733650 -0.017217796295881 -0.002929730806500 0.007399135734886 -0.064892865717411 -0.030096918344498 -0.036729589104652 0.012109673582017 -0.004890995565802 -0.045325528830290 -0.006210615392774 -0.024039017036557 -0.041003137826920 0.005909044295549 0.043540630489588 0.008394264616072 -0.032208468765020
0.013057719916105 -0.024110630154610 -0.008090129122138 -0.022961713373661 -0.008456802926958 -0.001400399487466 0.004264832939953 -0.003595799906179 -0.005233379546553 -0.027255127206445 0.009440901689231 0.001166633097455 -0.028897054493427 -0.020586304366589 -0.013111996464431 -0.004696791525930 -0.028563924133778 -0.004935265518725 -0.003162277862430 -0.004535287618637 -0.000892967509571 -0.031137669458985 -0.014870338141918 0.012890300713480 -0.014651873148978 -0.013307513669133 0.019690250977874 -0.016556136310101 -0.005593576002866 -0.008318397216499 0.002089175395668 -0.011093844659626 -0.010852959007025 -0.004272578749806 -0.003904573153704 0.005558209959418 -0.014266633428633 0.010542039759457 -0.016141703352332 0.007065570913255 -0.012244136072695 0.010170106776059 -0.025978462770581 -0.023789698258042 -0.010120356455445 -0.018410969525576 0.007758270483464 -0.012960023246706 -0.007179476786405 0.033606197685003 -0.019249822944403 -0.001650317572057 0.002795518143103 -0.021829882636666 0.015589389018714 -0.031260278075933 -0.014601660892367 -0.014453986659646 0.004185113590211 -0.015237872488797 -0.002598516875878 -0.002320253523067 0.035810530185699 -0.036780614405870 0.011237195692956 0.022300720214844 0.004922772292048 -0.014943241141737 0.000401046476327 -0.002994481241331 -0.031553011387587 -0.014465499669313 0.006424836814404 -0.011530513875186 -0.005832876078784 -0.031151888892055 -0.009896584786475 -0.029217442497611 0.034203682094812 0.034396700561047 -0.031277038156986 -0.022769942879677 -0.017085479572415 -0.015293505974114 -0.002506858669221 -0.002265601418912 0.007821111939847 -0.013997069559991 0.003854525042698 -0.001532725873403 -0.013674452900887 -0.022464036941528 0.013157818466425 -0.010275999084115 0.006554119288921 -0.034779056906700 -0.008477127179503 0.016096889972687 -0.005979367531836 -0.032822035253048 0.023099059239030 0.012614438310266 -0.033392928540707 0.007735951803625 -0.005631975829601 -0.018965577706695 0.041291333734989 -0.040266171097755 0.000124667203636 -0.000330316746840 0.032467346638441 0.015373090282083 0.007494797930121 -0.000157943723025 0.013022006489336 -0.007013911381364 -0.003518737386912 -0.004005831200629 0.011377577669919 0.003836255287752 0.023637792095542 -0.004379801917821 -0.022172231227160 0.026186885312200 -0.045430384576321 -0.014655116014183 0.041449107229710 0.004606020636857
-0.047699347138405 0.011797348968685 -0.020515669137239 -0.008494784124196 -0.033977854996920 -0.012460726313293 0.015739671885967 -0.042833629995584 -0.003962214104831 0.022880690172315 0.024881483986974 0.036936100572348 -0.015817256644368 0.026098912581801 -0.024706555530429 0.028620498254895 0.021023107692599 -0.032315637916327 -0.053511023521423 0.023874154314399 0.040905024856329 0.016321301460266 -0.016449270769954 0.046493690460920 -0.022673843428493 -0.004505507647991 -0.011247893795371 -0.042575653642416 -0.059779353439808 -0.026792593300343 0.000382811587770 0.028942257165909 -0.035234633833170 0.014220357872546 0.006729503627867 -0.029675843194127 0.009646213613451 -0.026448383927345 -0.008622336201370 0.027457743883133 0.036537501960993 0.031982474029064 -0.008602874353528 0.008765409700572 -0.075852796435356 -0.019303701817989 -0.007941382937133 -0.020774094387889 0.004284826107323 -0.028322467580438 -0.010064362548292 -0.003179102670401 -0.015979740768671 0.004942853469402 -0.022758882492781 -0.026391165331006 0.028451016172767 -0.000234439852647 -0.025846110656857 0.052399009466171 0.007178432308137 -0.000055346721638 -0.013079868629575 -0.019090924412012 -0.087354756891727 -0.041117623448372 -0.011812086217105 -0.014802980236709 -0.065045058727264 0.027202542871237 0.033752225339413 -0.044688880443573 -0.086539335548878 0.037618689239025 0.008416639640927 -0.010252236388624 -0.024387560784817 0.012655427679420 -0.062923945486546 -0.042926687747240 0.006101808976382 0.007473980542272 0.027783229947090 -0.000908452784643 0.006120911799371 -0.012738120742142 -0.028926538303494 -0.030078960582614 -0.017805097624660 -0.028286669403315 -0.019185952842236 -0.020756477490067 0.001193948090076 -0.012342559173703 0.029028816148639 -0.019959518685937 -0.002290102187544 0.033185869455338 0.033784568309784 0.012946221046150 0.004266622476280 0.002734721871093 -0.035539839416742 0.008603215217590 -0.002318290993571 -0.119926616549492 0.013415284454823 -0.070280171930790 -0.050569850951433 -0.080912739038467 -0.078458040952682 -0.003709073876962 -0.027207128703594 -0.028286101296544 -0.003251970047131 0.011908350512385 -0.077393010258675 -0.033573407679796 -0.005724029149860 -0.034083027392626 -0.024533029645681 0.008722420781851 0.025413369759917 -0.030634380877018 -0.007591653615236 -0.038562446832657 -0.051356717944145 -0.018652223050594
-0.025795467197895 -0.020028274506330 0.083489999175072 0.010663168504834 0.017550988122821 0.006227171514183 -0.004415310919285 0.014754318632185 -0.000951297522988 -0.037361040711403 -0.022474622353911 0.022140048444271 -0.042454075068235 0.000875799567439 0.009986233897507 -0.016799194738269 -0.019387848675251 -0.050294578075409 0.004057758953422 -0.021504143252969 -0.043049119412899 -0.034175381064415 -0.035562641918659 -0.020824080333114 -0.057756397873163 -0.037742458283901 -0.011024248786271 -0.008619858883321 0.038964796811342 0.028969451785088 0.030333500355482 -0.013587168417871 0.059494234621525 0.041133008897305 -0.030343923717737 0.032920882105827 0.031804069876671 0.001383584574796 -0.004916452802718 -0.017482763156295 -0.031224517151713 -0.013617583550513 -0.006729258690029 0.017575263977051 0.068901486694813 0.013889514841139 -0.021532116457820 -0.054185669869184 0.042811378836632 -0.009840104728937 -0.019171098247170 -0.011837109923363 0.009938203729689 -0.017034804448485 0.013298077508807 0.028118291869760 -0.021232148632407 0.001304271165282 -0.028232939541340 -0.052509967237711 -0.041428588330746 -0.002751438878477 -0.028311168774962 0.046670336276293 -0.029172852635384 -0.061206866055727 -0.004114466719329 0.024595238268375 0.025157094001770 -0.015120246447623 -0.032372761517763 -0.042326886206865 -0.027693413197994 -0.022374516353011 0.002337830141187 -0.063756026327610 0.001762130763382 0.010859284549952 -0.014600736089051 -0.011236709542572 -0.012195061892271 -0.046897705644369 -0.028891827911139 -0.006649047136307 -0.015330359339714 -0.002713127993047 0.017140544950962 -0.048255361616611 -0.026786094531417 -0.034106723964214 -0.011808534152806 0.019245650619268 0.001259467331693 -0.037138737738132 -0.015193774364889 -0.022545518353581 -0.006874567363411 -0.019727671518922 0.018114130944014 0.000016253179638 0.025361116975546 -0.004688901361078 0.001619812799618 0.005298567004502 0.012181792408228 0.028795121237636 -0.005883568432182 -0.020917037501931 -0.003827434964478 -0.032566595822573 -0.036118637770414 -0.032882187515497 -0.008611432276666 0.022447036579251 -0.009056130424142 -0.002838579704985 -0.013342026621103 0.018381325528026 -0.016146011650562 0.010686730034649 -0.024000154808164 -0.026137430220842 -0.025197554379702 -0.006641993299127 -0.011353584006429 -0.016104757785797 -0.000909683643840 -0.000659933255520
-0.010543061420321 0.015756210312247 0.016399085521698 -0.044510863721371 -0.003682542359456 -0.006775251124054 -0.023355981335044 -0.055397573858500 0.004672498907894 -0.011520204134285 -0.070332966744900 -0.002562404144555 -0.027787908911705 0.018118204548955 -0.039037242531776 0.019581103697419 0.034973744302988 -0.041270568966866 0.085294209420681 0.016007388010621 -0.020841766148806 -0.044061623513699 -0.054209467023611 0.005995585117489 0.009831164963543 -0.076962679624557 0.020262256264687 -0.012998423539102 -0.032110672444105 -0.009710800834000 -0.071380548179150 0.049938187003136 0.005676541011781 0.008899613283575 -0.042164966464043 0.002281518653035 0.056277096271515 -0.004456494469196 0.029832506552339 0.011352173984051 0.097553014755249 0.000155835310579 -0.064851291477680 0.013786967843771 -0.001791428308934 -0.031172601506114 0.009500068612397 0.080690130591393 -0.082514651119709 -0.080600567162037 0.159873515367508 0.037159636616707 -0.023554500192404 0.047720681875944 -0.018062308430672 0.068631142377853 0.011012071743608 -0.096835881471634 0.041597887873650 0.044822812080383 -0.008961991406977 -0.036357730627060 -0.025902308523655 -0.110905177891254 -0.025507755577564 0.059728041291237 -0.017467159777880 -0.054151561111212 0.007873240858316 0.017989451065660 0.028545593842864 0.007246498484164 -0.008396121673286 -0.001728315372020 0.012196330353618 -0.000273064855719 -0.016178326681256 0.010748849250376 0.047175098210573 -0.055499833077192 -0.045086301863194 0.019717341288924 -0.016004333272576 -0.001170973409899 -0.026520090177655 0.022729536518455 0.021678619086742 -0.067059814929962 0.040283553302288 -0.021287642419338 -0.013611194677651 -0.109046503901482 -0.019882211461663 0.063439890742302 -0.028055427595973 -0.044602971524000 -0.010435688309371 0.006006720010191 0.007401213515550 0.106679670512676 -0.035526711493731 -0.045838743448257 0.033353332430124 -0.001025913632475 0.035246286541224 -0.046212617307901 0.002856870414689 -0.126152619719505 -0.061825744807720 0.000127234176034 -0.050013743340969 -0.098294526338577 0.003396197687835 0.009468218311667 -0.038135729730129 0.006973276846111 0.094655223190784 0.003055968089029 0.001140378532000 -0.006729633081704 0.052442528307438 -0.082706451416016 0.002830471610650 -0.027080683037639 0.072613291442394 -0.031532254070044 -0.080076947808266 -0.013980202376842
0.023364836350083 -0.024469397962093 0.005111605860293 -0.036999732255936 -0.012984861619771 0.003122832393274 0.035251148045063 0.026652449741960 -0.058901067823172 0.008520597591996 0.065093949437141 0.041496623307467 0.004884410183877 0.061537306755781 0.020593343302608 0.086036123335361 -0.034360636025667 0.012413648888469 0.028347291052341 0.046323295682669 -0.041261672973633 0.011965979821980 -0.024953121319413 0.046844109892845 0.006578428205103 0.002659942954779 -0.020299000665545 0.059393368661404 0.012443246319890 -0.056728977710009 0.015527668409050 0.008502498269081 -0.024930534884334 -0.029908059164882 -0.016208427026868 -0.038906708359718 -0.032396301627159 -0.032997865229845 -0.058482978492975 0.044181782752275 0.029392998665571 0.101485602557659 0.009550302289426 0.062883369624615 -0.049554813653231 0.029423054307699 -0.015159162692726 0.040189739316702 -0.015861010178924 0.064007684588432 -0.065768808126450 0.008419973775744 -0.027452923357487 0.032554138451815 -0.057739630341530 0.024485331028700 0.037237301468849 -0.025209655985236 0.073294594883919 -0.014286432415247 -0.051863111555576 0.024617299437523 0.122319564223289 0.031217783689499 -0.038114450871944 -0.054996054619551 0.118761532008648 0.003858318552375 0.038519356399775 -0.033188324421644 -0.015910588204861 -0.004475538618863 -0.020094124600291 -0.107595697045326 0.025440275669098 0.012672533281147 0.051265694200993 -0.021593438461423 0.018533755093813 0.023739052936435 -0.034158188849688 0.003844702150673 0.008479339070618 -0.003055564360693 -0.029580650851130 -0.027718670666218 -0.060388933867216 0.024742724373937 0.016564453020692 -0.008715089410543 0.037295058369637 -0.002500419737771 0.011133223772049 -0.011194226332009 0.048216298222542 0.003262167796493 0.004086643923074 -0.000377852411475 -0.079565584659576 0.017967458814383 0.033934619277716 -0.009098983369768 0.011940152384341 0.047802332788706 0.049384992569685 -0.013122141361237 0.007195254322141 0.000290013558697 0.018067620694637 0.058427620679140 -0.025074563920498 0.108343571424484 -0.056601330637932 -0.019955210387707 0.032325197011232 -0.041814096271992 -0.020534517243505 -0.029828777536750 0.024843420833349 -0.072303503751755 0.002694717841223 0.028721835464239 -0.016514597460628 -0.031868666410446 -0.007868075743318 0.030104964971542 0.017298413440585 -0.062562473118305
-0.025237293913960 0.011158980429173 -0.005649691447616 -0.002956596203148 0.003722073743120 -0.007993631064892 0.003423456102610 -0.010841041803360 -0.019405612722039 -0.020744610577822 -0.001853372901678 0.011705746874213 -0.016749056056142 -0.021751409396529 -0.007595511153340 -0.027777882292867 -0.010077599436045 -0.034882239997387 0.002698006341234 0.010291989892721 -0.008558204397559 -0.014868038706481 -0.020509475842118 -0.002668337197974 -0.013211148791015 -0.016301181167364 -0.007187850307673 0.001192245515995 -0.014003035612404 -0.025894630700350 -0.006417414639145 0.000017134509108 -0.012872961349785 -0.009969824925065 -0.002944735577330 -0.010567641817033 -0.037489086389542 -0.014282182790339 -0.022313345223665 -0.007271940819919 0.030626321211457 -0.007918395102024 -0.023518569767475 -0.003833191236481 -0.011153083294630 0.026899583637714 0.018727820366621 -0.005804376211017 -0.001280751777813 -0.011909959837794 -0.033461503684521 0.020140903070569 -0.026457296684384 0.015076879411936 -0.040865045040846 -0.007716893684119 0.009789737872779 -0.024353368207812 0.013103542849422 0.021272052079439 -0.000542778929230 -0.015067143365741 -0.001312887528911 -0.010038496926427 -0.018322641029954 0.000806545955129 0.012698748148978 0.001106679905206 -0.012488381005824 -0.000150657331687 -0.005006373859942 -0.019375057891011 -0.001385101582855 0.002961195074022 0.028804954141378 -0.025396371260285 -0.002593259559944 -0.006906638853252 -0.013608906418085 -0.025033025071025 0.004609269555658 -0.010289464145899 0.006421871017665 0.000367816246580 0.021655341610312 -0.010083765722811 0.007449897471815 -0.007175438571721 -0.008394712582231 -0.006688990164548 -0.018668765202165 -0.004435797221959 -0.011496448889375 -0.007043501827866 0.002979243639857 0.006642614491284 0.001808911329135 0.002845578128472 -0.008192145265639 0.023033283650875 -0.016513468697667 -0.004974543582648 -0.002808128250763 -0.009396195411682 -0.020567789673805 0.003838648321107 0.015766898170114 -0.021761802956462 -0.012964186258614 -0.004360482096672 -0.034640792757273 0.012149471789598 -0.041206911206245 0.008431639522314 -0.001726790214889 0.016736011952162 -0.004055313300341 -0.023835541680455 -0.021677814424038 -0.012352098710835 -0.030249698087573 0.011256556026638 -0.010838092304766 -0.008896877057850 0.006836724933237 -0.003373291809112 -0.002908318769187 0.004931536503136
0.006647427566350 0.028893489390612 -0.005762777756900 -0.006827832199633 0.041517052799463 -0.002320570871234 0.004134929738939 0.006244606338441 0.000152413078467 -0.022511174902320 0.041886031627655 0.009755312465131 -0.002967666601762 -0.020034391433001 0.014719212427735 -0.010979959741235 -0.012208907864988 0.019737234339118 -0.003261742414907 0.041669953614473 0.039581522345543 0.019815070554614 -0.015504389069974 -0.033248651772738 -0.000199471644009 0.000762910756748 -0.019835131242871 0.014317611232400 0.004555960185826 -0.011023588478565 -0.023093691095710 -0.021312899887562 0.015882825478911 0.005493122152984 0.001373152132146 0.036556143313646 -0.008292890153825 -0.022824035957456 -0.017270181328058 -0.022240437567234 0.026119044050574 0.022453868761659 -0.035513263195753 0.021053638309240 0.036548841744661 0.026805782690644 -0.058785695582628 -0.072257630527020 0.016341473907232 0.011029704473913 -0.013722658157349 0.020280640572309 0.000826658389997 0.002231939928606 -0.044533211737871 -0.029635006561875 0.033463720232248 -0.004627781454474 -0.015092355199158 0.012395048514009 -0.010114823468029 0.001294450135902 0.006926010828465 0.011068809777498 -0.042301360517740 -0.038217071443796 0.001335518318228 0.004462115466595 0.001052780891769 -0.003998784348369 -0.013011395931244 -0.031421441584826 -0.031979452818632 -0.018146241083741 0.003524522529915 0.050967384129763 0.042565736919641 -0.034921281039715 0.000384331506211 -0.052724011242390 -0.002658817917109 0.044141478836536 0.012287093326449 0.049960941076279 0.011048022657633 -0.040993724018335 -0.005480602849275 0.028207276016474 0.009243779815733 -0.049348503351212 -0.009358611889184 0.000347743189195 -0.027136040851474 -0.004794992506504 -0.007270011585206 0.037710666656494 -0.003563878359273 0.039742786437273 0.000939287128858 -0.035506933927536 0.009304490871727 0.004339012317359 -0.000164904166013 0.021954813972116 0.014059512875974 -0.043750014156103 0.009495723992586 0.063834071159363 0.003653374034911 -0.025691624730825 -0.036521632224321 -0.010175669565797 -0.030359342694283 -0.021748390048742 -0.040831573307514 0.019429318606853 -0.006080406717956 -0.039521746337414 -0.000464071432361 -0.034546475857496 -0.024775050580502 0.013178623281419 0.008539647795260 -0.011902132071555 -0.020443541929126 -0.006048964802176 -0.015128999948502 -0.008861144073308
-0.026562524959445 -0.007890549488366 0.049092739820480 -0.002848641714081 0.015455680899322 -0.003205139189959 0.013543903827667 0.007837978191674 -0.008927993476391 -0.002372082555667 0.019194323569536 -0.051622800529003 0.003063599579036 0.021745933219790 0.016591513529420 -0.025838118046522 0.009672892279923 -0.026433899998665 0.096122406423092 -0.005759115330875 0.025760848075151 0.008663532324135 0.001853278721683 -0.004383253864944 0.044730048626661 -0.005826666951180 -0.011243330314755 0.060665264725685 0.025288999080658 0.041049577295780 0.015054128132761 -0.010633976198733 0.019694700837135 -0.000255607737927 -0.033382948487997 -0.015776554122567 0.000901100807823 -0.017751690000296 0.009599403478205 -0.018856216222048 -0.026286154985428 0.023797029629350 -0.007090052124113 0.026654316112399 -0.027701308950782 -0.015236026607454 0.001934129395522 0.025533460080624 -0.005567240063101 -0.001140267471783 -0.047925967723131 0.026835119351745 -0.013906384818256 0.069025173783302 -0.005203193519264 -0.016674425452948 0.008778767660260 -0.013150166720152 0.066256530582905 0.010721357539296 -0.012195230461657 -0.018236888572574 0.010214483365417 0.003144719172269 -0.014634967781603 0.028429366648197 0.027501167729497 0.032242506742477 -0.043253295123577 -0.031832169741392 0.018150338903069 -0.024729803204536 0.005791646428406 0.029471006244421 0.013851944357157 -0.029506431892514 0.016118708997965 -0.025929361581802 -0.022091312333941 -0.024595346301794 0.032921314239502 -0.017445737496018 -0.006198851857334 0.010970412753522 0.033243790268898 0.038951080292463 -0.000941119214986 -0.006374387070537 -0.006752987392247 -0.009183166548610 -0.003431278513744 0.018363052979112 0.014205451123416 0.006216428708285 0.006230214145035 0.011440474539995 -0.011968760751188 -0.010127512738109 0.002860589651391 0.070729538798332 -0.007853218354285 -0.014056592248380 0.074342958629131 0.013888916932046 -0.009991456754506 -0.009613420814276 0.023821784183383 -0.002613099990413 0.011890617199242 -0.003938799258322 -0.037919767200947 -0.003304572775960 -0.004681533202529 -0.073126271367073 0.002981678582728 0.008977196179330 0.113208591938019 -0.021317483857274 -0.046758230775595 -0.031631607562304 0.005710302386433 0.010871889069676 0.027692539617419 -0.020813137292862 -0.001308823120780 0.011266542598605 -0.039830241352320 0.036474023014307
0.012647314928472 -0.034256637096405 -0.022631749510765 0.037308987230062 -0.039232540875673 -0.056076109409332 0.002134127775207 -0.003369713667780 0.035756412893534 -0.018202094361186 -0.046565752476454 -0.012542876414955 -0.022329149767756 -0.031809072941542 0.010112497955561 -0.018811948597431 -0.004456060938537 -0.003453833516687 -0.085854977369308 0.055493574589491 -0.058113001286983 -0.055200509727001 0.010432167910039 -0.016605127602816 0.022950096055865 -0.027002096176147 0.032210920006037 0.042739570140839 -0.023309659212828 -0.051194921135902 -0.016963621601462 0.001441448228434 0.012878684327006 0.041172400116920 -0.017950920388103 -0.046476218849421 0.006788649596274 -0.004124895203859 -0.022821225225925 -0.055462937802076 0.034071233123541 -0.040873784571886 0.033953607082367 0.039950262755156 -0.074725739657879 0.078975528478622 0.016295798122883 -0.004311657510698 -0.032956879585981 -0.042699832469225 -0.048358194530010 -0.046659622341394 -0.023432113230228 -0.009892457164824 -0.045735005289316 -0.045284111052752 -0.045248899608850 -0.017339130863547 -0.057439528405666 0.022912586107850 0.016817338764668 -0.107441507279873 -0.032772507518530 -0.069629393517971 -0.047280199825764 0.010264596901834 0.015502153895795 0.011721564456820 -0.069245956838131 -0.035288363695145 -0.056857593357563 -0.039510987699032 -0.028882397338748 0.018304735422134 -0.008105129003525 -0.015279913321137 0.055230159312487 0.012535001151264 0.018697919324040 -0.044313471764326 0.006179275922477 0.022673575207591 -0.042151417583227 0.001568936859258 0.002273447345942 -0.027356963604689 0.038771770894527 0.034433696419001 0.019507281482220 -0.024099024012685 0.016138374805450 -0.032118264585733 -0.010783129371703 -0.018844235688448 -0.023090273141861 -0.017188284546137 0.027592105790973 -0.024027135223150 0.023556618019938 0.001711261924356 0.041020471602678 -0.001040722476318 -0.029018964618444 0.049997854977846 0.027028769254684 0.018932839855552 0.033557061105967 -0.018807433545589 0.018553730100393 -0.029258733615279 -0.054681550711393 -0.024616252630949 -0.024984795600176 0.003019702620804 -0.079966165125370 -0.000700745731592 -0.116711720824242 0.003161326050758 -0.039918396621943 0.003173297271132 -0.024821724742651 -0.017040329053998 -0.029705416411161 -0.019092930480838 0.003060911549255 0.000742831209209 -0.041290432214737 -0.004692380316556
0.037953671067953 -0.052749529480934 0.049111939966679 -0.015493676997721 -0.010840431787074 0.046042989939451 0.006431682035327 -0.034927818924189 -0.025576287880540 -0.042026191949844 -0.038241021335125 -0.054425243288279 -0.034224588423967 -0.031290840357542 -0.009494920261204 -0.035513497889042 -0.053762663155794 -0.029527636244893 -0.006176763679832 -0.011276887729764 -0.031276397407055 -0.016090897843242 -0.024710884317756 -0.064655676484108 0.001735411584377 -0.009011425077915 0.058579910546541 -0.015052635222673 0.008542860858142 0.009291432797909 -0.007052135653794 -0.007547690533102 0.018978431820869 -0.024972762912512 0.017883317545056 0.042242702096701 0.007629551459104 -0.035858325660229 0.016702117398381 -0.005621374119073 -0.035752926021814 -0.008664892986417 -0.010653893463314 0.013802717439830 0.015963820740581 -0.074409075081348 0.019435444846749 0.005411117337644 -0.036428216844797 -0.044811330735683 0.015323000028729 0.004521431867033 -0.035416468977928 0.014849851839244 0.057316012680531 -0.019451977685094 -0.016860665753484 0.001309586688876 0.015235154889524 -0.043655116111040 0.009701754897833 -0.007503401488066 -0.020432470366359 -0.005027407780290 -0.017190918326378 0.015254975296557 0.005528400186449 -0.023273585364223 0.032265461981297 0.023300044238567 -0.005880719516426 -0.023359425365925 -0.050414685159922 -0.006806619931012 0.024152139201760 -0.060279484838247 -0.014034874737263 -0.051653396338224 0.002716975985095 -0.008575590327382 -0.010552445426583 -0.038698762655258 -0.042867191135883 -0.022237604483962 -0.006007726769894 0.049779321998358 -0.022153267636895 -0.012777412310243 -0.011495379731059 -0.057688638567924 -0.034291446208954 -0.030006816610694 -0.019249236211181 -0.016320170834661 -0.041288852691650 -0.006037001498044 0.002092844108120 -0.029691981151700 0.018915409222245 0.021971898153424 -0.038889657706022 -0.011122467927635 0.004622727166861 -0.042239926755428 -0.008083412423730 -0.036709606647491 -0.026867736130953 -0.001713710254990 0.001919341739267 0.031667232513428 -0.039204142987728 -0.027319638058543 -0.027827020734549 -0.035792432725430 -0.025887073948979 -0.007442850619555 0.063396595418453 -0.012396828271449 -0.027508862316608 -0.017209053039551 0.016517193987966 -0.009245241060853 0.003061766270548 -0.028665276244283 -0.047002341598272 -0.013443090021610 -0.050049938261509 -0.004453115630895
-0.010405462235212 -0.015829417854548 -0.004201522096992 -0.041090376675129 -0.015679316595197 -0.008444117382169 0.008661870844662 0.027900164946914 -0.053818441927433 0.043732658028603 -0.004394618794322 -0.096648380160332 -0.001996513456106 -0.000334361568093 -0.064231246709824 0.072023183107376 -0.005581394303590 -0.004037484526634 -0.013325602747500 0.006216355599463 0.013313961215317 0.073166176676750 -0.022915316745639 0.054399214684963 -0.021575871855021 0.003592915832996 -0.053012941032648 -0.026019433513284 0.022187644615769 0.025548493489623 -0.034890145063400 0.047284305095673 -0.007802179083228 0.008166615851223 0.000562530534808 -0.011663105338812 -0.060069296509027 -0.039948828518391 -0.060420427471399 0.032287068665028 -0.043297972530127 0.054259579628706 -0.018235115334392 0.003490923903883 -0.004151171538979 -0.024933805689216 -0.013748285360634 0.065351821482182 -0.032112646847963 -0.055828407406807 0.025618711486459 -0.026817854493856 -0.034910760819912 0.042844079434872 -0.048864834010601 -0.024138776585460 -0.044078506529331 -0.040039062500000 -0.024152942001820 0.014407009817660 0.016360340639949 -0.004070011433214 0.030164599418640 -0.028199627995491 -0.011383973993361 -0.043206606060266 0.028884986415505 -0.002581596141681 0.008640450425446 -0.043051436543465 0.012864905409515 0.033918768167496 0.001865930622444 0.023354792967439 -0.038879994302988 -0.025132369250059 -0.098702512681484 0.009254506789148 -0.016486382111907 0.044848490506411 -0.042481359094381 -0.023441798985004 -0.057767290621996 -0.006171497050673 -0.026538962498307 -0.000727017759345 -0.050436668097973 -0.053885623812675 -0.066052004694939 0.077326364815235 -0.016088442876935 -0.009487860836089 -0.009084562771022 -0.006543312221766 -0.023227959871292 0.027569418773055 0.065446414053440 -0.061305239796638 -0.028378643095493 -0.011518361046910 0.031985465437174 0.054326049983501 -0.010580037720501 -0.029711028560996 -0.023446824401617 -0.056493584066629 -0.036155119538307 0.003858156269416 -0.032847076654434 -0.027741713449359 0.018930593505502 0.080118209123611 -0.045217707753181 0.019152607768774 0.054950855672359 0.021848628297448 -0.014400628395379 -0.027051324024796 -0.009778302162886 -0.022223180159926 -0.048490937799215 0.003215268952772 -0.030803300440311 -0.040955074131489 -0.012629352509975 -0.011009571142495 -0.034322943538427 0.013530384749174
0.005109302699566 -0.016456564888358 -0.018388940021396 0.012641387991607 0.008211246691644 -0.002604967448860 0.022217568010092 -0.022718451917171 -0.019730806350708 -0.026585485786200 0.006521229632199 0.031267609447241 -0.024905934929848 0.003036136738956 -0.035694506019354 -0.017142768949270 -0.000888794311322 -0.045284338295460 0.025465536862612 -0.012107833288610 -0.059041973203421 -0.014067804440856 -0.034818597137928 -0.015629423782229 -0.013854578137398 0.006903913337737 -0.032882578670979 -0.033832784742117 0.009553336538374 -0.016603492200375 0.011461750604212 -0.001662683323957 -0.007709184195846 -0.010603860020638 -0.000869065290317 -0.026583690196276 -0.023206371814013 -0.009032392874360 -0.008525654673576 -0.004734824877232 -0.004576914943755 0.028922280296683 0.030657097697258 -0.028697026893497 -0.007623713463545 -0.039492137730122 0.018663672730327 -0.002982987789437 -0.004400180652738 0.005294546950608 -0.041748329997063 -0.012485259212554 -0.030934393405914 -0.003057725494727 -0.029026143252850 -0.005208021961153 0.027442289516330 0.009902275167406 0.010247726924717 -0.007364672143012 0.036622792482376 0.023153400048614 -0.008548839949071 -0.034139033406973 0.010744976811111 0.038880661129951 0.013797507621348 -0.015702016651630 -0.002827667165548 0.038435276597738 -0.014090913347900 -0.000944521219935 -0.024337714537978 -0.016208056360483 0.024596977978945 -0.036312837153673 -0.031949032098055 -0.033690690994263 -0.036415219306946 -0.015946937724948 -0.012565783225000 -0.012824653647840 0.015403069555759 -0.004614533390850 0.041317597031593 0.040919966995716 -0.012482710182667 0.001009486848488 0.031411714851856 0.006456919945776 -0.008364083245397 -0.008594154380262 0.022606071084738 -0.005219012033194 0.020294129848480 -0.037078917026520 0.002240112051368 0.026999315246940 -0.032297320663929 -0.016350671648979 -0.033269122242928 0.049318294972181 -0.046218894422054 -0.012408591806889 -0.035627279430628 -0.041042350232601 0.016620438545942 -0.031084183603525 -0.029304711148143 0.014425591565669 -0.020030170679092 -0.001569257117808 -0.029419142752886 0.030147450044751 -0.008481008000672 0.005050498526543 -0.006767024286091 0.003726490307599 -0.004001834895462 -0.055826485157013 0.029774451628327 0.002001110929996 -0.022991200909019 -0.016413822770119 -0.010947364382446 -0.026583500206470 -0.004279095679522 -0.014502923004329
-0.005739921238273 -0.017769617959857 -0.050329774618149 -0.042739532887936 0.028258167207241 0.012513970024884 -0.007018774282187 -0.017849497497082 0.020510513335466 0.004960573744029 -0.025495365262032 -0.031787350773811 0.006691992282867 0.006251624319702 0.033431265503168 -0.041453719139099 -0.016563348472118 0.008085512556136 -0.026524819433689 -0.017619062215090 -0.015512444078922 0.006416000425816 0.016596177592874 -0.015151232481003 0.009416704066098 -0.012829911895096 0.013602255843580 -0.032892137765884 -0.000295654725051 -0.018622074276209 0.037125337868929 -0.006302061490715 -0.047526989132166 0.013351893052459 0.029491607099771 0.007863412611187 0.006871152203530 0.034803234040737 0.015279878862202 0.004885882139206 -0.020689493045211 0.040529027581215 0.063915587961674 0.003642137628049 -0.032898154109716 -0.008544043637812 -0.004302844870836 0.002486192854121 0.008786415681243 0.028586644679308 0.000045389839215 -0.051241949200630 0.022160397842526 -0.022764973342419 0.028901340439916 0.000348271685652 -0.001342487870716 0.033278584480286 -0.002102801110595 -0.022491792216897 -0.000736999558285 -0.000527036550920 -0.006249364465475 -0.001694073667750 0.050135735422373 0.002775856992230 -0.009648791514337 0.038771435618401 0.014203313738108 0.005322739481926 0.016669308766723 0.032272502779961 0.043681845068932 0.020653368905187 -0.015379969030619 -0.033142227679491 -0.034076441079378 -0.040473610162735 -0.013848168775439 0.024028131738305 0.002195479115471 -0.036980483680964 -0.056427940726280 -0.031672414392233 0.021055499091744 0.020008411258459 -0.023758579045534 0.001020938274451 -0.030173745006323 -0.003670047735795 0.011080419644713 0.042854458093643 -0.004548904486001 0.043366611003876 -0.009999006055295 -0.008077426813543 -0.031181015074253 -0.058641146868467 0.014374291524291 -0.026226699352264 -0.007606008555740 0.020178874954581 -0.007409838959575 -0.004517904482782 0.017857501283288 0.025071997195482 -0.054948743432760 -0.032553430646658 -0.011012993752956 0.029014322906733 0.058311145752668 0.011199062690139 -0.067123122513294 -0.020877426490188 -0.016264516860247 -0.011950076557696 -0.016112226992846 0.031693931668997 -0.021181805059314 0.044565375894308 0.066287241876125 0.011831745505333 0.010870955884457 -0.002813818398863 -0.037090841680765 0.006196640431881 0.018243012949824 0.010941511951387
-0.018128382042050 0.025421570986509 0.000301934429444 -0.025088885799050 -0.033193621784449 0.009868844412267 0.007405198179185 -0.035610049962997 -0.004351167008281 0.043964147567749 -0.022847888991237 -0.064289949834347 -0.000341709004715 0.028201874345541 -0.003607880556956 -0.008283036760986 -0.017997751012444 -0.063245259225368 0.017672520130873 -0.026320794597268 -0.056264277547598 0.020708989351988 0.016725985333323 0.022038282826543 -0.030457872897387 0.020516205579042 -0.013729916885495 -0.085042245686054 0.007962127216160 -0.025596152991056 0.035587932914495 -0.014561833813787 -0.023480536416173 0.028420291841030 -0.043240975588560 -0.024926327168941 -0.045921579003334 0.003082852112129 -0.034000154584646 0.026546299457550 -0.047867324203253 0.002178465947509 0.020680826157331 -0.020775126293302 0.036410614848137 -0.078693911433220 -0.006801935378462 0.014744016341865 0.002444803947583 -0.029759876430035 0.023476928472519 -0.061703126877546 -0.020685853436589 -0.033053115010262 -0.019083015620708 -0.023574028164148 0.006986989174038 -0.018351219594479 -0.005493693053722 0.019069021567702 0.025389915332198 0.020910948514938 0.013287799432874 -0.000584768888075 -0.028797201812267 0.018668159842491 -0.012907262891531 -0.055032264441252 0.042102951556444 -0.020228309556842 0.020182467997074 0.029422869905829 -0.025663342326880 -0.007271082140505 0.008314205333591 -0.022573951631784 -0.079148568212986 -0.016683196648955 0.005593860987574 0.011283878237009 -0.021635010838509 -0.026633162051439 0.027325017377734 -0.044493734836578 0.023436639457941 -0.014081665314734 -0.003508566180244 -0.023068686947227 -0.001697532017715 -0.023599045351148 -0.007785095367581 -0.010820797644556 -0.036394361406565 -0.000152569031343 0.031255174428225 0.006754606496543 0.056438479572535 0.025730289518833 -0.052829690277576 -0.046353667974472 -0.014227707870305 0.023567400872707 -0.040374308824539 -0.027386462315917 -0.056045144796371 -0.034167218953371 -0.034685533493757 0.048450127243996 -0.001966918818653 0.038223493844271 0.004279457032681 -0.032082378864288 -0.040594298392534 0.007556340191513 0.016520094126463 -0.020533073693514 0.000752194959205 -0.037093229591846 0.001246577827260 0.000686740095261 -0.000548652140424 -0.030005870386958 -0.023233361542225 -0.011312442831695 -0.023828048259020 0.013295694254339 -0.029525917023420 -0.014056415297091
-0.033298272639513 -0.001428185380064 -0.002768815262243 -0.000207124932786 0.033187929540873 0.042271967977285 -0.034330591559410 -0.025004072114825 0.002871914766729 -0.015287332236767 -0.018945470452309 0.027575962245464 -0.043227065354586 -0.014649548567832 0.015523240901530 0.039844226092100 -0.045001126825809 -0.037007857114077 0.045150324702263 0.039371669292450 0.010713884606957 0.051991026848555 -0.062239956110716 -0.028503602370620 0.016453621909022 0.037354219704866 0.021376213058829 0.016969729214907 0.030249468982220 0.039309371262789 -0.068443089723587 0.099138267338276 -0.002715999260545 -0.066474720835686 0.014619650319219 0.070216655731201 0.066145233809948 -0.025847872719169 0.038037158548832 0.063657931983471 0.037455372512341 0.071200609207153 -0.048235364258289 0.118598394095898 0.046613648533821 -0.044011857360601 0.003361333627254 0.067877925932407 -0.106373444199562 -0.041746463626623 0.047346726059914 0.035107057541609 -0.052439544349909 0.103115908801556 0.014195185154676 0.086319088935852 -0.029421918094158 -0.040946029126644 0.126901417970657 -0.027780735865235 0.029906939715147 0.074419267475605 -0.034810058772564 -0.057889949530363 -0.089960202574730 -0.055622112005949 0.035458315163851 0.014571438543499 0.039946477860212 -0.031540263444185 0.036903459578753 -0.000987721956335 -0.106233745813370 0.073077403008938 0.048714861273766 -0.036893475800753 0.017369275912642 0.017044650390744 -0.013520329259336 -0.032321676611900 0.020043162629008 -0.008305288851261 -0.020421955734491 0.009105540812016 -0.015360465273261 0.025023268535733 -0.074521481990814 -0.048171494156122 -0.030826132744551 -0.026847191154957 -0.079761810600758 -0.028159499168396 0.001928713056259 0.137247696518898 -0.048660799860954 0.013684558682144 0.021531254053116 -0.048396185040474 0.041148640215397 0.098698139190674 -0.009664327837527 -0.029620468616486 0.060739286243916 -0.019166544079781 0.049124687910080 -0.150931179523468 0.015154797583818 0.022603400051594 -0.086342766880989 0.038133896887302 -0.072025090456009 -0.016601989045739 -0.013077335432172 0.011138594709337 0.030020546168089 0.080703556537628 0.133650794625282 0.022582408040762 -0.037743132561445 -0.076644733548164 0.026758141815662 0.045574963092804 0.021419189870358 -0.033801261335611 -0.015272870659828 -0.079493589699268 -0.044005889445543 0.010298498906195
-0.009412901476026 0.041847981512547 -0.026617467403412 0.023455018177629 -0.001549409236759 0.031822688877583 0.043297778815031 0.035136308521032 -0.013755303807557 -0.020877927541733 0.018471194431186 -0.001112297992222 0.036067489534616 0.032588150352240 0.038051921874285 -0.040347151458263 0.032626766711473 0.022390551865101 -0.017882646992803 0.017539236694574 0.015655122697353 -0.048940207809210 0.031113885343075 0.002942226361483 -0.020335447043180 0.002694253576919 -0.002516728360206 0.065661542117596 -0.022866813465953 -0.023743638768792 -0.013391520828009 -0.019771536812186 -0.011661577969790 0.024307392537594 0.009915740229189 0.000674775859807 0.022320415824652 0.000074132673035 -0.041790388524532 0.017111886292696 0.018386760726571 -0.018931023776531 0.063382260501385 0.005467970389873 -0.073636166751385 0.005361960735172 0.046853359788656 -0.015243317931890 0.009920103475451 0.058848816901445 -0.017285916954279 0.001878609764390 0.005233409814537 0.049476969987154 0.011108324863017 -0.054699651896954 0.011952169239521 0.048147264868021 0.092671461403370 0.018924240022898 0.047023102641106 0.031511019915342 -0.010020584799349 0.016568547114730 0.020538171753287 0.096040330827236 -0.008544017560780 -0.002628997899592 -0.092762261629105 0.023258777335286 0.020342530682683 -0.051263578236103 0.091592445969582 0.055287029594183 -0.006071761250496 -0.001129412092268 0.083097018301487 -0.050449863076210 -0.077104791998863 -0.045001868158579 0.047946780920029 0.005160826258361 -0.005796269048005 0.010721330530941 0.034368336200714 0.009994795545936 0.021783003583550 0.038491029292345 0.006438031326979 -0.009825817309320 0.016662724316120 0.080219864845276 -0.010326154530048 0.055061154067516 0.037222657352686 0.007055179681629 -0.046035993844271 0.022849816828966 0.013974470086396 0.093523442745209 -0.013712708838284 -0.011538862250745 0.057113032788038 0.044820494949818 0.048451777547598 0.023278295993805 0.035324700176716 -0.016368346288800 0.045556437224150 -0.082333214581013 0.001135189551860 0.026462884619832 -0.042733255773783 -0.073368959128857 0.004375169984996 0.021393941715360 0.070464529097080 -0.043152935802937 -0.020918240770698 0.038453426212072 -0.038093760609627 0.016557788476348 0.054654967039824 -0.052324291318655 0.026120891794562 0.018439050763845 -0.023253334686160 -0.010903045535088
0.007400897331536 -0.000500395253766 -0.030137509107590 0.002679008059204 0.064665891230106 -0.015105076134205 0.018195439130068 0.041120074689388 -0.034445140510798 -0.050127368420362 -0.012854493223131 0.022283114492893 -0.016417898237705 -0.016452627256513 -0.045777905732393 -0.032545488327742 -0.030936950817704 0.005700916051865 -0.021735016256571 0.037335477769375 0.017524480819702 -0.030594080686569 -0.035556323826313 -0.013733470812440 -0.027253326028585 -0.028669776394963 -0.014513826929033 -0.000295463774819 0.034230768680573 0.006118103396147 -0.025883905589581 -0.047930505126715 0.021359305828810 0.012346261180937 -0.007301926147193 0.081577219069004 -0.052347436547279 -0.078421920537949 -0.053840316832066 0.013146794401109 0.002074821153656 -0.006222492083907 -0.026553384959698 -0.052793134003878 0.070399753749371 0.017907235771418 -0.030514713376760 -0.023611418902874 -0.007129391189665 -0.030573245137930 -0.026536090299487 -0.014417489059269 -0.048582937568426 -0.023891691118479 -0.027785465121269 -0.079303272068501 -0.033855684101582 -0.039650153368711 -0.085996292531490 -0.027337124571204 -0.022091126069427 0.045874211937189 -0.015769839286804 -0.005635841283947 0.000870336662047 -0.035675562918186 -0.009585106745362 -0.002449676627293 0.023868802934885 -0.025489183142781 -0.017544759437442 -0.036811415106058 0.016272412613034 -0.028318664059043 -0.001398269319907 0.016056992113590 -0.003804398467764 -0.008514567278326 0.023506507277489 -0.002278246916831 -0.014375916682184 -0.007504089735448 -0.061605177819729 -0.016465296968818 -0.013463530689478 -0.006992676761001 -0.049449022859335 -0.006854800507426 -0.035619743168354 -0.014025039970875 -0.003621465060860 -0.009497010149062 -0.000673211645335 -0.037523407489061 -0.013771017082036 0.023285260424018 -0.002391414484009 -0.060119070112705 -0.020818941295147 -0.082566283643246 0.015651671215892 0.014223674312234 -0.064705170691013 -0.017388306558132 -0.005113010294735 0.002401960780844 -0.017369026318192 0.008318558335304 0.002854938386008 -0.034278519451618 0.036766037344933 0.002176774432883 -0.050847999751568 0.022610845044255 0.025219371542335 -0.049357164651155 -0.081331692636013 -0.021450951695442 -0.028319109231234 0.040729988366365 -0.014275936409831 0.013431983999908 -0.025539975613356 -0.015063912607729 -0.035973347723484 0.014077929779887 -0.038595270365477 0.010772595182061
-0.076866216957569 -0.011622975580394 -0.021820530295372 -0.012947884388268 -0.017591703683138 0.013377211056650 0.012617666274309 -0.006786255631596 0.017107218503952 0.010101960040629 -0.013778854161501 -0.060281794518232 0.009160457178950 -0.025804264470935 0.028437212109566 -0.016549380496144 -0.007440716959536 -0.032182127237320 0.014905733056366 -0.138788253068924 -0.062260363250971 -0.077151425182819 -0.007565378677100 0.007896087132394 0.016182307153940 0.018981734290719 -0.042270787060261 -0.017676305025816 -0.016379680484533 0.020638471469283 0.008761539123952 0.029858333989978 -0.002734792418778 0.024818433448672 -0.072440624237061 -0.036798633635044 0.023399380967021 -0.000117693387438 0.055804427713156 0.009128266945481 -0.002905975561589 0.003496921388432 0.011556756682694 0.042760845273733 0.091691337525845 -0.005687989294529 -0.086595349013805 0.004931372590363 -0.036262612789869 -0.000758992799092 -0.020018616691232 -0.012534051202238 -0.037957075983286 0.055177297443151 -0.057387977838516 0.060270380228758 0.003098761662841 0.001645622891374 0.048559445887804 0.000021462850782 -0.016111545264721 -0.050660375505686 -0.009927489794791 -0.053806174546480 -0.010554005391896 -0.040251106023788 0.047526590526104 0.037906128913164 -0.024864511564374 -0.023664409294724 -0.030865661799908 -0.035188611596823 -0.025008413940668 -0.036263532936573 -0.024953162297606 -0.043799422681332 -0.006808049976826 -0.032225683331490 -0.022225365042686 0.023402739316225 -0.005345818586648 -0.051506128162146 0.000336668745149 -0.026626842096448 -0.019097393378615 0.012050187215209 0.019949320703745 0.015010354109108 0.040730245411396 0.000657722703181 0.004063961561769 -0.001050256192684 -0.021013608202338 0.039092049002647 0.004261578898877 -0.004093996714801 -0.025485744699836 0.016939435154200 -0.023557106032968 0.024647835642099 -0.017655931413174 0.029084259644151 0.002658361801878 0.022792709991336 0.026106314733624 -0.087583437561989 0.005203199107200 0.012518915347755 -0.043249487876892 0.051107712090015 -0.053956128656864 -0.000722605735064 -0.059413157403469 0.012693030759692 -0.031414318829775 0.003657980822027 0.078394502401352 0.051524251699448 -0.011548768728971 -0.083429522812366 -0.002478967187926 0.005288358312100 -0.023796144872904 -0.017869656905532 0.000125175400171 -0.030309496447444 -0.031118636950850 0.013855921104550
-0.026298534125090 -0.054740533232689 -0.013324863277376 -0.029257047921419 0.002296302933246 -0.001773411408067 -0.027690235525370 0.017713589593768 -0.008779115043581 -0.043221879750490 -0.025577975437045 -0.007607680745423 -0.064740367233753 -0.036537207663059 -0.019787967205048 -0.029285347089171 -0.063792273402214 -0.024520799517632 -0.105835296213627 -0.024074489250779 0.003864871338010 0.004775444511324 -0.037857063114643 -0.019875379279256 0.010505646467209 -0.010972550138831 0.010830149054527 0.020745456218719 0.017467064782977 -0.006963423453271 0.005611087195575 -0.056729134172201 -0.033227831125259 -0.019477589055896 0.048309508711100 0.003677391447127 0.013845885172486 -0.052225917577744 -0.011317265219986 -0.012271274812520 -0.021843606606126 -0.017104959115386 -0.008175018243492 -0.007081585470587 0.061049483716488 0.054226174950600 -0.081412650644779 -0.010867453180254 0.018664637580514 -0.056202337145805 0.035489547997713 -0.007970368489623 -0.055686745792627 -0.004736085887998 0.009659065864980 -0.000491086044349 -0.058276366442442 0.012672461569309 -0.034671790897846 -0.015394495800138 -0.014194456860423 0.005412382073700 -0.039724037051201 -0.053285192698240 0.001738542341627 -0.066908895969391 -0.069384001195431 -0.042862620204687 -0.033366829156876 -0.023314291611314 -0.012089915573597 0.004749843385071 -0.028395825996995 -0.019495535641909 -0.036884088069201 -0.014253449626267 0.065066978335381 0.001971335383132 -0.083729915320873 0.000372538634110 0.028790650889277 0.024018643423915 -0.086661241948605 0.024706168100238 -0.022789305076003 0.045010451227427 -0.031671721488237 -0.018695747479796 -0.056666065007448 -0.022357426583767 -0.041887991130352 0.034429132938385 0.003354053711519 -0.044849421828985 -0.068534366786480 0.014839869923890 -0.002988667925820 -0.085404902696609 0.040806930512190 -0.004695258103311 0.038075067102909 -0.008290909230709 -0.085101343691349 0.069434851408005 0.048857100307941 -0.008645610883832 -0.023709854111075 0.046690277755260 -0.065037891268730 -0.034970298409462 -0.018699549138546 0.031409364193678 -0.001134302932769 -0.017723664641380 0.003170740092173 -0.038526475429535 0.047801323235035 -0.020145637914538 -0.019009983167052 0.005240129306912 -0.044803459197283 -0.037379059940577 -0.026690749451518 0.040318731218576 -0.043174978345633 -0.033675312995911 -0.038208056241274 0.036239877343178
-0.034460876137018 -0.001137455343269 -0.008353743702173 -0.029366886243224 0.006402076222003 0.036122597754002 0.072226718068123 0.075823321938515 0.010406403802335 -0.024615742266178 0.027290511876345 -0.074725128710270 0.022055977955461 0.017338499426842 -0.020433666184545 -0.007867517881095 -0.005630128551275 -0.002494187792763 0.078441925346851 0.036441385746002 -0.030400194227695 0.035485703498125 0.001337370602414 -0.024789888411760 0.042611025273800 0.035507079213858 -0.004947391804308 0.001524837687612 0.038255147635937 0.012554230168462 0.021777184680104 -0.002725325524807 -0.004446393344551 0.074629396200180 -0.031183592975140 0.005540096666664 -0.031707804650068 0.015947422012687 0.028064142912626 0.039417471736670 -0.002952334238216 0.030467325821519 0.017916832119226 -0.025646122172475 0.066721960902214 -0.081997916102409 0.024256920441985 0.064464896917343 -0.016072604805231 -0.008176944218576 -0.020648146048188 -0.008693109266460 -0.005919083021581 0.028075141832232 0.000430487008998 0.010722745209932 0.057316023856401 0.015893002972007 0.040648262947798 -0.033089064061642 -0.003774795215577 0.029468603432178 0.045129559934139 0.023266680538654 -0.066999182105064 -0.009517126716673 0.070506304502487 -0.008933688513935 0.082415238022804 -0.000831382814795 0.013061127625406 0.051756143569946 -0.007679846137762 0.022240735590458 0.007642203941941 -0.051698107272387 -0.072689898312092 -0.039328757673502 -0.013729720376432 0.004820562433451 -0.019956221804023 -0.009150221943855 0.053413838148117 -0.022047370672226 -0.001767891342752 0.039094634354115 0.006351243238896 0.022136701270938 0.004887072369456 0.005876492708921 0.002207189332694 0.002740130061284 -0.001689797150902 -0.003428380005062 0.037400908768177 0.014101777225733 0.026939934119582 0.007502657361329 -0.041456416249275 0.002353542251512 -0.012093978002667 -0.023875188082457 0.042017206549644 -0.045406706631184 -0.024771451950073 -0.040192387998104 0.027144825085998 0.041076611727476 0.042456146329641 0.085051529109478 -0.070003502070904 -0.033411528915167 -0.040687054395676 -0.029491953551769 0.012673270888627 -0.017033021897078 0.071198128163815 -0.013735843822360 -0.001119893742725 -0.012163920328021 0.028503732755780 0.065199188888073 0.031103244051337 -0.053554605692625 -0.015835860744119 0.015665479004383 -0.014315450564027 0.023625731468201
-0.035390943288803 -0.012683370150626 -0.005230432841927 -0.017399100586772 0.053934834897518 -0.047670509666204 -0.052643321454525 -0.009035523049533 0.016384281218052 -0.049907501786947 -0.040774371474981 0.033479996025562 -0.046094916760921 -0.094942256808281 -0.004323527216911 0.010408116504550 -0.009259660728276 0.058990560472012 -0.026314560323954 -0.045513004064560 0.064221225678921 0.019838860258460 -0.066598676145077 -0.003055212320760 0.005196418147534 -0.017859572544694 -0.054894946515560 0.061127219349146 -0.014641323126853 -0.026595221832395 -0.086043052375317 0.001329063437879 -0.015185561031103 -0.033289946615696 0.001108544413000 -0.010572548955679 -0.027625458315015 -0.014166369102895 -0.014538244344294 -0.013875755481422 0.030286315828562 -0.022750055417418 -0.025698982179165 -0.050882924348116 -0.008483336307108 0.007350458763540 -0.007875782437623 0.015267982147634 -0.053145885467529 -0.021676074713469 -0.052643470466137 0.037464033812284 0.003703773254529 0.013878725469112 -0.048502601683140 0.011414420790970 -0.045363333076239 -0.002821215894073 -0.015687655657530 -0.011204568669200 -0.008834027685225 0.021481540054083 -0.030021136626601 -0.019438173621893 -0.038064897060394 -0.035442017018795 -0.000929648289457 0.011570430360734 -0.022795083001256 -0.043650038540363 0.017397029325366 -0.009882797487080 -0.049102257937193 -0.011008571833372 -0.010024135001004 -0.022198159247637 0.017148913815618 0.002194876549765 -0.012858032248914 -0.033329892903566 0.012343005277216 0.048463962972164 -0.071198508143425 0.057563342154026 -0.026889208704233 -0.002881428459659 -0.032575652003288 0.016756838187575 -0.015374326147139 0.078536480665207 -0.036931309849024 -0.032174322754145 -0.001181618543342 -0.024749092757702 -0.069374963641167 0.028475817292929 -0.020673306658864 -0.091512024402618 -0.008087782189250 -0.026931835338473 0.026154920458794 -0.001566085382365 -0.035006072372198 0.039755873382092 -0.035047322511673 0.017252942547202 -0.020348966121674 0.011068806983531 -0.022026976570487 0.039749849587679 -0.038494102656841 0.061955407261848 -0.005936102010310 0.032439585775137 -0.030743407085538 0.022357702255249 0.045289698988199 0.011015204712749 -0.029321623966098 -0.026583304628730 -0.061719413846731 0.000215762061998 0.008929171599448 -0.061334811151028 -0.061528068035841 -0.036493148654699 -0.015956200659275 0.042089942842722
-0.028506424278021 -0.029944729059935 0.002024944638833 -0.013520307838917 0.032823000103235 -0.071991167962551 0.028234371915460 0.027410482987761 0.003120942506939 -0.025277389213443 -0.000054718955653 0.041234023869038 -0.023599095642567 -0.014390346594155 0.002703367499635 -0.024734312668443 0.008647877722979 -0.031963236629963 -0.000767403049394 -0.023912599310279 -0.007543427404016 -0.008068284951150 -0.013509506359696 0.018380735069513 -0.004026830196381 -0.010202818550169 -0.060020942240953 0.013921427540481 -0.001101576373912 -0.013495686464012 -0.033003170043230 -0.020073743537068 0.042502939701080 0.009124129079282 -0.034025989472866 0.020699368789792 -0.054790362715721 -0.019328612834215 -0.025363292545080 -0.001990373479202 0.046984411776066 -0.039328187704086 -0.007313543464988 -0.037122864276171 -0.034042887389660 -0.055102910846472 0.013600835576653 -0.031939160078764 -0.038089983165264 -0.052279509603977 -0.038055114448071 0.000324133929098 -0.023058164864779 -0.031614504754543 -0.066696517169476 0.066806472837925 0.021875783801079 -0.048791222274303 -0.033694207668304 -0.013388837687671 -0.029372530058026 -0.038911920040846 0.006607135292143 -0.048922080546618 -0.041018433868885 0.020534751936793 -0.021146124228835 -0.012578199617565 -0.035469885915518 -0.011753188446164 0.005826752632856 -0.037940572947264 -0.023589614778757 -0.002323809312657 -0.022698810324073 0.010312844067812 -0.013998242095113 -0.002541634719819 -0.018107462674379 -0.030074682086706 0.014608292840421 -0.053082220256329 0.010153496637940 -0.038521617650986 0.006728585809469 -0.057438835501671 0.030301246792078 0.030845452100039 -0.000378316995921 -0.015414668247104 -0.015638938173652 -0.015753664076328 -0.014659491367638 0.012021377682686 0.030596451833844 0.021453915163875 -0.010209330357611 0.023870773613453 -0.031157895922661 -0.016610216349363 0.035336446017027 0.013685497455299 0.035140950232744 0.020447334274650 -0.065184958279133 0.032527472823858 -0.026949157938361 -0.033115886151791 0.056489374488592 0.011724933050573 -0.036815866827965 0.009741386398673 -0.032324042171240 0.002138535492122 -0.033811762928963 -0.016241073608398 0.009609638713300 -0.001089323079214 -0.022286996245384 -0.054683130234480 -0.000721762306057 -0.005470855161548 -0.049547154456377 -0.020784839987755 0.046851232647896 -0.006354276556522 0.011019318364561 0.030691472813487
-0.009596096351743 -0.033825475722551 0.009562887251377 0.008483138866723 -0.018741205334663 -0.004267626907676 -0.014793250709772 -0.012834265828133 -0.010600340552628 -0.040308479219675 -0.046622302383184 0.091950014233589 -0.070490427315235 -0.055673290044069 0.054790452122688 -0.001380875706673 -0.065647765994072 0.020850891247392 -0.026805341243744 -0.055144090205431 0.092800155282021 0.022614302113652 -0.084791786968708 -0.024336446076632 -0.011888952925801 -0.028468888252974 -0.034889720380306 0.095445521175861 0.044211000204086 0.071138508617878 -0.083706356585026 0.018617842346430 0.030597388744354 -0.001511674607173 -0.023030364885926 0.029941940680146 0.123802743852139 -0.041739739477634 -0.008216454647481 0.028182024136186 0.088715560734272 -0.008714850991964 -0.050191715359688 0.048905938863754 0.017567271366715 0.042033627629280 -0.001599124982022 -0.018540704622865 -0.062269940972328 -0.047882828861475 0.004896707832813 0.107005305588245 -0.080315768718719 0.077846921980381 0.021464725956321 0.117061428725719 -0.065852791070938 -0.058468956500292 0.081234514713287 -0.006862462498248 0.005303442478180 0.032218314707279 -0.007129329256713 -0.045194953680038 -0.050582621246576 0.005820886231959 -0.014949512667954 0.022269234061241 -0.015940140932798 0.002817782806233 -0.004029623232782 0.003503674641252 -0.080637499690056 0.062135148793459 -0.041187971830368 0.022393580526114 0.045735191553831 0.022555930539966 0.071247331798077 -0.050416775047779 0.025845557451248 0.057709027081728 -0.105519570410252 0.035933166742325 0.009001793339849 -0.030452001839876 -0.006803644355386 0.028505794703960 -0.017090998589993 0.008828696794808 -0.058599296957254 -0.057192385196686 0.022486103698611 0.131683155894279 -0.050705112516880 0.002990956883878 0.012524562887847 -0.060968894511461 0.063250049948692 0.090825214982033 0.078681267797947 0.029404642060399 0.122913606464863 0.061077356338501 0.042550485581160 -0.019062558189034 0.000746733567212 -0.017802316695452 -0.008196535520256 -0.073766678571701 -0.024699024856091 0.008914262987673 0.005868828389794 0.040493123233318 0.019926358014345 0.107190646231174 0.025895003229380 0.053096402436495 -0.044651068747044 -0.043873373419046 0.022788630798459 -0.006637696642429 -0.048570454120636 0.016474362462759 0.007917978800833 -0.058788299560547 -0.040242042392492 0.085012942552567
0.014484968967736 -0.004451757296920 0.023178661242127 -0.025488119572401 -0.005192003212869 0.072702147066593 0.053997300565243 0.013946155086160 -0.052954956889153 -0.000102814417914 0.001659778994508 0.041855435818434 -0.016522189602256 -0.025545613840222 -0.033029556274414 0.027094744145870 -0.047195393592119 0.029369601979852 -0.069385178387165 0.034832995384932 -0.007029055617750 -0.052455894649029 -0.011494724079967 0.011540445499122 -0.014740707352757 -0.006135602481663 -0.055916469544172 0.059010766446590 0.009503353387117 -0.009733032435179 0.018082613125443 0.011008712463081 -0.021337473765016 0.020569926127791 -0.045268464833498 0.013618326745927 -0.007956068962812 -0.015546935610473 -0.007689206395298 0.016023244708776 0.020985368639231 0.017837168648839 0.012382632121444 0.045997351408005 0.012351740151644 0.055277660489082 -0.062392756342888 0.023556355386972 0.034112237393856 -0.016673143953085 0.011611563153565 -0.001327012781985 -0.009947538375854 0.005805116146803 -0.047661844640970 0.054014217108488 0.017167601734400 0.031469583511353 -0.013778084889054 0.008794576860964 -0.004487451165915 0.067638985812664 0.004911541938782 0.057928804308176 -0.003319747280329 -0.044802349060774 0.014221791177988 -0.009283961728215 0.027851196005940 -0.040533829480410 -0.052332442253828 0.011036111973226 -0.009407807141542 -0.011076087132096 -0.007932198233902 0.027357997372746 -0.030737999826670 -0.012021494098008 -0.042693722993135 0.030182337388396 -0.004348097369075 -0.015819139778614 0.012766208499670 -0.019340140745044 -0.001486231340095 -0.007740431930870 -0.017477538436651 -0.001491855480708 0.013506008312106 -0.031862489879131 0.034008964896202 0.020747704431415 -0.066359080374241 0.001105945091695 0.016300182789564 0.067893132567406 0.073315121233463 -0.003328800899908 0.036834355443716 -0.028385329991579 0.035013802349567 -0.018689449876547 0.027365081012249 -0.020736800506711 -0.002716081216931 0.010511763393879 -0.019355034455657 0.038541518151760 0.019316576421261 0.043537523597479 0.005071256309748 0.079148337244987 -0.014662150293589 -0.029866246506572 0.035993218421936 0.004268585704267 0.066922418773174 -0.031358096748590 0.016564719378948 0.005014157854021 0.003297101473436 0.003828116692603 -0.062629997730255 -0.046595960855484 -0.035565204918385 0.001685355789959 -0.009095760062337 -0.032218884676695
0.015872102230787 0.001706291222945 0.021449923515320 -0.011947822757065 -0.003477651625872 0.080277726054192 0.018106075003743 0.000515706429724 -0.008635492064059 -0.039623312652111 0.027391642332077 -0.046061754226685 0.020337445661426 0.006049334071577 0.039051532745361 -0.050279039889574 -0.012092182412744 -0.065676398575306 -0.019048504531384 0.012646886520088 -0.084442943334579 -0.036598429083824 -0.002984281862155 -0.012278377078474 -0.048068936914206 0.008050343021750 -0.022129179909825 -0.029039222747087 0.032901994884014 0.053909815847874 -0.011822482571006 -0.032196555286646 -0.002012711251155 0.037308011204004 -0.043966989964247 0.037432011216879 0.004450649023056 0.010494542308152 -0.019697634503245 -0.013587761670351 -0.036103013902903 -0.027247423306108 -0.003550513181835 0.011179671622813 0.002874169731513 -0.052471116185188 0.052515983581543 -0.034550946205854 0.023218926042318 -0.039870873093605 0.034397028386593 0.020923858508468 -0.015160841867328 0.031568039208651 -0.041400879621506 -0.048547867685556 0.028712244704366 0.017513582482934 0.042050488293171 -0.007677621673793 0.031290635466576 -0.016227837651968 -0.013163800351322 0.005658058915287 -0.021837474778295 0.127381742000580 0.062031868845224 0.032412528991699 -0.009128350764513 0.033064156770706 0.044687837362289 -0.066501714289188 0.074512556195259 0.055294658988714 0.033256568014622 -0.039318449795246 -0.002792301354930 -0.042754698544741 -0.063119776546955 -0.014206737279892 0.019623454660177 -0.029543232172728 -0.000262533721980 -0.050485055893660 -0.005459335632622 0.016517670825124 -0.008084023371339 0.007573294918984 0.047565728425980 -0.003065884346142 -0.020409837365150 0.044872749596834 -0.041781812906265 0.003007552586496 0.007759646512568 0.017574740573764 -0.022451963275671 -0.000748286780436 -0.004827813711017 0.037056997418404 0.017295386642218 -0.025041205808520 0.014252850785851 0.093792691826820 0.040680408477783 -0.048859212547541 0.021455133333802 -0.003398820059374 -0.000894171709660 -0.006314193829894 -0.053304105997086 -0.034389059990644 -0.063748203217983 -0.027729690074921 -0.050291806459427 0.052252277731895 0.062046140432358 -0.003058854490519 -0.054283145815134 0.031395722180605 0.019973590970039 0.009969986975193 -0.026316467672586 -0.048801761120558 -0.034477178007364 0.016600811854005 -0.029577882960439 0.000255772873061
-0.040863703936338 0.006361234933138 -0.073699899017811 -0.038642764091492 -0.022364094853401 -0.016270091757178 0.030133463442326 -0.013995030894876 0.014924850314856 0.011238176375628 0.014300350099802 -0.026998981833458 -0.026152804493904 0.014251247979701 0.020401204004884 0.003172748954967 0.003553164191544 -0.003665413241833 0.022093314677477 0.024900197982788 0.008240561001003 -0.016015004366636 -0.012116153724492 0.021028539165854 0.000981005956419 0.023906037211418 -0.042495343834162 -0.006713285576552 -0.003122600726783 0.001020384836011 0.032370861619711 -0.032517958432436 -0.064675569534302 0.020318202674389 -0.007303095888346 0.003188070375472 -0.053927022963762 0.032611623406410 -0.019030258059502 0.027034020051360 -0.027304736897349 -0.004343213047832 -0.022680234164000 -0.019259264692664 -0.033350601792336 -0.027260916307569 -0.054016470909119 -0.047931231558323 0.026296740397811 -0.009305212646723 0.001353928120807 -0.008812606334686 0.050109259784222 0.029364107176661 0.014179351739585 -0.020926833152771 -0.013895819894969 -0.009843771345913 0.008294686675072 -0.011986974626780 -0.012123295105994 -0.000658067176118 0.048714753240347 0.042250748723745 -0.041977185755968 -0.022347418591380 0.013109075836837 0.021285606548190 -0.018695045262575 -0.030047643929720 -0.003732722019777 0.020566733554006 0.020448414608836 -0.005930154584348 0.004566173069179 -0.037257432937622 -0.072075791656971 -0.044741686433554 -0.048717521131039 -0.004226067103446 0.006135264877230 0.008397035300732 0.029700074344873 -0.037123523652554 0.019233761355281 0.035212770104408 0.004181269556284 -0.018834732472897 0.005871276836842 0.023996202275157 -0.024708271026611 -0.020079283043742 -0.019931616261601 -0.001369897625409 0.005134860984981 0.033542666584253 0.018130617216229 -0.004643943626434 -0.032225094735622 0.013904263265431 0.013895547017455 -0.020978581160307 -0.019949421286583 0.013570277020335 -0.002523618051782 -0.011312152259052 -0.016516327857971 0.025965040549636 0.018678823485970 -0.001069128164090 -0.031539767980576 -0.007702258881181 -0.009103734977543 -0.002359133213758 -0.002252791542560 -0.005839368794113 0.021354546770453 -0.023273982107639 0.008748306892812 -0.004486441146582 -0.004239358007908 0.029154397547245 -0.002081518759951 -0.010143859311938 0.000062355087721 -0.000180273913429 -0.027459293603897 0.005258798133582
-0.028978951275349 -0.032470829784870 -0.044491551816463 0.006495270878077 -0.014090104028583 0.003344760974869 0.001508865854703 -0.016134243458509 0.030692974105477 -0.042747754603624 -0.030170425772667 0.011560623534024 -0.035519711673260 0.012317137792706 0.032793391495943 -0.022069735452533 -0.023769903928041 -0.015068176202476 0.020047120749950 -0.021283661946654 0.000680928700604 -0.024999536573887 -0.033041585236788 -0.015227521769702 -0.006765287835151 0.022548755630851 -0.028472002595663 0.099797487258911 -0.023783626034856 -0.020747227594256 0.011071995832026 0.004815433640033 -0.018776366487145 -0.015952914953232 0.017816873267293 -0.008713990449905 0.009381314739585 0.015661977231503 -0.048218056559563 -0.017192067578435 0.049131918698549 -0.000331624090904 -0.021562967449427 -0.012919562868774 -0.018260050565004 -0.001461137318984 0.010710771195590 -0.041656430810690 -0.016376329585910 -0.022342985495925 -0.038515243679285 0.000622864696197 -0.012956341728568 -0.006023563444614 -0.011846261098981 0.000178824964678 0.001415987266228 -0.024031681939960 0.022808033972979 -0.013276671990752 0.030128037557006 0.009902141988277 0.019206400960684 -0.008878216147423 0.008818838745356 -0.018200490623713 0.026884263381362 -0.006331287790090 0.006859497632831 -0.008609779179096 0.047181740403175 -0.010916513390839 0.018630888313055 0.026584979146719 0.008422695100307 -0.048960439860821 -0.013517044484615 -0.034930717200041 -0.011803145520389 0.009583722800016 0.032873820513487 -0.029604043811560 0.018175942823291 -0.020614445209503 0.020014991983771 0.016693314537406 -0.004216339904815 -0.003209242597222 -0.005354010965675 0.020289273932576 -0.014325339347124 -0.032194465398788 0.003381051355973 0.009093726053834 0.014434630051255 -0.013117347843945 0.006556309759617 0.041163176298141 -0.017806446179748 0.025519238784909 -0.010452721267939 0.010977803729475 0.019597720354795 -0.027006037533283 0.000798058114015 0.011725169606507 0.010211126878858 -0.004104170948267 -0.015865340828896 0.002677000360563 -0.009923968464136 -0.033290252089500 -0.013677241280675 -0.005838998127729 0.001710596727207 -0.010523164644837 0.020056309178472 -0.035923495888710 -0.023928824812174 0.005778661929071 -0.001809934969060 0.009685566648841 0.016911931335926 -0.017611948773265 0.000632521347143 -0.010959763079882 -0.009414035826921 -0.009024137631059
0.032823834568262 -0.019973553717136 0.036070056259632 -0.011718288064003 -0.026171002537012 0.003605556907132 0.029003743082285 -0.010788322426379 -0.022305427119136 0.031651671975851 -0.001884996891022 0.017231686040759 -0.020173480734229 -0.026301035657525 0.019712263718247 0.025590635836124 0.011825358495116 -0.003306056838483 -0.017565594986081 0.002087592380121 -0.021022219210863 -0.002983979415148 -0.008807208389044 0.027118230238557 0.000358741759555 -0.000651881855447 -0.065613359212875 -0.025649622082710 0.011510291136801 0.025775210931897 0.003455609316006 0.047608245164156 0.012247742153704 0.007449336815625 -0.031489733606577 -0.035621073096991 0.015514202415943 -0.007388823665679 -0.020776417106390 0.040705271065235 -0.036681327968836 0.003927018493414 0.049893055111170 0.051123708486557 -0.023879541084170 0.024877615272999 -0.065793715417385 -0.007544787134975 -0.007839202880859 -0.004605035297573 -0.007432900834829 -0.026742447167635 0.019162621349096 0.015259618870914 -0.096249409019947 -0.010886793956161 -0.014214934781194 0.016848042607307 -0.033313617110252 -0.025305280461907 0.014227691106498 0.022083541378379 0.013398499228060 0.014149771071970 -0.018525972962379 -0.057591523975134 0.011084247380495 -0.018103538081050 -0.011516595259309 -0.038785647600889 0.007286126725376 -0.014487850479782 -0.043806742876768 -0.021353481337428 -0.020117927342653 0.041847024112940 -0.016739482060075 0.037545513361692 0.058135636150837 0.067731492221355 0.017603365704417 0.005894862115383 -0.023801054805517 -0.010429633781314 -0.006645211484283 0.005522921681404 0.000943787512369 0.011604629456997 -0.042761016637087 0.014070994220674 0.017883379012346 -0.018984759226441 -0.039601217955351 -0.059728045016527 -0.012843113392591 0.021515006199479 0.030401090160012 -0.039299890398979 -0.003215638687834 -0.021098986268044 0.004559997469187 0.023571895435452 0.025162516161799 0.014463307335973 0.016027808189392 0.035868145525455 -0.042141258716583 -0.019111635163426 0.001978947781026 0.011224354617298 -0.000975198694505 0.053522728383541 -0.007158542051911 0.045823704451323 0.014094129204750 -0.023935701698065 -0.000595343823079 0.013751514256001 -0.004208154510707 -0.025697946548462 0.002816265681759 -0.040824059396982 -0.009448284283280 -0.005576414987445 0.001638121437281 -0.004582665394992 0.012488069944084 -0.009792301803827
-0.011358341202140 -0.016669016331434 -0.007674134802073 -0.031605407595634 0.002784271957353 -0.015524101443589 0.004430891014636 -0.013271595351398 -0.035105094313622 -0.038251623511314 0.017516830936074 0.025527395308018 -0.002149529289454 -0.001338087720796 -0.039652746170759 0.001895999070257 -0.026691772043705 -0.029057169333100 0.002716614166275 0.020456656813622 -0.031019223853946 0.008067822083831 -0.047108713537455 -0.030296474695206 -0.023518495261669 -0.013621705584228 -0.035062871873379 -0.045220367610455 0.017586387693882 -0.011563926935196 0.046239499002695 -0.016006818041205 -0.002806167118251 -0.007139787077904 -0.014024863950908 -0.024268630892038 -0.034895088523626 0.002267483621836 -0.026572061702609 -0.005200288724154 -0.026265511289239 -0.022576432675123 0.021561428904533 -0.015655964612961 0.005987476557493 -0.041899081319571 -0.010862479917705 -0.010910208337009 0.028508277609944 -0.000418815907324 -0.018478021025658 -0.025122864171863 -0.017645217478275 -0.029710607603192 0.011452837847173 -0.039759788662195 0.042246557772160 0.012133216485381 -0.005020227748901 -0.034363131970167 0.004357142373919 -0.000552789948415 -0.010998466983438 0.023032909259200 -0.001896392437629 -0.006752283312380 -0.014073002152145 -0.028597272932529 -0.008247351273894 0.037426661700010 -0.015252253971994 -0.003119784640148 -0.034830261021852 -0.027106147259474 0.035772811621428 -0.036474712193012 -0.016958659514785 -0.037414319813251 -0.030882429331541 -0.009118528105319 -0.014286755584180 -0.017555862665176 0.021471019834280 -0.018291765823960 0.026704557240009 0.027051920071244 -0.012996706180274 0.008590431883931 0.008601801469922 0.006432033609599 -0.018187357112765 -0.004609093535691 0.008439813740551 -0.016756882891059 0.013139245100319 -0.027914471924305 -0.011454992927611 0.035472329705954 -0.030329659581184 -0.012012079358101 -0.003886836580932 0.014116039499640 -0.032684009522200 -0.002788487356156 -0.013843604363501 -0.001741288695484 0.020839046686888 -0.026662873104215 -0.010677514597774 -0.000947717635427 0.008334309794009 0.000266934628598 -0.013190430589020 0.013527031056583 -0.009413903579116 -0.012445144355297 -0.033498652279377 0.002648206194863 -0.008023500442505 -0.035473115742207 0.013045730069280 -0.004793519154191 -0.018517177551985 0.001761119812727 -0.015607278794050 -0.013223715126514 0.012462916783988 -0.023056047037244
