-0.020681731402874 -0.001367187360302 -0.050884269177914 -0.014088992029428 0.009308231063187 -0.003834909293801 -0.004043145105243 0.002729095984250 0.018900532275438 0.004055643454194 0.010672924108803 0.032207991927862 -0.002602801658213 -0.042576558887959 -0.043738983571529 -0.041274506598711 0.043432265520096 0.039766412228346 -0.001257954514585 -0.015377257950604 -0.086515024304390 0.036606002599001 -0.023379953578115 0.001924994401634 0.005886514671147 -0.032840605825186 -0.035864498466253 -0.048230361193419 -0.004320574458688 -0.020572999492288 -0.030292525887489 -0.060552507638931 -0.013477368280292 -0.030132165178657 -0.110708341002464 -0.006870092358440 -0.019137758761644 -0.026848845183849 0.016141800209880 -0.004775492008775 0.018437741324306 0.004599078558385 -0.045027922838926 -0.000016119092834 -0.067113034427166 0.017432656139135 -0.051769439131021 -0.030587282031775 0.021758779883385 -0.093814976513386 -0.004473668523133 -0.048960506916046 0.001059700152837 -0.012784751132131 -0.001866920851171 -0.014979006722569 -0.042195357382298 -0.075314082205296 -0.002750459359959 -0.004527512937784 -0.022515391930938 -0.039520602673292 -0.022381573915482 -0.033843126147985
-0.012268696911633 -0.004886056762189 0.061960075050592 -0.038591161370277 0.006098234094679 0.059329513460398 0.008446295745671 -0.075988657772541 0.006862275768071 0.055578187108040 0.008398111909628 -0.008508427068591 -0.063100397586823 0.015500313602388 0.087287560105324 -0.041530035436153 0.045366916805506 -0.028337372466922 0.024003937840462 -0.020628618076444 0.060506459325552 -0.030238559469581 -0.006243350449950 -0.008222557604313 -0.013531573116779 -0.017541225999594 0.016200270503759 -0.015827493742108 -0.054091759026051 0.050689306110144 -0.038086965680122 -0.062367111444473 0.020918037742376 -0.007750263437629 -0.008445148356259 0.042675171047449 -0.020791407674551 -0.000180643473868 -0.048142332583666 -0.015765301883221 -0.087825395166874 -0.019593095406890 -0.037065841257572 -0.057245716452599 0.040309149771929 -0.013195701874793 -0.034303296357393 -0.006002209614962 0.153847053647041 -0.010627554729581 0.064487136900425 0.046767394989729 -0.022336350753903 -0.015289830043912 -0.001555458991788 0.002473725704476 0.029271323233843 -0.018166262656450 -0.031487330794334 -0.019285839051008 -0.007773265708238 0.002876234706491 -0.035936933010817 0.015323565341532
-0.003832407528535 -0.002177560934797 0.091001145541668 -0.043771218508482 0.004691228736192 0.104119896888733 0.034870281815529 -0.079312942922115 -0.015115206129849 0.040613006800413 0.014830927364528 -0.007696607615799 -0.031952999532223 0.042816706001759 0.055982749909163 0.002058986341581 0.009050641208887 0.019163694232702 0.009819277562201 0.001030207495205 0.042272016406059 0.001368501340039 -0.001746964408085 -0.006547849625349 -0.014529814012349 0.017942612990737 0.032292265444994 -0.007852316834033 -0.042600911110640 0.054275862872601 -0.006850483361632 -0.009454002603889 0.008352527394891 -0.008596065454185 0.074268154799938 0.033485107123852 -0.003302663099021 0.031140366569161 -0.024263452738523 -0.003754826262593 -0.068885557353497 -0.011424393393099 -0.094892010092735 -0.031703662127256 0.064008176326752 -0.007186020724475 -0.004546520765871 0.004138983786106 0.080448821187019 0.007295210380107 0.096985325217247 0.051886312663555 -0.012213017791510 0.009573384188116 0.018440416082740 -0.008961650542915 0.032054945826530 -0.008471924811602 -0.035217054188251 0.012357452884316 0.004537667147815 -0.011457346379757 -0.020389543846250 -0.002697164891288
-0.004858303815126 0.042701855301857 0.096995830535889 -0.015461408533156 0.004127916414291 0.115425385534763 0.009868377819657 -0.044528897851706 0.007982194423676 0.002671846421435 0.023829855024815 -0.032700531184673 -0.028565024957061 0.046460561454296 0.071612827479839 -0.028859036043286 0.027861319482327 -0.092885769903660 0.022426715120673 0.032065600156784 -0.019247546792030 0.017952116206288 -0.004910799209028 0.005366459023207 0.034676823765039 -0.002784579293802 0.025739030912519 -0.001045198179781 -0.024448474869132 0.093956023454666 -0.011632925830781 -0.061034493148327 0.029790202155709 0.032833140343428 0.100879065692425 0.043920528143644 -0.059664703905582 0.059501729905605 -0.029925569891930 -0.000334406620823 -0.144412189722061 -0.036727558821440 -0.060137264430523 0.009619030170143 -0.029699983075261 -0.052515000104904 -0.071520030498505 0.002358822384849 0.133261203765869 0.128037974238396 0.111615873873234 0.055114392191172 0.028227187693119 0.000338227691827 0.008996554650366 0.032976530492306 0.093480415642262 0.060706738382578 -0.063529767096043 0.010265839286149 -0.002342348918319 -0.000793699815404 -0.031163157895207 0.012560762465000
-0.022985426709056 -0.002644462743774 -0.024147488176823 -0.007427076809108 -0.030415065586567 0.008145454339683 0.016964636743069 -0.028455035760999 -0.008179117925465 0.000482767121866 -0.019245615229011 0.044238824397326 -0.007057919632643 -0.054725870490074 -0.031089968979359 -0.040452428162098 0.067940086126328 -0.011673818342388 -0.038575369864702 -0.052538007497787 -0.032269809395075 0.057562276721001 -0.017564760521054 -0.023604970425367 -0.004595225211233 -0.054080996662378 -0.024878375232220 -0.031518906354904 -0.034485522657633 -0.045318078249693 -0.045108165591955 -0.092793799936771 0.006647959817201 -0.007889584638178 -0.095578216016293 -0.021758602932096 -0.067828446626663 -0.017354201525450 -0.026333721354604 0.003512745723128 0.071471862494946 -0.001813436276279 -0.068504303693771 -0.026594180613756 -0.050912175327539 0.013918455690145 0.001496139215305 -0.053714979439974 0.061881832778454 -0.159074366092682 -0.017858905717731 -0.026146078482270 -0.038644701242447 -0.012582777068019 0.010667609050870 0.000677884032484 -0.001097934204154 -0.108506724238396 -0.021006330847740 0.002066767076030 -0.026014640927315 -0.038506764918566 -0.080133110284805 -0.045340992510319
-0.028319047763944 0.013622630387545 0.085415549576283 -0.043767936527729 -0.015281257219613 0.048822697252035 0.036626309156418 -0.034923885017633 -0.015559539198875 -0.029192712157965 0.015689801424742 0.000815958250314 -0.022058550268412 -0.000489978468977 0.083446480333805 -0.018130408599973 -0.005513238720596 -0.024718349799514 -0.014173729345202 0.008604101836681 0.070580221712589 -0.018431724980474 -0.040823049843311 -0.009229738265276 -0.002458950038999 -0.037005018442869 0.033210873603821 -0.006676096934825 -0.035350255668163 0.076900690793991 -0.058130163699389 0.011175360530615 -0.006452903617173 0.028867330402136 0.064924128353596 0.058244101703167 0.019422560930252 -0.026455685496330 -0.019868806004524 0.000392606103560 0.023815041407943 -0.002252348931506 -0.071254611015320 -0.012710105627775 0.080342918634415 -0.005967669188976 -0.022174105048180 -0.042757593095303 0.034844756126404 0.001912503270432 0.007446425501257 0.018048567697406 -0.031296305358410 -0.009534509852529 0.001750487484969 0.041480910032988 0.043034095317125 -0.007677280344069 -0.028824586421251 -0.022815005853772 -0.005315176676959 -0.000207396646147 -0.053461067378521 0.032348282635212
0.008656227961183 -0.019670655950904 0.031807359308004 0.056528467684984 -0.013783973641694 -0.047827549278736 -0.024845294654369 0.006818034686148 -0.016974017024040 0.027398038655519 0.005767726339400 0.126270070672035 -0.044094104319811 -0.004196031019092 -0.029666747897863 0.005121271591634 0.067151576280594 -0.085480734705925 -0.006722484715283 -0.033419780433178 0.048193056136370 0.077191054821014 0.004215389955789 0.006643902510405 -0.003901696763933 0.000919706944842 0.043583802878857 0.013698721304536 -0.004618639126420 -0.037708967924118 -0.023718543350697 -0.067054219543934 0.009887746535242 -0.045159935951233 0.020003570243716 0.018011976033449 -0.030423456802964 0.077600337564945 0.006671002134681 -0.001526320003904 0.026202471926808 -0.013046198524535 -0.058465659618378 -0.019118197262287 0.032183647155762 -0.025355247780681 0.081394687294960 0.007950487546623 0.009729386307299 0.006278849206865 0.053783379495144 -0.020633636042476 -0.009569978341460 0.011937085539103 0.023239916190505 0.033262193202972 0.059861246496439 -0.028826840221882 -0.003618726972491 -0.031443167477846 -0.035080231726170 -0.003604160854593 -0.066301017999649 -0.001031555468217
-0.017831761389971 -0.008622195571661 0.006454888731241 0.054557420313358 -0.005676731932908 -0.054348438978195 0.012893745675683 -0.022088503465056 -0.013767413794994 0.000457108311821 0.019846418872476 0.054741341620684 -0.045279059559107 0.000940000754781 -0.024080595001578 -0.008123460225761 0.039080120623112 -0.035135198384523 -0.006194837857038 -0.001391629688442 0.025684569031000 0.042539350688457 -0.003284426638857 -0.005609270185232 0.016569394618273 -0.020629454404116 0.016409175470471 -0.001305065467022 -0.012779655866325 -0.047931440174580 -0.008440026082098 -0.030554084107280 -0.000311188574415 -0.023247977718711 -0.039825383573771 -0.009925219230354 0.004380825441331 0.039050281047821 0.000307918409817 0.001940790563822 -0.060080394148827 -0.008996559306979 -0.028329527005553 0.020030917599797 0.032647434622049 0.009790170006454 0.045228891074657 -0.024285160005093 -0.000680839410052 0.083712905645370 0.020924163982272 -0.021713664755225 -0.008498296141624 0.002286064904183 0.019618304446340 0.036833968013525 0.028986670076847 -0.004693676251918 0.000910670205485 0.012647068127990 -0.026120113208890 0.006664292421192 -0.015801064670086 0.008993037045002
-0.027484398335218 0.011738704517484 -0.031763993203640 0.044910214841366 -0.017229178920388 -0.044642589986324 -0.037731707096100 -0.036825340241194 -0.013925595209002 -0.039164636284113 -0.024343192577362 0.081486836075783 0.000124934711494 -0.037380557507277 -0.010396379977465 -0.012360759079456 0.037567149847746 -0.055669721215963 -0.017078004777431 -0.016201790422201 -0.013970088213682 0.000345186359482 -0.018351009115577 -0.044289458543062 -0.009295700117946 -0.015973262488842 -0.010473473928869 0.008833594620228 -0.022776389494538 -0.036454387009144 -0.026052527129650 -0.024694323539734 -0.008686739020050 0.042445946484804 0.023715157061815 0.006700652185827 -0.073303461074829 -0.008724082261324 -0.020386921241879 -0.023659583181143 0.046844854950905 0.002568948315457 -0.003902570810169 -0.019477371126413 -0.009391248226166 0.026380168274045 0.036517854779959 -0.017985766753554 -0.008372776210308 -0.033275056630373 -0.028938837349415 -0.012318613007665 -0.031760074198246 -0.007432057056576 -0.017868369817734 -0.006101073697209 -0.013519214466214 0.010401775129139 -0.048362825065851 -0.027077341452241 -0.007927897386253 -0.029288742691278 -0.047678157687187 -0.042420618236065
-0.002486270153895 -0.012675376608968 0.089900568127632 -0.057204339653254 0.014520257711411 0.044928863644600 -0.000290739611955 -0.023236662149429 0.048676263540983 -0.028015233576298 0.023731904104352 -0.054325353354216 -0.031041387468576 0.033192191272974 0.061664991080761 0.000794324965682 -0.013188655488193 -0.054555699229240 0.069911241531372 -0.006594195961952 0.036856517195702 -0.084524437785149 0.055111009627581 -0.011520433239639 -0.047298796474934 -0.050007123500109 0.003393189515918 -0.041871767491102 -0.006837525870651 0.050051286816597 0.030646033585072 -0.008595978841186 0.014906028285623 0.010582908056676 0.121078804135323 -0.004394608549774 0.038995426148176 -0.018439017236233 0.002675927476957 0.001689245924354 0.112123161554337 0.007590241730213 -0.019663078710437 -0.030759122222662 0.030216388404369 0.016810802742839 -0.030795264989138 -0.012323433533311 0.082113966345787 0.005410195793957 0.035060144960880 0.059176120907068 -0.019147526472807 0.008219996467233 0.021501563489437 0.054037071764469 0.023438729345798 -0.011147200129926 0.033013861626387 0.002078832592815 -0.017228577286005 0.047092169523239 -0.016978884115815 0.009022038429976
0.092815577983856 -0.000348422268871 0.011147410608828 -0.046150315552950 0.029959414154291 0.049228545278311 0.006401234772056 0.005022882018238 0.025927718728781 0.049674220383167 -0.000909685739316 0.033239290118217 -0.032873086631298 0.030743837356567 0.119375668466091 -0.021305682137609 0.010448400862515 -0.052459131926298 0.046026334166527 -0.017964508384466 -0.002530147088692 -0.038787692785263 0.027016084641218 0.000160276496899 -0.007183075416833 0.041299030184746 0.048577349632978 0.002044896129519 -0.020125312730670 0.047001406550407 0.039522044360638 -0.074680164456367 0.053220111876726 -0.087562315165997 0.006977240554988 -0.070584043860435 0.012443410232663 -0.039565313607454 -0.040738034993410 -0.016162749379873 -0.225821748375893 -0.016789717599750 -0.014661963097751 0.004225538577884 -0.094581946730614 -0.010797333903611 -0.037932213395834 0.060259055346251 0.151542186737061 0.083330444991589 0.028616739436984 0.100633002817631 -0.034520272165537 0.003647273872048 0.011394557543099 -0.019912889227271 0.125494092702866 -0.046026945114136 -0.045557923614979 -0.006586513482034 -0.014938432723284 0.084459908306599 -0.062006510794163 0.050011917948723
-0.003958838526160 0.000814043509308 0.000701269134879 0.002062261803076 0.011949229054153 0.028828172013164 0.021965252235532 -0.053359393030405 -0.006019442807883 -0.034607071429491 -0.007139203604311 -0.025178994983435 -0.031609810888767 -0.025003088638186 0.042276438325644 -0.023814402520657 -0.034099139273167 -0.009096774272621 0.004275667946786 0.006077388767153 0.015358522534370 -0.010954565368593 0.003904600394890 -0.002089503919706 -0.033522713929415 0.034154191613197 -0.031176608055830 -0.018461329862475 -0.024337518960238 0.018696235492826 0.026196669787169 -0.026042841374874 -0.018486116081476 -0.003892192849889 0.032852735370398 -0.024050854146481 0.027356276288629 -0.009079449810088 -0.007771119009703 0.016230547800660 -0.029914207756519 -0.008240560069680 0.017444092780352 -0.019136486575007 -0.023092640563846 0.059819061309099 -0.007767644710839 0.011403847485781 -0.033748660236597 0.045423604547977 -0.012765368446708 0.041746750473976 0.007756523322314 0.003710575634614 -0.009859162382782 -0.007090387400240 -0.062950491905212 -0.020745934918523 -0.001707462943159 0.032665558159351 0.008243624120951 0.027300929650664 0.038660090416670 -0.031365714967251
0.011726032942533 0.049877732992172 0.021747322753072 -0.116888649761677 -0.027461897581816 0.036820147186518 0.011124585755169 -0.039608355611563 0.053774539381266 0.052014056593180 -0.006594496779144 0.019029309973121 0.031980246305466 -0.076560899615288 0.087621688842773 -0.018384069204330 -0.016768712550402 0.008292893879116 0.047853954136372 -0.053800500929356 -0.087869949638844 -0.024491116404533 0.033437538892031 0.001812054542825 -0.074693791568279 0.028127763420343 -0.087392680346966 -0.123098440468311 0.003915800247341 0.128812730312347 -0.053258020430803 -0.074151530861855 0.064354099333286 -0.035446014255285 0.064542792737484 -0.048182167112827 -0.027908829972148 -0.050191514194012 0.035190746188164 -0.039214257150888 0.470938205718994 -0.016398653388023 -0.051761005073786 -0.015862127766013 -0.150310933589935 0.108132064342499 -0.093624494969845 -0.010571082122624 0.054475236684084 -0.464063942432404 -0.092873141169548 0.006857966538519 -0.042112402617931 0.018396897241473 0.065420977771282 -0.026747781783342 0.049158167093992 -0.267051696777344 0.136625379323959 -0.004258235916495 0.033503793179989 -0.029326913878322 -0.111573144793510 0.074889063835144
0.035850007086992 0.005369033198804 0.056322470307350 -0.035064928233624 0.011499236337841 0.097134508192539 0.009211797267199 -0.048603460192680 0.034967854619026 0.002241848036647 0.037922888994217 -0.058366198092699 -0.011848238296807 0.060481682419777 0.085461072623730 0.011687914840877 0.000592679774854 -0.073151640594006 -0.012105524539948 -0.014844535849988 -0.037956658750772 -0.018761070445180 0.041573651134968 0.002007582224905 -0.028171736747026 0.066472485661507 0.000165613120771 -0.008665350265801 -0.001854362664744 0.067088022828102 -0.011551682837307 0.044042333960533 0.039510108530521 0.025541856884956 0.074741236865520 0.031778331845999 -0.055354610085487 -0.021459309384227 -0.000970330787823 -0.003550642868504 -0.088147908449173 -0.007314878515899 -0.003033365588635 0.005658448673785 0.019258456304669 -0.060734208673239 -0.012324285693467 0.020470570772886 0.048497293144464 0.026633864268661 0.090858288109303 0.055361609905958 -0.015760775655508 0.012501752004027 0.029247146099806 0.015457009896636 0.033883359283209 0.003947830293328 0.026248725131154 0.013866934925318 0.010658492334187 0.010836089961231 -0.114283517003059 -0.011675840243697
0.048440821468830 0.026838811114430 0.033662553876638 0.002874733414501 -0.000668028951623 -0.010990601964295 0.019886067137122 0.017112266272306 0.039616122841835 0.030022734776139 -0.009848248213530 0.003664369462058 -0.014682834036648 0.054142788052559 -0.060539864003658 -0.010666858404875 0.019004166126251 -0.037074126303196 0.026764703914523 0.025557536631823 0.000454957218608 0.006363388150930 0.040182843804359 -0.001825830549933 0.008811804465950 0.007669077720493 0.044007297605276 -0.016593383625150 0.003393738996238 -0.008400313556194 0.051264677196741 -0.033221293240786 0.037173457443714 -0.045867647975683 0.034703992307186 -0.039243895560503 0.064471781253815 0.017621656879783 -0.006406008731574 0.001163528882898 -0.054602533578873 0.005275261588395 0.056994959712029 0.017306666821241 -0.074160575866699 0.018013535067439 -0.028710812330246 0.027439936995506 0.039707619696856 -0.015729503706098 0.063840560615063 0.013222948648036 -0.001212798873894 0.009695787914097 0.017442384734750 -0.012152997776866 0.141442000865936 0.013363211415708 -0.069227077066898 0.018050633370876 0.008746825158596 0.042643465101719 0.022351607680321 0.003107910975814
0.035852700471878 -0.012865745462477 -0.050027839839458 -0.038909737020731 0.040557388216257 -0.032934106886387 0.003105561016127 0.120006658136845 0.030315916985273 0.002965881722048 -0.036559976637363 -0.144714504480362 0.032147943973541 0.006615623366088 -0.038753569126129 0.045434501022100 -0.009957464411855 0.036528684198856 -0.019701253622770 0.032930288463831 0.011924726888537 -0.031082922592759 0.053628057241440 0.001065832213499 0.001266514183953 0.141387641429901 -0.025889674201608 0.003243655664846 0.075777567923069 -0.051699280738831 -0.002507749479264 0.052185121923685 -0.018076868727803 -0.003858366515487 -0.045344997197390 -0.038527011871338 -0.032135210931301 -0.025881368666887 0.041685875505209 0.024514053016901 0.128916695713997 0.022022955119610 -0.016917269676924 0.002491455292329 -0.047374602407217 -0.037034220993519 -0.023384187370539 0.032459892332554 -0.006616560742259 -0.006754503585398 -0.056594047695398 0.098596893250942 0.041817415505648 0.046522218734026 0.032503150403500 -0.059030696749687 -0.035755664110184 0.040399581193924 0.098720222711563 0.071389213204384 0.046313077211380 -0.035302706062794 0.010603697970510 -0.036269694566727
0.005677905399352 -0.005742448382080 0.069537594914436 -0.048767358064651 0.007298440672457 0.014010580256581 0.017203772440553 -0.065843716263771 0.040123846381903 -0.010976223275065 0.001615388668142 -0.042087312787771 -0.048230022192001 0.042489349842072 0.063540555536747 -0.031124230474234 0.002386974403635 0.007649786770344 0.003808623645455 -0.015329452231526 0.005549614317715 -0.017815224826336 0.006955183111131 -0.011771735735238 -0.008289773948491 -0.015147058293223 0.010411480441689 -0.018294218927622 -0.061557408422232 0.014409752562642 0.025145187973976 0.019780799746513 0.045671928673983 -0.029005127027631 -0.007419718429446 0.012232408858836 -0.038819216191769 -0.002941856393591 -0.046852830797434 -0.017959255725145 -0.172395035624504 -0.022951375693083 -0.034993290901184 -0.019617993384600 0.023896913975477 -0.049143627285957 -0.031434629112482 0.003922869451344 0.121341429650784 0.181873679161072 0.065069392323494 -0.004743965808302 -0.012930231168866 -0.034139826893806 0.009721796028316 0.056702349334955 -0.016939347609878 0.047698989510536 -0.018423270434141 -0.015105941332877 -0.015073119662702 -0.004151236265898 0.035968966782093 0.052703544497490
-0.027690229937434 0.014525326900184 0.019928328692913 0.026843823492527 0.003788080299273 -0.011760544963181 -0.002846003044397 0.061970349401236 -0.015246274881065 0.000275806058198 0.024064481258392 0.164669021964073 0.061368159949780 0.022571535781026 0.010279803536832 0.001429670141079 0.138966217637062 -0.039868608117104 -0.009349336847663 0.006583342794329 -0.046389635652304 0.043006863445044 -0.018989156931639 -0.026306878775358 0.039268121123314 -0.056872181594372 0.041848007589579 0.008155438117683 0.026045424863696 -0.045548789203167 -0.018173005431890 -0.051634564995766 0.015301432460546 0.015427201054990 -0.046920321881771 -0.007243994157761 -0.028283815830946 0.011441652663052 0.023941313847899 0.026744151487947 0.146434485912323 0.028764398768544 0.080658368766308 0.012181461788714 -0.024902494624257 0.072174087166786 -0.013749259524047 -0.023365486413240 0.050205793231726 0.003725009039044 -0.000775860564318 -0.049425598233938 -0.005872818175703 -0.013318644836545 0.012173933908343 0.024431806057692 0.020571630448103 -0.041510835289955 0.019505469128489 0.010026069357991 -0.003512718714774 -0.032022152096033 0.039653837680817 -0.027523772791028
-0.018686702474952 -0.003448612755165 0.003976983483881 -0.025183066725731 -0.018183404579759 -0.028673302382231 -0.054578308016062 0.093588665127754 0.004089702852070 -0.008233113214374 -0.052358105778694 0.048296827822924 0.041917633265257 0.050324432551861 -0.009398994036019 0.025257315486670 0.031433947384357 0.016504647210240 -0.004581799264997 0.081081248819828 -0.099601022899151 0.044877126812935 -0.028653187677264 0.001399384695105 0.006898433901370 -0.009994903579354 -0.027399843558669 -0.040418848395348 0.043004866689444 -0.006957582663745 -0.037421043962240 0.067582771182060 -0.054822094738483 -0.046815179288387 0.056783527135849 -0.035223167389631 0.032506477087736 -0.009058935567737 0.036578405648470 0.005526920780540 -0.024105831980705 0.044002115726471 -0.018309317529202 0.023203859105706 -0.110274024307728 -0.023851078003645 -0.072320923209190 -0.048373308032751 -0.093460902571678 0.207506582140923 0.058829516172409 -0.003007890656590 0.006967143155634 0.015723641961813 0.039683226495981 -0.075290508568287 0.105278477072716 0.030552547425032 0.069581449031830 0.024550961330533 0.031369339674711 -0.052781742066145 0.056898463517427 -0.049714773893356
0.034344006329775 -0.008426806889474 0.016018802300096 -0.103040821850300 0.060396652668715 0.055632222443819 0.008897658437490 -0.007056798320264 0.029628476127982 0.025086402893066 -0.039705276489258 -0.146783515810966 0.014262571930885 -0.000341058912454 -0.086595065891743 0.057199310511351 -0.034792326390743 0.061449963599443 -0.038151506334543 0.018403079360723 0.011029080487788 -0.014656529761851 0.023745702579618 0.041246648877859 0.013088691979647 0.053667634725571 -0.003592698136345 0.001936677726917 0.027619564905763 -0.062782451510429 -0.004949106834829 0.016814479604363 -0.015570995397866 -0.015387455932796 -0.108876578509808 -0.005406138021499 0.054159335792065 0.018458539620042 0.043370917439461 0.042044375091791 -0.056735191494226 0.060043968260288 0.142806231975555 0.055347748100758 -0.031694151461124 -0.016685266047716 -0.052056569606066 0.047125723212957 -0.022602666169405 0.072519749403000 -0.044714760035276 0.024860259145498 0.056735407561064 0.048394571989775 0.027324981987476 -0.056086905300617 -0.009250994771719 0.010352608747780 0.010134960524738 0.035048205405474 0.036147072911263 0.004546529613435 0.136813744902611 -0.065175369381905
-0.019905325025320 -0.010987173765898 -0.083471149206161 0.047020781785250 -0.002394011244178 0.044589854776859 0.086171291768551 0.051573000848293 -0.012886051088572 0.114380665123463 0.056433651596308 -0.010683284141123 0.004177712835371 -0.032251082360744 0.021255703642964 -0.029095349833369 0.008695789612830 0.060221586376429 -0.023798784241080 0.037311907857656 -0.055964894592762 0.005952506791800 -0.005732319317758 -0.011714293621480 0.017452098429203 0.016142411157489 -0.037019338458776 0.016335871070623 0.006159714888781 -0.031144214794040 -0.060040771961212 0.006624170113355 -0.020757123827934 0.032478760927916 -0.078765511512756 -0.104730710387230 -0.019919892773032 0.041283849626780 0.027763424441218 0.019890284165740 -0.041147030889988 -0.018670067191124 -0.035420026630163 -0.056821711361408 0.031342606991529 -0.093649201095104 0.021667107939720 0.029076110571623 0.083278760313988 0.009222974069417 0.057344704866409 0.088050216436386 0.004352599848062 -0.006449657492340 -0.004486002493650 -0.038842070847750 -0.052004363387823 0.034187056124210 0.064391322433949 0.041095703840256 -0.017026923596859 -0.022202489897609 -0.031308218836784 -0.027275778353214
-0.054038323462009 -0.018848216161132 -0.079696767032146 -0.018485784530640 -0.009376255795360 -0.056577619165182 -0.002122341888025 0.017964938655496 -0.016945578157902 -0.001747232279740 0.030239947140217 0.084261797368526 -0.007234637159854 -0.045636292546988 0.009937090799212 0.004504356998950 0.036416016519070 0.051432993263006 -0.111260049045086 -0.016597062349319 -0.025380648672581 0.019430348649621 -0.042938470840454 -0.009867672808468 -0.007623907178640 -0.095818951725960 -0.004562123678625 0.002452785614878 0.032870139926672 -0.058699008077383 -0.071688316762447 0.029320208355784 -0.026016067713499 0.072547882795334 -0.065988563001156 -0.060885388404131 -0.000861854176037 0.049590200185776 0.004782390315086 0.010642710141838 -0.080187328159809 0.036360908299685 0.104491345584393 -0.024985620751977 -0.021308789029717 -0.008554302155972 -0.035331912338734 -0.061517015099525 -0.003215617267415 0.004748390521854 -0.024598348885775 -0.055646002292633 -0.007062932942063 0.010252049192786 0.005494971759617 -0.010444960556924 -0.063583619892597 -0.123965710401535 0.078689061105251 0.031470384448767 -0.002489165868610 -0.113964483141899 -0.021886754781008 0.017506726086140
-0.076834209263325 0.011130480095744 0.039197981357574 -0.088358223438263 -0.034510858356953 0.175130322575569 -0.068388156592846 -0.042798314243555 -0.038244076073170 0.015645019710064 -0.017983172088861 -0.043599344789982 -0.010084086097777 0.043932270258665 0.031595673412085 -0.031798187643290 0.034416180104017 0.064209185540676 -0.019204759970307 0.016310377046466 -0.044882621616125 0.069834277033806 -0.065511584281921 0.000883828441147 0.009481178596616 -0.078963629901409 0.054490838199854 0.034679330885410 -0.038155492395163 0.058952454477549 -0.082727663218975 -0.004048599861562 -0.054928667843342 0.019899571314454 -0.108248509466648 0.099212981760502 -0.043498110026121 -0.014432491734624 -0.002177400980145 -0.017316810786724 -0.089657805860043 -0.005585698876530 -0.045864719897509 0.016778416931629 0.013690404593945 -0.052548371255398 -0.073160223662853 -0.048708312213421 0.029933026060462 -0.037772100418806 0.072130925953388 -0.017602650448680 -0.030830446630716 0.026833938434720 0.004499952774495 0.037662450224161 -0.011734578758478 0.036708682775497 0.045355271548033 0.012913088314235 -0.001512906630524 -0.050464272499084 -0.007678266614676 0.005743675865233
0.051993437111378 0.008474750444293 -0.012378790415823 0.017775675281882 0.026073399931192 -0.013490150682628 0.022649619728327 0.108127005398273 0.008188341744244 0.006596999242902 -0.021969979628921 -0.067052289843559 0.037180732935667 -0.004901899490505 -0.019376425072551 0.065229654312134 0.012037804350257 -0.111785493791103 0.024842504411936 0.034635812044144 -0.001232468290254 0.018416615203023 0.054126549512148 0.040623538196087 0.006756402086467 0.091730080544949 -0.002677474170923 0.018126878887415 0.064609400928020 0.026773778721690 0.036555904895067 -0.019992630928755 0.007903113029897 -0.023094993084669 0.000617730605882 0.037060331553221 -0.032301310449839 -0.040375746786594 0.083106726408005 0.020213104784489 0.107865832746029 0.020898707211018 -0.055839791893959 -0.018845779821277 -0.025668960064650 0.007583389990032 0.059869244694710 0.049530193209648 -0.006751326844096 0.041770294308662 0.004905316513032 0.036549676209688 0.032873131334782 0.039650578051805 0.055717810988426 0.012791987508535 -0.055500660091639 0.003280065022409 0.009267382323742 0.068826757371426 0.067440345883369 -0.016527151688933 -0.003136726561934 0.049958139657974
0.031546704471111 0.000200427282834 0.059392359107733 -0.024178957566619 -0.031019207090139 0.075774572789669 0.021853771060705 -0.058901898562908 0.038504436612129 0.061020154505968 0.005023085512221 -0.083729989826679 -0.051456652581692 0.120012290775776 -0.053362820297480 -0.036253381520510 -0.008444516919553 -0.035624429583549 0.020408710464835 0.047479193657637 -0.052033822983503 -0.026990849524736 0.008956436067820 -0.017452131956816 0.026812884956598 0.047590795904398 0.088592477142811 -0.043140679597855 -0.043100815266371 0.025803776457906 0.004198457114398 -0.003670726902783 -0.020498573780060 0.065008535981178 0.051721662282944 -0.078397236764431 -0.000717896735296 0.011211914941669 -0.052363973110914 -0.004858619533479 -0.002536130137742 -0.021753318607807 -0.073028959333897 -0.014279902912676 -0.077454313635826 -0.060312606394291 -0.081224411725998 -0.036539342254400 0.019617116078734 0.034925244748592 0.135908320546150 0.072941139340401 -0.021446784958243 -0.012488112784922 0.011573337949812 -0.062208943068981 0.115198761224747 0.032041903585196 -0.013614566996694 -0.033361833542585 -0.054478436708450 0.027547437697649 -0.062636815011501 -0.021480357274413
-0.052619442343712 0.073883160948753 -0.010105164721608 0.054051022976637 -0.003235729411244 -0.003764024004340 -0.003026285208762 -0.013578020036221 -0.018383100628853 -0.003723864909261 0.000638944853563 0.050678424537182 -0.035199332982302 -0.055386312305927 0.016659490764141 -0.010276092216372 0.024352706968784 -0.017334271222353 -0.009454112499952 0.030540302395821 -0.006663723383099 0.004375220742077 0.001961227972060 0.011574168689549 0.055400315672159 -0.013694828376174 -0.004952448420227 0.021031280979514 -0.047027524560690 -0.007587125524879 -0.010884525254369 0.028687367215753 -0.062282383441925 -0.001039814786054 -0.038897380232811 -0.082313194870949 0.037099037319422 -0.006732537411153 0.005316499620676 0.004542313981801 -0.066150486469269 -0.006324919871986 0.112685009837151 -0.000641250342596 -0.012689299881458 0.048538494855165 -0.007650084327906 -0.008199927397072 0.015685014426708 0.057522840797901 -0.001969403820112 0.080239951610565 -0.022766990587115 0.021564573049545 -0.008476760238409 -0.036617573350668 0.021936530247331 0.010285726748407 -0.048965495079756 -0.026468025520444 -0.011504008434713 -0.017388528212905 0.118766419589520 0.040571369230747
-0.017759675160050 0.021717580035329 -0.069215834140778 0.022161195054650 -0.007256264332682 -0.104133240878582 0.007729247678071 0.053343642503023 0.004226856864989 0.025858089327812 0.012019274756312 -0.052995238453150 0.031354613602161 0.017663367092609 0.002397156786174 0.029962889850140 0.017049087211490 -0.088645286858082 0.012010029517114 0.014060767367482 -0.008537820540369 -0.021357230842113 0.002415549242869 0.020635657012463 -0.021217886358500 -0.010498770512640 -0.022849539294839 0.021837126463652 0.031268008053303 -0.063764058053493 0.006386923603714 -0.017284601926804 0.016714191064239 -0.002573235193267 -0.025308361276984 -0.046606894582510 -0.028720285743475 -0.041613038629293 0.056565746665001 0.008747702464461 0.149547189474106 0.023606581613421 -0.040763992816210 -0.002424304839224 -0.036477778106928 0.026042394340038 0.056313950568438 0.017375128343701 0.003073404077441 -0.048650339245796 -0.006013059057295 -0.021922416985035 -0.001532685942948 0.019452262669802 0.024883717298508 0.014016329310834 -0.071744948625565 -0.020401876419783 0.006324038840830 0.067477658390999 0.023482164368033 -0.014701794832945 -0.040352463722229 0.030653823167086
-0.018292205408216 0.023273795843124 0.031280484050512 -0.013125573284924 0.004713048227131 0.016883553937078 -0.005691050086170 -0.009196342900395 0.024580869823694 0.003792868228629 0.009211787022650 -0.009782060049474 -0.030918510630727 0.036793034523726 0.069094575941563 -0.004520178772509 0.022961759939790 -0.005598238669336 0.028333576396108 0.020180305466056 0.068891905248165 -0.025976419448853 -0.026331869885325 0.007064639125019 0.029588077217340 -0.047648709267378 0.018459176644683 0.009076150134206 -0.012350342236459 0.020240603014827 0.007842304185033 -0.003574623726308 0.011782899498940 -0.030133958905935 0.014971767552197 0.061704646795988 0.040004536509514 0.022193316370249 -0.025025932118297 -0.003392248181626 0.079154588282108 -0.018601855263114 0.049832720309496 -0.018090393394232 0.052495069801807 0.055860541760921 -0.018982192501426 -0.059167742729187 0.116196878254414 -0.000023664926630 0.012761164456606 0.037548515945673 0.003477686084807 -0.009308268316090 0.022101622074842 0.025592451915145 0.021558187901974 -0.019362743943930 0.016523147001863 -0.012835169211030 -0.008404572494328 0.041647952049971 0.049147494137287 0.037393480539322
0.014682065695524 -0.008470750413835 0.088903121650219 -0.048386488109827 0.019586196169257 0.086006686091423 0.003300724551082 -0.080001056194305 -0.004284610506147 0.050807550549507 -0.009510907344520 -0.063085511326790 -0.058957628905773 0.034939952194691 0.075750365853310 -0.025725858286023 -0.059222303330898 0.016773069277406 -0.007263989653438 -0.011743536219001 0.059657134115696 -0.038010612130165 0.025438245385885 0.013122827745974 -0.012823618948460 0.049525544047356 0.028589958325028 0.002643795451149 -0.035886187106371 0.040653843432665 0.023731749504805 -0.038739208132029 0.016038507223129 -0.010238608345389 0.039084173738956 0.013467288576066 -0.011672847904265 0.042462408542633 -0.048663832247257 -0.013713952153921 -0.065395772457123 -0.032043807208538 -0.021554853767157 -0.028259580954909 0.075351469218731 -0.039513207972050 -0.018599536269903 0.046897552907467 0.091897509992123 0.076830886304379 0.081755839288235 0.064782679080963 0.007394832558930 0.017439972609282 0.013413866050541 0.003981029149145 -0.016122566536069 0.013574494980276 -0.019002111628652 -0.001955121988431 -0.007865949533880 0.002847576513886 -0.009103910997510 0.020215202122927
-0.002955121919513 -0.030190424993634 -0.039709061384201 -0.013504360802472 -0.012054893188179 -0.041707482188940 0.013524625450373 -0.002626911969855 -0.006227168720216 -0.032339673489332 0.003866386832669 0.005110994912684 -0.006109946873039 -0.023439394310117 -0.043971221894026 -0.035909995436668 0.021774685010314 0.024853566661477 -0.020712008699775 -0.039780765771866 -0.034514319151640 0.022351359948516 -0.026235967874527 -0.006289482116699 -0.020392710343003 -0.015983305871487 -0.012179355137050 -0.002994948998094 -0.009736432693899 -0.021537678316236 -0.019179921597242 -0.046581964939833 -0.037105172872543 -0.003933447413146 -0.013927456922829 -0.043572511523962 -0.032392363995314 -0.006434884388000 -0.005792182404548 -0.003189325099811 -0.003130661323667 0.004333634860814 -0.080874234437943 0.003420668188483 -0.034941393882036 0.006044273264706 -0.041330296546221 -0.007462735753506 -0.019483646377921 -0.059700258076191 0.007404709234834 0.015142818912864 -0.006297193467617 0.014725225977600 0.001412552315742 -0.019830329343677 -0.027348255738616 -0.040133342146873 0.005120138637722 -0.004055944737047 -0.009086353704333 -0.025814939290285 -0.036046434193850 0.001990462653339
-0.045620776712894 0.115714006125927 -0.074300535023212 0.050731636583805 0.007862109690905 -0.045524820685387 0.004451004322618 0.017315130680799 -0.042779818177223 0.001335331122391 -0.043121285736561 0.047036629170179 0.003115541301668 0.047595944255590 -0.058994363993406 0.020920185372233 0.106234759092331 -0.045945324003696 -0.002629497088492 0.063671693205833 0.029290722683072 0.060962304472923 -0.003989166580141 0.027473755180836 0.132802873849869 -0.022201353684068 0.018892683088779 0.054756682366133 0.012615594081581 -0.001657986198552 0.001026212004945 0.046339295804501 -0.046686016023159 0.018762020394206 -0.051552157849073 0.011138509958982 0.050583202391863 -0.014388179406524 0.019648438319564 0.013307177461684 -0.116320684552193 0.011545371264219 0.052340727299452 0.016227150335908 0.057517062872648 -0.002095916075632 -0.037877671420574 -0.025669334456325 -0.041339289397001 0.126878455281258 0.035703726112843 0.048279840499163 0.026866922155023 0.047095239162445 0.012425787746906 -0.035511273890734 0.024663604795933 0.129373431205750 -0.038372401148081 -0.014703957363963 0.045882020145655 0.030202880501747 0.029590295627713 0.018542643636465
-0.031453683972359 -0.037788394838572 -0.033036764711142 0.007353928871453 -0.016254890710115 -0.039051629602909 -0.014981016516685 -0.031291473656893 -0.030288282781839 -0.004829922225326 0.009416372515261 -0.003443231107667 -0.024064380675554 -0.017533371224999 -0.027232941240072 -0.024252202361822 0.015680178999901 -0.000497617875226 -0.005231171380728 -0.012154053896666 -0.016068117693067 -0.013482092879713 -0.021826900541782 -0.009497663937509 -0.012403300963342 -0.039736326783895 -0.007362655363977 -0.009534432552755 -0.026958823204041 -0.044492263346910 -0.018293550238013 -0.011145721189678 -0.025088362395763 -0.020025540143251 -0.028437532484531 -0.010940534994006 0.006035348400474 0.010268578305840 -0.007072005886585 -0.024253787472844 -0.057190332561731 -0.014482095837593 -0.081542469561100 -0.008365293033421 0.002505439799279 -0.020773762837052 -0.017422083765268 -0.025003099814057 -0.010302683338523 -0.016435049474239 -0.003716093255207 -0.044285070151091 -0.042572807520628 0.007619115989655 -0.005604912992567 0.007186684757471 -0.013394543901086 -0.015974646434188 -0.020808884873986 -0.011150883510709 -0.041734870523214 -0.016228927299380 -0.016742551699281 -0.007344850804657
0.010462828911841 -0.016032069921494 0.048479683697224 -0.033460244536400 -0.002391751157120 -0.004766123834997 0.003017904935405 -0.053434979170561 0.011128651909530 0.044702120125294 0.017489727586508 -0.107618682086468 -0.041541397571564 0.034240063279867 0.089459605515003 -0.013732824474573 -0.034165699034929 -0.013473047874868 -0.004316029138863 -0.021504251286387 0.077344715595245 -0.077741637825966 0.002051451243460 0.006017179694027 -0.021602179855108 0.006590210832655 0.015440599061549 0.006315482314676 -0.024433622136712 0.007372712250799 -0.024392500519753 -0.001472753589042 0.025097107514739 -0.010168314911425 0.004240418784320 0.008441372774541 0.004215369466692 0.025937914848328 -0.058389395475388 -0.029018864035606 0.029349900782108 -0.033944770693779 -0.038439400494099 -0.023001080378890 0.040220037102699 0.007376530207694 -0.058558080345392 -0.013055624440312 0.118880517780781 0.034227006137371 0.048489820212126 0.057165887206793 -0.004224286880344 -0.002485165139660 0.002189097693190 0.014771208167076 -0.015098020434380 0.021368551999331 0.010545605793595 -0.019512761384249 -0.031353808939457 0.019061537459493 -0.014586741104722 0.002294241450727
0.059533853083849 -0.035485580563545 -0.032903429120779 -0.003302742494270 0.013866782188416 0.014011953957379 -0.034266840666533 0.062862768769264 0.042090155184269 -0.011415967717767 -0.005794181488454 -0.018201965838671 0.025298027321696 -0.014977596700191 -0.077797427773476 0.031855016946793 0.005994670093060 0.043979026377201 -0.011782559566200 0.019040368497372 0.024218216538429 0.050002489238977 0.007427537813783 -0.028241684660316 -0.036515992134809 0.032896474003792 0.014308992773294 -0.029487347230315 0.038059540092945 0.027050143107772 0.008425369858742 0.007248825859278 0.010077308863401 -0.091132819652557 -0.015297948382795 0.050475522875786 -0.001823780359700 0.009693763218820 0.036376338452101 0.013883438892663 0.021522276103497 0.022833535447717 -0.059949375689030 0.003613956272602 -0.061486285179853 -0.014377197250724 -0.014021797105670 -0.014648870564997 -0.099256508052349 0.175763353705406 -0.027889423072338 0.022087274119258 -0.005864921025932 0.005006710998714 0.023928863927722 -0.027376066893339 0.042351830750704 0.044526420533657 -0.023401610553265 0.019148012623191 0.039441499859095 -0.017832180485129 0.024734757840633 -0.005333127919585
0.008612351492047 0.046124581247568 -0.052950400859118 -0.009989581070840 0.006311984267086 0.010944082401693 0.026023434475064 0.021663736552000 -0.018913587555289 -0.003775303717703 -0.012078635394573 0.027200637385249 0.018274059519172 -0.042452011257410 -0.014704312197864 0.040576219558716 0.063324719667435 -0.033390443772078 0.004282851703465 0.043672896921635 -0.007490180898458 0.036747682839632 0.004540334921330 0.059962313622236 0.074439443647861 -0.013765735551715 0.004948750603944 0.043636180460453 0.022370191290975 0.030986825004220 -0.000992711866274 0.012766069732606 -0.060531556606293 0.056942049413919 -0.030925739556551 -0.014981613494456 0.059541989117861 -0.012361530214548 0.006741099525243 0.007953997701406 -0.125239849090576 0.038544699549675 0.045811861753464 0.046731203794479 0.019361158832908 0.002775393659249 -0.020987676456571 0.009539817459881 -0.012451861985028 0.062226567417383 0.012751574628055 0.019506677985191 0.014696878381073 0.050252400338650 0.007777926512063 -0.012570517137647 -0.008920673280954 0.064094379544258 -0.021460482850671 -0.016391472890973 0.031527779996395 0.021235276013613 0.057135619223118 0.065524488687515
-0.031590595841408 -0.017541376873851 -0.012882479466498 0.020926227793097 -0.041198745369911 -0.011105182580650 0.029708400368690 -0.038131419569254 0.007701106835157 0.011151093989611 0.015056972391903 0.178533896803856 -0.017317853868008 -0.045262407511473 0.004892052151263 -0.047851920127869 0.077362962067127 0.016041690483689 -0.027415283024311 -0.025530135259032 -0.074855655431747 0.084212601184845 -0.038222957402468 -0.023414038121700 -0.016948396340013 -0.034036725759506 -0.032263446599245 -0.034950152039528 -0.062808044254780 -0.002674645045772 -0.064165376126766 -0.117510966956615 0.031574700027704 0.017166504636407 -0.064641393721104 -0.006670773029327 -0.033992774784565 0.060172356665134 -0.011361533775926 -0.031584676355124 -0.016415685415268 -0.045165188610554 -0.058064591139555 -0.024112885817885 -0.039438664913177 0.032314721494913 -0.080765821039677 -0.053883597254753 0.064385399222374 -0.154935643076897 0.026743916794658 -0.031314905732870 -0.021872496232390 -0.008139203302562 -0.005882865749300 -0.018505191430449 0.012999005615711 -0.074921928346157 -0.002089536283165 -0.021420108154416 -0.033520571887493 -0.042848125100136 -0.048715986311436 -0.021603263914585
-0.029048500582576 0.007835526950657 0.003378323046491 -0.029726300388575 -0.053048152476549 -0.053945254534483 -0.031808558851480 -0.073111854493618 -0.027017295360565 0.012045663781464 -0.024139532819390 0.055019121617079 -0.044838532805443 0.043257959187031 0.034203916788101 -0.021498827263713 0.028330337256193 -0.022806338965893 -0.072980239987373 -0.029416019096971 0.037463843822479 -0.035383731126785 -0.029095113277435 -0.014136839658022 -0.050958056002855 -0.011048142798245 0.007136586587876 -0.007453724741936 -0.024810234084725 -0.024688793346286 -0.063536591827869 0.021993553265929 -0.032540123909712 0.001505750347860 -0.048892632126808 0.044290527701378 0.023785810917616 -0.031524345278740 -0.031361877918243 -0.039782904088497 0.029228065162897 -0.024071916937828 -0.042868338525295 -0.046522274613380 0.151326611638069 0.032175570726395 -0.004479363095015 -0.026144649833441 0.047346200793982 -0.087302051484585 0.044889852404594 0.011269436217844 -0.036178376525640 -0.025020118802786 -0.018003635108471 -0.016334347426891 -0.066858090460300 -0.001854309113696 0.000961188576184 0.002541315974668 -0.024781357496977 -0.080985553562641 -0.022956114262342 0.000454509892734
0.013069573789835 0.000031021070754 0.092790894210339 0.011059739626944 0.028717026114464 0.107558853924274 0.019955316558480 0.006394450087100 -0.046614509075880 0.032117627561092 -0.004346546251327 -0.022271350026131 -0.005063022486866 0.036893621087074 -0.001165874418803 0.004426382947713 0.036986581981182 -0.027540372684598 -0.010912744328380 0.013965937308967 0.071871712803841 0.058143340051174 0.007372662425041 0.014578387141228 0.004110379144549 0.045890457928181 0.091314196586609 -0.017878843471408 0.031404424458742 0.043839007616043 -0.014334686100483 -0.051128607243299 -0.047229532152414 0.031214922666550 0.038789950311184 0.132891833782196 -0.010438782162964 -0.005382020492107 0.004406213760376 0.011788964271545 -0.007969675585628 0.014457596465945 -0.015423465520144 0.041790705174208 0.065427474677563 -0.009078802540898 -0.007744603324682 0.058986634016037 -0.022388331592083 -0.011354283429682 0.031153907999396 -0.018652804195881 0.018284162506461 0.028632340952754 0.024187535047531 0.028754984959960 0.078706786036491 -0.056117191910744 0.027243465185165 0.015565775334835 0.026317579671741 0.012928300537169 -0.001238339580595 0.066339664161205
0.000054735704907 0.001874187611975 -0.022051084786654 0.018504494801164 -0.000937888398767 -0.011943231336772 -0.050933830440044 -0.034163199365139 0.033134449273348 -0.020560333505273 -0.020428538322449 -0.060442067682743 -0.029315611347556 -0.027418533340096 0.076496325433254 -0.040255993604660 -0.017888024449348 -0.067416578531265 0.025741646066308 -0.037438083440065 0.032708499580622 -0.040481682866812 -0.006075630430132 -0.024624934419990 -0.023991297930479 -0.017431944608688 -0.038258239626884 -0.011071663349867 -0.031146038323641 0.018781434744596 -0.015650015324354 -0.102345973253250 0.005568766500801 0.016244623810053 -0.021752849221230 -0.009093885309994 -0.025568043813109 -0.018066033720970 -0.041357081383467 -0.029665807262063 -0.115133643150330 -0.046962480992079 -0.032027598470449 -0.053225781768560 -0.012722997926176 0.004599786829203 -0.028815494850278 0.014050669968128 0.193462282419205 -0.044187404215336 -0.007691759150475 0.068519160151482 -0.036736126989126 -0.046340551227331 -0.018637685105205 0.027760978788137 -0.044461164623499 -0.045384969562292 -0.054207976907492 -0.029966423287988 -0.025207135826349 -0.013046450912952 -0.051758121699095 0.003707417286932
-0.040695823729038 0.040697496384382 -0.012537180446088 0.044505294412374 0.013653742149472 -0.008014813065529 -0.000859530468006 0.014815729111433 -0.032672069966793 0.023636799305677 0.013665764592588 -0.016117757186294 0.033130586147308 0.066767647862434 -0.026440547779202 0.027042044326663 -0.055617913603783 0.012552345171571 -0.044619534164667 0.053093668073416 -0.001436952967197 -0.015640998259187 -0.047691259533167 0.031899750232697 0.064752578735352 -0.036133799701929 0.005685404408723 0.021315366029739 0.037389274686575 -0.065199293196201 -0.050387986004353 0.095436051487923 -0.031472891569138 -0.074782200157642 0.028854111209512 0.003541809041053 0.023073872551322 -0.017036085948348 0.021980525925756 -0.003382075577974 0.021232089027762 -0.012491728179157 0.123882487416267 0.004395232535899 -0.002747276797891 0.006931251846254 -0.009996475651860 -0.010677333921194 -0.023461295291781 0.076838158071041 0.060181144624949 0.041126947849989 0.052044834941626 0.032342765480280 0.004494948778301 -0.052117727696896 0.064842425286770 0.125808343291283 -0.012198231182992 0.018599579110742 0.020463224500418 -0.032603818923235 0.048889093101025 -0.076976694166660
0.016278417780995 0.007417055778205 0.109886482357979 -0.052302516996861 0.043413225561380 0.072461277246475 0.017243035137653 -0.048652883619070 0.006168917287141 0.050248090177774 -0.003306468483061 -0.101580351591110 -0.050103943794966 0.040640074759722 0.068750746548176 -0.016030844300985 -0.054649632424116 0.028867572546005 0.020672248676419 0.006454103626311 0.073842130601406 -0.016354169696569 0.025016389787197 -0.010072699747980 -0.003783698659390 0.024841101840138 0.026199517771602 -0.004740058444440 -0.039908386766911 0.032691992819309 -0.003218157216907 -0.077949233353138 -0.003211057279259 -0.036723013967276 0.025134759023786 -0.002479100599885 0.009245992638171 0.061432410031557 -0.045861858874559 -0.008305983617902 -0.092445284128189 -0.032746121287346 -0.037055019289255 -0.004448413848877 0.042489055544138 -0.037510741502047 -0.027669910341501 0.003485883586109 0.086398452520370 0.103002123534679 0.103440620005131 0.045373726636171 0.003383868839592 0.001071721548215 0.012063910253346 -0.005633941385895 0.009308729320765 0.046197026968002 -0.030901057645679 -0.006787763442844 -0.014555591158569 0.019339270889759 0.033228296786547 -0.018962968140841
-0.010561726987362 -0.009281059727073 0.034250397235155 -0.060213394463062 0.013047507964075 0.042537245899439 0.000471259088954 -0.053910348564386 0.009128001518548 0.025763725861907 -0.012748381122947 -0.025933854281902 -0.056633856147528 0.021155139431357 0.052705783396959 0.006318626925349 0.071271665394306 -0.019770296290517 -0.009075246751308 0.002728240331635 0.038436669856310 0.018213549628854 -0.023768197745085 0.014982779510319 0.002347169443965 -0.038351725786924 0.042952429503202 0.033514495939016 -0.024266282096505 0.012349962256849 -0.018964562565088 -0.065558359026909 0.046030797064304 -0.049319405108690 -0.013073248788714 0.023032147437334 0.013758154585958 0.069802194833755 -0.003992632497102 0.009170576930046 -0.235775023698807 -0.009098166599870 0.003307636827230 0.013025115244091 0.071459911763668 -0.014415431767702 -0.076384976506233 -0.013097039423883 0.108482621610165 0.117012247443199 0.073163129389286 0.009654633700848 0.008846425451338 0.036111727356911 0.061435163021088 -0.018256546929479 -0.026403967291117 0.008670803159475 -0.064062543213367 -0.013605952262878 0.007041552569717 -0.019813643768430 0.068077571690083 0.007628209888935
0.021453445777297 -0.035900145769119 0.021928811445832 -0.067068949341774 0.016817916184664 -0.000976894982159 -0.011593999341130 0.105187751352787 -0.003338348818943 0.104413546621799 -0.023414827883244 0.029164884239435 0.013501563109457 0.039458312094212 0.041730023920536 -0.014857285656035 -0.014278509654105 -0.017441630363464 0.025086695328355 0.032088644802570 -0.064666993916035 0.052429430186749 -0.001662285299972 -0.000236464984482 -0.015785505995154 -0.021822100505233 -0.009396538138390 -0.095546334981918 0.033838845789433 -0.008429371751845 -0.013740675523877 -0.114003688097000 0.043546646833420 -0.047089669853449 -0.040038354694843 -0.075264483690262 -0.031785745173693 0.003358349204063 0.001587104750797 -0.003259950084612 0.053294118493795 -0.014730349183083 0.116083353757858 0.001035799738020 -0.059761274605989 0.014659745618701 -0.072412684559822 -0.064572058618069 0.043463457375765 0.034941408783197 0.033052410930395 -0.092260546982288 -0.007795739453286 0.016075154766440 0.022159561514854 -0.035482425242662 0.073943801224232 -0.009259135462344 0.055503852665424 -0.011033856309950 0.007700843270868 -0.013546386733651 0.073829397559166 -0.030053831636906
-0.022822711616755 -0.027391076087952 -0.081765234470367 0.002627524314448 -0.005610038526356 -0.068099617958069 -0.066123962402344 -0.029525535181165 -0.017995078116655 -0.052170131355524 -0.034589704126120 0.021361138671637 -0.014368110336363 -0.000798419467174 0.087119184434414 -0.050808981060982 -0.023558381944895 -0.133580654859543 -0.023571413010359 -0.058456256985664 -0.024620451033115 -0.042955487966537 0.011708530597389 -0.010938870720565 -0.042571410536766 0.010949804447591 -0.053548142313957 -0.041831180453300 -0.045715630054474 0.023719437420368 0.008254852145910 -0.014675401151180 0.008195272646844 -0.037976399064064 0.061322256922722 -0.031143158674240 -0.050051793456078 -0.026581266894937 -0.019459864124656 -0.026148380711675 -0.146076694130898 -0.020813258364797 -0.075699076056480 -0.021005187183619 -0.059280779212713 0.013093786314130 -0.040018059313297 0.033339213579893 0.135205656290054 -0.020430345088243 -0.053652826696634 0.058073986321688 -0.038763619959354 -0.017977755516768 -0.019882034510374 0.041630506515503 -0.068834386765957 -0.031352192163467 -0.031232347711921 -0.021416917443275 -0.023491190746427 -0.027239432558417 -0.067752882838249 -0.011878224089742
-0.037052173167467 0.020579695701599 0.017039177939296 -0.013494128361344 -0.020517090335488 0.019503936171532 -0.001698045060039 -0.076329119503498 -0.015891069546342 0.014538030140102 -0.023277284577489 -0.008830725215375 -0.033452380448580 0.058544814586639 0.006370190065354 -0.000947608903516 -0.012077684514225 -0.018869601190090 -0.030659822747111 -0.002057085279375 0.082459606230259 0.000007468374861 -0.012911386787891 -0.001035980647430 0.015991454944015 -0.034005712717772 0.032284393906593 -0.012422429397702 -0.047355718910694 0.003454115241766 -0.029421100392938 0.012203213758767 -0.013068357482553 0.016868039965630 -0.031350925564766 0.031905580312014 -0.031558014452457 0.024210952222347 -0.032548896968365 -0.000908115762286 -0.122877858579159 -0.021421490237117 -0.045697323977947 -0.021150253713131 0.047700121998787 -0.005791699048132 -0.023147083818913 -0.018420726060867 0.060558274388313 0.127409249544144 0.068703480064869 0.008599263615906 0.015590752474964 0.007384063676000 0.012021706439555 -0.009232403710485 -0.031886912882328 0.059956826269627 -0.029308188706636 -0.024779144674540 -0.010054294019938 -0.036153130233288 0.009643707424402 0.005944738630205
-0.015013823285699 0.004616419319063 -0.045769635587931 0.018308803439140 -0.001378815504722 -0.084080033004284 -0.026688758283854 -0.016583140939474 -0.023018935695291 0.002436856273562 0.005415880586952 -0.004109593108296 -0.016577621921897 -0.007635773625225 -0.052466515451670 -0.011734316125512 -0.004230431281030 -0.056936882436275 -0.023017620667815 -0.045467805117369 -0.008514530025423 -0.007272228598595 -0.017343226820230 0.024583607912064 0.002074043266475 -0.036519207060337 0.011752625927329 0.011073806323111 0.006855983287096 -0.059310697019100 -0.018018804490566 -0.035611540079117 -0.011774026788771 -0.014522789977491 -0.015417767688632 -0.053534384816885 -0.002704186132178 -0.010205999948084 -0.013451977632940 -0.024176515638828 -0.067153714597225 -0.008710528723896 -0.004527833312750 0.018955264240503 -0.018122963607311 0.030597504228354 0.034819059073925 -0.029254097491503 0.021257182583213 -0.016241246834397 0.029554439708591 -0.047543365508318 -0.005968941841274 0.002466068370268 0.000370231544366 -0.022942753508687 0.013833688572049 0.005867521278560 0.001520080142654 -0.026980232447386 -0.006717705167830 -0.024029983207583 -0.016371987760067 -0.023307638242841
-0.026126323267817 -0.041462093591690 -0.012687297537923 -0.006639536470175 0.001692927442491 0.064597882330418 -0.047578781843185 0.027807964012027 -0.015966959297657 -0.023437369614840 -0.010893619619310 0.035033058375120 0.005372332409024 -0.105290733277798 0.153050020337105 0.004402551334351 0.008326681330800 -0.001891195424832 -0.030034994706511 -0.016809668391943 -0.077158287167549 -0.027824446558952 -0.009062356315553 -0.021101629361510 -0.031215824186802 -0.036637276411057 -0.045474283397198 0.007698107976466 -0.023438276723027 0.061231855303049 -0.015541450120509 -0.051031801849604 0.008333027362823 -0.012931895442307 0.012446708045900 -0.009964483790100 -0.037542253732681 -0.062519825994968 -0.008256603032351 -0.016338499262929 -0.069110594689846 -0.013324162922800 -0.001275770831853 0.008260090835392 -0.066932253539562 -0.011326217092574 0.024336198344827 -0.013379788957536 0.066508188843727 -0.006776931695640 -0.042632967233658 0.008868156000972 -0.031699012964964 -0.005923618562520 -0.023812005296350 0.057758584618568 -0.022650945931673 0.011488279327750 -0.015002891421318 -0.008372232317924 -0.026949027553201 -0.005193734075874 0.004359307233244 0.052104882895947
0.081675417721272 -0.032718002796173 0.061538919806480 0.061526477336884 0.019766304641962 0.036391407251358 0.011102412827313 0.010797659866512 0.019684452563524 0.076261825859547 0.013161111623049 -0.064174726605415 -0.018968744203448 0.047430999577045 -0.076610572636127 -0.004882698878646 0.023152878507972 0.041757576167583 0.062968410551548 -0.007853941991925 0.004845752846450 0.039431974291801 0.057818416506052 0.006496957037598 -0.007685881108046 0.039426464587450 0.035943660885096 -0.026829987764359 -0.007550741080195 -0.018221894279122 0.054258026182652 -0.051467742770910 0.014338904060423 -0.083626404404640 -0.046396035701036 -0.010192583315074 0.070907466113567 0.061658412218094 -0.017679840326309 -0.011729215271771 0.010824204422534 0.001025557401590 0.171002626419067 0.008852588012815 -0.096964694559574 0.036065649241209 0.000086476786237 0.019636172801256 -0.016199646517634 -0.071084685623646 0.065618842840195 -0.001873294939287 0.000709091604222 0.031274281442165 0.012999877333641 -0.044700399041176 0.158173456788063 -0.017211051657796 -0.031261604279280 -0.013450727798045 0.005740492604673 0.044013962149620 0.111676752567291 0.005309514701366
-0.023814622312784 0.026360176503658 0.047104965895414 0.011827186681330 0.018000958487391 -0.049448922276497 0.007917528972030 -0.014355043880641 -0.007084800861776 0.057523377239704 -0.016078148037195 -0.035628043115139 -0.005816353950649 0.084799468517303 -0.040640939027071 0.005428323056549 0.062610797584057 -0.066257648169994 0.009089935570955 0.040380079299212 0.025562679395080 -0.032149035483599 0.008487767539918 0.015406248159707 0.047879256308079 -0.027520447969437 0.077238872647285 0.005262339953333 0.015900354832411 -0.039622284471989 0.006620845291764 0.037059143185616 -0.017946433275938 -0.005872715730220 0.000595637771767 -0.091948226094246 0.040287010371685 0.044828973710537 -0.009450467303395 0.006559002678841 -0.039436988532543 0.005973903927952 -0.039704706519842 0.014582550153136 0.029659025371075 0.012631031684577 -0.021359771490097 -0.015034685842693 0.001389851793647 -0.010536093264818 0.100603289902210 -0.006940526422113 -0.007836635224521 0.013288420625031 0.001797716133296 -0.012506654486060 0.123123288154602 0.002819454995915 -0.037834677845240 0.003209841437638 0.015036517754197 0.016040757298470 -0.029158744961023 -0.016341974958777
-0.022021807730198 -0.003887754864991 -0.028294410556555 -0.062095146626234 0.014040321111679 0.069677770137787 -0.049714539200068 -0.012122653424740 0.001642836141400 0.077144026756287 -0.032445278018713 -0.038189474493265 -0.008382181636989 0.001730060554110 0.008040120825171 0.003426951821893 0.048741061240435 0.009200481697917 -0.011033657006919 -0.022559747099876 0.080026932060719 0.044125813990831 0.050569236278534 0.007104976568371 -0.003003866411746 0.047389060258865 0.023608108982444 -0.000696563394740 0.026036065071821 0.065829627215862 -0.020616943016648 -0.025043146684766 0.021743373945355 -0.050390549004078 -0.003891914617270 0.010794449597597 -0.002868586452678 -0.016855979338288 -0.025211393833160 -0.023494906723499 0.074860475957394 -0.025023590773344 -0.035922419279814 -0.049159150570631 -0.030368635430932 -0.059416204690933 -0.071169756352901 0.007393041625619 0.007578595541418 -0.018814226612449 0.092425793409348 0.017275551334023 0.013482823036611 0.037976305931807 0.040112197399139 -0.063063204288483 0.014312647283077 -0.044084474444389 0.041309684514999 0.023996820673347 0.001964439405128 0.068921834230423 0.004416676703840 -0.006846316624433
0.024627078324556 0.008596770465374 0.002946481574327 0.009770921431482 0.029399085789919 0.031569462269545 -0.020829996094108 0.013711397536099 0.005170336458832 0.031478438526392 0.045984763652086 -0.024618433788419 -0.011444330215454 0.012356000021100 0.098498076200485 -0.008666150271893 -0.025155995041132 -0.049480307847261 0.010874898172915 -0.028170824050903 0.065110407769680 0.003180887084454 0.000641307153273 0.003745218506083 -0.020453177392483 -0.018155710771680 0.038282416760921 0.020465888082981 -0.008292309939861 0.011719421483576 0.043821696192026 -0.054505527019501 0.014244809746742 -0.004462104756385 0.033073525875807 -0.040135927498341 -0.019857464358211 -0.004527512472123 -0.011801392771304 0.004487555474043 -0.186668798327446 -0.014008180238307 -0.006051359232515 0.022051339969039 0.046134654432535 0.008766591548920 -0.020573120564222 0.021845178678632 0.138056173920631 -0.046929899603128 0.000492959923577 0.035563066601753 -0.003228639950976 0.004336153157055 0.010309826582670 0.053828507661819 0.005834094248712 -0.019860439002514 -0.022950781509280 0.009041603654623 0.011514767073095 -0.016812590882182 -0.036950599402189 0.024951156228781
0.039683725684881 -0.003578574163839 0.046553239226341 -0.054130874574184 0.002279465319589 0.030268581584096 0.014310127124190 -0.046337030827999 -0.010604613460600 0.039684005081654 -0.015239169821143 -0.054060738533735 -0.051493618637323 0.048194300383329 0.052456885576248 -0.000381582009140 -0.046500541269779 0.007018997799605 0.003947664052248 -0.006878625601530 0.047316022217274 -0.054108813405037 0.027400797232985 -0.008389593102038 -0.003481765976176 0.015012355521321 0.044916484504938 -0.034262314438820 -0.031696472316980 0.013317157514393 0.009662037715316 0.024603951722383 0.001379321329296 0.003076054388657 0.032068166881800 0.012663889676332 0.021143389865756 0.036904264241457 -0.029852531850338 0.007177204824984 0.016704689711332 -0.014598562382162 -0.032952044159174 -0.016617372632027 0.039795231074095 0.023916751146317 -0.029337087646127 0.022713718935847 0.049677591770887 0.052048042416573 0.048987489193678 0.046057406812906 -0.011375924572349 -0.020895674824715 0.014450674876571 0.005158701445907 0.007214554585516 0.010406231507659 0.009558097459376 0.014108974486589 -0.023880656808615 0.016463911160827 0.014025719836354 0.019124317914248
-0.009380169212818 -0.019287787377834 -0.043225150555372 -0.005717582534999 0.001148251350969 0.024267058819532 0.044663723558187 0.016353210434318 0.012728917412460 0.047759264707565 0.074996419250965 -0.116185493767262 -0.046676442027092 -0.004906137008220 -0.042698882520199 0.000786310003605 -0.000848459720146 0.040403384715319 -0.013226650655270 0.025906072929502 0.025482032448053 0.018709089607000 0.029031394049525 0.020498607307673 -0.004473842214793 0.016794351860881 0.015721259638667 -0.007738705724478 -0.018546765670180 -0.032733820378780 -0.017817204818130 -0.044220063835382 -0.009931130334735 0.047617781907320 -0.117025807499886 0.011610574088991 -0.022370573133230 0.023146120831370 0.014589388854802 0.041790291666985 -0.101767174899578 0.004319969099015 0.076731011271477 -0.001108625670895 0.006357443053275 -0.085843659937382 0.001752335228957 0.015356855466962 0.041974954307079 0.054802630096674 0.015060306526721 -0.049248494207859 0.022590244188905 0.018085824325681 0.028225187212229 -0.065459460020065 -0.082422427833080 0.030551008880138 -0.003740435931832 0.051964364945889 -0.001398909604177 0.002444094978273 0.017859544605017 0.024048687890172
0.004002887755632 -0.037982586771250 -0.080973349511623 -0.016071747988462 -0.024847717955709 0.010113343596458 0.072792261838913 0.027433022856712 -0.001968022435904 0.060916643589735 0.066428937017918 -0.037172693759203 -0.028472989797592 0.089556992053986 -0.041378565132618 -0.044582199305296 0.014906154945493 0.053802695125341 -0.003258698154241 0.029188863933086 0.014548524282873 -0.007613460998982 -0.005201700143516 -0.029255894944072 -0.005462745670229 0.015756461769342 -0.036552559584379 -0.044837277382612 -0.008667552843690 -0.033234469592571 -0.014435666613281 0.064693920314312 -0.016843171790242 0.028327204287052 -0.090729638934135 -0.097533032298088 0.007907019928098 0.011874581687152 -0.008731693029404 0.033751767128706 -0.001007281127386 -0.033323634415865 0.013100607320666 -0.063630782067776 0.025042776018381 -0.146285384893417 -0.018406366929412 0.032825980335474 0.021515060216188 -0.043157126754522 0.076551571488380 0.062482431530952 -0.013826291076839 -0.012759417295456 -0.000054207353969 -0.061093732714653 -0.021532263606787 0.042544744908810 0.110070049762726 0.057866919785738 -0.047593429684639 0.008146860636771 -0.061491288244724 -0.056845899671316
0.001552799833007 -0.041668672114611 -0.089111246168613 -0.092240244150162 -0.008793047629297 -0.099783129990101 0.036617565900087 0.012168661691248 -0.019046356901526 -0.003649195190519 0.018647287040949 -0.030422812327743 0.003678266424686 -0.061034470796585 -0.053636919707060 -0.022441918030381 -0.073301412165165 -0.011417392641306 0.041962355375290 -0.027617646381259 -0.036459282040596 -0.057193860411644 0.014966987073421 -0.025224030017853 -0.036864928901196 -0.029516443610191 -0.011864541098475 -0.065862618386745 0.010479618795216 -0.064832076430321 -0.028625339269638 -0.026244731619954 -0.022035475820303 -0.008282469585538 -0.044965982437134 -0.099176727235317 -0.018502872437239 -0.090316593647003 0.015999549999833 -0.024234211072326 0.040991917252541 -0.003990142140538 0.083723321557045 -0.059278849512339 0.011233379133046 0.098314918577671 -0.031264305114746 0.007920811884105 -0.069988191127777 -0.066303849220276 -0.044244404882193 -0.095489375293255 -0.045184712857008 -0.004268599208444 -0.000960280536674 -0.007982856594026 -0.060739338397980 -0.047758180648088 0.063833527266979 0.058865658938885 -0.029852302744985 -0.004064776469022 0.031610790640116 -0.009256511926651
0.021035006269813 0.047050945460796 -0.015724275261164 0.041596565395594 0.010105644352734 -0.038960698992014 0.025113202631474 0.057593498378992 0.034020852297544 -0.031447488814592 -0.002914546290413 0.043517217040062 0.038527868688107 -0.010582053102553 0.042811591178179 0.070299960672855 0.037105996161699 -0.078254289925098 0.008225354366004 0.034615345299244 0.029798477888107 0.010729631409049 0.045580528676510 0.067493662238121 -0.004413559101522 0.056602988392115 0.009551987051964 0.039057943969965 0.060995262116194 0.040812462568283 0.024579396471381 0.060085926204920 0.000764711992815 -0.015500626526773 0.070826567709446 -0.012887918390334 -0.026361297816038 -0.054584551602602 0.044795591384172 0.021513741463423 0.054589729756117 0.024825658649206 -0.011029205285013 0.032747667282820 0.027877878397703 0.007940756157041 0.067939162254333 0.050622448325157 -0.032316952943802 0.000627843546681 -0.005261760670692 0.037632152438164 0.038016565144062 0.044290859252214 0.028900170698762 0.050363879650831 -0.021118814125657 0.014539713971317 0.045867867767811 0.013442393392324 0.074969433248043 0.006475623697042 -0.008831878192723 0.058505315333605
-0.035508610308170 -0.014152067713439 -0.046843916177750 -0.007169168908149 -0.019725700840354 -0.030286140739918 -0.011249542236328 -0.034850183874369 -0.028509760275483 0.000963640515693 0.003732924349606 0.053958505392075 -0.016356255859137 -0.025953650474548 -0.062133643776178 -0.005621545016766 0.033776409924030 0.012865301221609 -0.025163702666759 -0.040710601955652 0.000871016236488 0.041355147957802 -0.030786028131843 -0.009504912421107 -0.004113186150789 -0.062536016106606 0.006034050136805 -0.009507125243545 -0.008575016632676 -0.079917028546333 -0.037601526826620 -0.025018552318215 -0.020159941166639 -0.053647827357054 -0.066988773643970 0.020468391478062 0.020859325304627 0.019594129174948 -0.033652763813734 -0.017292272299528 -0.071941889822483 -0.021064264699817 -0.002139108721167 -0.001417471095920 -0.011937819421291 0.007652635686100 0.032492216676474 -0.034332811832428 -0.014907260425389 0.034203153103590 0.002569534815848 -0.030296506360173 -0.031713541597128 -0.011462219059467 0.004622421693057 -0.004579011350870 0.000456510286313 -0.049874357879162 -0.023044129833579 -0.006084240507334 -0.036225534975529 -0.023164641112089 0.047120291739702 -0.055553875863552
-0.024228936061263 -0.011179267428815 0.029331449419260 0.007572420872748 -0.008012998849154 0.047854945063591 -0.005897016730160 -0.035301782190800 0.023424703627825 0.011323985643685 -0.013907282613218 0.037030644714832 -0.022981008514762 -0.024092651903629 0.062626235187054 -0.033546030521393 0.021996866911650 -0.111888304352760 0.024671493098140 -0.015447584912181 0.066469721496105 -0.022124893963337 -0.019496362656355 -0.019446879625320 -0.033719137310982 0.000775620050263 0.050218544900417 -0.000990630127490 -0.038153991103172 0.058490872383118 -0.028780426830053 -0.077637620270252 0.007337329443544 -0.010473603382707 0.069650053977966 0.087586566805840 -0.028389481827617 0.036622475832701 -0.055081415921450 -0.024266537278891 0.054387181997299 -0.021506898105145 -0.012265427969396 -0.040598269551992 0.038225196301937 0.018253918737173 -0.032013576477766 -0.045774832367897 0.048100184649229 -0.013006042689085 0.031390011310577 0.032762967050076 -0.038434367626905 -0.044690512120724 -0.013863908126950 0.055170740932226 0.004711050074548 -0.000893172516953 0.003002489916980 -0.029982021078467 -0.016731001436710 0.031229615211487 -0.004573224112391 0.032497670501471
0.031069248914719 0.012878843583167 -0.015449305064976 -0.010917637497187 0.048070415854454 0.029794786125422 0.037510149180889 0.003110310528427 -0.012925274670124 0.059067342430353 -0.017760971561074 -0.084265880286694 -0.016042668372393 0.070263341069221 0.046480350196362 0.024390300735831 -0.020786466076970 0.017183199524879 0.017656145617366 0.009756231680512 0.048860982060432 -0.000981221557595 0.042118635028601 0.019484424963593 0.018004827201366 0.009654452092946 0.011994701810181 -0.007439594250172 0.010194828733802 -0.008892487734556 0.032217916101217 0.004258277826011 0.018524406477809 -0.025305191054940 -0.066414453089237 0.016803614795208 -0.012043904513121 0.057729721069336 -0.009676844812930 0.001152604119852 -0.109280675649643 0.015504858456552 -0.037301566451788 0.005446782335639 0.010449727997184 -0.050046693533659 0.006099179387093 0.009119278751314 0.066950403153896 -0.031160490587354 0.050022192299366 0.045984134078026 0.022837487980723 0.012414378114045 0.018443800508976 -0.005902451928705 0.013029869645834 0.048029784113169 0.038831796497107 0.011863227933645 0.036274857819080 0.017255565151572 -0.022474557161331 -0.007891374640167
0.013617305085063 -0.012834019958973 0.082312352955341 -0.061910934746265 0.008578571490943 0.080940842628479 0.003782389918342 -0.013168971985579 -0.005841759033501 0.034395661205053 -0.007230547256768 0.020405700430274 -0.018604701384902 0.058272197842598 0.041853561997414 -0.027124354615808 0.023776002228260 -0.022965386509895 0.004298051819205 -0.012364733964205 0.042683273553848 0.021262442693114 0.034660797566175 0.019742650911212 -0.046502139419317 -0.019063074141741 0.070892885327339 -0.023134799674153 -0.020851580426097 0.057463712990284 -0.035166393965483 -0.005348205566406 -0.034226000308990 -0.054955758154392 0.038379166275263 0.032317917793989 0.048657543957233 -0.033418577164412 -0.004918726626784 0.018286461010575 -0.153847649693489 -0.003420959459618 -0.022426215931773 0.003364770906046 0.016215123236179 -0.034635089337826 -0.003626859514043 0.011640241369605 -0.001672946498729 0.073211073875427 0.052390504628420 0.027888569980860 0.000445100566139 0.015233541838825 -0.000644395709969 -0.008214221335948 0.089981697499752 -0.026232507079840 0.019723113626242 0.003811051603407 -0.008450898341835 0.054888729006052 -0.039595231413841 0.028387069702148
-0.002992765046656 0.008689372800291 0.115069165825844 -0.052624858915806 0.024010714143515 0.114066027104855 -0.038712788373232 -0.061541773378849 0.017571374773979 -0.027308814227581 -0.036171272397041 -0.050431549549103 -0.029151160269976 0.034403845667839 0.048732023686171 -0.011425676755607 -0.012479997240007 0.032153382897377 -0.029415680095553 0.031811743974686 0.031630117446184 -0.004510187078267 -0.038005486130714 0.020736180245876 -0.017793579027057 -0.043271277099848 0.053693778812885 -0.015906365588307 -0.050964705646038 0.055542334914207 -0.030759004876018 -0.020645104348660 -0.023363519459963 -0.049750935286283 0.043383307754993 0.068374656140804 0.053916700184345 -0.021751113235950 -0.027114031836390 -0.012800779193640 -0.092544734477997 -0.036371678113937 -0.058497391641140 -0.019053932279348 0.037995949387550 -0.015336675569415 -0.023277971893549 -0.035122826695442 -0.048802062869072 0.008949859067798 0.043756246566772 -0.025662280619144 -0.018841039389372 -0.016873575747013 0.012934625148773 0.005040016025305 0.040612373501062 -0.025358112528920 -0.087144210934639 -0.027534697204828 -0.003827446838841 0.011367398314178 0.000111737062980 0.005020034499466
0.013330623507500 0.003637775545940 -0.026871258392930 0.002411373658106 0.007795980200171 -0.001811716356315 0.002028493210673 -0.015709504485130 -0.008722687140107 -0.010740516707301 -0.004027441143990 -0.063216082751751 -0.002288049086928 -0.033392112702131 -0.017200365662575 -0.020351272076368 -0.039924662560225 0.020559864118695 0.037535056471825 -0.015929995104671 -0.024897592142224 -0.001904532080516 -0.017053851857781 0.005492201074958 -0.005079376511276 -0.030657488852739 -0.010588437318802 -0.039741788059473 0.003046473255381 -0.034197617322206 0.002901704981923 -0.010553552769125 0.008102680556476 -0.054432220757008 -0.047522012144327 0.010256311856210 0.032468102872372 -0.032757896929979 -0.005450963508338 -0.022789357230067 -0.034525290131569 -0.023023784160614 0.101859316229820 -0.012945162132382 -0.015785953029990 0.076685316860676 -0.032885394990444 -0.016907654702663 -0.032382573932409 -0.001026978017762 -0.002781049348414 -0.048153676092625 -0.010858645662665 0.009553370997310 -0.004599228035659 -0.012415288947523 -0.016008207574487 -0.010274040512741 -0.021960303187370 -0.019758511334658 -0.022808616980910 -0.009352699853480 0.065585561096668 -0.027798278257251
-0.023749880492687 0.008632921613753 0.082746870815754 0.004963083192706 -0.006807042751461 0.033255886286497 -0.013729257509112 -0.002633333904669 0.009120916016400 -0.027642756700516 -0.016332151368260 0.032146245241165 -0.028591528534889 0.018664205446839 0.030087012797594 -0.030906904488802 0.016600653529167 -0.004906768444926 -0.009103341959417 -0.020481161773205 0.038551349192858 -0.016667325049639 -0.022053735330701 -0.001828062115237 -0.011914127506316 -0.028379116207361 -0.017741803079844 0.002061075298116 -0.040957696735859 0.011956427246332 0.000247008836595 0.003767187939957 0.008307872340083 -0.076951108872890 0.082725621759892 0.042465612292290 0.029636932536960 0.012095548212528 -0.018090069293976 -0.004387074150145 -0.008846175856888 0.002232580445707 -0.037049982696772 0.005984000861645 0.030208572745323 0.087406463921070 -0.044915918260813 0.003061076160520 0.064644150435925 0.029442837461829 -0.005693371873349 -0.035492710769176 -0.030090689659119 -0.022342193871737 -0.001146648544818 0.022012447938323 0.034897644072771 -0.041665639728308 0.020729847252369 -0.021031260490417 -0.014808575622737 0.012479159981012 0.055098224431276 0.010892959311604
0.026117866858840 0.011040865443647 0.050489418208599 -0.069620564579964 0.015332741662860 0.088826477527618 0.009622369892895 -0.026552183553576 -0.025599597021937 -0.024911729618907 -0.002588229952380 -0.065898932516575 -0.035647977143526 -0.009958082810044 0.024331057444215 0.008903776295483 -0.064159572124481 0.068316213786602 0.035323046147823 -0.039332244545221 0.002479500370100 -0.009071330539882 0.010209927335382 -0.003740660380572 -0.035187594592571 0.000621940300334 0.018064597621560 -0.020039113238454 -0.020653354004025 0.065093405544758 0.063591323792934 -0.038630262017250 0.014485485851765 -0.022574661299586 0.044565249234438 0.011041322723031 0.042052593082190 0.000252658966929 -0.006286510266364 0.005945714190602 0.015901582315564 0.004615622572601 -0.086555927991867 -0.023316429927945 0.015431648120284 0.041590377688408 -0.022720316424966 0.030327273532748 0.067470908164978 0.011506932787597 0.034177716821432 -0.022835876792669 -0.006155337207019 0.012393927201629 0.014441851526499 0.031644146889448 -0.023179590702057 -0.017807988449931 -0.010367958806455 -0.009730543941259 0.013601793907583 -0.009639435447752 0.050358783453703 0.039577268064022
0.033935740590096 0.025656895712018 0.032794360071421 -0.007067737635225 0.003850830486044 0.001673567458056 -0.002087625209242 0.055115483701229 0.009575531817973 -0.006483121775091 -0.030209913849831 0.106134459376335 -0.001715937396511 0.021326450631022 0.039244633167982 0.011013196781278 0.039533376693726 -0.029133848845959 -0.005004547536373 -0.001108310068958 0.009171929210424 0.043420355767012 0.052052550017834 0.013436453416944 -0.003810831345618 0.068434782326221 0.009947114624083 -0.005665981210768 0.030568625777960 0.056558914482594 0.012846150435507 -0.007525309454650 0.035211477428675 -0.042400885373354 0.069414213299751 0.028993455693126 -0.032412033528090 -0.024886338040233 0.048148673027754 -0.004078287165612 0.041834790259600 0.007120048627257 0.014460761100054 0.020768562331796 0.001489579677582 0.006365212611854 0.017438530921936 0.040063709020615 -0.015020125545561 0.049500741064548 0.002681331476197 0.025981569662690 0.022540403530002 0.032324872910976 0.034363090991974 -0.006036257836968 0.045489665120840 -0.047417894005775 0.015473800711334 0.012948198243976 0.043627027422190 -0.033969949930906 -0.012312506325543 0.015963511541486
-0.022160420194268 0.011308221146464 -0.061072707176208 0.046428047120571 -0.008636260405183 -0.020010640844703 -0.003136658808216 -0.020094830542803 -0.015897523611784 -0.042651683092117 -0.000642421015073 0.025611998513341 -0.048993881791830 -0.023317500948906 -0.039654657244682 -0.013958957046270 0.012075709179044 0.017176717519760 0.042789664119482 -0.023197906091809 -0.029525304213166 0.022996459156275 -0.005706872325391 -0.016238680109382 0.003386624855921 -0.049202315509319 0.009438845328987 0.002700806595385 -0.014356901869178 -0.052230056375265 -0.004093166906387 -0.012377343140543 -0.015640685334802 -0.034506510943174 -0.058222509920597 0.010782765224576 0.030991386622190 -0.001949178287759 -0.007872536778450 -0.016364948824048 -0.091004796326160 -0.003222720464692 -0.017132973298430 0.013347471132874 -0.029257221147418 -0.001080490299501 0.041991267353296 -0.020974460989237 -0.014865285716951 0.049464490264654 -0.017054101452231 0.004568163771182 -0.031086483970284 0.004225879907608 -0.012520404532552 0.032040283083916 0.007527987007052 -0.014859621413052 -0.031494993716478 -0.021808223798871 -0.030991466715932 0.013002965599298 0.018112774938345 -0.012539439834654
-0.021804166957736 0.015239703468978 -0.016758887097239 0.004379427060485 0.040960121899843 -0.043761141598225 0.024994734674692 -0.040665898472071 0.019100040197372 0.033719930797815 -0.036787196993828 -0.073500514030457 -0.034171592444181 0.022254947572947 0.020341189578176 0.001631803694181 0.079661510884762 -0.024278841912746 -0.017798509448767 0.019477246329188 0.058650013059378 0.066525518894196 0.009726465679705 0.025500513613224 -0.006501426454633 -0.045013315975666 0.042920384556055 0.044993676245213 -0.030480898916721 -0.019939858466387 0.029151087626815 -0.049520540982485 0.026911832392216 0.002956920303404 -0.090465553104877 -0.002639420330524 0.038503833115101 0.035862747579813 -0.003025314072147 0.026907298713923 -0.213132128119469 -0.001441687811166 0.084085136651993 -0.002264054259285 0.082080595195293 0.030899807810783 -0.082899294793606 -0.031764779239893 -0.020751008763909 0.147754117846489 0.075722247362137 -0.029055109247565 0.016012420877814 0.019984334707260 0.031056370586157 -0.037325318902731 -0.116234488785267 0.098983272910118 -0.059322550892830 -0.018309272825718 0.018568595871329 0.051921512931585 0.082051396369934 0.011267760768533
0.064088612794876 -0.001463001593947 0.042643684893847 -0.013984839431942 0.048147916793823 -0.005104014649987 0.004855376202613 0.059777792543173 0.024861667305231 0.048614848405123 0.017877234145999 -0.022467698901892 -0.001311047468334 0.055152870714664 -0.030169593170285 0.027098009362817 0.007003775332123 -0.055451799184084 0.048736728727818 0.020821131765842 0.035479046404362 0.025823755189776 0.056023884564638 0.035746425390244 -0.012120478786528 0.036861378699541 0.061029728502035 -0.027217205613852 0.013815255835652 -0.013236165046692 0.056821972131729 -0.041179634630680 0.029276670888066 -0.043917734175920 0.038745120167732 -0.021028317511082 -0.003463311819360 0.046690817922354 0.038383573293686 0.035737536847591 0.073335222899914 0.016953332349658 -0.015748346224427 0.030148532241583 -0.016964631155133 -0.005283748731017 -0.019972899928689 0.004416207317263 -0.003769411938265 -0.052933022379875 0.055540248751640 -0.021792186424136 0.026087366044521 0.034793764352798 0.031677719205618 -0.030829777941108 0.131207093596458 -0.010738841257989 -0.010222795419395 0.014943015761673 0.028126686811447 0.043881762772799 -0.018549304455519 -0.000014555246707
0.054593093693256 0.008847990073264 0.095824427902699 0.001313982647844 0.029368543997407 0.016860052943230 0.052546720951796 0.026592446491122 0.012141774408519 0.094245456159115 0.042336024343967 0.016466706991196 0.014300712384284 0.053929585963488 -0.020090602338314 -0.022759482264519 0.014860704541206 -0.027350258082151 0.029269304126501 -0.009565121494234 0.054905578494072 0.016891235485673 0.049079325050116 0.013980755582452 -0.016376323997974 0.002807757351547 0.095031499862671 -0.028685336932540 0.021049648523331 0.001806730753742 0.004648439586163 -0.029092548415065 0.020751716569066 -0.023662822321057 -0.012675215490162 -0.034074585884809 0.042393118143082 0.031432852149010 -0.006937982980162 0.009284735657275 -0.061275433748960 0.002339312806726 -0.000874849210959 0.000031375417166 0.030628949403763 -0.012654287740588 -0.008238167501986 0.026192845776677 0.069759063422680 -0.030063958838582 0.077790893614292 0.005940553732216 0.011141815222800 0.004276213701814 0.028319222852588 -0.001046098885126 0.164702728390694 -0.010147921741009 0.006873043254018 0.019892910495400 0.013103406876326 0.057696487754583 0.019046541303396 0.015501587651670
-0.020154183730483 -0.012853255495429 -0.069340296089649 0.033080510795116 -0.010062565095723 -0.049749277532101 -0.005454408936203 0.005255462601781 -0.021289229393005 -0.007520922925323 0.021837433800101 0.006639243569225 -0.017051970586181 -0.003639717819169 -0.023618826642632 -0.001685035647824 0.034648559987545 -0.013037649914622 -0.000300233252347 0.000779397727456 0.003753718454391 -0.002745560370386 -0.009977057576180 -0.001287106424570 0.019920928403735 -0.040571879595518 0.011261424049735 -0.034304391592741 -0.002018004888669 -0.055453002452850 -0.003669066820294 0.025492263957858 -0.023535212501884 0.019846322014928 -0.053992129862309 0.015981355682015 -0.013604770414531 -0.009542922489345 -0.007926639169455 0.002361952327192 -0.076543264091015 -0.007471899501979 -0.027733594179153 -0.004622204229236 0.002909488277510 -0.030402831733227 0.018969381228089 -0.013850534334779 0.058854367583990 0.018367636948824 -0.009427892975509 -0.039736997336149 -0.033900313079357 -0.008415988646448 0.001698617357761 0.008969256654382 -0.022550046443939 -0.028804656118155 0.012020279653370 0.012884366326034 -0.024808252230287 0.002313491888344 0.010863908566535 -0.001176146441139
0.003345529315993 0.004038318991661 -0.023814778774977 0.002761636627838 0.005040892865509 0.004105549305677 0.044739447534084 0.000079068886407 -0.006501714233309 0.012426842004061 0.004249990452081 -0.037715628743172 -0.023819210007787 0.001941578462720 0.062621250748634 -0.021337924525142 -0.061084084212780 0.027883401140571 0.004547960124910 -0.011728796176612 0.027705486863852 -0.025552416220307 0.012653959915042 0.002097060205415 -0.014697530306876 -0.002287162933499 -0.006864850409329 0.010507991537452 -0.009002069942653 0.011231753975153 0.023534402251244 -0.005908619146794 0.000268217088887 -0.001902370247990 0.016651023179293 -0.007071800529957 0.009928642772138 0.007958467118442 -0.017921749502420 0.008847807534039 -0.070176661014557 -0.013555336743593 0.022689033299685 -0.008211867883801 0.016772951930761 0.055199671536684 0.011445942334831 0.018597232177854 0.028201622888446 -0.000551317178179 -0.020070962607861 0.031089717522264 -0.016249338164926 0.001828846056014 -0.009632909670472 0.008885557763278 -0.028185516595840 -0.022715646773577 -0.014467807486653 0.039731852710247 0.022877555340528 -0.021245315670967 -0.008146792650223 -0.001987429568544
0.001950659789145 0.010186088271439 0.024766810238361 0.058775801211596 0.007100432645530 -0.040738377720118 -0.000789233308751 0.029032679274678 -0.012611446902156 0.030623834580183 0.019518403336406 0.062092047184706 0.012445966713130 -0.002621274674311 0.024669038131833 0.000123752324726 0.051906932145357 -0.089471675455570 -0.006242434028536 -0.037224110215902 0.015135494060814 0.072914354503155 0.004499840084463 0.026994708925486 0.018559126183391 -0.007360497023910 0.014962746761739 0.020123125985265 0.007076071109623 -0.036913942545652 -0.027437079697847 0.005385324358940 0.032296791672707 0.013972372747958 0.008442874997854 -0.006069902796298 -0.069179713726044 0.036712899804115 0.021399114280939 0.005302497651428 0.090337574481964 -0.003977702930570 -0.055262222886086 0.004793355241418 0.016560772433877 -0.023212183266878 0.069350153207779 -0.021935431286693 0.059506982564926 0.068713195621967 0.045664627104998 -0.031040990725160 -0.016487287357450 0.018673053011298 0.013920310884714 0.047613993287086 0.098996035754681 -0.028492817655206 0.015413579531014 0.012465559877455 -0.011782558634877 0.004211370367557 -0.072547778487206 -0.013051285408437
0.075555041432381 0.002964893123135 0.080101072788239 0.024460777640343 0.005894023925066 -0.046980593353510 0.034872885793447 -0.006915218196809 0.053339134901762 0.047832187265158 0.013497573323548 -0.032410163432360 -0.018633820116520 0.093140862882137 -0.098629295825958 -0.036136217415333 -0.006730693858117 -0.051245860755444 0.039433393627405 0.002860443666577 -0.000394240400055 0.008582571521401 0.027556456625462 0.001216951175593 -0.002534796949476 0.004512782208622 0.050222989171743 -0.020414168015122 0.015339844860137 -0.058978237211704 0.034010756760836 0.022596418857574 0.001437954604626 -0.071081258356571 0.016060650348663 -0.038509950041771 0.059900313615799 0.073789462447166 -0.009526776149869 0.019556544721127 0.085478045046329 0.035540401935577 -0.013489884324372 0.005054179579020 -0.053483568131924 -0.012953691184521 0.005702660419047 0.020614033564925 -0.010042393580079 -0.050307709723711 0.094617858529091 -0.020075133070350 0.008546880446374 0.016001306474209 0.011418566107750 -0.052381426095963 0.148001298308372 0.007603085599840 -0.013774593360722 0.016692789271474 0.007024070713669 0.049439281225204 -0.000702792254742 0.008460572920740
0.009659484028816 -0.009538439102471 -0.028463538736105 0.032538942992687 -0.007154582533985 -0.028935726732016 0.032825302332640 0.051772400736809 -0.020688675343990 -0.012189463712275 0.050469592213631 -0.086310334503651 0.070845007896423 0.035095039755106 -0.027288760989904 0.017285615205765 0.085260502994061 0.018248438835144 -0.010474313050508 0.019830750301480 -0.001813055248931 -0.011175054125488 -0.031932093203068 0.023396542295814 0.008954516611993 -0.031219866126776 0.002435086295009 0.022610785439610 0.002649622270837 -0.061830479651690 0.007988624274731 0.038868773728609 0.001783433835953 0.043512772768736 -0.065779767930508 0.000485729658976 0.040585987269878 0.032493539154530 0.039884280413389 -0.002700459677726 -0.049090947955847 0.014396308921278 0.104360133409500 0.015708947554231 0.035157386213541 -0.031483687460423 -0.010469063185155 -0.003244239604101 0.031087087467313 -0.131796330213547 0.048779189586639 -0.057983323931694 -0.006498064845800 0.014582398347557 0.025413388386369 0.022113503888249 -0.016892177984118 -0.024733955040574 0.022594444453716 0.018977487459779 -0.003269655629992 -0.051009140908718 0.072751700878143 -0.004965214058757
0.001026157289743 0.039683800190687 -0.146842569112778 0.016041936352849 -0.008193719200790 -0.074604496359825 -0.000515516556334 0.034803837537766 -0.011221256107092 0.004617296159267 -0.005993186961859 0.077609330415726 0.015545899048448 0.027129856869578 -0.073082938790321 -0.032395269721746 0.009571909904480 0.017952075228095 0.001840697950684 -0.056393355131149 -0.007324889302254 0.034729056060314 0.014309556223452 -0.014105798676610 0.019604839384556 -0.031709987670183 0.003997195977718 0.001628466998227 -0.021334217861295 -0.107936680316925 0.009484046138823 0.000350076996256 0.019800294190645 -0.059079386293888 -0.111805073916912 -0.048126239329576 0.032027978450060 -0.011176701635122 -0.010671881027520 -0.030629267916083 -0.133433386683464 0.025150833651423 0.047326803207397 0.015251116827130 -0.006336983758956 0.089840255677700 0.046876322478056 -0.005570167675614 0.071618281304836 0.103623501956463 0.029895763844252 -0.029940811917186 -0.020259071141481 -0.015931250527501 -0.015095577575266 0.028775550425053 -0.062167376279831 0.009520052932203 -0.014243843033910 0.009544025175273 -0.031638070940971 -0.039948079735041 0.037256095558405 -0.038570597767830
0.048240296542645 -0.003090923186392 0.057663813233376 -0.050413981080055 0.021709091961384 0.090523302555084 -0.024232177063823 -0.031222933903337 0.006256013177335 0.002890577306971 -0.039623916149139 0.013162978924811 -0.019558968022466 0.057767786085606 0.114250123500824 0.005470490083098 -0.004035449121147 -0.073726110160351 0.015615792945027 0.018545001745224 0.006248765159398 -0.039234019815922 -0.002779678208753 0.014755853451788 -0.021822821348906 0.090890415012836 0.048934217542410 0.013862918131053 -0.017194116488099 0.075536355376244 -0.014448169618845 0.006704799365252 0.028793647885323 0.043562032282352 0.088912166655064 0.009943338111043 -0.096279837191105 -0.025552600622177 -0.012849301099777 0.016064647585154 -0.265685200691223 -0.005217869766057 -0.109819322824478 0.015292937867343 -0.035167634487152 -0.065371491014957 -0.030596546828747 -0.003850936656818 0.112295396625996 0.020822064951062 0.073396325111389 0.034946575760841 -0.010851812548935 0.022271404042840 0.020265357568860 0.033940088003874 0.075173072516918 0.009008465334773 -0.062981091439724 -0.023928314447403 0.000392885878682 0.023771435022354 -0.125264719128609 0.033843860030174
0.069449596107006 -0.004342359956354 0.013652372173965 -0.026290373876691 0.002348775742576 0.010283417068422 0.019905917346478 -0.007192910648882 0.034340057522058 0.038345161825418 0.031409148126841 -0.100118264555931 -0.036737803369761 0.026370197534561 0.090599216520786 -0.000748159480281 -0.092423729598522 0.014974328689277 -0.002546639181674 -0.017199154943228 0.015710856765509 -0.039733435958624 0.070841990411282 -0.008751657791436 -0.057489249855280 0.107711181044579 0.027394680306315 -0.013006825931370 0.020126596093178 0.056779429316521 0.029836634173989 -0.015446142293513 0.077816262841225 -0.004395931493491 0.051953364163637 -0.009000436402857 -0.025645760819316 0.006539297290146 -0.024471994489431 -0.014146232046187 -0.025921737775207 -0.026019264012575 -0.073921754956245 -0.025881251320243 -0.032335031777620 -0.013021695427597 -0.012044643983245 0.044019356369972 0.026187103241682 -0.108701705932617 0.054338645190001 0.095934182405472 -0.004318108782172 -0.001178790349513 0.007597030606121 -0.005988293327391 0.017137115821242 -0.026261033490300 0.047130033373833 0.048868212848902 -0.011516060680151 0.033532816916704 -0.052652068436146 0.016970727592707
0.015368034131825 0.023614900186658 0.045132204890251 -0.040809132158756 0.002164985518903 0.021322822198272 0.000159900708240 -0.076866902410984 0.019036876037717 0.004275748971850 -0.022976281121373 -0.137380376458168 -0.034634344279766 0.023284330964088 0.038684550672770 -0.006988335400820 -0.021574845537543 0.007148801349103 -0.004964311607182 0.037416070699692 0.061431765556335 -0.047783851623535 -0.008082824759185 0.022578446194530 0.003992877434939 -0.009743308648467 0.032575551420450 -0.003322524949908 -0.027355445548892 0.037277769297361 -0.015422696247697 -0.017731051892042 0.041648231446743 -0.045768238604069 -0.035237208008766 0.015025207772851 0.008265256881714 0.019215241074562 -0.033633872866631 -0.002005474409088 -0.190943166613579 -0.034656114876270 -0.082432806491852 0.007966921664774 0.036277581006289 -0.007194840349257 -0.066876657307148 0.001115924795158 0.045297354459763 0.190031617879868 0.054679326713085 0.017735522240400 -0.006096860859543 0.017339345067739 0.035068038851023 0.007264882791787 0.002491256687790 0.050467263907194 -0.047025918960571 -0.016224777325988 0.012974552810192 -0.010569653473794 0.032245520502329 0.007947813719511
-0.009074345231056 -0.005475320387632 0.042549591511488 -0.035444203764200 0.042936217039824 0.036805711686611 0.024333285167813 -0.014303246513009 0.006658284924924 0.043660189956427 0.001628555823117 -0.079338915646076 -0.020541938021779 0.035843502730131 0.052919041365385 0.029318042099476 -0.069174237549305 -0.000527442607563 -0.003464467823505 -0.005706246010959 0.080072991549969 -0.086892575025558 0.033050730824471 -0.012344890274107 -0.020049575716257 0.057360183447599 0.041396621614695 -0.023194612935185 -0.016950132325292 -0.002424423117191 0.021024484187365 -0.025333577767015 -0.021117968484759 -0.038884475827217 0.027222931385040 0.011644264683127 0.007726113777608 0.044805046170950 -0.009798126295209 0.001553207403049 -0.063957877457142 -0.008178378455341 0.001172494376078 -0.013779739849269 0.102648392319679 0.022258438169956 -0.025071762502193 0.016882635653019 0.048477336764336 -0.012099924497306 0.074881598353386 0.026991980150342 0.011544586159289 0.004692872054875 0.024934222921729 0.014887850731611 -0.032798275351524 0.014185668900609 0.033075872808695 0.012051597237587 -0.010341846384108 0.035241343080997 0.014521930366755 0.004068455193192
-0.028094835579395 -0.025522664189339 -0.004823972005397 -0.045532956719398 0.005918296054006 0.005642299074680 0.022363690659404 -0.020036680623889 -0.001102278823964 -0.004069793503731 0.001772589632310 0.026006668806076 0.048240855336189 0.007700130809098 0.084224231541157 -0.014941903762519 -0.012878802604973 -0.032797541469336 0.004021902102977 -0.067288644611835 -0.057792477309704 0.007954396307468 -0.008482091128826 0.010221976786852 -0.066030204296112 -0.052153643220663 -0.025008888915181 -0.040395952761173 -0.032722309231758 0.025018855929375 0.010652671568096 -0.002062811981887 0.043108906596899 0.011054371483624 -0.011665113270283 -0.026120891794562 0.014806649647653 -0.006003365851939 0.031168468296528 -0.017255742102861 0.168941333889961 0.012101447209716 -0.007512738462538 0.007048839237541 -0.040762856602669 0.041680950671434 -0.060749899595976 0.007658442016691 0.129006579518318 -0.220190107822418 0.012287669815123 0.018061971291900 -0.030494706705213 0.014437519945204 0.024676818400621 0.019582470878959 0.022975448518991 -0.146757930517197 0.033338375389576 -0.004643746651709 0.010114234872162 -0.004446066450328 -0.074893161654472 0.019054291769862
-0.088749349117279 0.107262000441551 -0.075127027928829 0.027862789109349 -0.006309384945780 0.004236092325300 -0.029610000550747 0.003153878031299 -0.094837658107281 0.008856726810336 -0.080165430903435 0.138321653008461 -0.061365511268377 -0.050545759499073 -0.020631678402424 0.003922582138330 0.112718261778355 -0.046551335602999 0.024479074403644 0.006970121059567 0.024401877075434 0.046783167868853 -0.070869512856007 -0.002202185336500 0.130592554807663 -0.075067818164825 0.037483986467123 0.043855339288712 -0.041667614132166 0.043711822479963 0.002972205169499 -0.031618222594261 -0.086636342108250 -0.035465639084578 -0.029725357890129 -0.010866932570934 0.006940320599824 -0.046072132885456 -0.021689929068089 -0.013389016501606 -0.203698411583900 -0.014928642660379 0.054141815751791 -0.017637290060520 -0.012991610914469 0.018484398722649 -0.105231605470181 -0.048660632222891 -0.115132741630077 0.144334048032761 0.004153825808316 0.057670775800943 -0.042273696511984 0.017439676448703 -0.033261295408010 -0.027092393487692 0.021380037069321 0.046223532408476 -0.133901238441467 -0.044093459844589 -0.014342574402690 -0.032805293798447 0.087011277675629 0.086056083440781
-0.016299104318023 0.020237244665623 0.008023288100958 -0.004341943189502 0.021134097129107 -0.034681983292103 -0.000409730884712 0.057732336223125 -0.019712135195732 0.059992775321007 -0.003338887356222 -0.048983752727509 0.011382198892534 -0.009464194066823 -0.040912006050348 0.032490268349648 0.041256602853537 -0.088731236755848 0.013478070497513 -0.019757082685828 0.009694803506136 -0.001284543308429 0.007473262026906 0.020701454952359 0.012487644329667 -0.039373919367790 0.035433370620012 -0.022163286805153 0.027378004044294 -0.040824942290783 0.003141476539895 -0.033646531403065 -0.042539305984974 -0.032450780272484 -0.076384827494621 -0.005606669001281 -0.066105104982853 -0.002500917296857 0.028774362057447 0.003695899387822 0.130999132990837 0.013142511248589 0.134863853454590 0.000335663731676 -0.046632744371891 -0.031329642981291 0.032388105988503 -0.013624173589051 0.069923661649227 -0.062788657844067 0.011823406443000 -0.039207689464092 0.012304484844208 0.016429308801889 0.001598153612576 0.039901968091726 0.022251216694713 -0.064801566302776 0.020366404205561 0.013497705571353 0.040184535086155 -0.002397535601631 0.009163312613964 0.012254182249308
0.017426708713174 -0.014750842936337 -0.050122868269682 0.002299955114722 0.010271201841533 0.001827338244766 -0.007467149291188 0.002975509036332 0.002637163735926 -0.009484688751400 -0.024813869968057 -0.014827634207904 0.005968145094812 -0.096385285258293 -0.019026715308428 -0.023410145193338 0.008479603566229 0.018431713804603 -0.010577571578324 -0.004293530248106 0.015377621166408 0.007053809706122 -0.008210641331971 0.028816165402532 -0.015983801335096 0.015114263631403 0.026531843468547 0.032315894961357 -0.034387804567814 -0.007898138836026 -0.024126799777150 -0.047863867133856 -0.031965505331755 -0.020277781412005 -0.045031189918518 -0.030926248058677 -0.039117556065321 -0.037705037742853 0.001369255827740 0.004131174180657 0.033596754074097 0.028052844107151 0.040315642952919 0.014764876104891 -0.024478906765580 -0.023187289014459 0.007104739546776 0.006419403478503 0.006140074227005 -0.006429346278310 -0.050949282944202 0.038283858448267 -0.022267360240221 0.022500285878778 -0.003877135692164 -0.000280675623799 -0.033802568912506 -0.034407917410135 -0.054614238440990 0.005167333874851 0.000331919407472 -0.007946518249810 0.027690583840013 0.017636716365814
-0.068455062806606 -0.011172857135534 0.037053253501654 -0.030537053942680 -0.014350695535541 -0.016376357525587 -0.020269816741347 0.005545076914132 -0.030723175033927 -0.023093027994037 -0.015086484141648 0.019804589450359 0.035254605114460 0.052775371819735 -0.030749687924981 -0.006552057340741 0.059796541929245 -0.004070123657584 -0.015258599072695 0.008521001785994 0.040877018123865 -0.006126160267740 -0.020488310605288 -0.023149948567152 -0.020575800910592 -0.072996549308300 0.032785486429930 -0.063743211328983 -0.028323896229267 -0.018053570762277 -0.012788935564458 -0.002338326070458 -0.043157566338778 0.016178112477064 -0.073357246816158 0.029282400384545 -0.003946552053094 -0.065068997442722 -0.008008024655282 -0.019194513559341 0.021652422845364 0.002879624022171 -0.045334123075008 -0.023098157718778 0.126176804304123 0.014609040692449 -0.005649521946907 -0.021503444761038 -0.011631979607046 -0.078542888164520 0.065035186707973 -0.086258873343468 -0.016630785539746 -0.016777796670794 0.010565481148660 0.011249068193138 -0.006689610425383 0.004867208190262 0.091074138879776 -0.007608991581947 -0.002458450151607 0.033383749425411 -0.059140745550394 -0.019608635455370
