0.000000101687036
-0.000000039720170
-0.000000212157460
-0.000000063683459
0.000000015083078
-0.000000008261925
0.000000041409457
0.000000080572626
-0.000000033945955
0.000000105058660
0.000000038346126
-0.000000048764630
-0.000000000443310
-0.000000044792806
0.000000115510119
0.000000009237747
0.000000190015186
0.000000090252726
0.000000030371321
0.000000052862688
-0.000000069280283
0.000000040921492
-0.000000166759165
0.000000032592066
0.000000084439357
-0.000000055917916
-0.000000100622898
0.000000011695047
0.000000072683399
-0.000000154502587
0.000000090076554
-0.000000064154527
-0.000000040520909
-0.000000041716525
-0.000000066044876
-0.000000035923087
0.000000106564769
0.000000017885229
-0.000000036685908
-0.000000004225794
-0.000000356158466
-0.000000004918970
-0.000000038100048
-0.000000033287030
-0.000000006327352
0.000000010616171
0.000000036417216
-0.000000091738471
-0.000000018906693
-0.000000092810801
0.000000066421237
-0.000000226212165
-0.000000009910838
-0.000000022167773
0.000000028552911
0.000000040190674
0.000000096171107
-0.000000136747488
0.000000265431737
-0.000000077438912
-0.000000001845357
0.000000253829796
-0.000000089512696
0.000000038489805
