-0.019259413704276 -0.019444273784757 0.008649840019643 -0.032183278352022 -0.031432706862688 0.004113761708140 -0.047287344932556 -0.003889565588906 -0.034340556710958 -0.012109085917473 -0.001209784299135 -0.058348443359137 -0.041338779032230 -0.026488203555346 -0.019398001953959 -0.023724468424916 0.005834158975631 -0.011681238189340 -0.034514516592026 0.005234128795564 -0.009627902880311 -0.028448093682528 -0.005889496766031 0.004307348281145 -0.023192251101136 -0.027637409046292 -0.023304658010602 -0.002487067831680 0.009484549053013 -0.035856768488884 -0.014579149894416 -0.001159696374089 0.025144947692752 -0.038318984210491 -0.023004097864032 -0.001465923152864 -0.061192631721497 -0.025370005518198 -0.015417170710862 -0.011234363541007 -0.033560603857040 -0.011800989508629 0.012322603724897 -0.024441799148917 -0.036504693329334 -0.026976384222507 0.001083414652385 0.018412563949823 0.001361615490168 0.007631015498191 0.050303373485804 0.002058464800939 -0.026077819988132 -0.043042492121458 -0.007730645593256 -0.015886699780822 0.004072778858244 -0.006648743525147 -0.005834245122969 -0.025249041616917 -0.061678227037191 -0.052929524332285 -0.024743979796767 -0.002064160071313 0.004503410309553 -0.013502332381904 -0.029503613710403 -0.019480464980006 0.003608903847635 -0.042678803205490 -0.033526703715324 0.001428354647942 -0.019373236224055 -0.010826786980033 0.016464229673147 -0.037095226347446 -0.032236304134130 -0.007806902751327 0.004783123265952 -0.008737280964851 0.012102731503546 -0.021144419908524 -0.008127240464091 -0.030732398852706 -0.029498675838113 -0.018752578645945 0.038849849253893 -0.022970642894506 -0.013256846927106 0.006967442575842 -0.019229294732213 0.018123801797628 -0.052680246531963 -0.032498896121979 -0.033630996942520 -0.025339068844914 -0.036704741418362 -0.051130939275026 -0.003573379712179 -0.003561398480088 -0.040269687771797 -0.026986530050635 -0.022454526275396 -0.017196794971824 -0.041100803762674 0.005929803010076 0.008110347203910 -0.039464917033911 -0.019998621195555 -0.009517584927380 -0.003186854766682 -0.026196163147688 -0.014893243089318 -0.007185432594270 -0.026754757389426 -0.037290323525667 -0.017403304576874 -0.022965183481574 -0.020360147580504 -0.019284760579467 -0.019633648917079 -0.043791167438030 0.006015245337039 -0.001715903286822 0.010850366204977 -0.009191889315844 -0.021893786266446 -0.010075873695314 0.021183116361499 0.043135941028595 0.004288948606700 -0.016199093312025 -0.008933380246162 0.014510931447148 -0.024805624037981 0.022265905514359 -0.043862406164408 -0.039950836449862 -0.026132626459002 -0.012740140780807 -0.037561528384686 -0.017042573541403 -0.005325947888196 -0.037032861262560 -0.054360065609217 0.035975914448500 -0.031634956598282 -0.026008844375610 -0.021001353859901 0.019740033894777 -0.009964841417968 -0.008131624199450 0.000810717232525 -0.042536329478025 -0.025841129943728 0.000291571952403 -0.037139065563679 -0.044649768620729 -0.019693778827786 -0.020678304135799 0.011918768286705 0.010350268334150 -0.015218299813569 -0.029299387708306 -0.003017103299499 -0.043044630438089 -0.005442880094051 -0.020222639665008 -0.005660107824951 0.004387643188238 -0.005826349835843 -0.022655876353383 -0.021594526246190 -0.049642954021692 0.017180828377604 -0.015456723049283 -0.008205397985876 -0.054281990975142 -0.012857130728662 -0.003602741053328 -0.001421307213604 -0.005134759936482 0.001240969286300 -0.059117961674929 -0.013089442625642 -0.016185734421015 -0.000697861891240 -0.011338332667947 -0.014038736000657 -0.017861614003778 -0.041966661810875 -0.042055156081915 -0.013585034757853 -0.010918803513050 -0.017628112807870 -0.032597944140434 -0.000466264609713 -0.010453508235514 0.004330329596996 -0.009142494760454 -0.003872947767377 -0.033298105001450 -0.015731729567051 -0.007210863288492 0.006168228108436 -0.009011151269078 -0.014887485653162 0.018550612032413 -0.002117817988619 -0.004039822146297 -0.004978782031685 0.001340268761851 -0.001925124088302 -0.006335828453302 -0.027025157585740 -0.032354436814785 -0.008187236264348 -0.027712155133486 -0.041290633380413 0.023237902671099 -0.020004630088806 -0.042090252041817 -0.011186354793608 -0.041653092950583 -0.011255257762969 0.032425303012133 0.011783637106419 -0.003854258218780 -0.020087087526917 -0.017469624057412 -0.015967411920428 -0.026631949469447 -0.024938330054283 -0.009111597202718 -0.017562827095389 -0.042845774441957 0.007382601965219 -0.033404812216759 -0.052009254693985 -0.022842563688755 -0.015861434862018 -0.001208279863931 -0.008150330744684 -0.030877793207765 -0.000500021560583 0.054371908307076 -0.011581887491047 0.025608118623495 -0.010396241210401 -0.005763118155301 -0.034511655569077 0.004818107001483 -0.028863340616226 -0.005687762517482 -0.018230959773064 -0.016612777486444
-0.006783554330468 -0.032020170241594 0.027093639597297 -0.005352942738682 -0.007506680674851 -0.014952466823161 -0.000586105452385 0.002971134614199 -0.018937529996037 -0.025632556527853 -0.019598333165050 0.002370152622461 0.007819937542081 -0.037624895572662 0.033632777631283 -0.027220070362091 -0.014963690191507 -0.014165495522320 0.004998390097171 -0.023158131167293 -0.016212454065681 -0.009810019284487 0.012420251034200 -0.002317514503375 0.015336635522544 0.003176960395649 0.021119862794876 -0.005305927246809 -0.006092204712331 0.022823303937912 -0.008525122888386 -0.019093392416835 -0.031445391476154 -0.008417231030762 -0.001951198559254 0.016008546575904 -0.013952666893601 -0.013219142332673 0.013913489878178 -0.009313698858023 -0.018396681174636 -0.008856623433530 0.013540791347623 -0.003386418102309 -0.032376468181610 -0.030666783452034 0.007558912970126 0.002730523701757 -0.003129823599011 -0.002421825658530 -0.001028837054037 0.020465347915888 -0.004723750986159 -0.021682895720005 -0.014766500331461 0.011932941153646 -0.012727178633213 -0.016577493399382 -0.003950071055442 -0.023573327809572 0.004882436245680 0.015176337212324 -0.010171845555305 0.001559916185215 0.006933238357306 0.032672114670277 -0.006158137694001 0.028851818293333 -0.042248763144016 -0.031684406101704 0.027227185666561 -0.017829518765211 -0.003934652078897 -0.023968115448952 -0.012464090250432 -0.039764914661646 -0.032966066151857 -0.035982389003038 0.005356180015951 -0.017837565392256 0.016616856679320 -0.030245780944824 -0.015627173706889 -0.010582525283098 -0.029242573305964 -0.010347072966397 0.019842745736241 -0.014797039330006 -0.032782144844532 0.015649119392037 0.020811978727579 -0.022254692390561 -0.030165120959282 -0.026860306039453 -0.015390189364552 0.004946717992425 -0.035131327807903 -0.018679674714804 -0.021151421591640 -0.013389767147601 0.001182659412734 -0.021876186132431 -0.011301135644317 -0.002181624295190 -0.039520129561424 0.001959031214938 0.010398892685771 -0.014403522014618 -0.004237077664584 0.037875790148973 -0.026085937395692 0.020330544561148 -0.013656492345035 0.004493443761021 0.021879103034735 -0.001192058203742 -0.017388923093677 -0.026599815115333 -0.030499104410410 0.009879520162940 0.009650757536292 0.017183182761073 -0.008999053388834 -0.016093159094453 -0.021397642791271 0.021796604618430 -0.003260331926867 -0.003490578848869 0.004728758707643 -0.012534307315946 0.023790290579200 -0.006805276963860 -0.011805786751211 -0.017260441556573 -0.020899638533592 0.004505557008088 -0.018452037125826 0.001903991331346 0.016469899564981 0.003265033708885 -0.040235470980406 0.016120100393891 0.007910429500043 -0.011432512663305 -0.040278907865286 -0.014440553262830 0.059216085821390 0.008601158857346 0.032899636775255 0.001008130027913 -0.004727447871119 -0.012310205958784 0.018230304121971 0.001676207175478 0.014431430026889 0.017373906448483 -0.014847448095679 -0.031037753447890 -0.005500806961209 0.025558834895492 -0.010251168161631 0.001824816339649 0.025602066889405 -0.030780529603362 0.015742542222142 0.013763215392828 -0.005881353281438 -0.010727914981544 0.066884689033031 -0.000035121422115 0.013380890712142 -0.000925727537833 -0.025262054055929 -0.002265088260174 0.027752261608839 -0.027569167315960 0.033417362719774 0.012195819057524 0.009559152647853 -0.015353104099631 -0.026758346706629 -0.015275987796485 -0.024503756314516 -0.005146297626197 -0.022653630003333 -0.003602682845667 -0.012204178608954 -0.032446999102831 0.000847389688715 -0.016155373305082 -0.021810805425048 0.015926884487271 0.047011744230986 0.005624433048069 -0.011239240877330 -0.018951375037432 -0.007777675054967 -0.021430585533381 0.009905847720802 -0.041058670729399 0.015361728146672 -0.010476543568075 -0.019397802650928 -0.009312278591096 0.059943776577711 0.006942576263100 -0.012689569965005 0.000662792124785 -0.024639317765832 0.024741848930717 -0.013366678729653 -0.001718430314213 -0.007077682763338 -0.028560478240252 -0.007210087496787 0.020767049863935 -0.019389756023884 -0.022547183558345 0.009074012748897 0.013447755947709 -0.015021476894617 -0.007514233700931 -0.030434438958764 -0.020810175687075 0.002195139415562 -0.007919626310468 -0.027475340291858 0.027280442416668 -0.015731981024146 0.000006823629064 0.008147515356541 0.013235259801149 -0.021286036819220 -0.000210665122722 -0.007148693315685 -0.004398887511343 0.017355479300022 0.007462225854397 -0.040034074336290 0.010716374963522 -0.000318755104672 0.002753249835223 -0.038532298058271 0.008539136499166 -0.019788075238466 -0.021202335134149 0.024047983810306 -0.017016790807247 -0.042247019708157 -0.000292973854812 0.003679724875838 -0.000680724275298 0.014397444203496 -0.017260817810893 -0.012491106055677 0.002332197967917
0.010555657558143 -0.065816827118397 0.010860815644264 0.025128791108727 -0.061389766633511 0.040666788816452 -0.049793850630522 -0.014528659172356 0.037803158164024 -0.018861727789044 -0.017403449863195 -0.002620785729960 -0.020552620291710 -0.045754276216030 -0.032908670604229 -0.009017724543810 0.017677623778582 -0.005624489393085 0.038975026458502 -0.008108204230666 0.006495908368379 -0.004528697580099 -0.015499687753618 -0.051914703100920 0.010441912338138 -0.022343395277858 0.042866695672274 0.008991462178528 0.018153341487050 -0.021872209385037 -0.012091937474906 -0.013430104590952 -0.021126220002770 0.012847347185016 0.014025384560227 -0.001949313096702 -0.009351566433907 -0.042594939470291 -0.001636656001210 -0.014589220285416 -0.039592467248440 -0.017066741362214 -0.021337000653148 0.021526485681534 0.009242253378034 -0.010452142916620 -0.005732132121921 -0.022061811760068 -0.006285715382546 -0.012132260948420 -0.007383441552520 0.058760132640600 0.005666345357895 -0.006677483674139 -0.017004977911711 0.004258164670318 -0.048200607299805 -0.071165703237057 -0.026822963729501 0.012981695123017 -0.010451230220497 -0.017264373600483 -0.024537852033973 -0.060913033783436 -0.020954685285687 -0.003923299256712 0.014613536186516 0.029256135225296 0.006820031907409 0.005328850354999 0.011187613010406 0.007276222575456 -0.038631301373243 -0.005872311536223 0.033863816410303 0.026714125648141 -0.048708330839872 -0.036798048764467 0.054781306535006 0.015628026798368 0.033909525722265 -0.035728007555008 -0.004565722774714 0.057441718876362 -0.002574489917606 0.050311863422394 -0.000831023382489 -0.031510561704636 -0.028836160898209 -0.042960472404957 -0.006754482164979 0.019966451451182 -0.030239835381508 -0.044172603636980 -0.012383338995278 -0.010848705656826 -0.027722090482712 0.028787368908525 -0.040259983390570 0.018086398020387 -0.041809521615505 -0.002982192672789 0.034143008291721 -0.033760394901037 -0.059796694666147 0.000552319572307 -0.014918373897672 -0.010874162428081 0.005418817978352 0.016056256368756 -0.034844733774662 0.026581170037389 0.002468052553013 0.022776441648602 0.039488881826401 0.022042673081160 -0.009374524466693 -0.003559952834621 -0.021885314956307 -0.009723241440952 0.046580821275711 -0.004055243916810 0.023468753322959 -0.022272322326899 -0.013450690545142 -0.007375877816230 0.002676659030840 0.009195904247463 -0.017324952408671 0.003893068758771 -0.014096980914474 -0.008081708103418 0.033311154693365 -0.016549866646528 0.005200276616961 0.020488370209932 -0.012105129659176 0.027629869058728 0.037812925875187 -0.011779407970607 -0.012161875143647 -0.033208869397640 -0.025516889989376 -0.026564087718725 -0.033001687377691 -0.013643540441990 -0.005791770759970 -0.031877372413874 -0.042127169668674 -0.015163776464760 0.031027201563120 -0.033191449940205 0.025731338188052 -0.035518515855074 -0.011206796392798 -0.046718534082174 -0.008653912693262 0.024677332490683 0.017669804394245 -0.010440469719470 -0.003326458623633 0.002062320942059 0.011405269615352 -0.013809096999466 -0.015256958082318 -0.017342440783978 -0.035999827086926 -0.008941501379013 0.073118463158607 -0.038696985691786 -0.010673453100026 -0.059660151600838 -0.018659768626094 -0.002889803610742 0.084375277161598 -0.023327413946390 0.024388311430812 -0.063710674643517 -0.003407285315916 -0.023562304675579 0.007549389265478 -0.001523736165836 -0.013864576816559 0.053273614495993 0.012720962055027 -0.006650483701378 0.007643237244338 -0.004178077448159 -0.066755190491676 -0.020148823037744 -0.029121210798621 -0.022493459284306 -0.005449910182506 -0.020876869559288 0.047863442450762 0.004693078808486 0.053019657731056 -0.013074279762805 -0.012307820841670 0.005203442182392 -0.023056814447045 -0.065044149756432 0.001190818729810 0.005929925013334 -0.022145116701722 0.003907960373908 -0.051622647792101 0.023793892934918 -0.019033996388316 0.024159304797649 0.007908067665994 -0.059318702667952 -0.022536126896739 -0.026219857856631 -0.007583427242935 -0.034246090799570 -0.039428878575563 -0.010046730749309 0.034496523439884 -0.028553908690810 0.014093430712819 -0.005530675407499 -0.025177052244544 -0.042447283864021 -0.036874148994684 -0.026031484827399 0.029030401259661 -0.043978083878756 -0.012286369688809 0.005632720422000 -0.016414955258369 -0.038826886564493 0.017492059618235 0.010900881141424 -0.026506863534451 -0.011665922589600 -0.009528208523989 0.036616001278162 -0.033937502652407 -0.010030608624220 -0.011183005757630 -0.017943108454347 0.008875699713826 -0.001714742626064 0.008494364097714 -0.017841979861259 -0.047419399023056 -0.029403910040855 0.028271319344640 -0.011959973722696 0.008996947668493 -0.026300551369786 0.001806741347536 -0.001158311497420 -0.034120980650187 -0.019112417474389
-0.035369683057070 -0.048822686076164 0.033747147768736 -0.003817371791229 -0.010505313985050 0.034606587141752 -0.012923999689519 -0.000167503632838 0.006079673767090 0.023176282644272 -0.010327929630876 -0.007102820556611 0.058353755623102 0.029769690707326 -0.002894771285355 -0.010058777406812 0.016055718064308 0.011444694362581 -0.001885317382403 -0.004578296560794 0.002642385195941 -0.020596761256456 -0.016040546819568 -0.017636980861425 -0.018754722550511 -0.050225835293531 -0.033196303993464 0.002858601277694 0.000679127464537 0.002145916689187 -0.036977451294661 -0.015750113874674 -0.033413343131542 -0.009140500798821 0.040710348635912 -0.008124955929816 0.056065980345011 0.021750209853053 0.005044903140515 -0.002898365724832 -0.026226190850139 -0.003521606791764 -0.015503215603530 -0.002266027266160 -0.004334329161793 0.043576415628195 -0.005768689326942 -0.038767430931330 -0.001630168990232 -0.024664035066962 -0.033389393240213 -0.015719087794423 -0.039962604641914 -0.016939314082265 -0.052716158330441 0.009077277034521 0.009868319146335 -0.007095928769559 -0.020657688379288 -0.001832973212004 0.001410311087966 0.021629502996802 -0.001566447434016 0.003402496920899 0.053099736571312 -0.012740708887577 -0.022570412606001 0.007969664409757 0.007007967215031 0.007550716865808 -0.002522606868297 -0.012049235403538 0.053202532231808 0.005655479617417 -0.014768554829061 -0.017428034916520 -0.041632484644651 -0.009705657139421 0.027071164920926 0.011216919869184 0.017433663830161 -0.015470621176064 0.014257658272982 0.015385567210615 0.046764783561230 0.038176041096449 0.001658928813413 -0.009687577374279 -0.006887682247907 -0.025909490883350 -0.033483188599348 -0.025772023946047 -0.023965146392584 0.005360895302147 -0.025512430816889 -0.013332513161004 0.001887990860268 -0.000148944309331 -0.050200290977955 0.009148770011961 -0.004646688699722 -0.006157846655697 -0.014350453391671 -0.049524102360010 -0.036303818225861 -0.021457083523273 0.004061222076416 0.001310148858465 0.007090754806995 -0.032425701618195 0.007838425226510 -0.007593733724207 0.003778481855989 -0.008236123248935 -0.009013953618705 0.019545815885067 -0.022861784324050 0.056484971195459 -0.064146719872952 -0.007984600029886 -0.002961958758533 -0.010619072243571 0.014527007937431 -0.041571114212275 0.011289681307971 -0.020873138681054 -0.030256936326623 -0.000969831773546 -0.038864836096764 -0.034186907112598 -0.003390072612092 0.008300222456455 0.004399678204209 0.004199889954180 0.010450204834342 -0.003484019078314 0.007246929220855 -0.007675698492676 0.015725564211607 -0.010982722975314 0.004167665727437 0.002134743612260 -0.008430043235421 -0.017395578324795 0.000151481406647 -0.018118310719728 -0.015323294326663 -0.012261814437807 0.005569235887378 0.014816848561168 0.021034616976976 -0.018961740657687 -0.025551548227668 -0.038969170302153 -0.012543439865112 -0.011105806566775 0.004209053236991 0.008217269554734 -0.034514233469963 -0.006209017708898 0.014799634926021 0.003824380226433 -0.014979075640440 -0.025647278875113 -0.006370769813657 0.040464632213116 -0.011763695627451 0.007499595638365 0.029769958928227 -0.012424857355654 -0.009000936523080 0.013127929531038 0.017057357355952 -0.017131902277470 0.028206326067448 0.003453974146396 -0.031497716903687 0.018553111702204 -0.011690479703248 0.002153517678380 0.011335633695126 -0.029093995690346 -0.065110497176647 -0.007379147689790 -0.006400360260159 -0.020295517519116 0.011859310790896 -0.014191546477377 -0.024196373298764 0.023626027628779 0.024744031950831 0.025456594303250 0.004342691041529 -0.012655823491514 0.021196480840445 0.013815408572555 0.012019312009215 0.031968217343092 0.015471544116735 -0.047730620950460 -0.045696992427111 -0.013135836459696 0.007378501351923 -0.009162717498839 -0.003439042251557 0.026488872244954 -0.028615500777960 -0.034717671573162 0.046089734882116 -0.003031831467524 -0.011751404963434 -0.012511761859059 -0.011136968620121 -0.047314524650574 0.010093334130943 -0.034224279224873 -0.043791957199574 -0.055415626615286 0.008068741299212 -0.008340016007423 -0.027689402922988 -0.013259503059089 -0.004094237927347 0.002006981521845 0.029452728107572 -0.003758839564398 -0.016094392165542 0.001134441816248 0.034701280295849 -0.015529869124293 -0.014376147650182 -0.003183125751093 -0.005366145633161 -0.016355022788048 -0.081752844154835 0.021910691633821 -0.056104119867086 0.005188190843910 0.016456145793200 -0.028597669675946 -0.012412153184414 0.004914959892631 -0.023351732641459 -0.001534045790322 0.000598698796239 -0.003086450509727 -0.066390722990036 -0.014481201767921 0.019853411242366 -0.007617626804858 0.016448697075248 -0.017933383584023 -0.007363691460341 -0.002439010422677 0.020961735397577 -0.005254318006337
-0.008738870732486 -0.034361314028502 0.008865062147379 0.019581116735935 -0.043780893087387 0.032651886343956 -0.028107486665249 -0.019547708332539 0.020771119743586 -0.020213339477777 -0.034047726541758 -0.000470458966447 -0.014089523814619 -0.037027925252914 -0.065820984542370 -0.029225464910269 0.005765877664089 -0.009995041415095 0.067920915782452 -0.001546001294628 0.006724275648594 -0.008263077586889 0.013492690399289 -0.013808121904731 0.047632087022066 -0.001703108660877 0.053674548864365 0.002162428805605 0.008089776150882 -0.049229376018047 -0.028997780755162 -0.014414445497096 -0.018500609323382 0.024531001225114 0.020239097997546 -0.006245017983019 -0.017011536285281 -0.033549234271049 -0.001998436870053 -0.015471389517188 -0.029216699302197 0.017745664343238 -0.003596736816689 0.028377881273627 0.003236695891246 -0.030042923986912 0.008140823803842 -0.001462978660129 -0.000779988302384 -0.014803183265030 0.024816321209073 0.065889708697796 0.019953163340688 0.000503170886077 -0.011646769940853 -0.004846816882491 -0.044034786522388 0.010213572531939 0.004402268212289 0.018875531852245 0.009313767775893 0.009612883441150 -0.044180322438478 -0.037218086421490 -0.032817952334881 -0.002052222145721 0.033450230956078 0.040282800793648 -0.027904095128179 0.020446529611945 0.008942751213908 0.007954896427691 -0.034771032631397 -0.009829219430685 0.013273746706545 0.008405436761677 -0.016843808814883 -0.027037851512432 0.036064114421606 0.031116921454668 0.042423650622368 -0.011266018263996 0.002747285645455 0.022024357691407 -0.017005765810609 0.050325430929661 0.005744721274823 -0.025996625423431 -0.020191011950374 -0.019549058750272 -0.023129690438509 0.018926769495010 0.003096130210906 -0.037731040269136 -0.009230254217982 0.002920723054558 0.025885781273246 0.061196845024824 -0.035325329750776 0.008868529461324 -0.044909890741110 0.034903764724731 -0.002879523904994 -0.019007524475455 -0.059805609285831 -0.002981539117172 0.013022269122303 -0.012467985041440 -0.005028745625168 0.004748900886625 -0.004016961902380 0.028998114168644 0.015752747654915 0.005559697747231 0.070683702826500 0.018709918484092 -0.016725523397326 -0.021212054416537 -0.007106523029506 -0.031878400593996 0.007525964174420 -0.012151137925684 0.031590562313795 -0.016838217154145 -0.014698623679578 -0.009534604847431 -0.000300654501189 0.016201049089432 -0.034209791570902 -0.013038320466876 -0.002921905368567 -0.011071290820837 0.030776310712099 0.002722969045863 0.012205708771944 0.028385268524289 0.018936397507787 0.050383422523737 0.017339764162898 -0.011639741249382 0.011485593393445 -0.019996346905828 -0.032632321119308 -0.022329552099109 -0.016342550516129 -0.032394066452980 0.015082787722349 -0.039465762674809 -0.047893472015858 0.002305658301339 0.002301626838744 -0.018931850790977 0.022886967286468 -0.034991018474102 -0.005609602667391 -0.031994029879570 -0.010040893219411 0.046038217842579 0.011553545482457 -0.016474006697536 -0.011830255389214 -0.013198875822127 -0.014007698744535 -0.038475051522255 -0.018673887476325 -0.038681939244270 -0.033628132194281 -0.013315647840500 0.017367342486978 0.020233927294612 -0.017028465867043 -0.079398475587368 0.001053740736097 0.025425067171454 0.064972475171089 0.002713919384405 -0.009853218682110 -0.062314409762621 0.004038185812533 0.002723604673520 -0.014007846824825 0.021681074053049 0.018190005794168 0.045192725956440 0.023276109248400 0.019139913842082 0.009483842179179 0.017414478585124 -0.038590792566538 -0.023751931264997 -0.035821478813887 -0.002461714670062 0.013252136297524 0.014011187478900 0.037868484854698 -0.020327916368842 0.039288632571697 -0.027824612334371 -0.010441733524203 0.016155576333404 -0.022895863279700 -0.069258667528629 0.027014192193747 0.011260702274740 -0.036836300045252 -0.005081716459244 -0.049796357750893 0.029306540265679 -0.035126861184835 0.016014281660318 0.017753090709448 -0.010262826457620 0.001537934178486 -0.020461324602365 0.006193181965500 -0.008883089758456 -0.033523172140121 0.007636264432222 0.035731419920921 -0.014220336452127 0.025804111734033 -0.012866109609604 -0.017503902316093 -0.021244294941425 -0.027052327990532 -0.044163543730974 0.019054917618632 -0.028356816619635 -0.021073142066598 -0.004633683245629 -0.032576065510511 -0.013306180946529 -0.013984142802656 -0.010850078426301 0.007754617836326 -0.019624885171652 0.017410058528185 0.020678825676441 -0.013804883696139 0.018252570182085 0.010567518882453 -0.024235188961029 0.010945832356811 0.003815989941359 -0.006689496338367 -0.037302032113075 -0.036884345114231 -0.056323360651731 0.015170969069004 -0.006881899666041 0.011148669756949 -0.008621427230537 -0.004442655481398 -0.017057605087757 -0.014919250272214 0.003449514973909
-0.002757214708254 -0.012124804779887 0.008507164195180 -0.006071256939322 -0.007323913276196 -0.013806401751935 0.002186029916629 -0.015493636019528 -0.005936020053923 0.016593405976892 0.008466761559248 -0.015789167955518 -0.023610532283783 0.006661148276180 -0.009946160018444 -0.001603468437679 -0.030843388289213 -0.008678555488586 0.004829508718103 0.007931684143841 0.008173661306500 -0.020224638283253 -0.005626890342683 0.023350447416306 -0.025459069758654 0.002667104359716 -0.014113503508270 0.038251362740993 0.011737506836653 -0.013814745470881 0.005814404226840 -0.000104135353467 -0.029373718425632 -0.000149403029354 0.019685320556164 -0.014396878890693 -0.027511224150658 -0.024979982525110 0.008987576700747 0.031986843794584 -0.011787850409746 0.006938770879060 -0.010863641276956 0.001446492271498 -0.018769854679704 -0.022802475839853 -0.025992851704359 -0.010127197019756 -0.024325927719474 0.008125863038003 -0.030306609347463 -0.013344538398087 0.009209754876792 -0.010389941744506 -0.015012780204415 -0.004644158296287 -0.009050351567566 -0.011498573236167 0.023292405530810 0.009506192058325 -0.033253680914640 -0.008986904285848 -0.028411839157343 -0.003812981070951 -0.006647654343396 0.037127356976271 0.016729479655623 -0.006163267884403 -0.011465228162706 -0.002499353373423 -0.016347780823708 0.002412599278614 -0.010076353326440 0.005131596233696 -0.002302756765857 0.012442898005247 -0.032676249742508 0.000915823504329 0.018561972305179 0.017598105594516 -0.007419553119689 -0.023368585854769 0.008363783359528 -0.032776877284050 0.021826323121786 -0.002423732308671 -0.010417691431940 0.044939111918211 0.020704504102468 -0.001377346809022 0.005467480514199 0.009430729784071 -0.003844402963296 0.013294892385602 0.014008300378919 -0.024570144712925 -0.041265912353992 -0.018987936899066 0.008744369260967 -0.023014994338155 -0.020994096994400 0.004207262769341 -0.017439043149352 -0.035779051482677 0.000092071444669 0.007997701875865 0.010992292314768 -0.000925767584704 -0.001314224675298 0.012909566052258 -0.012001100927591 0.003467836417258 -0.002420566510409 -0.005123851355165 0.003014398505911 0.010569454170763 -0.001416754676029 0.011138654313982 -0.027770806103945 -0.011191817931831 -0.019771305844188 -0.024389784783125 -0.007930603809655 -0.020504999905825 -0.006443385966122 0.001741079031490 -0.006990926340222 0.011834774166346 -0.025963786989450 -0.022901227697730 0.001975100254640 0.023631969466805 0.004505743272603 0.018845340237021 -0.001110880519263 -0.024493750184774 0.005800979677588 -0.026252778246999 0.021973442286253 0.008845227770507 -0.000128547457280 -0.005438203923404 0.006395075935870 0.016114020720124 -0.017046803608537 -0.013513725250959 0.002455970738083 0.003257264615968 0.017553461715579 0.009880500845611 0.005811234004796 -0.002582862507552 -0.011694401502609 -0.028897024691105 -0.002741645090282 0.002461779862642 0.004187879618257 0.001595444511622 -0.029278777539730 0.010003396309912 -0.003310202155262 0.011217497289181 0.018488617613912 0.009810470975935 -0.005074792075902 -0.004393407143652 -0.004067545291036 -0.009714473038912 -0.005037357099354 -0.006252950057387 0.011659095063806 -0.012228448875248 -0.006153622642159 0.002445056103170 -0.006751776207238 -0.001518447068520 -0.009957972913980 -0.036867991089821 -0.010809176601470 -0.017959782853723 -0.038199488073587 -0.018193388357759 -0.001485711778514 -0.002472531981766 -0.009077618829906 -0.006394286174327 -0.020786333829165 0.002582588000223 -0.018684230744839 -0.019489601254463 -0.001629275153391 0.026040606200695 -0.001366901444271 -0.012308067642152 0.010632510297000 0.001615335466340 -0.006091138347983 -0.004640723578632 -0.013766825199127 0.005179455038160 -0.020703976973891 0.007216231431812 0.000451074680313 -0.020378476008773 0.014497935771942 0.045138698071241 -0.010767072439194 -0.000830019009300 -0.023942045867443 -0.014284994453192 0.029572620987892 -0.021899038925767 -0.000173276523128 -0.017450308427215 0.008588177151978 0.015236558392644 -0.022067150101066 -0.008264482021332 0.004938619676977 0.007174357306212 0.017328429967165 -0.010544458404183 0.001453323406167 -0.006698661483824 0.010645152069628 -0.004823631606996 -0.013734690845013 -0.018548635765910 -0.008826659992337 0.013111650943756 -0.020466554909945 -0.000031724695873 0.005139410961419 0.008719199337065 -0.002527682576329 0.001606306876056 -0.022229893133044 -0.003079228335992 -0.012276062741876 -0.013721610419452 -0.015643065795302 -0.005644464399666 0.000717632297892 -0.004057432990521 0.011774903163314 -0.018282407894731 0.006901917047799 -0.010842747986317 0.003961639013141 0.021434839814901 -0.011189163662493 -0.018593234941363 0.022459181025624 0.001951145706698 -0.002180991461501 0.005030238535255
-0.044155649840832 -0.042610887438059 -0.016172379255295 -0.014475793577731 -0.047800190746784 -0.018524765968323 0.012256925925612 0.011490220203996 -0.013398063369095 -0.056065633893013 -0.024455854669213 0.035838652402163 0.002344414126128 -0.013975112698972 -0.041550748050213 0.041015949100256 0.010769113898277 0.003560425480828 -0.001681492780335 0.001467425609007 0.015506819821894 -0.002719951560721 0.067900285124779 0.013559416867793 0.013206099160016 -0.022484794259071 0.020083094015718 -0.000329698406858 0.017056358978152 -0.041344892233610 -0.033889830112457 -0.034562855958939 -0.018664106726646 -0.003917521331459 -0.015842555090785 0.002520973561332 0.029173227027059 0.039522752165794 0.023247953504324 0.068228624761105 0.016516808420420 -0.010271569713950 -0.022548727691174 -0.027637774124742 -0.023143384605646 -0.033380076289177 -0.009092554450035 -0.031087839975953 -0.015504643321037 0.009864732623100 0.021875988692045 -0.071097798645496 0.003739919746295 -0.012872198596597 -0.007470175623894 -0.004218827467412 -0.006368954665959 -0.009275702759624 0.010961744002998 0.015172551386058 0.018573993816972 -0.023764925077558 0.022355923429132 0.004701590631157 -0.006769821979105 -0.003252023365349 -0.002573183504865 -0.019555348902941 -0.043438844382763 0.002419378142804 -0.023248163983226 -0.011128803715110 0.033468257635832 0.043227571994066 -0.036029700189829 -0.007328125182539 -0.002069393871352 0.005271524656564 0.024980381131172 0.061311405152082 -0.016827940940857 -0.011120917275548 0.013521727174520 -0.053414035588503 0.025153335183859 -0.019409470260143 -0.029287697747350 -0.016680326312780 0.037131950259209 -0.020031860098243 -0.014203168451786 0.034962400794029 -0.033524278551340 -0.005533961113542 -0.003616801928729 -0.028050245717168 -0.030490452423692 -0.041930787265301 -0.010353475809097 -0.027778772637248 0.036067377775908 -0.010754992254078 -0.010412758216262 -0.055627554655075 -0.008982628583908 -0.025496134534478 0.007024098653346 0.034066297113895 -0.005795113276690 0.059082355350256 -0.035241901874542 0.047705866396427 0.024635555222631 -0.002263380447403 0.013491544872522 0.012221273034811 0.011465641669929 0.004567270632833 -0.079659365117550 0.016729403287172 0.016133669763803 0.017694517970085 -0.024093769490719 0.003607248421758 0.029255846515298 -0.025903513655066 -0.001476240460761 0.003097548615187 0.007274073082954 -0.011192610487342 0.012081051245332 0.017836807295680 -0.015131242573261 0.001536373631097 0.011476466432214 -0.012383969500661 -0.014736560173333 -0.031413700431585 0.017663430422544 0.061065394431353 -0.000713159213774 -0.034964319318533 -0.015855133533478 -0.005533697549254 -0.013033263385296 -0.008918610401452 0.071997471153736 -0.029140695929527 -0.030923753976822 0.001150750438683 -0.010274196974933 0.007991912774742 0.022493159398437 0.020923357456923 0.055911045521498 0.023135120049119 0.010073853656650 0.067674569785595 -0.043782547116280 0.007146494463086 -0.002810075413436 -0.006997467484325 -0.021395543590188 -0.028213977813721 -0.004743040539324 -0.017891302704811 -0.040646348148584 -0.013304672203958 0.041003555059433 -0.031790103763342 -0.025175163522363 -0.022882049903274 -0.025114161893725 -0.011911349371076 -0.063666112720966 -0.029082966968417 -0.001521886792034 -0.031849905848503 0.003483143169433 0.029846899211407 -0.017940932884812 0.000201539427508 -0.035671081393957 0.011627982370555 0.032018657773733 -0.052694704383612 -0.011438492685556 -0.011106624267995 -0.058315839618444 -0.024120509624481 0.023620668798685 -0.019277699291706 0.024031279608607 0.036678925156593 -0.035221088677645 -0.007631215732545 -0.013834654353559 -0.024295266717672 0.000646717962809 -0.033100698143244 -0.002824680879712 0.014938344247639 -0.029010599479079 0.010391307994723 0.005801123101264 -0.005641904193908 0.031350284814835 -0.011316048912704 -0.045897088944912 0.037616174668074 -0.018919402733445 -0.018946800380945 0.005155844148248 -0.046099461615086 -0.002382971113548 0.048963770270348 0.011589747853577 -0.001890694256872 -0.020440688356757 0.016443533822894 -0.027288857847452 -0.009601610712707 0.019381284713745 -0.020624717697501 -0.041181061416864 -0.023688925430179 -0.017797425389290 -0.035472527146339 -0.008768485859036 0.018517713993788 -0.010876239277422 0.034181330353022 0.043063495308161 -0.007908459752798 -0.003799972357228 0.016693802550435 -0.016278801485896 0.000663830374833 -0.035403747111559 -0.035353988409042 -0.006739791482687 0.034353550523520 0.040342900902033 -0.006199160125107 -0.028157245367765 -0.006441099569201 0.024711672216654 -0.034204635769129 -0.003197610611096 0.014011788181961 0.009015953168273 0.000107103121991 -0.037095006555319 -0.016035327687860 0.043106019496918 0.043136965483427
-0.034559518098831 -0.041720151901245 0.035064853727818 0.018754158169031 -0.045402787625790 -0.006244819611311 0.014711124822497 -0.028672326356173 -0.006864814087749 -0.025896586477757 -0.021175036206841 0.010922184213996 0.021917454898357 0.041177876293659 -0.053713887929916 0.023831466212869 -0.032292492687702 0.024688672274351 -0.012949944473803 0.001807461492717 -0.036359593272209 -0.001170623931102 -0.029712324962020 -0.023749561980367 -0.052805598825216 -0.010095207951963 -0.033946562558413 -0.001855699112639 0.004521863069385 -0.006594675593078 0.010789586231112 -0.021047124639153 -0.020323036238551 0.020787084475160 0.025699421763420 -0.014708524569869 0.012070394121110 0.026593770831823 0.040057688951492 -0.005555994343013 0.033417984843254 -0.009647152386606 0.001119891181588 0.018812559545040 -0.006594801787287 -0.004197253845632 -0.023160705342889 0.027404034510255 -0.054406061768532 -0.004229816608131 -0.006536316126585 -0.023064056411386 -0.023811712861061 0.011805153451860 -0.027268365025520 -0.052252180874348 -0.018902476876974 0.020464317873120 -0.004251021891832 0.049748323857784 0.057991985231638 0.055223718285561 0.024789966642857 -0.023367369547486 -0.085430458188057 0.011710421182215 0.002929424867034 0.009449567645788 0.010682872496545 0.008960701525211 0.001707292161882 0.020628795027733 0.058512106537819 0.006637096870691 -0.003018338000402 -0.030751504004002 0.033380951732397 -0.001365200500004 -0.024295110255480 -0.051004365086555 0.003894300432876 0.046740621328354 -0.001768327667378 -0.043282561004162 0.067026950418949 -0.033426534384489 0.046861659735441 0.005098111461848 0.013201471418142 -0.000522505841218 -0.051183313131332 -0.020230878144503 0.000470772705739 -0.005419820081443 0.037474110722542 -0.044497929513454 -0.008586495183408 0.006590160075575 0.040617682039738 -0.012337058782578 -0.032262459397316 -0.018085543066263 -0.011301097460091 -0.016747219488025 0.003433034289628 0.000605659617577 -0.021436117589474 -0.016663350164890 0.035897620022297 -0.047371238470078 -0.016267456114292 -0.003511790418997 -0.025153858587146 0.008561991155148 0.012755712494254 0.003656442044303 0.042206149548292 0.019671805202961 -0.036386918276548 -0.035605680197477 -0.015669908374548 0.020356021821499 0.000527250173036 -0.014367420226336 0.041868869215250 0.009913611225784 0.071314543485641 -0.019168857485056 0.036470342427492 -0.029756918549538 0.006380153354257 -0.007464723661542 -0.031335022300482 0.014895474538207 0.011193932034075 -0.011906381696463 -0.002349602989852 -0.015386570245028 -0.007746569812298 -0.035705775022507 0.025699108839035 0.015949051827192 -0.018806744366884 -0.011113426648080 0.021576480939984 -0.013659673742950 -0.033697374165058 0.011515423655510 -0.025343311950564 -0.024592246860266 -0.028680471703410 0.052828174084425 -0.022335717454553 -0.002530383644626 -0.015607240609825 -0.008646441623569 -0.040080063045025 0.025119256228209 -0.019719552248716 0.018209891393781 -0.011690324172378 -0.002585408044979 -0.040278352797031 -0.047159519046545 0.013697925023735 0.077300690114498 0.009981009177864 -0.032281931489706 -0.064619123935699 0.024766212329268 -0.018731703981757 0.026083484292030 0.051163032650948 -0.004645690321922 0.005437996704131 -0.010850167833269 0.028586728498340 -0.054137818515301 0.003394639119506 -0.011523600667715 -0.063298903405666 -0.040476225316525 -0.030889280140400 0.021234193816781 0.097466491162777 -0.024304309859872 0.023510070517659 0.003750985721126 -0.026535777375102 -0.004212185274810 0.023696981370449 0.021335376426578 -0.003742291359231 -0.017028179019690 -0.016615414991975 0.049023393541574 -0.030572500079870 -0.062999621033669 0.004851032514125 -0.035354327410460 0.003832070855424 -0.048639632761478 0.029367392882705 0.038441020995378 -0.033829838037491 0.022552479058504 0.006645231973380 0.022934120148420 -0.036795843392611 -0.009119926020503 -0.007008061744273 0.003517218399793 -0.002777612768114 -0.007054387591779 -0.010492846369743 -0.032551284879446 0.001259772572666 -0.053052477538586 -0.021803252398968 -0.022914465516806 -0.004104412626475 0.045144382864237 0.010550408624113 0.002787482226267 -0.032355397939682 -0.020704440772533 0.003879216266796 0.024480702355504 0.018294142559171 0.017255980521441 -0.034539967775345 -0.044757835566998 0.006669507827610 0.022174231708050 -0.031370241194963 -0.014544477686286 0.030481696128845 0.012354228645563 -0.034993123263121 -0.019282151013613 -0.051780402660370 0.005292918998748 0.018368989229202 -0.007277792319655 -0.024478631094098 0.030489766970277 0.004486170597374 -0.039807338267565 -0.015584651380777 -0.043661907315254 -0.006124176550657 0.017580386251211 -0.046644922345877 -0.030650276690722 0.009065306745470 0.003668986726552
-0.018160898238420 -0.018630005419254 -0.036197043955326 -0.036340825259686 -0.120415359735489 0.027808740735054 -0.032887693494558 -0.088200651109219 -0.034592729061842 -0.021786917001009 -0.025265734642744 -0.018927631899714 -0.031123086810112 0.021987339481711 -0.052999164909124 0.009333224967122 -0.041430704295635 -0.014496698975563 -0.007287747692317 0.024827037006617 -0.055781293660402 -0.017999181523919 -0.009714431129396 -0.033389817923307 -0.029275557026267 -0.046116668730974 -0.013622131198645 -0.025558121502399 -0.054318539798260 -0.023677805438638 0.129703432321548 -0.045684803277254 0.027875864878297 -0.031366266310215 -0.020310273393989 0.000632940384094 -0.031161416321993 -0.071583479642868 0.005714612547308 -0.015413120388985 0.032727379351854 -0.019856037572026 -0.040268786251545 -0.025721300393343 -0.002407766412944 -0.078204475343227 0.044676046818495 0.018515309318900 0.033529486507177 0.017435124143958 0.004100478719920 0.018991613760591 -0.020847454667091 0.010684963315725 -0.001518802950159 0.012992064468563 -0.006030774675310 0.019378446042538 0.004139891825616 0.010928496718407 0.017805019393563 -0.059975065290928 -0.054805550724268 0.012144344858825 0.049597349017859 -0.016070256009698 -0.007678509689867 0.005117279477417 0.002171549014747 0.043906040489674 0.062118094414473 0.000603042251896 -0.032420847564936 -0.022308710962534 -0.019209291785955 0.025639001280069 -0.026604341343045 -0.014778145588934 0.029077272862196 -0.013968107290566 0.020690206438303 0.042598344385624 -0.061862371861935 0.008154700510204 0.021086363121867 0.025385523214936 -0.013833663426340 -0.007338210940361 -0.067383266985416 0.042948085814714 0.038693416863680 -0.002126736566424 0.049051582813263 0.014639714732766 -0.048667702823877 -0.030502472072840 -0.023057548329234 -0.023221822455525 0.014708565548062 -0.084945470094681 -0.029996508732438 0.008888400159776 -0.011124594137073 -0.113134607672691 -0.038246344774961 -0.012508881278336 -0.032120663672686 -0.018518347293139 -0.002616866026074 -0.011934467591345 0.005703914444894 -0.031433455646038 0.004810345824808 0.025657095015049 -0.025323854759336 -0.014908883720636 -0.016624426469207 -0.044977549463511 0.007829238660634 0.002102124737576 0.030741015449166 -0.033283401280642 -0.005692567676306 0.037688199430704 -0.048647236078978 -0.062943965196609 0.032659374177456 -0.034095525741577 -0.034488663077354 -0.017174433916807 0.037667751312256 -0.051292199641466 -0.061774812638760 -0.026986133307219 -0.037653807550669 -0.046467721462250 0.032730802893639 -0.020547712221742 -0.006999073084444 0.027128312736750 -0.006252349819988 -0.035926222801208 -0.033846121281385 -0.020119758322835 0.004529660567641 -0.023782677948475 -0.039535772055387 -0.027931055054069 -0.042726397514343 -0.061413969844580 0.071517251431942 0.059153571724892 -0.031408276408911 -0.024166772142053 -0.050682108849287 -0.015467863529921 -0.024033000692725 -0.008416687138379 -0.027842253446579 0.006050267256796 -0.006988100707531 0.004299403168261 0.026040457189083 0.021045941859484 -0.016012663021684 -0.043386675417423 0.003085026284680 -0.035110726952553 -0.023921729996800 0.010138386860490 -0.013902205973864 0.038670066744089 -0.021686462685466 0.057514067739248 0.034419424831867 -0.043530978262424 -0.030113086104393 -0.113677993416786 -0.011479564942420 -0.000572779506911 0.059302784502506 -0.027883470058441 -0.024542002007365 -0.042841747403145 0.022890977561474 -0.020038388669491 -0.043343123048544 -0.048630323261023 -0.144757747650146 -0.035343628376722 0.011775602586567 -0.019641079008579 0.051377061754465 -0.078581757843494 -0.013535181991756 0.006043348461390 -0.003126442665234 0.056113861501217 0.013900768943131 -0.023286798968911 0.113503031432629 0.004308623261750 -0.025979800149798 0.031087134033442 0.024926243349910 -0.026613390073180 -0.015905063599348 -0.080984801054001 0.093764789402485 -0.018559500575066 -0.028510587289929 -0.009878177195787 -0.039200704544783 0.016486160457134 -0.057776749134064 0.026903849095106 -0.098975606262684 -0.021715665236115 -0.058464862406254 0.018103377893567 -0.055659491568804 -0.038953062146902 -0.010206839069724 -0.005916658323258 -0.064245522022247 -0.051276411861181 -0.067245714366436 0.037303812801838 -0.029725173488259 -0.076675392687321 0.044540479779243 0.028646243736148 -0.016423936933279 0.002214019419625 0.013560183346272 -0.034170217812061 -0.009240705519915 -0.050054375082254 -0.037597060203552 -0.041748046875000 -0.000389019376598 -0.073194049298763 -0.022218097001314 0.025662912055850 -0.037568043917418 0.018661970272660 -0.005082959774882 -0.016486871987581 0.002560361754149 0.006766758859158 0.012612136080861 0.008867342025042 0.030330501496792 0.064488969743252 -0.029990658164024 0.009995085187256
-0.010553429834545 0.059632200747728 -0.004248694516718 0.064445897936821 -0.050374496728182 0.002472177846357 -0.002081562532112 -0.019492745399475 -0.005735389422625 -0.013282932341099 -0.007021371740848 -0.036585859954357 0.017093574628234 0.002165396697819 0.002114032860845 -0.006530370563269 -0.027570083737373 0.033716537058353 0.017385154962540 -0.010446183383465 -0.010484853759408 -0.007425405085087 -0.038671236485243 -0.021836176514626 -0.005202458705753 -0.043796971440315 0.004714488051832 -0.020700944587588 -0.012203129008412 -0.001517200726084 -0.049558568745852 -0.004576562438160 0.036505546420813 0.007542904000729 0.094327427446842 -0.022302214056253 -0.006686371285468 0.003788053756580 0.022713406011462 -0.056378837674856 -0.052567474544048 0.010716293938458 0.005921481177211 0.020255934447050 0.017954215407372 -0.017017496749759 -0.025421870872378 0.045177776366472 0.086863309144974 0.011602995917201 0.016757255420089 -0.013827582821250 -0.012161146849394 -0.003650350729004 -0.069995403289795 -0.027442120015621 -0.042867377400398 0.013591627590358 -0.040433734655380 -0.035696167498827 -0.042540226131678 -0.033371817320585 0.010702593252063 0.018063219264150 0.015386421233416 -0.058435533195734 -0.039529390633106 0.054574567824602 -0.020481692627072 -0.015449183993042 0.052286185324192 0.043398406356573 0.027684472501278 -0.014837265014648 -0.037186529487371 -0.022744882851839 0.000713346758857 -0.069659672677517 0.076978854835033 -0.048493981361389 0.041421465575695 0.026548596099019 -0.071359016001225 0.001632261555642 0.019312793388963 -0.026832722127438 -0.023696169257164 -0.027913937345147 0.011133673600852 0.029038025066257 0.005330826621503 0.042149774730206 0.008765521459281 -0.031809452921152 -0.034527208656073 -0.048851180821657 -0.046812951564789 0.035601649433374 -0.000600892177317 -0.041870474815369 0.023640643805265 -0.051696687936783 -0.018719073385000 -0.010113237425685 -0.086257524788380 -0.031064653769135 -0.015029772184789 -0.024284215644002 -0.049165386706591 0.006208389531821 -0.041876744478941 -0.044653553515673 -0.008512004278600 -0.041299004107714 0.003606238169596 0.010340013541281 0.013261482119560 0.031121378764510 0.026576232165098 -0.013373952358961 -0.057244289666414 -0.015986625105143 -0.052717074751854 0.052661683410406 -0.044279459863901 -0.005114428233355 -0.010936338454485 -0.036610350012779 -0.034967936575413 -0.042727470397949 -0.002487434539944 -0.036670751869678 0.004372677765787 -0.029879154637456 -0.028390124440193 -0.002362130442634 0.000102162943222 0.057239331305027 0.017059657722712 -0.001373796723783 0.021533694118261 -0.040750373154879 -0.025982121005654 -0.085564956068993 -0.015148610807955 0.009939245879650 0.004411834757775 -0.019122714176774 -0.030841454863548 -0.011321411468089 0.021243320778012 -0.050646610558033 0.045410543680191 -0.049428995698690 0.004055618308485 0.028785690665245 -0.070147208869457 -0.011099998839200 -0.024463472887874 0.047663558274508 0.052728239446878 0.017270959913731 -0.017507420852780 -0.068848185241222 0.017116820439696 -0.004735126625746 -0.001339499955066 -0.057687379419804 -0.026229633018374 -0.092210158705711 -0.042475260794163 -0.014268847182393 0.062974296510220 0.001007965183817 0.009406115859747 0.021459298208356 -0.010236469097435 0.002443790202960 0.010158326476812 0.007164754904807 0.014939481392503 -0.040646303445101 -0.076958499848843 0.041844259947538 -0.040985643863678 0.072282962501049 -0.042481519281864 0.004035756923258 -0.011589339934289 -0.054328437894583 0.007893336936831 -0.057398885488510 -0.017331749200821 0.000999004230835 0.034639410674572 -0.010387768037617 -0.009426448494196 0.013716840185225 -0.019708700478077 -0.057122945785522 0.055496666580439 -0.028461761772633 -0.022872863337398 -0.057020343840122 0.028773453086615 -0.041110452264547 0.011443102732301 -0.005816782359034 0.007669737562537 -0.003845824860036 -0.014491126872599 -0.051995895802975 -0.032919358462095 0.021319830790162 -0.047549318522215 0.009451440535486 -0.053564075380564 -0.054158724844456 0.038771994411945 -0.028009032830596 -0.019720252603292 -0.009972389787436 -0.029645554721355 -0.003996458835900 -0.011161518283188 0.007434206083417 -0.015261486172676 -0.054988462477922 0.066162623465061 -0.010243584401906 -0.026465626433492 0.003516930621117 -0.067824542522430 0.000907217268832 -0.063454180955887 -0.023957885801792 -0.020882612094283 -0.011242993175983 0.010473694652319 -0.041284754872322 -0.036562357097864 -0.041950959712267 -0.027368146926165 -0.009578204713762 0.025561932474375 -0.002361149061471 -0.003307632869110 0.045075550675392 0.010147131979465 -0.021394282579422 0.041182860732079 0.045677278190851 -0.014193115755916 -0.011043631471694 0.025015283375978 -0.008177635259926
0.001134700840339 -0.012571882456541 0.008689926005900 0.016660885885358 -0.042639993131161 0.001810251385905 -0.014546154998243 -0.030599517747760 -0.006602221168578 0.002162120072171 0.055322825908661 -0.013269006274641 -0.013831931166351 0.016891112551093 -0.058244254440069 -0.014008936472237 0.013599807396531 0.008252889849246 0.006177692674100 0.016053849831223 0.007612085435539 0.037217084318399 -0.035132337361574 -0.021292211487889 -0.019261214882135 0.014319445006549 0.006947854533792 0.016096532344818 0.014122882857919 -0.024816859513521 0.005287193693221 0.006384726613760 -0.038978807628155 0.016732610762119 0.009081875905395 0.001381778973155 -0.008599714376032 -0.016157308593392 0.017818862572312 -0.012225848622620 0.014392458833754 -0.022774582728744 0.021281106397510 -0.002692577196285 -0.007707499898970 0.111169740557671 -0.012899392284453 -0.006615563295782 -0.020481020212173 -0.021844152361155 -0.043126538395882 -0.016494786366820 0.001894165412523 -0.026117103174329 -0.051228351891041 -0.008587396703660 0.004860071465373 0.015670036897063 0.027504226192832 0.021702604368329 0.023894473910332 -0.002689266810194 -0.020128173753619 0.051542036235332 0.026497919112444 -0.040576681494713 -0.007880235090852 0.052511896938086 0.014410031028092 -0.028006657958031 0.035783462226391 0.007754868827760 -0.007855278439820 0.012089553289115 -0.008762052282691 0.027824414893985 0.006170104257762 -0.035948529839516 -0.042164444923401 -0.021150683984160 0.015355708077550 0.006740572396666 0.011728802695870 -0.003136792220175 -0.003159379586577 -0.000985298072919 -0.021967202425003 -0.045254297554493 0.014983597211540 0.034438487142324 0.032782606780529 0.002903016284108 0.006744476500899 -0.078305229544640 -0.012866985052824 -0.000714608526323 -0.030390378087759 0.002179852453992 -0.029778257012367 -0.023938173428178 -0.001544787548482 -0.067810006439686 -0.003014886053279 -0.063951335847378 -0.019950523972511 -0.018584039062262 -0.015233160927892 -0.032483059912920 -0.014070485718548 -0.013050386682153 0.060515087097883 0.007121482864022 0.007198827341199 0.023483673110604 0.009674904868007 0.006120481994003 -0.003760648192838 -0.006767546292394 0.038512557744980 -0.049643952399492 0.016907487064600 -0.021316986531019 -0.032814577221870 -0.014230925589800 -0.013525905087590 0.000093377231678 0.013698996976018 0.000228442193475 0.008318043313920 -0.028084125369787 0.076894812285900 0.004074488300830 0.000319712795317 -0.014282205142081 -0.039840746670961 -0.034866429865360 -0.030523059889674 0.009681289084256 0.007378073874861 -0.013894461095333 0.005392370279878 -0.014758151955903 0.014610220678151 -0.003400813555345 -0.015596759505570 -0.039324570447206 -0.003208922222257 -0.013063377700746 0.021705774590373 -0.037048697471619 0.002799412934110 0.002724535763264 -0.009762729518116 0.021602464839816 -0.000749802973587 0.030840277671814 -0.038729563355446 0.018069978803396 -0.002206946955994 0.023006854578853 0.010771069675684 0.010193211026490 0.034397378563881 -0.004065964836627 -0.015163216739893 -0.037139642983675 -0.016254501417279 -0.044308546930552 -0.030721146613359 0.076953478157520 0.063302986323833 0.022948352620006 0.020841186866164 -0.007511574774981 0.011246321722865 -0.033668264746666 -0.006341293919832 -0.045698828995228 0.072418145835400 0.042154453694820 -0.000367414293578 -0.006096911616623 -0.017323924228549 0.038513824343681 0.009256735444069 -0.025842158123851 0.008409088477492 0.009148101322353 -0.050272390246391 0.003854677779600 0.050925470888615 -0.030758248642087 -0.022196259349585 0.019089408218861 -0.012919955886900 0.019751934334636 0.016267795115709 -0.024907164275646 -0.002823617774993 -0.044007670134306 0.030627813190222 0.028634576126933 -0.003786080982536 0.006660337559879 0.015507985837758 -0.044980943202972 0.045547336339951 0.036047924309969 -0.019047573208809 0.003091916674748 0.021034922450781 -0.034276649355888 -0.015080370940268 0.026517871767282 0.018332380801439 -0.023544233292341 -0.035874899476767 -0.083120696246624 -0.004724860191345 0.007659998256713 -0.007843715138733 0.008851904422045 0.045116476714611 -0.027138415724039 -0.041180420666933 -0.026901694014668 -0.021451689302921 0.025874130427837 0.023607535287738 -0.020064618438482 -0.024827588349581 -0.025747356936336 -0.003450780408457 0.014688462950289 -0.018501905724406 -0.032260052859783 -0.009618243202567 0.010674707591534 -0.019747501239181 -0.002337183337659 -0.018590779975057 -0.006815229542553 -0.014615890569985 0.092329904437065 -0.023130318149924 -0.010325488634408 -0.002690845401958 -0.007190392818302 -0.011762471869588 -0.034470509737730 0.012153352610767 -0.006438688840717 -0.016520347446203 0.006218401715159 0.003176089609042 0.035180214792490
0.008210713975132 -0.021173700690269 0.008599923923612 -0.006827416364104 -0.022255953401327 0.030046887695789 0.008037016727030 -0.029391823336482 0.026167914271355 -0.040113043040037 -0.018200645223260 0.012130917049944 -0.005999914370477 -0.007919703610241 0.006416484713554 0.022772686555982 -0.022189503535628 0.013746922835708 0.000271868339041 -0.010274467058480 -0.007784680463374 -0.017064368352294 0.009947045706213 -0.002305561210960 0.024198630824685 -0.004131287802011 0.013457053340971 0.001125638256781 0.007468759547919 -0.014372040517628 -0.013133109547198 -0.006605814676732 0.035591501742601 0.031457133591175 0.003142062341794 0.001201622071676 -0.011093216016889 -0.001071843900718 -0.002593785291538 -0.026819761842489 0.015580834820867 0.018217362463474 -0.010774492286146 -0.009081763215363 -0.023638790473342 0.005113829392940 0.003621383104473 -0.011126309633255 -0.032527375966311 0.011726465076208 -0.001560823409818 0.005444482900202 0.021320553496480 0.013763844035566 0.010352681390941 -0.012218904681504 0.027209179475904 -0.012026412412524 -0.004499808885157 0.013574939221144 0.004819869063795 -0.020972689613700 0.001751812524162 -0.035204343497753 -0.001610758947209 -0.043850403279066 -0.004329655319452 -0.035614956170321 -0.015283601358533 -0.007231583818793 0.020642122253776 -0.006609499920160 -0.000230479708989 -0.003918884787709 0.040363661944866 0.006661223247647 -0.058515075594187 -0.015805343165994 0.012970448471606 -0.031724136322737 0.021407052874565 0.036758877336979 -0.015774736180902 0.041049189865589 -0.042520698159933 -0.015356142073870 0.010783170349896 -0.025037335231900 -0.022655233740807 -0.024499977007508 0.013716478832066 0.028704633936286 0.022776199504733 -0.016023878008127 0.016311457380652 0.008135967887938 -0.036240253597498 -0.048259839415550 -0.031097477301955 -0.012621068395674 -0.000186190460226 -0.024508146569133 0.023107429966331 -0.023906376212835 -0.020851446315646 -0.005530922673643 -0.009837348014116 0.031492397189140 -0.041010122746229 0.016753366217017 -0.024658130481839 0.002377898432314 -0.006824711337686 -0.010552303865552 0.014595882967114 0.010917744599283 0.003292092587799 -0.061522591859102 -0.023818895220757 -0.014079144224524 -0.021063165739179 0.006562512367964 -0.031572449952364 0.021215863525867 0.022821815684438 -0.028964182361960 0.027571616694331 -0.000337310892064 0.050723142921925 -0.003902026684955 0.020417986437678 -0.023046925663948 0.011742222122848 -0.014344245195389 -0.004074416123331 -0.018801305443048 -0.012701272033155 -0.011302555911243 0.005780861712992 0.008970138616860 -0.062564291059971 -0.000897997000720 0.023332500830293 -0.031218132004142 -0.007958813570440 0.005380458198488 0.042559415102005 0.010382359847426 0.029465615749359 -0.021245302632451 0.042196162045002 0.023358944803476 -0.034741144627333 0.010278329253197 -0.015135414898396 -0.029647238552570 -0.033531643450260 0.024853913113475 -0.003176648169756 -0.001245805295184 -0.016896851360798 0.012369089759886 0.008491989225149 -0.032692920416594 0.031447935849428 -0.033667638897896 -0.038792137056589 -0.051270224153996 0.028278626501560 -0.024846697226167 -0.025240164250135 0.002409750828519 0.001135286525823 0.045779727399349 0.013597425073385 -0.029381051659584 0.002762328367680 -0.030988598242402 -0.001474140328355 -0.001775839249603 0.037912055850029 -0.008524182252586 0.018320083618164 0.006662727799267 0.034214995801449 0.027096239849925 -0.012803182937205 -0.008431330323219 -0.013049992732704 -0.008878940716386 -0.000221152120503 -0.032456889748573 -0.004490857943892 -0.005475318059325 -0.005651779007167 -0.023268152028322 -0.006518075242639 0.011745842173696 -0.001274181413464 -0.026687443256378 0.071522310376167 -0.044300772249699 -0.043000303208828 -0.008008009754121 0.002322962274775 0.009122894145548 0.004325200337917 0.017907761037350 0.021683026105165 -0.021527396515012 0.022464551031590 -0.033093187958002 -0.004436540417373 0.022537650540471 -0.021024288609624 0.025125648826361 -0.008225267753005 -0.034923974424601 -0.026069052517414 0.010298851877451 -0.007219241000712 -0.003269452834502 -0.010979638434947 0.032127596437931 -0.026727082207799 -0.009103617630899 0.044676311314106 -0.038509562611580 0.018509186804295 0.008082961663604 0.000993129331619 0.031826108694077 -0.076589569449425 0.003363979049027 0.023014819249511 -0.004872797522694 0.014380807057023 -0.003025298938155 0.017903974279761 0.018913522362709 0.001874710083939 -0.000405185215641 -0.003531870199367 0.007860934361815 -0.010363192297518 -0.021447230130434 -0.002700114622712 0.067187994718552 -0.006111779250205 -0.029029412195086 0.010784650221467 0.053630046546459 -0.007316142786294 0.005933862179518 -0.042506389319897 0.030490491539240
0.006002773065120 -0.017869103699923 0.012052070349455 -0.005751728080213 0.006130672525615 0.013952327892184 -0.001998496241868 -0.003617317182943 -0.001957774860784 0.014951790682971 0.009568944573402 -0.015582933090627 -0.023978117853403 -0.003212370909750 -0.017809955403209 -0.003345970762894 -0.023231031373143 0.015893118456006 -0.018107248470187 0.003519272198901 -0.037415273487568 -0.002318805782124 -0.015605974011123 0.020084993913770 0.013764217495918 -0.003228507237509 0.024641627445817 -0.002261679153889 -0.023563474416733 -0.040739767253399 -0.018710184842348 -0.002588313305750 0.001254637259990 -0.002898922888562 -0.020364528521895 -0.013654825277627 0.015350111760199 -0.020904619246721 0.010753578506410 -0.047990202903748 -0.008669606409967 -0.016486007720232 -0.017999129369855 -0.012471311725676 0.007073925808072 0.031219782307744 0.005954529158771 0.005701895337552 0.067761860787868 0.017819732427597 0.016762649640441 0.075226172804832 -0.029280701652169 -0.007580567151308 -0.026690471917391 0.010364117100835 -0.009531151503325 -0.005136091727763 -0.008127039298415 -0.027577180415392 0.020590573549271 -0.001363853225484 -0.018578400835395 0.013380696997046 0.054770443588495 -0.033243414014578 -0.007929359562695 -0.028530852869153 -0.018476398661733 -0.033503308892250 -0.002606596332043 0.008618225343525 -0.024354996159673 -0.018900435417891 -0.020996157079935 -0.008946589194238 0.028025617823005 0.002330217277631 0.075515307486057 -0.037570923566818 0.010346368886530 0.012492275796831 -0.022800071164966 0.015678219497204 -0.035786285996437 -0.023980792611837 -0.016544241458178 -0.018146505579352 0.001938472385518 0.017252761870623 0.028213115409017 0.043654996901751 -0.026417370885611 -0.027002142742276 0.005455207079649 -0.002790714148432 -0.035005845129490 -0.009743649512529 -0.027479428797960 0.008651979267597 0.007323838304728 -0.020113224163651 0.005541889928281 0.024577714502811 -0.048970550298691 0.015780743211508 -0.000160590032465 -0.056268163025379 -0.026048218831420 -0.020289603620768 -0.010748931206763 0.013919429853559 -0.004018727689981 -0.037432048469782 -0.013953165151179 0.004688160959631 0.022294877097011 0.006778257433325 0.036510735750198 -0.028086800128222 0.008385276421905 0.007436584215611 -0.035858970135450 0.019583405926824 -0.020913012325764 0.002843669848517 -0.021124294027686 -0.027666090056300 -0.015941683202982 0.012386050075293 0.005170395132154 -0.041802976280451 -0.010444348677993 0.010099589824677 -0.000101273624750 -0.011835427023470 -0.024464830756187 0.044728420674801 0.016267485916615 -0.001247167470865 0.004628040827811 -0.013521145097911 0.036620356142521 -0.029760928824544 -0.008861070498824 -0.008943275548518 -0.014277823269367 -0.006170887965709 -0.021604686975479 -0.003164389869198 0.021054284647107 0.002806123113260 -0.019117804244161 0.023653572425246 0.009462173096836 -0.004496638663113 -0.037237919867039 -0.010436615906656 0.008635161444545 -0.023546408861876 0.003092661965638 0.000447405967861 -0.020096456632018 -0.006150542292744 0.004579031839967 -0.031262908130884 -0.008188564330339 -0.031151583418250 0.003111163154244 0.026125494390726 -0.023494603112340 0.006474056746811 -0.005997572094202 -0.020942399278283 0.009289790876210 -0.027838330715895 0.031723696738482 -0.007318088319153 0.027944754809141 0.030023336410522 0.091607451438904 -0.032589301466942 -0.035867933183908 0.020666712895036 -0.002453779103234 0.020172592252493 -0.014647242613137 -0.013997221365571 0.024042261764407 0.003492585150525 0.005880770739168 -0.037928529083729 0.032168619334698 0.011741216294467 0.004614085890353 0.042029943317175 -0.023279197514057 -0.010981671512127 0.008046543225646 -0.039269056171179 0.020882416516542 -0.024690562859178 -0.005794950760901 -0.022320015355945 0.037770029157400 -0.008153671398759 0.003381715621799 0.000183295895113 -0.016185030341148 0.015204466879368 0.004593632649630 0.023130455985665 0.006259226705879 -0.002623050706461 -0.040154110640287 -0.023856813088059 -0.029237981885672 -0.009576041251421 0.009577192366123 0.018704673275352 -0.031705528497696 0.021228916943073 -0.007878978736699 -0.020708750933409 -0.007204317953438 0.012476453557611 0.032104343175888 -0.021417360752821 0.014102830551565 -0.016654079779983 -0.017037276178598 -0.003264337545261 -0.061803374439478 0.003568507963791 -0.020036863163114 -0.037283822894096 0.010309439152479 0.018703911453485 0.037214718759060 -0.018786467611790 -0.019521519541740 -0.005809460766613 0.000480928167235 -0.021868297830224 -0.017583891749382 -0.002297986997291 -0.027992224320769 0.073563352227211 -0.010244430974126 -0.009008966386318 0.029670126736164 -0.017893437296152 -0.003808469977230 -0.001247686799616 0.006902484688908 -0.002769521903247
0.000370036403183 0.004014060366899 -0.031904026865959 -0.020268309861422 0.018197100609541 -0.023820728063583 0.011879063211381 -0.014365350827575 -0.025993717834353 0.014974906109273 0.035550281405449 0.011660525575280 -0.026835361495614 -0.018065117299557 0.000879969040398 -0.013116424903274 -0.011603949591517 0.002802850212902 -0.013900878839195 -0.024527153000236 -0.010834062471986 -0.030495364218950 0.025632873177528 -0.018361724913120 0.000523421156686 -0.024230306968093 -0.010251122526824 -0.004307050723583 -0.006364522967488 -0.021548619493842 -0.007123981136829 -0.015397849492729 0.001046699122526 -0.005595296155661 0.005279476288706 -0.006379535887390 -0.022166825830936 -0.031123574823141 0.011354978196323 0.030760204419494 -0.020165303722024 -0.023911643773317 -0.018448103219271 -0.005680742673576 -0.006476854439825 -0.003839508863166 -0.003828552318737 -0.006463899277151 0.008966012857854 -0.023070197552443 -0.023142008110881 -0.010295988060534 0.012403558008373 -0.032231338322163 -0.013042766600847 -0.011788308620453 -0.031031426042318 0.013482020236552 -0.002223221817985 -0.007249541115016 -0.000861145847011 -0.035470414906740 0.003447629511356 -0.005731259472668 -0.012942525558174 -0.021798711270094 -0.021649507805705 0.024751724675298 -0.005346376914531 -0.005634075962007 -0.017301214858890 -0.033752888441086 -0.042037252336740 0.005176943261176 0.004005721304566 -0.028810428455472 -0.005589496809989 -0.047198008745909 0.011894085444510 0.059667918831110 0.020740717649460 -0.023853221908212 0.009145585820079 -0.005218997597694 -0.006709771230817 0.051465738564730 -0.014023245312274 -0.005884449928999 -0.003907870501280 -0.009189954958856 0.012354956939816 -0.024931732565165 -0.004270938690752 -0.045780047774315 -0.012299589812756 -0.034011878073215 -0.042895644903183 0.024233803153038 -0.064757980406284 0.025542350485921 -0.003396379295737 0.029400993138552 -0.006187087856233 -0.002199403010309 -0.030407253652811 -0.010390462353826 -0.031787145882845 -0.009373934008181 0.022071665152907 0.041977699846029 0.011346843093634 -0.040411263704300 0.001464263768867 -0.014900608919561 -0.026221517473459 -0.036421373486519 -0.010779720731080 -0.017062505707145 -0.006673447787762 -0.009886055253446 -0.021702522411942 0.001451778458431 -0.016414772719145 -0.029195792973042 -0.010580647736788 -0.011391198262572 0.002236919477582 -0.010504389181733 -0.003306151134893 0.001644455478527 -0.028426459059119 0.001961878500879 0.006591019220650 -0.015777660533786 0.021560287103057 0.010510398074985 0.001771277398802 -0.028981426730752 -0.023920726031065 0.017827531322837 -0.002028696471825 0.041200023144484 -0.005200629122555 0.036038070917130 -0.028299862518907 -0.003335642395541 0.013042969629169 -0.017038792371750 -0.009991097263992 -0.015043409541249 -0.006197956390679 0.004670306108892 -0.034721020609140 0.022288268432021 0.017990848049521 -0.016848120838404 0.014339585788548 0.002385718747973 0.003017534967512 -0.018643662333488 -0.037492729723454 0.004947175271809 -0.022472610697150 -0.048871904611588 -0.022780619561672 -0.024738248437643 0.000279737869278 0.004310374148190 -0.030399952083826 0.009237435646355 0.049161434173584 -0.027048703283072 -0.017501898109913 0.019751943647861 -0.041151933372021 0.010533809661865 -0.046037223190069 -0.041538141667843 -0.015375553630292 -0.012021053582430 0.004907644353807 0.009179421700537 0.003278922755271 -0.026305733248591 -0.003547886852175 0.054741892963648 -0.005422877147794 -0.026050494983792 0.013999161310494 -0.043877925723791 -0.009516742080450 -0.015387925319374 -0.016584198921919 -0.010514469817281 -0.029231877997518 -0.034558810293674 0.000571795448195 -0.001217614044435 0.002580081345513 0.012613196857274 -0.043666101992130 0.022184457629919 0.016381887719035 -0.008658404462039 -0.035633895546198 -0.002578604500741 0.009929146617651 -0.011632588692009 -0.035183023661375 -0.005457899067551 -0.022916117683053 -0.004641851410270 0.000584751018323 0.007244137115777 0.009474117308855 0.014365208335221 -0.004089270718396 -0.000408393476391 -0.021144235506654 -0.014512458816171 -0.006175961811095 -0.000625270011369 -0.015689859166741 -0.013120857998729 -0.023044776171446 -0.020555103197694 -0.012796023860574 -0.018612863495946 -0.010715319775045 -0.027003915980458 -0.015454017557204 0.034550692886114 0.038928084075451 0.011638924479485 -0.008743670769036 -0.016062615439296 -0.012127174995840 -0.026046974584460 -0.000822604692075 0.000629055488389 -0.002759858267382 -0.001148208044469 -0.009748755954206 0.006547473371029 -0.011613628827035 0.034267161041498 0.021534224972129 -0.018457071855664 -0.014420073479414 0.025216622278094 -0.017539408057928 -0.019494554027915 -0.009059888310730 -0.011435418389738 -0.014989476650953 -0.011593288742006
0.032555721700191 -0.013274755328894 -0.019152741879225 -0.020591579377651 0.038349479436874 -0.023103412240744 -0.064324863255024 -0.002048381138593 0.008393663913012 -0.007658231072128 -0.024427831172943 -0.024544551968575 -0.020647097378969 -0.028888609260321 0.022581396624446 -0.014864424243569 0.004384500440210 -0.035722557455301 -0.013602009043097 -0.013486448675394 -0.006617476232350 0.002917699050158 -0.009797840379179 -0.006582976784557 -0.036537487059832 0.020387955009937 0.028952676802874 -0.011203470639884 -0.012547580525279 -0.038295470178127 0.001567660598084 -0.007784496527165 -0.032880447804928 0.058532100170851 -0.018383914604783 -0.008410912007093 -0.075232669711113 -0.024804312735796 -0.042099468410015 -0.017468148842454 -0.003647192148492 0.025500712916255 0.000603010703344 -0.006792939733714 -0.013830780051649 -0.014026442542672 0.009474734775722 0.020589826628566 0.016278212890029 0.001972448546439 -0.027608964592218 0.003127501579002 -0.030529513955116 0.035916775465012 0.081073507666588 0.002138191368431 -0.000424097117502 -0.002486562589183 -0.014202776364982 -0.005819703917950 -0.010228652507067 0.039128139615059 0.000218074274017 0.000771165825427 0.029463017359376 -0.006774442736059 0.040309231728315 0.030256250873208 0.039900649338961 0.046549059450626 0.028359899297357 -0.022239726036787 0.009532688185573 0.046034283936024 -0.003469735849649 0.034004755318165 -0.038411285728216 -0.014202576130629 0.017954707145691 0.013919786550105 0.001117884065025 0.010496496222913 -0.019852127879858 0.013056808151305 0.001312535488978 0.001606388366781 -0.014074560254812 0.002988451626152 0.006507153622806 0.049329727888107 0.026068499311805 0.017152268439531 0.013663155026734 0.011396172456443 -0.008371672593057 0.044102035462856 -0.051695838570595 -0.003521833568811 -0.021765671670437 -0.005152781028301 -0.031566709280014 0.015395403839648 0.016441503539681 0.038232333958149 0.007111574057490 -0.029555588960648 0.014947875402868 -0.014834609813988 0.078877441585064 -0.032663695514202 -0.023928957059979 0.027862979099154 0.005907337181270 0.012385121546686 -0.012462710961699 0.034950237721205 -0.033733278512955 -0.015514642931521 0.011167371645570 0.034744624048471 0.002955379663035 -0.003042293712497 -0.008155330084264 0.000880937848706 0.006316560320556 -0.056781247258186 -0.005259203724563 0.016145903617144 -0.015193589031696 -0.013248667120934 -0.023993400856853 -0.025509903207421 -0.010862112045288 -0.003859040094540 -0.001784452702850 -0.025107689201832 0.023935813456774 0.008622691966593 -0.012382860295475 -0.023691341280937 -0.009305942803621 -0.056926928460598 -0.013921865262091 0.011204129084945 0.011993110179901 -0.015466235578060 -0.021652970463037 0.047398071736097 -0.044078044593334 -0.000599362945650 0.059910725802183 -0.034971490502357 0.028951540589333 0.027142703533173 0.010196889750659 0.053935986012220 0.002389298984781 0.010697357356548 0.020051533356309 -0.030005743727088 -0.033842872828245 -0.012057266198099 0.010476599447429 -0.007334592752159 -0.049616347998381 0.016942402347922 0.000429685955169 0.012314746156335 -0.022527439519763 -0.022993411868811 0.055906493216753 0.016279218718410 -0.025481101125479 0.015133034437895 -0.007498542778194 -0.022179273888469 -0.032398790121078 -0.020389467477798 -0.022619869560003 -0.009432136081159 -0.013884117826819 0.015597509220243 0.087871789932251 0.014425908215344 0.026793163269758 -0.045489948242903 0.001727111288346 -0.016116537153721 -0.008497118949890 -0.011999851092696 -0.043921887874603 0.052653860300779 0.039679303765297 -0.012518784962595 0.005414885934442 0.011309976689517 -0.006219085771590 -0.054941002279520 -0.002245640382171 0.002487225690857 0.025816608220339 -0.038648448884487 0.021956020966172 0.052413750439882 -0.001355366432108 0.016850309446454 0.015380966477096 -0.032708261162043 -0.021238876506686 -0.000532156380359 0.004335673991591 0.014626429416239 -0.011605110950768 0.042582362890244 -0.008755978196859 -0.007546145003289 0.011241661384702 0.013755740597844 0.000707332626916 0.017587106674910 0.004581563174725 0.013847269117832 0.077868498861790 0.027542751282454 -0.007209351751953 -0.016423888504505 -0.015615790151060 -0.030066300183535 -0.024386903271079 0.020408276468515 0.019703540951014 0.000374887109501 0.011546025052667 -0.033632412552834 0.044928710907698 -0.023782640695572 -0.056402064859867 0.007359125651419 -0.004610524978489 0.020437262952328 -0.007959926500916 -0.020290011540055 0.003329068189487 -0.060326311737299 -0.006785468664020 -0.032020494341850 0.041133884340525 -0.007294518407434 -0.003867684863508 -0.000360129924957 -0.006686620414257 -0.005036673042923 0.000664489751216 -0.032846614718437 0.007606930565089 -0.011689650826156
-0.008157648146152 -0.034720413386822 -0.019993899390101 -0.019064245745540 0.026353774592280 -0.003193418495357 -0.009329310618341 -0.008864011615515 -0.006002939771861 0.050559308379889 0.004427499603480 -0.042629152536392 -0.012130540795624 -0.009913107380271 0.036731533706188 -0.024714296683669 -0.021647226065397 0.001397563493811 -0.001659593544900 0.007078279741108 -0.003049349645153 -0.017010787501931 -0.024662604555488 -0.006305722985417 -0.020117461681366 -0.025306859984994 -0.020517028868198 -0.001157989492640 -0.014958218671381 0.004290089011192 -0.044224914163351 0.041596602648497 -0.011485918425024 -0.015775324776769 0.046797759830952 -0.001502969651483 -0.001514011062682 -0.024175006896257 -0.010807082056999 0.026289258152246 -0.023729426786304 -0.019170004874468 0.027280891314149 -0.011647987179458 -0.015344310551882 -0.041666254401207 -0.000699357246049 -0.005326758138835 -0.015682013705373 -0.011437315493822 -0.024511853232980 -0.009543799795210 -0.019003218039870 -0.010882147587836 -0.006137245334685 -0.027240218594670 0.049106769263744 -0.041796900331974 0.014449547044933 0.002332595176995 -0.030056189745665 0.017977289855480 -0.036985076963902 0.003365700133145 0.004091386217624 0.000633634102996 -0.013816541060805 -0.020560024306178 -0.006558085791767 -0.022131903097034 -0.012170210480690 0.002117200521752 -0.012065599672496 -0.035695400089025 0.026590125635266 -0.037360709160566 -0.021099053323269 -0.036733478307724 0.005805741064250 -0.012350279837847 0.002477684058249 -0.018003869801760 -0.012950534932315 0.006843192968518 -0.012030717916787 -0.009230373427272 -0.007857733406126 -0.029217392206192 0.002893950324506 0.023735372349620 -0.007750748191029 -0.014711045660079 -0.010628396645188 0.006612833123654 -0.019830543547869 -0.031854473054409 -0.023326866328716 0.003053298220038 -0.017664875835180 0.003228080924600 -0.020396307110786 -0.016242351382971 -0.003883728990331 -0.015716198831797 -0.000536549254321 -0.009534720331430 -0.009381746873260 -0.037079624831676 -0.018180917948484 -0.029736973345280 -0.021045101806521 -0.017862359061837 -0.007886175997555 -0.012989483773708 -0.017321700230241 -0.021452182903886 -0.013879914768040 0.032313514500856 -0.018755167722702 -0.010204192250967 -0.028886131942272 -0.023382274433970 -0.016197228804231 -0.027282515540719 -0.014154848642647 -0.019043814390898 -0.016734903678298 0.012070606462657 -0.004663093481213 -0.000593186763581 0.008489889092743 -0.004817845765501 0.018141748383641 0.014593616127968 -0.017086066305637 -0.027954710647464 -0.019713880494237 -0.020935069769621 -0.027973748743534 0.001863344223239 0.003199994098395 0.022263577207923 0.011198305524886 0.050436794757843 -0.032225172966719 -0.026257311925292 -0.014077179133892 -0.009827553294599 0.008039701730013 -0.003037933493033 -0.014311839826405 -0.001048444421031 -0.017764065414667 -0.029836818575859 -0.008847181685269 -0.022577794268727 0.006413503549993 -0.029820285737514 -0.016174128279090 -0.001088950084522 0.012289805337787 -0.003170476062223 -0.045896433293819 0.045376397669315 -0.016113415360451 0.023661628365517 0.033899322152138 0.051718231290579 -0.000816360174213 -0.037393685430288 0.032017577439547 -0.024747567251325 -0.000344827101799 -0.031697541475296 -0.031709846109152 0.007500715088099 -0.013622822239995 -0.011271085590124 -0.030493911355734 0.003055214183405 -0.017321141436696 -0.029928743839264 -0.013972131535411 -0.012766500003636 0.008395460434258 -0.012133867479861 -0.011002583429217 -0.003924583550543 -0.021921064704657 -0.012659290805459 -0.021529691293836 -0.021605422720313 -0.015263094566762 0.005537994671613 -0.009554856456816 -0.000124428086565 -0.014700921252370 -0.027674419805408 0.002080879407004 -0.006419207435101 -0.011019197292626 0.060759004205465 -0.032502703368664 -0.025323033332825 -0.028324326500297 -0.015831228345633 0.005014344118536 0.067367151379585 0.002084429142997 -0.002138858195394 0.016336128115654 -0.031770136207342 -0.013401778414845 -0.013310249894857 -0.020574893802404 -0.054158944636583 -0.021769724786282 -0.062793873250484 -0.012734435498714 0.008290407247841 -0.013400404714048 -0.025436900556087 -0.004883331246674 -0.025970641523600 0.033719841390848 0.016309110447764 -0.005401958245784 -0.000315357669024 0.006055338308215 -0.034600805491209 0.000780042668339 -0.020974470302463 -0.026975201442838 -0.010131885297596 0.003335463348776 -0.022384149953723 0.007066372781992 -0.032013863325119 -0.006611957214773 -0.014497847296298 -0.017296304926276 -0.019962217658758 0.014143157750368 -0.004318205639720 0.008926396258175 -0.006409029010683 0.004760814830661 -0.049599733203650 -0.011726132594049 -0.025506019592285 0.007170223165303 -0.007431507110596 0.002400331432000 -0.034665673971176 -0.017389763146639 -0.010082932189107
0.001264393678866 -0.016466947272420 -0.020824264734983 -0.023192679509521 -0.015908636152744 0.003682784270495 -0.034470520913601 -0.001746767200530 -0.027076730504632 -0.013392653316259 -0.007587838452309 -0.065505176782608 -0.048816893249750 0.014146508648992 -0.016181129962206 -0.000677793344948 -0.040389113128185 0.025833830237389 -0.021056480705738 -0.010205695405602 -0.014732766896486 -0.010091100819409 0.008315192535520 0.027706392109394 0.009444145485759 -0.000050154187193 -0.009667410515249 -0.031287539750338 -0.011106699705124 -0.020551837980747 0.014857596717775 -0.002031243406236 -0.003510992741212 -0.034963022917509 -0.015537587925792 -0.005572699941695 -0.055004730820656 -0.009679827839136 -0.030050545930862 -0.033292613923550 -0.009303967468441 -0.007584782782942 0.007640441413969 -0.032973129302263 -0.053761985152960 -0.015737107023597 -0.033210113644600 -0.036054637283087 0.043309271335602 0.044915277510881 0.066256545484066 0.007443892303854 -0.024108245968819 -0.016673861071467 -0.019486298784614 -0.023929025977850 -0.002451446605846 -0.022315157577395 -0.012676922604442 0.042994901537895 -0.063791565597057 -0.047279182821512 -0.022655179724097 -0.020560689270496 -0.016786023974419 -0.028396217152476 -0.047217350453138 0.018398413434625 -0.016923692077398 -0.031366467475891 -0.007756542880088 -0.016330121085048 0.029414912685752 -0.002848817035556 -0.001363609801047 -0.015288292430341 -0.020936964079738 0.001003531273454 0.024970296770334 -0.034684266895056 0.056061800569296 0.003215017262846 -0.030569905415177 0.004228274337947 -0.019498871639371 0.003796105971560 -0.017161700874567 -0.006922998465598 0.042223718017340 -0.023544546216726 -0.035019144415855 0.039446055889130 -0.007557345088571 -0.041519265621901 -0.028566444292665 -0.002828472759575 -0.016381766647100 -0.024526132270694 -0.022264758124948 0.022397818043828 -0.025450352579355 -0.006330266594887 -0.020477946847677 -0.014207741245627 -0.020882638171315 0.001143433852121 0.012751838192344 -0.034916512668133 0.004362876992673 -0.004547652788460 0.015051943250000 -0.006309993565083 -0.036420401185751 -0.029837818816304 -0.046115841716528 -0.056784410029650 -0.020333288237453 -0.004906801972538 0.003552462905645 0.017074080184102 -0.009294043295085 -0.021268919110298 0.000147762504639 0.040410943329334 -0.006731498055160 0.002616259036586 -0.008808235637844 -0.007046191487461 0.027938425540924 0.030920093879104 0.041992783546448 -0.032457061111927 -0.015983853489161 0.013284390792251 -0.024908734485507 0.031868059188128 -0.056900352239609 -0.019546324387193 0.011957342736423 -0.010938532650471 -0.032129373401403 -0.009785830974579 0.025259681046009 -0.031053438782692 -0.039792194962502 -0.009310626424849 0.007259405218065 -0.003793843323365 -0.025451870635152 -0.001344577991404 0.058694984763861 0.011748616583645 0.025847509503365 0.003399993060157 0.013018275611103 0.046857427805662 -0.017009254544973 0.005532229319215 -0.022549184039235 0.004591142758727 -0.017188550904393 0.026678616181016 0.007766264956445 -0.041444391012192 0.000698581221513 -0.030121797695756 -0.002694680821151 -0.021804269403219 0.005099305883050 0.010569110512733 -0.003336991881952 -0.017070071771741 -0.017010014504194 -0.033429924398661 -0.016906855627894 -0.014950506389141 -0.012212073430419 -0.010491360910237 -0.009559292346239 0.031665772199631 -0.001959116198123 0.013976331800222 -0.038057863712311 -0.027000920847058 0.017542818561196 -0.014944339171052 0.004157920833677 0.000836528663058 -0.013905878178775 -0.018971642479300 0.003480848157778 -0.040453463792801 -0.020015416666865 0.013273032382131 -0.002719850279391 -0.035094618797302 -0.039399519562721 -0.006708049215376 -0.011867566034198 0.006396435666829 0.009558007121086 -0.031371951103210 -0.036967437714338 0.039091713726521 0.047280155122280 -0.018281713128090 -0.005920936353505 0.036909006536007 -0.017227610573173 0.000660554971546 0.003588922088966 -0.019884329289198 -0.001869391649961 0.020388996228576 -0.058429490774870 -0.013719180598855 -0.009629177860916 -0.008660322055221 -0.030848307535052 0.056086458265781 -0.025194173678756 -0.031977329403162 0.086842387914658 -0.020092319697142 -0.001270769396797 -0.001123562804423 0.035279907286167 -0.015671351924539 -0.024983275681734 -0.005250554997474 -0.026210105046630 -0.010467011481524 -0.039971046149731 -0.033603124320507 -0.012016442604363 -0.034140385687351 0.060493629425764 -0.024128371849656 -0.043817114084959 -0.025447538122535 -0.028721204027534 0.007596882525831 0.003252634778619 -0.021823568269610 -0.056794054806232 0.050305005162954 -0.020502699539065 -0.000997991999611 0.011132657527924 0.027749221771955 -0.020116910338402 -0.034600839018822 -0.010167300701141 -0.028806593269110 -0.010659264400601 0.026938017457724
0.015971504151821 -0.002772125182673 -0.009354009293020 -0.010065766982734 -0.009014564566314 -0.004636554513127 -0.022060573101044 -0.010666557587683 -0.029099622741342 0.008577997796237 -0.009608631953597 -0.019526511430740 0.006026588845998 -0.005737461149693 0.000275449303444 0.005787987727672 -0.033112745732069 0.016796465963125 -0.027236025780439 0.012112077325583 -0.047079954296350 -0.027448887005448 0.007310014683753 0.001825980027206 0.003047213656828 0.002179439878091 -0.001512027462013 -0.028353177011013 -0.025897972285748 -0.035926796495914 -0.025376962497830 -0.016654826700687 -0.021197842434049 0.002681343816221 -0.011716724373400 -0.021609444171190 -0.014880695380270 -0.014362651854753 -0.014429462142289 -0.008945694193244 -0.003711960045621 0.026489330455661 0.000750693550799 -0.013733494095504 0.007873834110796 -0.007895057089627 -0.010761058889329 -0.010770197026432 -0.001363076269627 -0.004213219042867 -0.039399147033691 0.014162310399115 0.008884433656931 0.004517392255366 -0.016144791617990 -0.016037100926042 0.017605202272534 0.009952679276466 -0.001872755587101 0.004646160174161 -0.027833754196763 -0.019750690087676 -0.022217324003577 -0.001101778703742 -0.012655890546739 -0.038353051990271 -0.043763075023890 0.032597523182631 0.000966484250966 0.007931127212942 0.002647060668096 -0.005840152036399 -0.019148018211126 -0.006707273423672 0.031308941543102 -0.015120549127460 -0.011708994396031 -0.008126193657517 -0.001912153209560 0.042006906121969 -0.009785938076675 -0.027147233486176 -0.042396690696478 -0.000206213342608 -0.036009807139635 0.034616217017174 -0.011141370981932 0.027930010110140 0.004778496455401 -0.002645461820066 0.020810013636947 -0.028642466291785 -0.017934989184141 0.032078061252832 0.014844588935375 -0.007448549848050 -0.041634641587734 0.033662602305412 0.009322830475867 0.003689436940476 -0.019295997917652 0.029060421511531 -0.004643510561436 -0.027444384992123 -0.036726236343384 -0.013324710540473 -0.037148486822844 -0.012563860975206 -0.010130295529962 0.016522211953998 -0.014558933675289 -0.009781068190932 -0.026285316795111 -0.026293430477381 -0.013044653460383 -0.017874376848340 -0.008146301843226 0.026680212467909 -0.015517418272793 -0.013582987710834 0.012192368507385 -0.023854343220592 0.019055271521211 -0.036027815192938 -0.032027352601290 -0.009754348546267 -0.009686678647995 -0.027078585699201 -0.013275542296469 0.009194771759212 0.011105633340776 -0.021525859832764 -0.027927700430155 -0.031259439885616 -0.008764008991420 -0.033128663897514 0.002024036599323 -0.018720963969827 -0.013258536346257 -0.006012678612024 0.006628561764956 -0.015888867899776 -0.020804373547435 0.010452063754201 0.007672993931919 -0.016254829242826 0.006779701914638 0.014337887056172 -0.023574372753501 -0.036680575460196 -0.001802861224860 -0.019753003492951 -0.001438756939024 0.020680749788880 -0.000128201514599 -0.010822471231222 0.053585354238749 -0.002670720219612 -0.028868364170194 -0.015266101807356 -0.031147969886661 -0.000790348160081 0.012358130887151 -0.028154693543911 -0.010638063773513 0.040984708815813 0.006457374431193 -0.001024040975608 -0.013591018505394 -0.014148814603686 0.016875432804227 -0.015858726575971 -0.006011490244418 -0.009461820125580 -0.022960737347603 0.032602421939373 -0.030530760064721 -0.014241850934923 -0.004611594602466 -0.008653695695102 0.023892791941762 0.004845719784498 -0.024302178993821 -0.023983361199498 -0.009441155008972 -0.036821428686380 -0.036880683153868 -0.001453673117794 0.001780483638868 -0.014848072081804 -0.011195779778063 0.021757623180747 -0.010667043738067 -0.005143367685378 -0.009010824374855 -0.026017766445875 -0.019511850550771 0.002410932909697 0.002040459774435 0.040743537247181 -0.031648598611355 -0.012124389410019 -0.006138980388641 -0.008392340503633 -0.002825441071764 0.007773672230542 -0.028300458565354 0.016277078539133 -0.023128431290388 -0.007033303845674 -0.009768851101398 -0.036856677383184 -0.009459554217756 -0.009216252714396 -0.045428730547428 -0.026147281751037 -0.006761196069419 0.068961776793003 0.000965259154327 -0.022985490038991 -0.025719521567225 0.002473639789969 0.033969804644585 0.017179293558002 -0.017336681485176 -0.012583762407303 0.011383302509785 -0.027320666238666 -0.010708437301219 -0.008292273618281 -0.015958072617650 -0.031690564006567 0.035487137734890 -0.008613386191428 -0.030016772449017 0.005960096139461 -0.007992475293577 -0.025391198694706 -0.021099913865328 -0.023032996803522 -0.020714690908790 0.010726862587035 -0.015762750059366 0.007823249325156 -0.003846519161016 -0.021265663206577 0.003071230836213 -0.028206801041961 -0.006020903587341 0.022204756736755 0.013607104308903 -0.006842706352472 0.061040852218866 0.008252331055701 -0.022926457226276 -0.006300692912191
0.006333901546896 -0.037958610802889 -0.018919698894024 -0.028661532327533 -0.072801254689693 0.011464134790003 -0.014695564284921 -0.065596483647823 -0.008446828462183 -0.045901063829660 -0.017816742882133 0.008914075791836 0.040316730737686 0.001238494878635 -0.053889825940132 0.005928601138294 -0.019699860364199 -0.012655664235353 0.014268979430199 -0.009619430638850 -0.001489568152465 -0.003710004268214 0.013862080872059 -0.067622616887093 -0.024492146447301 0.069181360304356 -0.048618972301483 0.003778666723520 0.008549698628485 -0.001495562493801 0.084186993539333 -0.013572131283581 -0.007942613214254 -0.009314730763435 0.106743730604649 0.000317965896102 0.043315857648849 0.039714183658361 0.075786881148815 0.052793309092522 -0.030424164608121 -0.019413026049733 -0.036372143775225 0.072949938476086 -0.011670659296215 -0.023253746330738 0.038233596831560 0.010294300504029 -0.004673451650888 0.057407923042774 -0.017842182889581 0.012498328462243 -0.037777900695801 -0.019514625892043 0.029418313875794 0.044998135417700 -0.057684019207954 0.007885164581239 0.001092183869332 -0.030467001721263 0.049251217395067 -0.020036177709699 -0.009345791302621 0.033053193241358 0.038956660777330 0.010105151683092 0.020757580175996 0.005574777722359 0.005131768994033 0.050839029252529 0.076260901987553 0.042668577283621 -0.017288211733103 -0.032133787870407 0.007075575180352 0.025501837953925 -0.049286603927612 -0.051250137388706 0.013309082016349 0.031148688867688 0.055175129324198 0.061969246715307 -0.036716602742672 0.030535727739334 0.057728484272957 0.013245577923954 -0.017253655940294 -0.026356916874647 -0.005028722342104 0.045779194682837 0.035045016556978 -0.016005061566830 0.064168862998486 0.006094959564507 -0.050159383565187 -0.050102129578590 -0.031566292047501 -0.034655522555113 0.014279024675488 -0.033489868044853 0.010722328908741 0.044760335236788 -0.062575727701187 -0.069371283054352 -0.025933230295777 0.031693242490292 -0.024499353021383 -0.019073110073805 -0.032725002616644 -0.002888696733862 -0.030096592381597 -0.007693779654801 0.035472437739372 -0.011096962727606 0.013000915758312 -0.024767145514488 0.037074062973261 -0.099036768078804 0.031528819352388 0.052698720246553 -0.003962607122958 0.015215316787362 0.043116364628077 0.009019634686410 -0.021837621927261 0.000377289456083 -0.003745202207938 0.019031399860978 0.009106223471463 -0.034429561346769 0.076310910284519 -0.018715310841799 -0.019440917298198 -0.015413005836308 -0.027883840724826 -0.001256200717762 0.030706683173776 -0.062266148626804 -0.004816766362637 0.036199163645506 -0.020024586468935 -0.028988679870963 0.001290547777899 -0.046123530715704 0.001894732587971 -0.027405571192503 -0.024514043703675 -0.018778257071972 0.000803615082987 -0.073010250926018 0.024025531485677 -0.003912768326700 -0.080771319568157 -0.041410766541958 -0.029413513839245 -0.076745793223381 -0.008489159867167 -0.003090842626989 -0.011551552452147 0.037227358669043 0.101064451038837 -0.038244940340519 0.024093208834529 0.008624909445643 -0.034852325916290 -0.037398934364319 -0.017381902784109 -0.080953031778336 0.030423911288381 -0.010494510643184 0.024303939193487 0.013136762194335 -0.004570320248604 0.041362073272467 0.002298893639818 -0.037259131669998 -0.001033550361171 -0.079685539007187 -0.017921175807714 0.042471043765545 0.020967997610569 0.022534299641848 -0.030330913141370 -0.062155522406101 0.069907054305077 -0.041573055088520 0.013587440364063 -0.014067563228309 -0.143070399761200 -0.060221109539270 0.030228218063712 -0.032832007855177 0.035309966653585 -0.043833840638399 -0.005739568267018 0.071701928973198 0.000724479672499 0.018371021375060 0.010361747816205 0.008986675180495 0.068373464047909 -0.001360485795885 -0.067773729562759 0.008694941177964 0.026832738891244 0.003660080954432 0.018694354221225 0.013005918823183 0.047972984611988 0.024243468418717 0.031763598322868 -0.023490937426686 -0.031326036900282 0.040851514786482 0.000336929864716 -0.000774668704253 -0.053625889122486 -0.004985846579075 -0.085471451282501 0.030493453145027 -0.020474463701248 -0.006674981676042 -0.015580466017127 -0.006074979901314 -0.080094836652279 -0.046330068260431 -0.045713223516941 0.034058246761560 0.052008360624313 -0.034082535654306 0.035132609307766 0.006779691670090 0.029214480891824 0.044600263237953 -0.028568297624588 -0.031369335949421 0.060797058045864 -0.013799339532852 -0.029722034931183 -0.085985444486141 0.005830101668835 -0.049684815108776 -0.037970818579197 0.040005084127188 -0.081857800483704 0.050705391913652 -0.075065717101097 -0.000135302179842 -0.016727894544601 0.020646635442972 -0.008786900900304 0.016528552398086 0.063120633363724 0.021002793684602 0.068205095827579 0.068310476839542
-0.014714940451086 -0.050407212227583 -0.052934169769287 0.022326996549964 -0.040250804275274 -0.024078980088234 0.016334947198629 -0.050651896744967 0.045766141265631 -0.023341327905655 0.016285868361592 -0.013346713967621 -0.007337788585573 -0.001442412380129 0.002998729236424 -0.016463421285152 0.002533914055675 0.021968748420477 0.041160147637129 -0.026017187163234 -0.007880704477429 -0.030440613627434 -0.014523716643453 -0.042231906205416 0.038176652044058 -0.002246184041724 0.042166668921709 -0.014164694584906 -0.019329164177179 -0.028650633990765 -0.043541707098484 -0.021430833265185 0.046225126832724 0.057589456439018 -0.023587359115481 -0.001484844600782 -0.021766547113657 -0.001907503348775 -0.033536665141582 -0.058493070304394 -0.030577765777707 0.008760953322053 -0.009571090340614 -0.004415038973093 0.019979562610388 -0.032695639878511 0.019958021119237 -0.011051787063479 0.000937292119488 0.043239008635283 0.034693382680416 0.035384021699429 -0.021008731797338 0.021772056818008 0.000732915883418 -0.021239243447781 -0.006480572745204 0.016765452921391 -0.033918365836143 0.030599704012275 -0.050415139645338 0.010741406120360 -0.034647028893232 -0.002428579144180 -0.006634503602982 -0.008266591466963 0.003726739902049 -0.014726054854691 -0.001900186878629 0.049652457237244 0.028337445110083 -0.007347167469561 -0.025734975934029 -0.041582733392715 -0.016905335709453 0.024290475994349 -0.053641662001610 0.000468469370389 0.059600472450256 0.003872727509588 -0.029298471286893 -0.047630764544010 -0.006671992596239 0.029074983671308 -0.021746825426817 -0.002090267604217 -0.050486247986555 -0.066198989748955 0.027375787496567 0.019712187349796 -0.019599672406912 0.074822060763836 0.031456917524338 -0.027184659615159 -0.025909097865224 -0.023104326799512 0.007774266414344 0.029002072289586 -0.041807867586613 0.017337962985039 -0.012427651323378 0.002164670499042 0.004790732171386 -0.033365461975336 0.056188449263573 -0.025190331041813 -0.024387134239078 0.006560894660652 -0.006471884436905 -0.008002422749996 -0.043342750519514 0.000413840607507 0.002237178618088 -0.008756409399211 0.043638616800308 0.018842015415430 -0.014701744541526 0.024609768763185 -0.029754802584648 -0.022486522793770 -0.012031298130751 -0.031852312386036 -0.010733834467828 0.007490094751120 0.017325725406408 -0.009257544763386 -0.032328516244888 -0.018085667863488 0.005549057386816 -0.076504297554493 0.030443673953414 -0.027878424152732 -0.022647999227047 -0.046663485467434 -0.016431648284197 0.067320607602596 0.000225247509661 0.050708986818790 0.062871575355530 -0.042175717651844 0.033731151372194 -0.014279675669968 0.026518102735281 -0.073278121650219 -0.000453570362879 0.014344113878906 0.025766618549824 -0.004461789969355 -0.027064034715295 -0.044730477035046 0.013952658511698 0.012948256917298 0.002379842102528 -0.002283517969772 -0.032402470707893 -0.013901828788221 -0.034912344068289 0.021670637652278 0.002475720131770 0.048740725964308 -0.001166906789877 -0.016322532668710 -0.009962022304535 0.048321980983019 0.021306151524186 -0.020303772762418 0.003069570055231 -0.004005952272564 0.027727702632546 -0.029496638104320 -0.046547587960958 -0.044613584876060 -0.030384153127670 0.029548455029726 0.006939284037799 0.004542023409158 -0.021175395697355 -0.011373101733625 -0.003644046140835 0.032216284424067 -0.002272015903145 0.018122127279639 -0.007175339385867 0.035524934530258 0.032818999141455 -0.022961838170886 0.013772433623672 0.017324881628156 -0.031275466084480 0.005814683157951 0.006452627480030 -0.041772358119488 -0.043047528713942 0.051408234983683 0.053155113011599 -0.023401631042361 -0.005526099354029 -0.007457732688636 -0.012038350105286 0.007085023913532 -0.051512070000172 -0.046120133250952 -0.038099464029074 0.000365728192264 0.023993436247110 -0.028241559863091 -0.049863968044519 -0.027500258758664 -0.020009003579617 0.069834768772125 -0.011639721691608 -0.022020382806659 0.011491366662085 -0.014863632619381 -0.000058022782468 -0.018429927527905 -0.042375303804874 -0.051181934773922 0.059155013412237 0.013530896045268 -0.030448202043772 -0.026213305070996 0.027373656630516 -0.008399809710681 -0.033370036631823 -0.044949408620596 0.006255517713726 -0.057810202240944 -0.011571062728763 0.006061755120754 -0.007829989306629 -0.042197823524475 0.024542594328523 -0.021216178312898 0.016652865335345 0.007390691433102 -0.008813684806228 0.019478481262922 -0.020152483135462 0.015476644039154 -0.002744700293988 -0.027654621750116 -0.005090134218335 0.007833636365831 0.022440217435360 -0.080159865319729 -0.035841051489115 -0.031571939587593 0.061385925859213 -0.032030645757914 0.003282242920250 -0.000390738015994 0.002861223649234 -0.016492312774062 -0.005025327671319 0.045590698719025
