-0.015047231689095 -0.011884936131537 -0.003283127676696 0.003168468130752 -0.021464163437486 -0.015721915289760 -0.026590427383780 0.001086913631298 0.006192749831825 -0.013055414892733 -0.019702555611730 -0.010059420950711 -0.006339186802506 0.001076148007996 0.025516862049699 -0.015792794525623 0.027712546288967 -0.017158137634397 0.010041304863989 0.002129490254447 -0.021127251908183 0.060832165181637 -0.004029016010463 -0.008130552247167 -0.022410785779357 -0.008433492854238 -0.014462040737271 0.001238113036379 0.028570486232638 -0.021260173991323 0.012864553369582 -0.001070758793503 0.011141492053866 -0.025383003056049 -0.007762522436678 0.002870611613616 -0.001041053561494 0.000521693145856 0.000578195264097 -0.019990935921669 -0.026838548481464 -0.014155493117869 -0.012389472685754 -0.008116954006255 -0.049292899668217 -0.011246809735894 -0.017703216522932 -0.057973116636276 -0.008529420010746 -0.019062554463744 -0.056589484214783 0.000197895773454 0.016745772212744 0.003212815383449 0.013600374571979 0.004194694571197 -0.025763403624296 -0.031658671796322 -0.015128824859858 -0.021347779780626 -0.006926350295544 -0.027284070849419 0.002573999343440 -0.009017722681165 -0.014655848033726 -0.024705270305276 -0.006886626593769 -0.021008836105466 -0.005737071391195 -0.002499305410311 -0.004140661098063 -0.020557502284646 -0.021293975412846 -0.025088956579566 0.010961901396513 -0.020543308928609 -0.010851270519197 -0.011973907239735 -0.017780201509595 0.000443737953901 -0.004102448932827 -0.003764932742342 -0.003879901720211 -0.012569181621075 0.055449038743973 0.002971227746457 -0.020002052187920 -0.005289902444929 -0.021194782108068 -0.031634647399187 -0.004487028345466 -0.025774713605642 0.003784618573263 -0.002550799399614 0.005484002642334 -0.006659585516900 -0.013710114173591 -0.020047491416335 0.002458933740854 0.003991140052676 -0.022372649982572 0.001214129733853 0.001846836414188 -0.020636076107621 0.004125997424126 -0.007674118038267 -0.010257401503623 -0.035679355263710 -0.004781860858202 0.013556157238781 0.003920284565538 0.008955507539213 -0.000205663003726 0.013734978623688 -0.008304081857204 0.005465593654662 -0.009388701990247 0.006536895409226 -0.011297065764666 0.011211615055799 -0.034351922571659 0.002714686794207 -0.012851390987635 0.003489342750981 -0.002902859589085 0.012161730788648 -0.030637089163065 0.013341424986720
-0.004303571768105 -0.006501891650259 0.033847086131573 0.012667947448790 0.000486255070427 -0.015681743621826 -0.016788067296147 0.006953034084290 0.001093823695555 0.004766760859638 0.002132174558938 -0.006137943826616 0.013461388647556 0.034883223474026 0.006161968689412 0.009132516570389 0.012333909049630 0.002372933551669 -0.015744535252452 -0.001735794590786 0.015211119316518 -0.028142156079412 0.017054686322808 0.004815924912691 0.038338188081980 0.023257464170456 -0.002175603061914 0.001518054865301 -0.010074803605676 0.002424864564091 0.031897526234388 0.006785047706217 -0.021391620859504 -0.008256357163191 0.001133567187935 0.032751064747572 0.008407390676439 0.003408488584682 0.025955174118280 -0.014437489211559 -0.032146338373423 0.011178079061210 -0.025699995458126 0.013089782558382 0.026332460343838 0.000372075126506 0.003420823952183 -0.012445086613297 -0.000628472829703 -0.003301875200123 0.009649795480072 -0.021394098177552 0.009210315532982 0.037770655006170 -0.016037188470364 -0.001594198751263 -0.006552055478096 0.029554517939687 -0.010254027321935 0.005173095501959 0.005651925224811 0.022834030911326 0.022965304553509 0.000772246450651 -0.000324941735016 0.032747317105532 -0.025500139221549 0.014582980424166 -0.006281665991992 -0.009287095628679 0.003396067302674 -0.012235070578754 0.018564647063613 -0.002862666733563 -0.007565123960376 0.007664991077036 -0.026926489546895 0.000108657630335 0.011891978792846 0.006562294438481 -0.002275443635881 0.018028456717730 -0.009951500222087 0.015525205992162 0.021342853084207 0.000777797074988 0.023998195305467 0.008513878099620 0.018218571320176 0.020331447944045 0.003188449889421 0.042929939925671 0.004467597696930 0.026941081508994 -0.012797876261175 -0.023793106898665 0.008579518646002 0.012493829242885 0.004104318097234 -0.001792679540813 -0.004972929134965 -0.002255007391796 -0.002898517297581 0.010564750060439 -0.029906081035733 -0.026712516322732 -0.044882237911224 0.034300886094570 -0.000880982261151 0.001712343655527 -0.000414467882365 -0.014087914489210 0.017329497262836 -0.046405822038651 0.018898507580161 0.006392705719918 -0.003799268044531 -0.000154672219651 -0.000173703971086 -0.005167382303625 0.015058152377605 -0.041668735444546 0.002364367246628 0.007838451303542 0.000717234157491 0.003729042131454 0.013788075186312 0.016522152349353
-0.006329929456115 0.001970035023987 -0.031590845435858 -0.003277692943811 -0.021404424682260 0.004790190607309 0.007211628835648 -0.006577518302947 -0.048455897718668 0.013476936146617 -0.015727654099464 0.005764236673713 -0.021843088790774 -0.052398752421141 -0.010694341734052 -0.009395810775459 -0.010352229699492 -0.002283524489030 0.006435247138143 -0.021280879154801 -0.025375753641129 0.018269654363394 -0.023946287110448 -0.006610726937652 -0.019385343417525 -0.004503225442022 0.045837230980396 -0.006808109115809 -0.017010649666190 -0.007109368685633 -0.026547759771347 -0.010336433537304 -0.016451852396131 -0.020227264612913 -0.003188247326761 -0.059465941041708 -0.003219931619242 -0.008911862969398 -0.028092995285988 0.021557267755270 0.031018098816276 -0.014824483543634 0.008276400156319 -0.023754898458719 0.012768926098943 -0.003393916878849 0.000081889324065 0.006096418946981 0.004960043355823 -0.008537205867469 0.022260086610913 0.000785497773904 -0.042506601661444 -0.039600986987352 0.000946636660956 0.003508306108415 -0.014937350526452 -0.002828812226653 -0.018648272380233 -0.017748413607478 -0.000771220773458 -0.031534850597382 -0.028240153566003 0.001880171825178 0.000957262818702 -0.006169954780489 0.003764006076381 0.024118244647980 0.009780662134290 -0.003682987531647 -0.005198233295232 0.004340751096606 -0.009799986146390 0.046862605959177 -0.013710193336010 -0.000762984505855 0.022601524367929 0.021619282662868 -0.014177509583533 -0.005710728000849 0.006236087996513 -0.032904420047998 0.014412683434784 -0.016007814556360 0.001333756954409 -0.007599550299346 -0.010042720474303 -0.008244296535850 0.003534991294146 -0.002056663855910 -0.011567807756364 -0.004048275761306 0.003428945085034 -0.027887543663383 -0.004163364879787 -0.007571114227176 -0.001260155579075 0.006078943610191 -0.010999246500432 0.012985949404538 -0.024970857426524 0.015833673998713 -0.000465777964564 -0.021311145275831 0.004407488740981 0.007581059355289 0.040940817445517 0.026986395940185 -0.005865624174476 0.018677853047848 -0.014005604200065 0.008324873633683 -0.014245705679059 -0.011462694033980 0.018332341685891 0.001104179071262 -0.000173865992110 -0.000147916405695 0.007395026274025 -0.014587077312171 -0.021371049806476 0.008302516303957 -0.007569628302008 0.034337233752012 0.008581108413637 -0.010454243980348 -0.016570014879107 -0.022685600444674
