-0.002613226184621 -0.004922605585307 0.010590347461402 -0.008078034967184 -0.001153302146122 -0.028325758874416 0.004390189889818 0.012809971347451 -0.002225813688710 -0.013741565868258 -0.051137030124664 0.025144550949335 -0.009627852588892 -0.007656373549253 -0.016555292531848 0.014145575463772 0.008836733177304 -0.004230060614645 -0.037683803588152 0.028982495889068 0.023089166730642 -0.003954864107072 -0.000662244216073 0.006248971447349 -0.013405678793788 -0.027687676250935 -0.013892688788474 0.028233613818884 0.019588615745306 0.000666156003717 -0.002171745756641 -0.012091461569071 0.012382102198899 -0.043714683502913 -0.000347659661202 -0.007631510496140 0.009746889583766 -0.031001046299934 -0.024020697921515 0.030679417774081 0.017859179526567 0.007927287369967 -0.050524860620499 -0.017143858596683 0.020272130146623 0.002586944494396 -0.036172166466713 -0.021860690787435 0.005094538908452 0.011337882839143 -0.007817918434739 0.021651200950146 0.018896069377661 0.025754401460290 -0.016633540391922 0.007148981094360 -0.003837862750515 -0.017645549029112 0.029773902148008 -0.031007515266538 -0.053065825253725 0.012848258949816 0.015132578089833 0.023017516359687 -0.002137759001926 0.000591442862060 0.014599322341383 -0.035637568682432 -0.027642961591482 -0.001256591291167 0.006319058127701 -0.003393608843908 -0.015375438146293 0.025661906227469 -0.004610884469002 -0.006592338904738 -0.015514180995524 0.004126043990254 0.026728449389338 0.014061293564737 -0.017734210938215 0.010994859971106 -0.028944870457053 0.017907949164510 0.026617206633091 0.004477452021092 0.015580799430609 0.000447265192633 0.007244875188917 -0.023732388392091 0.013447226956487 0.011187959462404 0.005108858924359 0.010173504240811 0.013009488582611 -0.041915453970432 0.014998304657638 -0.028743723407388 0.009802998974919 -0.052991624921560 0.020622896030545 0.021618682891130 -0.003192929085344 0.016830306500196 -0.037525568157434 0.003987164236605 -0.011306186206639 0.052946891635656 -0.017044151201844 0.009400271810591 -0.010330702178180 0.015559148043394 -0.012652076780796 -0.007265472318977 0.018086729571223 -0.003386199939996 0.019021747633815 -0.025054108351469 -0.019319027662277 -0.003335218643770 -0.008428948931396 0.043338052928448 -0.003379352623597 0.006778268143535 0.017333909869194 0.004380363505334 -0.011135973967612 0.025347175076604
0.017551429569721 -0.025328151881695 -0.004805010277778 0.031137827783823 0.023403899744153 -0.011783662252128 0.027914242818952 0.014710204675794 0.014924640767276 0.002084320411086 0.008453066460788 -0.027129469439387 -0.055756211280823 0.007369535509497 0.008956547826529 0.013641745783389 -0.025258766487241 0.046131689101458 -0.012090552598238 -0.012005068361759 -0.051499780267477 -0.042015474289656 0.042573701590300 -0.012515154667199 -0.009258077479899 0.008294083178043 0.015573470853269 -0.015488749369979 -0.008868214674294 0.005129916593432 0.044404733926058 0.003508965950459 -0.016422554850578 -0.008103381842375 -0.012639912776649 0.109168983995914 0.049486409872770 -0.005762292072177 0.033444464206696 0.004092657007277 -0.002638498088345 -0.016678579151630 -0.030743494629860 0.008871944621205 0.023622535169125 0.042241916060448 0.001623025746085 -0.000379347096896 0.000799936358817 0.014218662865460 -0.037955496460199 -0.032875347882509 -0.039920192211866 -0.070085532963276 0.006099487654865 -0.027234777808189 0.021857721731067 -0.005676844622940 -0.010060133412480 0.017332253977656 0.029965888708830 -0.010852728039026 -0.037279523909092 -0.040194060653448 -0.032741997390985 -0.001589564024471 0.028259921818972 0.014437485486269 0.019199637696147 -0.027134282514453 -0.004383226856589 0.021646231412888 0.005142499227077 -0.048956796526909 0.048321865499020 0.017130108550191 -0.006094503216445 -0.012564142234623 0.000900513550732 -0.044731877744198 -0.007531560491771 -0.018246304243803 -0.009367535822093 0.051350980997086 -0.048418950289488 -0.002476055175066 0.025199921801686 -0.008659358136356 0.045502327382565 0.015999531373382 -0.029893774539232 -0.012637392617762 -0.014063236303627 -0.037889733910561 -0.030184071511030 0.010289888828993 -0.016590291634202 0.016638644039631 0.018447961658239 -0.025072822347283 0.028281094506383 -0.064697332680225 -0.009621408767998 -0.021357651799917 0.017237281426787 0.006639628671110 0.036380238831043 -0.027615547180176 0.020741205662489 -0.024455109611154 -0.007976727560163 -0.033625870943069 -0.038273900747299 0.013153453357518 0.043564632534981 -0.010729012079537 -0.026922598481178 -0.038318507373333 0.017261311411858 -0.039215046912432 -0.024166464805603 -0.066457614302635 -0.027943361550570 -0.016872014850378 -0.029524810612202 -0.058559168130159 0.014609890058637 -0.032800041139126
-0.010286366567016 -0.005070643499494 0.002931575523689 0.003914406057447 0.003068388905376 -0.010919997468591 -0.010364315472543 -0.008660832419991 0.013592611998320 -0.032289270311594 0.034066926687956 -0.010714055970311 -0.005530362017453 0.015238099731505 -0.012387333437800 0.006247272249311 -0.026576321572065 -0.011707464233041 -0.021442610770464 0.010090175084770 0.035582657903433 0.056358400732279 0.046040996909142 -0.022424511611462 0.039849780499935 0.020374409854412 -0.024626107886434 -0.037340793758631 -0.016981119289994 -0.002714545233175 -0.044990185648203 0.020808925852180 -0.032635282725096 0.003331728745252 -0.044233109802008 -0.045492026954889 -0.047025743871927 0.017916979268193 -0.030564555898309 -0.008838266134262 -0.017481841146946 -0.001773974276148 0.018981454893947 0.001003301586024 -0.048900138586760 0.000573477591388 0.023146349936724 0.038194354623556 0.020353076979518 0.029001848772168 -0.005025773774832 -0.033083837479353 0.059569850564003 0.058592516928911 -0.009784691967070 -0.010305657982826 0.002977419178933 0.010150321759284 -0.023187238723040 0.028898356482387 0.019860588014126 0.012040759436786 -0.016927564516664 -0.027641177177429 -0.010130817070603 -0.006734268739820 -0.011851659975946 0.004533004481345 0.008558782748878 0.008337507955730 -0.029999421909451 0.009915918111801 0.006919109728187 0.024672361090779 -0.009804520756006 -0.002056758385152 -0.010174431838095 -0.018325243145227 -0.034557677805424 0.013140350580215 -0.044322215020657 0.007069471292198 0.017380870878696 -0.028852403163910 -0.019067576155066 0.004719524178654 0.054875325411558 -0.015795839950442 -0.025390576571226 0.005355326458812 0.007983980700374 -0.027954878285527 -0.028716281056404 -0.005978282541037 0.058872573077679 0.005534256808460 -0.039065439254045 0.002035324228927 -0.003414531936869 0.053932581096888 -0.034327059984207 -0.011865705251694 -0.016851721331477 0.050730939954519 -0.034950315952301 0.011338792741299 -0.041447918862104 0.018128614872694 -0.001986293587834 0.002946041058749 0.012155329808593 -0.020299170166254 0.036540064960718 0.005146311596036 -0.007434336002916 0.029308261349797 -0.023329913616180 -0.010547115467489 -0.013476639054716 0.008562522009015 -0.010261547751725 0.057489059865475 -0.009913900867105 -0.029542308300734 -0.014166915789247 -0.017146306112409 -0.005994632374495 0.001939798705280
