-0.060364063829184 -0.048177096992731 -0.049582134932280 -0.044142562896013 -0.023063588887453 0.026764674112201 0.074501723051071 0.110095009207726 0.119704842567444
0.008061882108450 0.009471409022808 -0.020253228023648 -0.001035813125782 0.011802996508777 0.014025405980647 0.020788691937923 0.015511970967054 0.008039855398238
0.016656253486872 0.023139243945479 0.016946522518992 0.001599788200110 0.012554585002363 0.039068955928087 0.032683689147234 0.030691780149937 0.025051362812519
-0.020070420578122 -0.041313260793686 -0.003425314323977 0.024091541767120 -0.011986913159490 0.084512285888195 0.117462500929832 0.088288679718971 0.063358820974827
-0.016075162217021 -0.029624929651618 -0.045330934226513 -0.009825943037868 -0.014407644048333 -0.017406415194273 -0.029270743951201 -0.027881877496839 -0.044445015490055
-0.142564147710800 -0.148625195026398 -0.143652603030205 -0.057667747139931 0.000316813762765 0.067398056387901 0.102110929787159 0.120155669748783 0.147206887602806
-0.067094579339027 -0.060442648828030 -0.038183026015759 -0.022435074672103 -0.003470931667835 0.041959140449762 0.049649976193905 0.009755107574165 0.014115102589130
0.104316696524620 0.026819784194231 -0.042802680283785 -0.032136574387550 -0.005291036330163 0.084139563143253 0.083099447190762 0.008362113498151 -0.126439392566681
-0.105350524187088 -0.093828126788139 -0.108170993626118 -0.082941591739655 -0.059065435081720 0.016852667555213 0.071228206157684 0.096385680139065 0.103376343846321
-0.153394505381584 -0.133757397532463 -0.114914119243622 -0.071015760302544 -0.062619023025036 0.023895474150777 0.096422895789146 0.161188676953316 0.187283560633659
-0.128237098455429 -0.104555167257786 -0.090488098561764 -0.057510927319527 -0.035874444991350 0.044041890650988 0.101617284119129 0.129469469189644 0.165960565209389
0.004757702816278 0.022779423743486 0.035585466772318 0.036417372524738 0.054036427289248 0.051352079957724 0.032147083431482 -0.009868249297142 -0.008878601714969
-0.163852423429489 -0.129137977957726 -0.109614789485931 -0.056176468729973 -0.031510915607214 0.040995646268129 0.093347899615765 0.109202153980732 0.100965857505798
0.018268056213856 0.026861215010285 0.035622872412205 0.007314640562981 0.025780668482184 0.026532381772995 0.021522052586079 0.002019275212660 -0.023052152246237
0.015385907143354 -0.016805669292808 -0.004053829703480 -0.010788509622216 0.017691053450108 0.003446776652709 -0.013777636922896 -0.032492559403181 -0.030085638165474
-0.016813548281789 -0.009238975122571 -0.012099417857826 0.000430540967500 -0.000571150972974 0.004013875499368 -0.008481769822538 0.007106289267540 0.026663634926081
-0.116306051611900 -0.112900920212269 -0.107459597289562 -0.059743981808424 -0.024304965510964 0.036659214645624 0.051524087786674 0.064951062202454 0.074907101690769
0.007334696594626 0.037657223641872 0.034766346216202 0.053141787648201 0.071044236421585 0.020784620195627 -0.029968257993460 -0.090771377086639 -0.119851738214493
-0.081279352307320 -0.068930029869080 -0.060636211186647 -0.007405510637909 0.018917448818684 0.040385384112597 0.037409774959087 0.036279067397118 0.027331575751305
-0.075069420039654 -0.065992332994938 -0.074786677956581 -0.069146327674389 -0.028288297355175 0.017545891925693 0.093223169445992 0.100583992898464 0.110726915299892
-0.059553541243076 -0.051862481981516 -0.040908996015787 -0.043171957135201 -0.072010181844234 0.006164978258312 0.079849608242512 0.112742416560650 0.112771138548851
0.031827028840780 0.037129573523998 0.052823260426521 0.028591563925147 -0.025842098519206 -0.002223894232884 0.013429327867925 -0.003430286189541 -0.013788465410471
-0.058480404317379 -0.055687185376883 -0.074234217405319 -0.041915263980627 -0.053023427724838 0.035840868949890 0.076117455959320 0.091969400644302 0.080405473709106
-0.024794217199087 -0.033547718077898 -0.006213863845915 -0.016782214865088 0.010523123666644 0.032208818942308 0.039951600134373 0.042472854256630 0.028068233281374
0.023566950112581 0.011161354370415 -0.000803195987828 0.014168656431139 0.012452089227736 0.013035979121923 -0.007212291471660 -0.036898188292980 -0.039769895374775
0.026645090430975 0.052625067532063 0.040827482938766 0.049067225307226 0.055458195507526 0.004276872612536 -0.031031103804708 -0.060564626008272 -0.105336509644985
0.016439050436020 -0.027241313830018 -0.013150023296475 -0.029788611456752 -0.017395121976733 -0.013416280038655 -0.028406346216798 -0.020727241411805 -0.030733684077859
-0.050422623753548 -0.035462856292725 -0.047800373286009 -0.017966855317354 0.000311279756716 0.009452814236283 0.036228355020285 0.077014870941639 0.078821428120136
0.034559104591608 -0.030340669676661 -0.048908237367868 -0.035162497311831 -0.018696637824178 0.056928340345621 0.074131414294243 -0.006240760907531 -0.112999849021435
-0.000388875865610 0.023862911388278 0.018289688974619 0.016784489154816 -0.010092566721141 -0.015356185846031 -0.043801251798868 -0.065942421555519 -0.065454132854939
0.066979758441448 0.020483516156673 -0.000445860438049 0.020651642233133 0.033926911652088 0.044971216470003 -0.012673893012106 -0.052913293242455 -0.089221470057964
-0.082302927970886 -0.074038423597813 -0.054335657507181 -0.032615408301353 -0.026579519733787 0.020677648484707 0.044085815548897 0.056754462420940 0.028170032426715
0.018113948404789 0.007054379209876 0.000169178165379 -0.020940667018294 -0.008506985381246 0.042889330536127 0.069318957626820 0.079066343605518 0.070747554302216
0.021637197583914 0.024428978562355 0.009445599280298 0.003276158124208 0.006352459546179 -0.002864790149033 -0.007745814975351 -0.003890739986673 -0.018811494112015
-0.062764234840870 -0.076730772852898 -0.080937318503857 -0.028459012508392 -0.032696451991796 0.036796089261770 0.065788201987743 0.087134435772896 0.071651324629784
-0.003849845845252 -0.000579510116950 0.034547261893749 0.063501007854939 0.049006938934326 0.059751935303211 0.072184659540653 0.038771588355303 0.037835657596588
0.031125547364354 0.018831320106983 -0.004581991117448 -0.017693767324090 -0.008220878429711 -0.032670881599188 -0.017679732292891 -0.004317209124565 -0.043642289936543
0.015027021989226 0.008077571168542 0.016671923920512 0.013750312849879 0.014773105271161 0.007017560303211 0.000462287629489 0.002559442771599 0.002880088286474
-0.015615714713931 0.009175565093756 0.008250143378973 -0.006662274245173 -0.003753693774343 0.004308133851737 0.021038683131337 0.011687327176332 -0.016078505665064
-0.100548952817917 -0.077697254717350 -0.058771256357431 -0.049265928566456 -0.022652830928564 0.020286388695240 0.094939813017845 0.093521818518639 0.112387828528881
-0.096197031438351 -0.058682236820459 -0.057127486914396 -0.036847542971373 -0.056273497641087 0.015171209350228 0.061199389398098 0.083767421543598 0.083974666893482
0.056600119918585 0.041914496570826 0.008999078534544 -0.000106974061055 -0.015435765497386 -0.009236160665751 0.000920580758248 0.013578322716057 0.021141145378351
-0.127874001860619 -0.113981768488884 -0.102550685405731 -0.068773031234741 -0.045222423970699 0.021141093224287 0.057374879717827 0.082322560250759 0.085590191185474
-0.115537665784359 -0.091483093798161 -0.108996897935867 -0.083484925329685 -0.049007881432772 0.004932577256113 0.086877502501011 0.126700505614281 0.132638171315193
-0.057207006961107 -0.062226716428995 -0.048260655254126 -0.034888021647930 -0.044070422649384 0.002763117197901 0.049329135566950 0.064019113779068 0.065315596759319
-0.046165585517883 -0.035535693168640 -0.024722240865231 0.016473317518830 0.034558665007353 0.066793970763683 0.113541662693024 0.100192435085773 0.107689753174782
-0.035511113703251 -0.052161317318678 -0.060966871678829 -0.008862309157848 0.043763890862465 0.073644682765007 0.054523989558220 0.024211429059505 -0.012806148268282
-0.033713493496180 -0.048810534179211 -0.048249740153551 -0.046216301620007 -0.030712498351932 -0.009691071696579 0.009289908222854 -0.010579096153378 -0.036787673830986
0.002205284778029 0.010345309972763 -0.021842096000910 -0.001994879916310 -0.001606593257748 -0.001138572930358 0.017744386568666 -0.005585242528468 -0.010329580865800
-0.056575607508421 -0.080493599176407 -0.077659420669079 -0.045874204486609 0.006537387613207 0.093741014599800 0.129767075181007 0.110325291752815 0.069547392427921
-0.022192949429154 -0.036106165498495 -0.058398839086294 -0.035699214786291 -0.090513400733471 -0.073678836226463 -0.080689914524555 -0.099204376339912 -0.105112239718437
-0.117321863770485 -0.097283147275448 -0.081550784409046 -0.047100059688091 -0.009092182852328 0.039381269365549 0.087214864790440 0.072888217866421 0.082621246576309
-0.023926207795739 -0.025063617154956 -0.067492403090000 -0.052401237189770 -0.001658224500716 0.035422094166279 0.038815375417471 0.035085283219814 0.044937834143639
0.001783787854947 0.013023234903812 0.010611945763230 0.011777920648456 0.001805360428989 -0.008679851889610 -0.013556431978941 -0.006383472122252 -0.003691393183544
0.022425573319197 0.011340887285769 -0.012488898821175 -0.016760131344199 -0.015931025147438 -0.037539247423410 -0.041894797235727 -0.049794673919678 -0.054373115301132
-0.009083761833608 -0.007594987284392 -0.008711253292859 0.007272299844772 0.001991283381358 0.009280941449106 -0.000204197742278 0.004578167572618 0.004746948368847
-0.025544179603457 -0.038356628268957 -0.052210155874491 -0.062779769301414 -0.077243626117706 0.023926243185997 0.104189701378345 0.128723546862602 0.124111838638783
-0.045043110847473 -0.090863518416882 -0.139749616384506 -0.124645389616489 -0.038421500474215 0.051117584109306 0.123933710157871 0.160189345479012 0.153632551431656
-0.128278538584709 -0.090186424553394 -0.047857545316219 -0.016591280698776 0.012393478304148 0.062519542872906 0.086721770465374 0.107563696801662 0.080408826470375
-0.003937113564461 -0.013758315704763 -0.006374652031809 0.017642736434937 0.008650314062834 0.010867460630834 0.005919863469899 0.021613923832774 -0.003643244504929
0.007550180889666 -0.003957138396800 -0.001921906019561 0.006338711362332 -0.010309671051800 0.008917628787458 -0.034553587436676 -0.024563696235418 -0.010473082773387
-0.139977678656578 -0.113874681293964 -0.108880028128624 -0.079676166176796 -0.026287471875548 0.037725687026978 0.139665648341179 0.182961359620094 0.167739287018776
-0.002572881756350 -0.009014633484185 -0.000583655200899 -0.005092755425721 0.014005304314196 -0.000070632471761 0.002512307837605 -0.005742467939854 -0.008251944556832
-0.005667171441019 -0.000226332296734 -0.013756391592324 0.004068883135915 0.022656125947833 0.007909153588116 0.006392452865839 -0.010307560674846 -0.001060003763996
0.021841036155820 0.006465217098594 0.010511458851397 -0.007134355138987 -0.006622062530369 -0.002391353948042 -0.007456266321242 -0.014163258485496 -0.007004783954471
0.010218031704426 0.013345222920179 -0.012006516568363 0.001740959356539 0.000812107871752 -0.005685747135431 -0.028780333697796 -0.028021596372128 -0.018256980925798
0.022875545546412 0.025483166798949 0.042656820267439 0.041028175503016 0.035266038030386 0.017982026562095 0.013132779859006 -0.024627482518554 -0.027338078245521
0.010375714860857 0.033825948834419 -0.002267139963806 0.028717381879687 0.031942911446095 -0.006707387045026 -0.009394632652402 -0.017713716253638 -0.029860017821193
-0.019412094727159 -0.020317493006587 0.014382568188012 0.003689604345709 0.004383044317365 0.036700788885355 0.004718206822872 0.005902668926865 -0.010711142793298
-0.017292998731136 -0.008974062278867 0.008917992934585 0.010249582119286 0.013790133409202 0.010576470755041 0.039904203265905 0.066375724971294 0.089101836085320
-0.041003081947565 -0.029954953119159 -0.003531551454216 -0.020774995908141 0.001708949916065 -0.014585873112082 -0.028585573658347 -0.028186570852995 -0.044106930494308
0.027058072388172 -0.058926396071911 -0.042819820344448 0.071473464369774 0.099042564630508 -0.018321296200156 -0.180180370807648 -0.213823586702347 -0.141305893659592
-0.024714671075344 -0.019519083201885 -0.031811859458685 -0.013262944296002 -0.008850041776896 -0.003118105465546 -0.006192492321134 -0.004050754942000 0.008772792294621
0.028698498383164 -0.000106499654066 0.013288039714098 0.029235884547234 0.069888263940811 0.066646292805672 0.061854369938374 0.059281636029482 0.076043069362640
-0.015143577940762 -0.001844539423473 0.009230769239366 0.021174384281039 0.015916880220175 0.000197120840312 -0.007894623093307 -0.003764871740714 0.013484045863152
-0.008102238178253 0.001886193524115 0.051118504256010 0.073117934167385 0.078720882534981 0.038217481225729 -0.008122048340738 -0.043446827679873 -0.011123192496598
0.028693078085780 0.015858132392168 0.029114741832018 0.059255782514811 0.079128362238407 0.043371386826038 0.014182848855853 -0.006105152890086 -0.000939006917179
0.021317157894373 0.013311539776623 0.026093294844031 0.058811552822590 0.059622224420309 0.023948036134243 -0.003624222474173 -0.010603802278638 -0.022264672443271
0.032970175147057 0.010172115638852 0.021478017792106 0.051107417792082 0.044491823762655 0.033602461218834 0.003639296162874 -0.020571384578943 -0.027964057400823
-0.017597019672394 -0.030189182609320 -0.039647076278925 -0.023920992389321 -0.009865003637969 -0.009803772903979 -0.000305838853819 -0.025332240387797 -0.059087205678225
-0.032718162983656 -0.021407853811979 -0.026991192251444 -0.023061966523528 -0.024551087990403 -0.015891723334789 -0.013767576776445 0.011775357648730 0.012133190408349
0.030784953385592 0.028439367190003 -0.000731120817363 0.026800865307450 0.010139675810933 0.001984868664294 -0.049381960183382 -0.019268998876214 0.022739319130778
0.002530439058319 0.011817581020296 0.000735225796234 0.016621943563223 0.012390060350299 -0.000986164784990 -0.017691900953650 -0.036931358277798 -0.007603455800563
0.004523478914052 0.014008410274982 0.002052918775007 0.018475525081158 -0.014878256246448 -0.010601838119328 -0.016021827235818 -0.017140999436378 -0.014260760508478
0.051053088158369 0.036216076463461 0.026831505820155 0.028795842081308 0.010477026924491 -0.001801616745070 -0.011301925405860 -0.045585423707962 -0.009465206414461
0.009526756592095 -0.018890757113695 -0.078475013375282 -0.068443007767200 -0.033067449927330 0.000874742399901 0.005928204394877 0.025052918121219 0.070892527699471
-0.001249904511496 -0.015252396464348 0.000409936066717 0.035534791648388 0.072991520166397 0.026167256757617 -0.026017539203167 -0.061288092285395 -0.050957113504410
0.010326468385756 0.000576898455620 0.009010112844408 0.007153315935284 0.008066679351032 0.002408099826425 0.013422299176455 0.009421730414033 0.002488784724846
0.041714683175087 0.051715657114983 0.032964557409286 0.071667656302452 0.069354638457298 0.029343921691179 -0.037357214838266 -0.032399695366621 -0.017648363485932
0.022435493767262 0.027626233175397 0.033017046749592 0.032553028315306 0.044596426188946 0.029394563287497 0.005094620864838 -0.006197980139405 -0.009038439020514
-0.002411520807073 -0.004781353287399 0.006116456352174 -0.003579912474379 0.000120435994177 0.009951255284250 0.019025590270758 0.009892254136503 -0.003087190678343
-0.038649305701256 -0.029864782467484 -0.012223140336573 -0.021677186712623 -0.009957393631339 -0.009286301210523 -0.011953104287386 -0.010520980693400 0.021226400509477
0.051853001117706 0.025100780650973 0.030448026955128 0.091875120997429 0.112537667155266 0.017652167007327 -0.107677146792412 -0.139092564582825 -0.102157607674599
0.044746927917004 0.027748398482800 0.010044736787677 -0.014152277261019 -0.036854878067970 -0.033601112663746 -0.040923606604338 -0.028343439102173 -0.049138136208057
0.025138119235635 -0.038640376180410 0.000917216704693 0.073571480810642 0.089138217270374 0.022227358072996 -0.075410023331642 -0.119328960776329 -0.060551427304745
0.002421755576506 0.010966923087835 -0.004879802931100 -0.012709369882941 0.012926864437759 -0.003471454605460 0.003435490652919 -0.005425978451967 -0.006699025630951
-0.005359683651477 -0.021294113248587 -0.029552802443504 0.005307043902576 0.014647733420134 -0.027871387079358 -0.046100039035082 -0.052439518272877 -0.050519932061434
0.013546177186072 0.025344710797071 0.035572189837694 0.046484116464853 0.028608974069357 0.002950218273327 -0.000535216298886 0.008736417628825 0.017434027045965
0.016502233222127 0.008369665592909 0.015583642758429 0.015886595472693 0.010619305074215 0.001797891687602 -0.004168788436800 0.009141598828137 -0.001856053364463
0.050091091543436 0.052858725190163 0.017139296978712 -0.001368064084090 0.014652440324426 0.019099894911051 -0.018143668770790 -0.016884094104171 0.010126784443855
0.002132754307240 0.012243795208633 -0.007969863712788 -0.012960810214281 -0.011748564429581 -0.017108596861362 -0.002535586012527 -0.013986757956445 -0.018179662525654
0.027485441416502 0.043063014745712 0.040075987577438 0.035691920667887 0.018575228750706 0.034526191651821 0.022244565188885 0.023016976192594 0.011922548525035
0.042697709053755 0.032961480319500 0.008760098367929 -0.013380236923695 -0.017546497285366 -0.000545574061107 0.003152607008815 0.011505372822285 0.034828290343285
-0.028836414217949 -0.040398180484772 -0.025930000469089 -0.027762327343225 -0.030822541564703 -0.039777778089046 -0.055773042142391 -0.061475038528442 -0.053658451884985
-0.041330482810736 -0.022231351584196 -0.043732307851315 -0.016433238983154 -0.015565883368254 -0.017484277486801 -0.052090056240559 -0.060208719223738 -0.067944049835205
-0.027983499690890 -0.019991803914309 -0.050902687013149 -0.039805494248867 -0.032530207186937 -0.008889737538993 -0.006424934603274 -0.000598814454861 -0.006277167703956
-0.000441933661932 -0.018505254760385 -0.031220899894834 -0.018085300922394 -0.011584990657866 -0.011764594353735 -0.011514768935740 -0.008403065614402 -0.005605432204902
-0.040171571075916 -0.051144391298294 -0.080016419291496 -0.056597016751766 -0.055686745792627 -0.040037915110588 -0.023667864501476 0.006191524211317 -0.018570812419057
0.000185968252481 0.004439976532012 0.002393626607955 0.000960332050454 0.001147101051174 -0.007562223356217 -0.013924587517977 -0.029493533074856 -0.035244025290012
0.008108098059893 0.017748249694705 0.011432122439146 0.029410572722554 0.018275899812579 0.010786140337586 -0.019408421590924 -0.029788544401526 -0.019375910982490
0.007880658842623 -0.003385872812942 0.017511151731014 0.063164703547955 0.053799618035555 0.014652200974524 -0.020353343337774 -0.029140844941139 -0.006954940967262
-0.000794456980657 -0.027047472074628 -0.022194005548954 -0.023162620142102 -0.016396624967456 -0.028137005865574 -0.045230846852064 -0.028324415907264 -0.026789449155331
0.021886013448238 0.040719989687204 0.050415910780430 0.035729218274355 0.026600485667586 0.023787796497345 -0.023914499208331 -0.029182389378548 -0.039354093372822
0.002344864420593 -0.025518333539367 -0.021904330700636 0.036390367895365 0.022959120571613 0.006003015208989 -0.030447689816356 -0.043960243463516 0.006601572968066
0.001271516433917 -0.037843637168407 -0.029680339619517 -0.042515799403191 -0.048146642744541 -0.027575628831983 -0.038133043795824 -0.039759211242199 -0.038393314927816
-0.014606970362365 -0.015153111889958 0.006890912074596 0.024100176990032 0.001977914478630 -0.010470005683601 -0.030518628656864 -0.042494017630816 -0.012919004075229
-0.048507485538721 -0.050100784748793 -0.055382099002600 -0.038509722799063 -0.000231877842452 -0.022933810949326 -0.033644959330559 -0.018829125910997 0.003013002686203
0.049271140247583 0.032869081944227 0.022007616236806 0.025060931220651 0.043003544211388 0.015981135889888 0.005966116208583 -0.010649978183210 -0.000641380436718
-0.044620081782341 -0.066780194640160 -0.061744581907988 -0.055602952837944 -0.052731975913048 -0.014244831167161 0.008555401116610 -0.013080669566989 -0.031931791454554
-0.004239164758474 0.009648828767240 -0.020827718079090 -0.010557829402387 0.008432587608695 -0.023701690137386 -0.019725833088160 -0.019373957067728 -0.002780417911708
0.016248023137450 -0.013047919608653 -0.014495152048767 0.010716303251684 0.001645777840167 -0.019379245117307 -0.055641852319241 -0.063604854047298 -0.022213764488697
-0.012845060788095 0.009051520377398 0.010881136171520 0.044335283339024 0.042374227195978 -0.005271735601127 -0.017982060089707 -0.004170228261501 0.048668961971998
0.007558593060821 -0.003059534821659 -0.030794899910688 -0.005659073125571 -0.014791308902204 -0.017952214926481 -0.020899843424559 -0.019028022885323 0.012809741310775
-0.002638311823830 -0.004065487068146 -0.006119170226157 -0.014322950504720 -0.011788796633482 -0.005458675324917 -0.006726404186338 -0.021633086726069 -0.004858096130192
0.030958564952016 0.006610385142267 -0.000314840057399 0.030438931658864 0.035606838762760 0.031573779881001 0.029104148969054 0.019852841272950 -0.003135592211038
0.005654899869114 0.005003721453249 0.001662322902121 0.033824700862169 0.018884401768446 0.018118854612112 0.028294589370489 0.034691229462624 0.067712716758251
0.042600341141224 0.027846483513713 0.042460374534130 0.048972457647324 0.042902968823910 0.021129049360752 -0.017837813124061 -0.030304124578834 -0.045658361166716
0.026433160528541 0.003419622080401 0.029851816594601 0.023785440251231 0.024195786565542 0.006637681275606 -0.022960454225540 -0.017981838434935 -0.040706306695938
0.006347932387143 0.016344757750630 0.000853087985888 0.041237048804760 0.042269434779882 0.029310433194041 0.021436003968120 0.018281215801835 0.001893221982755
-0.017558921128511 -0.023830808699131 -0.021609023213387 -0.054036352783442 -0.040883164852858 -0.034557417035103 -0.044118836522102 -0.026261774823070 -0.033380210399628
-0.022102106362581 -0.016766628250480 -0.017994422465563 -0.028904119506478 -0.038327381014824 -0.034565236419439 -0.028367470949888 -0.010388804599643 -0.013227545656264
0.028615381568670 0.018874390050769 0.012333799153566 0.018471142277122 0.040961116552353 0.042450662702322 0.048195011913776 0.037093322724104 0.035106189548969
-0.012666285969317 -0.022095402702689 -0.005060687661171 -0.024203350767493 -0.019772682338953 0.009491574950516 0.023423032835126 0.013893935829401 0.016067802906036
-0.028227275237441 -0.042405128479004 -0.015080958604813 0.015580417588353 0.018447035923600 0.012920085340738 -0.022716285660863 -0.000474699889310 0.010876958258450
0.004239249043167 0.005656740162522 0.036405969411135 0.014760682359338 0.046461068093777 0.045008268207312 0.056950908154249 0.044988714158535 0.055508200079203
0.023418858647346 0.002144468016922 0.006999019067734 -0.000675006362144 0.002987951040268 0.010213442146778 0.005018742755055 -0.018883952870965 -0.063272826373577
-0.057414870709181 -0.046210385859013 -0.020343491807580 0.039236739277840 0.042476084083319 0.028544271364808 0.035431016236544 0.019410137087107 0.028515374287963
-0.055679824203253 -0.061593692749739 -0.037266384810209 -0.015359137207270 -0.028088284656405 -0.018331751227379 -0.027376217767596 -0.032652575522661 -0.031714651733637
-0.072755798697472 -0.055228643119335 -0.020131302997470 0.012247958220541 0.039883594959974 0.021350430324674 0.022219363600016 -0.005834890063852 0.007666827179492
0.000763439515140 0.016534319147468 0.011192956008017 -0.003491208190098 -0.010116359218955 -0.030867327004671 -0.018852772191167 -0.030136071145535 -0.002362829865888
-0.036027628928423 -0.048621065914631 -0.024103967472911 0.001671822625212 0.003465237328783 0.022683501243591 0.022065568715334 0.007954828441143 -0.014764460735023
-0.002267689676955 0.000496121356264 -0.008770077489316 -0.020984571427107 -0.007945788092911 -0.013604000210762 -0.018677989020944 -0.013463940471411 0.003964876290411
-0.011782631278038 -0.023193156346679 -0.017467651516199 -0.046829905360937 -0.064302153885365 -0.040666706860065 -0.050142809748650 -0.037499420344830 -0.033768493682146
-0.010882004164159 -0.001935921027325 -0.015032337047160 -0.012692568823695 -0.010433163493872 -0.022343484684825 0.002155747264624 -0.002752405591309 -0.001717817853205
0.001448747934774 0.015372111462057 0.025643682107329 0.040192283689976 0.050513796508312 0.033861458301544 0.040019463747740 0.019649730995297 0.013169768266380
-0.006862702313811 -0.005556612275541 -0.014544187113643 -0.027235755696893 -0.030280988663435 -0.040885262191296 -0.033940013498068 -0.046508137136698 -0.041180051863194
0.030033921822906 0.009661208838224 0.013276153244078 0.029313620179892 0.032798837870359 0.024997811764479 0.024977345019579 0.006041248328984 -0.019925659522414
-0.024031037464738 -0.008829308673739 -0.001147137954831 0.043129514902830 0.046819463372231 0.046563059091568 0.048238053917885 0.031871479004622 -0.003281736746430
-0.019085353240371 -0.034116059541702 -0.013380494900048 -0.001087619923055 0.036154489964247 0.017500745132565 0.028883012011647 0.023962246254086 -0.020214460790157
0.033285100013018 0.025142714381218 0.006170117296278 0.014162367209792 -0.018338831141591 -0.016388021409512 -0.028423480689526 -0.003191054798663 -0.025256684049964
0.025772737339139 0.015212547034025 0.028987208381295 0.056641049683094 0.047219708561897 0.057685095816851 0.060705244541168 0.041453678160906 0.036889448761940
-0.017570845782757 0.006812911480665 0.016493409872055 0.009702892974019 0.018861727789044 0.032853316515684 0.041289489716291 0.032546073198318 0.008481783792377
0.004994963761419 -0.025055691599846 -0.014428525231779 -0.024464748799801 -0.033549971878529 -0.054276779294014 -0.037584602832794 -0.043624531477690 -0.047234896570444
0.020739130675793 0.023589253425598 0.013090720400214 0.027568109333515 0.009555066004395 -0.002329051261768 -0.000692691188306 0.014954903163016 0.009016715921462
-0.007776675745845 -0.041770245879889 -0.032787654548883 -0.035367731004953 -0.031904917210340 -0.039941426366568 -0.063917398452759 -0.048560462892056 -0.049480985850096
0.005274545866996 0.004625304136425 0.019494887441397 0.021727183833718 0.012263973243535 0.017358515411615 0.026998549699783 0.026609145104885 0.024683058261871
0.034747947007418 0.023217605426908 0.028603939339519 0.028058396652341 0.011655106209219 0.006499187089503 0.043307427316904 -0.005734253674746 -0.020212497562170
-0.006108153611422 -0.016011035069823 -0.012990985997021 -0.005610794760287 -0.017802149057388 -0.021041085943580 0.008518150076270 0.000260341359535 0.004208726808429
-0.026321562007070 -0.031322311609983 -0.034828960895538 -0.048776417970657 -0.027182918041945 -0.018746724352241 -0.002342905616388 -0.000939282996114 -0.011473020538688
-0.025127509608865 -0.016014916822314 0.019261533394456 0.016367366537452 0.021004796028137 0.036173630505800 0.015549401752651 0.021343732252717 0.015737265348434
0.022830763831735 0.005760969128460 0.014547699131072 0.034202806651592 0.041187439113855 0.035340487957001 0.028068782761693 -0.003425499191508 -0.007436005398631
-0.005459996871650 -0.008147209882736 -0.008583854883909 -0.015339992940426 -0.011190648190677 -0.020141776651144 0.002390846377239 -0.009308201260865 -0.017225120216608
0.001393908634782 0.011336038820446 0.020192531868815 0.049576874822378 0.059372346848249 0.032439772039652 0.036286067217588 0.019647339358926 0.006397461984307
0.032258771359921 0.039717469364405 0.014879347756505 -0.005651120096445 -0.003691235790029 -0.008243361487985 -0.002683501923457 0.005917227361351 0.001820499077439
-0.015460322611034 -0.015658637508750 -0.006012527272105 0.003507823217660 -0.001052550389431 -0.000191707993508 0.001769064110704 0.007320262957364 -0.005125385709107
-0.010589856654406 -0.031408131122589 -0.017726015299559 -0.010749398730695 -0.012995555065572 -0.028313640505075 -0.014420324936509 -0.023658031597733 -0.025656944140792
-0.006882053799927 -0.007824487984180 0.010881284251809 -0.016793390735984 -0.011788464151323 0.000007646694939 -0.011413325555623 -0.019611198455095 0.002307135844603
-0.046163339167833 -0.026000028476119 -0.012318023480475 0.022164039313793 0.036977995187044 0.059965923428535 0.072393417358398 0.058440681546926 0.019008582457900
-0.027518413960934 -0.008607853204012 0.009076877497137 0.011643541976810 0.033674597740173 0.020175764337182 0.049046821892262 0.046328663825989 0.026166234165430
0.008888060227036 0.013794573023915 0.029436443001032 0.028814557939768 0.019631454721093 0.043029431253672 0.022751435637474 0.020511008799076 0.006410101428628
-0.022086557000875 -0.015533935278654 0.004197433590889 0.013603343628347 0.030971080064774 0.044603995978832 0.037455368787050 0.042325221002102 0.031697880476713
-0.052629295736551 -0.064328514039516 -0.034179940819740 0.008433100767434 0.001595966168679 0.015284783206880 -0.004195178858936 -0.015536413528025 -0.003080083988607
0.004078043159097 -0.003232647897676 0.003167314454913 0.046161945909262 0.038047645241022 0.049269121140242 0.051561310887337 0.037563506513834 0.017451038584113
0.006210574880242 0.012217517010868 0.009702483192086 0.009312036447227 0.018147192895412 0.028295971453190 0.038886528462172 0.046175416558981 0.036623865365982
-0.008693695068359 -0.003170539392158 -0.008507068268955 0.001385342446156 -0.000333108619088 -0.010285825468600 -0.009195138700306 -0.023023543879390 -0.042689077556133
-0.017547408118844 -0.025648960843682 0.023315222933888 0.019192049279809 0.004784982651472 -0.004081980325282 -0.008848794735968 -0.016426136717200 -0.042756501585245
0.012184488587081 -0.008071057498455 -0.009833727031946 -0.008861545473337 -0.019373809918761 -0.019170554354787 -0.013621331192553 -0.029447436332703 -0.024977933615446
-0.035893451422453 -0.029366284608841 -0.032140083611012 0.016378061845899 0.044198799878359 0.060312334448099 0.027560593560338 -0.013447455130517 -0.030479207634926
-0.028638741001487 -0.031521137803793 0.003962875343859 -0.010639891028404 -0.001303564058617 -0.006324597168714 0.016860550269485 0.021367661654949 0.007248371839523
-0.036367140710354 -0.039238579571247 -0.010428834706545 0.000904214102775 0.043400950729847 0.040971003472805 0.035565722733736 0.012356677092612 0.011499715968966
0.050935570150614 0.033806785941124 0.044436734169722 0.043926309794188 0.035045254975557 0.036610439419746 0.018626270815730 0.011098876595497 -0.013827576301992
-0.002227087970823 -0.001870953710750 -0.013180135749280 -0.010286970995367 -0.018286980688572 -0.021633032709360 -0.025036882609129 -0.021655201911926 -0.025955727323890
-0.013087149709463 0.012361299246550 -0.007151758763939 0.000563495443203 0.001684493036009 -0.008200076408684 -0.004980278201401 0.000179346781806 -0.018358869478106
0.000683247577399 0.007177859079093 -0.003808929584920 0.016750087961555 0.015920342877507 0.010832196101546 0.004830766469240 0.000718009308912 -0.005376199726015
-0.003232808783650 -0.033025134354830 0.002334991702810 0.022366924211383 0.048224087804556 0.051433987915516 0.024618886411190 0.005210879258811 -0.019774254411459
-0.047967467457056 -0.056015167385340 -0.020026111975312 0.003164203604683 0.041344482451677 0.052316848188639 0.027463983744383 0.008585000410676 -0.015811353921890
0.019668875262141 0.029632557183504 0.053472757339478 0.062855944037437 0.075677365064621 0.090404972434044 0.072329059243202 0.082177199423313 0.058921657502651
-0.010689902119339 -0.007726299110800 -0.010509830899537 -0.003002994228154 -0.002505240030587 -0.001689112512395 -0.000450049730716 0.014239085838199 0.011768574826419
0.008418587967753 -0.000696244766004 -0.002901188330725 0.007243579719216 -0.017730088904500 -0.001675182371400 -0.023516032844782 -0.002404455794021 0.005923737306148
-0.053896691650152 -0.039485931396484 -0.003713916987181 0.026745600625873 0.055623266845942 0.075210079550743 0.058228660374880 0.056937109678984 0.034316364675760
-0.000555799982976 -0.005039536859840 -0.021766312420368 -0.008481269702315 -0.023688958957791 -0.020873965695500 -0.023068536072969 -0.024413090199232 -0.008421503007412
0.010573298670352 -0.001329682767391 0.011576699092984 -0.002646746346727 -0.022452747449279 -0.003844608319923 -0.002615993376821 -0.010884357616305 -0.012155406177044
0.035973913967609 0.034296289086342 0.017228715121746 -0.028866285458207 -0.047431316226721 -0.031721509993076 -0.062467414885759 -0.054223854094744 -0.048840291798115
-0.040007092058659 -0.012460391037166 -0.002254517981783 0.000005945838438 0.000089133362053 0.017976514995098 0.006108107510954 0.000545442802832 0.010115589015186
-0.020262582227588 0.002535982290283 -0.000595855060965 0.020439416170120 0.001308296341449 -0.009223378263414 -0.030509740114212 -0.024743650108576 -0.027993917465210
-0.098578728735447 -0.048437245190144 -0.090012289583683 -0.012553269043565 -0.006333756260574 0.022996814921498 -0.033395260572433 -0.079670220613480 -0.061770897358656
-0.011631005443633 -0.017281891778111 -0.015735780820251 -0.005108909681439 0.031017431989312 0.012011487036943 0.010645948350430 -0.025040414184332 -0.035224791616201
-0.063946813344955 -0.068147785961628 -0.036871049553156 -0.014468763023615 -0.013233370147645 -0.017565591260791 -0.015198359265924 -0.019145160913467 -0.060348220169544
-0.081459894776344 -0.073159180581570 -0.045725755393505 -0.007382592186332 0.009276075288653 -0.041257511824369 -0.077221333980560 -0.072827279567719 -0.065854094922543
-0.145775020122528 -0.008562793955207 0.054604995995760 0.204341620206833 0.153668686747551 -0.122598312795162 -0.280550628900528 -0.175766855478287 -0.004842875059694
0.010710113681853 0.008145426400006 0.023558881133795 0.035105176270008 0.010288476943970 -0.021756518632174 -0.008161309175193 -0.009725973941386 0.002563007408753
-0.019168062135577 -0.034140434116125 0.003058996982872 0.023095270618796 0.069372780621052 0.033133968710899 0.041074059903622 0.052768263965845 0.054069906473160
0.025434577837586 0.021711083129048 0.029715931043029 0.041327692568302 -0.008843800053000 -0.046268481761217 -0.029992848634720 -0.002264754148200 -0.016373302787542
-0.063571155071259 -0.044543392956257 0.034459117799997 0.070544704794884 0.107287272810936 0.057129409164190 0.015373726375401 0.002199254697189 0.027800461277366
-0.024902869015932 0.001349898055196 0.022638592869043 0.027546342462301 -0.006491818465292 -0.053590938448906 -0.057933181524277 -0.057506397366524 -0.030020954087377
-0.005596138536930 0.002049776259810 0.027160633355379 0.046487949788570 0.036124903708696 0.012644624337554 0.013710458762944 0.006819948554039 -0.002014558995143
-0.029068440198898 -0.029334925115108 0.028356431052089 0.067974619567394 0.108075313270092 0.070165701210499 0.010407901369035 -0.039463888853788 -0.019803948700428
-0.014174572192132 -0.025349432602525 -0.045562017709017 -0.028957992792130 -0.012141398154199 -0.026789056137204 -0.009770077653229 -0.016586482524872 -0.044210698455572
0.002771368715912 0.026381339877844 0.033663000911474 0.035866141319275 0.016098266467452 -0.025381477549672 -0.015620706602931 0.009680763818324 -0.007448139134794
-0.096654087305069 -0.078978635370731 -0.006673404946923 0.081734679639339 0.126587405800819 0.036281507462263 -0.045309990644455 -0.008319091051817 0.028198670595884
-0.039504680782557 -0.044303685426712 0.002844425616786 0.048287335783243 0.033574771136045 -0.019749725237489 -0.046132035553455 -0.051002584397793 -0.034531988203526
0.021685987710953 0.056360699236393 0.051919523626566 0.036633338779211 0.022598160430789 -0.021879078820348 -0.040936443954706 -0.025619201362133 -0.006788603030145
-0.009148162789643 0.015215297229588 -0.006422623991966 0.025411477312446 0.038988936692476 0.015698049217463 -0.024342324584723 -0.024107076227665 -0.022324483841658
0.016791006550193 0.010162808001041 -0.090667434036732 -0.043489247560501 0.012373386882246 -0.029412517324090 -0.056972905993462 -0.035179536789656 0.025245599448681
0.004183985758573 0.021441157907248 0.013838566839695 0.057918671518564 0.011563056148589 -0.037743780761957 -0.072461463510990 -0.080848649144173 -0.057533532381058
0.010134352371097 -0.002884269692004 -0.000478323694551 0.005032627843320 0.006271935068071 -0.016949607059360 -0.023656573146582 -0.011170488782227 0.003457989543676
-0.026381360366940 0.001631236867979 0.017259122803807 0.062407605350018 0.037755370140076 -0.004266496282071 -0.030306346714497 -0.035699896514416 -0.018106270581484
-0.008826949633658 0.032151695340872 0.061041310429573 0.078386664390564 0.104489721357822 0.018619993701577 -0.031749870628119 -0.091919451951981 -0.087828144431114
-0.028576860204339 -0.023446321487427 -0.032204959541559 -0.020348889753222 0.003689426928759 0.006816901266575 0.055134378373623 0.053987652063370 -0.020261181518435
0.025481881573796 0.034726686775684 0.035952541977167 0.035281684249640 0.022777922451496 -0.004023276269436 0.009896981529891 -0.006759975571185 0.015730943530798
-0.082837834954262 -0.022684367373586 0.044894240796566 0.171771422028542 0.167742893099785 -0.013748481869698 -0.143520399928093 -0.108313955366611 0.005466142669320
-0.037393100559711 -0.045573689043522 -0.064080238342285 0.000853957608342 0.014759442768991 -0.011883762665093 -0.068569056689739 -0.094229459762573 -0.060320466756821
-0.176239892840385 -0.187909260392189 -0.037635128945112 0.146985843777657 0.178588926792145 -0.039284337311983 -0.163708657026291 -0.156956225633621 -0.006177577190101
0.024285482242703 -0.001217068172991 -0.006311609409750 -0.002005100250244 -0.010055620223284 -0.001005502068438 -0.030744906514883 -0.024757122620940 0.003082868410274
-0.007206811569631 0.034447580575943 0.051310352981091 0.064645096659660 0.043719738721848 -0.017964962869883 -0.066383622586727 -0.044615514576435 -0.009354418143630
0.026141811162233 0.015928134322166 0.027476040646434 0.025630816817284 0.033723872154951 0.034313473850489 0.034935619682074 0.041729707270861 0.039661053568125
0.037366710603237 0.038996379822493 0.061713207513094 0.057742860168219 0.000320862367516 -0.028143657371402 -0.040252495557070 -0.007681942079216 -0.006671652663499
-0.044427026063204 -0.026874516159296 -0.033332042396069 0.017207115888596 0.044686887413263 0.046796020120382 0.009980587288737 0.038988165557384 0.034757968038321
-0.002744103549048 -0.018642859533429 -0.010059397667646 0.002733413130045 0.022705975919962 0.004124226514250 -0.005032536573708 -0.037251394242048 -0.025914628058672
0.022165764123201 0.035103455185890 0.041879523545504 0.043668385595083 0.042302761226892 0.023030666634440 0.027712872251868 0.016214763745666 0.008135063573718
-0.001167709822766 -0.010626114904881 -0.046008966863155 -0.016877993941307 -0.006910698022693 -0.033097375184298 -0.045034725219011 -0.026325741782784 -0.008101521059871
0.094663135707378 0.075048170983791 0.038726311177015 0.004702340345830 -0.010977677069604 -0.055199049413204 -0.079803094267845 -0.064564734697342 -0.053643621504307
-0.098264418542385 -0.079560674726963 -0.083748988807201 -0.026075080037117 0.003181844251230 -0.016362439841032 -0.047545038163662 -0.062275104224682 -0.064297996461391
0.010173952206969 -0.005881080869585 -0.024265563115478 0.000590626092162 0.018138397485018 0.038579709827900 0.057582058012486 0.027928035706282 0.049195781350136
0.018051143735647 0.016700766980648 -0.011023037135601 0.009328648447990 0.015554914250970 0.009276149794459 -0.004579471424222 -0.023269724100828 -0.000069622023148
0.023817015811801 0.002373288851231 -0.019027240574360 -0.002597659826279 -0.021037621423602 -0.035798970609903 -0.021409478038549 0.024112312123179 0.006199644412845
0.008854006417096 0.025020327419043 -0.016817256808281 0.023799242451787 -0.004020695574582 -0.008725585415959 -0.027384273707867 -0.021396245807409 -0.034880522638559
-0.036759529262781 -0.006925758905709 -0.014858864247799 0.007353793829679 0.035832032561302 0.002478525042534 0.016026377677917 -0.030841311439872 -0.008023012429476
-0.061260890215635 -0.052246335893869 0.014610806480050 0.061484802514315 0.011552683077753 -0.059224933385849 -0.081627696752548 -0.019921122118831 0.042301189154387
-0.026147536933422 -0.001050864462741 0.008248232305050 0.053665619343519 0.033206913620234 0.020727578550577 -0.012373029254377 0.001867345767096 0.015735305845737
0.013048199005425 0.024155616760254 0.043070252984762 0.053975671529770 0.035493735224009 0.023382879793644 -0.010592083446681 -0.005794942844659 -0.025988465175033
-0.053572535514832 -0.007285967003554 0.058286800980568 0.053126130253077 -0.012675595469773 -0.094666033983231 -0.091061800718307 -0.004586953669786 0.073083840310574
-0.042810309678316 -0.015587997622788 -0.049410145729780 0.003852406982332 0.069881528615952 0.055206123739481 0.011293215677142 0.001845120103098 -0.028518326580524
-0.016202954575419 0.015673022717237 0.040055211633444 0.073256686329842 0.037947054952383 -0.027766758576035 -0.065664559602737 -0.044407486915588 -0.023063028231263
-0.130368620157242 -0.134558901190758 -0.069094642996788 0.007138187997043 0.016358917579055 -0.071891464293003 -0.081113800406456 -0.049935545772314 -0.015350887551904
-0.004430484026670 0.006434161216021 0.021256107836962 0.030143719166517 0.023731218650937 0.009596287272871 0.000469514314318 -0.013279662467539 -0.002393935574219
0.003325843717903 0.004905938636512 -0.022188536822796 -0.001074516796507 0.015354800038040 0.020625051110983 0.033638607710600 0.008142606355250 -0.005753095727414
-0.020593442022800 -0.021709522232413 -0.016834929585457 -0.008475428447127 -0.014167743735015 -0.004868859890848 -0.007813035510480 -0.017416501417756 -0.002448519458994
-0.015990218147635 0.041411045938730 0.022611590102315 0.080216668546200 0.052577201277018 -0.040265191346407 -0.069683559238911 -0.028057685121894 0.006272659637034
-0.034523148089647 0.022273620590568 0.031374301761389 0.024024467915297 -0.004524584393948 -0.065239176154137 -0.029959836974740 0.011265041306615 0.011812111362815
0.030776593834162 0.011807196773589 0.031270321458578 0.004487129859626 0.006577318999916 -0.015803111717105 -0.036499161273241 -0.057909432798624 -0.047219350934029
-0.006912671029568 0.005192340351641 -0.000954659888521 0.000864502391778 -0.006214986555278 -0.006833495572209 -0.009043082594872 -0.010208546184003 -0.005831877700984
-0.004222031217068 0.000438720249804 0.018139729276299 0.017991781234741 0.022076835855842 0.020738787949085 0.011245163157582 0.020128523930907 0.006872168276459
0.041004605591297 0.039675414562225 0.031790371984243 0.039975117892027 0.008558801375329 -0.034339729696512 -0.026481637731194 0.026704445481300 0.028669174760580
0.003149092895910 0.042524069547653 0.048373609781265 0.051333528012037 0.037209477275610 -0.005052137654275 -0.021964292973280 -0.015058528631926 -0.017202500253916
-0.000311006035190 0.018379768356681 0.035583302378654 0.037037603557110 0.040295448154211 -0.002814775332808 -0.008499533869326 -0.019747743383050 -0.005371062085032
-0.005138316191733 0.008846808224916 -0.011645034886897 0.020006237551570 -0.020177971571684 0.011729498393834 0.019882351160049 0.029430186375976 0.045071315020323
0.000262825080426 -0.022056467831135 -0.024841897189617 -0.034499179571867 -0.021534448489547 -0.012371030636132 -0.012777383439243 -0.022373190149665 -0.002240010071546
-0.028667418286204 -0.015409162268043 -0.031799528747797 -0.032246123999357 0.000586832815316 -0.000371659843950 0.002178514143452 -0.012253096327186 -0.010349892079830
-0.034785609692335 -0.017913077026606 -0.007510233670473 -0.030636245384812 -0.011538109742105 -0.004370796959847 -0.000503869785462 0.006712264381349 -0.018831372261047
-0.025059994310141 -0.016329672187567 -0.021099451929331 0.003309891093522 -0.012654046528041 -0.008126178756356 -0.005227712914348 -0.004510242491961 -0.037305355072021
-0.040734998881817 -0.047634471207857 -0.077242501080036 -0.025014769285917 -0.015804942697287 0.020605219528079 0.033144332468510 0.015848837792873 0.013645955361426
-0.066942848265171 -0.053192380815744 -0.037251595407724 -0.013727227225900 0.017197612673044 0.031484361737967 0.058839801698923 0.045232906937599 0.044457029551268
0.036994390189648 -0.002389068249613 -0.039374068379402 -0.051633719354868 0.000346132263076 -0.008014153689146 -0.031863015145063 -0.028940860182047 -0.019772976636887
-0.005867495667189 -0.035611785948277 -0.049116857349873 -0.024871814996004 -0.007423927541822 0.014289368875325 0.036587763577700 0.030063917860389 0.045448601245880
-0.017378173768520 -0.010567144490778 -0.008632428944111 -0.013954364694655 -0.015304976142943 -0.004462134558707 0.020864510908723 0.026895489543676 0.033640511333942
-0.027067035436630 -0.025184173136950 -0.028018154203892 -0.008961839601398 -0.015581974759698 0.032103784382343 0.051513988524675 0.062564089894295 0.062933057546616
0.006622744258493 0.016671437770128 -0.001230230322108 0.024349316954613 0.021871304139495 0.008456908166409 -0.007683576084673 0.000697696348652 0.012895422056317
-0.051087658852339 -0.060760002583265 -0.042888537049294 -0.042811796069145 -0.020256150513887 -0.000543680740520 0.004272200632840 0.020325776189566 0.016014177352190
-0.005395913962275 -0.008334753103554 -0.006328797899187 -0.008681177161634 -0.005426649469882 0.012313332408667 0.003376887878403 0.013167261146009 0.010722056962550
-0.045288734138012 -0.035978645086288 -0.031509507447481 -0.041223220527172 -0.028949342668056 -0.010059342719615 -0.020333811640739 -0.020011994987726 -0.061176180839539
0.034103926271200 0.036649815738201 0.026380917057395 0.030354674905539 0.018672367557883 0.026714330539107 0.024359188973904 0.012491391040385 0.011182514950633
-0.035432077944279 -0.051090899854898 -0.038321398198605 -0.012592664919794 0.004605052061379 0.041755229234695 0.059992413967848 0.046332933008671 0.049444954842329
0.015893798321486 0.008493575267494 0.008927271701396 0.006860570516437 0.043886672705412 0.023983752354980 0.004261510446668 -0.016385709866881 -0.007575027178973
-0.031834732741117 -0.041004296392202 -0.038415320217609 -0.002047043992206 0.032199822366238 0.050000302493572 0.054696548730135 0.016706472262740 0.025385208427906
-0.045570019632578 -0.029615748673677 -0.026508441194892 -0.019274547696114 -0.008514552377164 0.002397829899564 0.049987733364105 0.053849648684263 0.041408661752939
-0.032879199832678 -0.039829388260841 -0.020375093445182 -0.018352506682277 -0.016597023233771 -0.032469287514687 -0.004966316744685 -0.014851598069072 0.000110558998131
0.020024742931128 0.011957050301135 0.003373032202944 0.000187450306839 0.016597121953964 -0.005199501290917 -0.024766772985458 -0.016028773039579 0.008739248849452
-0.023052630946040 -0.019204350188375 -0.023253655061126 -0.032816473394632 -0.008695761673152 -0.000980178941973 -0.000172669737367 0.005468505900353 0.019941661506891
-0.009218941442668 -0.006137825082988 -0.004822726827115 0.001337081310339 0.012977171689272 0.015316693112254 0.005602862685919 0.026747630909085 0.019756661728024
-0.028268378227949 -0.045897781848907 -0.008219340816140 -0.027471687644720 -0.005855372175574 -0.000590715382714 0.004189725499600 0.003860937198624 0.002522841561586
-0.027002580463886 -0.014718176797032 -0.027837662026286 -0.017868623137474 -0.013452010229230 0.000885214540176 -0.009097389876842 -0.022324677556753 -0.047614734619856
-0.020540637895465 -0.010030261240900 -0.026333518326283 -0.035282287746668 -0.043102502822876 -0.043065119534731 -0.030929192900658 -0.037575725466013 -0.025561571121216
-0.018546141684055 -0.015447325073183 -0.007686125114560 -0.010976404882967 -0.006695036776364 -0.008222465403378 -0.003837374737486 0.013132615014911 -0.010439187288284
0.010782244615257 0.000308614835376 -0.028800755739212 -0.041526693850756 -0.024808939546347 -0.014825607649982 -0.023158274590969 -0.037535794079304 -0.039898809045553
-0.021516505628824 -0.007701558060944 -0.012858108617365 -0.019312366843224 0.019647721201181 -0.005793662741780 0.011393412016332 0.003341538831592 -0.025749808177352
-0.012610371224582 -0.042956776916981 -0.045208815485239 -0.045516196638346 0.023926420137286 0.009212890639901 -0.031650941818953 -0.025832140818238 -0.009734513238072
-0.015171152539551 -0.007518677040935 -0.008494044654071 -0.002616983139887 0.009050376713276 0.007884689606726 -0.000318705686368 0.011618791148067 0.006036607082933
-0.023306054994464 -0.037598870694637 -0.031312465667725 -0.034039303660393 -0.013642213307321 0.002461745869368 0.008970074355602 -0.007333881221712 0.024106679484248
0.000451448169770 0.002963923849165 -0.011160677298903 -0.012667125090957 0.017374007031322 0.011510741896927 0.003166951239109 0.007087368983775 -0.009172381833196
-0.036789607256651 -0.040513329207897 -0.034610234200954 -0.019385738298297 0.003807443659753 0.036373946815729 0.041890494525433 0.029297437518835 0.038755431771278
0.015819979831576 0.033667378127575 0.003054147586226 0.015570554882288 0.004081292543560 -0.006784195080400 0.012704749591649 0.006416593678296 0.017877949401736
0.019565384835005 0.017271969467402 0.030186230316758 0.002185769379139 0.008324968628585 0.032140441238880 0.021072529256344 0.003835586830974 -0.003544105682522
-0.000371239992091 -0.023593772202730 0.005571810062975 0.003867502789944 0.006726052612066 0.005171695258468 -0.004475224297494 0.006328855175525 -0.005702997092158
-0.009543961845338 -0.018065150827169 0.000659615674522 0.001877604285255 -0.005511267110705 -0.011593052186072 -0.007444950286299 -0.011713876388967 0.007897780276835
-0.038004979491234 -0.018660448491573 -0.012340506538749 -0.017373178154230 -0.002721617231146 0.010737671516836 0.021163787692785 0.042037691920996 0.045219693332911
-0.038593027740717 -0.031288731843233 -0.024228718131781 -0.010638247244060 -0.008323962800205 0.024762302637100 0.016543162986636 0.005905190482736 0.034636981785297
0.026332361623645 0.026639902964234 0.002794161904603 0.013698248192668 0.013128306716681 0.012422699481249 0.029834248125553 0.038114722818136 0.029377460479736
-0.054020598530769 -0.025179740041494 -0.033327866345644 -0.041141226887703 -0.027577614411712 -0.002113169757649 0.026287345215678 0.041332464665174 0.042382284998894
-0.020899185910821 -0.046919643878937 -0.026029866188765 -0.016025561839342 -0.010528738610446 -0.006681113969535 0.029966948553920 0.041903294622898 0.035026222467422
-0.009134385734797 -0.007909160107374 0.000798481225502 -0.000650335685350 0.005751041695476 0.018682619556785 0.038230884820223 0.052133709192276 0.057016409933567
-0.031139103695750 -0.018798891454935 -0.025741539895535 -0.019835060462356 0.002149804728106 -0.003881957149133 0.008368124254048 0.024579763412476 0.006815159693360
-0.031009061262012 -0.030676366761327 -0.037782318890095 -0.000912253512070 0.037198979407549 0.054944444447756 0.046056311577559 0.034131143242121 0.048051461577415
-0.048305828124285 -0.056607395410538 -0.033534161746502 -0.021304512396455 0.009919159114361 0.032695215195417 0.027634035795927 0.031919237226248 0.011193941347301
-0.004280179738998 -0.006400760263205 -0.010187669657171 -0.006775632034987 0.006716460455209 0.012190279550850 0.001646306249313 0.001231717295013 0.013619587756693
0.011084426194429 -0.000351395225152 -0.010922688990831 -0.008046106435359 0.026994753628969 0.021970482543111 0.012485874816775 0.059703480452299 0.078605026006699
-0.019217252731323 -0.016639845445752 -0.020658709108829 -0.012536603026092 -0.023115804418921 0.003207925241441 0.000525766285136 -0.013332616537809 -0.059689763933420
-0.048681098967791 -0.048349697142839 -0.030224286019802 -0.027037533000112 -0.003339145099744 0.004135678987950 0.031773410737514 0.029013287276030 0.020131591707468
-0.049695290625095 -0.067317761480808 -0.050894439220428 -0.034788150340319 0.025219453498721 0.061292018741369 0.067754350602627 0.054231856018305 0.025574961677194
-0.034513756632805 -0.015753271058202 -0.010071246884763 -0.018776290118694 -0.009488813579082 -0.004417630843818 0.002588189672679 0.004234724212438 0.014662409201264
0.020006479695439 0.028289817273617 -0.001727596507408 0.017950691282749 0.024941168725491 0.008653537370265 0.026083523407578 0.009929108433425 0.000376477197278
-0.005460313055664 -0.002778728958219 -0.001745883957483 -0.001993273617700 -0.003824938787147 -0.003299093805254 0.013329330831766 0.001352491904981 0.015986226499081
-0.003685959847644 -0.004535274580121 -0.035456977784634 -0.008762755431235 -0.022799367085099 -0.017488127574325 -0.003280279692262 0.005019589327276 0.021748522296548
-0.013149153441191 -0.050098016858101 -0.101177193224430 -0.076539538800716 -0.044805582612753 0.002491035265848 0.029875285923481 0.062062967568636 0.063041247427464
-0.039603520184755 -0.042442549020052 -0.020841974765062 -0.011934583075345 -0.005872054025531 -0.008051896467805 0.002390481065959 0.007135227788240 0.018484840169549
0.011494892649353 0.010640108957887 0.000381071469747 -0.002506775083020 0.004184465855360 0.001838541822508 0.003023820463568 0.000022990985599 -0.013371820561588
-0.004219003487378 -0.019123850390315 -0.014803766272962 -0.010091186501086 -0.004677066113800 0.013076225295663 -0.011885226704180 -0.020820435136557 -0.003802676685154
-0.013577024452388 -0.003908149898052 -0.007374112028629 -0.010561024770141 0.007852294482291 0.015269746072590 0.028793234378099 0.069822229444981 0.085758157074451
-0.017727462574840 -0.020907087251544 -0.020553402602673 -0.007836596108973 -0.013516818173230 -0.005862993653864 0.007742896676064 0.010047575458884 -0.009836640208960
-0.009241135790944 -0.003049328690395 -0.018044339492917 -0.003193039679900 -0.012240488082170 0.012289795093238 -0.005707440432161 0.015071419067681 0.005344734527171
-0.023370359092951 -0.031075730919838 -0.017153348773718 -0.007699946872890 0.019031444564462 0.023683389648795 0.021904336288571 0.001197684672661 0.015819041058421
-0.001525725238025 -0.016542568802834 0.000916039221920 0.005487218964845 -0.009346070699394 0.022461058571935 0.001904237316921 0.007314613554627 0.013681555166841
0.005354138556868 -0.010685573332012 0.000845798000228 -0.016724336892366 -0.013362059369683 -0.027941484004259 -0.020920580253005 -0.010526000522077 -0.018544033169746
0.006827121134847 -0.010657685808837 -0.021269155666232 -0.003866364248097 0.009415667504072 -0.006792999338359 0.011340511031449 0.001350810169242 -0.013242648914456
-0.001536246389151 -0.005917347967625 -0.034086979925632 -0.032702971249819 -0.019451966509223 0.003889708081260 0.011488874442875 0.005789736751467 0.015292869880795
-0.018757030367851 0.010869187302887 0.007352919317782 0.027718933299184 0.028156621381640 0.027326162904501 -0.000188849604456 -0.032163951545954 -0.013642464764416
-0.015883309766650 -0.008018689230084 -0.000764748896472 0.014905475080013 0.024479521438479 0.016579838469625 0.017850153148174 0.013046653009951 0.040443606674671
0.017625251784921 -0.015429223887622 -0.018826752901077 -0.041960626840591 0.014409033581614 0.047913856804371 0.080652989447117 0.076808229088783 0.062178961932659
-0.034748066216707 -0.015565333887935 0.007626533508301 0.016661250963807 0.026629429310560 0.026964340358973 0.015977799892426 0.010125643573701 -0.010984646156430
-0.019418060779572 -0.014824236743152 0.016004608944058 0.019233895465732 0.011627158150077 0.014808728359640 0.015613907016814 0.005112871527672 -0.001202267827466
-0.067100107669830 -0.052912402898073 -0.031383629888296 0.000788730278146 0.009185669012368 0.017240880057216 0.007813841104507 -0.003027499653399 -0.018785273656249
0.018991453573108 0.004692505579442 -0.000393457274185 -0.010998786427081 -0.008471792563796 -0.019225778058171 -0.005113434512168 0.008388756774366 -0.000848408264574
-0.046884708106518 -0.047970473766327 -0.027550868690014 -0.008740307763219 -0.002905717352405 0.009504538029432 0.010205026715994 -0.005986044649035 -0.032619141042233
-0.011146693490446 -0.008026117458940 -0.022015472874045 -0.017368137836456 -0.018750889226794 -0.012288675643504 -0.032205238938332 -0.022542724385858 -0.016230158507824
0.011208322830498 0.016441226005554 0.008695953525603 0.015510668046772 0.003239124547690 -0.014408172108233 0.001433066092432 -0.012051840312779 -0.003843278624117
-0.038293365389109 -0.036029301583767 -0.017285605892539 -0.012024147436023 0.015700208023190 0.012377569451928 0.002762742340565 0.022250795736909 0.023442747071385
0.005078685004264 0.009884146042168 0.028528086841106 0.028752846643329 0.016850367188454 0.025928681716323 0.013287739828229 -0.009242296218872 -0.011011889204383
-0.035883858799934 -0.040349323302507 -0.053150612860918 -0.041784338653088 -0.058106459677219 -0.043650731444359 -0.038415931165218 -0.034744564443827 -0.015322229824960
-0.006087466143072 -0.002117692958564 0.011263061314821 0.020704168826342 0.010633811354637 0.007298863027245 0.016232334077358 -0.002656035358086 -0.028333758935332
-0.048576705157757 -0.040774874389172 -0.011974301189184 0.025665322318673 0.008184238336980 0.014702622778714 0.027452496811748 0.017187641933560 0.018142813816667
-0.027327215299010 -0.035013824701309 -0.010076772421598 -0.008584848605096 0.015633823350072 0.001500155194663 0.022787788882852 -0.002164979698136 -0.003538401564583
0.024977656081319 0.017487803474069 -0.005827585700899 -0.011306128464639 -0.032293234020472 -0.036395974457264 -0.003886772785336 -0.012041466310620 -0.013717251829803
0.036561895161867 0.030705399811268 0.013805956579745 0.019072443246841 0.000463482574560 0.040346983820200 0.037450194358826 0.040626235306263 0.025507031008601
0.031972650438547 0.036404147744179 0.022576000541449 0.036281567066908 0.037191752344370 0.032348189502954 0.050419013947248 0.035654738545418 0.031112371012568
0.022546824067831 0.012020166963339 -0.002612086711451 -0.015753412619233 -0.000447956786957 -0.016253087669611 -0.010222499258816 -0.030651990324259 -0.014356755651534
0.038478732109070 0.026738053187728 0.020227255299687 -0.006263018120080 0.009108134545386 -0.006191371940076 0.001889375504106 0.014013585634530 0.017836039885879
0.030916979536414 -0.004919331055135 0.028155665844679 0.030922321602702 0.033205155283213 0.020517528057098 0.000711389002390 0.019780080765486 0.030956638976932
-0.030296145007014 -0.028465535491705 -0.024842362850904 -0.024205917492509 -0.005415158811957 -0.006492852699012 -0.004460685420781 0.002521132817492 -0.015799645334482
0.060192592442036 0.030732961371541 -0.020461739972234 -0.026335068047047 -0.029835125431418 0.008399631828070 0.015615855343640 0.021334890276194 -0.002923278836533
-0.022076515480876 -0.016572009772062 -0.038415919989347 -0.039177153259516 -0.034376062452793 -0.041384994983673 -0.027970105409622 -0.017801238223910 -0.021013028919697
-0.008954196237028 -0.011891044676304 -0.029469473287463 -0.037066597491503 -0.014563063159585 -0.007385290693492 0.031976081430912 0.028917964547873 0.054079081863165
-0.021087823435664 -0.027966402471066 0.007086107507348 0.001548718777485 0.008276865817606 0.017683425918221 0.010439747013152 0.008650929667056 0.007912142202258
-0.015409537591040 -0.001110785291530 0.002405269304290 0.025253936648369 0.015477041713893 0.023713441565633 0.017047094181180 0.022644745185971 0.009090998210013
0.002823709510267 0.000872387900017 -0.002678501419723 -0.000697445240803 -0.005832674913108 -0.020709009841084 0.000254399696132 -0.038767274469137 -0.003535994328558
0.032491590827703 0.005881228018552 0.036266155540943 0.036194670945406 0.040712356567383 0.054584458470345 0.034163508564234 0.013024707324803 0.036716084927320
0.011416404508054 0.030355501919985 0.017067547887564 0.018260614946485 0.022924607619643 0.025482879951596 0.025932066142559 0.022951684892178 0.015395500697196
0.014294054359198 0.017624014988542 -0.006230136845261 -0.006695065647364 0.022751340642571 0.024438191205263 0.010656992904842 0.005405026953667 0.014104828238487
-0.015399906784296 -0.013454322703183 -0.009196420200169 -0.026999602094293 -0.013961486518383 -0.018744496628642 -0.008976539596915 -0.005839379969984 -0.002280253218487
-0.034639384597540 -0.020589372143149 -0.012211065739393 -0.030116969719529 -0.033588655292988 -0.023321012035012 -0.033628307282925 -0.031886149197817 -0.038090728223324
-0.060341197997332 -0.049999468028545 -0.022294135764241 0.020783420652151 0.030737726017833 0.034003697335720 0.049084473401308 0.017520643770695 0.015792865306139
-0.063162066042423 -0.050623517483473 -0.040042262524366 -0.027388127520680 -0.018822042271495 -0.000902309897356 0.002715305192396 0.014866541139781 -0.009594194591045
0.016928449273109 0.029802117496729 0.034057121723890 0.044873941689730 0.052630793303251 0.045813564211130 0.049603953957558 0.053716488182545 0.038313113152981
-0.004341387189925 -0.019638335332274 0.013905565254390 0.020058620721102 0.022344497963786 0.031789246946573 0.040858648717403 0.030746368691325 -0.004827102646232
-0.033278252929449 -0.027039755135775 -0.002759337192401 0.017800327390432 0.013377009890974 -0.007358718663454 0.005466045811772 -0.003843579906970 -0.011048578657210
0.007331775967032 -0.006694862619042 0.016113210469484 0.013154897838831 0.020692724734545 0.028742155060172 0.025577772408724 0.020401619374752 -0.007085105869919
-0.014608658850193 -0.025481691583991 -0.018618373200297 -0.006474956870079 -0.002338910009712 0.010381380096078 0.014268381521106 0.017166975885630 0.008414025418460
0.008293834514916 0.030896641314030 0.027898848056793 0.042125932872295 0.014835948124528 0.045300982892513 0.027819640934467 0.015531134791672 0.006110808812082
0.013436159119010 0.025043696165085 0.015899075195193 0.020185764878988 0.020786128938198 0.015324326232076 0.022389458492398 0.024615637958050 -0.008747972548008
0.007474688347429 0.000804203038570 0.002875234000385 -0.003739761654288 -0.001374375657178 0.007800778374076 0.001936443150043 -0.007782541681081 -0.024275789037347
-0.003492634277791 -0.019762391224504 -0.006539610214531 0.013881234452128 0.020893555134535 0.043913293629885 0.044814579188824 0.034002732485533 0.011105805635452
-0.058821491897106 -0.056691765785217 -0.029946438968182 -0.019032519310713 -0.014690952375531 -0.021479124203324 -0.016125988215208 0.004360861610621 0.019859530031681
-0.061403080821037 -0.036456678062677 -0.027639620006084 -0.009005409665406 0.015388181433082 0.009736453182995 0.034740049391985 0.010632206685841 0.001380661153235
-0.007552654482424 -0.002184341195971 0.018902320414782 0.012209852226079 0.001194258453324 -0.006616241764277 0.008884628303349 -0.000370534689864 -0.013802365399897
0.025675814598799 0.029352275654674 0.015703452751040 0.018118906766176 -0.004432338289917 0.002003538887948 -0.008409912697971 0.003512465162203 -0.000502553535625
0.004192063584924 -0.002310733776540 -0.001876074471511 0.018005134537816 -0.011009341105819 -0.019569076597691 -0.017787965014577 0.013306783512235 0.001371686928906
0.014566955156624 0.002869679126889 -0.004909890238196 0.009262749925256 -0.009482075460255 0.022034673020244 0.024022512137890 0.002506129210815 -0.004569510929286
-0.015692150220275 -0.021125646308064 -0.019567837938666 0.001337072812021 0.017346663400531 0.026780039072037 0.024529956281185 0.009239726699889 -0.006453880574554
-0.048646397888660 -0.031069010496140 -0.024136625230312 0.006042769644409 0.003319345880300 0.003700532019138 -0.006738325115293 -0.029333941638470 -0.041275195777416
0.004550854675472 0.011772978119552 0.020339606329799 0.031882643699646 0.033038839697838 0.023602457717061 0.046849396079779 0.033001024276018 0.029766548424959
-0.007018628530204 0.008607847616076 0.001522281207144 0.003068182850257 0.008484204299748 -0.001129184383899 0.016717534512281 0.001650720951147 0.000613803975284
0.015467558987439 0.014695489779115 0.007933287881315 -0.008844087831676 -0.000673194124829 0.011075551621616 0.003678559791297 0.001235434436239 0.022729696705937
-0.030195515602827 -0.018335606902838 0.010736179538071 0.014957498759031 0.059382371604443 0.047211047261953 0.045817218720913 0.044329784810543 0.009333224967122
0.015889482572675 -0.005090409424156 -0.003714373102412 -0.008377125486732 -0.015474095940590 -0.008782736025751 -0.011518091894686 0.002057339530438 -0.017379809170961
0.021732622757554 -0.000298739352729 0.010481071658432 -0.001809227280319 0.009848725050688 0.013609314337373 0.018746720626950 0.011357221752405 0.012396053411067
-0.052117928862572 -0.039870101958513 -0.047463372349739 -0.031456820666790 -0.046262916177511 -0.029967943206429 -0.022892870008945 -0.004481735639274 0.007822866551578
0.013853288255632 0.007257306482643 0.002016898244619 0.031861342489719 0.011426912620664 0.033182419836521 0.035144302994013 0.030331362038851 0.014636702835560
0.008916001766920 0.010025561787188 0.002302606124431 0.001300567062572 0.037562184035778 0.035105675458908 0.021893786266446 0.009540150873363 0.004842394031584
0.019710617139935 0.005326089914888 0.022724313661456 0.019452963024378 0.017723936587572 0.022932793945074 0.042422462254763 0.061833947896957 0.049635529518127
0.023929078131914 0.021784638985991 0.029319988563657 0.028043791651726 0.020540585741401 -0.010401916690171 -0.006272174883634 -0.010297672823071 0.019486414268613
-0.009117309004068 -0.022144332528114 -0.020140105858445 0.023420566692948 0.024452829733491 0.068875990808010 0.088527642190456 0.088088281452656 0.071865759789944
-0.052899923175573 -0.037198912352324 -0.027701579034328 -0.020301086828113 -0.004613568540663 0.003676030086353 -0.005093585699797 -0.012016835622489 0.000885656103492
0.039843283593655 0.050854034721851 0.068104863166809 0.084393002092838 0.065691180527210 0.072355255484581 0.039307512342930 0.027194850146770 0.014631997793913
-0.046695511788130 -0.036147229373455 -0.032749373465776 -0.037333309650421 -0.017885237932205 -0.002229902194813 0.049275524914265 0.056570474058390 0.053694490343332
-0.101679675281048 -0.100647270679474 -0.087335921823978 -0.103074416518211 -0.110455751419067 -0.099382773041725 -0.054279234260321 -0.022341113537550 -0.010865207761526
-0.027593040838838 -0.033803645521402 -0.035195484757423 -0.024556396529078 -0.021007860079408 0.007645664270967 0.022133238613605 0.035808328539133 0.031530730426311
0.010377116501331 0.028745207935572 0.024686936289072 0.043027285486460 0.035339336842299 0.047242306172848 0.019975552335382 0.040938407182693 0.005988512653857
-0.062220387160778 -0.072452731430531 -0.069352865219116 -0.053457025438547 -0.025291260331869 -0.008533896878362 0.017700683325529 0.034248944371939 0.022654728963971
0.009150000289083 0.011910825967789 0.006135671399534 0.014723936095834 0.027486646547914 0.018763737753034 0.018082881346345 0.026684166863561 0.019390428438783
0.026830052956939 0.022487634792924 0.037768553942442 0.032418388873339 0.030107611790299 0.016755279153585 0.022423714399338 -0.001108953729272 0.004931136965752
0.042038124054670 0.068918138742447 0.038519319146872 0.023175645619631 0.008021477609873 -0.004164943471551 -0.001926946686581 0.004895279649645 0.021422736346722
-0.028407072648406 -0.014938427135348 -0.017545968294144 0.016969904303551 0.023891611024737 0.053729053586721 0.060352377593517 0.050215259194374 0.068724326789379
0.017428582534194 0.045323759317398 0.036405626684427 0.060557622462511 0.056924428790808 0.034771926701069 0.019396895542741 0.018463324755430 0.023932149633765
0.029408525675535 0.031511239707470 0.014256921596825 0.056359838694334 0.084321215748787 0.087524965405464 0.084613591432571 0.091555558145046 0.084260649979115
-0.025810966268182 -0.027133174240589 -0.026015145704150 -0.018531186506152 -0.033168576657772 -0.003614291548729 0.020722532644868 0.021708631888032 0.013862165622413
0.004860655870289 -0.014454574324191 -0.015733186155558 -0.010784383863211 -0.028489025309682 -0.001348229125142 0.028582580387592 0.057086441665888 0.063637197017670
0.021814852952957 0.042715728282928 0.004467599559575 0.008724989369512 -0.012037846259773 -0.006339372601360 0.017212549224496 0.028780207037926 0.032976891845465
-0.038094200193882 -0.022374622523785 -0.017622161656618 0.004862027708441 -0.001264984952286 0.024436693638563 0.031663686037064 0.015142190270126 0.043843615800142
-0.016455326229334 -0.009924789890647 0.002786568365991 0.001865999191068 0.021841611713171 0.035308040678501 0.042157366871834 0.048248149454594 0.023198273032904
-0.004118760116398 0.008230973966420 0.006088638212532 0.018457537516952 0.041358672082424 0.033818051218987 0.028104230761528 0.029127916321158 0.032354664057493
0.016092823818326 0.020077154040337 0.025227980688214 0.032628189772367 0.022448280826211 0.012501748278737 -0.008066504262388 -0.003093105275184 -0.006188823375851
0.015273643657565 0.018046945333481 0.000050732029194 -0.003132957266644 0.011433176696301 -0.015035549178720 -0.032213386148214 -0.018399240449071 -0.024746119976044
-0.014765378087759 -0.027713758870959 -0.008924297988415 -0.022341039031744 -0.005057866219431 -0.008770280517638 -0.005066301207989 0.001409160089679 -0.001856287126429
-0.048564825206995 -0.025646433234215 -0.012960185296834 0.025669587776065 0.036496538668871 0.023038599640131 0.022088313475251 0.008726659230888 -0.011508069932461
0.013790566474199 0.026226520538330 0.006292784586549 0.000199662550585 -0.022583369165659 0.001618336653337 -0.011446745134890 -0.011727837845683 0.009794778190553
0.002235305728391 0.035560827702284 0.058626599609852 0.065157234668732 0.072308175265789 0.043997470289469 0.004197787493467 -0.003703047754243 -0.016100307926536
0.013294658623636 0.014801393263042 0.002225856529549 0.020393876358867 0.005790277849883 0.012331475503743 0.000690405897330 0.034957170486450 0.014768882654607
0.003900591051206 -0.011599550954998 0.013163560070097 0.011071939952672 -0.004821467678994 0.010999297723174 0.039578314870596 0.021614409983158 0.020931262522936
0.010332311503589 0.026742616668344 0.010534565895796 0.022394772619009 0.022721517831087 0.027057802304626 0.027951659634709 0.028728125616908 0.012034019455314
-0.026691330596805 -0.034885976463556 -0.024687044322491 -0.022795280441642 -0.017556698992848 0.008963417261839 0.014680539257824 0.020489366725087 0.002530300058424
-0.005348087288439 0.005155909806490 0.005557283293456 0.025129335001111 0.009325104765594 0.017311902716756 0.026087280362844 0.039165861904621 0.024703444913030
0.012997473590076 0.029807049781084 0.021579327061772 0.014919336885214 0.018838420510292 0.026505976915359 0.003871611086652 0.018085509538651 0.001056790235452
0.005498128943145 0.021203780546784 0.017876299098134 0.005313144996762 0.014741173014045 0.007630679756403 0.029218014329672 0.002375531941652 0.019274394959211
0.034012928605080 0.024124085903168 0.007788205053657 0.012456495314837 -0.003180732950568 0.002531575737521 -0.003077336121351 0.001944157294929 0.014052724465728
-0.021890254691243 -0.023768801242113 -0.021858576685190 -0.004817747045308 -0.000792342936620 -0.004384812898934 0.018926247954369 0.018681719899178 0.008269129320979
-0.066697642207146 -0.062434080988169 -0.068912960588932 -0.052456162869930 -0.036411765962839 -0.051035325974226 -0.033123936504126 -0.001671257428825 -0.009952528402209
0.050835061818361 0.030947117134929 0.031323235481977 0.040178615599871 0.023715149611235 0.030823310837150 0.048045523464680 0.047805108129978 0.052248951047659
-0.041353058069944 -0.033328007906675 -0.050920508801937 -0.028325654566288 -0.006512832362205 -0.002476823749021 0.035980571061373 0.029500870034099 0.036317549645901
-0.043959390372038 -0.047206263989210 -0.045228771865368 -0.049156792461872 -0.049159303307533 -0.040212187916040 -0.008903506211936 -0.015087720938027 -0.005666730925441
-0.027149898931384 -0.029563300311565 -0.037103973329067 -0.009230077266693 -0.005101810209453 0.009499360807240 0.018199365586042 0.012118428945541 0.027039002627134
0.009369107894599 0.003019117983058 -0.001117616542615 0.004078852944076 0.018586572259665 0.018879154697061 0.006457867566496 0.017908450216055 0.024886971339583
0.017085528001189 -0.002984096994624 0.027568686753511 0.041168428957462 0.067004293203354 0.054862912744284 0.074367463588715 0.067979112267494 0.029835231602192
-0.007769662421197 -0.020666860044003 -0.010866518132389 0.000380555487936 0.021195003762841 0.010587164200842 0.030620940029621 0.044356651604176 0.049637828022242
0.010920255444944 -0.009614137001336 0.020807810127735 0.021231923252344 0.032670717686415 0.020674165338278 0.013181219808757 0.019309561699629 0.011572445742786
-0.012231152504683 -0.002996627241373 0.011185488663614 0.030888825654984 0.019240560010076 0.030532028526068 0.044778864830732 0.043555624783039 0.043697323650122
0.042384862899780 0.042944315820932 0.034906439483166 0.021126829087734 0.002691649133340 -0.037537090480328 -0.042718540877104 -0.039839852601290 -0.016748500987887
-0.036728218197823 -0.041531015187502 -0.045309722423553 -0.046112202107906 -0.036727257072926 0.001821830985136 0.004628834314644 -0.005114941857755 0.012494575232267
0.000333467847668 -0.004178031347692 -0.000289120391244 0.026157461106777 0.025870295241475 0.049690220504999 0.045678157359362 0.071763157844543 0.058519784361124
0.009745400398970 0.008930682204664 0.004331277683377 0.016979115083814 0.016168534755707 0.034970004111528 0.014970585703850 0.023077253252268 0.010817531496286
0.021874550729990 0.020179159939289 -0.003126600291580 0.021595664322376 0.012796657159925 0.001807609223761 0.008598751388490 0.007681771181524 -0.002955243922770
0.007255479227751 -0.005724209360778 0.018544878810644 0.005216369871050 0.024175863713026 0.011943702585995 0.009342418052256 0.028122188523412 0.014994948171079
0.003625127952546 -0.001884269644506 -0.016580741852522 0.016823230311275 0.007029545493424 0.030682213604450 0.029034819453955 0.054534152150154 0.048692788928747
0.007750143297017 0.006732688285410 0.002439364790916 -0.022389780730009 0.011242870241404 0.029322842136025 0.116803847253323 0.104686938226223 0.116287834942341
-0.016391590237617 -0.025634268298745 -0.007757619954646 0.011198158375919 0.005714290309697 0.025968654081225 0.040424983948469 0.059263706207275 0.048958420753479
-0.007902857847512 -0.007417141459882 -0.012368857860565 0.013572439551353 0.008921295404434 0.017524518072605 -0.003184403758496 0.025975765660405 0.014705903828144
0.024146873503923 0.029682725667953 0.023347498849034 0.026751203462481 0.031028505414724 0.026796074584126 0.021750083193183 0.015373263508081 0.012908106669784
-0.012772520072758 -0.024748492985964 -0.025126598775387 -0.008830458857119 -0.001266331411898 0.028802750632167 0.057165067642927 0.076932616531849 0.082669876515865
-0.007480463013053 -0.022631807252765 -0.000655286130495 0.006823492702097 0.012985619716346 0.029749339446425 0.011289771646261 0.039655745029449 0.040324725210667
0.005677226930857 0.014475183561444 0.009171021170914 0.015795553103089 0.018714297562838 0.034859914332628 0.024959906935692 0.038861546665430 0.037326544523239
-0.023477807641029 -0.026855753734708 -0.043695468455553 -0.059859383851290 -0.058936197310686 -0.026025425642729 0.004623819608241 0.019347000867128 0.032969493418932
0.011908431537449 0.011668112128973 -0.017081167548895 -0.015619241632521 -0.029363034293056 -0.023684861138463 -0.040535535663366 -0.052914395928383 -0.061990059912205
-0.022059632465243 -0.023524345830083 -0.010838735848665 -0.019580686464906 0.013892153277993 0.002252995967865 0.009483197703958 0.004592625889927 -0.009788756258786
-0.030059376731515 -0.036411512643099 -0.037516843527555 -0.047463007271290 -0.052766602486372 -0.018664693459868 0.001144200563431 0.008253275416791 0.005546195898205
-0.013080379925668 -0.045491699129343 -0.061809130012989 -0.036865428090096 -0.041300643235445 -0.036107897758484 -0.035007357597351 -0.056163571774960 -0.041560817509890
-0.062167700380087 -0.093863099813461 -0.126057997345924 -0.105777785181999 -0.073049940168858 0.000876533158589 0.054655563086271 0.056778024882078 0.028312718495727
-0.071389086544514 -0.055634088814259 -0.067669749259949 -0.015572672709823 0.001157071092166 0.044430773705244 0.038735412061214 0.024327611550689 -0.025312837213278
0.025775739923120 -0.026048773899674 -0.120768040418625 -0.104540601372719 -0.010344515554607 0.087229564785957 0.113807573914528 0.045822970569134 -0.030846428126097
-0.038758303970098 -0.034146632999182 -0.077313229441643 -0.081887051463127 -0.045080587267876 -0.007185752037913 0.042213153094053 0.058971993625164 0.077088616788387
0.015703940764070 -0.003648299025372 -0.051787182688713 -0.083868920803070 -0.075516730546951 -0.038357060402632 0.006821392569691 0.022229209542274 0.021217193454504
-0.035569217056036 -0.053739041090012 -0.099175646901131 -0.111379817128181 -0.071436136960983 -0.000610628048889 0.043324328958988 0.050702285021544 0.050885830074549
-0.004844460636377 -0.026085985824466 -0.025512138381600 0.003314148867503 0.026279749348760 0.039743911474943 0.024198397994041 0.006429480854422 -0.010561694391072
-0.052666038274765 -0.060719966888428 -0.046774908900261 -0.042232546955347 -0.016694316640496 0.020582677796483 0.045402027666569 0.067874856293201 0.063433744013309
-0.003777326084673 -0.007362733595073 0.009295844472945 -0.004873469006270 0.031193697825074 0.022001694887877 0.025643341243267 0.010461627505720 0.012419983744621
-0.048248384147882 -0.067542776465416 -0.022147933021188 0.001455680001527 0.091383159160614 0.071297556161880 0.019282069057226 -0.011977478861809 -0.015655850991607
0.047834996134043 0.017587862908840 0.023089280351996 0.020058805122972 0.060393188148737 0.044218778610229 0.028994772583246 0.020725514739752 -0.006895630154759
-0.066366560757160 -0.082726150751114 -0.106115125119686 -0.065342113375664 -0.084705479443073 -0.020954227074981 0.007888871245086 0.051961954683065 0.044648099690676
0.006874989252537 -0.017828313633800 -0.014741871505976 0.012133274227381 0.044309947639704 0.073953635990620 0.073793746531010 0.035108380019665 -0.011522777378559
-0.057741209864616 -0.045081563293934 -0.068955674767494 -0.053322937339544 -0.009657332673669 0.016311287879944 0.053015142679214 0.035358589142561 0.061827536672354
0.034681238234043 0.000570960226469 -0.011490787379444 -0.039236132055521 -0.019644433632493 0.000040462757170 0.033833906054497 0.078340530395508 0.071039408445358
0.010919664986432 0.004633817821741 -0.041253644973040 -0.044859390705824 -0.080263458192348 -0.045421618968248 -0.029729567468166 -0.022996099665761 -0.001530876266770
0.031825412064791 0.042609639465809 0.022289855405688 0.004223333206028 0.030016236007214 0.017932876944542 0.026094790548086 0.010587312281132 0.032456312328577
-0.087059199810028 -0.087324574589729 -0.101842388510704 -0.084859885275364 -0.061627075076103 -0.007972025312483 0.022565554827452 0.017858140170574 -0.001869183150120
-0.021007386967540 -0.002334359101951 0.000210155354580 -0.009845850989223 -0.009133922867477 -0.007419340312481 -0.007284924853593 0.006621172185987 0.015755388885736
-0.043506138026714 -0.040067445486784 -0.019051540642977 -0.012422595173120 0.018363639712334 0.032735038548708 0.041965637356043 0.005472700111568 -0.038666952401400
-0.009045331738889 -0.048781827092171 -0.067651972174644 -0.005509512964636 0.045382592827082 0.077329516410828 0.067076429724693 0.003768852446228 -0.029748814180493
0.039800751954317 0.003242568345740 -0.004572437610477 -0.002681708429009 0.003494604956359 0.044324811547995 0.055473145097494 0.022325646132231 0.005030093248934
-0.020131820812821 -0.024221334606409 -0.003745634807274 -0.006763560697436 -0.009815423749387 -0.010814773850143 0.011187051422894 0.021682979539037 -0.003055467503145
-0.012267253361642 -0.053498450666666 -0.057260528206825 -0.025115571916103 0.040491923689842 0.077629886567593 0.071456044912338 0.006599612068385 -0.047990657389164
0.001656499109231 -0.006590245757252 0.008710373193026 0.011038182303309 0.016287581995130 -0.005707287229598 0.005428206175566 -0.003941687289625 0.011383088305593
-0.087167933583260 -0.083110764622688 -0.042688686400652 -0.001495969831012 0.092083252966404 0.115472279489040 0.062886938452721 -0.035066444426775 -0.068133451044559
-0.017607426270843 -0.029882002621889 -0.010077720507979 -0.034848574548960 -0.036073092371225 -0.039675191044807 -0.016346713528037 0.005837454926223 -0.005167822819203
0.010040061548352 -0.002086831722409 -0.048324454575777 -0.074190899729729 -0.036075375974178 -0.018407048657537 0.033579748123884 0.037275146692991 0.036177821457386
0.018606949597597 0.009615898132324 0.021124269813299 0.030210424214602 0.035727620124817 0.029776690527797 0.029189674183726 0.023265788331628 0.034033823758364
-0.037662897258997 -0.047442283481359 -0.072381533682346 -0.079445719718933 -0.056421540677547 -0.026031624525785 0.000071835456765 0.013063130900264 0.002504200907424
0.042088545858860 0.011614464223385 0.012440118007362 0.000452726031654 -0.009839379228652 -0.000457381334854 0.012691102921963 0.002903303131461 -0.004628488328308
-0.003342730225995 0.002587097464129 -0.003979871515185 0.000527601398062 0.032649207860231 0.038016028702259 0.006051152013242 -0.002813402563334 0.012351512908936
0.010262871161103 0.008044977672398 0.009312327951193 0.005833302624524 0.012001667171717 -0.006522503215820 -0.001870947424322 0.018148375675082 0.008407175540924
0.008047913201153 -0.008010948076844 -0.002575255464762 0.016070900484920 -0.004992264322937 0.008668486960232 0.010817606933415 0.034393496811390 0.039008274674416
-0.019792977720499 -0.034689892083406 -0.044387940317392 -0.031101034954190 -0.061336386948824 0.005866567138582 0.023726332932711 0.039855632930994 0.064754307270050
-0.010224441997707 -0.013963990844786 -0.003573127789423 0.005484819877893 -0.021752661094069 -0.009239778853953 0.011481468565762 0.021403113380075 0.008144173771143
-0.000034426688217 -0.014953955076635 -0.033040866255760 -0.043315649032593 -0.001262245350517 -0.010372496210039 -0.021572494879365 -0.028105258941650 -0.026289938017726
-0.047030035406351 -0.047242023050785 -0.055938545614481 -0.041454903781414 -0.044184260070324 -0.009513982571661 0.021651756018400 0.035009603947401 0.020584259182215
-0.012403517030180 -0.064199350774288 -0.086370252072811 -0.128042280673981 -0.085201911628246 -0.034143269062042 0.031354431062937 0.068236477673054 0.067007876932621
-0.040780160576105 -0.032660618424416 -0.035157054662704 -0.038557842373848 -0.041743755340576 -0.009887364692986 0.015017554163933 0.035066660493612 0.048281852155924
0.016403701156378 0.010317021980882 -0.005251391790807 -0.000128984829644 -0.034361168742180 -0.034267287701368 -0.033303193747997 -0.022608589380980 -0.033862762153149
-0.048027072101831 -0.049437802284956 -0.090068295598030 -0.069713070988655 -0.008500984869897 0.073002696037292 0.100688211619854 0.098066225647926 0.085864834487438
-0.045025005936623 -0.051224157214165 -0.049365803599358 -0.024759029969573 -0.026890024542809 0.019514298066497 0.060830399394035 0.036579009145498 0.050401594489813
-0.008985503576696 0.016679646447301 0.002103121951222 0.000845095841214 0.021306607872248 0.040603484958410 0.034480895847082 0.016238255426288 0.006443616934121
0.010903391055763 -0.040467206388712 -0.114102602005005 -0.126963704824448 -0.094847202301025 0.001518736127764 0.024316169321537 0.038197584450245 0.061719775199890
0.021167285740376 -0.021262889727950 -0.027808977290988 -0.025058072060347 -0.050698392093182 -0.024383276700974 -0.000357515236828 -0.021818896755576 -0.035880140960217
0.011188471689820 -0.016827058047056 -0.050980735570192 -0.068508148193359 -0.051861330866814 -0.000148854494910 0.055986262857914 0.040500640869141 0.038017295300961
-0.052402067929506 -0.083794526755810 -0.126965656876564 -0.096639618277550 -0.018308591097593 0.064578853547573 0.125107824802399 0.106117345392704 0.085823647677898
-0.029739351943135 -0.024722941219807 -0.004531327169389 0.003199080936611 0.001995391910896 0.027455208823085 0.041599072515965 0.034245956689119 0.019940424710512
0.002343489322811 -0.000580367748626 0.004537966568023 0.005146493203938 -0.000033050822822 0.017302958294749 -0.016272118315101 -0.032299153506756 -0.044510196894407
0.006105172913522 0.001697021187283 0.014357544481754 0.026570094749331 0.013992195017636 0.003790893359110 0.032219290733337 0.025530055165291 0.002767397090793
0.042716626077890 0.007063265424222 -0.042028538882732 -0.065194077789783 -0.034265197813511 0.002518863650039 0.055697467178106 0.041355445981026 0.019420087337494
0.004427151754498 -0.030191401019692 -0.087207607924938 -0.136274486780167 -0.093698844313622 0.017243167385459 0.105946958065033 0.144321978092194 0.145273536443710
0.011352228932083 -0.017264574766159 -0.026702800765634 -0.037472151219845 -0.010091339237988 0.025762643665075 0.049337577074766 0.053268503397703 0.039295181632042
-0.011834687553346 0.008476242423058 -0.013206963427365 -0.008821188472211 -0.000305245106574 0.001706238137558 0.014299456030130 0.010561446659267 -0.020510001108050
-0.013537617400289 0.003848240477964 -0.006895598955452 -0.004032673314214 0.001320910756476 0.035706099122763 0.009590296074748 0.016962818801403 0.005943875759840
-0.039529532194138 -0.053327221423388 -0.078870087862015 -0.098545759916306 -0.083877511322498 -0.018474550917745 0.036251239478588 0.034243132919073 0.037522528320551
-0.022610345855355 -0.018493575975299 -0.012248124927282 0.003750757779926 0.002848602598533 0.025290416553617 0.028207710012794 -0.003785775043070 0.013480639085174
-0.010578079149127 -0.014244899153709 0.010997253470123 0.014766333624721 0.010729601606727 0.019717669114470 0.021269695833325 0.005163902416825 0.006316469050944
0.000430817424785 -0.004921788815409 -0.020917398855090 -0.004777438007295 -0.020020179450512 0.030182978138328 0.049960792064667 0.077516064047813 0.060869324952364
0.031580064445734 0.010061084292829 0.004406708292663 0.004159467760473 0.006242905743420 0.025729972869158 0.056770924478769 0.046453371644020 0.045759636908770
0.002227229764685 0.021554272621870 0.011417598463595 -0.005099914502352 0.011391781270504 0.004488741979003 0.026405228301883 0.008553355000913 0.007292322348803
0.015865277498960 -0.021408680826426 -0.020232599228621 -0.023026499897242 -0.001948138000444 0.066400699317455 0.120343446731567 0.120768524706364 0.092753514647484
0.003851687768474 -0.006640851497650 -0.007846565917134 0.012045912444592 0.007705912459642 -0.005171380471438 -0.011189790442586 -0.008300550282001 0.008966286666691
-0.063469454646111 -0.063509561121464 -0.060187321156263 -0.021222669631243 -0.018038537353277 0.010570187121630 0.038336709141731 0.063144609332085 0.044180389493704
-0.008921119384468 -0.031602416187525 -0.020246740430593 -0.019834183156490 -0.001454751356505 0.006726943887770 0.001269378466532 0.011585665866733 -0.023507235571742
0.147845983505249 0.059052199125290 -0.033080928027630 -0.022964483126998 -0.007682891562581 0.078247331082821 0.089485839009285 0.016120500862598 -0.090225107967854
-0.053274605423212 -0.062365889549255 -0.053488235920668 -0.042355332523584 -0.020818576216698 0.015031742863357 0.048249740153551 0.057605758309364 0.044117920100689
-0.127472326159477 -0.086087569594383 -0.078176744282246 -0.049600634723902 -0.030590154230595 0.013729065656662 0.067745305597782 0.100224584341049 0.092930793762207
-0.044570144265890 -0.036467570811510 -0.041794009506702 -0.022097319364548 -0.027976881712675 -0.007092221640050 0.031891223043203 0.048970833420753 0.063955292105675
0.018254965543747 -0.000214545856579 0.001797829754651 0.023505611345172 0.053959906101227 0.041715260595083 0.018216395750642 0.015273184515536 -0.000503104703967
-0.152111053466797 -0.108624786138535 -0.115757107734680 -0.075272664427757 -0.028017671778798 0.042097333818674 0.088083595037460 0.065259627997875 0.042268224060535
0.032797694206238 0.031283840537071 0.008661498315632 0.015664823353291 0.035535652190447 0.019684180617332 0.024845639243722 0.015453509055078 -0.002334394259378
-0.034362792968750 -0.026737282052636 -0.013575922697783 -0.018511245027184 -0.008161956444383 -0.027511455118656 -0.018393145874143 -0.016998242586851 -0.022915765643120
-0.010563269257545 -0.004758039955050 -0.012376907281578 -0.015130897983909 0.015305313281715 0.019652178511024 0.012047810479999 0.009621589444578 0.038539655506611
-0.048443570733070 -0.029766764491796 -0.028005283325911 -0.015804955735803 0.014143312349916 0.020474385470152 0.054704416543245 0.077486187219620 0.056481335312128
0.043730594217777 0.039457030594349 0.024545494467020 0.020935827866197 0.018828768283129 0.016777317970991 -0.027558349072933 -0.077444240450859 -0.093885593116283
-0.022586759179831 -0.030109209939837 -0.017646431922913 0.004616776015610 0.019764361903071 0.047234904021025 0.045644845813513 0.031912185251713 0.022188980132341
-0.014422991313040 -0.005522984545678 -0.026122830808163 -0.013599662110209 -0.013039086945355 0.002761202398688 0.047607839107513 0.048114936798811 0.029859071597457
0.032819725573063 0.024591328576207 0.017917193472385 0.004308564122766 -0.015042703598738 0.054387826472521 0.116279773414135 0.116076774895191 0.097632899880409
0.032058969140053 -0.001632515457459 -0.001297115697525 -0.016235731542110 -0.053008746355772 -0.012032208032906 0.001100187771954 -0.009792073629797 -0.006909765768796
-0.036580011248589 -0.025841936469078 -0.049283266067505 -0.030055699869990 -0.024525893852115 0.075449533760548 0.109617359936237 0.115018606185913 0.089085958898067
-0.006640519015491 0.000487199547933 0.010657964274287 0.025563007220626 0.022262405604124 0.030157035216689 0.056241679936647 0.048259548842907 0.032880865037441
-0.001588352373801 0.011496608145535 0.000950290355831 0.007918755523860 0.012911951169372 0.021841557696462 0.016340363770723 0.006580436136574 -0.014642334543169
0.032370656728745 0.045322135090828 0.026056364178658 0.019932601600885 -0.016973676159978 -0.021501975134015 -0.043177090585232 -0.043968454003334 -0.048456318676472
0.006983470637351 -0.002134592272341 -0.007178985048085 -0.018108639866114 -0.009514252655208 -0.006048062816262 -0.027967777103186 -0.010181116871536 -0.017600510269403
-0.072273939847946 -0.036653671413660 -0.055435329675674 -0.041697338223457 -0.053247485309839 -0.010543933138251 0.021701715886593 0.070530250668526 0.053324263542891
0.086051277816296 0.020927339792252 -0.027255274355412 -0.018212389200926 -0.001289645559154 0.069657973945141 0.104146465659142 0.063088767230511 -0.032146975398064
0.017218573018909 0.004533526487648 -0.009862861596048 -0.000316020188620 -0.017347907647491 -0.007416588254273 -0.024714708328247 -0.051722027361393 -0.023514449596405
0.060017388314009 0.034876916557550 0.015248903073370 0.010965482331812 0.035923700779676 0.067336134612560 0.027335822582245 -0.008355707861483 -0.034301318228245
-0.046720530837774 -0.034644197672606 -0.021493801847100 -0.008259267546237 -0.017626944929361 0.007659922353923 0.058157034218311 0.065814793109894 0.046813260763884
0.037420019507408 0.010510685853660 -0.017662711441517 -0.029298003762960 -0.027053754776716 0.007134666200727 0.025121260434389 0.041212916374207 0.003866482758895
0.027835505083203 0.016460774466395 0.009350867941976 0.019964423030615 0.014899840578437 0.010493242181838 -0.008676791563630 0.005052800755948 -0.013266319409013
-0.023727955296636 -0.014108764939010 -0.002159457886592 -0.036662425845861 -0.007091793697327 0.009825708344579 0.019888257607818 0.038003969937563 0.047293890267611
0.066902883350849 0.057118490338326 0.046914707869291 0.070178441703320 0.051122665405273 0.084832906723022 0.098723061382771 0.081101916730404 0.075117237865925
0.030723519623280 0.008786094374955 0.004186130594462 -0.036814689636230 -0.027432128787041 -0.013884006999433 -0.014632748439908 -0.049055773764849 -0.049533441662788
0.007076987065375 0.008431346155703 0.009762804955244 0.018035819754004 0.002591062802821 -0.005015403032303 0.010973145253956 0.011514880694449 -0.012557513080537
0.022236054763198 0.024199409410357 0.029317395761609 0.036628052592278 0.025139203295112 0.027368733659387 0.006907321512699 -0.000422718032496 0.013445123098791
-0.073159150779247 -0.047214787453413 -0.040473964065313 -0.024096740409732 -0.016707977280021 0.022230535745621 0.053297039121389 0.078577585518360 0.063998937606812
-0.032253284007311 -0.047803085297346 -0.046693187206984 -0.040804937481880 -0.035910110920668 0.013727062381804 0.049477893859148 0.079692810773849 0.061596143990755
0.035084526985884 0.018118416890502 0.007400294300169 0.019958846271038 -0.013381406664848 0.010252598673105 0.011165045201778 0.012087291106582 0.010294674895704
-0.068491794168949 -0.079591758549213 -0.067328020930290 -0.058859787881374 -0.023102460429072 0.042588416486979 0.076782219111919 0.070034824311733 0.078172490000725
-0.086579099297523 -0.093874730169773 -0.081228315830231 -0.074815340340137 -0.058081496506929 -0.053639203310013 0.006645491346717 0.021341305226088 0.014004786498845
-0.031365323811769 -0.043507046997547 -0.043977212160826 -0.022305237129331 -0.017736572772264 0.017154255881906 0.063311107456684 0.045484982430935 0.032729536294937
0.027858333662152 0.033835377544165 0.008469841443002 0.033075232058764 0.046736638993025 0.085529223084450 0.127410247921944 0.120132908225060 0.115474767982960
-0.015993474051356 -0.018287198618054 -0.012966394424438 -0.012683458626270 0.006063425447792 0.021310180425644 -0.019441302865744 -0.033378526568413 -0.055945504456758
-0.000403162965085 -0.012162843719125 -0.009207390248775 -0.022136837244034 -0.019463157281280 -0.008850721642375 -0.002356422366574 -0.013685788959265 -0.025964325293899
0.024991722777486 0.029769910499454 0.016204476356506 0.022271573543549 0.026411442086101 0.035173013806343 0.001718477578834 0.020270997658372 0.001842668047175
0.000777605921030 -0.013904033228755 -0.035017412155867 -0.037947084754705 0.001492058974691 0.067525207996368 0.072262972593307 0.050537496805191 0.010240409523249
0.005381892900914 0.009405438788235 -0.017521603032947 -0.014218561351299 -0.060493376106024 -0.040688030421734 -0.059845186769962 -0.092023007571697 -0.013697043061256
-0.017389375716448 -0.038135755807161 -0.037386491894722 -0.029391109943390 -0.018144639208913 0.015249681659043 0.019901162013412 0.016636837273836 0.004828602075577
0.011544669978321 -0.009564506821334 -0.027667459100485 -0.034862641245127 -0.022853823378682 -0.022681459784508 -0.008462075144053 -0.015000782907009 -0.010378556326032
0.008344660513103 0.017859406769276 0.003223583567888 0.013851045630872 0.012710652314126 0.007079324685037 0.028284598141909 0.005019792355597 0.017861343920231
-0.006136433687061 0.004405330400914 -0.016436045989394 -0.034433972090483 -0.025567501783371 -0.019983451813459 -0.014460043050349 -0.028068751096725 -0.040512524545193
0.012453095056117 0.007316104602069 0.020884284749627 0.021411931142211 0.004768446087837 0.000129463020130 0.027981527149677 0.004639456048608 0.010999633930624
0.021330185234547 0.005811036564410 -0.031998958438635 -0.032281581312418 -0.035221762955189 0.018087025731802 0.070469848811626 0.072871878743172 0.059027079492807
-0.008711891248822 -0.015640137717128 -0.032297864556313 -0.016889622434974 0.022000070661306 0.048893447965384 0.080294057726860 0.072360508143902 0.078052096068859
-0.063177518546581 -0.035744965076447 -0.004680478014052 0.035335935652256 0.049707420170307 0.068491801619530 0.072332635521889 0.050757829099894 0.061292979866266
0.006754695903510 0.000542377936654 0.015841672196984 -0.001706051407382 0.027678059414029 0.004993170965463 0.026027353480458 0.023410316556692 0.015619188547134
0.013670931570232 0.015772378072143 0.010810140520334 0.010006630793214 0.003436563536525 0.008136011660099 -0.004039942752570 -0.002585687907413 -0.002657792298123
-0.080318883061409 -0.084630876779556 -0.081870295107365 -0.067929141223431 -0.033203534781933 0.031882110983133 0.056093979626894 0.089540019631386 0.092601418495178
0.013813139870763 0.007961647585034 0.007878611795604 0.002716606017202 0.017861228436232 0.025719210505486 0.021872026845813 0.026483817026019 0.020171206444502
0.031680721789598 0.025266448035836 0.005606494378299 0.000643138831947 0.033623799681664 0.014816735871136 0.032749701291323 0.014491715468466 -0.006223844364285
-0.044877231121063 -0.061085827648640 -0.052261531352997 -0.061953052878380 -0.075928844511509 -0.035688616335392 -0.039877202361822 -0.019817212596536 -0.025859493762255
-0.026061125099659 -0.023999879136682 -0.019213041290641 -0.013715077191591 -0.004977252800018 0.040675193071365 0.057556092739105 0.050669375807047 0.053936287760735
-0.015646317973733 -0.017767116427422 -0.012775310315192 -0.012739549390972 -0.007909655570984 -0.000786254066043 0.000191564060515 -0.005744011141360 -0.000672484689858
0.041968531906605 0.005994824226946 -0.006604548078030 0.001799446530640 -0.005954698659480 0.004166690167040 0.006226343568414 0.016940666362643 0.006302900612354
-0.025768060237169 -0.011530972085893 -0.016124395653605 -0.007429443765432 0.007986993528903 -0.007829351350665 0.004309856798500 -0.014872140251100 -0.007224929984659
-0.030918795615435 -0.008429381996393 -0.014932603575289 0.034422669559717 0.068797565996647 0.085371278226376 0.042267736047506 0.029398480430245 0.016582386568189
-0.043401602655649 -0.028051363304257 -0.008268074132502 -0.017119405791163 0.025667708367109 0.036908023059368 0.035523477941751 0.015852259472013 -0.007984580472112
-0.040446221828461 -0.075330570340157 -0.093195043504238 -0.033451568335295 0.050930358469486 0.097699202597141 0.071215718984604 0.042606204748154 -0.007347499486059
-0.043832965195179 -0.026561230421066 -0.012932983227074 0.008122848346829 0.047149740159512 0.075592570006847 0.069599680602551 0.066366441547871 0.028781130909920
-0.104317612946033 -0.089285150170326 -0.111682176589966 -0.094703413546085 -0.097305856645107 -0.088133186101913 -0.091993488371372 -0.090512752532959 -0.066551536321640
-0.040124159306288 -0.017898211255670 -0.046037785708904 0.000864895875566 0.018814384937286 0.015282094478607 0.000631229078863 -0.021515522152185 0.009637574665248
0.015081361867487 0.009606270119548 0.017502145841718 0.020685525611043 0.022881748154759 0.035389687865973 0.019278213381767 0.028103150427341 0.025310734286904
-0.061283692717552 -0.059592060744762 -0.059637956321239 -0.018169026821852 0.012659647502005 0.044921524822712 0.043563831597567 0.024796254932880 0.014396972022951
0.018524548038840 0.007157066371292 0.007773341611028 0.018582498654723 0.020196050405502 0.018234645947814 0.028873909264803 0.019817335531116 -0.015563062392175
-0.013291384093463 0.003811760572717 -0.008128427900374 -0.015209064818919 -0.001892568659969 0.008543564006686 -0.005428885109723 -0.016097545623779 -0.037344895303249
0.006907555274665 0.004463666118681 -0.004041813313961 0.008097207173705 -0.008608750067651 -0.016680847853422 -0.019200749695301 -0.007112187799066 -0.001511458540335
-0.040043946355581 -0.030497632920742 -0.024319581687450 0.011948453262448 0.045445390045643 0.047336533665657 0.027257407084107 0.000885956687853 -0.002016330836341
-0.005333708599210 0.002828177995980 0.018030773848295 0.014555391855538 0.026462845504284 0.006414603441954 -0.023156573995948 -0.038121238350868 -0.014120901934803
-0.008052403107285 0.004287099000067 0.023891324177384 0.055037952959538 0.111034326255322 0.101426601409912 0.086705781519413 0.032450120896101 0.012910299934447
-0.058568418025970 -0.052702654153109 -0.044190883636475 -0.023225724697113 -0.001361321192235 0.029054028913379 0.016040239483118 -0.014387240633368 -0.017335534095764
-0.005678818561137 -0.028547504916787 -0.039736215025187 -0.027701141312718 -0.043205671012402 -0.029309529811144 -0.008222050033510 -0.003160556079820 -0.022067228332162
-0.009229917079210 0.007190327160060 -0.019230362027884 -0.004780351184309 0.011491262353957 0.000757070782129 -0.020000476390123 -0.038333564996719 -0.030838904902339
-0.011454681865871 -0.029814252629876 -0.021721499040723 -0.014479659497738 0.022574054077268 0.032066833227873 0.027416221797466 0.004216800909489 0.012435509823263
-0.017253752797842 -0.015636038035154 0.004202232230455 0.021812692284584 0.041959274560213 0.052153822034597 0.066218137741089 0.062546320259571 0.044343672692776
0.013437101617455 -0.002864910988137 0.010125954635441 0.008525647222996 0.002730672014877 0.036329396069050 0.019807139411569 -0.001980380620807 0.010427265428007
