-0.043630339205265
0.082517907023430
-0.009400703012943
-0.042438242584467
-0.012833489105105
-0.083186723291874
-0.193902701139450
-0.043189182877541
-0.255201160907745
0.003721188521013
-0.253054022789001
0.047044124454260
-0.013228123076260
-0.011507977731526
-0.049435041844845
0.080884225666523
-0.124793462455273
0.053553394973278
-0.212259218096733
-0.080644108355045
-0.010060610249639
0.126496732234955
-0.065933652222157
0.076630227267742
0.043255757540464
0.011730459518731
0.023979449644685
0.049271140247583
0.019346598535776
-0.142613410949707
-0.217339128255844
-0.046873673796654
-0.073512040078640
-0.061280414462090
-0.046971376985312
0.003970791120082
0.101845055818558
0.020072860643268
0.024798261001706
0.025012973695993
0.023217231035233
0.000728271785192
0.091999448835850
0.060571897774935
0.024580840021372
0.102218739688396
-0.010829758830369
0.005710334517062
-0.018402038142085
-0.016049267724156
0.011707198806107
-0.123055614531040
0.072785377502441
0.119952052831650
0.050848044455051
-0.215614870190620
-0.026096137240529
-0.149269953370094
0.232620626688004
0.005597173701972
0.027563320472836
-0.228151097893715
0.035199407488108
-0.163580119609833
