0.104808136820793
0.039790254086256
-0.177217796444893
0.067189879715443
0.137808322906494
0.019897505640984
0.085339829325676
0.076397076249123
-0.018730586394668
-0.173494696617126
0.055320292711258
-0.156250610947609
0.070715792477131
-0.106053493916988
-0.076781757175922
0.103792615234852
0.124129623174667
0.056452855467796
0.188532039523125
0.049708817154169
-0.353715509176254
0.206851497292519
0.124156594276428
0.126580148935318
0.106129460036755
0.078536376357079
-0.472039610147476
0.160765886306763
0.140562430024147
-0.223486542701721
0.031398590654135
-0.135259762406349
-0.049884557723999
-0.237983331084251
-0.435605019330978
-0.377928972244263
-0.249525904655457
-0.035132084041834
0.107890725135803
0.031130334362388
-0.330695331096649
0.044237688183784
-0.448832035064697
0.125287041068077
-0.519112706184387
-0.029296448454261
-0.076710015535355
0.048854246735573
0.283849239349365
-0.401688069105148
-0.028921853750944
0.027639806270599
0.080234237015247
0.198618724942207
0.094635710120201
0.186595156788826
-0.352697968482971
-0.147343039512634
0.116132520139217
0.126915946602821
0.148617282509804
-0.196096956729889
-0.290294736623764
-0.046036351472139
