-0.000000041553161
0.000000017795621
-0.000000010862281
-0.000000063198343
0.000000040101817
0.000000012272356
0.000000018131512
0.000000002390188
-0.000000007492290
0.000000058451374
0.000000057724588
0.000000047059586
0.000000025735087
0.000000006698647
-0.000000017801893
-0.000000027150509
0.000000009883128
0.000000027015925
0.000000012551616
0.000000087632046
-0.000000086805123
-0.000000000854512
-0.000000029625150
-0.000000093902742
-0.000000003779664
-0.000000040300932
-0.000000031327218
0.000000006971850
0.000000008419184
-0.000000019655927
-0.000000014799496
0.000000041375618
-0.000000008862277
0.000000049761589
0.000000040504460
-0.000000009610747
0.000000018472898
0.000000015443769
0.000000019752370
0.000000091139995
0.000000008392799
-0.000000004840361
0.000000041260652
-0.000000041571184
0.000000012771337
0.000000045989683
-0.000000040916650
-0.000000007234862
0.000000009708683
-0.000000004777792
0.000000103668384
0.000000162719431
0.000000004664373
0.000000037147068
-0.000000053157503
0.000000065246624
0.000000011695268
0.000000021803400
0.000000010225611
-0.000000021695051
-0.000000053692148
-0.000000056823914
-0.000000009057435
0.000000000929515
-0.000000013138274
-0.000000028849051
-0.000000031982005
0.000000028476162
0.000000035511789
0.000000023252086
-0.000000013551847
0.000000016145750
-0.000000013701180
-0.000000160817109
0.000000035909267
-0.000000010023468
0.000000045394604
-0.000000043177025
-0.000000000188064
0.000000004663704
-0.000000028838052
0.000000022611498
0.000000126381920
-0.000000034211283
0.000000127732434
-0.000000004014113
0.000000030496921
-0.000000004232006
-0.000000063224995
0.000000009034925
-0.000000021936469
-0.000000042058009
0.000000018632184
-0.000000008336730
0.000000009255922
0.000000032644277
-0.000000024572984
-0.000000045620549
0.000000023029301
0.000000000936503
0.000000011249328
0.000000054581150
0.000000007475434
0.000000060629965
-0.000000026606479
-0.000000060762069
0.000000048205063
-0.000000083719890
-0.000000037406267
-0.000000027403539
-0.000000053349886
-0.000000028927177
-0.000000063646311
-0.000000000807923
-0.000000034373752
-0.000000020933006
0.000000006789655
0.000000028633762
-0.000000007220478
0.000000010377883
0.000000073798056
0.000000036932537
0.000000056001898
-0.000000015560484
0.000000016161394
0.000000064599639
-0.000000056037194
0.000000018976317
