-0.180618703365326
0.073557034134865
-0.191052079200745
0.044978000223637
-0.264687776565552
-0.011332144960761
0.096173882484436
0.061193823814392
-0.119816832244396
-0.177678555250168
0.133443921804428
0.009188167750835
-0.144263774156570
0.064892716705799
-0.106546416878700
-0.262967944145203
-0.084684975445271
-0.170187175273895
-0.082925051450729
-0.007269294932485
0.041929349303246
-0.111042276024818
-0.180183351039886
-0.014410247094929
-0.021191367879510
0.024913536384702
-0.441859990358353
0.079495236277580
-0.250590205192566
-0.210714340209961
-0.250354170799255
-0.279059022665024
-0.112803906202316
0.053261082619429
-0.178448721766472
-0.236614376306534
-0.264530181884766
-0.122241429984570
-0.198710799217224
0.056820780038834
0.068884938955307
-0.146369844675064
-0.146695941686630
-0.219241023063660
-0.162018835544586
0.075325481593609
0.093449316918850
-0.209523931145668
-0.267387658357620
-0.216348335146904
-0.150472655892372
0.136286571621895
-0.246313348412514
0.059718556702137
-0.404961764812469
-0.193121641874313
-0.029787680134177
-0.161399289965630
0.013509596697986
0.147623226046562
0.007575884461403
0.116782300174236
0.110956139862537
-0.201811805367470
-0.168944910168648
0.056608863174915
-0.107241041958332
-0.241664528846741
-0.282115012407303
0.044415514916182
-0.097304433584213
-0.300532877445221
-0.105692118406296
0.068607576191425
-0.006749070715159
-0.190364137291908
0.052201356738806
-0.106160841882229
-0.244653582572937
-0.212880820035934
0.013460754416883
-0.000066279237217
0.100460514426231
0.002808550139889
-0.064237453043461
0.045644503086805
0.049778018146753
0.000963797734585
0.092730447649956
-0.073749005794525
0.071235597133636
-0.114238493144512
-0.151472777128220
-0.070143595337868
0.103948414325714
0.056920953094959
-0.131677344441414
0.029578633606434
-0.228627488017082
0.077942676842213
-0.021552624180913
-0.193747907876968
-0.286302626132965
0.133441612124443
-0.251548975706100
-0.191142544150352
0.124735333025455
-0.149090543389320
-0.110929481685162
-0.085809245705605
-0.167409360408783
0.039193797856569
-0.266956150531769
-0.099353693425655
-0.237123936414719
0.024839553982019
0.032251648604870
-0.116541191935539
-0.250387817621231
-0.267951101064682
-0.005962130613625
0.071141146123409
-0.083156749606133
-0.278037190437317
0.047545369714499
0.033422779291868
-0.234442502260208
-0.166481986641884
