-0.001475544529967 0.059155501425266 -0.163993895053864 0.119573459029198 0.009168471209705 -0.079321682453156 0.015487305819988 0.019992856308818 0.040604140609503 0.053279180079699 0.008662476204336 -0.036079104989767 -0.003075037151575 0.026039695367217 -0.049699299037457 0.028014920651913 0.024619167670608 -0.025017740204930 0.043492108583450 0.019169559702277 -0.011242903769016 -0.019591975957155 -0.012758254073560 0.019803157076240 0.000215035179281 -0.031141830608249 -0.029154000803828 0.022010562941432 -0.004720706492662 -0.015404480509460 0.021869631484151 -0.052293185144663 -0.062356151640415 -0.002076120581478 -0.203108862042427 -0.004293759819120 0.010709903202951 -0.049672197550535 0.027133559808135 0.021733641624451 -0.148064732551575 0.027200857177377 0.008475946262479 -0.001264851423912 0.083515122532845 0.136210665106773 -0.047280151396990 0.030141934752464 0.058261282742023 0.062359530478716 0.013205185532570 -0.053867589682341 0.005869830027223 0.024608504027128 0.016471644863486 0.007932731881738 -0.201047256588936 0.147987052798271 0.043916072696447 0.037819426506758 0.028308467939496 0.025902619585395 0.031756222248077 0.084264688193798
-0.001271550543606 -0.008341462351382 -0.172991335391998 -0.035463139414787 0.003026075661182 0.056534718722105 -0.007351106032729 -0.030505612492561 0.000275486469036 -0.071779549121857 -0.027844455093145 -0.014528530649841 0.000811041216366 -0.101503714919090 -0.069419845938683 -0.008579814806581 -0.001634799293242 0.050539702177048 0.032765801995993 -0.019687756896019 -0.050128530710936 0.013610861264169 -0.034435592591763 -0.025969484820962 0.023608746007085 -0.041429787874222 -0.020061390474439 0.010696155950427 0.007776591926813 -0.013739637099206 -0.012901770882308 -0.011470021679997 -0.094322055578232 -0.072108976542950 -0.102440163493156 -0.064409635961056 -0.029161257669330 -0.093216009438038 0.001905725221150 -0.000675662537105 -0.321616619825363 0.023739611729980 -0.125166699290276 -0.004091341514140 -0.029181761667132 -0.052953738719225 -0.027109192684293 0.005726484116167 -0.022164203226566 -0.029136586934328 -0.098754093050957 -0.012743449769914 -0.002703054808080 -0.008118780329823 0.002900770865381 -0.018703186884522 -0.061420485377312 -0.109272122383118 -0.118282631039619 -0.003452695207670 -0.008902437984943 0.002032236428931 -0.053982332348824 -0.017298908904195
0.006702000740916 0.032218299806118 -0.011148312129080 0.060523528605700 -0.042747016996145 -0.026558702811599 0.010542255826294 -0.020486790686846 -0.004564749542624 -0.001191398361698 -0.021597715094686 -0.024347355589271 -0.020455814898014 0.015142812393606 -0.058999177068472 0.009462187997997 -0.006580517161638 -0.015308440662920 0.013698045164347 0.012968677096069 -0.034743126481771 -0.018524494022131 0.001042664283887 0.005387322045863 0.012045190669596 -0.035717666149139 0.017409110441804 -0.011852278374135 -0.014224536716938 -0.070103123784065 -0.005980068817735 -0.005821411963552 -0.042107958346605 0.092721812427044 -0.031606685370207 -0.063980013132095 -0.006060511339456 -0.013991620391607 -0.000476486893604 0.008565850555897 -0.036888152360916 -0.009574146009982 0.051312204450369 0.007436090148985 0.015665082260966 0.007833843119442 -0.003717242740095 0.004298213869333 -0.018852200359106 0.041351579129696 0.029378550127149 -0.014821374788880 -0.016155077144504 0.030594829469919 -0.008752113208175 -0.005916585680097 -0.001552020432428 -0.019608939066529 -0.004016356077045 -0.005695675965399 -0.034172333776951 0.016538571566343 0.064341202378273 0.011732417158782
0.011414498090744 0.046779386699200 -0.118002988398075 -0.059030774980783 0.063776969909668 0.196056947112083 0.011627093888819 -0.028230341151357 0.023202000185847 -0.041746083647013 -0.023602787405252 0.006618896033615 -0.005364615470171 -0.032110918313265 -0.039957750588655 -0.008173768408597 0.010023536160588 0.069939531385899 -0.013124419376254 0.011797887273133 -0.082196868956089 0.210506603121758 0.016852015629411 0.009689544327557 -0.031341824680567 0.108479574322701 0.030229270458221 0.008281096816063 -0.008282000198960 0.112744688987732 0.017729418352246 -0.064186051487923 -0.002090970519930 -0.065623626112938 -0.088609687983990 0.176580622792244 0.025051016360521 -0.010776539333165 0.018491435796022 0.021964440122247 -0.082824893295765 0.022214243188500 -0.090001247823238 0.002421646844596 -0.086906693875790 -0.008866413496435 -0.099603086709976 0.026016961783171 -0.056131437420845 0.043149370700121 -0.075180895626545 0.028511082753539 0.035261519253254 0.025496790185571 0.004699897952378 0.035208996385336 -0.010708026587963 -0.095106326043606 -0.060745008289814 0.007081647869200 -0.013196802698076 -0.008132967166603 0.020476138219237 -0.001478207414038
-0.004621549043804 -0.003109964309260 -0.026508722454309 0.024733893573284 -0.015173285268247 -0.090892247855663 0.002513715531677 0.079754516482353 -0.020187288522720 0.047234527766705 0.012793558649719 -0.000599952938501 -0.021887157112360 -0.025485919788480 -0.009956097230315 -0.001721625565551 0.016286792233586 -0.124165669083595 0.012019895017147 -0.000696322822478 -0.020409576594830 -0.025660922750831 0.027719117701054 0.025847109034657 0.023843541741371 -0.005917938891798 0.012516305781901 0.009585166350007 -0.004435426555574 -0.047300107777119 -0.014629807323217 -0.081799156963825 -0.014614261686802 0.046755090355873 -0.036353692412376 -0.044223509728909 -0.080002702772617 -0.021364761516452 -0.005447341594845 0.014101061969995 0.149824693799019 -0.002060518134385 -0.055875107645988 0.014697862789035 -0.012954979203641 0.004446832463145 0.073828779160976 0.008400720544159 -0.002736656460911 0.016088252887130 0.009274344891310 -0.038906291127205 -0.009668663144112 -0.000272441771813 0.001169432071038 0.003593680448830 -0.039323754608631 0.005356881301850 0.041996445506811 -0.000956519157626 -0.027403568848968 0.029521960765123 -0.064486332237720 -0.013341323472559
0.053111564368010 -0.001579931471497 0.156109556555748 -0.017528956755996 0.040521789342165 0.052258435636759 0.011584122665226 0.070592001080513 0.011222635395825 0.052283957600594 0.021235555410385 -0.053945790976286 -0.016271039843559 0.006154135335237 0.034324903041124 0.039286971092224 0.011997837573290 -0.116834260523319 0.010728303343058 0.047571089118719 0.080240584909916 -0.007770742289722 0.102861538529396 0.026709485799074 0.055929742753506 0.077870227396488 0.039278138428926 0.004504199139774 0.015680905431509 0.014712321572006 0.008470016531646 -0.112856432795525 0.051712967455387 -0.045389126986265 0.116199135780334 0.009936702437699 0.019774207845330 0.028739107772708 0.027988212183118 0.019931370392442 0.272394567728043 -0.011048140004277 0.061223126947880 0.012805908918381 -0.007888152264059 -0.035454761236906 -0.001406663213857 -0.000442143558757 0.159195646643639 -0.104535780847073 0.059239219874144 0.204547226428986 0.044154655188322 0.030196154490113 0.046530518680811 0.011826319620013 0.078819066286087 -0.038525398820639 -0.012501203455031 0.052048437297344 0.014671802520752 0.028621986508369 -0.034621678292751 0.028716905042529
0.030089430510998 -0.015175279229879 -0.021720388904214 0.006432047113776 0.041718728840351 -0.042907766997814 0.010754282586277 0.059832997620106 0.030846072360873 0.103523030877113 0.025704612955451 -0.099912405014038 0.037740055471659 -0.004543838091195 0.016644209623337 0.022469585761428 0.029382942244411 -0.160879433155060 -0.020315770059824 0.031404748558998 0.002342382911593 0.007792260032147 0.035492543131113 0.017965601757169 -0.011869275942445 0.025955740362406 0.073421396315098 0.044977549463511 0.056114915758371 0.006548158358783 0.016488986089826 -0.150492519140244 0.045383512973785 0.018852859735489 -0.051294926553965 -0.010125180706382 -0.005210169591010 0.038268227130175 0.020346511155367 0.019216524437070 -0.135250344872475 0.010577346198261 0.027094136923552 0.016503075137734 -0.054945450276136 -0.018855905160308 -0.013712512329221 0.000456435343949 0.085998401045799 0.121723569929600 0.057551868259907 0.005681640468538 0.052990403026342 -0.021462555974722 0.013282882981002 0.083299905061722 0.038908854126930 -0.021495545282960 0.034675095230341 0.001213403418660 0.039080221205950 0.015923336148262 0.063432082533836 0.020951528102160
-0.041052196174860 0.043262042105198 0.066119804978371 0.011237015016377 0.009260059334338 0.044888969510794 -0.033356621861458 -0.138684466481209 -0.026541536673903 -0.107968367636204 -0.048171382397413 0.093985632061958 -0.070060983300209 0.156826570630074 0.023991374298930 -0.098700210452080 -0.010676831938326 0.127816200256348 -0.029121605679393 -0.053583554923534 -0.078048504889011 0.033736154437065 -0.119923457503319 -0.049757000058889 0.018529988825321 -0.053622473031282 0.090177737176418 -0.076846294105053 -0.060799691826105 0.107174299657345 -0.021315881982446 0.172953993082047 -0.068424694240093 -0.067856930196285 0.021525740623474 -0.077749125659466 0.251429826021194 0.098104543983936 -0.072817370295525 -0.066697314381599 -0.800961315631866 -0.043305572122335 0.193293288350105 -0.011144926771522 0.059663843363523 -0.057472150772810 -0.353501677513123 -0.039001703262329 0.015377174131572 0.356055676937103 0.222077697515488 0.271236300468445 -0.039931818842888 -0.024265343323350 -0.049397859722376 -0.090490818023682 0.191293090581894 0.157598078250885 -0.187456086277962 -0.029419364407659 -0.153846919536591 0.036084260791540 0.188490793108940 0.009073825553060
0.004085929598659 -0.018806632608175 0.071774564683437 -0.095968917012215 0.035842865705490 0.032065328210592 0.006797079928219 0.055594474077225 0.013307302258909 0.017014393582940 0.037238597869873 0.060797028243542 -0.002820548368618 0.011557469144464 0.155530244112015 0.016778938472271 0.037467211484909 -0.082223668694496 -0.014561849646270 0.033226564526558 0.014651436358690 0.057908333837986 0.027562897652388 -0.005350230727345 -0.006235445383936 0.117359697818756 0.040590420365334 0.013895519077778 0.011943072080612 0.110880993306637 0.010938219726086 -0.065185673534870 0.029224038124084 -0.055471152067184 0.107321657240391 0.063471436500549 -0.042902622371912 0.071230731904507 0.002832349156961 -0.002650971990079 -0.014490258879960 0.003707916243002 -0.027968484908342 -0.001969281351194 0.097442090511322 -0.044956754893064 -0.048310942947865 0.023809969425201 0.110520564019680 -0.058826968073845 0.059255070984364 0.194557771086693 0.033527828752995 0.014120968990028 0.017802067101002 0.044049728661776 0.023004954680800 -0.001378949033096 -0.006368574686348 0.034385547041893 0.004082931671292 0.022233318537474 -0.089762046933174 0.091846801340580
0.032509371638298 0.019067086279392 -0.266963094472885 0.020714860409498 -0.014292180538177 0.003797941841185 -0.038166582584381 0.029700869694352 0.057349413633347 -0.129070669412613 -0.012937394902110 0.017479268833995 0.029448835179210 -0.021225241944194 0.151531949639320 -0.002536167157814 0.025853909552097 0.121270991861820 0.047061443328857 0.009186515584588 0.087277106940746 0.007920656353235 0.029241112992167 -0.018764583393931 0.039340451359749 0.062789440155029 -0.111003831028938 0.070639416575432 -0.028599977493286 0.085239812731743 0.012366341426969 -0.003221682971343 0.091158911585808 0.109165184199810 -0.214407950639725 0.023741573095322 -0.034913618117571 -0.083338871598244 -0.017197404056787 -0.028805961832404 -0.114525072276592 0.014703514054418 -0.140740066766739 0.015574985183775 0.139522895216942 0.079925216734409 -0.052228949964046 0.012938433326781 0.038493994623423 -0.196708887815475 -0.137632682919502 0.097229905426502 -0.004374186974019 -0.005834359675646 -0.018123699352145 0.014654131606221 -0.380118489265442 0.218507632613182 -0.020673288032413 0.010025771334767 -0.016839351505041 -0.056438758969307 -0.155323028564453 0.184380665421486
0.020730091258883 0.058858763426542 0.131267160177231 0.106863819062710 0.003857681527734 0.064336135983467 0.001474882825278 0.106588929891586 0.010475150309503 0.000197426954401 -0.044708009809256 0.156394496560097 -0.032183501869440 0.097172833979130 0.211457848548889 -0.001043991534971 0.007420219015330 0.059759426862001 0.038287341594696 -0.003112712875009 0.008219641633332 0.045031424611807 0.046916585415602 -0.022019693627954 0.062574684619904 0.092024058103561 0.025075368583202 0.049674082547426 -0.026504434645176 0.108039110898972 0.006567710544914 -0.039201281964779 0.024240309372544 0.069131501019001 0.139655604958534 0.079142265021801 0.054340623319149 0.084921203553677 -0.008472518064082 -0.006057528778911 0.156267091631889 0.016661128029227 -0.068443462252617 -0.018272615969181 0.093302331864834 0.106538511812687 0.020379267632961 0.000393976923078 0.143667876720428 -0.026372829452157 0.039110045880079 0.078208930790424 -0.014484604820609 0.022774057462811 0.007658686954528 0.017714396119118 0.046543940901756 0.003132775658742 0.017349209636450 0.010174675844610 -0.003317798953503 -0.028700482100248 0.001406821887940 0.092274129390717
0.010811345651746 -0.013877503573895 -0.044474467635155 -0.073991313576698 -0.032695960253477 0.006937476806343 -0.016847457736731 0.014475592412055 -0.015657193958759 -0.016771588474512 -0.000560540996958 -0.022124497219920 -0.044344943016768 0.018863307312131 -0.067139312624931 -0.016148209571838 -0.012861739844084 0.063392922282219 -0.014872862957418 -0.009364169090986 -0.072819456458092 0.001854147412814 0.001821058685891 -0.016869584098458 -0.003122951369733 -0.032555565237999 0.010526305995882 -0.063476845622063 -0.020920990034938 -0.038900025188923 -0.021466629579663 0.036514513194561 -0.018935939297080 -0.038566272705793 -0.033670917153358 -0.032444845885038 0.017146619036794 -0.020510507747531 -0.021103551611304 0.001763301435858 -0.148106932640076 0.003179119899869 -0.026211140677333 0.003597338916734 -0.087062597274780 -0.043311379849911 -0.130081102252007 -0.006079945247620 0.019327048212290 -0.048744209110737 0.022891690954566 0.115465760231018 -0.013541284948587 0.003424025373533 -0.021647462621331 0.003161772387102 0.034199185669422 0.095470033586025 -0.041859481483698 -0.020650098100305 -0.041112910956144 0.022277053445578 -0.086435735225677 0.030245807021856
0.017912186682224 -0.007412690669298 0.043086182326078 0.033336248248816 0.032063350081444 0.111888818442822 -0.025045854970813 0.038286540657282 0.049495287239552 0.028120465576649 0.015414868481457 0.064136601984501 0.031918175518513 0.069624990224838 0.073304332792759 0.002039029262960 0.016629597172141 -0.004847957752645 -0.013473723083735 0.000075318341260 -0.039431765675545 0.063069581985474 -0.018460473045707 -0.016807598993182 -0.016663698479533 -0.013840036466718 -0.008202017284930 -0.002621890278533 0.004525448661298 0.026537159457803 0.013575694523752 0.024578187614679 0.003761494066566 0.087583407759666 0.011415890417993 0.091911442577839 -0.006502448581159 0.040187884122133 -0.053357303142548 -0.010414541698992 -0.033268813043833 0.027150820940733 0.127433404326439 -0.014104383997619 -0.009447335265577 -0.085082039237022 -0.041599888354540 -0.007937642745674 0.153616607189178 0.152579605579376 0.118539467453957 0.140878632664680 -0.006073968019336 -0.014184639789164 -0.036913245916367 0.063831485807896 0.019148852676153 -0.021974990144372 0.050261713564396 -0.008824029937387 -0.007835282944143 0.028052264824510 0.001139412866905 0.084661498665810
0.038081359118223 0.006372024305165 0.000856675556861 0.021126912906766 -0.021521819755435 -0.010943041183054 0.002290646545589 0.006754669826478 -0.002328888047487 -0.008138571865857 -0.000072316135629 -0.014950061216950 -0.009276169352233 -0.015816593542695 -0.020628727972507 -0.007402504794300 0.000296267826343 -0.012398879043758 -0.005372873041779 0.007877723313868 -0.022575877606869 -0.004656326957047 -0.002953703049570 -0.009687647223473 0.023043081164360 -0.025363150984049 0.000176196001121 -0.016848299652338 -0.028906395658851 -0.027688276022673 -0.016375424340367 -0.021506024524570 -0.022170437499881 0.064854048192501 -0.012688834220171 -0.031532265245914 -0.014436172321439 0.021586095914245 0.002119719283655 -0.014001277275383 -0.088265582919121 -0.034385580569506 0.031790256500244 -0.000377466261853 0.008012577891350 -0.002221317263320 -0.012415086850524 0.002333215670660 -0.013699266128242 -0.057176854461432 0.013390826061368 0.038880933076143 -0.004177560098469 0.022864820435643 -0.028303768485785 -0.021638253703713 -0.003626099089161 0.020878186449409 -0.039134792983532 0.001616886700504 -0.018827399238944 -0.009567896835506 0.000586993759498 -0.005638593342155
0.011638095602393 -0.017822818830609 -0.064392261207104 -0.010415848344564 -0.008780671283603 0.041321240365505 -0.016533806920052 0.030868249014020 0.050594151020050 -0.018034907057881 -0.033806651830673 -0.017435573041439 0.023057153448462 -0.032044894993305 0.051526743918657 -0.005217306781560 -0.020691275596619 -0.033325325697660 -0.039059821516275 -0.003611892228946 -0.030612872913480 0.029088968411088 -0.010837695561349 -0.005960711278021 0.004482995253056 0.005169778596610 -0.011854211799800 -0.005255539435893 0.009293044917285 0.036860741674900 0.027015199884772 0.018963821232319 -0.056749530136585 0.033717077225447 -0.039949588477612 -0.021606443449855 -0.093080379068851 -0.073627278208733 -0.015017345547676 -0.002438011812046 -0.164260014891624 0.021136721596122 0.186789020895958 -0.001125185401179 -0.045044384896755 -0.054027408361435 -0.030786229297519 0.018366131931543 -0.101845115423203 0.078063569962978 -0.025809658691287 0.024409610778093 -0.002771161729470 -0.006340214051306 -0.014169133268297 -0.026973612606525 -0.049110792577267 -0.127213269472122 0.008143268525600 -0.020021673291922 0.037370193749666 -0.009077849797904 0.020162586122751 0.046947311609983
0.021065972745419 -0.021493850275874 0.009466731920838 -0.005389348603785 0.004647847730666 -0.017616070806980 0.003915656358004 0.010171392932534 -0.005503237713128 -0.047007475048304 0.041106980293989 -0.064375668764114 -0.006614724639803 -0.040145963430405 0.021108418703079 -0.021140182390809 0.016777507960796 0.018852055072784 0.005871460307389 0.021264811977744 -0.063931450247765 0.015901725739241 0.024192048236728 -0.013519071042538 -0.056367546319962 0.040600273758173 -0.023923335596919 -0.054949823766947 -0.001285912818275 0.017687937244773 -0.020093955099583 -0.000263644848019 0.047664940357208 0.009147278964520 -0.036538507789373 0.043843496590853 0.047406755387783 0.002933001378551 -0.017414126545191 -0.012884193100035 0.034652441740036 -0.021480564028025 -0.022405887022614 -0.033646326512098 -0.048026133328676 0.027538187801838 -0.027210893109441 -0.006388172507286 0.073197618126869 -0.049267891794443 -0.026164809241891 0.006394084077328 -0.008030652999878 -0.012093734927475 -0.015357040800154 0.011568762362003 -0.019357765093446 0.020377654582262 0.028334869071841 -0.004174929112196 -0.015801966190338 -0.009289358742535 -0.015726042911410 0.038189064711332
0.056305643171072 0.091679304838181 0.032732937484980 0.102150224149227 0.054438900202513 -0.072872817516327 0.033234234899282 0.098474815487862 0.011604821309447 0.077729694545269 0.033916011452675 -0.023613233119249 0.008294292725623 -0.008750713430345 -0.049196336418390 0.056697092950344 0.032687086611986 0.062559604644775 -0.023037014529109 0.044569317251444 0.071747787296772 0.016531413421035 0.047741077840328 0.034211348742247 0.018781460821629 0.016050502657890 0.074876777827740 0.024507367983460 0.050041526556015 0.000705536396708 0.023433880880475 -0.072418399155140 0.020756924524903 -0.065853215754032 -0.045465406030416 -0.009009711444378 0.177320986986160 0.011142497882247 0.048943743109703 0.036090560257435 0.120626829564571 0.022794773802161 0.078445531427860 0.059426050633192 0.032891247421503 0.170787602663040 -0.007832286879420 0.015721365809441 0.061852570623159 -0.022032471373677 -0.072839222848415 -0.051316510885954 0.039367310702801 0.030943246558309 0.038838930428028 0.003385919146240 -0.039554119110107 -0.055170845240355 0.011973015032709 0.041431501507759 0.034494329243898 0.024918247014284 0.146929353475571 0.012954580597579
-0.048193357884884 -0.037884846329689 -0.015826953575015 0.048434894531965 0.007378498557955 -0.045054528862238 -0.000042501993448 -0.096980221569538 -0.007183999754488 -0.007410434074700 -0.009388569742441 -0.116423413157463 -0.009240320883691 0.090250663459301 -0.043329723179340 -0.015971060842276 -0.035020366311073 -0.175775811076164 -0.075457915663719 -0.001060000620782 -0.041327640414238 -0.031803861260414 -0.030953323468566 -0.005830309353769 -0.012260121293366 0.025424912571907 -0.033584911376238 -0.015491040423512 -0.026855379343033 -0.027229085564613 -0.021398255601525 -0.045064747333527 -0.007346798200160 0.054348297417164 -0.103292778134346 0.019694147631526 -0.016755731776357 -0.024357654154301 -0.014549078419805 -0.009339679963887 -0.251408129930496 -0.024992376565933 0.097226515412331 -0.018619524315000 -0.076009057462215 -0.102651953697205 -0.132964432239532 -0.011184599250555 -0.157492935657501 0.117088258266449 0.094335280358791 -0.008199154399335 0.000988994841464 -0.014578496105969 -0.028513984754682 -0.035418476909399 0.014708774164319 0.103030450642109 -0.034099940210581 -0.015887442976236 -0.026682931929827 0.034276522696018 -0.072257384657860 0.029912875965238
0.040451493114233 0.027336042374372 0.083666637539864 0.000972183188424 0.050369534641504 -0.052023634314537 0.025341261178255 0.042997796088457 -0.025179442018270 0.063539907336235 0.046316206455231 -0.009320319630206 0.013391822576523 0.043269548565149 -0.088801980018616 0.040109638124704 0.035763468593359 -0.124456770718098 0.003821259131655 0.048313423991203 -0.024928448721766 0.030639920383692 0.039618376642466 0.032743345946074 0.016568291932344 -0.016387475654483 0.098435208201408 0.017186090350151 0.048621822148561 -0.039756819605827 -0.009792881086469 -0.090418674051762 0.035214405506849 -0.011382308788598 -0.041154887527227 -0.056891720741987 0.015695253387094 0.077864974737167 0.040119294077158 0.023958707228303 0.082067281007767 -0.009253712370992 0.053678791970015 0.028933821246028 -0.086252786219120 -0.015163722448051 -0.046468965709209 0.001918561640196 0.146508932113647 -0.068654023110867 0.063452050089836 0.021254753693938 0.038290169090033 0.021989993751049 0.030081328004599 0.052839949727058 0.090278387069702 -0.062239054590464 -0.046749133616686 0.023915685713291 0.014498126693070 0.009323444217443 0.011907902546227 -0.066941447556019
0.010135199874640 0.065114699304104 -0.031474240124226 0.029341580346227 0.009202372282743 -0.049923658370972 0.001061058253981 0.054234519600868 0.023365896195173 0.037707395851612 -0.017628682777286 -0.014179990626872 0.003263228340074 0.106562130153179 -0.026201643049717 0.003714073682204 0.014255177229643 0.113215178251266 -0.020218007266521 0.017833944410086 0.049414731562138 -0.000257182779023 0.001931896083988 0.005938796326518 0.010378921404481 0.010101115331054 0.045308921486139 -0.009044251404703 -0.012947691604495 -0.006139124277979 0.022297918796539 0.017873940989375 0.019949862733483 -0.039882145822048 -0.066581830382347 -0.020554440096021 0.156505137681961 0.044958420097828 0.011824105866253 0.008539599366486 -0.170826464891434 0.024553585797548 -0.055916614830494 0.026295218616724 0.126743718981743 0.154582321643829 -0.078267678618431 0.003744599875063 0.056247726082802 -0.053657878190279 0.018884325399995 -0.086768694221973 0.014247938059270 0.009145180694759 0.002177167451009 0.006340784952044 -0.075495220720768 0.009679818525910 -0.018173243850470 -0.026247834786773 -0.005842468235642 -0.017561135813594 0.099168166518211 0.028776027262211
0.009041207842529 0.051262907683849 -0.061062425374985 -0.033153526484966 0.044026274234056 0.167811796069145 0.039575155824423 -0.022984931245446 -0.001755794160999 -0.149640917778015 -0.003032830543816 0.189391002058983 -0.006929693277925 -0.087951324880123 0.173122674226761 0.024317380040884 0.004896636120975 -0.000686529441737 0.021876938641071 0.001605834113434 -0.083731487393379 0.109380938112736 0.016479602083564 0.018923146650195 0.009203027933836 0.147203281521797 -0.089275166392326 0.044246047735214 -0.008988789282739 0.255970865488052 0.021507337689400 -0.062284853309393 -0.019499771296978 0.082912407815456 0.081766322255135 0.151838257908821 -0.003890634747222 -0.029983282089233 0.018235092982650 -0.000268904346740 -0.236734822392464 0.008482242003083 -0.113241232931614 0.033322412520647 -0.102646291255951 0.119150504469872 -0.093929961323738 0.013261780142784 0.098042294383049 0.050793513655663 -0.168872758746147 0.203498452901840 0.026962980628014 0.019488686695695 0.002963156439364 -0.008616308681667 -0.085104368627071 0.000456907873740 0.007034245412797 0.016965342685580 -0.033643852919340 -0.011794342659414 0.034696981310844 0.112088918685913
-0.040175504982471 0.023964602500200 -0.027519447728992 0.222131952643394 -0.017426323145628 -0.019471738487482 0.018602658063173 -0.092593945562840 0.003238866338506 0.002091204980388 0.016378877684474 -0.037554774433374 -0.010236144065857 -0.002986125648022 -0.006406775210053 -0.018817102536559 0.010146838612854 -0.088844612240791 0.035256415605545 0.010291765443981 -0.043019939213991 0.016218639910221 -0.015155858360231 -0.004253831226379 0.009824509732425 0.066799931228161 -0.009171976707876 -0.011496494524181 -0.019789647310972 0.069395177066326 -0.022592647001147 -0.046550109982491 -0.059335529804230 0.099060341715813 0.019010951742530 -0.016567753627896 0.070973925292492 -0.022646987810731 -0.004521683789790 -0.004431083798409 -0.277562499046326 -0.042081203311682 0.017346575856209 -0.059026136994362 -0.033376686275005 0.111329756677151 0.021614810451865 -0.013704730197787 0.058309804648161 0.086964085698128 -0.001526104984805 0.121434725821018 -0.012668300420046 -0.006430658511817 -0.006340464577079 0.019520577043295 0.004771969746798 0.120706200599670 -0.090034030377865 0.015840556472540 0.002292619785294 0.037011153995991 0.083352953195572 0.012148700654507
0.027246447280049 0.087942734360695 0.149955406785011 0.009418440051377 0.057901952415705 0.040109541267157 0.031309679150581 0.002166491467506 0.009263140149415 0.028283407911658 0.012699688784778 -0.016003644093871 0.023659607395530 -0.058237545192242 0.009601334109902 0.006244183517992 0.017069991677999 0.092979125678539 -0.003119387431070 0.003429858246818 -0.074697628617287 0.053477142006159 0.010497810319066 0.020073255524039 0.078556030988693 0.036577776074409 0.016457101330161 0.016805581748486 0.011550384573638 0.048096414655447 0.039699960500002 0.003978553228080 -0.008794517256320 0.036246880888939 0.060284085571766 -0.031972501426935 0.025204673409462 0.075635045766830 0.036215957254171 0.017423840239644 0.001927387085743 0.014542386867106 0.001551890163682 0.026737660169601 -0.004894461482763 0.001280824537389 -0.096994370222092 0.013239071704447 0.007090875413269 0.058483455330133 0.038394950330257 0.078340023756027 0.041536372154951 0.047207295894623 0.007773094344884 0.007720196153969 0.155702784657478 0.005948105826974 -0.014911224134266 0.022435210645199 -0.014506462030113 -0.004478183109313 0.120672382414341 0.067969679832458
0.020832879468799 0.011822167783976 0.107625469565392 0.039939876645803 0.017496153712273 -0.012006971985102 -0.003653015242890 0.006382505409420 -0.020285787060857 0.034774161875248 0.002669224049896 -0.025534488260746 -0.001280043972656 -0.023959821090102 -0.044873867183924 0.010300817899406 0.019772242754698 -0.045055437833071 -0.014108820818365 0.006718920078129 0.003434459678829 0.040468912571669 0.004884115885943 0.021332111209631 -0.001779486541636 -0.006614440586418 0.117260880768299 -0.016743766143918 0.045625925064087 -0.017014142125845 -0.016583912074566 -0.057257816195488 -0.001313065178692 0.052094936370850 0.016087546944618 -0.004407498985529 0.031322117894888 0.052136309444904 0.018750173971057 0.000158981507411 -0.055728953331709 -0.011021802201867 0.101971141993999 0.027281912043691 0.018442574888468 0.054933719336987 -0.027263097465038 -0.010902049951255 0.019688623026013 0.064904026687145 0.050222549587488 -0.025312911719084 0.057434670627117 -0.001016107853502 0.010314690880477 0.026413425803185 0.096076548099518 -0.075224183499813 -0.052163392305374 0.002708658808842 -0.012387857772410 0.024777567014098 0.072754643857479 -0.023742148652673
-0.006886095739901 0.050641447305679 -0.080677196383476 0.073894970118999 -0.019993821159005 -0.061173733323812 -0.019969459623098 -0.043766751885414 -0.003528439672664 -0.009128062054515 -0.034044012427330 -0.167411148548126 0.002032184507698 -0.048415575176477 -0.117587126791477 -0.011646481230855 0.004171574953943 -0.079283826053143 -0.013474916107953 0.001827344647609 0.033755604177713 -0.044053357094526 -0.042610950767994 -0.008905149996281 0.014937866479158 -0.033556986600161 0.012766341678798 0.006229143124074 -0.035186883062124 -0.097047187387943 -0.025117911398411 -0.033675432205200 -0.052697889506817 0.010714387521148 -0.142520070075989 -0.083162881433964 -0.014483276754618 -0.037904489785433 -0.012167834676802 -0.022162761539221 -0.026832299306989 -0.016309274360538 0.085665710270405 -0.024399084970355 0.013090874068439 0.024053936824203 -0.009816452860832 -0.005557074677199 -0.047202643007040 -0.194229304790497 0.011863515712321 -0.003826098283753 -0.030656615272164 0.006290212273598 -0.029953880235553 -0.012977676466107 -0.047242719680071 -0.037308145314455 -0.043156538158655 0.002148367464542 -0.006612330209464 -0.009821534156799 0.009154128842056 -0.012205422855914
-0.029038559645414 -0.022320700809360 -0.053637247532606 0.038975961506367 -0.029510263353586 -0.041245106607676 -0.016529999673367 -0.002514686668292 -0.040212210267782 0.034775882959366 -0.010756906121969 -0.093755908310413 -0.043730996549129 -0.013327978551388 -0.012548988685012 -0.030624551698565 0.013924345374107 0.004190470091999 -0.037739053368568 -0.030296675860882 0.043805349618196 -0.035597790032625 0.020679166540504 -0.005883497651666 -0.042584989219904 -0.048326466232538 0.029340261593461 -0.033622149378061 -0.032789587974548 -0.074848487973213 -0.016467051580548 -0.068399131298065 0.057225432246923 -0.101743616163731 -0.093728832900524 -0.110086478292942 0.055461194366217 -0.023585306480527 -0.037454057484865 -0.023136122152209 0.320769876241684 -0.034341402351856 -0.050144243985415 0.021843558177352 0.041006196290255 0.075909852981567 0.035642694681883 -0.012927110306919 0.008122463710606 -0.264654606580734 -0.009475929662585 -0.000251123041380 -0.025284145027399 -0.036745194345713 -0.011423404328525 -0.007702506147325 -0.114916034042835 0.062393665313721 0.031901858747005 -0.037668276578188 -0.036653291434050 -0.007316631730646 -0.074288800358772 -0.061781421303749
0.038770515471697 0.016149250790477 0.002691460773349 -0.085521325469017 -0.020655035972595 -0.025382826104760 -0.013347396627069 -0.013368811458349 -0.021121837198734 0.091479614377022 0.005248634610325 -0.145596146583557 0.017932336777449 0.073661133646965 -0.064746841788292 -0.014172606170177 -0.012291922233999 -0.059978704899549 0.021003050729632 0.016808962449431 0.032486576586962 -0.023693211376667 0.019279709085822 -0.019614372402430 0.027432134374976 -0.089721955358982 0.112224347889423 -0.044071774929762 -0.009347205981612 -0.113498643040657 -0.041301596909761 -0.036715809255838 0.072255358099937 0.026748608797789 -0.088167525827885 -0.088413633406162 0.001559472642839 0.046705659478903 -0.011150212027133 -0.007235275115818 -0.038820635527372 -0.030357809737325 -0.026074087247252 -0.018779577687383 0.030833488330245 0.042115874588490 -0.067382588982582 -0.014883207157254 0.094967573881149 -0.046826314181089 0.084987029433250 -0.090883530676365 -0.013471361249685 -0.026095254346728 -0.018876120448112 0.029702063649893 0.012638037092984 0.011231117881835 0.040297854691744 -0.014453981071711 -0.014135797508061 -0.029307143762708 0.058852143585682 -0.008433479815722
0.021195689216256 0.064829453825951 -0.035255845636129 0.020287200808525 0.041489109396935 -0.025750173255801 0.021201539784670 0.020890306681395 0.037063892930746 0.076430842280388 0.018201805651188 0.012247287668288 0.058246843516827 -0.058893192559481 0.037990193814039 0.039654452353716 0.004705528263003 0.002573782112449 0.025366967543960 0.024934627115726 0.033539891242981 0.019086962565780 0.021591247990727 0.022332698106766 0.021566808223724 0.024951975792646 0.000889525050297 0.022736143320799 0.041645847260952 0.020017543807626 0.025451261550188 -0.062305368483067 0.012304757721722 0.052264060825109 -0.033189531415701 0.034156441688538 0.011946783401072 0.011777808889747 0.031045773997903 0.042427346110344 -0.135949164628983 0.024238174781203 0.178144812583923 -0.008921543136239 0.063766241073608 0.094488747417927 0.011633801274002 0.025483084842563 0.073864109814167 -0.005939357448369 0.008009752258658 0.026786686852574 0.040395215153694 0.036249447613955 0.025173801928759 0.072854898869991 -0.055832743644714 -0.012864126823843 -0.010922716930509 0.030278921127319 0.037745326757431 0.008253055624664 0.043506592512131 0.083637237548828
0.005740999244153 0.056833323091269 0.012679089792073 -0.017034379765391 0.018558785319328 0.059399440884590 -0.035483382642269 -0.044215723872185 -0.028601173311472 -0.099195353686810 0.001841583871283 0.010513811372221 -0.041996251791716 -0.024759061634541 -0.014703611843288 -0.063858374953270 -0.012985767796636 0.089353516697884 -0.047711975872517 -0.014509406872094 -0.108501620590687 0.046150393784046 -0.065262079238892 -0.031730290502310 0.033442199230194 -0.050201505422592 -0.009072558954358 -0.049428861588240 -0.028528638184071 0.048303589224815 -0.009398200549185 0.010051413439214 -0.057886056602001 -0.015780474990606 -0.025416750460863 -0.070792235434055 0.115713194012642 0.021486347541213 -0.025688063353300 -0.032903533428907 -0.521469354629517 -0.026270031929016 0.114329472184181 -0.002070024609566 -0.012749281711876 -0.100369945168495 -0.233769074082375 -0.026709314435720 -0.045825920999050 0.259407997131348 0.061433654278517 0.144949406385422 -0.009594456292689 -0.014227425679564 -0.030243089422584 -0.063308820128441 0.113687478005886 0.148575872182846 -0.187542557716370 -0.027780884876847 -0.099510245025158 -0.033830340951681 0.110981442034245 0.007492545526475
0.025882612913847 0.011514159850776 -0.052244585007429 0.066590942442417 0.023537894710898 -0.079810060560703 0.008024109527469 0.018716124817729 0.014832874760032 0.079885542392731 0.020947225391865 0.022095354273915 0.062413375824690 -0.005189252551645 -0.058631274849176 0.045338630676270 0.007502465043217 -0.153204202651978 -0.013865632005036 -0.004140092059970 0.030635492876172 -0.001898468472064 0.028959851711988 0.029903346672654 -0.012650797143579 -0.014312701299787 -0.020166534930468 0.009960855357349 0.044323526322842 -0.010635702870786 0.027555042877793 -0.092851839959621 -0.000135306239827 0.042207647114992 -0.058957871049643 0.019886540248990 -0.056980151683092 0.012804551981390 0.024237241595984 0.026249065995216 -0.051018714904785 0.022897478193045 -0.005065080709755 0.015407276339829 -0.011624681763351 -0.036008942872286 0.102750882506371 0.021849688142538 -0.044121947139502 0.257157027721405 0.037451341748238 -0.096490547060966 0.047642037272453 0.002684069331735 0.020143583416939 0.065354302525520 0.009806777350605 0.051679931581020 -0.009541620500386 0.014486135914922 0.082651071250439 0.040666028857231 -0.006181961391121 0.002191102597862
0.067335285246372 0.009457699023187 -0.053044620901346 0.096374385058880 0.029755955561996 -0.039088975638151 0.029849629849195 0.060800585895777 0.021315377205610 -0.019960146397352 0.012190386652946 -0.083320267498493 0.009135128930211 0.127809226512909 0.036778032779694 0.000991295441054 0.000872391101439 -0.014454124495387 -0.034859489649534 0.009953022934496 -0.000262803572696 0.070574030280113 -0.008871812373400 0.014101638458669 0.021688301116228 0.032393667846918 0.011849847622216 0.077734380960464 0.035426855087280 0.009896455332637 0.007991368882358 0.013384061865509 0.021636938676238 -0.042195267975330 -0.100086800754070 -0.039036668837070 0.141521096229553 -0.035758074373007 0.010504902340472 0.000423887628131 -0.329448431730270 -0.019124489277601 0.275579065084457 -0.014365131966770 0.005486189387739 -0.067363880574703 -0.269565165042877 -0.005699847824872 -0.134830817580223 0.114616796374321 0.126170173287392 0.078206032514572 0.047140039503574 -0.002832442754880 0.005790084134787 -0.063164934515953 -0.019280245527625 0.232986524701118 -0.175623759627342 0.022620428353548 -0.019139245152473 0.038732886314392 0.049276515841484 0.067461103200912
0.004583889152855 0.022745402529836 -0.041598308831453 0.035634636878967 0.016821535304189 -0.004330544266850 -0.015051404014230 -0.023857753723860 0.015866314992309 -0.002526352414861 -0.001400583074428 0.052629902958870 0.001519685029052 -0.020051080733538 -0.003666963195428 -0.013472139835358 0.013984780758619 -0.050359513610601 -0.023637294769287 0.003754702629521 -0.029578683897853 0.011114914901555 -0.007686636410654 0.014181962236762 0.040337763726711 0.030014816671610 -0.004244967829436 0.010211591608822 0.004138259217143 0.021124919876456 -0.005136071704328 0.001757584512234 -0.010431118309498 0.032928507775068 -0.007435232866555 0.062268484383821 0.049779869616032 -0.010565111413598 0.011887070722878 0.009472576901317 -0.131684735417366 0.019510477781296 0.027047129347920 -0.000894893717486 -0.059094794094563 0.064736627042294 0.005115602631122 0.021926015615463 0.072221167385578 -0.093276113271713 -0.055282481014729 0.046239260584116 0.004855079576373 -0.013154139742255 -0.011220592074096 0.030256504192948 0.030808323994279 -0.112884990870953 0.026066347956657 -0.004182447213680 -0.028049435466528 0.013154648244381 -0.027236292138696 0.056313440203667
0.003029401181266 0.043036136776209 0.100681751966476 -0.031169785186648 0.008706186898053 0.045423284173012 0.000717117160093 0.003196528879926 0.003729715710506 0.026139030233026 0.020459666848183 0.015025294385850 0.005049332045019 0.064123556017876 0.019652094691992 0.011833282187581 0.001230223570019 0.100542925298214 -0.016690848395228 0.012174896895885 -0.008753287605941 0.032678056508303 -0.015822382643819 -0.005543247796595 0.009080256335437 0.029035096988082 0.019808761775494 -0.001341526512988 -0.010762476362288 0.054985553026199 -0.014367248862982 0.006608369760215 0.024728644639254 -0.060187928378582 0.066710412502289 0.064824275672436 0.091602019965649 0.084481053054333 0.015981823205948 0.018190376460552 -0.080851875245571 0.010721326805651 -0.016217922791839 0.000768038968090 -0.000445318320999 0.076090566813946 -0.115297041833401 0.001971973106265 0.057067155838013 0.135859966278076 0.019871328026056 0.014419096522033 0.011237010359764 0.001259404583834 0.019092919304967 -0.019384274259210 0.083626851439476 0.040306985378265 -0.012489324435592 -0.012403510510921 -0.028396066278219 -0.017481973394752 0.121000260114670 0.011900837533176
0.019080886617303 0.060767244547606 -0.069230861961842 0.036689497530460 0.017731959000230 -0.053871631622314 0.019190765917301 0.003652035724372 -0.018369361758232 0.034639142453671 -0.004346913658082 -0.096119441092014 -0.000469836872071 -0.030377576127648 -0.075875125825405 -0.012617480009794 0.000553455378395 -0.037546195089817 0.016553124412894 0.008459240198135 -0.024078581482172 -0.004261371679604 0.005951039958745 0.005062335636467 0.026685062795877 -0.032770246267319 -0.015643566846848 0.013321986421943 0.019293824210763 -0.030096096917987 -0.009188688360155 -0.067940913140774 -0.004591477103531 0.010851019993424 -0.096350654959679 -0.053816836327314 0.002355133416131 -0.037416111677885 -0.000615491822828 0.012220819480717 -0.075615391135216 -0.036459431052208 0.013437054120004 -0.012393738143146 -0.023953167721629 0.054002039134502 -0.008360699750483 -0.009395945817232 0.068510189652443 -0.037202443927526 0.004293016623706 -0.020656824111938 0.012266971170902 0.032836537808180 -0.001707792747766 0.038778640329838 -0.064863346517086 0.057825937867165 -0.008379553444684 0.013639282435179 0.000092833084636 0.002997973933816 0.043019421398640 -0.014151928946376
0.046621579676867 0.052596647292376 0.072199121117592 0.027206629514694 0.033649090677500 -0.083325460553169 0.022558473050594 0.083516575396061 -0.009216842241585 0.073703929781914 0.006990035995841 -0.052038937807083 0.010131358169019 0.096810586750507 -0.031897403299809 0.033523183315992 0.026824183762074 0.151171222329140 -0.028268132358789 0.054643828421831 0.066134199500084 0.020163798704743 0.038632731884718 0.032477527856827 -0.002338351681828 -0.013767130672932 0.049971148371696 -0.003624793607742 0.022620430216193 -0.026774873957038 0.020343435928226 0.076607197523117 0.072582490742207 -0.069911621510983 -0.035840380936861 -0.022934736683965 0.206856563687325 0.071057043969631 0.017703361809254 0.011733065359294 0.062556855380535 0.035940766334534 0.042171683162451 0.035339538007975 0.125470414757729 0.147457107901573 -0.042722534388304 0.030579570680857 0.098222278058529 0.000622965686489 0.032184243202209 -0.013345014303923 0.018958263099194 0.014380231499672 0.027340924367309 -0.011483705602586 0.059316623955965 0.050799090415239 0.085492454469204 0.025852343067527 0.001758092548698 0.015484261326492 0.091959156095982 -0.000718655821402
0.010520113632083 0.038708526641130 -0.137545973062515 0.006171777844429 0.020318139344454 0.006633624900132 0.014182752929628 -0.063108697533607 -0.023789286613464 -0.062328714877367 0.002131313784048 0.052165206521749 -0.032052330672741 -0.009754104539752 -0.054961465299129 -0.026904916390777 0.009495044127107 -0.036659628152847 0.033194579184055 -0.005558371543884 -0.049745433032513 0.018536362797022 0.002693434013054 -0.014146809466183 0.004199231974781 -0.019881622865796 0.017358418554068 -0.040906287729740 -0.014749563299119 -0.024981958791614 -0.033246319741011 0.023662721738219 -0.061129935085773 -0.027427338063717 -0.069643065333366 -0.018517844378948 -0.015022350475192 -0.086250200867653 0.000674110022373 0.005685025826097 -0.252410084009171 -0.020179485902190 -0.050764996558428 0.007802370004356 -0.035697508603334 -0.004028740338981 -0.128461912274361 0.005847718566656 0.147090643644333 0.162497043609619 -0.037779331207275 -0.005059352610260 -0.003638842841610 0.014062375761569 -0.007265647873282 0.078616648912430 -0.019964631646872 -0.012618485838175 -0.116424188017845 -0.014601650647819 -0.031787302345037 0.029296435415745 0.031458564102650 -0.011259049177170
0.010427881032228 0.007625701837242 -0.095818780362606 0.024157505482435 0.054841380566359 -0.018274486064911 -0.001859425217845 0.032701049000025 0.037060756236315 0.007302718702704 -0.009392770938575 -0.136400595307350 0.042618129402399 -0.020273556932807 -0.032991565763950 0.038260158151388 0.000670032517519 -0.085122577846050 -0.001265970640816 0.013960284180939 0.030696872621775 -0.004476301837713 0.024763602763414 0.008366399444640 -0.010030863806605 0.003682419424877 -0.042647603899240 0.028836350888014 0.048863265663385 -0.012702081352472 0.029286148026586 -0.052653670310974 -0.023657925426960 0.036524947732687 -0.139257133007050 -0.017527928575873 -0.003868500934914 -0.091180361807346 -0.001435688813217 0.011054703034461 -0.184231713414192 0.021346801891923 0.109850145876408 -0.028879886493087 -0.032344229519367 0.061648584902287 0.016808174550533 -0.002386813051999 -0.042222794145346 0.126061454415321 -0.022066498175263 -0.037053883075714 0.018842013552785 -0.006989147048444 0.004241970367730 0.014289204031229 -0.093564428389072 0.123156517744064 -0.010047052986920 0.011215073056519 0.063485361635685 0.002910899929702 0.009801434352994 0.002361423801631
-0.014948990195990 0.012883651070297 -0.035778991878033 -0.018307670950890 -0.047893367707729 -0.019133945927024 0.020032024011016 -0.038347057998180 -0.023909609764814 -0.009294453077018 -0.007142372429371 0.001999115804210 -0.053691267967224 -0.017160184681416 -0.008504185825586 -0.038331583142281 0.017180269584060 -0.065658129751682 0.023461584001780 -0.006538308225572 -0.017122136428952 -0.002956036711112 -0.019580772146583 -0.031995560973883 0.004704627674073 -0.007917088456452 -0.022048747166991 -0.018566817045212 -0.062181062996387 0.005523123312742 -0.028516646474600 -0.034543260931969 -0.007912054657936 0.045432008802891 -0.003328205784783 -0.014916096813977 -0.056223783642054 0.001770757953636 -0.021512534469366 -0.016791142523289 -0.007535169832408 -0.034706130623817 0.017008932307363 -0.009400128386915 -0.027490297332406 0.015650158748031 -0.041481185704470 -0.009110949933529 0.049254298210144 -0.053668573498726 -0.002476418623701 0.031274016946554 -0.042437661439180 0.001982995076105 -0.013796911574900 0.031185168772936 -0.016267735511065 0.027968719601631 -0.040609512478113 -0.007565947715193 -0.057130053639412 -0.010581900365651 -0.068832203745842 0.007498375140131
-0.003083742689341 0.009135145694017 -0.057296026498079 0.062376778572798 0.003877799492329 -0.070271685719490 0.010477500967681 -0.036580417305231 0.006566134747118 0.020665951073170 -0.001519417506643 -0.008624381385744 0.015833420678973 0.030135810375214 -0.001766514498740 0.028584051877260 -0.004608009010553 -0.090088769793510 -0.002009294694290 0.001851204084232 -0.012056235224009 -0.015692565590143 0.033490553498268 0.008644510991871 -0.018865386024117 -0.000040371305658 0.014764706604183 0.031981635838747 0.015256949700415 0.006121417507529 0.011803801171482 -0.056871052831411 -0.034995693713427 0.024723978713155 -0.023322604596615 -0.021561693400145 0.028497727587819 -0.022449731826782 0.006836422253400 0.006006564013660 -0.084822677075863 -0.005938830319792 0.043107215315104 -0.016693446785212 -0.033168017864227 0.074312426149845 -0.015472626313567 -0.008419466204941 -0.035042624920607 0.130668818950653 0.035569511353970 -0.055220849812031 0.027886681258678 -0.000914511503652 0.010549912229180 0.026463393121958 -0.011299191974103 0.052942186594009 0.006414008792490 0.006721553858370 0.002624653512612 0.025630975142121 0.047258835285902 0.029006637632847
-0.030241621658206 0.062450960278511 -0.021363973617554 0.022987917065620 0.010373014025390 0.084726221859455 -0.008017244748771 -0.041517451405525 0.011226766742766 -0.051686316728592 -0.023116759955883 0.158866792917252 -0.047811653465033 -0.063585720956326 0.141247510910034 -0.019881216809154 0.009119471535087 -0.142317533493042 0.004224521573633 -0.019533751532435 0.026916131377220 0.044548004865646 -0.032523401081562 -0.008795793168247 0.046948257833719 0.103360176086426 -0.047801580280066 0.081850379705429 -0.023754915222526 0.130166783928871 -0.000699166790582 -0.100547164678574 -0.021432016044855 0.086988262832165 -0.006016793660820 0.106855101883411 -0.147765859961510 -0.019044224172831 -0.023642664775252 -0.015850756317377 0.026797223836184 0.006721166893840 -0.017255522310734 -0.040360815823078 0.055892858654261 0.071358807384968 0.005905285477638 -0.005751701071858 0.001434420002624 -0.124208852648735 -0.091121613979340 0.102935850620270 0.009471620433033 -0.035254888236523 -0.018944237381220 0.028779493644834 -0.136820793151855 -0.103429667651653 0.034491237252951 -0.031176764518023 -0.040629185736179 0.005303547251970 -0.119672469794750 0.123789042234421
0.034915305674076 0.023713119328022 -0.127222925424576 0.024780735373497 0.055457878857851 0.038059551268816 0.023812070488930 0.083434075117111 0.051270645111799 0.060182545334101 0.006572077050805 -0.048637870699167 0.071421623229980 -0.039556439965963 0.077046878635883 0.044578704982996 0.012340333312750 -0.068109527230263 -0.034983254969120 0.040356189012527 0.018409801647067 0.070809967815876 0.046050839126110 0.024858316406608 -0.007727141492069 0.084484927356243 0.010100013576448 0.055845580995083 0.070578686892986 0.066402427852154 0.032068144530058 -0.144484579563141 0.019734900444746 0.048427958041430 -0.068642705678940 0.084351047873497 -0.105819433927536 -0.006937050726265 0.034314911812544 0.005659776274115 -0.179374694824219 0.051046792417765 0.096989199519157 0.026748895645142 -0.012021531350911 -0.025226982310414 -0.065126039087772 0.020040730014443 0.034081198275089 0.175256028771400 -0.009307862259448 0.025537755340338 0.048948083072901 0.015797676518559 0.007835074327886 0.070827037096024 -0.107442520558834 0.022041339427233 -0.002562526147813 0.015511259436607 0.063234798610210 -0.013462786562741 -0.023798925802112 0.133776783943176
-0.026760773733258 -0.038645841181278 -0.046635702252388 -0.036091998219490 0.043155316263437 0.002416014205664 0.004942844621837 0.002754601649940 0.012898341752589 -0.035281680524349 0.015320943668485 -0.087610766291618 0.016040034592152 0.000422697834438 0.077789433300495 -0.001382573507726 0.001639162888750 -0.003613725304604 0.023710560053587 -0.026266897097230 -0.050871748477221 -0.014497948810458 0.004820307716727 -0.030750226229429 -0.017937676981091 -0.006598401814699 -0.020103601738811 -0.035854205489159 0.026037540286779 -0.011213351041079 -0.016190614551306 0.003825021907687 0.012999922037125 0.045801762491465 -0.098757773637772 -0.032295286655426 -0.130252286791801 -0.054377749562263 -0.028247693553567 -0.024315027520061 -0.187089502811432 -0.033353891223669 -0.053830020129681 -0.008600969798863 -0.018219238147140 -0.107112258672714 -0.117857225239277 -0.038648240268230 0.017115997150540 -0.015913419425488 0.017888305708766 0.033186830580235 0.007267449051142 -0.017079668119550 -0.032714918255806 -0.026966724544764 -0.105283789336681 0.153970673680305 -0.008313701488078 -0.005802386440337 0.001770493225195 -0.013514526188374 -0.079155392944813 -0.016086718067527
0.044642414897680 0.057528864592314 0.055464766919613 0.020133176818490 0.095104813575745 0.026948802173138 0.016207674518228 0.048786334693432 0.035401925444603 0.064109399914742 0.036439072340727 0.024020796641707 0.049783840775490 -0.000876326987054 0.061644654721022 0.052983619272709 0.017383806407452 -0.140364363789558 -0.019450441002846 0.047769177705050 0.052543610334396 0.050562262535095 0.044514220207930 0.027557816356421 0.012603146024048 0.059680044651031 0.067936539649963 0.069839924573898 0.058411315083504 0.072648413479328 0.040264256298542 -0.087550640106201 0.034646842628717 -0.020761853083968 -0.001144874142483 0.099816620349884 -0.031850878149271 0.050393741577864 0.022191872820258 0.007427970413119 0.011966491118073 0.023576788604259 0.053958121687174 -0.002966217696667 0.050588283687830 0.019029432907701 -0.027300849556923 0.036012146621943 0.104231439530849 0.045597009360790 0.034648377448320 0.100868739187717 0.071263030171394 0.012385310605168 0.010778036899865 0.081387929618359 0.019512504339218 -0.062375448644161 0.063653916120529 0.002816624939442 0.050818834453821 0.023052709177136 -0.017500059679151 0.040961179882288
-0.026094375178218 0.031093608587980 -0.071532420814037 0.011662820354104 -0.011410898528993 -0.028497982770205 -0.006516332272440 -0.004402651451528 0.046137541532516 0.020977014675736 -0.020332733169198 -0.022833857685328 -0.026547390967607 -0.006140640936792 0.115003012120724 -0.000880824052729 -0.002296675462276 -0.012541308067739 0.016981748864055 -0.019920354709029 0.042640060186386 -0.049938410520554 0.014128932729363 -0.030471522361040 0.003279478522018 0.071132093667984 -0.022136317566037 0.034656208008528 -0.010791930370033 0.053904812783003 -0.009512734599411 -0.135923996567726 -0.045863091945648 0.102845959365368 -0.045022912323475 0.018329611048102 -0.078066080808640 0.051340050995350 -0.041106022894382 -0.023248193785548 0.044803176075220 -0.020704964175820 -0.012490723282099 -0.045230973511934 0.111579529941082 -0.011617528274655 -0.083723887801170 -0.018967323005199 0.132249876856804 -0.122462436556816 -0.001548085012473 0.151983961462975 -0.008017723448575 -0.018709467723966 -0.039307087659836 0.077006950974464 -0.159020990133286 0.066958203911781 0.062799662351608 -0.002651690971106 0.006882017012686 -0.042224939912558 -0.000637424644083 0.033828701823950
0.020310878753662 0.009350091218948 0.012802273966372 0.025935094803572 0.050294894725084 -0.028998253867030 0.015365752391517 0.026593675836921 0.014184217900038 0.063877180218697 0.023760313168168 0.038349125534296 0.032731596380472 -0.036528259515762 0.062485963106155 0.037910681217909 0.003978083841503 -0.068945840001106 -0.041560683399439 0.040871761739254 0.007603822275996 0.015659345313907 0.034725278615952 0.041351113468409 0.001766668632627 0.048236384987831 0.034477263689041 0.045391455292702 0.065210379660130 0.026184847578406 0.046093091368675 -0.090187452733517 0.048884008079767 0.000305759895127 0.050754249095917 -0.003769561415538 -0.042920909821987 0.037466116249561 0.043728016316891 0.028389079496264 -0.076866403222084 0.023047201335430 0.022190546616912 0.025456383824348 0.079534679651260 -0.028561946004629 0.017955977469683 0.020384570583701 -0.006331258453429 0.172559082508087 0.031091842800379 0.015120874159038 0.065921626985073 0.006643348839134 0.032269068062305 0.071053698658943 0.020519103854895 0.042798381298780 0.010694106109440 0.035551134496927 0.059383478015661 0.019514784216881 -0.001869812258519 0.031037261709571
-0.003703780472279 0.069701425731182 -0.129290908575058 0.006337690632790 0.031726863235235 -0.022816285490990 0.002757799811661 -0.019642887637019 -0.003272282890975 -0.038174126297235 -0.013844625093043 -0.069319494068623 -0.005607191938907 0.021604308858514 -0.088624440133572 0.017659571021795 0.035420451313257 -0.015726940706372 0.033098094165325 -0.015616864897311 -0.045063406229019 -0.020366117358208 0.007175623904914 -0.001946325995959 0.012885500676930 -0.036458544433117 0.039450272917747 -0.014287668280303 0.020381357520819 -0.023127663880587 0.017144516110420 -0.031875193119049 -0.027137421071529 -0.009297644719481 -0.039067726582289 -0.085547156631947 0.057647563517094 -0.020493919029832 -0.005610588937998 -0.026410873979330 -0.235137984156609 -0.006474356632680 0.009893087670207 -0.005923194810748 -0.053006876260042 0.020571421831846 -0.108963720500469 -0.006037611048669 0.053760997951031 0.001085489522666 -0.062120474874973 -0.040907412767410 0.041439458727837 -0.009185032919049 -0.019804272800684 0.039655525237322 -0.050256688147783 -0.091154254972935 -0.040882509201765 -0.011164072901011 -0.018343871459365 0.023660836741328 0.078226871788502 -0.041342847049236
0.016084108501673 -0.019384426996112 0.102085754275322 -0.049710642546415 0.019206201657653 -0.055557571351528 0.004894035402685 -0.027236271649599 -0.006152845919132 0.061851780861616 0.015196508727968 -0.066276818513870 -0.012126207351685 0.122149392962456 -0.051431491971016 0.018496960401535 -0.008427786640823 -0.045934557914734 -0.000351916969521 -0.002382192993537 0.058032058179379 0.000835828308482 -0.026736190542579 -0.006772774737328 0.023691922426224 -0.050056636333466 0.133124232292175 -0.028755659237504 0.002856615465134 -0.057850498706102 -0.019905513152480 -0.039476212114096 0.101066559553146 -0.110936731100082 -0.039473924785852 -0.043731626123190 0.054532445967197 0.118251323699951 0.011387391015887 0.022966587916017 -0.125776156783104 -0.029914086684585 -0.038349080830812 0.001199736958370 0.049983765929937 -0.056624416261911 -0.111609473824501 0.016414368525147 0.125742197036743 -0.064119271934032 0.162022382020950 0.046472270041704 0.029755625873804 0.012776207178831 -0.011222213506699 0.001749028102495 0.080513454973698 0.065004929900169 -0.111566476523876 0.025382680818439 -0.027678247541189 0.055858083069324 -0.052629500627518 -0.055295914411545
0.034198407083750 -0.007089343853295 0.054406039416790 0.007408875972033 0.060239076614380 -0.049716159701347 0.029592236503959 0.015547680668533 0.011214555241168 0.079980514943600 0.035113230347633 0.013925055973232 0.058228433132172 0.024575747549534 0.014183079823852 0.026367543265224 -0.008177544921637 -0.133950248360634 -0.009490692988038 0.024052813649178 -0.036947786808014 0.029504213482141 0.021827530115843 0.030601179227233 0.019671184942126 0.020757924765348 0.053477182984352 0.053832478821278 0.060853678733110 0.007025841157883 0.023514715954661 -0.105031192302704 0.036264456808567 0.131855860352516 -0.018247243016958 -0.001263841870241 -0.045980378985405 0.070704668760300 0.038654834032059 0.008863939903677 0.035335849970579 0.003969146870077 0.058638866990805 0.025092989206314 -0.006297352723777 -0.048962097615004 -0.002590302145109 0.017447939142585 0.085135169327259 0.303264647722244 0.047994792461395 -0.022264655679464 0.070444189012051 0.006856409832835 0.025248656049371 0.062886588275433 0.033990744501352 0.027796037495136 -0.042921267449856 0.013528148643672 0.055749602615833 0.043683335185051 -0.001668830635026 -0.004068002104759
0.006985771469772 0.058898661285639 -0.051298126578331 0.055496484041214 -0.030802380293608 -0.069677405059338 0.002355566248298 -0.039265774190426 0.000513950770255 -0.002124285558239 0.001813997514546 -0.044762048870325 -0.042045727372169 -0.017375271767378 -0.051943514496088 0.003640832612291 -0.007482604123652 -0.016542462632060 0.006364292465150 0.003442297922447 -0.021558381617069 -0.017535489052534 0.003170203417540 0.007945993915200 0.016551287844777 -0.028233760967851 0.001138257095590 -0.025595471262932 -0.035529550164938 -0.064897000789642 -0.014241326600313 -0.014749389141798 -0.006488309241831 0.034144725650549 -0.049011111259460 -0.041676286607981 0.038342174142599 -0.026478460058570 0.012018704786897 0.026640098541975 -0.075099825859070 -0.032700423151255 0.002278041327372 0.011454049497843 0.013462340459228 0.037492703646421 -0.012917599640787 -0.004268346820027 0.010220893658698 -0.112114459276199 0.005370938684791 0.007953293621540 -0.011714764870703 0.014592527411878 -0.017106337472796 -0.005252439994365 -0.013491647318006 0.016650585457683 -0.014433854259551 0.012545934878290 -0.034061826765537 -0.006967379245907 0.001622556475922 -0.003576762741432
-0.032750405371189 0.031516306102276 0.053309455513954 -0.105108179152012 -0.003855445189402 0.091695316135883 -0.028669096529484 -0.119637884199619 0.001387840020470 -0.084535062313080 0.022365741431713 0.096100866794586 -0.027501923963428 0.123880110681057 0.081499814987183 -0.040640037506819 -0.019883651286364 0.111483328044415 0.046155136078596 -0.034004185348749 -0.078654602169991 0.043160125613213 -0.084474429488182 -0.030284948647022 0.038796957582235 -0.018336081877351 0.092153497040272 -0.026251766830683 -0.039937041699886 0.079589404165745 0.001904929056764 0.062150634825230 -0.000294233585009 0.062817171216011 0.063187107443810 -0.012603991664946 0.094132952392101 0.132765501737595 -0.035702772438526 -0.044316694140434 -0.252043873071671 -0.025910006836057 0.016507821157575 -0.030058527365327 0.125037968158722 0.024367591366172 -0.140135869383812 -0.029773673042655 0.194166406989098 0.048690982162952 0.119255788624287 0.163562297821045 -0.000894759199582 -0.047862850129604 -0.026541618630290 0.045325808227062 -0.001753812073730 0.091961033642292 -0.240707159042358 -0.040951270610094 -0.075549691915512 0.077830076217651 0.016409160569310 -0.020171212032437
0.016403611749411 0.009771750308573 -0.111597284674644 0.041056782007217 0.047995179891586 -0.157966345548630 0.038195341825485 0.109653189778328 0.020218215882778 0.059965193271637 0.041202999651432 -0.027626732364297 0.012128619477153 -0.028591092675924 0.054991077631712 0.080993250012398 0.006302808877081 -0.222369983792305 -0.001237904536538 0.017395678907633 0.086891964077950 -0.048792801797390 0.074031114578247 0.057150989770889 -0.000845981179737 0.061650913208723 0.037907931953669 0.075502574443817 0.061194054782391 -0.034571781754494 0.003505573375151 -0.168435826897621 0.017635792493820 0.039942011237144 -0.053875096142292 -0.061337966471910 -0.038290224969387 0.057517554610968 0.028141302987933 0.034937657415867 0.179951980710030 -0.006294483784586 -0.067696161568165 0.013555450364947 -0.043569520115852 -0.016912609338760 0.008121754042804 0.023438366129994 -0.065357655286789 0.194042935967445 -0.039559356868267 -0.049897715449333 0.019842373207211 0.026520000770688 0.017982890829444 0.009965463541448 -0.090389505028725 0.048937182873487 0.034225273877382 0.014886942692101 0.078304730355740 0.026571935042739 -0.056465532630682 0.044381063431501
-0.026743222028017 0.072165146470070 -0.043259780853987 0.064544223248959 0.027998335659504 0.004434593953192 0.006787955760956 -0.029787329956889 0.010164688341320 0.004263311624527 -0.016470350325108 0.173251941800117 -0.026992594823241 0.030530480667949 0.070532709360123 0.004115272313356 0.007431899663061 0.044883690774441 0.023077789694071 0.015035578049719 0.064715862274170 0.076115079224110 -0.017122156918049 0.007076368201524 0.041206587105989 0.015463519841433 0.062040299177170 0.083116061985493 -0.022217610850930 0.035004574805498 -0.004002004396170 -0.119508452713490 0.011254344135523 0.112615957856178 -0.120992109179497 0.061107132583857 0.043718617409468 0.098732382059097 -0.019925931468606 -0.005535956937820 0.009598920121789 0.027831323444843 -0.049421992152929 -0.019382080063224 0.121449656784534 0.102593749761581 0.028519738465548 0.009711579419672 0.126291930675507 -0.058439724147320 0.037763476371765 -0.036909695714712 -0.010131549090147 0.013416877016425 -0.017389291897416 -0.007024121005088 -0.126759380102158 -0.022619336843491 -0.123610302805901 0.008901757188141 -0.039567552506924 -0.043665718287230 -0.034225206822157 0.034081213176250
0.034718517214060 -0.003477769671008 -0.004444366786629 0.019027337431908 0.024853164330125 -0.093596145510674 0.034104026854038 0.011188120581210 0.007834238931537 0.075519099831581 0.028048114851117 -0.125787511467934 0.020825590938330 0.064436271786690 -0.049670033156872 0.041787985712290 0.023100050166249 -0.126885905861855 -0.005739790387452 0.033473551273346 -0.012972250580788 -0.022314663976431 0.035660039633512 0.023642851039767 0.008428002707660 -0.002797412918881 0.054244179278612 0.013242948800325 0.017901372164488 -0.057344306260347 -0.002472408814356 -0.076991446316242 0.042765248566866 -0.076373487710953 -0.079155139625072 -0.065037377178669 0.009216358885169 0.017629913985729 0.027553480118513 0.023775218054652 -0.030832393094897 -0.000153330387548 0.026284480467439 0.016399947926402 -0.049194525927305 -0.007724049035460 -0.064091406762600 0.000425572128734 0.094710752367973 -0.091257333755493 0.056883756071329 0.004394716583192 0.032598815858364 0.031305603682995 0.022295990958810 0.020039794966578 0.035995952785015 -0.024140248075128 -0.012531562708318 0.040705446153879 0.028782939538360 0.017572410404682 -0.000461586518213 -0.010959750041366
0.012176818214357 0.053022537380457 -0.086726143956184 0.085717208683491 -0.033291634172201 -0.068382561206818 0.001059775007889 -0.020324718207121 -0.015885887667537 -0.013428298756480 -0.003238207194954 -0.079405687749386 -0.022831685841084 -0.022340018302202 -0.060074534267187 -0.011171301826835 0.006243532989174 0.002941510640085 0.005634792149067 0.023576699197292 -0.000501995440573 -0.046756274998188 -0.015770150348544 -0.019392378628254 0.008430237881839 -0.034737478941679 0.005760399159044 -0.001367469667457 -0.028550524264574 -0.055836841464043 0.000830736244097 -0.037875153124332 -0.010579181835055 -0.078430332243443 -0.058757644146681 -0.060756452381611 0.052671514451504 -0.034321688115597 0.008723624050617 -0.001584824174643 0.005614427849650 -0.009971267543733 0.034952286630869 0.007851076312363 -0.006687643472105 0.086582422256470 -0.002648140303791 -0.006605143658817 -0.009485482238233 -0.098040863871574 -0.022129608318210 -0.016031492501497 -0.022795161232352 -0.009106033481658 -0.010604214854538 -0.034420292824507 -0.022208839654922 -0.027310043573380 -0.034571409225464 -0.006940246094018 -0.018255354836583 -0.023509318009019 0.038203600794077 0.002522209659219
-0.001790746231563 -0.043811742216349 -0.052766311913729 -0.000917554832995 0.032888200134039 -0.079040542244911 0.014024182222784 -0.024303818121552 -0.000782861257903 0.035736463963985 0.016013782471418 -0.048192117363214 0.037730608135462 -0.000673330505379 0.013963484205306 -0.023753626272082 -0.027888605371118 -0.058332968503237 0.006372788455337 0.031235313042998 -0.004815049003810 -0.024589318782091 0.015986571088433 0.034253612160683 -0.047362335026264 -0.011620086617768 0.001237876364030 -0.022588122636080 0.024366322904825 -0.042562905699015 0.000682873243932 -0.012201902456582 0.010257491841912 0.127275869250298 -0.037971019744873 -0.051091067492962 0.059612058103085 -0.006493670400232 0.009518140926957 0.016610015183687 -0.141897484660149 -0.007798086386174 -0.025304930284619 -0.029606757685542 0.021888488903642 0.022015098482370 0.009909030050039 0.000496972934343 -0.123336821794510 -0.016982315108180 0.052375014871359 -0.030682649463415 0.009741605259478 0.019858261570334 0.011801517568529 -0.006211597472429 -0.025002811104059 0.099642872810364 0.034799836575985 0.015401553362608 -0.010882640257478 0.015636323019862 0.044924210757017 0.016526969149709
0.015559784136713 -0.004471259657294 0.009280992671847 -0.030573092401028 0.012379055842757 -0.052819885313511 -0.006681126542389 0.021094581112266 -0.009999972768128 -0.006015176884830 0.030756585299969 -0.026780532673001 0.021944683045149 -0.034407228231430 -0.039900925010443 0.006482373457402 0.004660534672439 -0.048750109970570 0.003925183322281 0.011579430662096 0.010254523716867 -0.002829941920936 0.013213212601840 -0.014020486734807 0.009239503182471 0.000771148712374 0.017513919621706 0.005312412977219 0.018860826268792 -0.003300433512777 -0.013412579894066 -0.042180728167295 0.031548015773296 -0.042130079120398 -0.017376534640789 -0.031310539692640 -0.019101407378912 0.003998924046755 -0.008106756955385 -0.000489802157972 -0.011806347407401 0.001178030855954 -0.022887587547302 0.004901424515992 -0.035125121474266 -0.020979294553399 -0.000494373729452 -0.003560566576198 -0.017727063968778 -0.022259864956141 -0.007512593176216 -0.022335587069392 0.022822665050626 -0.004045192617923 0.009177415631711 0.003449985757470 0.018308660015464 -0.039784047752619 -0.003649761201814 0.008052713237703 0.003376335604116 -0.007873333990574 -0.031532701104879 -0.010148043744266
-0.006021919660270 0.056037381291389 0.151788130402565 -0.104318901896477 0.012426791712642 0.092056855559349 0.006277155131102 -0.007947049103677 -0.003796818200499 -0.044963803142309 0.002492575906217 0.023302538320422 -0.002985460683703 0.147468402981758 0.110422857105732 0.010405317880213 0.005874243099242 0.123930543661118 -0.000824687362183 0.009664500132203 -0.048613488674164 0.054884158074856 0.016004946082830 0.008716268464923 0.043324921280146 0.023960921913385 0.029208952561021 -0.026750333607197 -0.023270880803466 0.145472407341003 -0.001171428477392 0.033467523753643 0.021180620416999 -0.051060464233160 0.124942511320114 0.094310030341148 0.127340048551559 0.134818851947784 0.014402649365366 0.017383407801390 -0.078689590096474 0.000438312446931 0.033382877707481 0.034314393997192 0.002711854642257 0.045701757073402 -0.159275963902473 0.001964476658031 0.060849532485008 0.139717787504196 0.035640683025122 0.038435600697994 0.014105559326708 0.014014303684235 -0.000032860440115 -0.009597402065992 0.143542438745499 0.083209395408630 -0.010047335177660 -0.011022501625121 -0.035868275910616 -0.008148582652211 0.125762060284615 0.001920177484863
0.039189290255308 0.024346621707082 -0.038807939738035 -0.097338102757931 -0.004080386366695 0.134936854243279 -0.008562553673983 -0.044276136904955 0.005596784409136 -0.000985152670182 0.019934576004744 0.031142214313149 -0.063725851476192 0.124010056257248 0.130357652902603 0.002679381519556 -0.001267513027415 0.057802841067314 0.033191476017237 0.019651919603348 0.074019424617290 0.081356130540371 0.056362494826317 -0.017399655655026 0.008376547135413 0.061826921999454 0.069848150014877 0.030829504132271 -0.037801221013069 0.093757167458534 0.008180027827621 -0.024491855874658 0.058576345443726 -0.004237226210535 0.004153112415224 0.107591085135937 -0.039478592574596 0.020447565242648 -0.015662306919694 0.010270863771439 -0.003286953317001 -0.016598628833890 0.022848926484585 -0.063952282071114 0.078315019607544 -0.010889155790210 -0.076261423528194 -0.034696511924267 0.196253091096878 0.017051795497537 0.078667126595974 0.211015939712524 -0.011109160259366 0.006191814783961 -0.010992717929184 0.000013257164028 -0.110895864665508 0.041956186294556 -0.202125892043114 0.025416592136025 -0.060721933841705 0.001019138144329 -0.085948675870895 0.030389962717891
-0.051910232752562 -0.010998813435435 -0.077469907701015 -0.032860692590475 0.019688090309501 -0.004178482573479 -0.016301890835166 -0.064173132181168 -0.015284629538655 0.043484598398209 -0.007156700827181 0.040807601064444 -0.039810959249735 0.053542919456959 -0.001355443033390 -0.052693862468004 -0.025094915181398 -0.108758695423603 0.015809176489711 -0.010104377754033 -0.072860993444920 -0.037736695259809 -0.013130952604115 -0.023571984842420 -0.008759091608226 -0.004145612008870 -0.000190711740288 -0.036202523857355 -0.043643642216921 -0.033597461879253 -0.017083559185266 -0.104863509535789 0.004335457459092 0.132370442152023 -0.121260009706020 -0.045374792069197 -0.080584064126015 0.042485382407904 -0.056459501385689 -0.045983068645000 -0.110962137579918 -0.028127046301961 -0.019401503726840 -0.103056408464909 -0.144095331430435 -0.080603048205376 -0.037318762391806 -0.046055987477303 0.195671290159225 0.062872484326363 0.037632647901773 0.138892799615860 0.010558569803834 -0.021253075450659 -0.056922357529402 0.099450610578060 -0.061405107378960 0.029714239761233 0.015007535926998 -0.031370673328638 -0.062008172273636 -0.001260184566490 -0.086644634604454 0.001917653949931
0.019459189847112 0.000531290424988 0.008583450689912 0.003461770946160 0.009448690339923 -0.029630390927196 0.016572758555412 0.012713652104139 -0.025133129209280 0.014190846122801 0.016811553388834 -0.036194838583469 0.012432522140443 -0.037028383463621 -0.067303717136383 0.006150731351227 -0.000297242979286 -0.064668357372284 0.001489859889261 0.001001397380605 0.021894864737988 0.007445882540196 0.009946097619832 0.006923940964043 0.001277645584196 -0.010534060187638 0.052805665880442 -0.021569693461061 0.022120369598269 -0.017873944714665 0.001011175219901 -0.066349938511848 0.027962027117610 -0.046792507171631 -0.002127425977960 -0.019189659506083 -0.013787675648928 0.007483375724405 0.019666986539960 0.000026601366699 -0.043138828128576 -0.018894053995609 -0.045020744204521 0.014145147055387 -0.029441211372614 0.017216835170984 0.002385678235441 0.005497464444488 -0.011822778731585 -0.017389526590705 0.026834305375814 -0.043456979095936 0.021099220961332 0.009768692776561 0.002032999880612 -0.036836974322796 0.051021318882704 -0.052285108715296 0.005617239978164 0.000275671482086 0.014700222760439 0.004337794613093 -0.033638875931501 -0.049128830432892
0.014279523864388 0.005407459102571 -0.075063787400723 0.011978470720351 0.013312584720552 -0.074505887925625 0.016575533896685 0.003556555369869 -0.001645664102398 -0.029502185061574 0.013500520028174 -0.063377797603607 -0.011887654662132 -0.023949190974236 -0.047465190291405 0.029286328703165 0.013654001057148 -0.014693146571517 0.016391290351748 0.006640695035458 -0.018781509250402 -0.004819618538022 -0.001542468555272 0.028213340789080 0.000914124131668 -0.007001323159784 0.001690371776931 0.016748601570725 -0.004627833608538 -0.066884718835354 0.008298300206661 -0.019377484917641 -0.007152977865189 -0.029466122388840 -0.068005703389645 -0.048869978636503 -0.013247101567686 -0.030781561508775 0.018888516351581 0.011213269084692 0.018028674647212 0.005536330398172 -0.076931528747082 0.021398209035397 0.022594084963202 0.003844388062134 0.049414787441492 0.025798605754972 -0.022980272769928 -0.073122709989548 -0.005064096301794 -0.045285861939192 -0.004515575710684 0.016478700563312 0.010512876324356 -0.002077464247122 -0.054347407072783 -0.006216470152140 0.019137863069773 0.028273176401854 -0.013870811089873 0.018778340891004 -0.045120552182198 -0.008873330429196
-0.016791382804513 0.016232140362263 0.095881998538971 -0.095199689269066 0.028512805700302 0.154268607497215 -0.009642675518990 -0.025947187095881 0.002011035569012 0.013434854336083 0.001012163585983 -0.001799218473025 -0.015305798500776 0.060606416314840 0.116414584219456 -0.003643744159490 -0.021003745496273 0.112857662141323 0.014435349963605 -0.014865926466882 -0.002562560606748 0.052373949438334 0.018417986109853 -0.027000194415450 0.072818286716938 0.073379121720791 0.016787463799119 0.018492436036468 -0.019973890855908 0.089651875197887 0.012239553965628 -0.010366321541369 0.028248369693756 0.060865703970194 0.039823021739721 0.103587627410889 0.011509137228131 0.144373089075089 -0.015336950309575 -0.012027590535581 -0.069032184779644 -0.020227143540978 -0.056267619132996 -0.040003314614296 0.099371664226055 -0.092822179198265 -0.080816604197025 -0.011509407311678 0.159035697579384 0.069636896252632 0.044831756502390 0.149370849132538 -0.004121073987335 -0.017800629138947 -0.012775937095284 0.036829184740782 -0.042005073279142 0.044366292655468 -0.098864763975143 -0.002545244758949 -0.045097690075636 0.006042813416570 0.014168174937367 0.000125013088109
-0.011054971255362 0.048800230026245 0.028841454535723 0.059159643948078 -0.025198096409440 -0.035713151097298 -0.011796885170043 -0.026884034276009 -0.006099779624492 -0.008210475556552 -0.006360332015902 -0.060492642223835 -0.052471220493317 -0.034923773258924 -0.041983008384705 -0.028834478929639 0.015027048997581 -0.021329686045647 -0.007497164886445 0.013606695458293 -0.039236336946487 -0.032919477671385 -0.021199168637395 -0.018360359594226 0.016415983438492 -0.024257594719529 -0.008998863399029 -0.019858850166202 -0.032203204929829 0.001878098468296 0.007733552251011 -0.032576486468315 -0.016712712123990 0.015279911458492 -0.003918307833374 -0.026750352233648 -0.051226228475571 -0.044161744415760 -0.013713363558054 -0.020587142556906 0.055221807211637 -0.018575098365545 0.095903970301151 -0.003188514383510 -0.032533645629883 0.024345563724637 -0.028876572847366 -0.029260527342558 -0.017289509996772 -0.108939312398434 0.019575102254748 0.035749334841967 -0.025033930316567 0.000135831549414 -0.016836779192090 -0.025432666763663 0.021534213796258 0.003050253493711 -0.047357656061649 0.000229863944696 -0.030532976612449 -0.001304042642005 0.022319568321109 -0.016453746706247
-0.004541501868516 0.061894435435534 -0.028945049270988 0.067668117582798 -0.029422860592604 -0.039892930537462 0.000405001133913 -0.020887337625027 -0.009510074742138 -0.005514677148312 -0.022897204384208 -0.045276004821062 0.005270109977573 0.001738400664181 -0.049654413014650 -0.015602663159370 -0.000449521292467 0.009374562650919 -0.001571884145960 -0.009589294902980 -0.012077622115612 -0.024023797363043 -0.015558768995106 -0.000695575028658 0.003572112414986 -0.012070878408849 0.017112599685788 -0.022192982956767 -0.016605509445071 -0.017696822062135 -0.030096512287855 0.012275185436010 -0.008407387882471 0.002519307192415 -0.020595610141754 -0.053943701088428 0.006429972127080 -0.036743000149727 -0.012303756549954 0.015822414308786 -0.057006232440472 -0.012625501491129 0.024423472583294 -0.010679078288376 -0.007211498916149 0.057954225689173 -0.010852300561965 -0.010859469883144 -0.015626922249794 -0.032999660819769 0.017224026843905 0.000923063838854 -0.003529296256602 0.013321252539754 -0.017060324549675 -0.010178218595684 0.001736075384542 -0.014640157110989 -0.020418096333742 0.001664706040174 -0.025117801502347 -0.006342743057758 0.018793011084199 0.004790409468114
0.014860681258142 -0.049081645905972 0.041499238461256 0.006737969815731 -0.047662131488323 -0.045654617249966 0.005990129895508 0.051577005535364 0.043927472084761 0.058422565460205 0.024074349552393 0.195462957024574 -0.000436069763964 0.176505237817764 -0.011846366338432 0.006048860494047 0.039945956319571 -0.344359457492828 0.026675034314394 0.009781959466636 -0.095954515039921 -0.023949228227139 -0.001251314068213 0.024626376107335 -0.052287504076958 0.144976198673248 0.036489047110081 0.041819598525763 0.041556704789400 0.095701672136784 0.021905748173594 -0.018556799739599 -0.091174982488155 0.061184294521809 0.396529257297516 0.137951582670212 -0.114042513072491 0.034083705395460 0.024420589208603 0.032101705670357 0.079039536416531 0.021807054057717 -0.227589502930641 0.018279580399394 -0.119890548288822 -0.010138376615942 0.036512728780508 0.020047433674335 0.049106944352388 -0.282678186893463 0.133281186223030 0.063572026789188 0.033192150294781 0.021546373143792 0.037929859012365 0.003568976651877 0.231964260339737 -0.078845545649529 0.069968700408936 0.017039190977812 -0.016674699261785 0.026101574301720 -0.227562993764877 0.163475200533867
-0.026596592739224 -0.027700364589691 -0.001911814906634 -0.127896189689636 -0.000736589310691 0.132903978228569 -0.025261955335736 0.007638743147254 -0.008249233476818 0.037845831364393 0.013106646947563 -0.121086664497852 -0.031137723475695 0.023972028866410 0.067679271101952 -0.005956423003227 -0.028953852131963 0.013613336719573 -0.013264162465930 -0.030494587495923 -0.002167984843254 0.010228602215648 -0.015280017629266 -0.007966608740389 -0.039618290960789 0.003345438512042 0.101811461150646 -0.033842254430056 -0.002042250242084 0.067428566515446 -0.022552527487278 0.004598458297551 -0.047190375626087 -0.167746096849442 0.022076599299908 -0.094124108552933 -0.005128734279424 0.049930434674025 -0.036735188215971 -0.020288860425353 -0.143840104341507 -0.017702721059322 -0.119202837347984 -0.035837750881910 0.074386201798916 -0.107658803462982 -0.058536171913147 -0.012591077014804 -0.110017642378807 0.129467219114304 0.035304117947817 0.135226175189018 -0.021143857389688 -0.014811526983976 -0.017237417399883 -0.016324341297150 0.039451669901609 -0.000337538454914 0.084528833627701 -0.020209794864058 -0.022946285083890 -0.025140894576907 -0.012037746608257 -0.041382145136595
0.041542042046785 0.056952513754368 -0.047756992280483 0.044459033757448 -0.025353191420436 -0.015166181139648 0.018533863127232 -0.006064923945814 -0.021697400137782 -0.043208662420511 -0.001497891615145 -0.063434019684792 -0.011651018634439 -0.111105330288410 -0.079194866120815 0.012147114612162 -0.003453133860603 -0.024279829114676 0.032896652817726 0.014958713203669 -0.043108262121677 -0.029484467580914 0.004092786461115 -0.003247555810958 0.041545659303665 -0.029104650020599 -0.048640936613083 0.023884141817689 -0.023317966610193 -0.020444758236408 -0.010231642052531 -0.136559441685677 -0.033374134451151 0.011007136665285 -0.045077711343765 -0.019096709787846 -0.022689374163747 -0.025744521990418 0.021381668746471 0.002524870680645 -0.035625949501991 -0.016188597306609 0.124088928103447 0.038851123303175 -0.070262856781483 0.080578960478306 -0.030705716460943 0.032935973256826 0.001260897377506 -0.009766150265932 -0.095998227596283 -0.054614041000605 -0.023382870480418 0.001676914049312 -0.009091547690332 0.022487638518214 -0.039379786700010 -0.072618149220943 -0.082966260612011 0.024271147325635 -0.007465732749552 -0.026905959472060 0.057679839432240 0.007911543361843
0.034127589315176 0.055075924843550 -0.148768901824951 -0.059334725141525 0.070440262556076 0.210500717163086 0.026886867359281 -0.055090304464102 0.019233319908381 -0.018395742401481 0.015356563031673 0.036173790693283 0.054326191544533 -0.174445137381554 0.045140713453293 -0.002104724990204 0.028086984530091 -0.088499121367931 -0.035151816904545 -0.002864478155971 -0.001391698024236 0.080682903528214 0.002673388458788 0.034461367875338 0.032084561884403 0.074492603540421 -0.002856748644263 0.061588007956743 0.011928627267480 0.168060436844826 0.001081622089259 -0.128512129187584 0.024481959640980 0.209091618657112 -0.009706462733448 0.044386759400368 -0.067859038710594 -0.011014599353075 0.032439850270748 -0.003321704454720 -0.436012566089630 0.080774419009686 -0.035250388085842 0.021143855527043 -0.177666589617729 -0.049766995012760 -0.017796693369746 0.013963548466563 0.103290520608425 0.141287848353386 -0.130098506808281 0.151009529829025 0.062138561159372 0.008402348496020 -0.026720207184553 0.129464522004128 -0.036266449838877 0.063074000179768 -0.237060070037842 0.009481128305197 -0.023382464423776 -0.034408643841743 -0.103691071271896 0.105513386428356
-0.000807473843452 -0.015809031203389 -0.031574673950672 0.149360090494156 -0.028397468850017 -0.050648778676987 -0.002232263563201 0.021000968292356 -0.012941311113536 0.041801627725363 0.017850138247013 -0.007719133514911 -0.013688300736248 -0.003955481573939 0.016633620485663 -0.011998809874058 0.031706687062979 -0.096570551395416 -0.004718504846096 0.001404053997248 -0.054752442985773 -0.051867205649614 -0.010977911762893 0.017635943368077 0.003911514300853 -0.024010894820094 0.023590881377459 0.050118707120419 -0.022969894111156 -0.035149812698364 -0.017661741003394 -0.026095328852534 -0.000234007733525 -0.026983054354787 -0.057603139430285 -0.046065490692854 -0.017898462712765 -0.040392383933067 0.001986328745261 0.013337844982743 0.041631508618593 -0.011920504271984 -0.001152484444901 0.029696989804506 -0.030800227075815 -0.016818188130856 0.114973984658718 -0.004759445786476 0.018685534596443 0.018669102340937 -0.014263343997300 0.003221392165869 -0.018397340551019 -0.025686345994473 0.017983404919505 0.029033539816737 -0.000490530685056 0.005372686777264 0.070067465305328 -0.007720152381808 -0.034448906779289 0.069260500371456 -0.075478248298168 -0.011749927885830
0.059829458594322 -0.017684035003185 0.001737585058436 0.065184965729713 -0.016849892213941 0.018997009843588 -0.010704076848924 0.028277229517698 0.013513730838895 -0.011470858007669 0.005580687429756 -0.088642664253712 0.022306291386485 -0.056583281606436 -0.116452202200890 0.015836741775274 0.015080134384334 0.008008635602891 0.001268681488000 0.030831180512905 0.017173074185848 -0.028126113116741 0.065493047237396 -0.006902254652232 0.041730985045433 -0.095327362418175 0.038650691509247 -0.023332756012678 0.012595744803548 -0.068229302763939 -0.003389837453142 -0.195667400956154 0.075659826397896 0.114147268235683 -0.107622876763344 -0.084809735417366 0.113732613623142 -0.011759803630412 0.016428111121058 -0.006443829275668 -0.103086963295937 0.018213465809822 0.075971759855747 0.028686627745628 0.213307425379753 0.028231551870704 -0.027170671150088 0.000802606286015 0.192171201109886 0.006652606651187 -0.058255404233932 0.070259295403957 0.048776570707560 -0.003557520685717 0.009155909530818 0.058119710534811 -0.201165974140167 0.106456562876701 -0.070187948644161 0.034105349332094 0.015281999483705 0.015466034412384 0.058360159397125 -0.049493752419949
0.032921064645052 0.074703060090542 -0.019695930182934 0.147284314036369 0.105317190289497 0.060006398707628 0.001256170682609 -0.010134100914001 -0.000596743368078 0.055988661944866 0.021542208269238 0.044210400432348 0.037431038916111 -0.015339445322752 0.168745830655098 0.036801725625992 0.010112682357430 -0.171895697712898 -0.001245871535502 0.027297057211399 0.036584112793207 0.106195911765099 0.061344653367996 0.016830289736390 -0.027672639116645 0.087546572089195 -0.022928182035685 0.082820713520050 0.043226547539234 0.096148408949375 0.015227073803544 -0.143870830535889 0.026441672816873 0.150873437523842 -0.020364448428154 0.061912689357996 0.104719422757626 0.018085828050971 -0.009621018543839 0.000664260063786 -0.059010777622461 0.021609080955386 0.198608905076981 0.018739845603704 -0.072158500552177 0.208225965499878 0.079201690852642 0.008840154856443 0.039146114140749 0.102845810353756 -0.015529774129391 0.103235006332397 0.047114688903093 -0.014893271960318 0.010734782554209 0.135741353034973 -0.079282008111477 0.034419499337673 0.103766284883022 0.013898227363825 0.065843015909195 -0.030727144330740 0.114524729549885 0.050177060067654
-0.082685671746731 0.062292333692312 0.028802996501327 -0.017329541966319 -0.046813704073429 0.141341701149940 -0.071687243878841 -0.147440388798714 -0.081854760646820 -0.009872245602310 -0.031786669045687 -0.221432805061340 -0.026056773960590 0.010394178330898 0.054246712476015 -0.088971167802811 -0.019534375518560 0.086778722703457 -0.002184646204114 -0.072046168148518 -0.001477412879467 -0.006004824303091 -0.119668513536453 -0.064373753964901 -0.028340395539999 -0.068245165050030 0.088786475360394 0.041796743869781 -0.051569350063801 0.019646501168609 -0.028424398973584 -0.024365324527025 -0.086517743766308 0.117185451090336 0.017204662784934 -0.101847454905510 0.229119226336479 0.115023866295815 -0.102629616856575 -0.081123284995556 -0.280839920043945 -0.021675977855921 0.155235171318054 -0.050409648567438 0.041975710541010 0.049096409231424 -0.277012109756470 -0.062563180923462 -0.067939154803753 -0.110149860382080 0.207048609852791 0.312283277511597 -0.041724447160959 -0.057619761675596 -0.071100853383541 0.011698541231453 -0.039244450628757 0.269425660371780 -0.204513087868690 -0.062269788235426 -0.135402336716652 0.047039043158293 0.111808829009533 -0.000740659830626
0.013900080695748 0.015171757899225 -0.020552733913064 -0.042256202548742 0.031056538224220 0.017932280898094 0.002418696647510 0.002859761938453 0.022510230541229 0.041688241064548 0.043590385466814 0.034592211246490 -0.017960226163268 0.068764641880989 0.107139311730862 0.009553018957376 0.016051998361945 -0.056401360780001 0.020484359934926 0.049040339887142 0.007325641345233 0.056448135524988 -0.033832617104053 -0.005187905393541 -0.012995470315218 -0.036383882164955 0.063713006675243 -0.003697142470628 -0.004229921381921 0.000417863746407 0.007856599055231 -0.099435366690159 0.023704184219241 0.107287690043449 -0.177954703569412 0.073552779853344 0.037790816277266 0.020956415683031 0.001203710096888 -0.002237964654341 0.039874147623777 0.010474259033799 0.121817670762539 -0.001166446483694 0.228459000587463 0.023479694500566 -0.036268983036280 -0.005144803784788 0.208760097622871 -0.037176568061113 0.101928502321243 0.094725348055363 0.027216663584113 -0.009760160930455 0.017756579443812 0.049015969038010 -0.222334519028664 0.223806560039520 -0.010049804113805 0.024821726605296 -0.011747869662941 0.040947977453470 -0.016187280416489 0.064599215984344
0.021313449367881 -0.052975263446569 -0.083163760602474 -0.136838957667351 -0.021983463317156 0.079313412308693 -0.013876504264772 -0.006868809461594 0.053605455905199 0.106775172054768 -0.074948795139790 0.100232899188995 -0.061965204775333 0.162515386939049 0.138031005859375 -0.014797675423324 -0.058872938156128 0.094264991581440 -0.030253075063229 0.007731427904218 0.102208644151688 0.095605127513409 -0.018758926540613 -0.036421913653612 -0.016475576907396 0.104471176862717 -0.040937907993793 0.020341776311398 -0.037692710757256 0.127072662115097 0.021109163761139 0.068508937954903 0.103949099779129 0.240383014082909 -0.164177507162094 0.131372421979904 -0.117778532207012 -0.002040423220024 -0.005955964326859 -0.011636798270047 0.056798424571753 0.001857174211182 -0.179631948471069 -0.035332296043634 0.203575640916824 -0.132107436656952 0.024364007636905 -0.004038349259645 0.048028282821178 0.104439705610275 0.119503773748875 -0.019266795367002 -0.030831703916192 -0.007545187603682 -0.014902479015291 -0.035639926791191 -0.151201024651527 0.304988950490952 -0.033887110650539 -0.022607263177633 -0.073105052113533 0.054512910544872 -0.242188885807991 0.130369365215302
-0.010111385025084 -0.033741775900126 -0.015870688483119 -0.047092705965042 -0.012408758513629 0.066256687045097 -0.009909304790199 0.054832126945257 0.006374623626471 0.012773453257978 -0.027456985786557 0.117797479033470 -0.062136199325323 0.083229325711727 0.170286700129509 -0.036719579249620 -0.004501509014517 -0.094646543264389 0.017110388725996 0.009275618940592 -0.019854294136167 0.080491781234741 -0.035212509334087 -0.031422816216946 -0.018960772082210 0.105855591595173 0.023866428062320 -0.061014600098133 -0.036429468542337 0.116694547235966 0.019319867715240 -0.136578902602196 -0.002897518919781 0.022763175889850 0.020784735679626 0.196413546800613 -0.119414933025837 -0.045953977853060 -0.019806250929832 -0.004579516593367 -0.023701200261712 -0.011435883119702 -0.042149469256401 -0.037380706518888 0.099028348922729 -0.053609106689692 -0.052126634865999 -0.014680319465697 0.097952030599117 -0.155662566423416 0.029184438288212 0.041183099150658 -0.039770293980837 -0.014536900445819 -0.010397931560874 -0.014938306063414 -0.097828634083271 0.083160415291786 -0.041838593780994 0.004347871057689 -0.044719699770212 -0.027068920433521 -0.162718117237091 0.122879788279533
0.052982114255428 0.008796355687082 0.021367665380239 -0.024467229843140 -0.007708398159593 -0.036211770027876 -0.015539031475782 0.034064088016748 -0.017148725688457 -0.061657972633839 -0.004069486632943 -0.050997469574213 0.000328018213622 -0.078421898186207 -0.036405276507139 -0.029426572844386 0.004918790422380 0.025337334722281 -0.057551819831133 -0.019061591476202 0.006299365311861 -0.078732721507549 -0.012729050591588 -0.003017607377842 -0.000559456413612 -0.065175093710423 0.005776185542345 0.023436686024070 -0.011985723860562 -0.016476977616549 -0.015199075452983 -0.023595344275236 -0.007366841658950 0.076343528926373 0.033851984888315 -0.045513164252043 0.097249299287796 -0.008585359901190 0.017923353239894 -0.007073724176735 -0.340992122888565 0.014796620234847 0.122079044580460 0.036183863878250 -0.069696068763733 -0.003119675675407 -0.159591406583786 0.009226165711880 0.051541171967983 0.039418105036020 -0.002332951175049 0.106510542333126 -0.012166555970907 -0.011616536416113 -0.037744846194983 0.038255896419287 0.076542750000954 0.164244517683983 -0.182967618107796 -0.031572625041008 -0.025832291692495 0.050747130066156 -0.044095486402512 -0.034576356410980
-0.033115219324827 0.042089022696018 -0.205466508865356 0.113610908389091 0.002202122472227 0.119594544172287 -0.011230625212193 -0.013689409010112 0.030592329800129 -0.052063971757889 -0.072666876018047 -0.002816343214363 -0.008427758701146 -0.155890092253685 0.117799170315266 -0.040844455361366 -0.007378038950264 0.042657129466534 0.035207040607929 0.006612726487219 -0.072400741279125 0.094228185713291 0.008687608875334 -0.033817753195763 0.024650299921632 -0.047532353550196 -0.073273293673992 -0.007188603281975 -0.033474352210760 -0.001429684576578 -0.001442228211090 -0.120112262666225 0.014085602946579 0.161552742123604 -0.224613413214684 -0.012818175368011 -0.151785641908646 -0.041708089411259 -0.014906000345945 -0.004868656396866 0.053774066269398 0.011472517624497 0.179133743047714 -0.030346849933267 -0.100204184651375 0.003692571539432 -0.012297387234867 -0.018900630995631 0.205031558871269 -0.156888723373413 -0.116820238530636 0.236424848437309 -0.023131435737014 0.030754618346691 -0.047815393656492 -0.002748540835455 -0.229575663805008 -0.064822390675545 -0.065754212439060 0.057583145797253 -0.077470831573009 -0.059899829328060 -0.019407687708735 0.038778930902481
0.026478059589863 0.016845216974616 -0.004765097517520 0.012898555025458 -0.017119696363807 -0.019794832915068 -0.009203710593283 0.068571612238884 -0.013635520823300 -0.033145055174828 0.001043192110956 -0.034991994500160 -0.006482135970145 -0.088299110531807 -0.031572356820107 0.005771656055003 -0.003188506234437 -0.038111999630928 -0.012365407310426 -0.006065456662327 -0.019604820758104 -0.033176321536303 0.005571715999395 0.013808390125632 0.011949139647186 -0.020397426560521 -0.010306792333722 0.006328309886158 0.004624395165592 -0.013209508731961 -0.016955623403192 -0.116070836782455 -0.030876824632287 0.044011112302542 -0.015101970173419 -0.009133665822446 -0.014789858832955 0.019168073311448 0.006087969522923 0.004976891446859 -0.039910666644573 -0.004382765851915 0.141614496707916 0.010874284431338 -0.037439629435539 0.022430740296841 -0.045225199311972 0.013460964895785 -0.031093016266823 0.025672785937786 -0.068451665341854 0.012860313989222 -0.005423087161034 0.005550674162805 -0.014072054065764 -0.019920282065868 -0.001969676464796 -0.019986122846603 -0.042682986706495 0.014476632699370 -0.016176890581846 -0.004903431516141 0.041088148951530 -0.002709285356104
-0.022906901314855 0.073598697781563 -0.130266606807709 0.074894227087498 -0.018908800557256 -0.013779329136014 -0.030430143699050 -0.011585868895054 -0.004236381500959 -0.067720398306847 -0.026900727301836 -0.028375899419188 -0.041147548705339 -0.154412850737572 -0.063987120985985 -0.031687427312136 -0.023951966315508 -0.071447268128395 -0.012630491517484 -0.024333458393812 -0.061360374093056 -0.025999417528510 -0.015898227691650 -0.010279836133122 0.021550601348281 -0.021565005183220 -0.066132590174675 0.014811424538493 -0.004913046956062 -0.026631727814674 -0.021869735792279 -0.069472774863243 -0.073764272034168 0.004702859558165 -0.070622995495796 -0.031215362250805 -0.030338007956743 -0.103844903409481 -0.029942629858851 -0.009410000406206 -0.205940574407578 -0.023694653064013 0.021172408014536 -0.016845446079969 -0.090155221521854 0.056070011109114 0.029499476775527 -0.001577957067639 -0.073584593832493 0.000442595133791 -0.074753582477570 -0.026458937674761 -0.014370764605701 -0.011801647022367 -0.026161532849073 -0.039498303085566 -0.044499482959509 -0.059389352798462 -0.016063660383224 -0.016420817002654 -0.026135325431824 -0.043562792241573 0.027751304209232 0.006914262659848
0.023103555664420 -0.078689403831959 0.006529085803777 -0.074364133179188 0.012001997791231 -0.000633503252175 0.015069949440658 -0.007903628982604 -0.002430172404274 -0.066746659576893 0.007750988006592 -0.060150124132633 -0.012524822726846 -0.074289523065090 -0.051681187003851 0.015150473453104 0.052621003240347 0.020570931956172 0.014161302708089 0.043448317795992 -0.047667540609837 -0.005186018068343 0.025722460821271 -0.000116439310659 -0.053813438862562 -0.003753440687433 -0.067791916429996 -0.098377168178558 0.000286894763121 0.009348058141768 -0.031084515154362 -0.076322540640831 -0.001358403475024 -0.042609944939613 -0.047904293984175 0.010557902976871 0.006242423318326 0.001468430738896 0.008865825831890 -0.012952023185790 0.042806498706341 -0.021103523671627 -0.079045064747334 -0.037235014140606 -0.049685325473547 -0.069557897746563 -0.050535228103399 -0.009232505224645 -0.022948374971747 -0.184073939919472 -0.072664864361286 0.009199666790664 0.012116734869778 0.001375093008392 0.020366616547108 0.021496282890439 -0.025037817656994 -0.022388985380530 -0.004602558445185 0.002335156779736 -0.021734736859798 -0.007449890021235 -0.024993108585477 0.013947824016213
0.095256350934505 0.053976558148861 -0.022051081061363 0.020725749433041 0.056296024471521 -0.008124195039272 0.045937936753035 0.014189210720360 0.041540168225765 0.036998353898525 0.061927713453770 -0.030011272057891 0.056495282799006 -0.029729677364230 0.075493745505810 0.019014537334442 0.063903935253620 -0.058120921254158 -0.025615291669965 0.045908335596323 -0.002547753741965 0.051909770816565 0.031159877777100 0.033284414559603 0.024121133610606 0.033765137195587 0.090338006615639 0.054102387279272 0.066205918788910 0.032318390905857 0.054132226854563 -0.065280869603157 0.042767651379108 0.119839124381542 -0.058585412800312 0.080517508089542 0.037448778748512 -0.058668766170740 0.038325656205416 0.046084772795439 -0.042290702462196 0.023650478571653 0.167583048343658 0.083287261426449 0.201401442289352 0.092687815427780 -0.015133367851377 0.017204288393259 0.073578104376793 -0.020213935524225 -0.024102829396725 0.021845282986760 0.082321025431156 0.050980530679226 0.075679630041122 0.098197877407074 -0.171546801924706 0.059122834354639 -0.001977104693651 0.020247494801879 0.041550349444151 0.030500249937177 -0.010843930765986 0.087727338075638
-0.039209600538015 0.013060734607279 -0.080394752323627 0.145574048161507 0.008231773972511 -0.056464165449142 0.004268041811883 -0.090880967676640 0.007618831470609 -0.114440023899078 -0.027036493644118 -0.069757819175720 0.036005012691021 0.013050172477961 0.098728395998478 -0.035691164433956 -0.018416447564960 -0.020493395626545 -0.095489844679832 -0.008207519538701 0.024565186351538 -0.067661367356777 -0.015616763383150 -0.024500485509634 -0.019669607281685 0.043614793568850 -0.003225121879950 -0.032289024442434 -0.025062533095479 -0.002991555724293 -0.013930952176452 0.090160116553307 0.047154363244772 -0.041426386684179 0.027322692796588 -0.143977284431458 0.245373979210854 -0.061459753662348 -0.025027548894286 -0.025464512407780 -0.278315842151642 0.030271284282207 0.049314741045237 -0.008110944181681 -0.072639204561710 0.038999442011118 -0.113138206303120 -0.012146048247814 0.020912609994411 -0.057032570242882 -0.026323657482862 0.150926634669304 -0.008811434730887 -0.035991147160530 -0.020951740443707 0.028556140139699 0.038936190307140 0.219484359025955 0.004062323365360 -0.003672512946650 -0.033614158630371 0.050484143197536 -0.045691397041082 -0.013285732828081
0.063854791224003 -0.014124069362879 0.056827891618013 0.022228669375181 0.046692334115505 0.081009864807129 0.041355032473803 0.024385645985603 -0.024058291688561 -0.006812520790845 0.054077673703432 0.008206441998482 0.051952984184027 0.016762046143413 0.002525739371777 0.044396061450243 0.064955286681652 0.145889908075333 -0.018873907625675 0.070175729691982 0.056412100791931 0.068605363368988 0.050208024680614 0.033611927181482 -0.022151228040457 -0.068646721541882 -0.015541050583124 0.020869532600045 0.033152241259813 -0.033874649554491 0.016389865428209 -0.154510542750359 0.112002290785313 0.095020748674870 -0.085776425898075 -0.089433602988720 0.269800335168839 0.131288990378380 0.043683692812920 0.010413166135550 0.057029861956835 0.028607185930014 0.050974875688553 0.036483317613602 0.151584550738335 0.115232214331627 0.038931135088205 0.003709297627211 0.096834026277065 0.258253812789917 0.017082601785660 0.054976683109999 0.066775374114513 0.018394529819489 0.037394046783447 0.150290817022324 -0.137083142995834 0.193204835057259 -0.104420408606529 0.061291124671698 0.032823249697685 -0.008108680136502 0.237387597560883 -0.023822592571378
0.029874924570322 -0.032658435404301 0.101674266159534 -0.086150437593460 0.000535944185685 0.046404946595430 0.021985974162817 0.019860116764903 0.014747451059520 0.042851109057665 0.021610207855701 0.209628582000732 0.006134931929410 0.166623204946518 0.068848960101604 0.009284240193665 0.018830498680472 -0.012239873409271 0.019335538148880 0.027344346046448 0.019217187538743 0.083138346672058 0.007357787340879 0.010143871419132 -0.010407542809844 0.111787892878056 0.015016249381006 0.005478956736624 0.008039352484047 0.079678311944008 0.018383750692010 0.033288262784481 0.010028887540102 -0.036763887852430 0.119832888245583 0.208661019802094 -0.043474268168211 0.013091289438307 -0.000831746961921 0.016166485846043 0.025456625968218 0.027593914419413 -0.159636154770851 0.000015734705812 0.129880607128143 -0.055440366268158 0.054411809891462 0.007138071116060 0.087453238666058 -0.022906782105565 0.120116032660007 0.076038651168346 0.029359046369791 -0.001595964655280 0.032225403934717 0.077915273606777 0.032151482999325 0.204497456550598 -0.074692077934742 0.025177013128996 -0.014816376380622 0.010557021945715 -0.132041871547699 0.116476230323315
